-0.043657191097736359
-0.006668988149613142
-0.013280187733471394
-0.011539918370544910
-0.020516306161880493
-0.039752509444952011
-0.006937227677553892
-0.019401853904128075
0.014247741550207138
0.004643006250262260
-0.026123180985450745
0.027128441259264946
0.008327316492795944
-0.044607043266296387
-0.055893722921609879
-0.020300373435020447
-0.007997092790901661
0.024838075041770935
-0.057798158377408981
-0.037035003304481506
0.049019824713468552
-0.016828598454594612
-0.019648225978016853
-0.014457019045948982
0.013712128624320030
0.002847497351467609
-0.010965323075652122
-0.042339459061622620
-0.006548350211232901
-0.007362440694123507
-0.031517930328845978
-0.009698995389044285
-0.028635889291763306
0.040456872433423996
0.033517736941576004
-0.026112923398613930
0.025878321379423141
-0.036635428667068481
0.010360194370150566
0.027616504579782486
-0.048425577580928802
-0.024963811039924622
-0.027985831722617149
0.027859922498464584
-0.024434518069028854
-0.063373386859893799
0.050591442734003067
-0.049375422298908234
-0.004932799842208624
0.003063306678086519
-0.026805611327290535
-0.005991728976368904
-0.070978879928588867
0.007260028738528490
-0.021101612597703934
-0.035393342375755310
-0.049012303352355957
-0.009501221589744091
-0.041853904724121094
0.004891195334494114
-0.026950780302286148
-0.006287064403295517
-0.049012374132871628
-0.016071185469627380
0.047194115817546844
-0.075576342642307281
-0.020114274695515633
0.016734298318624496
0.003153366036713123
-0.025979006662964821
0.002799368696287274
0.006830609403550625
0.018933044746518135
-0.006250934209674597
-0.009902471676468849
0.074531532824039459
-0.041937068104743958
-0.048683162778615952
0.020304230973124504
0.018547521904110909
-0.002909915521740913
-0.061875432729721069
-0.025781607255339622
-0.028556618839502335
-0.005329220090061426
0.005736886058002710
-0.052408333867788315
-0.002343848813325167
-0.032982233911752701
-0.003515345975756645
-0.063627660274505615
-0.010360909625887871
-0.040963441133499146
-0.013829153962433338
0.024002559483051300
0.006154609378427267
-0.037257622927427292
0.000801846967078745
0.001121702487580478
-0.049796968698501587
