0.002125185448676348,0.013947712257504463,0.002436009468510747,0.015415156260132790,-0.094130694866180420,-0.106522649526596069,0.067625485360622406,-0.088251218199729919
0.032051209360361099,-0.048792999237775803,0.003602979937568307,-0.049125883728265762,-0.049261622130870819,-0.145215108990669250,0.038556404411792755,-0.144000217318534851
-0.049751713871955872,-0.157746821641921997,0.018977271392941475,0.114342458546161652,-0.001616610446944833,-0.035511113703250885,0.082859054207801819,0.070736937224864960
-0.168511405587196350,0.018134145066142082,0.006790447980165482,0.026562884449958801,-0.124176360666751862,-0.116334974765777588,-0.025647578760981560,0.095406256616115570
0.123219147324562073,-0.022328231483697891,0.064628697931766510,-0.090721428394317627,-0.035965695977210999,0.063200950622558594,0.005503687076270580,-0.053206566721200943
0.085464335978031158,-0.006128122564405203,0.019719161093235016,-0.005796291399747133,0.131256416440010071,0.126447841525077820,0.046871747821569443,-0.206210598349571228
-0.184182137250900269,0.059952437877655029,-0.055800236761569977,0.104467771947383881,-0.168135210871696472,0.043214701116085052,-0.057607583701610565,0.024104341864585876
0.012001851573586464,0.089853532612323761,0.016627170145511627,-0.070344246923923492,-0.107902616262435913,0.160995006561279297,-0.127499833703041077,0.133606165647506714
0.026203747838735580,0.055237978696823120,0.008780443109571934,-0.195293977856636047,0.073957107961177826,-0.025606816634535789,-0.080225877463817596,0.015934107825160027
