0.007222210522741079
-0.030195577070116997
-0.049059234559535980
-0.026292998343706131
0.039203897118568420
0.017790930345654488
-0.008923108689486980
-0.017883466556668282
0.039807971566915512
0.059517432004213333
0.020910406485199928
0.011505515314638615
-0.049187988042831421
0.035500969737768173
-0.013229711912572384
0.032149098813533783
-0.001984769478440285
0.005404618103057146
0.024794949218630791
0.021684216335415840
0.003317554248496890
-0.016418347135186195
0.027331277728080750
0.058131918311119080
0.043851163238286972
0.042381949722766876
0.045582585036754608
0.008814902044832706
-0.034539751708507538
0.032217357307672501
0.029024224728345871
-0.008431427180767059
-0.095491446554660797
0.089456491172313690
0.023948412388563156
0.016331775113940239
0.001285284175537527
0.123685985803604126
0.000794681604020298
0.017657242715358734
-0.009872458875179291
-0.006872208788990974
-0.043205838650465012
0.062958195805549622
0.008465658873319626
-0.000682584010064602
-0.002127781044691801
0.030756473541259766
0.037224009633064270
-0.021865570917725563
0.007788947317749262
0.032063014805316925
0.064709350466728210
0.023762065917253494
0.059265144169330597
0.097243592143058777
0.102028183639049530
0.062389325350522995
-0.048912722617387772
0.026560431346297264
-0.020029233768582344
0.045515965670347214
0.049672123044729233
-0.023221731185913086
0.065284617245197296
0.017456719651818275
-0.009773467667400837
-0.018878323957324028
-0.020842753350734711
0.048059590160846710
-0.043914470821619034
-0.016714993864297867
-0.041991882026195526
-0.012382612563669682
0.025816282257437706
0.001637081848457456
0.026830023154616356
0.062408726662397385
-0.020146634429693222
-0.029832981526851654
0.029529470950365067
-0.012757292948663235
-0.010305419564247131
0.056102260947227478
0.013570843264460564
0.072754040360450745
-0.054810147732496262
-0.000727370847016573
0.018210647627711296
0.056484527885913849
0.001005714992061257
0.024428589269518852
0.054766800254583359
0.014238903298974037
0.031779322773218155
0.074178524315357208
0.063330650329589844
0.017835531383752823
0.061221662908792496
