0.121027939021587372,-0.007026055827736855,-0.016166608780622482,-0.053558200597763062,0.010386114008724689,-0.078037671744823456,0.230766460299491882,-0.012247896753251553,-0.118091017007827759,-0.021822817623615265,-0.075796097517013550,0.012450001202523708,-0.088491454720497131,0.070025011897087097,0.006169428583234549,0.024092897772789001
-0.001098550157621503,0.004437212832272053,-0.067235775291919708,0.054475422948598862,-0.078404843807220459,-0.037370234727859497,-0.118305243551731110,0.056201461702585220,-0.035599417984485626,-0.042325615882873535,0.068751871585845947,-0.026576817035675049,-0.029829055070877075,-0.002846068935468793,0.071854241192340851,-0.137948289513587952
0.119797065854072571,-0.041050516068935394,-0.044663175940513611,0.024713037535548210,-0.058745104819536209,-0.013319730758666992,0.022544085979461670,-0.032280754297971725,0.048040419816970825,0.025972429662942886,-0.052847530692815781,-0.030446488410234451,-0.073633864521980286,0.005375101231038570,0.060178510844707489,-0.011810719966888428
0.042760331183671951,-0.075948446989059448,0.147206798195838928,-0.027345953509211540,0.140610530972480774,-0.028109319508075714,-0.057509485632181168,-0.052355132997035980,0.053876847028732300,-0.250456899404525757,-0.038018930703401566,0.002145295729860663,-0.061424542218446732,-0.042570386081933975,-0.166156366467475891,-0.104391969740390778
0.226466819643974304,0.026873987168073654,0.024719439446926117,-0.023087348788976669,-0.144864544272422791,-0.077097423374652863,0.055330809205770493,-0.050068058073520660,0.054741147905588150,-0.082025200128555298,-0.006665879860520363,-0.069158665835857391,0.063523754477500916,-0.028245661407709122,-0.085735559463500977,0.052666682749986649
-0.046586301177740097,0.059989605098962784,-0.010266005992889404,-0.011463179253041744,-0.190431401133537292,0.042699001729488373,-0.127866879105567932,0.030536172911524773,0.052389416843652725,0.048769209533929825,0.039621893316507339,-0.004083517007529736,-0.010399578139185905,-0.106773868203163147,0.024264080449938774,-0.088754020631313324
0.110400766134262085,-0.066735677421092987,-0.021840360015630722,0.064158588647842407,0.004546243697404861,-0.057798780500888824,0.057555355131626129,-0.147427618503570557,-0.015625398606061935,0.055286653339862823,0.027546176686882973,-0.000256141473073512,0.003160397754982114,0.061679657548666000,-0.004111472051590681,-0.054314132779836655
-0.049008999019861221,-0.325223207473754883,-0.038759816437959671,0.009028365835547447,-0.052020985633134842,-0.192193925380706787,0.027910711243748665,-0.066689558327198029,-0.265598475933074951,-0.001783331157639623,0.082006864249706268,0.008395451121032238,0.124643690884113312,-0.040448758751153946,0.002348171779885888,-0.090626314282417297
-0.059851031750440598,0.039767220616340637,0.098207168281078339,-0.022777494043111801,0.093878917396068573,-0.062163341790437698,0.120921626687049866,-0.031006291508674622,-0.088934279978275299,0.016468118876218796,0.050275597721338272,-0.084116317331790924,0.068139992654323578,0.050224054604768753,-0.207437157630920410,0.016021471470594406
-0.040346033871173859,-0.226023867726325989,-0.026634050533175468,0.063445560634136200,0.030843352898955345,-0.066824853420257568,-0.029012979939579964,0.030106658115983009,-0.022220076993107796,-0.054341688752174377,0.043396688997745514,0.075969144701957703,0.005775920115411282,0.011637223884463310,0.032501198351383209,0.007952809333801270
-0.022356988862156868,0.064928703010082245,-0.015962908044457436,-0.032334297895431519,-0.038395419716835022,-0.143134340643882751,0.070873029530048370,-0.082530625164508820,0.070416375994682312,0.027682418003678322,-0.064713135361671448,-0.085763655602931976,0.056810025125741959,-0.045893460512161255,0.078786663711071014,0.048078313469886780
-0.018390500918030739,-0.087456375360488892,-0.268364489078521729,-0.071266211569309235,-0.137630581855773926,0.014628692530095577,-0.073434896767139435,-0.016228994354605675,-0.007241005543619394,-0.014827278442680836,-0.049718797206878662,-0.025024892762303352,-0.122531823813915253,0.040663015097379684,-0.044829301536083221,-0.076991088688373566
0.062951676547527313,0.095886394381523132,0.061380099505186081,0.071054719388484955,-0.092243812978267670,0.105174019932746887,0.177665814757347107,0.020139897242188454,0.126163899898529053,-0.067235320806503296,-0.081861138343811035,-0.179554417729377747,-0.119565375149250031,0.063946589827537537,-0.122623376548290253,0.084460914134979248
-0.109572052955627441,0.042056635022163391,0.023820975795388222,0.029718216508626938,0.049523361027240753,-0.051388483494520187,0.031856253743171692,0.063669830560684204,0.053763505071401596,-0.052190274000167847,-0.024086099117994308,0.057035215198993683,-0.018565757200121880,-0.093722410500049591,-0.116792760789394379,-0.002971775596961379
0.032723620533943176,0.019715448841452599,0.026284553110599518,0.063571989536285400,-0.061511050909757614,0.058634813874959946,-0.019966671243309975,-0.044365894049406052,0.145699381828308105,-0.130351483821868896,-0.006291894707828760,0.019499486312270164,0.056043591350317001,-0.056954730302095413,0.009003145620226860,-0.177008509635925293
-0.071729578077793121,-0.539778530597686768,-0.074166990816593170,0.035950411111116409,-0.055429734289646149,-0.044543910771608353,0.029010869562625885,-0.038937561213970184,-0.108758114278316498,0.021294340491294861,0.017763070762157440,-0.033141799271106720,0.029565436765551567,-0.071496181190013885,-0.158723399043083191,-0.026185700669884682
-0.071347974240779877,-0.089663438498973846,0.042944524437189102,0.005016927607357502,-0.011812587268650532,-0.127749785780906677,0.090377494692802429,-0.031845830380916595,-0.079790122807025909,-0.205211818218231201,-0.089742891490459442,-0.080449476838111877,0.005766357295215130,-0.135344535112380981,-0.046164765954017639,0.034017417579889297
-0.194882690906524658,-0.030799726024270058,-0.040343936532735825,0.079170733690261841,0.029206931591033936,-0.139965042471885681,0.019965652376413345,-0.003149527823552489,-0.154293894767761230,-0.036458387970924377,0.043435052037239075,0.120307452976703644,0.080286048352718353,-0.075151078402996063,0.181337460875511169,-0.076608717441558838
-0.122725151479244232,0.088078111410140991,0.056167278438806534,0.094801500439643860,-0.010303281247615814,-0.111427001655101776,0.116279207170009613,-0.048883203417062759,-0.060129471123218536,-0.044634953141212463,-0.001375031773932278,-0.046523258090019226,0.042327411472797394,-0.097150810062885284,0.040572922676801682,-0.014711319468915462
0.043455168604850769,-0.201924562454223633,-0.048392906785011292,-0.038791608065366745,0.086271934211254120,-0.219332396984100342,-0.077391490340232849,-0.020951472222805023,0.104541197419166565,0.083277136087417603,-0.143826797604560852,-0.157903403043746948,-0.167024627327919006,0.117461673915386200,0.098117470741271973,0.150281667709350586
-0.113002866506576538,0.055701520293951035,0.112212017178535461,-0.024620760232210159,-0.048820603638887405,-0.230915874242782593,0.100204117596149445,-0.016285700723528862,-0.024093689396977425,-0.005855436436831951,-0.077959597110748291,-0.129046037793159485,-0.088258206844329834,0.015691777691245079,-0.099832013249397278,-0.252936750650405884
-0.087477229535579681,-0.056121595203876495,0.016138127073645592,0.161822915077209473,0.009801728650927544,-0.043580219149589539,0.094876214861869812,0.131856381893157959,-0.167364135384559631,-0.158224359154701233,-0.008160240948200226,0.008287495002150536,-0.076717749238014221,-0.172961860895156860,-0.165322616696357727,0.068628594279289246
-0.037389434874057770,-0.110805742442607880,-0.123436726629734039,-0.066307678818702698,-0.083825558423995972,-0.048987630754709244,0.028137439861893654,0.008206272497773170,0.000165289704455063,0.112756535410881042,-0.132120698690414429,-0.144316524267196655,-0.111070930957794189,0.003251366782933474,-0.010993494652211666,0.043752823024988174
-0.179965123534202576,-0.333880215883255005,0.025815606117248535,-0.017711576074361801,-0.053264655172824860,0.003067127428948879,-0.079112559556961060,-0.043727844953536987,-0.105421550571918488,-0.065786048769950867,-0.085254572331905365,0.064625769853591919,-0.005446227267384529,-0.048748038709163666,0.019772524014115334,-0.045586802065372467
0.049057569354772568,0.001527705579064786,-0.018680777400732040,0.094068825244903564,-0.042749911546707153,-0.090986363589763641,-0.125519409775733948,0.029762228950858116,0.048605650663375854,0.122394405305385590,-0.026763999834656715,-0.026378463953733444,-0.125233113765716553,0.113633386790752411,0.028957348316907883,-0.035816092044115067
-0.094742178916931152,-0.083980783820152283,-0.121988892555236816,-0.130383417010307312,0.119741432368755341,0.062460288405418396,-0.065248593688011169,0.000888591283001006,-0.023002766072750092,0.016261698678135872,0.020021336153149605,-0.003579862415790558,-0.015234486199915409,-0.222373753786087036,-0.140266656875610352,-0.104915477335453033
0.044678181409835815,0.001141609624028206,-0.103077672421932220,0.009053160436451435,-0.064050287008285522,-0.041064977645874023,-0.171466395258903503,-0.015997078269720078,0.075715579092502594,0.015610557980835438,-0.034357026219367981,-0.042064409703016281,-0.097801901400089264,0.025767125189304352,-0.016821233555674553,-0.024402635172009468
0.043671388179063797,-0.118970327079296112,-0.006560518406331539,0.101897723972797394,-0.113553069531917572,-0.207159146666526794,-0.066541530191898346,-0.133288264274597168,0.079041175544261932,-0.143370345234870911,-0.008373058401048183,0.023432111367583275,-0.207932263612747192,-0.068239130079746246,-0.099956125020980835,-0.164429053664207458
-0.067944787442684174,0.031670935451984406,0.079841814935207367,0.059493917971849442,-0.106681518256664276,-0.072716176509857178,-0.186588257551193237,-0.067032232880592346,0.039438992738723755,0.172700449824333191,-0.063220180571079254,-0.005564029328525066,-0.176097273826599121,0.129167407751083374,-0.117560513317584991,-0.027421036735177040
-0.182959988713264465,-0.035752963274717331,-0.091060921549797058,-0.205262839794158936,0.149776488542556763,0.051976006478071213,-0.113490320742130280,-0.076083682477474213,-0.183894962072372437,0.175840377807617188,0.007776753045618534,0.054829794913530350,-0.008953661657869816,-0.210458204150199890,-0.038224373012781143,0.003842322854325175
0.094749383628368378,-0.054785519838333130,-0.081143766641616821,0.199369132518768311,-0.059647932648658752,-0.029890015721321106,0.039107903838157654,0.083909645676612854,0.029601652175188065,-0.025097986683249474,0.024621101096272469,0.009356239810585976,-0.143694132566452026,0.077159360051155090,-0.039643540978431702,0.015773613005876541
0.047616917639970779,-0.098727546632289886,0.039744794368743896,-0.088494695723056793,0.020470816642045975,-0.053966470062732697,0.227807506918907166,0.009251082316040993,-0.155531808733940125,0.061521839350461960,0.127028316259384155,-0.149603486061096191,-0.007290019653737545,-0.163671478629112244,-0.120919167995452881,-0.204757615923881531
-0.214806035161018372,-0.000781283364631236,0.006404579151421785,0.016743456944823265,-0.040302451699972153,0.009506500326097012,-0.016667306423187256,-0.024033471941947937,-0.096278816461563110,0.122386001050472260,0.061302941292524338,-0.062729530036449432,-0.124116189777851105,0.036966640502214432,-0.041526645421981812,0.059898309409618378
-0.012920682318508625,-0.053809747099876404,-0.132231369614601135,0.005452617537230253,0.003322096774354577,0.093516938388347626,-0.207391098141670227,0.013846822082996368,0.030590208247303963,-0.021592384204268456,0.003067814046517015,-0.010310566984117031,-0.023255728185176849,0.024893280118703842,-0.028917083516716957,-0.028853874653577805
-0.090739212930202484,0.019947083666920662,0.037251044064760208,0.143341124057769775,0.049044474959373474,-0.020228737965226173,0.010643553920090199,0.024334786459803581,-0.088711582124233246,0.026108115911483765,0.020266097038984299,0.079702541232109070,-0.036243237555027008,0.066092312335968018,0.005126263014972210,0.045843373984098434
-0.163316279649734497,-0.063342183828353882,-0.088949449360370636,0.032432768493890762,0.051873803138732910,-0.030210489407181740,0.110142342746257782,0.005861148703843355,0.112754710018634796,0.044669389724731445,0.010433685965836048,-0.057775292545557022,-0.172304823994636536,0.103061966598033905,-0.011268590576946735,-0.215447157621383667
-0.066702991724014282,0.026973625645041466,0.140602305531501770,0.127172991633415222,0.008770063519477844,-0.169540390372276306,-0.090996883809566498,0.001411120872944593,-0.078602142632007599,0.129740118980407715,0.077630259096622467,-0.170034423470497131,-0.112957827746868134,0.078655719757080078,-0.117908112704753876,-0.003685618285089731
0.017732543870806694,-0.074641205370426178,0.087528906762599945,0.065628193318843842,0.133434340357780457,0.030649187043309212,-0.288237035274505615,-0.059034410864114761,-0.125068619847297668,-0.081864289939403534,-0.005556400399655104,0.026481660082936287,0.015781950205564499,-0.107319816946983337,-0.308412045240402222,-0.016764564439654350
-0.040122937411069870,-0.016807017847895622,0.051875717937946320,0.105128094553947449,0.001044675009325147,-0.092320740222930908,0.130284324288368225,-0.077002450823783875,0.111615508794784546,-0.119846031069755554,0.036859259009361267,0.144223421812057495,-0.023497572168707848,0.010258249938488007,0.037594333291053772,-0.108181007206439972
-0.206332400441169739,-0.092563904821872711,-0.217217594385147095,0.044322095811367035,-0.161806941032409668,0.180140614509582520,0.183917731046676636,0.149676039814949036,-0.003742585657164454,0.021183075383305550,-0.024446792900562286,0.072118386626243591,-0.143207803368568420,0.027279630303382874,-0.423042327165603638,-0.214063361287117004
0.004764291457831860,-0.115515083074569702,0.034004338085651398,-0.138782858848571777,-0.086098663508892059,0.001338593079708517,0.018650887534022331,0.004452840890735388,-0.142900526523590088,-0.072109796106815338,-0.031347207725048065,0.103289000689983368,0.097171373665332794,0.000262089364696294,-0.031525764614343643,0.026004966348409653
0.080657787621021271,0.182887807488441467,0.020833246409893036,-0.172103196382522583,-0.145735204219818115,0.007056294009089470,-0.131993487477302551,0.083568997681140900,-0.000278926570899785,-0.132945150136947632,-0.181508362293243408,0.030740076676011086,-0.049639727920293808,0.056714706122875214,0.032591037452220917,0.185531407594680786
-0.023467766121029854,-0.005950121674686670,-0.028497964143753052,0.000121841600048356,0.040802262723445892,-0.034367546439170837,0.044780839234590530,-0.085501708090305328,-0.226173862814903259,-0.105063252151012421,0.026750707998871803,0.129040926694869995,0.099398352205753326,-0.060814421623945236,0.031759534031152725,-0.087737329304218292
-0.135329902172088623,-0.129200473427772522,-0.090635284781455994,0.058946937322616577,0.055536080151796341,-0.050763700157403946,0.058657079935073853,0.035229586064815521,0.012068177573382854,0.113981343805789948,-0.189397558569908142,-0.069109760224819183,-0.064492665231227875,0.227000087499618530,0.098373405635356903,0.150838315486907959
-0.027842586860060692,0.012394865043461323,0.104278527200222015,-0.086316868662834167,-0.084301106631755829,-0.083298943936824799,-0.025051925331354141,-0.022170493379235268,-0.121909849345684052,0.032465826719999313,-0.071041822433471680,-0.298276811838150024,-0.105334028601646423,-0.069544419646263123,0.015723774209618568,-0.102177970111370087
0.116483315825462341,-0.069044187664985657,-0.087454967200756073,0.003033894812688231,0.040878389030694962,-0.017615325748920441,-0.167196363210678101,-0.005753721110522747,-0.013740394264459610,-0.185494691133499146,-0.018952529877424240,-0.133767962455749512,0.036834709346294403,-0.055219370871782303,-0.129376411437988281,-0.059165213257074356
-0.145078688859939575,0.001587406382896006,-0.136787414550781250,0.051042195409536362,0.065207540988922119,0.150822952389717102,0.134405538439750671,-0.162483721971511841,-0.049661051481962204,0.047254312783479691,-0.046159707009792328,0.027918457984924316,-0.097505375742912292,-0.334780901670455933,0.044973321259021759,-0.067953929305076599
-0.087562136352062225,-0.011458120308816433,-0.012930953875184059,-0.106616683304309845,-0.030234718695282936,0.090807929635047913,0.037518262863159180,0.152636826038360596,0.119430638849735260,-0.110735476016998291,-0.305438786745071411,0.036422990262508392,-0.171161741018295288,0.065060116350650787,-0.141124129295349121,-0.000117311748908833
-0.035611309111118317,-0.066687211394309998,-0.029710583388805389,-0.167120516300201416,-0.094959735870361328,-0.106330528855323792,-0.088888734579086304,-0.014083049260079861,0.127209082245826721,0.051542147994041443,-0.064342401921749115,0.011250782757997513,-0.023175340145826340,0.067328929901123047,0.075602270662784576,-0.096484757959842682
-0.118593372404575348,0.016578473150730133,-0.176629006862640381,-0.016713026911020279,-0.154645398259162903,-0.000156213689479046,0.059999026358127594,-0.200987547636032104,0.032921824604272842,-0.021985784173011780,-0.110752582550048828,-0.086683854460716248,0.062683857977390289,-0.119230926036834717,-0.131116211414337158,-0.034694857895374298
-0.137856140732765198,0.027411492541432381,-0.141372755169868469,-0.084036141633987427,0.035899311304092407,0.030672060325741768,-0.076666213572025299,-0.033165127038955688,-0.001460609142668545,0.080909840762615204,-0.045212566852569580,-0.030015915632247925,0.020293001085519791,0.027642849832773209,0.068819947540760040,0.019808882847428322
-0.072671271860599518,0.066162370145320892,-0.010145664215087891,0.017120230942964554,0.024678908288478851,0.025857100263237953,-0.012398618273437023,0.034704953432083130,0.034087255597114563,-0.024793811142444611,0.035166747868061066,0.011171367950737476,-0.147086188197135925,-0.015239185653626919,0.071053445339202881,-0.094910353422164917
-0.017892561852931976,0.061757512390613556,0.079684883356094360,-0.206390202045440674,-0.038200575858354568,-0.115763649344444275,0.040381189435720444,-0.086675025522708893,-0.026143649592995644,-0.067968986928462982,-0.126399934291839600,-0.098267391324043274,-0.142562389373779297,0.031046655029058456,-0.056594654917716980,0.048437181860208511
-0.069602809846401215,-0.188140913844108582,-0.103787541389465332,-0.188672184944152832,-0.022159781306982040,-0.020918808877468109,0.141742914915084839,-0.092034004628658295,-0.157771259546279907,0.127069309353828430,-0.151799932122230530,-0.202993825078010559,0.086260743439197540,0.040771815925836563,-0.096567168831825256,0.021372096613049507
-0.036587376147508621,0.092839904129505157,-0.005669257603585720,0.005188761744648218,0.137821584939956665,0.068189501762390137,-0.198339521884918213,0.055531397461891174,0.006952214520424604,-0.121596224606037140,0.018946900963783264,-0.003325254190713167,0.090704426169395447,0.125810489058494568,0.091071009635925293,0.022141054272651672
-0.240309402346611023,0.096750989556312561,0.170839816331863403,0.132758006453514099,-0.107297778129577637,0.144289731979370117,0.099103786051273346,0.070738635957241058,0.018491253256797791,-0.003104617586359382,-0.099811203777790070,0.007270087953656912,-0.048766359686851501,-0.065500415861606598,-0.112118504941463470,-0.107957355678081512
0.054665256291627884,0.094867728650569916,0.085301354527473450,-0.160947084426879883,-0.145452573895454407,0.067613296210765839,0.113581605255603790,0.168932840228080750,0.018633674830198288,-0.138914972543716431,-0.078143462538719177,0.084313869476318359,-0.031998429447412491,0.086146287620067596,-0.114744506776332855,0.018729781731963158
-0.059347558766603470,0.046030730009078979,-0.226541325449943542,-0.099177487194538116,-0.049549903720617294,0.034623015671968460,0.087495923042297363,-0.097833745181560516,-0.029792841523885727,-0.108251102268695831,-0.239599302411079407,-0.000360176461981609,0.078008994460105896,0.078579358756542206,-0.134949460625648499,-0.003057160880416632
-0.086049705743789673,0.077256970107555389,0.030230836942791939,-0.109478361904621124,-0.025738444179296494,0.087052233517169952,-0.035963173955678940,0.075458601117134094,-0.156877875328063965,-0.114008948206901550,-0.044682405889034271,-0.006317747756838799,0.065643452107906342,0.046000011265277863,0.024271529167890549,0.069910749793052673
-0.175847262144088745,0.059081505984067917,0.062733970582485199,0.041299939155578613,0.024608993902802467,-0.025425462052226067,-0.045553453266620636,-0.004348567221313715,0.091120027005672455,0.064265966415405273,-0.211612164974212646,-0.122810311615467072,-0.026854844763875008,-0.069574527442455292,0.064335189759731293,-0.072223044931888580
-0.034389968961477280,-0.055425636470317841,0.080414474010467529,-0.332790017127990723,-0.093218937516212463,0.046899132430553436,-0.047851663082838058,-0.099367506802082062,-0.017245687544345856,0.019197545945644379,-0.073871850967407227,-0.066908538341522217,-0.065914303064346313,0.091849811375141144,-0.026208732277154922,-0.017151506617665291
0.080072559416294098,-0.140450850129127502,-0.059306282550096512,-0.199339047074317932,-0.147894307971000671,-0.012217258103191853,-0.035989537835121155,-0.122961953282356262,-0.077643334865570068,-0.191796854138374329,-0.045037005096673965,0.115462116897106171,0.180519789457321167,-0.065307974815368652,-0.257002919912338257,-0.083296336233615875
-0.105462007224559784,-0.014596330001950264,0.080543808639049530,0.045540846884250641,0.087739981710910797,0.023368762806057930,-0.118634015321731567,0.056743491441011429,-0.083236746490001678,-0.023467371240258217,0.029043305665254593,0.070711128413677216,0.062126182019710541,0.104290597140789032,0.122456364333629608,-0.065233819186687469
-0.249234065413475037,0.158031895756721497,-0.062483854591846466,0.167684137821197510,-0.085346892476081848,0.093483783304691315,0.128278046846389771,0.082401953637599945,0.021883519366383553,-0.082930758595466614,-0.198646321892738342,-0.001486556604504585,-0.218512803316116333,-0.092858619987964630,-0.128005221486091614,-0.217679560184478760
0.114049941301345825,-0.101498782634735107,0.099480681121349335,-0.181748345494270325,0.011656709015369415,0.022718055173754692,-0.160015985369682312,0.115214385092258453,0.207811683416366577,-0.129762977361679077,0.271100372076034546,0.008074237965047359,-0.140757039189338684,-0.065644413232803345,-0.040709886699914932,-0.105029024183750153
0.071272723376750946,0.157704547047615051,0.100154317915439606,0.006603128742426634,-0.107673287391662598,0.069817423820495605,-0.014199764467775822,0.135643526911735535,0.003111923811957240,-0.081338420510292053,-0.036214847117662430,-0.033058777451515198,-0.150599867105484009,0.024094972759485245,-0.034396130591630936,0.191136404871940613
0.065705470740795135,0.080369815230369568,0.094118900597095490,-0.228770688176155090,-0.061479866504669189,0.023457556962966919,-0.075714059174060822,0.109505251049995422,0.029218474403023720,-0.162754371762275696,0.109812982380390167,0.052885390818119049,0.027410777285695076,-0.011740634217858315,0.041650742292404175,0.011730031110346317
0.123709715902805328,-0.128860995173454285,0.013550569303333759,-0.321254789829254150,-0.009978038258850574,0.032693140208721161,-0.090719476342201233,-0.033215425908565521,0.033486850559711456,-0.084616415202617645,-0.161917045712471008,-0.079304575920104980,0.042966194450855255,0.168911084532737732,0.003322721226140857,0.035513494163751602
0.129480272531509399,-0.068332344293594360,0.013432537205517292,-0.109152384102344513,-0.066361032426357269,-0.179500505328178406,-0.129776015877723694,-0.147793397307395935,0.193996414542198181,0.067575804889202118,0.271825611591339111,-0.083583608269691467,-0.120743401348590851,0.008103900589048862,0.020301904529333115,-0.229110807180404663
0.116618894040584564,-0.147251993417739868,-0.189583271741867065,0.075441136956214905,-0.003432479454204440,-0.065661422908306122,-0.043584235012531281,-0.141213089227676392,-0.006465457379817963,0.088014528155326843,0.201079472899436951,-0.019605245441198349,0.099989235401153564,-0.098925791680812836,-0.082806847989559174,-0.042079307138919830
0.017098993062973022,0.118027515709400177,-0.083321698009967804,-0.091191694140434265,-0.036853007972240448,-0.114678241312503815,-0.088939994573593140,-0.074469193816184998,-0.119319818913936615,-0.066583551466464996,-0.133810579776763916,-0.000101842524600215,0.089391686022281647,-0.078090965747833252,0.074874997138977051,-0.012924850918352604
0.162758976221084595,-0.101080551743507385,0.050643350929021835,-0.057166244834661484,-0.006266987416893244,0.087154671549797058,-0.002316574100404978,0.194771721959114075,0.166744723916053772,-0.024474812671542168,0.136750891804695129,-0.003813480259850621,-0.078654900193214417,0.074726819992065430,-0.192118778824806213,0.023816037923097610
