-0.408486000000000016
1.068750000000000089
-0.101350999999999997
0.291739000000000026
0.361906000000000005
-1.175980000000000025
-1.084940000000000015
-0.525395999999999974
-0.485121000000000024
-0.563451000000000035
-0.430958000000000008
-0.375101999999999991
-0.299368999999999996
-0.300263000000000002
-0.528058000000000027
-0.062003000000000003
-0.653789999999999982
0.730180999999999969
-0.849960999999999967
-0.015730000000000001
-0.289808000000000010
0.278940000000000021
1.470779999999999976
2.107930000000000081
-0.310170000000000001
-0.538444000000000034
-0.145918999999999993
1.010490000000000110
-0.374155999999999989
-0.052721999999999998
-0.148790000000000006
0.255464000000000024
-0.772198000000000051
-1.760469999999999979
0.062296999999999998
0.254439000000000026
-0.150743999999999989
-0.757264000000000048
-2.464249999999999829
-0.913193999999999950
-0.563057999999999947
-0.217100999999999988
0.570545999999999998
-0.523407999999999984
-1.499970000000000026
-0.261921000000000015
-0.526109000000000049
-0.005990000000000000
-0.464336000000000026
0.114195000000000005
