-0.775043999999999955,-0.289932999999999996,-0.099163000000000001,0.605936999999999948,0.670455000000000023,-0.121062000000000003,-0.248874000000000012,-0.393224999999999991,0.081882999999999997,0.194818999999999992,-0.657672999999999952,0.510450999999999988,-0.656003000000000003,-0.062884999999999996,-0.023483000000000000,-0.560505000000000031,0.066200999999999996,-1.452749999999999986,-0.197084000000000009,0.060664999999999997,0.238801000000000013,-1.215750000000000108,-2.235409999999999897,0.605307000000000039,-0.405345000000000011,-0.667115000000000014,0.009771999999999999,-0.538100000000000023,0.199686000000000002,-0.027463999999999999,0.352598000000000023,0.474551000000000001,0.378865999999999981,0.602261000000000046,-0.748403000000000040,-0.124741000000000005,0.022474000000000001,-1.658390000000000031,0.237330000000000013,0.055088999999999999,0.325452999999999992,-0.603651999999999966,-0.062350999999999997,0.508426999999999962,-0.282333999999999974,-0.366221999999999992,-0.520737000000000005,-0.027931999999999998,0.124485999999999999,0.086276000000000005
-0.415395000000000014,-0.039059000000000003,-0.036659999999999998,-0.285092999999999985,0.710898000000000030,-0.112550999999999998,0.098272999999999999,-0.205191000000000012,-0.177642999999999995,0.372705999999999982,-0.236014000000000002,0.090322000000000000,-0.381218000000000001,0.151351000000000013,0.027635000000000000,-1.061360000000000081,-0.283445000000000003,-0.431663999999999992,-0.751797999999999966,0.066185999999999995,-0.491398999999999975,0.449087000000000014,-0.458401999999999976,0.342677999999999983,-0.338088000000000000,0.272085000000000021,-0.342523000000000022,0.152443999999999996,-0.046870000000000002,0.212535000000000002,0.175683000000000006,0.175400000000000000,0.119511000000000006,0.340364000000000000,-0.636772000000000005,-0.162925999999999987,0.235286999999999996,-0.268513999999999975,-0.101165000000000005,-0.022494000000000000,0.143055999999999989,-0.058264000000000003,-0.177152000000000004,-0.124274999999999997,-0.056957000000000001,-0.103950000000000001,-0.176784999999999998,-0.061060999999999997,-0.114355999999999999,0.214660999999999991
-0.324942000000000009,-0.235391999999999990,0.075500999999999999,1.463270000000000071,1.287439999999999918,-0.331936000000000009,0.084695999999999994,-0.358310000000000017,-0.291978999999999989,-0.136073000000000000,-0.478229000000000015,0.373483999999999983,-0.028527000000000000,0.087636000000000006,0.016362000000000002,-1.030499999999999972,0.244095000000000006,-2.449450000000000127,0.075204999999999994,-0.128429999999999989,-0.354474000000000011,0.249438999999999994,-0.319774000000000003,-1.009090000000000042,0.614009000000000027,2.066030000000000033,-0.087294999999999998,-0.518378000000000005,-0.248863000000000001,0.262577999999999978,0.499300000000000022,0.224567999999999990,0.759654000000000051,-0.281864000000000003,-2.163489999999999913,0.170552000000000009,-0.002440000000000000,-0.415725999999999984,0.889847999999999972,-0.062205999999999997,0.279403999999999986,-0.119465000000000002,-0.404799000000000020,-0.086717000000000002,0.052804999999999998,-0.346030000000000004,0.254045000000000021,-0.010141000000000001,-0.213391999999999998,-0.205132000000000009
0.112047999999999995,-0.034152000000000002,0.446031999999999984,-0.355090999999999990,-0.882044999999999968,0.057686000000000001,0.486966000000000010,-0.181809999999999999,0.358953000000000022,0.115637000000000004,-0.030467999999999999,0.194804000000000005,-1.574729999999999963,-0.498452999999999979,-0.007589000000000000,4.175390000000000157,-0.052750999999999999,-0.053768999999999997,-0.000304000000000000,-0.047761999999999999,-0.397220999999999991,0.309514000000000011,-0.063309000000000004,0.569165000000000032,0.210703000000000001,0.304315999999999975,0.023096999999999999,0.266488000000000003,0.068776000000000004,0.075830999999999996,0.069342000000000001,-0.053459000000000000,0.473347000000000018,0.109726000000000004,-0.205706000000000000,0.328911999999999982,0.235306999999999988,-0.385763999999999996,-6.520410000000000039,-0.180562000000000000,-0.435765999999999987,0.348017000000000021,0.029526000000000000,0.354505000000000015,0.382469000000000003,0.520252000000000048,-0.326380000000000003,-0.055292000000000001,1.413019999999999943,-0.509697999999999984
-0.743169999999999997,-0.101442000000000004,-0.179005999999999998,0.362924000000000024,0.025842000000000000,-0.095283000000000007,0.054642000000000003,-0.208584999999999993,-0.020624000000000000,-0.564466000000000023,-0.373831000000000024,-0.138909000000000005,0.887881999999999949,0.415273000000000003,0.031678999999999999,-1.204029999999999934,0.164633000000000002,-1.710250000000000048,0.094741000000000006,0.200594999999999996,-0.277334999999999998,-0.154500999999999999,0.546590000000000020,-0.383039000000000018,-0.008278000000000001,0.786942999999999948,-0.323025999999999980,-0.336119999999999974,0.109248999999999999,0.156596999999999986,0.140147999999999995,-0.064730999999999997,0.327116999999999991,0.194237999999999994,-0.780754999999999977,0.066933999999999994,-0.312755999999999978,-0.092006000000000004,-1.659059999999999979,0.012076999999999999,0.158734999999999987,-0.164346999999999993,-0.070378999999999997,-1.093159999999999910,0.526490000000000014,-0.230381000000000002,0.246890999999999999,0.040439000000000003,-0.673417000000000043,-0.282893000000000006
-0.784722000000000031,-0.010439000000000000,-0.003030000000000000,0.227065999999999990,0.903023000000000020,0.064102999999999993,0.213558999999999999,-0.265513999999999972,-0.154736000000000012,0.457853000000000010,0.197732999999999992,0.182356999999999991,-0.324637000000000009,0.113420000000000007,-0.054171999999999998,1.194150000000000045,-0.189482000000000012,0.755959999999999965,-0.225900999999999991,-0.167225000000000013,0.212120000000000003,0.503956999999999988,0.098517999999999994,0.509522999999999948,-0.200165000000000010,0.659822000000000020,-0.298661999999999983,0.311188999999999993,-0.048557999999999997,0.051281000000000000,-0.156257000000000007,0.486298000000000008,0.060285999999999999,0.147549000000000013,-1.207559999999999967,0.156575999999999993,0.216858999999999996,0.349136000000000002,-0.855736000000000052,-0.009363000000000000,-0.058978999999999997,0.433564999999999978,0.023480000000000001,0.019692999999999999,-0.155319000000000013,0.298068999999999973,0.301375000000000004,-0.057359000000000000,-0.233246000000000009,-0.335409000000000013
-0.778082999999999969,-0.153227000000000002,0.133774000000000004,-0.767363000000000017,-0.538200000000000012,-0.038039000000000003,0.012074000000000000,0.338442999999999994,-0.057890999999999998,0.228399999999999992,0.008213000000000000,0.133604000000000001,-0.884504999999999986,0.095306000000000002,0.008985999999999999,-0.460226999999999997,0.748145999999999978,-1.343520000000000048,0.036211000000000000,0.179903000000000007,0.637369999999999992,-0.322033000000000014,-1.110780000000000101,0.156160999999999994,-0.631591000000000014,-1.287749999999999950,0.201942000000000010,0.273685999999999985,0.229044999999999999,-0.023588999999999999,0.064212000000000005,-0.011339999999999999,0.465428000000000008,-0.824818999999999969,0.639785999999999966,-0.257624999999999993,-0.211950000000000000,-1.461340000000000083,-0.317788999999999988,0.056981999999999998,0.576084000000000040,-0.874385999999999997,-0.341069000000000011,-0.134484999999999993,-0.202552000000000010,-0.686636000000000024,-0.145712000000000008,0.006209000000000000,0.370672999999999975,-0.002817000000000000
-0.357055000000000011,0.146169999999999994,-0.111620999999999998,-2.103429999999999911,-0.174708000000000002,0.069137000000000004,0.449745000000000006,0.387591999999999992,0.073608999999999994,0.615821999999999981,0.471799000000000024,-0.579168000000000016,0.647649999999999948,0.006530000000000000,-0.035493999999999998,0.602673000000000014,-0.136407000000000000,1.272990000000000066,-0.096769999999999995,-0.125281000000000003,0.717802000000000051,0.634369999999999989,-1.310249999999999915,-0.611943000000000015,0.377220000000000000,0.204636000000000012,-0.353831999999999980,0.634265999999999996,0.141678999999999999,0.282179000000000013,-0.422796000000000005,-0.008238000000000001,-0.047759000000000003,-0.000938000000000000,0.627261999999999986,-0.053115000000000002,0.143821000000000004,0.937033000000000005,1.531199999999999894,0.219265999999999989,-0.093179999999999999,-0.731427999999999967,-0.076341999999999993,-0.501109000000000027,0.414113000000000009,-0.414843000000000017,-0.374462999999999990,-0.002224000000000000,-0.314506000000000008,-0.038782999999999998
-0.357092000000000021,0.020341000000000001,0.382411999999999974,-0.395872999999999975,0.208278999999999992,0.039438000000000001,-0.286530000000000007,0.803458000000000006,-0.116991999999999999,0.420016999999999974,0.700842999999999994,0.287304999999999977,-2.821549999999999780,0.722149000000000041,0.020091000000000001,2.452669999999999906,0.245437999999999990,-0.004610000000000000,0.161913000000000001,-0.067861000000000005,0.368698999999999999,0.393685000000000007,0.143287999999999999,1.030240000000000045,0.952166999999999986,-0.251649000000000012,0.115654000000000007,0.163662000000000002,-0.157866000000000006,0.400617000000000001,0.171631000000000006,0.270266999999999979,-1.106360000000000010,0.011707000000000000,-0.024143999999999999,0.352067999999999992,0.045353999999999998,-0.311979999999999980,-0.918090999999999990,-0.003416000000000000,-0.505909000000000053,-0.907185000000000019,0.031826000000000000,-0.215090000000000003,0.146260000000000001,-0.269338000000000022,0.202508999999999995,0.023854000000000000,0.594127999999999989,0.360551000000000010
-0.225595999999999991,0.020504999999999999,0.419509999999999994,1.313979999999999926,-0.293289999999999995,0.043242000000000003,-0.457988000000000006,0.029777000000000001,-0.371862999999999999,-0.400166999999999995,0.130614000000000008,-0.127489999999999992,-0.591420999999999975,0.573602999999999974,-0.024154999999999999,-0.425074000000000007,0.755480999999999958,-0.880557999999999952,-0.730864999999999987,-0.009606999999999999,-0.833914999999999962,-0.346949999999999981,-0.711395000000000000,-0.868851000000000040,-0.920534999999999992,0.507715000000000027,0.344208999999999987,-0.088127999999999998,-0.267454000000000025,1.056280000000000108,0.711817000000000033,-0.752251000000000003,-0.840884999999999994,-0.528399999999999981,-1.286589999999999900,0.169212000000000001,0.077483999999999997,1.931589999999999918,2.706469999999999931,-0.015637999999999999,0.236991000000000007,-1.237780000000000102,0.093642000000000003,0.122662999999999994,-0.012621000000000000,0.361321000000000003,-0.172362999999999988,-0.014815000000000000,-0.255664999999999976,-0.161183999999999994
0.896540000000000004,-0.204444999999999988,-0.164855000000000002,-1.755689999999999973,0.518818000000000001,0.177618999999999999,-0.187884999999999996,0.244932000000000011,-0.272880999999999985,2.254970000000000141,-1.414590000000000014,0.254668000000000005,1.086319999999999952,1.104559999999999986,0.034036999999999998,-0.864797999999999956,-1.279570000000000096,-1.093520000000000048,-0.986402000000000001,-0.290273000000000003,0.680278999999999967,2.031829999999999803,-0.197578000000000004,1.172700000000000076,0.775159000000000042,-2.504000000000000004,-0.552984999999999949,1.443109999999999893,0.411094000000000015,-0.070118000000000000,-0.409706999999999988,0.037383000000000000,0.996421000000000001,0.854358999999999980,-0.404625999999999986,-0.018259999999999998,0.533602000000000021,-1.584079999999999933,-0.264734999999999998,-0.050887000000000002,-0.663749000000000033,1.501069999999999904,-0.092827999999999994,-0.316240000000000021,-1.090379999999999905,1.406930000000000014,-0.168382000000000004,0.001552000000000000,-0.315504000000000007,0.161555000000000004
-0.552907999999999955,0.229673999999999989,-0.111632999999999996,1.215430000000000010,-0.622398000000000007,-0.323052999999999979,-0.226452999999999988,-0.212446999999999997,-0.361285000000000023,0.387346999999999997,0.091841999999999993,-0.673830999999999958,0.250452000000000008,-0.383110999999999979,-0.043178000000000001,-0.617433000000000010,-0.103408000000000000,0.259272000000000002,0.239999999999999991,0.119800000000000004,-0.162258000000000013,-0.043202999999999998,-0.416181999999999996,-1.413790000000000102,-0.193896000000000013,0.077953999999999996,0.321902000000000021,0.477399999999999991,-0.243497999999999992,-0.197561999999999988,1.328680000000000083,-3.799380000000000202,-1.370859999999999967,-0.145424999999999999,-0.127775000000000000,0.528942000000000023,0.078196000000000002,0.461002999999999996,1.044030000000000014,0.286212000000000022,-0.374275999999999998,-2.738780000000000214,-0.034934000000000000,-0.386873999999999996,-0.471214999999999995,-0.566339000000000037,-0.363204000000000027,-0.036741000000000003,0.315919999999999979,0.168777000000000010
-0.136944000000000010,-0.096448000000000006,0.014049000000000001,0.304692000000000018,0.409716000000000025,-0.077258999999999994,0.186659999999999993,-0.330272999999999983,0.108220999999999998,-1.021859999999999991,-0.103946999999999998,0.292063999999999990,0.060248999999999997,0.026027999999999999,-0.051265999999999999,-0.518577999999999983,0.312589000000000006,-0.150566000000000005,0.114255999999999996,-0.091536000000000006,-0.427653999999999979,-0.226655999999999996,-0.171094999999999997,-0.690440999999999971,-0.043504000000000001,-0.065751000000000004,-0.419787999999999994,-0.254491000000000023,-0.136858000000000007,0.021534000000000001,0.128552000000000000,-0.075318999999999997,0.248669000000000001,-0.235794000000000004,-0.424341000000000024,-0.077936000000000005,-0.127601999999999993,0.226604000000000000,0.526854000000000045,-0.062078000000000001,-0.083894999999999997,-0.056651000000000000,-0.169363999999999987,0.109047000000000005,-0.112372000000000000,-0.072763999999999995,0.062775999999999998,0.016275000000000001,-0.174699999999999994,-0.386635000000000006
-0.232226999999999989,0.068768999999999997,-0.163987999999999995,0.067958000000000005,1.547369999999999912,0.011282000000000000,0.117948999999999998,-0.194287999999999988,0.182450000000000001,-0.031785000000000001,0.044830000000000002,-0.416715999999999975,0.571119999999999961,0.795328000000000035,0.007388000000000000,-1.737079999999999957,-0.045441000000000002,0.410594000000000015,-0.793847999999999998,0.048947999999999998,-0.228830000000000006,-0.539901999999999993,-1.065080000000000027,0.068186999999999998,-0.213291000000000008,0.239781999999999995,0.522262000000000004,0.472530000000000006,-0.227626999999999996,-0.351659999999999973,0.174651000000000001,-0.724909000000000026,0.137677999999999995,-0.098559999999999995,1.438050000000000050,0.155586000000000002,-0.111669000000000004,-0.438775000000000026,0.671853999999999951,-0.134646999999999989,0.119637999999999994,1.041930000000000023,-0.069911000000000001,-0.231796000000000002,0.132038999999999990,0.766473999999999989,0.095260999999999998,0.021187000000000001,-0.055930000000000001,0.489530000000000021
-0.498618000000000006,0.005069000000000000,-0.273372000000000004,-0.433435000000000015,1.270049999999999901,-0.040724000000000003,-0.012073000000000000,0.685385000000000022,0.252614000000000005,-1.052729999999999944,-0.142032999999999993,-0.561937000000000020,1.090030000000000054,-0.666633000000000031,0.011252000000000000,0.825486999999999971,0.182315000000000005,-0.150890999999999997,0.404071999999999987,-0.085717000000000002,-0.420752000000000015,1.065430000000000099,0.469442999999999999,-0.138408000000000003,-1.800149999999999917,1.286219999999999919,0.187418000000000001,0.729854000000000003,-0.109357999999999997,0.136636000000000007,0.044916999999999999,0.009632000000000000,-0.028565000000000000,0.025122999999999999,-0.885655999999999999,-0.053067999999999997,0.044187999999999998,0.065208000000000002,1.237440000000000095,0.138551000000000007,-0.142503999999999992,0.574914999999999954,0.476758999999999988,-1.024380000000000068,0.133998000000000006,-0.035014999999999998,0.737360000000000015,0.004908000000000000,-0.035944999999999998,-0.143622000000000000
0.433755000000000002,-0.189822999999999992,-0.050386000000000000,1.423589999999999911,0.169509999999999994,0.078279000000000001,0.256539999999999990,-0.212339000000000000,-0.233528000000000013,0.235339999999999994,0.404677999999999982,0.407125000000000015,-0.512318000000000051,0.350580999999999976,-0.024643999999999999,-0.314659000000000022,-0.649753000000000025,-0.006842000000000000,0.047983999999999999,0.057972000000000003,-0.129448000000000008,-1.765050000000000008,-0.925066000000000055,0.943524000000000029,0.145136999999999988,1.432199999999999918,-0.272610000000000019,0.505350999999999995,-0.600469000000000031,-0.295314999999999994,0.096920000000000006,0.613890000000000047,0.205375000000000002,0.686417000000000055,0.543800999999999979,-0.156830999999999998,-0.199833000000000011,-1.654090000000000060,0.191285000000000011,-0.184282000000000001,0.251342000000000010,-0.040697999999999998,-0.082894999999999996,0.075195999999999999,-0.413003000000000009,0.322128999999999999,-0.693803999999999976,0.004702000000000000,0.528949000000000003,-0.054813000000000001
1.433140000000000081,0.259218999999999977,-0.159383999999999998,-0.496076999999999990,-1.907410000000000050,0.317249999999999976,-0.173109000000000013,0.072672000000000000,0.357437999999999978,-0.199973000000000012,0.522869000000000028,-0.567616000000000009,0.244306999999999996,-0.148380000000000012,-0.044482000000000001,1.777600000000000069,-0.048008000000000002,-0.803482999999999947,0.460459000000000007,0.047361000000000000,-0.661414999999999975,-0.201859000000000011,0.110559000000000004,-0.240279999999999994,-0.802841999999999945,0.592515000000000014,1.090030000000000054,0.790109999999999979,0.100116999999999998,0.209284999999999999,-0.314000999999999975,-0.556212999999999957,-0.826598000000000055,-0.509700999999999960,0.541700999999999988,0.073883000000000004,0.387378000000000000,1.667759999999999909,-0.121166999999999997,-0.153710999999999987,-0.140083000000000013,-1.209079999999999933,0.228247000000000005,0.252371000000000012,0.121596999999999997,0.764387000000000039,0.263089000000000017,0.042463000000000001,-0.033688999999999997,-0.823232999999999993
-0.740145999999999971,-0.271824999999999983,-0.128305000000000002,0.176302999999999988,-1.469980000000000064,-0.040254999999999999,-0.134125999999999995,-0.052437999999999999,0.191189999999999999,0.453475000000000017,0.662575000000000025,0.493628999999999984,-1.529830000000000023,0.017030000000000000,-0.054477999999999999,0.190019999999999994,0.377751000000000003,1.289660000000000029,0.657656000000000018,-0.108350000000000002,0.906931999999999960,0.197859000000000007,0.049786999999999998,0.545332999999999957,-0.056769000000000000,0.140891999999999989,-0.263803000000000010,-0.622607000000000022,-0.208292000000000005,-0.063251000000000002,-0.059992999999999998,0.903573999999999988,0.538383999999999974,0.459820999999999980,-1.058810000000000029,-0.346358999999999972,0.171377000000000002,-0.488227999999999995,-1.546389999999999931,-0.178059999999999996,-0.162470000000000003,0.529824999999999990,-0.039130999999999999,-0.081108000000000000,0.365070000000000006,0.720203000000000038,-0.023442000000000001,-0.024157000000000001,0.563513000000000042,0.045720999999999998
-1.059379999999999988,0.013450000000000000,-0.127404999999999990,0.137501000000000012,0.027924999999999998,-0.132370999999999989,-0.056030999999999997,0.089998999999999996,-0.149432000000000009,0.114128999999999994,-0.356511999999999996,0.204313999999999996,0.253199999999999981,0.069361000000000006,0.052892000000000002,-0.874712000000000045,0.051404999999999999,-0.450070000000000026,-0.405924999999999980,0.027123000000000001,-0.733522000000000007,-0.035089000000000002,0.586374999999999980,-0.452705000000000024,-0.265722000000000014,-0.010286999999999999,0.470331999999999972,0.288185999999999998,0.580126999999999948,-1.359290000000000109,0.091328000000000006,-0.245728000000000002,0.242109999999999992,0.091630000000000003,-0.653063999999999978,-0.030759999999999999,-0.053964999999999999,-0.220679999999999987,0.388371000000000022,-0.207550000000000012,0.390923000000000020,1.648470000000000102,0.178382000000000013,0.059988000000000000,-0.238511000000000001,-0.450674999999999992,0.159914000000000001,-0.006554000000000000,-0.188641000000000003,0.337855999999999990
-0.022921000000000000,-0.023636999999999998,0.028334000000000002,0.003029000000000000,0.045013999999999998,0.048582000000000000,-0.004531000000000000,-0.020015000000000002,-0.023879999999999998,-0.030745999999999999,0.046427000000000003,0.035680999999999997,0.008340000000000000,-0.003846000000000000,-0.047031000000000003,-0.008735000000000000,0.016886000000000002,-0.016098999999999999,-0.041578999999999998,-0.024233999999999999,-0.008253000000000000,0.010846000000000000,-0.017762000000000000,-0.012266000000000001,0.036370000000000000,-0.028934000000000001,0.019233000000000000,-0.022058000000000001,0.042736999999999997,0.027584999999999998,-0.029582000000000001,-0.001328000000000000,-0.015758000000000001,0.003818000000000000,-0.041773999999999999,-0.017846000000000001,-0.011670000000000000,0.049418999999999998,0.025541000000000001,-0.017694000000000001,-0.039303999999999999,-0.017181999999999999,0.002232000000000000,0.028732000000000001,-0.047287000000000003,0.030346000000000001,0.027026999999999999,0.028222000000000001,0.033340000000000002,-0.009164000000000000
0.335652999999999979,-0.001004000000000000,-0.085255999999999998,-0.743782000000000054,0.355136999999999980,0.052003000000000001,-0.192302000000000001,0.181242999999999987,0.065033999999999995,-0.071254999999999999,0.195922000000000013,-0.310524000000000022,-0.871244000000000018,-0.170770000000000005,-0.033409000000000001,1.149520000000000097,-0.074491000000000002,0.579515000000000002,-0.230993000000000004,0.011779000000000000,0.118991000000000000,-0.214658999999999989,-0.587860000000000049,-0.309840000000000004,-0.293596999999999997,0.128416000000000002,0.360489999999999977,0.015528999999999999,0.166701999999999989,-0.323440000000000005,0.115981000000000001,-0.195620999999999989,0.391042000000000001,0.075145000000000003,0.324251999999999985,0.115668000000000007,0.216837000000000002,-0.681927999999999979,-0.782518999999999965,0.025214000000000000,0.001703000000000000,-0.147331999999999991,-0.258058999999999983,-0.066916000000000003,0.470372000000000012,0.533235000000000015,0.237173999999999996,-0.054618000000000000,0.015103000000000000,-0.024570999999999999
-0.593277000000000054,0.070847999999999994,-0.339762000000000008,-0.275058000000000025,-0.062805000000000000,-0.089381000000000002,-0.088475999999999999,0.936648999999999954,0.419219000000000008,0.654711999999999961,0.684416000000000024,-0.205340999999999996,-0.834246999999999961,-0.240819000000000005,-0.024160000000000001,2.211129999999999818,-0.399220000000000019,1.070500000000000007,0.522012000000000032,0.295348999999999973,-0.793333999999999984,1.754440000000000000,0.888857000000000008,0.350799000000000027,0.434842999999999980,-0.450707000000000024,0.767468999999999957,-0.096789000000000000,-0.225621999999999989,0.031698999999999998,0.203632000000000007,0.144236000000000003,-0.571886000000000005,-0.374089000000000005,-1.362740000000000062,-0.285405000000000020,0.336168999999999996,1.435880000000000045,3.898719999999999963,0.283303000000000027,-0.247499999999999998,0.071793999999999997,0.298704999999999998,-0.339303000000000021,-0.104940000000000005,-0.500824000000000047,0.544742999999999977,-0.031852999999999999,0.001960000000000000,0.311055999999999999
-0.374213999999999991,-0.076008000000000006,-0.010179000000000001,0.160955999999999988,-0.683266000000000040,-0.121833999999999998,0.040201000000000001,0.097409999999999997,-0.093592999999999996,0.019727000000000001,-0.203028999999999987,0.141981999999999997,0.242425000000000002,0.145451999999999998,-0.058714000000000002,-0.725265000000000049,0.056619999999999997,-0.557185999999999959,-0.241277999999999992,-0.043831000000000002,-0.217768999999999990,-0.300968000000000013,-0.520054000000000016,-0.026723000000000000,-0.033399999999999999,-0.854042999999999997,0.101504999999999998,-0.145972999999999992,-0.038413000000000003,-0.029012000000000000,-0.062323000000000003,-0.004254000000000000,0.219781000000000004,0.362092999999999998,-0.575038000000000049,-0.047093999999999997,-0.191136000000000000,-0.318332999999999977,0.687486000000000042,-0.158771999999999996,0.197727999999999987,-0.030077000000000000,0.157171000000000005,-0.021055000000000001,-0.028003000000000000,-0.357372000000000023,-0.266162999999999983,-0.028243999999999998,-0.056499000000000001,0.158591000000000010
-2.310970000000000191,-0.158165000000000000,-0.047495999999999997,0.450417000000000012,0.309325999999999990,-0.220347999999999988,0.039865999999999999,-0.263274999999999981,-0.120685000000000001,-1.117450000000000054,-0.222213999999999995,0.290271000000000001,-0.019619999999999999,-1.103450000000000042,-0.037830000000000003,-1.314519999999999911,0.588135999999999992,-0.410094000000000014,0.191419000000000006,-0.149944999999999995,-1.361960000000000059,-0.310804000000000025,0.907124999999999959,-0.971670999999999951,-0.258373999999999993,-1.070109999999999895,-0.512295999999999974,-0.626458999999999988,0.051787000000000000,0.154665999999999998,0.094736000000000001,0.102585999999999997,0.298648000000000025,0.341907000000000016,-8.534750000000000725,0.075233999999999995,-0.056444000000000001,-0.533016999999999963,-0.455295000000000005,-0.079103000000000007,0.140429999999999999,0.302866000000000024,-0.156553999999999999,0.271695999999999993,-0.136031999999999986,-1.101120000000000099,-0.357387000000000010,-0.032426000000000003,-0.234696999999999989,0.058886000000000001
0.292584000000000011,0.083432000000000006,-0.295914000000000010,0.943343000000000043,-0.600532999999999983,0.172531999999999991,0.737175000000000025,-0.065560999999999994,1.119620000000000060,0.278202000000000005,1.343089999999999895,-0.809780999999999973,-1.340910000000000046,0.300823999999999980,0.015691000000000000,0.903580999999999968,0.056824000000000000,0.963538000000000006,-0.679629000000000039,-0.162453999999999987,-0.867315999999999976,0.358076999999999979,0.622782999999999975,0.447977999999999987,0.703039999999999998,-1.370470000000000077,0.986824000000000034,1.820570000000000022,0.236266000000000004,-1.019320000000000004,-0.378381000000000023,-0.627785000000000037,-1.719060000000000032,-0.610804000000000014,0.749136000000000024,-0.108558000000000002,-0.091813000000000006,0.921668999999999961,-0.017755000000000000,0.269123999999999974,0.011566999999999999,0.906336999999999948,0.279488000000000014,0.075192999999999996,-0.138553000000000009,-0.009825000000000000,0.008182000000000000,0.013002000000000000,0.704199000000000019,0.029121999999999999
1.002059999999999951,-0.007057000000000000,-0.042352000000000001,0.208145999999999998,-1.019479999999999942,0.021056999999999999,-0.172222999999999987,-0.256915000000000004,0.370421999999999974,-0.071571999999999997,-0.419150000000000023,0.244646000000000002,-0.550358000000000014,-0.371265999999999985,0.040072000000000003,1.243219999999999992,0.597862000000000005,-0.471046999999999993,-0.392210000000000003,0.427161000000000013,0.080352999999999994,-0.706662000000000012,0.978323999999999971,0.360080000000000011,-0.117572999999999997,-0.092196000000000000,0.884440000000000004,0.575281000000000042,0.287142000000000008,0.633542000000000050,0.431889000000000023,-0.974280000000000035,-0.436983000000000010,-0.444817999999999991,0.788073000000000023,0.019345000000000001,-0.087145000000000000,0.342467999999999995,0.349858000000000002,0.011978000000000001,-0.369746999999999992,-3.557310000000000194,0.272930999999999979,0.035352000000000001,-0.446243000000000001,0.334336999999999995,-0.314010999999999985,-0.020011999999999999,0.432101000000000013,0.648994999999999989
0.150349000000000010,-0.029572999999999999,0.028337999999999999,-0.413542000000000021,0.679085999999999967,-0.105575000000000002,-0.068484000000000003,-0.061890000000000001,-0.182358999999999993,0.130393000000000009,-0.105084999999999998,0.199170999999999987,-0.491889999999999994,0.345430000000000015,-0.047946999999999997,-0.490873999999999977,-0.832632999999999956,0.703594999999999970,-0.051976000000000001,-0.161175000000000013,0.117286000000000001,-1.920339999999999936,-0.455469999999999986,0.229880000000000001,-0.112863000000000005,-0.635010999999999992,-0.471179000000000014,0.076022999999999993,-0.865246999999999988,-0.026931000000000000,-0.122661999999999993,-0.113961000000000007,0.391508000000000023,0.459926999999999975,1.437959999999999905,-0.018553000000000000,-0.191684999999999994,-0.368655000000000010,0.318581999999999976,-0.144684000000000007,0.087937000000000001,-0.810585000000000000,0.061266000000000001,0.344054000000000026,0.200625999999999999,0.321740999999999999,-0.103174000000000002,0.018536000000000000,0.215732000000000007,-0.089255000000000001
-1.895769999999999955,-0.091831999999999997,-0.170574000000000003,1.157510000000000039,-2.227370000000000072,-0.129419000000000006,-0.000752000000000000,-0.096832000000000001,0.658889999999999976,0.417970999999999981,-0.507511000000000045,0.616404999999999981,0.088280999999999998,0.042817000000000001,-0.018853999999999999,-1.639520000000000088,-0.229754000000000014,-0.613628999999999980,-1.986169999999999991,-0.330562000000000022,0.770927999999999947,-0.439510000000000012,-0.427055000000000018,0.399401999999999979,-0.310153000000000012,-1.156590000000000007,-0.437217999999999996,-0.037046999999999997,-0.331421000000000021,-0.527212000000000014,0.633275999999999950,-0.144736000000000004,0.992503000000000024,-0.078867999999999994,0.108880000000000005,-0.312935000000000019,-0.087554999999999994,0.722269000000000050,-0.856809000000000043,-0.076373999999999997,-0.025922000000000001,-0.149827999999999989,-0.215012000000000009,-0.180745999999999990,-0.415287999999999990,0.536345999999999989,-0.081115999999999994,-0.011211000000000000,0.310275000000000023,-0.006876000000000000
-0.138338999999999990,-0.007835000000000000,-0.199671999999999988,-0.135771000000000003,0.518846999999999947,0.031057000000000001,0.085251999999999994,0.303331000000000017,0.099809999999999996,-0.496835000000000027,0.059191000000000001,-0.416208000000000022,0.753979999999999984,0.042855999999999998,0.034660000000000003,-0.705805000000000016,-0.114480999999999999,-0.258537000000000017,-0.478737999999999997,-0.094305000000000000,0.380504000000000009,0.202320000000000000,0.436649000000000009,-0.643715999999999955,0.109609999999999999,-0.353333000000000008,-0.284961000000000020,0.755400999999999989,0.053234999999999998,0.059108000000000001,0.921544000000000030,-0.461996000000000018,0.378991999999999996,0.058198000000000000,-0.205932000000000004,0.123768000000000003,-0.019560000000000001,-0.170020000000000004,0.503059000000000034,0.043683000000000000,-0.673673999999999995,-1.609099999999999975,-0.210550999999999988,-0.071595000000000006,0.119994000000000003,-0.259435000000000027,-0.308055999999999996,-0.033480999999999997,-0.451168999999999987,-0.216609999999999997
-0.487171999999999994,0.015723999999999998,-0.078605999999999995,-0.248231000000000007,0.088244000000000003,-0.071414000000000005,0.212977000000000000,0.042914000000000001,-0.143984000000000001,-0.587662000000000018,-0.071412000000000003,0.247175000000000006,0.364375999999999978,0.404052999999999995,-0.039802999999999998,-0.350019000000000025,0.376802000000000026,0.132903999999999994,0.137537999999999994,-0.112317000000000000,-0.422049000000000007,-0.237193999999999988,0.238283999999999996,-0.362943000000000016,-0.194365000000000010,0.234242000000000006,-0.219898000000000010,0.203728999999999993,-0.116743000000000000,0.038704000000000002,-0.023826000000000000,0.230518000000000001,0.519141999999999992,-0.102356000000000003,0.177382000000000012,0.069555000000000006,-0.045460000000000000,-0.710636000000000045,0.742881000000000014,-0.213378000000000012,-0.086112999999999995,-0.707193999999999989,0.083368999999999999,0.238540000000000002,-0.240411000000000014,-0.529116999999999948,-0.346689999999999998,-0.013169999999999999,-0.152855999999999992,-0.359362999999999988
-0.685846999999999984,-0.368545000000000011,-0.030474999999999999,0.260131000000000001,-0.920201999999999964,0.160757000000000011,0.370545999999999986,-0.109105999999999995,0.268125000000000002,0.047265000000000001,-0.137054000000000009,-0.126877999999999991,-0.127733999999999986,-0.096506999999999996,0.002910000000000000,1.216280000000000028,0.042520000000000002,-0.211851000000000012,0.227640000000000009,0.103801000000000004,-0.939378999999999964,-0.377917000000000003,0.473011999999999988,0.972767999999999966,-0.106662999999999994,-0.459152000000000005,-0.306688000000000016,1.083020000000000094,-0.135779000000000011,-0.181629000000000013,0.329459000000000002,0.035360000000000003,-1.547160000000000091,0.262421000000000015,0.844830999999999999,0.116972999999999994,0.153691999999999995,0.231923999999999991,-0.632954000000000017,-0.002475000000000000,-0.710569000000000006,0.033960999999999998,0.183519999999999989,0.161233999999999988,-0.636611999999999956,-0.560165000000000024,0.693405000000000049,-0.017314000000000000,0.407915000000000028,-0.204125000000000001
-2.055610000000000159,0.259276000000000006,0.141624000000000000,-1.364440000000000097,-2.587600000000000122,0.188269999999999993,-0.365634000000000015,0.480513000000000023,-0.289762000000000020,-0.234516000000000002,0.534256999999999982,0.054931000000000001,-0.216948000000000002,1.082810000000000050,-0.006693000000000000,1.480699999999999905,-0.141544000000000003,-3.341359999999999886,0.178041000000000005,0.529166000000000025,0.017937999999999999,1.435540000000000038,0.154228000000000004,1.103949999999999987,-0.043933000000000000,-0.988331999999999988,-0.127035000000000009,0.866553000000000018,0.268757000000000024,-0.519363000000000019,-0.227432999999999996,-0.601187999999999945,-0.361045000000000005,0.424248000000000014,-0.321259000000000017,0.098787000000000000,0.083526000000000003,-2.616490000000000204,-0.949050999999999978,0.456591000000000025,1.110630000000000006,1.605259999999999909,-0.036183000000000000,-0.065680000000000002,-0.840083000000000024,-0.029118000000000002,0.698153000000000024,0.015025999999999999,0.834554000000000018,0.873176999999999981
0.518935000000000035,0.512329999999999952,0.115279000000000006,-1.373110000000000053,1.182469999999999910,0.397979000000000027,0.322436999999999974,0.552930000000000033,0.531907000000000019,-0.092557000000000000,0.161110000000000003,-0.518507999999999969,-0.116728999999999999,-0.663150000000000017,0.030695000000000000,2.158980000000000121,0.310786999999999980,-1.590249999999999941,0.338770999999999989,0.355690999999999979,-0.233438000000000007,0.173702999999999996,0.427761000000000002,0.349802999999999975,0.325925000000000020,-2.055159999999999876,0.408768000000000020,0.917020999999999975,0.280862000000000001,0.372356999999999994,-0.250929999999999986,-0.214671000000000001,-0.757863999999999982,0.063636999999999999,1.521470000000000100,0.079117000000000007,0.043552000000000000,-0.173347000000000001,-2.305820000000000203,0.189496999999999999,-0.079177999999999998,-0.572666000000000008,0.224508999999999986,-0.576674000000000020,-0.777175999999999978,-0.337818999999999980,-0.154509000000000007,-0.039130999999999999,0.396813000000000027,-0.154894000000000004
0.305489000000000011,0.047031999999999997,0.042449000000000001,0.528375999999999957,-0.226147999999999988,0.025908000000000000,0.188931999999999989,0.137135000000000007,-0.148362999999999995,-0.580340999999999996,-0.364769999999999983,-0.210130000000000011,-0.103957999999999995,0.170894999999999991,-0.014671000000000000,0.725125000000000020,0.631996000000000002,-0.348499999999999976,-0.076377000000000000,-0.369037000000000004,-0.229743000000000003,-1.029889999999999972,-0.833590999999999971,-0.181773999999999991,-0.435418000000000027,1.131259999999999932,-0.002624000000000000,-0.020271999999999998,0.047613000000000003,-0.096693000000000001,-0.107661000000000007,-0.052033999999999997,-0.386037000000000019,0.002717000000000000,0.525307999999999997,0.185121000000000008,0.049854999999999997,0.198605000000000004,-0.814792999999999989,-0.015687000000000000,-0.012801999999999999,-0.351652000000000020,0.139064999999999994,-0.096528000000000003,-0.576848000000000027,-0.455374999999999974,0.087595999999999993,0.017266000000000000,0.106042999999999998,-0.244434000000000012
0.171207999999999999,0.024503000000000000,-0.089627999999999999,0.148232000000000003,0.361082999999999987,-0.185127000000000014,0.159047999999999995,0.482449000000000017,0.177573000000000009,0.218873000000000012,-0.215097000000000010,-0.216052999999999995,0.584057000000000048,0.337158999999999986,-0.042174000000000003,-0.888908999999999949,-0.286965000000000026,0.530202999999999980,0.306950999999999974,-0.244131999999999988,0.133693000000000006,2.044540000000000024,-0.151238000000000011,-0.037060999999999997,0.123165999999999998,-1.329329999999999901,-0.205742000000000008,-0.086092000000000002,0.351075999999999999,0.061428999999999997,0.098180000000000003,-0.295304999999999984,-0.001499000000000000,0.130093999999999987,-0.292999999999999983,-0.029935000000000000,0.084684999999999996,0.951147999999999993,0.479076000000000002,-0.029499999999999998,-0.224507000000000012,-0.001982000000000000,0.074519000000000002,-0.520240000000000036,0.165342999999999990,-0.181991000000000014,-0.024213999999999999,0.008791000000000000,-0.448963999999999974,0.087069999999999995
0.096137000000000000,0.013991999999999999,0.007712000000000000,0.162376999999999994,-1.855469999999999953,0.240188000000000013,-0.106006000000000003,-0.032717999999999997,-0.130262999999999990,0.244211000000000011,0.585106000000000015,-0.137393999999999988,-0.557885999999999993,-0.871080999999999994,-0.045051000000000001,2.513910000000000089,0.086905999999999997,0.762842000000000020,0.345455999999999985,-0.389390000000000014,1.031639999999999890,0.274639999999999995,-0.063120999999999997,0.425543999999999978,0.436551999999999996,0.100817000000000004,-0.087374999999999994,-0.516556000000000015,0.104663999999999993,0.322658999999999974,-0.302093000000000000,0.461065999999999976,-1.138330000000000064,-0.183785000000000004,-0.565864999999999951,0.296563999999999994,-0.067642999999999995,0.743259000000000003,-0.355939000000000005,-0.023436999999999999,-0.326975999999999989,-0.316027999999999976,0.289013999999999993,-0.092496999999999996,-0.281036999999999981,0.043864000000000000,0.602262999999999993,0.026391999999999999,0.386099000000000026,-0.251863999999999977
0.797444000000000042,-0.249022999999999994,-0.046814000000000001,0.170920999999999990,0.691653999999999991,0.042486000000000003,-0.044680999999999998,0.153574999999999989,0.029198000000000002,0.816748999999999947,-0.016371000000000000,0.101024000000000003,0.681637000000000048,-0.040101999999999999,-0.005614000000000000,-0.842817999999999956,-0.030446000000000001,-0.103040999999999994,0.502152000000000043,-0.376939000000000024,0.129585000000000006,-0.310126000000000013,-1.868689999999999962,1.281970000000000054,-0.010461000000000000,0.729940999999999951,-0.215254000000000001,0.236193999999999987,0.169812999999999992,0.186362000000000000,-0.124267000000000002,0.058458000000000003,0.031036000000000001,0.071944999999999995,-0.742913999999999963,0.041869999999999997,0.316315000000000013,-0.040959000000000002,-0.543607999999999980,-0.099927000000000002,-0.392108999999999985,1.109569999999999945,-0.076532000000000003,0.420706000000000024,0.427433000000000007,0.787007000000000012,-0.589096999999999982,-0.002609000000000000,-0.186382999999999993,0.241552999999999990
-1.244699999999999918,-0.141486000000000001,-0.293026000000000009,-0.189101999999999992,0.365051000000000014,-0.166794999999999999,-0.241570000000000007,-0.016591999999999999,-0.376394999999999980,-0.604894999999999960,-0.138724999999999987,0.103484000000000007,0.395944000000000018,-0.187737999999999988,0.001142000000000000,-0.555289000000000033,-0.168996000000000007,-3.528179999999999872,-0.100750999999999993,-0.027666000000000000,-0.022804000000000001,0.351943999999999979,0.601082000000000005,-0.279878000000000016,-0.294266000000000028,1.044159999999999977,0.049764000000000003,-0.473561000000000010,0.158159999999999995,-0.017110000000000000,0.224445000000000006,0.108117000000000005,0.095450999999999994,0.458672999999999997,-0.206844000000000000,-0.090979000000000004,-0.271633000000000013,-1.717179999999999929,0.222556000000000004,0.024927999999999999,-0.594843000000000011,-0.869782999999999973,0.486982999999999999,0.080892000000000006,-1.888370000000000104,-1.410740000000000105,0.282017999999999991,-0.012485000000000000,-0.494228999999999974,-0.636653000000000024
-0.736053999999999986,0.063337000000000004,0.059284000000000003,-0.093411999999999995,-0.537776000000000032,0.087992000000000001,0.015696999999999999,-0.223499000000000003,-0.221834000000000003,-0.594381000000000048,0.482136000000000009,-0.211573000000000011,-0.668884999999999952,-0.219212999999999991,-0.014938999999999999,1.082179999999999920,-0.092076000000000005,0.281480000000000008,-0.376282000000000005,-0.310553000000000023,-0.236393999999999993,-0.536819999999999964,-1.573320000000000052,-0.848611000000000004,-0.017118999999999999,0.625431999999999988,-0.066402000000000003,0.031151999999999999,0.117861999999999995,-0.035770000000000003,-0.200082000000000010,-0.223925999999999986,-0.342938000000000021,-0.581760000000000055,-0.297989999999999977,-0.094228000000000006,0.164262999999999992,-1.064820000000000100,-0.806104999999999960,0.165311999999999987,-0.002074000000000000,-0.354947999999999986,-0.069181000000000006,-0.266712000000000005,0.077820000000000000,0.108744999999999994,-0.084338999999999997,0.010910000000000000,0.041197999999999999,-0.419285000000000019
0.805096000000000034,0.164841999999999989,0.169743000000000005,-0.027320000000000001,0.160240999999999995,0.321830999999999978,0.039289999999999999,0.709982000000000002,-0.080024999999999999,-0.504349000000000047,-0.048870999999999998,-0.033388000000000001,-0.536028999999999978,0.056709000000000002,-0.006428000000000000,1.756320000000000103,0.148826999999999987,-0.786444000000000032,-0.148089999999999999,-0.363723999999999992,0.268923000000000023,-0.485225000000000017,-0.748514000000000013,-0.050895999999999997,0.126689999999999997,1.929980000000000029,0.416739000000000026,0.688991000000000020,0.073928999999999995,0.356422999999999990,-0.236294000000000004,0.459336000000000022,0.196976000000000012,-0.243737000000000009,-0.509171999999999958,-0.063550999999999996,0.095432000000000003,0.112392000000000006,-0.369808000000000026,0.036262000000000003,-0.487740999999999980,-0.234748000000000012,-0.262537000000000020,0.027272000000000001,-0.016285999999999998,1.211999999999999966,0.281943999999999972,-0.054773000000000002,0.543699999999999961,-0.085210999999999995
-0.174525000000000013,-0.158552999999999999,-0.025916999999999999,0.347111999999999976,0.090541999999999997,-0.004520000000000000,0.057689999999999998,0.042282000000000000,-0.495120999999999978,-1.771150000000000002,-0.617627000000000037,-0.003068000000000000,0.617283000000000026,-0.070138000000000006,-0.030561999999999999,-0.188990999999999992,0.504422000000000037,-0.136871999999999994,-1.089190000000000103,0.226993000000000000,-0.436232000000000009,0.788112000000000035,-0.288453999999999988,-0.872622000000000009,0.894580999999999960,-0.666949000000000014,-0.032145000000000000,-0.154321000000000014,0.120841000000000004,-0.316942000000000002,0.068394999999999997,-0.394309000000000021,0.172854000000000008,0.224754000000000009,-14.156299999999999883,0.049589000000000001,-0.231236999999999998,0.846092999999999984,0.663737000000000021,0.127952000000000010,-0.210718999999999990,0.486653000000000002,-0.225231999999999988,-0.299912000000000012,0.158632999999999996,-2.198630000000000084,-0.328064000000000022,-0.053390000000000000,-0.282079999999999997,-0.027359000000000001
-0.109510999999999997,0.154392000000000001,-0.134005999999999986,0.296986000000000028,-0.697790000000000021,-0.066375000000000003,-0.012784000000000000,-0.110094999999999998,-0.053739000000000002,-0.760193000000000008,0.162392000000000009,-0.339154000000000011,0.252462000000000020,-0.455000999999999989,0.019983999999999998,-0.523448000000000024,0.434531000000000001,-1.047390000000000043,0.060082000000000003,-0.086748000000000006,-0.244744999999999990,-0.009063999999999999,-0.170216000000000006,-0.730939000000000005,0.244453000000000004,0.822895000000000043,-0.080061999999999994,-0.401834999999999998,0.005741000000000000,-0.249282000000000004,-0.278303000000000023,-0.059310000000000002,-0.083781999999999995,-0.243209000000000009,0.219940999999999998,-0.161179999999999990,-0.297758000000000023,-0.640337999999999963,-0.094244999999999995,-0.102859999999999993,0.086110999999999993,0.368460999999999983,0.179907000000000011,-0.482642999999999989,0.372960999999999987,-0.200723000000000013,-0.126423000000000008,-0.066921999999999995,-0.233759999999999996,-0.245365000000000000
-0.208032999999999996,-0.145494000000000012,-0.011556000000000000,0.434757999999999978,0.962714999999999987,-0.054389000000000000,-0.235329000000000010,-0.114181000000000005,-0.305319000000000007,0.145655000000000007,-0.186088000000000003,0.344032999999999978,0.178879000000000010,-0.456851000000000007,0.034805000000000003,-0.772194000000000047,-0.900321000000000038,0.946985999999999994,-0.855033999999999961,0.044872000000000002,0.293480999999999992,0.973463999999999996,0.377991000000000021,0.480184000000000000,0.310829000000000022,-0.526359000000000021,-0.129858000000000001,-0.097379999999999994,-0.121106000000000005,0.066312999999999997,-0.063258999999999996,0.242234000000000005,0.174551000000000012,0.485908000000000007,-0.874052999999999969,0.056959999999999997,-0.037082999999999998,-0.391106000000000009,-0.170493000000000006,-0.171888999999999986,0.094284999999999994,0.508104000000000000,-0.165886000000000006,0.028409000000000000,-0.436342000000000008,0.523096000000000005,0.188118000000000007,-0.038363000000000001,-0.159808000000000006,0.315056999999999976
-1.695500000000000007,-0.185128999999999988,0.041206000000000000,1.458669999999999911,0.866893000000000025,0.037371000000000001,-0.317161999999999999,0.110539999999999999,0.625072999999999990,-0.341681000000000012,-0.121070999999999998,0.006278000000000000,0.468077999999999994,0.837982000000000005,0.038478999999999999,1.471459999999999990,0.190625999999999990,-0.846494999999999997,0.654757999999999951,0.010890000000000000,0.068071000000000007,-0.259068000000000020,0.503979999999999984,-0.285615999999999981,-0.026144000000000001,-0.765457999999999972,0.242437999999999987,-0.115584000000000006,-1.419910000000000005,-0.143418999999999991,-0.060207999999999998,-0.246367000000000003,-0.901510999999999951,-0.743968999999999991,-0.372684999999999989,0.289036000000000015,-0.340845000000000009,0.316363000000000005,-1.996320000000000094,-0.059207000000000003,0.343088000000000004,0.272280999999999995,-0.139818999999999999,0.182375000000000009,0.567338000000000009,-0.061664999999999998,-0.036733000000000002,0.024442999999999999,0.345461999999999991,-0.396353999999999984
-1.000529999999999919,-0.024323000000000001,0.075786000000000006,0.608835000000000015,1.892779999999999907,0.180538000000000004,-0.216469999999999996,-0.375481000000000009,-0.020941999999999999,-0.292623000000000022,0.982126999999999972,0.592674000000000034,-0.209305999999999992,0.535646999999999984,-0.035244999999999999,1.977009999999999934,-0.309979999999999978,0.776997000000000049,0.004131000000000000,0.189239999999999992,0.352719999999999978,0.491008999999999973,0.408839999999999981,0.939667000000000030,-0.005257000000000000,0.428088999999999997,0.055917000000000001,0.180103000000000013,0.325678000000000023,0.563066999999999984,0.167784999999999990,0.615051000000000014,-0.006747000000000000,-0.091250999999999999,0.037051000000000001,-0.069361999999999993,0.095334000000000002,0.972669000000000006,-2.702970000000000095,-0.364682000000000006,0.439209999999999989,-6.600459999999999994,-0.338370999999999977,0.409490000000000021,0.489186000000000010,0.187048999999999993,-0.237475999999999993,-0.003244000000000000,0.629488999999999965,-0.172201999999999994
-0.212944999999999995,0.546112000000000042,-0.177030999999999994,-1.537970000000000059,-1.294189999999999952,0.373327000000000020,-0.305701999999999974,0.142811999999999995,0.150732000000000005,0.388743999999999978,0.279216000000000020,-0.714539999999999953,1.014299999999999979,0.008961999999999999,-0.050278000000000003,1.716499999999999915,-0.076484999999999997,-0.070310999999999998,0.523703999999999947,-0.236489000000000005,0.003642000000000000,0.169288999999999995,0.005358000000000000,0.492958000000000007,0.085804000000000005,-0.490093000000000001,-0.479418999999999984,0.471343000000000012,-0.088976000000000000,-0.099034999999999998,-0.624224000000000001,0.048066999999999999,-1.033910000000000107,-0.295316999999999996,1.059290000000000065,0.386388000000000009,0.002558000000000000,-1.094610000000000083,-0.034137000000000001,0.364584999999999992,-0.225662000000000001,-0.283617000000000008,0.323546999999999974,0.262548999999999977,-0.421379000000000004,-0.089370000000000005,0.164018999999999998,-0.007028000000000000,0.090929999999999997,-0.704929999999999946
-0.880842000000000014,-0.051070999999999998,-0.012548999999999999,0.023056000000000000,0.939011000000000040,-0.077567999999999998,0.044134000000000000,-0.160258000000000012,-0.156614000000000003,0.676587000000000049,-0.034233000000000000,0.036358000000000001,0.310979000000000005,-1.259319999999999995,-0.040523000000000003,-0.033255000000000000,-0.284561000000000008,0.324284999999999990,-0.345700999999999981,-0.139798000000000006,0.312645000000000006,-0.518635999999999986,-0.695899000000000045,0.053388999999999999,0.191184999999999994,-0.540448000000000039,-0.216970999999999997,0.369985000000000008,0.008229000000000000,-0.157202000000000008,0.087442000000000006,0.033114999999999999,0.341731000000000007,0.396834999999999993,0.150817000000000007,0.105207999999999996,-0.039128999999999997,-0.680754999999999999,-0.875874999999999959,-0.002585000000000000,0.044457000000000003,0.465646999999999978,0.122383000000000006,-0.334967999999999988,-0.137373999999999996,0.531758999999999982,-0.051139999999999998,-0.045072000000000001,0.262915000000000010,0.488111000000000017
0.002888000000000000,0.028976999999999999,-0.017441000000000002,0.040957000000000000,-0.013306999999999999,0.023033999999999999,0.033689999999999998,-0.021263000000000001,0.021165000000000000,0.021645000000000001,-0.042875000000000003,-0.018201999999999999,-0.038530000000000002,0.036769000000000003,0.049632999999999997,0.038785000000000000,-0.050022999999999998,-0.022426999999999999,-0.015734999999999999,-0.038460000000000001,0.040973999999999997,0.045536000000000000,0.020839000000000000,-0.011882000000000000,0.047770000000000000,0.003222000000000000,-0.045198000000000002,0.008933000000000000,-0.017382999999999999,-0.041191999999999999,0.012192000000000000,-0.017698999999999999,0.029745000000000001,0.006014000000000000,0.032222000000000001,0.014434000000000001,-0.010359000000000000,-0.028420999999999998,-0.031594999999999998,-0.027002000000000002,-0.019300999999999999,0.025676000000000001,-0.027816000000000000,0.008152000000000000,0.022103999999999999,-0.044241999999999997,-0.018172000000000001,0.030699000000000001,-0.014055000000000000,0.021972999999999999
-0.058761000000000001,0.094352000000000005,0.135627999999999999,0.032610000000000000,0.755067999999999961,-0.094149999999999998,-0.072264999999999996,0.134853000000000001,-0.358304000000000011,-0.020979000000000001,0.373817999999999984,-0.187944000000000000,0.363922000000000023,0.147398000000000001,0.006561000000000000,-0.815258999999999956,0.341940000000000022,-0.611006000000000049,0.293173999999999990,0.095922999999999994,0.309288999999999981,-0.174120999999999998,0.753033999999999981,-0.587805000000000022,0.212174000000000001,-0.112692000000000001,0.445020000000000027,-0.207877000000000006,-0.289849000000000023,0.170867999999999992,-0.059180000000000003,0.199286999999999992,-0.001272000000000000,0.595125000000000015,-0.068266999999999994,0.207483000000000001,-0.172752999999999990,-1.463799999999999990,-0.215703000000000006,-0.126933999999999991,0.452508999999999995,0.255825999999999998,-0.081033999999999995,-0.444624000000000019,0.133322999999999997,0.200113999999999986,-0.182413999999999993,0.010926999999999999,0.070389999999999994,-0.040300999999999997
0.393332000000000015,0.244394000000000000,0.038559999999999997,0.362522999999999984,-0.037296000000000003,0.207511000000000001,0.124495999999999996,-0.406272999999999995,0.050065999999999999,-0.063222000000000000,-0.410173000000000010,-0.123645000000000005,-1.356330000000000036,-0.443510000000000015,0.007065000000000000,1.456210000000000004,0.049964000000000001,-0.333065000000000000,0.068470000000000003,0.158213999999999994,-0.247261000000000009,-0.464932000000000012,-0.132630999999999999,-0.398562000000000027,-0.073138999999999996,-0.088612999999999997,0.775422999999999973,-0.546421000000000046,0.041590000000000002,0.275753000000000026,-0.826848000000000027,-0.019885000000000000,-2.393780000000000019,0.184359999999999996,-0.296650000000000025,-0.027234999999999999,-0.087666999999999995,0.768668000000000018,-2.312899999999999956,0.073451000000000002,1.045279999999999987,-0.340032000000000001,-0.292420999999999986,-0.296792000000000000,-0.129448000000000008,-0.546410999999999980,0.535811000000000037,0.022571000000000001,0.087026999999999993,0.198956999999999995
