0.007372750900685787
-0.016845872625708580
0.054883785545825958
0.039509691298007965
0.068025119602680206
0.001800811383873224
0.032756209373474121
0.091570056974887848
-0.007193218916654587
-0.037688646465539932
-0.001820818288251758
0.061175242066383362
0.006564644630998373
0.001895197667181492
0.038865998387336731
0.014259114861488342
0.069115079939365387
0.054168924689292908
0.031280886381864548
0.092363223433494568
-0.047632280737161636
0.016094589605927467
-0.002913533709943295
-0.013044674880802631
-0.008151527494192123
0.077684208750724792
-0.040575090795755386
0.046563386917114258
0.079255513846874237
0.090584047138690948
-0.047363258898258209
0.039809383451938629
0.030051318928599358
0.095559820532798767
0.023806864395737648
0.033583108335733414
0.021876718848943710
-0.054188072681427002
0.099240809679031372
-0.052514217793941498
0.016391135752201080
-0.002144508995115757
0.088507279753684998
0.076104559004306793
0.059429325163364410
-0.025178102776408195
-0.020420944318175316
-0.078700348734855652
-0.037791959941387177
0.011403065174818039
0.085151672363281250
0.013494643382728100
0.052460156381130219
0.023137828335165977
0.012637340463697910
-0.018703408539295197
0.041136015206575394
0.029885845258831978
0.003170748706907034
0.083933494985103607
0.072078526020050049
-0.006431687157601118
-0.030558610334992409
0.003542239777743816
-0.026473443955183029
0.026750551536679268
-0.021110856905579567
-0.003738841041922569
-0.012810774147510529
0.068654477596282959
-0.063412144780158997
-0.004032825585454702
0.036031756550073624
0.064547866582870483
0.030025750398635864
0.011366201564669609
0.008551346138119698
-0.005411645863205194
0.034090135246515274
0.027376862242817879
0.109376750886440277
-0.026390284299850464
0.050111245363950729
0.008743057958781719
0.069779485464096069
0.002489916281774640
0.071019545197486877
0.025457851588726044
-0.020824152976274490
0.039298314601182938
0.071909040212631226
0.015837313607335091
0.063162818551063538
0.006067410577088594
