0.041039288043975830,0.064564242959022522,-0.081830337643623352,-0.064815655350685120,0.016828633844852448,0.052914097905158997,-0.053162954747676849,-0.020388297736644745,-0.071940451860427856,0.021381415426731110,-0.056629810482263565,0.070158481597900391,-0.016691535711288452,-0.026825491338968277,-0.034972410649061203,-0.013524658977985382,-0.070754900574684143,0.015499331057071686,-0.015571698546409607,-0.001381963491439819,0.012085832655429840,0.039916977286338806,-0.067956395447254181,0.042466104030609131,0.053186163306236267,0.018934726715087891,-0.063673466444015503,0.069284752011299133,0.011074699461460114,0.051473706960678101,0.083326593041419983,-0.044708732515573502,-0.075577594339847565,-0.052810553461313248,0.022758774459362030,-0.066982366144657135,0.080069974064826965,-0.067897520959377289,-0.073032304644584656,-0.070235691964626312,0.034823328256607056,0.051057711243629456,-0.079529725015163422,0.033235773444175720,-0.073013782501220703,0.016625761985778809,-0.051150511950254440,0.063790708780288696,0.038035333156585693,0.047489777207374573,0.030257105827331543,0.055026024580001831,0.065152525901794434,0.065341964364051819,-0.025158774107694626,0.079490736126899719,0.010253593325614929,-0.001666776835918427,-0.063717700541019440
0.010919652879238129,0.022887296974658966,-0.069734528660774231,0.022331386804580688,0.069742858409881592,-0.013887301087379456,0.026187568902969360,-0.005705118179321289,0.024495892226696014,0.010353542864322662,0.020521335303783417,-0.055682495236396790,-0.051761861890554428,-0.063325047492980957,-0.002979286015033722,0.033758036792278290,0.061947956681251526,0.080554798245429993,0.066035151481628418,-0.030131697654724121,0.002923756837844849,-0.040330562740564346,-0.022559400647878647,-0.017575412988662720,0.080308899283409119,-0.053054034709930420,-0.050239522010087967,-0.040451187640428543,-0.040396779775619507,-0.032856080681085587,-0.014182195067405701,0.041632249951362610,0.037574015557765961,-0.024876106530427933,0.015793457627296448,0.040390059351921082,0.019652925431728363,0.054503425955772400,0.037512727081775665,0.019712179899215698,0.073855355381965637,-0.061500795185565948,-0.033396709710359573,0.026288181543350220,0.017218001186847687,0.003159090876579285,-0.009437240660190582,0.072261467576026917,-0.068505048751831055,0.068292349576950073,0.075216770172119141,0.052839532494544983,-0.055013939738273621,0.054521813988685608,-0.023754339665174484,-0.036768365651369095,-0.046710532158613205,0.028647214174270630,-0.073997527360916138
0.070917144417762756,0.009539343416690826,-0.002133004367351532,-0.020416095852851868,0.055345848202705383,0.044949904084205627,0.009108580648899078,-0.031667977571487427,0.059501126408576965,-0.084151275455951691,0.019483119249343872,-0.024589702486991882,-0.000026568770408630,0.079267278313636780,0.011102333664894104,-0.066609211266040802,0.012850537896156311,0.079195693135261536,0.010195709764957428,0.033663339912891388,-0.044944509863853455,0.033394396305084229,-0.015002064406871796,-0.020068362355232239,0.079439431428909302,0.027212351560592651,-0.014665134251117706,-0.008516855537891388,0.063420727849006653,0.069165721535682678,-0.048769157379865646,0.045778155326843262,0.028134964406490326,-0.031397219747304916,-0.063865758478641510,0.011654227972030640,0.017703756690025330,-0.052357383072376251,-0.034573789685964584,-0.017480432987213135,0.070575982332229614,0.019275359809398651,-0.004197582602500916,0.036321267485618591,-0.062749519944190979,0.067227914929389954,-0.059872757643461227,0.011958129703998566,-0.081580422818660736,0.006520323455333710,0.066518977284431458,-0.068275488913059235,0.023745834827423096,0.002408713102340698,-0.043413579463958740,0.067197367548942566,0.008199058473110199,-0.083379715681076050,-0.063186481595039368
-0.047247841954231262,0.021026097238063812,-0.058333538472652435,-0.031123466789722443,0.084220305085182190,0.028038516640663147,0.002857394516468048,0.079963907599449158,0.007778406143188477,0.028550423681735992,0.003411583602428436,-0.055661879479885101,-0.046515766531229019,-0.030223537236452103,0.028454296290874481,-0.052330508828163147,0.080616444349288940,-0.049335088580846786,-0.080796673893928528,-0.061593342572450638,0.029242552816867828,-0.002300076186656952,-0.072968304157257080,0.008940622210502625,-0.056899383664131165,-0.014142163097858429,-0.061524569988250732,0.065163880586624146,0.035832509398460388,0.009980849921703339,-0.066015340387821198,0.003331787884235382,-0.027519531548023224,-0.005463488399982452,-0.061372529715299606,-0.060336425900459290,0.050291836261749268,-0.008337862789630890,-0.032470211386680603,-0.000913061201572418,-0.052828796207904816,-0.051892202347517014,0.056141138076782227,-0.014109641313552856,0.075843423604965210,-0.077657580375671387,-0.042251404374837875,0.073389828205108643,-0.020385883748531342,0.065271839499473572,0.057042449712753296,-0.032856561243534088,-0.026999279856681824,0.047183483839035034,0.041650593280792236,-0.068144500255584717,-0.023418392986059189,0.071586593985557556,0.039051786065101624
-0.014369800686836243,-0.000494144856929779,-0.032097395509481430,-0.012948490679264069,0.073620319366455078,-0.035252884030342102,-0.038341313600540161,0.040512934327125549,0.004462450742721558,0.019399605691432953,0.033869951963424683,-0.033449608832597733,0.020955555140972137,0.026751331984996796,0.060395821928977966,-0.043383028358221054,0.007586881518363953,-0.009828060865402222,-0.026309724897146225,0.083612799644470215,0.007598623633384705,-0.053322177380323410,0.025138333439826965,0.077789306640625000,0.055816367268562317,-0.041297391057014465,-0.084274716675281525,0.027983970940113068,-0.051273249089717865,-0.004626557230949402,0.066516220569610596,0.059373840689659119,-0.037351917475461960,0.056261032819747925,0.024279765784740448,-0.023970849812030792,0.033648781478404999,-0.070432692766189575,0.030803889036178589,0.028803519904613495,0.009828060865402222,0.053712233901023865,0.021621577441692352,-0.080633327364921570,0.046441242098808289,-0.039017591625452042,0.072316482663154602,-0.063406012952327728,0.012660734355449677,-0.048070412129163742,0.010328218340873718,-0.020510971546173096,-0.060727849602699280,0.015599399805068970,0.035737052559852600,0.054053694009780884,-0.032131224870681763,-0.048614419996738434,-0.035097140818834305
-0.081863284111022949,0.081001535058021545,0.056122779846191406,0.061984419822692871,-0.031449981033802032,0.066501304507255554,-0.070319347083568573,0.064507186412811279,-0.068341240286827087,0.010992586612701416,0.042263209819793701,-0.025879424065351486,-0.013175241649150848,0.063683807849884033,0.041124582290649414,0.040154747664928436,-0.063682623207569122,0.077300757169723511,0.031203277409076691,-0.024546176195144653,0.026124231517314911,-0.021980635821819305,0.077293455600738525,-0.016951732337474823,0.052857622504234314,0.032341174781322479,-0.068282328546047211,0.009850747883319855,0.006772801280021667,0.043374925851821899,-0.051677241921424866,0.000244751572608948,0.066528186202049255,0.007217541337013245,-0.022929601371288300,-0.079176537692546844,0.054899483919143677,0.024888016283512115,0.051127597689628601,0.074185907840728760,-0.052447173744440079,0.009781681001186371,-0.040052726864814758,0.041500255465507507,-0.045641466975212097,0.025477863848209381,0.027326799929141998,-0.006650365889072418,-0.048313993960618973,-0.071192763745784760,0.080142885446548462,0.050230145454406738,0.043068528175354004,0.048111185431480408,0.051300749182701111,-0.027841798961162567,-0.071808539330959320,0.009055659174919128,-0.077808476984500885
0.039744615554809570,-0.009961456060409546,0.029088594019412994,-0.057030849158763885,-0.083480283617973328,-0.069923460483551025,0.021922044456005096,-0.021455451846122742,0.066846191883087158,0.032345943152904510,0.021202519536018372,0.035867996513843536,0.021731078624725342,-0.046009253710508347,0.060307830572128296,-0.073561467230319977,0.058578491210937500,-0.049663010984659195,-0.043599817901849747,0.058972403407096863,-0.084011681377887726,0.025668427348136902,0.008012458682060242,0.032432436943054199,-0.057962294667959213,-0.040961220860481262,0.047782912850379944,-0.001764491200447083,0.061357364058494568,-0.027942731976509094,0.006193332374095917,0.054809033870697021,0.042835801839828491,0.055949509143829346,0.070746913552284241,-0.018809191882610321,-0.065729260444641113,-0.037167951464653015,-0.020832374691963196,0.018642425537109375,0.050703629851341248,0.064457356929779053,0.030351303517818451,0.021155290305614471,-0.008590213954448700,-0.070678465068340302,0.056960448622703552,0.084184899926185608,-0.046176582574844360,-0.077495716512203217,-0.024444941431283951,0.041813194751739502,-0.082569353282451630,-0.053225688636302948,0.060249075293540955,0.018585950136184692,0.049464285373687744,-0.027163952589035034,0.036282569169998169
0.013709329068660736,-0.006309971213340759,-0.029005244374275208,0.044737979769706726,0.036230511963367462,0.072322815656661987,0.056666553020477295,0.009169124066829681,-0.012883923947811127,0.075750365853309631,-0.062464103102684021,0.078149348497390747,-0.038273829966783524,0.027734167873859406,-0.056620821356773376,-0.039787258952856064,0.035832956433296204,0.026011936366558075,0.031547009944915771,0.055327802896499634,-0.069465182721614838,0.036299966275691986,0.022406250238418579,0.055464714765548706,0.071530416607856750,0.056383579969406128,0.003474339842796326,0.036348484456539154,-0.072821587324142456,-0.030334711074829102,-0.022933322936296463,0.022432178258895874,0.015748284757137299,0.025594629347324371,0.075019538402557373,-0.039313793182373047,-0.000850707292556763,-0.082566440105438232,-0.054705850780010223,-0.011443935334682465,0.016644611954689026,0.060700893402099609,-0.000670686364173889,-0.041452690958976746,0.028020374476909637,-0.009842425584793091,-0.051851328462362289,-0.041790548712015152,-0.054825030267238617,-0.059194847941398621,0.020683690905570984,0.045571446418762207,0.074585065245628357,-0.015055149793624878,-0.058858498930931091,0.000175297260284424,-0.007854841649532318,-0.075535252690315247,-0.071475751698017120
-0.055104836821556091,0.064373254776000977,-0.051552031189203262,-0.077577605843544006,-0.045197162777185440,0.039158791303634644,0.011359274387359619,-0.030162312090396881,-0.074257381260395050,0.016797699034214020,0.071161776781082153,0.030172668397426605,-0.047041472047567368,0.031124696135520935,0.018371447920799255,0.058845922350883484,0.063281074166297913,0.070934042334556580,0.008408300578594208,0.078524067997932434,0.047009766101837158,0.037470787763595581,-0.058082997798919678,-0.013565495610237122,0.077063247561454773,0.073863580822944641,0.023023918271064758,-0.030806165188550949,0.036324687302112579,-0.009322613477706909,-0.033472839742898941,0.057331338524818420,-0.043278675526380539,0.020247377455234528,-0.055483002215623856,0.055645778775215149,0.024080492556095123,-0.029014274477958679,-0.063546910881996155,0.010493800044059753,-0.050925396382808685,0.066776677966117859,0.068485662341117859,0.081318661570549011,0.048086345195770264,0.005925752222537994,-0.055984124541282654,-0.049775872379541397,0.052228108048439026,-0.071587346494197845,0.025527462363243103,-0.055771760642528534,-0.052730076014995575,0.018372841179370880,0.077603161334991455,0.024336643517017365,0.030420452356338501,-0.034301243722438812,0.057602152228355408
-0.031042065471410751,-0.032717552036046982,-0.028830289840698242,-0.038725953549146652,-0.073452107608318329,-0.029317393898963928,-0.018669076263904572,0.076460927724838257,-0.025932785123586655,-0.020332522690296173,-0.015603557229042053,-0.041301835328340530,0.052193835377693176,-0.047845073044300079,0.037598937749862671,0.037116095423698425,-0.082025766372680664,0.037133052945137024,-0.006815440952777863,0.063632309436798096,-0.060332544147968292,0.010673180222511292,-0.045278605073690414,0.050015851855278015,-0.068672865629196167,0.039481580257415771,0.028237387537956238,-0.046843305230140686,-0.030758153647184372,0.018137119710445404,-0.075665250420570374,-0.025817409157752991,-0.042709685862064362,-0.055443517863750458,0.071555390954017639,0.035092756152153015,-0.009109802544116974,-0.050117731094360352,0.035357959568500519,0.036739543080329895,0.056849017739295959,-0.029229052364826202,-0.042089845985174179,-0.014279522001743317,-0.015449367463588715,-0.014644011855125427,0.046606078743934631,-0.005132086575031281,-0.034362930804491043,0.079549714922904968,-0.054080463945865631,0.066449701786041260,0.016607396304607391,-0.052980195730924606,-0.074561744928359985,0.025584809482097626,0.037824518978595734,0.001562751829624176,-0.044173654168844223
0.019767671823501587,-0.032490566372871399,-0.023394178599119186,-0.046194948256015778,0.018607407808303833,-0.065389364957809448,0.022729486227035522,0.070187181234359741,0.068207398056983948,-0.063976891338825226,0.010983899235725403,0.047721102833747864,0.062147855758666992,0.009504601359367371,0.016810849308967590,-0.003847256302833557,-0.050132576376199722,-0.043818719685077667,-0.023966122418642044,0.042896330356597900,-0.030433289706707001,0.014264583587646484,-0.015185467898845673,-0.012106776237487793,-0.029109373688697815,-0.082785479724407196,-0.039667800068855286,-0.011373832821846008,-0.074304953217506409,-0.013718664646148682,0.034187957644462585,0.020868539810180664,-0.061241626739501953,0.005071163177490234,-0.069098338484764099,0.072542324662208557,0.076673030853271484,0.049252033233642578,0.056808248162269592,0.062565699219703674,-0.014318570494651794,0.081346198916435242,0.065626576542854309,-0.025123331695795059,-0.083617061376571655,0.066316455602645874,0.042194709181785583,-0.018315330147743225,-0.079345338046550751,-0.026198655366897583,0.074343994259834290,0.054128319025039673,-0.000882126390933990,-0.047342680394649506,-0.066694132983684540,0.073738843202590942,-0.071253210306167603,0.034190595149993896,-0.002613089978694916
-0.052335437387228012,-0.054794713854789734,0.041433885693550110,0.081309720873832703,0.030235044658184052,0.074289366602897644,0.006545230746269226,-0.079494506120681763,-0.073607288300991058,-0.063614919781684875,0.021857157349586487,0.042261138558387756,0.041224166750907898,0.076342150568962097,0.009157091379165649,0.049163654446601868,-0.024783018976449966,0.046245679259300232,-0.012409836053848267,0.053896442055702209,0.075269952416419983,0.072707548737525940,-0.046436898410320282,0.076888337731361389,-0.080146804451942444,-0.057825297117233276,-0.030401930212974548,0.039244420826435089,-0.014778494834899902,-0.074233084917068481,-0.052400708198547363,0.058009788393974304,0.032639950513839722,-0.026199780404567719,-0.081685557961463928,0.038309812545776367,-0.034013930708169937,-0.056350164115428925,0.075033664703369141,0.051497444510459900,0.056693717837333679,-0.081039890646934509,-0.082828707993030548,-0.017881974577903748,0.065946444869041443,-0.019220910966396332,0.006361342966556549,-0.016139581799507141,0.022219069302082062,-0.048205196857452393,-0.058485984802246094,0.077997028827667236,0.014931082725524902,0.000952161848545074,0.047715902328491211,0.066788837313652039,0.064096495509147644,-0.077061638236045837,-0.070028819143772125
-0.079400770366191864,-0.023990556597709656,0.009987927973270416,-0.011201576329767704,0.034058496356010437,-0.044379021972417831,0.034311257302761078,-0.043120115995407104,-0.028080657124519348,-0.074103929102420807,-0.033004306256771088,-0.077245227992534637,0.017916413024067879,-0.070591941475868225,0.036691896617412567,0.049961671233177185,0.078040786087512970,0.066127605736255646,-0.066767893731594086,-0.033967148512601852,-0.060586553066968918,-0.024855565279722214,-0.045794423669576645,0.042081054300069809,-0.004067659843713045,0.066252663731575012,0.013165846467018127,0.008127387613058090,-0.011855266988277435,-0.016626849770545959,-0.077075928449630737,0.072708770632743835,0.030808025971055031,-0.038361523300409317,0.064123950898647308,0.024145670235157013,0.022805120795965195,-0.031220413744449615,-0.071059212088584900,-0.050627645105123520,-0.036416299641132355,-0.011263174004852772,-0.062774866819381714,-0.014839369803667068,-0.080177590250968933,-0.039943043142557144,0.061462357640266418,-0.035918883979320526,-0.054824229329824448,-0.012285344302654266,-0.073514200747013092,-0.020303636789321899,-0.030040841549634933,0.040475301444530487,0.037720248103141785,0.080420538783073425,0.077359840273857117,-0.033691901713609695,-0.043298009783029556
0.053510185331106186,0.020560471341013908,-0.081774644553661346,-0.068651571869850159,0.012633254751563072,0.053206957876682281,0.075940579175949097,0.030699281021952629,0.077564656734466553,0.083039708435535431,0.022726954892277718,0.069396108388900757,-0.054026331752538681,-0.016102328896522522,-0.049632683396339417,-0.013615034520626068,-0.036012839525938034,0.047289565205574036,-0.041340857744216919,0.045680847018957138,-0.002598262624815106,0.022787081077694893,-0.064661271870136261,-0.026534350588917732,-0.075056999921798706,0.045816853642463684,0.078813031315803528,-0.051103357225656509,-0.053682845085859299,0.040794141590595245,-0.004979623947292566,-0.082691416144371033,-0.014652755111455917,-0.026720514521002769,0.038978300988674164,0.079803183674812317,-0.052654851227998734,-0.015113723464310169,-0.034466676414012909,-0.054125197231769562,0.077377878129482269,-0.002267573494464159,0.024802152067422867,-0.065981231629848480,0.065696395933628082,0.073563084006309509,0.009366422891616821,-0.021496005356311798,0.032955829054117203,0.020924784243106842,-0.009075589478015900,0.045637026429176331,-0.062471184879541397,-0.035953480750322342,-0.001120194792747498,-0.080428861081600189,0.047286551445722580,-0.039310492575168610,-0.041160665452480316
-0.016507681459188461,0.082458727061748505,0.051019534468650818,0.028205867856740952,-0.070144988596439362,0.081081509590148926,-0.045740567147731781,-0.010931551456451416,-0.083306297659873962,0.013687501661479473,0.073169261217117310,-0.024868782609701157,0.027520058676600456,-0.038251783698797226,-0.054123885929584503,-0.082657538354396820,0.079428553581237793,0.002782914321869612,0.058513075113296509,0.043946944177150726,-0.022610379382967949,0.008602458052337170,0.062653064727783203,-0.082797937095165253,-0.044615622609853745,0.033931903541088104,-0.020750917494297028,-0.079836569726467133,-0.056671626865863800,0.066234499216079712,0.044432800263166428,0.026134051382541656,-0.077192611992359161,-0.039350125938653946,-0.008363283239305019,0.000248713797191158,0.079205825924873352,0.040416106581687927,0.083550065755844116,0.029552815482020378,-0.055637896060943604,-0.064580939710140228,0.032028093934059143,-0.045747630298137665,-0.048605524003505707,-0.058730896562337875,-0.031222466379404068,-0.029903523623943329,0.035456240177154541,-0.022968921810388565,-0.012144245207309723,-0.018730826675891876,-0.037691101431846619,-0.072818830609321594,0.035510607063770294,-0.064605377614498138,0.049382161349058151,-0.084247395396232605,0.069722697138786316
0.081323415040969849,-0.083237811923027039,0.004008911550045013,0.034441724419593811,0.064715459942817688,0.014549048617482185,-0.035116568207740784,-0.027395343407988548,-0.040553908795118332,-0.077862277626991272,0.077055200934410095,-0.082646735012531281,-0.071874693036079407,-0.042195662856101990,0.028328724205493927,-0.005829609930515289,-0.008441450074315071,-0.030593836680054665,-0.023634340614080429,-0.051731396466493607,0.047444120049476624,0.047262363135814667,0.048291090875864029,-0.047408942133188248,0.003165870904922485,0.083981409668922424,-0.083207271993160248,-0.044425401836633682,-0.042174004018306732,-0.008890849538147449,-0.013894018717110157,-0.044551901519298553,-0.060344051569700241,-0.005002346355468035,-0.047125864773988724,-0.056648425757884979,-0.072239443659782410,0.016168411821126938,-0.015678588300943375,-0.038875732570886612,0.009830283001065254,0.064552798867225647,-0.033467546105384827,0.077209614217281342,-0.011519003659486771,-0.008218564093112946,0.062772572040557861,0.044537886977195740,0.034146625548601151,0.042825013399124146,0.049997344613075256,0.001113161444664001,0.044863149523735046,0.038602352142333984,0.062253043055534363,-0.000201866030693054,-0.046017147600650787,-0.065380781888961792,-0.003347016870975494
-0.008386984467506409,0.079091534018516541,-0.048605185002088547,-0.004534274339675903,-0.009411476552486420,0.004564724862575531,0.033852316439151764,0.007229857146739960,0.037746816873550415,-0.043352916836738586,-0.064838379621505737,0.030604742467403412,0.053425759077072144,0.037729315459728241,-0.084273286163806915,0.057797312736511230,-0.046087957918643951,-0.023648280650377274,0.023339226841926575,-0.075157128274440765,-0.037059739232063293,0.065269172191619873,0.011160381138324738,0.065293386578559875,0.013712644577026367,-0.041326917707920074,-0.042700555175542831,0.075802668929100037,0.036691203713417053,0.067659035325050354,-0.013809561729431152,-0.017742335796356201,0.022096410393714905,-0.048964787274599075,0.069441705942153931,0.029234223067760468,0.041637003421783447,-0.021533377468585968,0.075721696019172668,-0.055868029594421387,-0.076299868524074554,-0.039734639227390289,0.079165920615196228,-0.054824866354465485,-0.044040158390998840,0.054741859436035156,-0.077190205454826355,-0.015037328004837036,-0.056724246591329575,0.083132654428482056,-0.002249121665954590,-0.032693095505237579,-0.064069576561450958,0.034063629806041718,0.075760453939437866,-0.080195181071758270,0.043041884899139404,-0.070945866405963898,0.034510210156440735
0.072670638561248779,-0.005231149494647980,0.026207424700260162,-0.017240770161151886,-0.011429548263549805,0.010818243026733398,-0.044057194143533707,-0.061217568814754486,0.008599951863288879,0.023210316896438599,-0.034045431762933731,-0.055397398769855499,0.023437120020389557,0.025687932968139648,0.070968508720397949,-0.042307622730731964,-0.049840819090604782,-0.062614902853965759,0.054459795355796814,0.014981366693973541,0.038320973515510559,-0.018518425524234772,-0.019128121435642242,0.022479020059108734,0.064618125557899475,0.013750746846199036,0.038338579237461090,0.038469523191452026,0.080714359879493713,-0.071320950984954834,-0.038019426167011261,0.028193257749080658,0.082531139254570007,0.045379757881164551,-0.002549670636653900,0.055760800838470459,-0.060127243399620056,0.055311530828475952,-0.018508866429328918,0.008126243948936462,-0.067607492208480835,-0.032749272882938385,-0.015128768980503082,-0.000843927264213562,-0.021975547075271606,0.070058569312095642,-0.001529060304164886,-0.038598190993070602,0.027393333613872528,0.051303699612617493,0.037504002451896667,-0.030255258083343506,0.013958945870399475,-0.066503711044788361,-0.024547182023525238,0.066673696041107178,0.076617792248725891,0.015687495470046997,0.068178415298461914
-0.026143882423639297,-0.075141720473766327,0.039873428642749786,-0.072123125195503235,-0.021839872002601624,0.041468888521194458,0.053228527307510376,-0.067578732967376709,0.021472588181495667,0.033123962581157684,0.049981027841567993,-0.055176042020320892,0.081392943859100342,0.055576696991920471,0.082929596304893494,0.011912629008293152,-0.054490752518177032,0.058493748307228088,-0.004524037241935730,-0.083448186516761780,0.028074316680431366,0.023907572031021118,-0.038591470569372177,0.059730246663093567,-0.021963093429803848,-0.065008565783500671,0.001961253583431244,0.029810130596160889,0.058875963091850281,-0.059452027082443237,-0.072589851915836334,-0.074993394315242767,0.078280881047248840,0.023881927132606506,-0.011138193309307098,0.037699751555919647,-0.003757528960704803,0.015287443995475769,0.030335128307342529,0.075016394257545471,-0.059182941913604736,-0.048827748745679855,-0.060409884899854660,-0.004358597099781036,-0.072758935391902924,0.007215999066829681,0.034432142972946167,-0.078043691813945770,0.019217632710933685,-0.010009109973907471,0.005245916545391083,-0.057709239423274994,0.049158424139022827,-0.082820624113082886,0.019082784652709961,0.045687392354011536,-0.080382242798805237,0.082039728760719299,-0.066547743976116180
-0.041485961526632309,-0.013824760913848877,0.019138969480991364,0.049559280276298523,0.062884658575057983,0.054662287235260010,-0.018821708858013153,0.047725096344947815,-0.077690221369266510,-0.024859312921762466,-0.062292508780956268,0.012611657381057739,-0.005703553557395935,-0.066346220672130585,-0.035151064395904541,-0.064745232462882996,0.000434227287769318,-0.028773184865713120,-0.043857943266630173,0.011326789855957031,0.028588354587554932,-0.006736874580383301,0.003019675612449646,-0.009274058043956757,-0.064012750983238220,0.071210026741027832,-0.004293225705623627,-0.016459658741950989,-0.033864583820104599,-0.042491264641284943,-0.039712999016046524,-0.051462605595588684,0.075336545705795288,-0.050832647830247879,-0.029676914215087891,-0.082286246120929718,-0.066293984651565552,0.055891260504722595,0.030173994600772858,0.004124827682971954,-0.055291898548603058,0.056363224983215332,-0.075248606503009796,-0.027525644749403000,-0.025802627205848694,0.043918266892433167,0.057620629668235779,0.007886461913585663,-0.022652730345726013,-0.067723050713539124,0.003629378974437714,0.078678429126739502,0.007175080478191376,0.035325653851032257,0.060237810015678406,-0.020635135471820831,0.076011151075363159,-0.063887059688568115,0.068464234471321106
-0.063206799328327179,-0.005893930792808533,0.006151959300041199,-0.039471466094255447,0.059268608689308167,0.023095943033695221,-0.075070932507514954,0.002625301480293274,0.025681838393211365,0.044300377368927002,0.011288508772850037,-0.050185516476631165,-0.068623989820480347,-0.073593467473983765,-0.066096842288970947,-0.047642663121223450,-0.061146788299083710,-0.071135073900222778,0.063128009438514709,0.065455704927444458,0.002911403775215149,0.009954981505870819,-0.016800776124000549,-0.045749336481094360,-0.051946934312582016,-0.052448701113462448,0.004639007151126862,0.019259832799434662,0.048007056117057800,0.005492813885211945,-0.019421048462390900,0.006761878728866577,0.058267682790756226,0.027828045189380646,0.034948512911796570,-0.014888361096382141,0.082690969109535217,0.083082810044288635,-0.062885314226150513,0.072747468948364258,0.033539354801177979,-0.022102646529674530,-0.048123653978109360,0.071719154715538025,0.061455205082893372,-0.000294514000415802,0.001069672405719757,-0.077601075172424316,0.050844013690948486,-0.084168069064617157,0.005800604820251465,0.019679151475429535,-0.054323822259902954,0.063294231891632080,-0.066315121948719025,0.048765704035758972,-0.083976820111274719,-0.006608389317989349,0.023545153439044952
-0.048203747719526291,0.013288177549839020,-0.035850275307893753,0.006880752742290497,0.038995020091533661,-0.064881965517997742,-0.061003655195236206,0.064084097743034363,-0.029984179884195328,0.060939967632293701,-0.020888432860374451,0.000557787716388702,-0.006808862090110779,0.059568211436271667,0.040252923965454102,0.049277320504188538,-0.059989519417285919,-0.029114745557308197,0.049009338021278381,0.013504549860954285,-0.019163787364959717,-0.006802126765251160,0.030567206442356110,0.001141197979450226,-0.036985740065574646,0.040457241237163544,0.023484125733375549,0.052597522735595703,0.009600527584552765,0.049973860383033752,0.024754218757152557,-0.075575359165668488,0.067537739872932434,0.050486952066421509,-0.014209128916263580,0.056658491492271423,-0.026001855731010437,0.037133075296878815,0.051113307476043701,-0.024899922311306000,0.032380580902099609,0.032282747328281403,0.061414405703544617,0.055920526385307312,-0.057745926082134247,-0.041912078857421875,-0.028791733086109161,0.028036907315254211,-0.024551384150981903,0.000174410641193390,0.001293726265430450,-0.025362730026245117,-0.061158552765846252,-0.036228861659765244,0.021238923072814941,-0.074260354042053223,0.060747951269149780,0.000690013170242310,0.060002654790878296
-0.051629371941089630,-0.033539358526468277,0.057432472705841064,0.073649749159812927,-0.037029545754194260,-0.079186514019966125,0.009075008332729340,0.066958591341972351,0.055886223912239075,-0.007061257958412170,0.001552373170852661,0.026737876236438751,0.020038150250911713,0.049871072173118591,0.009318828582763672,0.083910867571830750,-0.018458284437656403,-0.058874733746051788,-0.054879538714885712,-0.040360674262046814,0.049505650997161865,-0.083855636417865753,-0.064396232366561890,0.056456580758094788,-0.033195909112691879,-0.077921614050865173,0.062707588076591492,0.032123021781444550,-0.046752009540796280,-0.004370428621768951,0.032298274338245392,-0.017903491854667664,0.020543478429317474,0.078213751316070557,0.024693071842193604,0.024167329072952271,0.043485268950462341,-0.038952060043811798,-0.027266513556241989,0.043240189552307129,0.016866907477378845,-0.035741776227951050,-0.033629450947046280,-0.017016418278217316,0.042809292674064636,0.015430778264999390,0.021051019430160522,0.066823050379753113,-0.010272219777107239,-0.049144044518470764,-0.007715106010437012,-0.037045918405056000,0.017020903527736664,0.080253809690475464,0.044115215539932251,-0.079181566834449768,-0.030373770743608475,-0.048801016062498093,-0.036366283893585205
-0.060557484626770020,-0.008648730814456940,-0.004143595695495605,0.013085067272186279,-0.058758351951837540,-0.018310643732547760,0.035988159477710724,-0.021044604480266571,-0.002823203802108765,0.014096826314926147,-0.069475315511226654,0.062779396772384644,-0.037313297390937805,-0.021848142147064209,-0.061718173325061798,-0.015265785157680511,0.004115760326385498,0.065636470913887024,-0.057566668838262558,-0.013587817549705505,-0.064583048224449158,0.039421483874320984,0.011119492352008820,0.060992315411567688,-0.019306033849716187,0.021365240216255188,0.013767801225185394,0.056780099868774414,-0.063820138573646545,0.069232538342475891,0.027435496449470520,0.043385401368141174,0.006092861294746399,0.056038051843643188,-0.003914862871170044,0.010290406644344330,-0.046838317066431046,0.034204050898551941,0.083224713802337646,0.034075118601322174,0.066497161984443665,0.074340730905532837,-0.042239818722009659,-0.075095251202583313,0.072508513927459717,0.002140223979949951,-0.024325504899024963,0.052355512976646423,0.047698736190795898,0.063922837376594543,0.000949308276176453,-0.043443087488412857,-0.039442017674446106,-0.035045184195041656,-0.016608022153377533,-0.016067415475845337,-0.034043557941913605,0.045829012989997864,0.038646668195724487
-0.067115984857082367,0.053734645247459412,0.068890303373336792,-0.052526362240314484,-0.008032411336898804,-0.078037351369857788,-0.007448673248291016,0.023124322295188904,0.029711067676544189,-0.081640459597110748,-0.055275306105613708,0.010886564850807190,0.048857420682907104,-0.014800585806369781,-0.055280797183513641,-0.056334596127271652,-0.025732386857271194,0.026394061744213104,0.026169270277023315,0.049344018101692200,0.046725973486900330,0.058849632740020752,-0.003046929836273193,-0.077139660716056824,-0.024743214249610901,0.083695888519287109,-0.031814046204090118,0.076796248555183411,-0.025516141206026077,-0.008434332907199860,0.020618505775928497,0.003734275698661804,0.045174703001976013,0.077818393707275391,0.003416895866394043,0.046352729201316833,-0.081073105335235596,-0.048516381531953812,0.055715575814247131,-0.072574302554130554,0.003701083362102509,0.065180778503417969,-0.012880384922027588,0.037367507815361023,0.050837218761444092,0.054782941937446594,0.031519591808319092,-0.014502756297588348,-0.065359316766262054,-0.009275019168853760,0.017795920372009277,0.011263646185398102,-0.032781817018985748,0.038223989307880402,-0.061339378356933594,-0.056977301836013794,0.007423549890518188,-0.054333418607711792,0.014852799475193024
-0.021347180008888245,0.083202749490737915,-0.045019496232271194,0.060615673661231995,-0.027579087764024734,-0.065663903951644897,-0.037755727767944336,-0.016183070838451385,-0.064377203583717346,-0.050626657903194427,0.026638269424438477,0.070600003004074097,-0.045418035238981247,0.047885254025459290,-0.025002304464578629,-0.019968673586845398,-0.056490480899810791,-0.029279317706823349,-0.050721075385808945,-0.042907126247882843,-0.075984001159667969,0.052844882011413574,-0.069277212023735046,0.066528499126434326,-0.011211775243282318,0.081398174166679382,0.031565435230731964,0.015953905880451202,0.001090124249458313,0.069363802671432495,-0.039893623441457748,-0.033607583492994308,-0.006424687802791595,-0.025995783507823944,0.082390606403350830,0.040979683399200439,-0.046314805746078491,0.011636100709438324,-0.008264690637588501,-0.072411805391311646,0.063899353146553040,0.045435532927513123,0.054081588983535767,-0.079838015139102936,0.044106349349021912,0.015028774738311768,-0.005543723702430725,0.042336687445640564,0.004967235028743744,0.001872710883617401,0.048157632350921631,0.042191028594970703,0.035119228065013885,0.009569898247718811,-0.024518378078937531,-0.046939048916101456,0.066527441143989563,0.046426743268966675,0.054721906781196594
-0.021581225097179413,0.048919484019279480,0.036034598946571350,0.069986358284950256,0.019158415496349335,0.083773866295814514,-0.053056370466947556,0.033213652670383453,-0.016278527677059174,-0.049150019884109497,0.003823503851890564,0.072693586349487305,-0.039486009627580643,-0.031712688505649567,0.078085362911224365,-0.000790610909461975,-0.017013423144817352,-0.030149519443511963,-0.008800871670246124,-0.041630882769823074,-0.021471403539180756,-0.066974282264709473,0.036335505545139313,-0.037820134311914444,-0.063797757029533386,0.032746031880378723,-0.004181690514087677,-0.082193121314048767,-0.067469775676727295,-0.003286957740783691,-0.075875200331211090,0.061537340283393860,0.067538812756538391,-0.037207536399364471,-0.009418494999408722,-0.014375187456607819,-0.062213018536567688,0.068474292755126953,-0.037920642644166946,0.016412913799285889,-0.024585317820310593,0.013764381408691406,0.079493403434753418,-0.034869045019149780,0.065146535634994507,-0.041230954229831696,0.011186271905899048,0.030514888465404510,-0.016441233456134796,0.079274207353591919,-0.041736200451850891,0.056745454668998718,0.079172953963279724,0.071280971169471741,-0.049312602728605270,-0.076333358883857727,-0.057738803327083588,0.000385627150535583,0.005989052355289459
0.025639459490776062,-0.065964192152023315,0.081983104348182678,-0.069264277815818787,-0.021151646971702576,-0.053386062383651733,-0.014942772686481476,0.041664630174636841,-0.074843160808086395,0.055046036839485168,-0.043790318071842194,-0.073964416980743408,0.084268435835838318,-0.079812265932559967,-0.007239587604999542,-0.074735872447490692,-0.000210493803024292,0.062419548630714417,-0.046989236027002335,-0.031781259924173355,-0.077554494142532349,-0.032752752304077148,-0.027548354119062424,-0.059641346335411072,0.069233894348144531,-0.061889864504337311,0.008966915309429169,0.072541177272796631,0.017793774604797363,-0.008396476507186890,-0.040965527296066284,0.073135957121849060,0.031596831977367401,0.062883913516998291,-0.002533636987209320,-0.028159964829683304,0.000619053840637207,-0.061229258775711060,0.028803803026676178,-0.051888782531023026,-0.039451755583286285,-0.080493450164794922,0.039387851953506470,0.064760923385620117,-0.013662703335285187,0.082262799143791199,0.014894276857376099,-0.026002783328294754,-0.054574362933635712,0.077335730195045471,-0.042329385876655579,-0.049663152545690536,-0.052152398973703384,0.039361603558063507,0.070066958665847778,-0.009869314730167389,-0.024952925741672516,-0.065890051424503326,-0.018857024610042572
0.017705388367176056,-0.010090209543704987,0.033564984798431396,0.022122398018836975,0.014007180929183960,0.070559263229370117,-0.058632377535104752,0.069954678416252136,0.078157037496566772,-0.029367923736572266,0.067151591181755066,-0.060060121119022369,0.013178735971450806,0.033123798668384552,0.052731379866600037,-0.068840071558952332,0.041513398289680481,-0.059918999671936035,-0.043447453528642654,-0.002743206918239594,-0.009074464440345764,0.049597799777984619,-0.058982644230127335,0.070864945650100708,-0.053779274225234985,0.010264217853546143,0.032733201980590820,0.068344637751579285,-0.045344840735197067,0.034239269793033600,-0.011977300047874451,-0.007618442177772522,-0.051796540617942810,0.047646299004554749,0.008621193468570709,-0.033831074833869934,0.068207949399948120,0.012721620500087738,0.067820653319358826,-0.047302652150392532,0.034252844750881195,0.069813027977943420,-0.045802097767591476,0.008678533136844635,0.014748126268386841,-0.043372306972742081,-0.011913895606994629,-0.017467036843299866,-0.048743572086095810,-0.011426351964473724,-0.000391118228435516,0.032236061990261078,0.050974130630493164,-0.076523199677467346,-0.061491001397371292,-0.023940417915582657,-0.078486941754817963,0.019170626997947693,-0.063380986452102661
-0.030985001474618912,-0.072157986462116241,0.023745715618133545,-0.074052512645721436,0.047550156712532043,-0.079543001949787140,0.047043576836585999,0.083647415041923523,0.080615028738975525,0.039341308176517487,-0.002524025738239288,-0.014256030321121216,-0.071050941944122314,-0.023387096822261810,-0.056623999029397964,0.051509171724319458,0.071001768112182617,-0.025914419442415237,-0.005401797592639923,-0.068193867802619934,-0.013509131968021393,0.039418786764144897,0.017516776919364929,-0.040972527116537094,0.012774728238582611,0.041416749358177185,-0.023354191333055496,-0.044502682983875275,-0.059623140841722488,-0.031837459653615952,0.055883377790451050,-0.023359257727861404,-0.045756999403238297,-0.003636181354522705,0.027130380272865295,0.070389330387115479,-0.070269323885440826,0.047655433416366577,0.021325640380382538,-0.035915605723857880,0.010501198470592499,-0.002053312957286835,0.074568331241607666,0.031027860939502716,0.057119548320770264,-0.061577051877975464,-0.079264715313911438,-0.007204331457614899,0.010273307561874390,0.011173196136951447,0.006436429917812347,-0.041708864271640778,0.002083584666252136,-0.033854223787784576,-0.074788108468055725,-0.018925614655017853,0.043065398931503296,0.078558877110481262,-0.057502303272485733
-0.075826205313205719,0.012872077524662018,-0.017708927392959595,-0.076190613210201263,-0.075557298958301544,-0.048177339136600494,0.022883638739585876,-0.007088273763656616,-0.004434928297996521,-0.015407651662826538,0.016079016029834747,-0.055919602513313293,-0.028029061853885651,-0.040308799594640732,0.012650921940803528,-0.078272990882396698,0.056905642151832581,0.029826626181602478,0.022725060582160950,0.064253300428390503,0.012280859053134918,0.078896090388298035,-0.024631701409816742,-0.021846912801265717,0.022979803383350372,0.017127029597759247,0.018951140344142914,-0.069016553461551666,-0.002058722078800201,-0.050495877861976624,-0.001303717494010925,0.035649269819259644,-0.017981372773647308,0.033991500735282898,0.052245169878005981,0.062123194336891174,-0.039970718324184418,-0.028613600879907608,-0.080731019377708435,-0.009483829140663147,0.026989459991455078,0.066319018602371216,0.050259590148925781,-0.044167760759592056,-0.082175582647323608,-0.059738814830780029,0.076357632875442505,-0.020549729466438293,0.031706713140010834,-0.011454813182353973,-0.032710995525121689,-0.025275152176618576,0.037254080176353455,0.036087296903133392,-0.004203118383884430,0.024631477892398834,-0.076151669025421143,-0.070893347263336182,-0.015806794166564941
0.037191241979598999,-0.023433923721313477,0.036363489925861359,-0.021117575466632843,0.083060443401336670,-0.009782403707504272,0.068110913038253784,0.016469754278659821,-0.073927305638790131,-0.030986730009317398,0.001532822847366333,0.016392454504966736,-0.078527189791202545,-0.068019151687622070,0.065979495644569397,-0.080572359263896942,0.054105401039123535,0.064903169870376587,0.053490310907363892,0.074238851666450500,-0.081699721515178680,-0.009389795362949371,0.010467790067195892,-0.036402910947799683,-0.046270776540040970,-0.054154641926288605,-0.046643089503049850,0.067136302590370178,-0.070693373680114746,0.044025093317031860,0.052927091717720032,0.040134914219379425,0.030636847019195557,-0.040293592959642410,-0.031931310892105103,0.016477882862091064,0.039224863052368164,0.017454102635383606,-0.062054477632045746,-0.049179486930370331,0.037483364343643188,-0.027162946760654449,-0.052905954420566559,-0.083786681294441223,0.048758864402770996,-0.069881103932857513,0.061114087700843811,-0.067346878349781036,0.009027399122714996,-0.041021082550287247,0.050341054797172546,0.024428851902484894,-0.076733857393264771,0.026823945343494415,-0.026524886488914490,-0.007302261888980865,-0.011457853019237518,-0.068445675075054169,0.012925781309604645
-0.073186777532100677,0.054747946560382843,-0.070630334317684174,0.002658203709870577,-0.027521967887878418,-0.007435137405991554,-0.013811893761157990,-0.025988342240452766,-0.064033351838588715,0.050570357590913773,0.032938685268163681,0.043750375509262085,0.039038047194480896,-0.046325527131557465,-0.048392858356237411,-0.033282641321420670,-0.042781654745340347,0.077806130051612854,0.054191127419471741,-0.024655351415276527,0.033336348831653595,-0.057077087461948395,0.080083347856998444,0.050029795616865158,-0.077880159020423889,0.002012178301811218,-0.068082772195339203,-0.050220087170600891,-0.002576097380369902,-0.040948268026113510,-0.021461591124534607,0.036349527537822723,-0.031931445002555847,-0.074184387922286987,-0.078531615436077118,-0.084026888012886047,-0.078831441700458527,0.056263163685798645,0.070194825530052185,0.068285129964351654,-0.050935134291648865,0.072372145950794220,0.050729140639305115,-0.066016308963298798,0.026007389649748802,0.028554143384099007,0.022328406572341919,-0.004785761237144470,-0.075669974088668823,0.054640516638755798,-0.037741206586360931,0.002557544270530343,-0.047494582831859589,-0.027157898992300034,0.064383134245872498,0.013725564815104008,-0.017337135970592499,0.045507397502660751,-0.055009171366691589
-0.034445337951183319,-0.023390220478177071,0.018984869122505188,-0.004874101839959621,0.041766256093978882,0.052682001143693924,-0.014727215282618999,0.065078392624855042,-0.069398961961269379,-0.013340008445084095,0.060129392892122269,-0.002462835516780615,-0.028067987412214279,0.032961450517177582,-0.077733263373374939,0.060210496187210083,0.076390728354454041,-0.054064117372035980,0.025898531079292297,-0.083001255989074707,-0.060144156217575073,-0.001117263222113252,0.021417660638689995,0.024629255756735802,-0.030760297551751137,-0.033042538911104202,0.004283298738300800,-0.025388963520526886,0.044593784958124161,0.067231968045234680,-0.054808735847473145,0.004390984773635864,-0.061834298074245453,-0.043374236673116684,-0.079916857182979584,0.010142195969820023,-0.040751479566097260,-0.030256465077400208,-0.047877162694931030,0.075636930763721466,-0.077518530189990997,-0.051487933844327927,-0.071671560406684875,-0.055918939411640167,-0.065275020897388458,-0.032430749386548996,0.073226884007453918,0.025805220007896423,0.008064771071076393,0.001861646771430969,-0.051853042095899582,-0.027118621394038200,0.031858921051025391,0.051775112748146057,0.059120729565620422,-0.014391111209988594,-0.052156500518321991,-0.055624924600124359,0.083909943699836731
-0.060089085251092911,-0.066770717501640320,0.074239395558834076,-0.051521413028240204,0.056707348674535751,0.073757879436016083,0.005271465517580509,0.044625468552112579,-0.069039039313793182,-0.078170679509639740,0.013064881786704063,-0.054151520133018494,0.011057825759053230,-0.015437432564795017,0.060133755207061768,0.069092303514480591,-0.004350692965090275,0.059720836579799652,-0.024735540151596069,0.004065123852342367,0.027373068034648895,-0.056706152856349945,-0.024818578734993935,0.041051317006349564,-0.034205824136734009,-0.041231404989957809,-0.005383706651628017,0.045432556420564651,0.040626395493745804,-0.076495610177516937,-0.043176297098398209,-0.061371222138404846,0.009291485883295536,-0.059508398175239563,0.082908153533935547,-0.030571805313229561,0.034673616290092468,0.011940169148147106,0.013728099875152111,-0.027349727228283882,0.050037983804941177,0.038221266120672226,0.001798037090338767,0.032446987926959991,0.073744647204875946,0.084207527339458466,-0.047052197158336639,-0.026853531599044800,-0.005395283456891775,-0.025268513709306717,-0.025130489841103554,0.064761221408843994,-0.060327347368001938,-0.066752731800079346,0.046819433569908142,0.046697754412889481,0.050142053514719009,-0.024055089801549911,0.041725486516952515
0.039128161966800690,0.074105441570281982,0.061113454401493073,-0.085673622786998749,-0.033186346292495728,-0.030815476551651955,0.053126282989978790,-0.062402803450822830,0.072030596435070038,0.015598797239363194,0.079721353948116302,0.085929609835147858,-0.004023323301225901,-0.034059993922710419,0.072857670485973358,-0.017854118719696999,0.074784003198146820,0.060754645615816116,-0.002664101310074329,-0.031036805361509323,0.044400367885828018,-0.061360944062471390,0.066033519804477692,-0.058986678719520569,0.011128757148981094,0.042891893535852432,0.035261325538158417,0.076097361743450165,0.052328735589981079,0.014804705977439880,-0.043879088014364243,0.015432127751410007,-0.016933171078562737,-0.049291137605905533,-0.039742890745401382,-0.094310477375984192,0.038901992142200470,0.081577613949775696,0.081841617822647095,-0.073561035096645355,-0.062401421368122101,-0.072608560323715210,0.039925862103700638,0.065220385789871216,-0.058499857783317566,-0.073469236493110657,-0.004117836244404316,-0.046744819730520248,0.027798410505056381,0.001989349722862244,0.068721219897270203,-0.036868959665298462,0.031490679830312729,0.030693028122186661,0.070273257791996002,-0.001199115300551057,-0.042914558202028275,0.066393956542015076,-0.065279155969619751
0.049863491207361221,0.014813633635640144,-0.076218910515308380,-0.047802381217479706,-0.046794183552265167,-0.009448661468923092,0.016519738361239433,-0.028238462284207344,-0.075302734971046448,0.004263204522430897,0.053370423614978790,0.022762767970561981,-0.003936368040740490,-0.045788086950778961,0.040033314377069473,0.025402151048183441,-0.021684002131223679,0.025144740939140320,0.038577884435653687,0.066456541419029236,-0.011868320405483246,0.023225510492920876,-0.054692942649126053,0.029810549691319466,0.057941149920225143,-0.024887874722480774,-0.032918762415647507,-0.070749066770076752,0.034101422876119614,-0.027205929160118103,0.041691433638334274,0.016122607514262199,-0.015147103928029537,-0.040281344205141068,0.000650107394903898,0.046426367014646530,-0.081141903996467590,-0.052480597048997879,-0.007858082652091980,0.077587470412254333,-0.046797268092632294,0.046162750571966171,0.041348453611135483,-0.028996719047427177,-0.054947245866060257,-0.072793841361999512,0.066991724073886871,-0.063638582825660706,0.074020139873027802,0.040544837713241577,-0.077321931719779968,0.056304380297660828,0.019725698977708817,-0.057505205273628235,-0.008121377788484097,0.077749572694301605,0.014146741479635239,-0.004837342072278261,0.078298941254615784
0.055049844086170197,0.065031468868255615,0.000157636139192618,-0.023117072880268097,0.035178966820240021,0.028113175183534622,0.070074297487735748,-0.015755452215671539,0.053808391094207764,-0.027582673355937004,0.059587351977825165,-0.048784643411636353,0.049920685589313507,0.040209852159023285,-0.015882581472396851,-0.075613893568515778,0.035964995622634888,-0.048709344118833542,0.014027622528374195,0.011106217280030251,0.025057287886738777,0.052024148404598236,0.071203745901584625,-0.026559174060821533,-0.011963678523898125,0.056760694831609726,0.018600041046738625,0.032097462564706802,0.021937659010291100,-0.008682718500494957,0.005471630021929741,-0.042389106005430222,0.025240376591682434,-0.068945787847042084,-0.062390584498643875,0.074776455760002136,0.041571188718080521,-0.039410155266523361,0.018602937459945679,0.003300674725323915,-0.052177924662828445,-0.081373155117034912,0.056530430912971497,0.078414291143417358,0.033311504870653152,-0.013032021000981331,0.062107279896736145,-0.012034467421472073,0.082093879580497742,-0.033034410327672958,0.006426372565329075,-0.045283894985914230,0.056918170303106308,-0.021101864054799080,-0.070380128920078278,0.029862293973565102,-0.005743400193750858,-0.022438213229179382,-0.043141592293977737
0.026167523115873337,0.029281081631779671,-0.020632227882742882,0.014562620781362057,-0.009382315911352634,0.053964659571647644,0.064604833722114563,0.004799898713827133,0.011602143757045269,0.074127160012722015,0.022746143862605095,-0.008959392085671425,0.028848681598901749,-0.000533463491592556,0.014076932333409786,0.053965639322996140,0.021539442241191864,0.061698220670223236,-0.084300659596920013,0.068924628198146820,0.006027732975780964,-0.033130683004856110,-0.045951802283525467,0.008938670158386230,-0.039793137460947037,-0.014945773407816887,0.011012014001607895,-0.049429655075073242,0.057715021073818207,0.051763415336608887,-0.046261012554168701,-0.043821107596158981,-0.019954126328229904,0.043023355305194855,-0.065324760973453522,0.035366065800189972,0.009248924441635609,0.052515901625156403,0.017341485247015953,-0.005243146792054176,0.059370584785938263,-0.019356207922101021,0.039471767842769623,-0.045422554016113281,-0.069465532898902893,-0.032735407352447510,-0.001060072798281908,0.077760256826877594,-0.016064697876572609,0.045012116432189941,-0.076267287135124207,0.000096835050499067,0.077183961868286133,-0.016254801303148270,0.075111597776412964,0.059471551328897476,-0.077811077237129211,0.007995992898941040,-0.063302055001258850
-0.022384908050298691,-0.019482536241412163,0.003347253892570734,0.057170331478118896,-0.002356021665036678,0.011137581430375576,-0.070089332759380341,-0.012288806028664112,-0.005516241770237684,0.030046870931982994,0.039710927754640579,-0.042469900101423264,-0.071931250393390656,0.002412823960185051,-0.070129923522472382,-0.043895114213228226,0.080912083387374878,-0.010967253707349300,0.038412936031818390,-0.039643391966819763,0.077279657125473022,0.039958048611879349,0.088338755071163177,-0.003982056397944689,-0.065299905836582184,0.047890033572912216,-0.054434802383184433,0.056365590542554855,0.071847982704639435,-0.078660823404788971,-0.072354182600975037,0.080023556947708130,0.045031379908323288,-0.033525679260492325,0.040426641702651978,0.009569913148880005,0.001736546517349780,-0.000090868772531394,0.022843385115265846,-0.070924244821071625,0.048215486109256744,0.013144564814865589,0.011763763613998890,-0.066510036587715149,0.072490870952606201,0.063010297715663910,-0.061442870646715164,0.054189279675483704,-0.004219462163746357,0.074932493269443512,0.053962700068950653,-0.026587542146444321,0.021777348592877388,-0.009959291666746140,0.076516471803188324,-0.000774181447923183,-0.071208104491233826,-0.031136622652411461,-0.040288172662258148
0.090584993362426758,0.012725136242806911,0.081827402114868164,-0.074835903942584991,-0.069023683667182922,-0.002346001332625747,-0.061388920992612839,0.064307302236557007,-0.070276863873004913,0.005079078022390604,0.024864945560693741,0.013966517522931099,-0.056966226547956467,0.047482248395681381,-0.079674601554870605,0.016151135787367821,0.036698944866657257,-0.023938922211527824,0.053794402629137039,0.077670738101005554,-0.060836214572191238,-0.056172639131546021,0.053960192948579788,0.065330944955348969,0.095925427973270416,0.063105784356594086,-0.052223980426788330,-0.088409349322319031,-0.086266063153743744,0.062227647751569748,-0.086225114762783051,-0.034364365041255951,0.056257724761962891,-0.033388756215572357,0.042201723903417587,-0.022723317146301270,0.024221220985054970,-0.010717087425291538,0.035764317959547043,0.003001866163685918,0.039884351193904877,0.066480122506618500,0.031072307378053665,-0.068668112158775330,-0.037352733314037323,0.010544246993958950,-0.070662625133991241,-0.035395495593547821,0.063012905418872833,-0.029581002891063690,0.060605671256780624,-0.064213067293167114,0.084608070552349091,-0.071201615035533905,-0.073112651705741882,0.026753034442663193,0.016183061525225639,-0.080026172101497650,-0.038415413349866867
0.007727966643869877,-0.004346733447164297,0.056498851627111435,0.013045040890574455,-0.070476613938808441,0.075518198311328888,0.026641136035323143,0.058015976101160049,0.077558591961860657,-0.020332960411906242,-0.065653502941131592,0.006499465554952621,0.052994091063737869,-0.014253472909331322,-0.048827551305294037,0.059640906751155853,0.074160374701023102,0.073797293007373810,0.064722903072834015,-0.003424692898988724,0.005997386761009693,-0.076072536408901215,0.003490092931315303,-0.054724749177694321,0.030465431511402130,-0.049205176532268524,-0.061884276568889618,-0.062105942517518997,-0.022439409047365189,-0.056675694882869720,0.012726236134767532,-0.017399806529283524,-0.061697892844676971,0.011562003754079342,0.072784841060638428,-0.015994518995285034,-0.086728923022747040,-0.041883435100317001,-0.047744546085596085,0.011868840083479881,-0.046998292207717896,-0.011662772856652737,-0.004635006189346313,-0.071056015789508820,0.060894049704074860,0.047821372747421265,0.015792703256011009,-0.038928121328353882,0.064865991473197937,0.065918229520320892,-0.075758650898933411,0.059466335922479630,0.062382273375988007,0.053485944867134094,0.058971069753170013,0.063797771930694580,0.037159796804189682,-0.010645356029272079,-0.059402078390121460
0.028564343228936195,0.057518698275089264,0.009140069596469402,-0.005274425726383924,-0.059598900377750397,0.046150766313076019,-0.035991784185171127,-0.082524776458740234,0.063235566020011902,-0.026184059679508209,0.076187700033187866,-0.079946056008338928,0.049337707459926605,0.067901723086833954,0.076557703316211700,-0.064903251826763153,-0.079044468700885773,0.046515796333551407,-0.039101283997297287,-0.047653425484895706,0.049385871738195419,0.016622949391603470,-0.043302800506353378,0.024549653753638268,-0.044962495565414429,-0.035385049879550934,0.012073414400219917,-0.014132018201053143,0.041895288974046707,0.022473955526947975,0.027742041274905205,0.018910296261310577,-0.032317910343408585,0.023755729198455811,-0.060129560530185699,-0.087268896400928497,0.005451910197734833,-0.086432725191116333,-0.047539025545120239,-0.016651511192321777,-0.048443417996168137,0.058984074741601944,0.018677534535527229,-0.027957301586866379,0.051540102809667587,-0.021057453006505966,-0.026885144412517548,-0.035685140639543533,-0.023827427998185158,0.025703139603137970,-0.057080045342445374,-0.018272031098604202,-0.001764294109307230,0.023004086688160896,-0.049677401781082153,0.068221293389797211,-0.024516804143786430,-0.038865271955728531,-0.011144779622554779
0.039692491292953491,0.036166701465845108,-0.026907503604888916,-0.032962124794721603,0.009042839519679546,-0.016474487259984016,-0.070585839450359344,0.044854708015918732,-0.007951794192194939,0.003607486141845584,-0.030047498643398285,-0.016005968675017357,-0.044373754411935806,-0.024133484810590744,-0.013326575048267841,-0.029988372698426247,0.000017976817616727,-0.002668810775503516,0.035255976021289825,0.017658362165093422,0.037090256810188293,-0.009447533637285233,-0.016399215906858444,-0.027200974524021149,0.066603399813175201,0.052180241793394089,-0.078903801739215851,-0.079547122120857239,-0.037802308797836304,-0.071215420961380005,-0.079071141779422760,0.031432900577783585,-0.031106688082218170,-0.038982648402452469,0.000235815445194021,-0.063646361231803894,-0.056681983172893524,-0.027889478951692581,-0.046408683061599731,-0.028291126713156700,-0.057474546134471893,-0.054835006594657898,-0.010711297392845154,-0.004301217850297689,0.050387926399707794,-0.068900257349014282,0.071566559374332428,0.004534684121608734,0.021113935858011246,-0.000685864768456668,0.061523932963609695,0.022452034056186676,-0.042639125138521194,0.050135418772697449,0.018054047599434853,-0.032457694411277771,-0.049000658094882965,-0.045789871364831924,-0.069534569978713989
-0.004514331463724375,-0.068193428218364716,0.001992316218093038,0.003496238961815834,0.032161235809326172,-0.016804583370685577,0.072923377156257629,-0.056348614394664764,0.010931552387773991,0.032201390713453293,0.052126027643680573,-0.068635836243629456,0.061458751559257507,-0.028137303888797760,-0.010388917289674282,-0.066758491098880768,0.067360095679759979,-0.030516283586621284,-0.020553957670927048,0.050770163536071777,-0.064450800418853760,0.051494468003511429,-0.027152428403496742,0.058280911296606064,0.008005391806364059,0.049804396927356720,-0.086015760898590088,-0.023260768502950668,0.049805298447608948,-0.029989080503582954,-0.019471466541290283,0.019255001097917557,-0.086947217583656311,0.005180912092328072,0.041052747517824173,0.019175337627530098,0.034830447286367416,-0.019248295575380325,0.071069754660129547,0.006147323176264763,-0.070838108658790588,0.001296427450142801,-0.045911412686109543,-0.015804987400770187,0.028386382386088371,0.083380065858364105,0.038009226322174072,-0.008442396298050880,-0.040865480899810791,-0.036413919180631638,-0.064542509615421295,-0.025787122547626495,-0.080716706812381744,-0.042754508554935455,-0.066955782473087311,0.021770851686596870,0.049481879919767380,-0.067161388695240021,0.042423062026500702
0.055334459990262985,0.024196095764636993,0.025494717061519623,-0.066936925053596497,0.042027901858091354,0.038437068462371826,-0.073609463870525360,0.049699820578098297,0.019389597699046135,-0.064253993332386017,0.059205260127782822,-0.055749204009771347,0.018217591568827629,0.085611753165721893,0.007272946182638407,0.058364253491163254,-0.068566508591175079,-0.063118539750576019,0.044889573007822037,0.051415182650089264,0.052648771554231644,-0.080886244773864746,-0.021459434181451797,-0.066428251564502716,0.092018641531467438,0.068665079772472382,0.035668104887008667,-0.032958727329969406,-0.010516634210944176,0.048087548464536667,-0.050677958875894547,0.077147014439105988,-0.066809430718421936,-0.050950806587934494,-0.014612583443522453,0.055445268750190735,-0.046802300959825516,0.075617477297782898,0.063107177615165710,-0.076848864555358887,-0.047018151730298996,-0.059571631252765656,0.070730529725551605,-0.080454654991626740,0.078567944467067719,0.041718620806932449,-0.006564674433320761,-0.076899975538253784,-0.046722814440727234,0.023181974887847900,-0.020593097433447838,0.037470761686563492,-0.049071703106164932,-0.018437029793858528,0.022309653460979462,0.067222289741039276,-0.041360430419445038,-0.061739291995763779,-0.033026583492755890
0.018759494647383690,-0.080397717654705048,-0.013356091454625130,0.067398063838481903,-0.050203368067741394,0.045156370848417282,0.018431730568408966,0.058781877160072327,0.017329381778836250,-0.019072934985160828,0.027715478092432022,0.001116933533921838,0.008518609218299389,-0.016741739585995674,0.062925770878791809,0.059578146785497665,-0.021785466000437737,0.080770067870616913,-0.054938074201345444,-0.025649582967162132,0.066262260079383850,0.006545009557157755,0.024062288925051689,0.014666838571429253,0.076139695942401886,0.072383709251880646,-0.042990531772375107,-0.083399586379528046,0.066862523555755615,0.026505308225750923,0.006978007499128580,0.019082905724644661,-0.018357140943408012,0.051480177789926529,0.050664935261011124,-0.006998427212238312,0.003890829626470804,-0.000721321441233158,0.008577451109886169,0.066452354192733765,-0.059766862541437149,-0.076752454042434692,0.030466109514236450,-0.009484429843723774,0.065561465919017792,0.001050777384079993,-0.026661964133381844,-0.041985578835010529,0.026978941634297371,-0.049550231546163559,-0.047145303338766098,-0.006086834240704775,0.072834551334381104,0.000352182512870058,0.078485332429409027,0.002293322933837771,0.060485787689685822,-0.075301855802536011,0.041122958064079285
0.026729857549071312,-0.062864243984222412,-0.071665458381175995,-0.045839715749025345,0.069018326699733734,-0.039678923785686493,-0.033832605928182602,0.047062966972589493,-0.021172989159822464,0.083706088364124298,-0.077596545219421387,0.071153894066810608,0.024899814277887344,0.057805262506008148,0.063085898756980896,-0.016660502180457115,0.073398195207118988,-0.026053596287965775,-0.053260296583175659,0.042450051754713058,0.016083020716905594,0.025664011016488075,0.033498741686344147,0.019068501889705658,-0.053116526454687119,0.066587746143341064,0.029751323163509369,0.013851306401193142,0.008545503951609135,0.032104536890983582,-0.085104212164878845,-0.024044582620263100,-0.000054607251513517,-0.055134948343038559,0.072619833052158356,-0.087554216384887695,0.017296379432082176,0.041083883494138718,0.064701326191425323,-0.074697643518447876,0.039894331246614456,-0.009734599851071835,-0.070548526942729950,-0.074723184108734131,-0.049545921385288239,-0.020616233348846436,-0.006732190959155560,-0.004843854811042547,0.046453710645437241,-0.023665398359298706,0.071890525519847870,-0.011119890026748180,0.011597336269915104,-0.012701375409960747,0.058508843183517456,-0.012118407525122166,0.058209218084812164,0.047916915267705917,0.075752496719360352
0.023828797042369843,-0.017587633803486824,-0.072163775563240051,-0.006810183636844158,0.075454257428646088,-0.023850327357649803,-0.074734032154083252,-0.046338733285665512,0.035202711820602417,0.014889715239405632,0.007091307081282139,0.050516396760940552,0.016773376613855362,-0.008445945568382740,-0.014107041992247105,0.016254277899861336,0.015786398202180862,-0.025121284648776054,0.032625626772642136,-0.016899669542908669,-0.001769276801496744,0.022489538416266441,-0.052639305591583252,0.078781895339488983,-0.031460292637348175,-0.074194587767124176,-0.024040661752223969,0.062689617276191711,-0.067258104681968689,0.069960191845893860,-0.060947250574827194,-0.045183364301919937,-0.082241848111152649,-0.083900071680545807,0.041505366563796997,0.042592529207468033,-0.067909300327301025,0.053193803876638412,0.016578787937760353,-0.043196473270654678,-0.054304562509059906,-0.071859687566757202,-0.054026585072278976,-0.066532723605632782,0.035267114639282227,-0.029950045049190521,0.075574502348899841,-0.021009642630815506,-0.062614753842353821,-0.074023231863975525,0.025598980486392975,-0.072261959314346313,-0.033416520804166794,0.019288200885057449,0.045225936919450760,0.066646263003349304,-0.006750870961695910,0.027273504063487053,0.020309735089540482
0.069088637828826904,-0.072037644684314728,-0.027654552832245827,0.046982634812593460,-0.061107158660888672,-0.054078999906778336,0.010160706005990505,0.029004249721765518,-0.070010937750339508,-0.039989795535802841,-0.082220084965229034,0.023066427558660507,0.021753279492259026,-0.072276100516319275,0.014017571695148945,0.059169791638851166,0.058853875845670700,0.034957706928253174,-0.020944956690073013,0.068350449204444885,0.001127217197790742,0.032193530350923538,0.001571305445395410,-0.083446249365806580,0.014601845294237137,0.060359340161085129,0.043983258306980133,-0.068619608879089355,0.082039840519428253,-0.033603642135858536,-0.016584021970629692,0.039525099098682404,0.078909091651439667,0.027101863175630569,0.068623170256614685,0.047436930239200592,0.021307332441210747,0.026860162615776062,0.050553161650896072,0.039952673017978668,0.010219828225672245,-0.064350537955760956,0.000443460856331512,-0.078279078006744385,-0.027066323906183243,0.079197980463504791,-0.049162082374095917,0.029477110132575035,-0.068998463451862335,0.071310296654701233,0.048986732959747314,-0.038100399076938629,0.000468632701085880,-0.011981343850493431,0.047323077917098999,-0.037567574530839920,-0.043483797460794449,0.050768952816724777,-0.022491246461868286
0.037186834961175919,0.030519532039761543,-0.070516042411327362,0.052711453288793564,0.009846971370279789,0.087050035595893860,0.032119248062372208,-0.030120598152279854,-0.009193711914122105,0.040855742990970612,0.070461057126522064,0.077667497098445892,0.079114660620689392,0.039423864334821701,-0.007261325139552355,-0.042438093572854996,0.031298194080591202,0.073821246623992920,0.075485140085220337,-0.068272352218627930,0.063391603529453278,-0.032483104616403580,-0.074653886258602142,-0.010695097967982292,-0.049958858639001846,-0.082170188426971436,0.081475295126438141,0.021802017465233803,-0.015650618821382523,-0.010409961454570293,-0.015054071322083473,0.024202620610594749,-0.047927688807249069,0.027277426794171333,-0.031957250088453293,-0.023663854226469994,0.051967676728963852,0.000191869097761810,0.032187744975090027,-0.034400399774312973,0.021020844578742981,0.075175248086452484,-0.073174566030502319,0.002543994691222906,-0.045259241014719009,-0.072335481643676758,-0.027526266872882843,-0.045093614608049393,0.002832130994647741,-0.059234611690044403,-0.077031508088111877,-0.047286164015531540,0.072667211294174194,-0.067532770335674286,-0.015919916331768036,0.020711127668619156,0.027342516928911209,-0.014362079091370106,-0.003991456702351570
0.053691390901803970,-0.066400654613971710,0.000937685370445251,0.077448338270187378,0.067147344350814819,-0.011593860574066639,-0.069806009531021118,-0.038956467062234879,0.014215625822544098,0.049994617700576782,-0.026527395471930504,0.002412799745798111,-0.065078511834144592,0.042753729969263077,0.065280213952064514,-0.069461174309253693,-0.049024946987628937,0.045244984328746796,-0.083381041884422302,0.008673451840877533,-0.033102944493293762,0.056951630860567093,-0.046751361340284348,-0.009612395428121090,0.022578964009881020,-0.046602658927440643,-0.000164169774507172,0.029038025066256523,0.014839252457022667,-0.063219621777534485,0.021014384925365448,-0.073053449392318726,-0.055475581437349319,0.042434286326169968,-0.082542426884174347,-0.084948018193244934,0.003461679443717003,-0.057819981127977371,0.045972611755132675,-0.052825160324573517,-0.018662216141819954,0.028834896162152290,0.037068668752908707,0.061676822602748871,0.039245557039976120,-0.063118577003479004,0.063683770596981049,-0.042275663465261459,-0.033651206642389297,0.066606104373931885,0.034078303724527359,0.010102033615112305,-0.057275675237178802,0.014055773615837097,0.079838454723358154,-0.028989434242248535,-0.001220166683197021,-0.053895011544227600,-0.006721854209899902
-0.076760865747928619,0.078981876373291016,-0.036489542573690414,-0.029773041605949402,0.031466655433177948,0.004856266081333160,-0.052234262228012085,0.062398284673690796,0.007106818258762360,-0.030453342944383621,0.021361015737056732,0.010387033224105835,0.062320798635482788,-0.043164525181055069,0.067567959427833557,0.082417234778404236,0.047032400965690613,0.039371073246002197,-0.060437440872192383,0.055323302745819092,-0.056814860552549362,0.025748841464519501,-0.062596634030342102,-0.075849153101444244,-0.070974647998809814,-0.046499677002429962,0.054453745484352112,-0.002069406211376190,0.022011265158653259,-0.027949996292591095,-0.043818861246109009,0.073107615113258362,0.080185890197753906,0.012433551251888275,0.039257332682609558,-0.018713630735874176,0.072034820914268494,-0.052224587649106979,0.028487749397754669,0.025312140583992004,-0.056840166449546814,-0.040829613804817200,-0.078363828361034393,-0.034679528325796127,0.004150658845901489,-0.057938076555728912,0.037173822522163391,-0.077389955520629883,0.045035362243652344,-0.042358048260211945,-0.065821461379528046,-0.029981262981891632,-0.077742375433444977,0.065388083457946777,0.080315262079238892,0.029191866517066956,-0.030607618391513824,0.052347540855407715,-0.001431040465831757
-0.062971383333206177,-0.034773722290992737,0.028533764183521271,-0.076343737542629242,0.069728478789329529,0.055802598595619202,0.041459590196609497,0.009679012000560760,0.071861132979393005,0.006568640470504761,-0.030327145010232925,0.066623479127883911,0.036040596663951874,-0.044117193669080734,0.061268776655197144,0.023891724646091461,0.015274092555046082,0.010840930044651031,-0.037365172058343887,-0.001538731157779694,-0.000817902386188507,0.040567167103290558,0.012824907898902893,-0.073905222117900848,-0.000801451504230499,-0.032759409397840500,0.062454804778099060,0.084338918328285217,0.052199065685272217,-0.040320586413145065,-0.013635590672492981,0.078461185097694397,0.012638650834560394,0.009072251617908478,0.010110825300216675,0.011486291885375977,0.060262918472290039,0.054133668541908264,-0.016194939613342285,0.056881323456764221,-0.028747200965881348,0.055446326732635498,0.024117805063724518,-0.065816670656204224,0.003845885396003723,-0.042950633913278580,-0.071222372353076935,0.007759638130664825,0.045959755778312683,0.023830071091651917,0.081582829356193542,-0.048938035964965820,-0.058422103524208069,0.078062832355499268,0.070580452680587769,-0.066897243261337280,0.006402656435966492,-0.043002527207136154,-0.067421376705169678
0.047713443636894226,0.047971546649932861,0.011792935431003571,-0.049674637615680695,-0.081825591623783112,-0.013080321252346039,-0.048832014203071594,-0.011753126978874207,0.002064175903797150,-0.019604310393333435,0.069129943847656250,0.019285976886749268,-0.009681046009063721,0.026782967150211334,-0.070218272507190704,-0.038545452058315277,-0.055453576147556305,0.000724993646144867,-0.034164365381002426,-0.057709939777851105,0.073436766862869263,0.020848631858825684,-0.070169359445571899,0.054698988795280457,0.037240989506244659,-0.047797601670026779,0.028570234775543213,0.012606225907802582,-0.075291447341442108,-0.082530893385410309,-0.033278476446866989,0.037957154214382172,0.010992713272571564,0.003689117729663849,0.013855978846549988,-0.076811216771602631,-0.039756745100021362,-0.057965897023677826,0.050437226891517639,-0.029087029397487640,0.066958799958229065,0.046005055308341980,0.072716891765594482,-0.049551356583833694,-0.056241225451231003,0.035795807838439941,-0.048515800386667252,-0.026190124452114105,-0.037951599806547165,-0.068898081779479980,0.053990766406059265,0.036981798708438873,0.082020848989486694,-0.032351255416870117,-0.048229694366455078,0.020367577672004700,-0.070664465427398682,0.032582424581050873,0.018024861812591553
0.056938245892524719,-0.032423503696918488,-0.014388866722583771,-0.046870883554220200,0.035269334912300110,0.003329761326313019,0.039557531476020813,0.030865862965583801,0.017167799174785614,-0.072015173733234406,0.026371315121650696,-0.008200705051422119,0.030573785305023193,-0.002989023923873901,0.034765496850013733,-0.070258103311061859,0.021554194390773773,0.013507001101970673,0.056479454040527344,0.027703255414962769,0.039813369512557983,-0.058280881494283676,-0.078256152570247650,0.005894355475902557,0.076192811131477356,0.025372363626956940,0.033339701592922211,0.024585381150245667,-0.007998034358024597,-0.059777919203042984,-0.057757690548896790,-0.061751239001750946,0.078887537121772766,-0.044045366346836090,0.035580202937126160,-0.022618051618337631,-0.080795951187610626,-0.056587230414152145,-0.074191182851791382,0.077319264411926270,0.050348877906799316,-0.076816365122795105,-0.062854297459125519,0.031197808682918549,0.057926505804061890,-0.003248073160648346,-0.015120476484298706,0.038203470408916473,-0.011955052614212036,0.029358647763729095,-0.044595148414373398,-0.071779593825340271,-0.000037349760532379,0.041540935635566711,-0.027898661792278290,0.008066982030868530,0.071968421339988708,0.045743301510810852,0.029806472361087799
-0.023560140281915665,-0.059622555971145630,-0.054794132709503174,0.038758903741836548,-0.038987338542938232,-0.067524909973144531,0.071138441562652588,-0.071523740887641907,-0.066578716039657593,-0.026015091687440872,-0.005261741578578949,0.083738222718238831,0.045608773827552795,0.058349967002868652,0.033475495874881744,0.003764666616916656,0.022832512855529785,-0.009956449270248413,-0.055053263902664185,0.037610098719596863,-0.073496438562870026,0.016146384179592133,-0.013539969921112061,-0.014267399907112122,-0.021411769092082977,0.067606493830680847,-0.017250344157218933,-0.081631392240524292,-0.056595936417579651,-0.060865774750709534,0.033616393804550171,-0.023139450699090958,0.015765801072120667,-0.055183582007884979,-0.080430477857589722,0.060442790389060974,0.007734179496765137,-0.004369720816612244,-0.078995168209075928,0.035015076398849487,0.079950124025344849,0.041344881057739258,0.041759818792343140,0.013031199574470520,0.017951168119907379,-0.017923429608345032,-0.040360350161790848,-0.000981874763965607,0.063273847103118896,-0.021496266126632690,0.035070426762104034,-0.001083329319953918,0.049033239483833313,0.075141534209251404,0.053349614143371582,-0.075418934226036072,0.015732370316982269,0.076611176133155823,-0.058427091687917709
0.068924188613891602,0.037891864776611328,0.080964654684066772,-0.049443826079368591,0.032708682119846344,0.024532616138458252,-0.046885024756193161,0.043694481253623962,-0.084154330193996429,0.031700119376182556,0.069689556956291199,0.041729256510734558,0.025025434792041779,-0.039222635328769684,-0.039198536425828934,0.015636503696441650,-0.068127185106277466,-0.052933912724256516,-0.014813996851444244,-0.083034373819828033,-0.081868618726730347,0.051097393035888672,-0.023438628762960434,-0.029081314802169800,-0.028726805001497269,-0.041420347988605499,-0.057768352329730988,0.010690070688724518,0.006707727909088135,0.036851540207862854,-0.016871556639671326,0.059505432844161987,-0.045307148247957230,-0.003100112080574036,-0.017479971051216125,0.038942381739616394,-0.016904562711715698,-0.072063684463500977,0.057023331522941589,0.023916378617286682,0.055056735873222351,0.000867426395416260,-0.010123319923877716,0.073758915066719055,-0.047677922993898392,-0.007297500967979431,-0.049431253224611282,-0.058710299432277679,-0.050814323127269745,0.058459013700485229,0.071227043867111206,0.022625975310802460,-0.008505292236804962,-0.019824273884296417,0.000028297305107117,-0.053413800895214081,-0.048819784075021744,0.017452351748943329,-0.027555152773857117
0.057621244341135025,-0.073194600641727448,-0.045110933482646942,-0.043530359864234924,0.054336890578269958,-0.051926750689744949,0.001544760540127754,-0.060693420469760895,-0.052446991205215454,-0.046850744634866714,0.042117852717638016,-0.076925821602344513,-0.083272784948348999,0.078226462006568909,-0.039849981665611267,-0.023136556148529053,0.003141252323985100,0.060844745486974716,-0.056793376803398132,0.000422368611907586,-0.052939090877771378,0.013229294680058956,-0.062736116349697113,-0.045562833547592163,-0.073131814599037170,-0.075709804892539978,0.001992449164390564,0.066442787647247314,0.018944665789604187,0.082667045295238495,-0.058759305626153946,0.044110476970672607,0.069979824125766754,-0.079641185700893402,-0.063806816935539246,-0.030238803476095200,0.026072798296809196,-0.075232714414596558,-0.082957103848457336,0.058393128216266632,0.077853508293628693,0.013467297889292240,0.058407425880432129,0.003977854736149311,0.030789682641625404,-0.046468075364828110,-0.006678827106952667,0.026531714946031570,-0.006035225465893745,-0.061375446617603302,0.005980722606182098,-0.050212848931550980,0.052766785025596619,-0.014516331255435944,0.059223711490631104,0.013810507021844387,0.077677533030509949,-0.068119585514068604,0.063949555158615112
-0.040234193205833435,-0.044713217765092850,-0.061988711357116699,-0.071598976850509644,-0.043123915791511536,-0.053225204348564148,-0.007292673457413912,-0.050488039851188660,0.062108188867568970,0.041850898414850235,-0.000883974134922028,-0.009705613367259502,0.043310992419719696,0.068836040794849396,-0.039148256182670593,0.015248036012053490,-0.065784126520156860,0.011740087531507015,0.060372278094291687,0.082440413534641266,-0.009868806228041649,0.055865585803985596,0.032643944025039673,-0.067558817565441132,-0.053889710456132889,-0.008245127275586128,0.009265410713851452,0.027237590402364731,-0.086885944008827209,-0.005466728471219540,-0.034523688256740570,-0.032776799052953720,-0.005145411472767591,-0.082175478339195251,0.011290655471384525,-0.031996831297874451,0.073693335056304932,0.036963313817977905,0.013685737736523151,-0.069249384105205536,0.006495573557913303,0.046850588172674179,0.020192705094814301,-0.061214573681354523,0.049710270017385483,0.070957094430923462,0.070794813334941864,0.074841931462287903,0.065774165093898773,0.003572136163711548,-0.067449197173118591,-0.048836428672075272,0.030851725488901138,-0.025303754955530167,0.075141973793506622,0.068235911428928375,-0.039863813668489456,0.085431642830371857,0.057388812303543091
0.086519084870815277,-0.073830567300319672,0.045917671173810959,-0.085431344807147980,0.037389565259218216,-0.037280820310115814,-0.027062010020017624,0.017145846039056778,-0.046252876520156860,0.007852124050259590,-0.083032339811325073,-0.053260322660207748,-0.075000420212745667,0.001522079342976213,-0.014629175886511803,0.022308450192213058,0.019533013924956322,0.012986804358661175,-0.004954670555889606,-0.032966054975986481,0.049158457666635513,0.031000502407550812,0.030064424499869347,-0.009623751975595951,0.076384924352169037,0.072834268212318420,0.009406890720129013,-0.034485086798667908,0.081878148019313812,-0.020515158772468567,0.045052625238895416,0.039531074464321136,0.018245507031679153,-0.030045595020055771,0.016457995399832726,0.050771556794643402,-0.043458148837089539,0.022144060581922531,0.003314816392958164,0.054587248712778091,-0.069035351276397705,0.053734902292490005,-0.000230140620260499,0.012566589750349522,-0.003323806449770927,-0.050110999494791031,-0.025596493855118752,-0.027726331725716591,0.053943544626235962,-0.048174966126680374,0.046887777745723724,0.013959570787847042,-0.028188697993755341,-0.058983329683542252,0.058234751224517822,0.002336779842153192,-0.008728161454200745,-0.077524572610855103,0.037978291511535645
0.075275540351867676,-0.019058981910347939,-0.000397823750972748,-0.021313684061169624,-0.079997822642326355,0.004065522924065590,-0.001690930221229792,-0.006501012016087770,-0.014915518462657928,0.069955080747604370,-0.074037045240402222,-0.020549122244119644,0.076519399881362915,-0.053654555231332779,-0.045237839221954346,-0.049928814172744751,-0.080261714756488800,-0.057682428508996964,0.031570002436637878,0.020570900291204453,-0.019498275592923164,-0.040624741464853287,-0.041652623564004898,-0.025069572031497955,0.059642471373081207,0.020431136712431908,-0.018118496984243393,-0.070909045636653900,-0.010760238394141197,0.057403314858675003,-0.038945686072111130,-0.058293920010328293,0.019514843821525574,0.024720525369048119,-0.074400715529918671,0.006995068397372961,0.053446814417839050,0.074378311634063721,0.044922694563865662,0.008599317632615566,0.076912090182304382,0.028395140543580055,0.072011046111583710,-0.071364879608154297,-0.053263805806636810,0.039709176868200302,0.070506446063518524,-0.054546430706977844,-0.021592911332845688,-0.043543599545955658,0.027249975129961967,0.058864500373601913,-0.015458866022527218,0.013771224766969681,0.046335227787494659,-0.073462218046188354,0.025278000161051750,0.083474092185497284,-0.035832922905683517
-0.007295402232557535,-0.065543673932552338,-0.008427474647760391,-0.009702875278890133,-0.030472319573163986,0.007344089448451996,-0.032666098326444626,-0.054334100335836411,0.015544862486422062,0.057002846151590347,0.061966657638549805,0.059716925024986267,-0.041692633181810379,0.013516271486878395,0.015153666958212852,-0.001191780087538064,-0.035991601645946503,0.061977874487638474,0.076149001717567444,-0.040141314268112183,-0.016692945733666420,0.045281410217285156,0.074480950832366943,0.046058956533670425,-0.057410389184951782,-0.068648315966129303,0.062875047326087952,0.074314154684543610,0.080253034830093384,0.048109252005815506,-0.062707178294658661,0.050003718584775925,0.002269138582050800,-0.031616806983947754,0.081240504980087280,0.026677332818508148,0.030591936782002449,-0.077597469091415405,0.051455762237310410,-0.060221295803785324,-0.000355372903868556,0.039759840816259384,0.013004146516323090,0.037940334528684616,0.036358531564474106,0.023023476824164391,-0.013630640693008900,0.010167359374463558,0.071619443595409393,-0.060907252132892609,0.059456273913383484,-0.056162595748901367,0.025892579928040504,0.029733464121818542,-0.067107461392879486,-0.045273281633853912,0.076971955597400665,0.046920005232095718,0.047891922295093536
0.086199469864368439,0.042418252676725388,0.055926773697137833,0.074010759592056274,0.022719213739037514,-0.000075027186539955,-0.020715799182653427,-0.010549439117312431,-0.053824875503778458,0.046617832034826279,0.071331933140754700,0.096376389265060425,-0.062481041997671127,0.039492666721343994,-0.009106068871915340,-0.015957880765199661,0.066393055021762848,0.014158853329718113,-0.040659390389919281,-0.025529131293296814,0.048467200249433517,-0.038066577166318893,0.088723458349704742,0.077421374619007111,0.097906388342380524,-0.077744670212268829,-0.019528245553374290,-0.025697875767946243,0.001422020257450640,-0.079921297729015350,-0.037795074284076691,-0.012707425281405449,-0.095557108521461487,0.020287750288844109,-0.035648014396429062,-0.044688370078802109,-0.017486428841948509,-0.072082079946994781,0.064671777188777924,-0.080681107938289642,0.056857690215110779,0.001772452495060861,-0.081732317805290222,0.016215043142437935,0.070419542491436005,0.059763558208942413,-0.019165374338626862,-0.045550074428319931,-0.067882962524890900,-0.020936705172061920,-0.007402823306620121,0.028328852728009224,0.051144711673259735,-0.054029770195484161,-0.072688028216362000,-0.080921016633510590,0.057814449071884155,-0.082117311656475067,0.031156627461314201
0.101990252733230591,-0.049468412995338440,0.069165043532848358,-0.070933148264884949,-0.030799414962530136,-0.063266478478908539,-0.061938673257827759,-0.064032740890979767,-0.006497173104435205,0.012119586579501629,-0.002469653496518731,-0.034903921186923981,-0.076147355139255524,0.063898235559463501,0.043709117919206619,0.049027953296899796,0.106070496141910553,0.090986624360084534,-0.036112800240516663,0.101344704627990723,-0.033133536577224731,0.034183766692876816,0.098317913711071014,0.059339571744203568,0.102245323359966278,-0.039841227233409882,-0.011312239803373814,0.022849021479487419,-0.061832282692193985,0.006586101371794939,0.041754219681024551,-0.010898815467953682,-0.034331597387790680,-0.033259097486734390,0.024053223431110382,0.011414475739002228,-0.042970400303602219,-0.004825772717595100,-0.047604747116565704,0.057240657508373260,0.026068732142448425,0.041778214275836945,-0.007164348848164082,-0.018174156546592712,0.053534731268882751,0.002524473471567035,0.004501403309404850,-0.066874846816062927,0.071949400007724762,0.034082744270563126,-0.036255560815334320,-0.064615122973918915,0.016663311049342155,0.028174243867397308,0.064963236451148987,-0.059051990509033203,0.023092554882168770,0.034726727753877640,-0.037935718894004822
0.124051697552204132,-0.010341339744627476,-0.086056105792522430,0.064113847911357880,-0.021188121289014816,0.018022010102868080,-0.020481284707784653,-0.040074985474348068,0.025359645485877991,-0.041683707386255264,-0.057874642312526703,0.041772000491619110,0.060078296810388565,0.033341053873300552,-0.063428707420825958,-0.045217774808406830,-0.025353772565722466,-0.004598647821694613,-0.016306165605783463,0.044351551681756973,-0.083803080022335052,-0.036626312881708145,0.057784907519817352,-0.089117802679538727,-0.034714832901954651,-0.092226997017860413,0.067594386637210846,-0.073868557810783386,0.017943423241376877,0.025579420849680901,0.001086234813556075,-0.008349889889359474,0.043953791260719299,0.041956186294555664,0.003093374660238624,0.008359278552234173,0.014911087229847908,0.105003975331783295,-0.017836261540651321,0.023110987618565559,-0.038273118436336517,-0.062479820102453232,0.050877097994089127,0.032276444137096405,0.023360621184110641,0.067077733576297760,-0.041384760290384293,0.062053717672824860,-0.005419201683253050,0.042160853743553162,-0.048834998160600662,-0.078455843031406403,0.053573381155729294,-0.048859838396310806,-0.040164683014154434,0.058636143803596497,0.064289748668670654,-0.016837691888213158,-0.073535807430744171
0.001558125019073486,0.066001497209072113,-0.075663067400455475,-0.073209851980209351,-0.071798093616962433,-0.036176193505525589,-0.072741426527500153,-0.056420799344778061,0.032321888953447342,-0.010733701288700104,-0.050449967384338379,-0.011635662987828255,-0.040670115500688553,0.020077563822269440,-0.056803401559591293,-0.034956198185682297,0.004027822986245155,-0.014907302334904671,0.021414851769804955,0.103950083255767822,-0.061824653297662735,0.037971809506416321,-0.036334078758955002,-0.035813838243484497,0.119957722723484039,0.024730805307626724,-0.049284219741821289,-0.009730361402034760,0.012734270654618740,-0.031070936471223831,-0.073201663792133331,-0.013203392736613750,-0.027238423004746437,-0.018676454201340675,0.087337955832481384,-0.028308903798460960,0.029111443087458611,-0.036973640322685242,0.093744613230228424,0.085057765245437622,0.114163011312484741,0.038027115166187286,0.064370401203632355,-0.030391570180654526,0.037955753505229950,0.063813894987106323,0.046996660530567169,-0.037011068314313889,-0.071838118135929108,-0.076907202601432800,-0.051916543394327164,-0.025915907695889473,0.059744801372289658,-0.028945710510015488,-0.001539173885248601,0.056934867054224014,-0.017959758639335632,0.023162582889199257,-0.009367753751575947
0.055284675210714340,0.013506185263395309,0.020782761275768280,-0.103972278535366058,-0.068752408027648926,0.105039075016975403,0.009261427447199821,0.087318658828735352,0.052652962505817413,0.053451746702194214,0.023371746763586998,0.103815890848636627,0.010762382298707962,0.018185831606388092,-0.063077159225940704,-0.040366895496845245,0.095220297574996948,0.017128095030784607,0.031724136322736740,-0.006257673259824514,0.005589309614151716,-0.026278674602508545,0.051184520125389099,-0.040657799690961838,0.040891528129577637,0.023163661360740662,-0.036956183612346649,-0.050650563091039658,0.032341860234737396,0.016230318695306778,-0.066192872822284698,-0.075871467590332031,0.016638146713376045,0.077337421476840973,-0.026918886229395866,-0.015473413281142712,0.051822219043970108,0.028240989893674850,0.121709994971752167,-0.076908074319362640,-0.029829274863004684,-0.028435228392481804,0.081218898296356201,0.041791580617427826,0.104728154838085175,0.060570225119590759,-0.035624787211418152,-0.059129394590854645,-0.043929848819971085,-0.034964594990015030,0.009220863692462444,0.043162818998098373,-0.014815343543887138,-0.037957124412059784,-0.046427857130765915,-0.028374738991260529,0.013853752054274082,-0.048377625644207001,-0.046039082109928131
0.016230272129178047,-0.077341295778751373,0.082888752222061157,0.006440661847591400,0.084314554929733276,-0.003093047533184290,-0.016270069405436516,0.055050440132617950,-0.066323585808277130,-0.005573755130171776,0.015535527840256691,0.015776917338371277,-0.137105762958526611,-0.051130041480064392,0.036773577332496643,-0.070914007723331451,0.103561930358409882,0.082721017301082611,0.063021637499332428,0.061701755970716476,-0.062098059803247452,0.089364469051361084,0.004165220074355602,0.030607318505644798,0.042820509523153305,0.065357521176338196,-0.000178738060640171,-0.024183977395296097,-0.031025158241391182,-0.035397417843341827,-0.020899122580885887,0.028931226581335068,0.022733362391591072,0.051125455647706985,0.099776186048984528,-0.027112396433949471,0.042069070041179657,-0.029583999887108803,0.098556756973266602,-0.035121105611324310,0.064059242606163025,0.026599502190947533,-0.040129534900188446,-0.024356069043278694,0.048578429967164993,0.030818158760666847,-0.087244421243667603,-0.004188386723399162,0.080371215939521790,-0.040356900542974472,-0.002089288784191012,-0.006628124974668026,-0.080981664359569550,0.000839477230329067,-0.068223148584365845,0.041054006665945053,-0.011647182516753674,0.071343891322612762,-0.052720591425895691
0.098464809358119965,0.053672023117542267,0.023050712421536446,-0.067492119967937469,0.068180859088897705,0.113390646874904633,-0.003487790701910853,-0.055187273770570755,0.022408695891499519,0.108645126223564148,0.020378341898322105,0.148372635245323181,-0.088383883237838745,0.059336550533771515,0.046432025730609894,-0.072469815611839294,-0.022881727665662766,0.073845900595188141,-0.016301918774843216,0.017048345878720284,0.067831903696060181,-0.009148822166025639,0.117879875004291534,-0.021836763247847557,0.096890397369861603,-0.067641556262969971,0.032205920666456223,-0.087548919022083282,-0.056925855576992035,-0.069874741137027740,-0.075168490409851074,0.028437679633498192,0.040632300078868866,0.097222253680229187,0.001327709178440273,-0.082092911005020142,-0.054427165538072586,-0.025820726528763771,0.050831802189350128,-0.030407866463065147,0.043416563421487808,0.021036991849541664,0.010434893891215324,-0.060316774994134903,-0.008230073377490044,-0.022876612842082977,0.009269499219954014,0.061665434390306473,0.008955454453825951,-0.108246326446533203,-0.072022005915641785,-0.043526686728000641,-0.070028811693191528,-0.105476528406143188,-0.037902839481830597,-0.101568527519702911,0.103692255914211273,0.087693780660629272,-0.030379652976989746
0.105136565864086151,-0.064636401832103729,-0.020873581990599632,-0.004183711018413305,-0.067060619592666626,0.117021448910236359,0.028132926672697067,0.035246472805738449,0.010529888793826103,0.073161996901035309,0.102742075920104980,0.054471936076879501,-0.087693810462951660,0.094793230295181274,-0.061087962239980698,0.018571935594081879,0.004020330961793661,0.035169471055269241,-0.033077590167522430,-0.003147869138047099,0.018151173368096352,0.103594221174716949,0.154095157980918884,0.050365328788757324,0.080269701778888702,0.040050882846117020,-0.004070141818374395,-0.058601055294275284,-0.007060458417981863,-0.120416887104511261,-0.106533408164978027,-0.051339838653802872,-0.020482363179326057,0.121975399553775787,-0.030522204935550690,0.040908366441726685,-0.027443408966064453,0.014603289775550365,0.039002433419227600,0.076804406940937042,-0.032959256321191788,0.025787141174077988,0.020385123789310455,-0.036973010748624802,0.115784294903278351,-0.012333530001342297,-0.100522197782993317,0.062823928892612457,0.080546699464321136,0.002186946338042617,-0.106867387890815735,0.038680836558341980,-0.095294110476970673,-0.102895364165306091,0.060400571674108505,-0.070527933537960052,-0.010239044204354286,0.098694674670696259,-0.008861378766596317
0.036744344979524612,-0.074363924562931061,-0.085742473602294922,0.043635558336973190,-0.002524927258491516,0.184905037283897400,0.022409327328205109,0.014669183641672134,0.021209908649325371,0.103768311440944672,0.044422294944524765,0.043569896370172501,0.005344091914594173,0.026728268712759018,-0.063707530498504639,0.026443846523761749,0.017672171816229820,-0.053353086113929749,-0.058416012674570084,0.107551656663417816,-0.059531841427087784,0.133934289216995239,0.061280343681573868,-0.003539078868925571,0.052926588803529739,-0.073772273957729340,0.055056516081094742,-0.038554593920707703,-0.044145248830318451,0.003744344459846616,-0.094333842396736145,0.032955363392829895,-0.112538494169712067,0.075798571109771729,0.005723954178392887,-0.104399442672729492,-0.041310202330350876,0.045214585959911346,0.036341171711683273,0.053376555442810059,0.025660727173089981,-0.015565551817417145,-0.030815863981842995,0.045586526393890381,0.110804475843906403,0.026335773989558220,-0.083385802805423737,0.007080314215272665,0.019740801304578781,0.042838718742132187,-0.086667396128177643,-0.003972982056438923,-0.138261660933494568,-0.084406636655330658,0.050343424081802368,-0.012739371508359909,-0.071440272033214569,-0.049464210867881775,-0.033994600176811218
0.089622378349304199,-0.035127095878124237,0.004183574579656124,0.003767700167372823,0.065836243331432343,0.076677620410919189,0.032576721161603928,0.083503618836402893,-0.020370522513985634,-0.011775856837630272,0.100008547306060791,0.123064123094081879,-0.072945915162563324,-0.000477190973469988,0.027578005567193031,-0.081741839647293091,-0.013118751347064972,0.005000988952815533,-0.033443581312894821,0.032914254814386368,-0.004443694837391376,0.063112385571002960,0.035528548061847687,-0.010756666772067547,0.087188377976417542,-0.060496669262647629,0.058800466358661652,0.051489196717739105,-0.038290020078420639,-0.078951463103294373,0.052642215043306351,0.045886985957622528,-0.006427800748497248,0.043286029249429703,-0.040619187057018280,-0.005029485095292330,0.011850061826407909,-0.051306605339050293,0.009918343275785446,-0.071414448320865631,-0.040965169668197632,0.089291632175445557,0.096278317272663116,0.022659340873360634,0.008475873619318008,0.054647490382194519,0.045672472566366196,-0.059450499713420868,0.071229338645935059,0.043953038752079010,-0.048035785555839539,-0.048382051289081573,0.005987009033560753,0.048880755901336670,-0.015001494437456131,0.048822004348039627,-0.013217386789619923,-0.073233857750892639,-0.030883692204952240
0.028939882293343544,0.020708421245217323,0.024611098691821098,0.035854205489158630,0.022941954433917999,0.059973295778036118,0.059420522302389145,0.126013398170471191,0.027049273252487183,0.120916530489921570,0.069129802286624908,0.054060898721218109,-0.073823690414428711,-0.039657354354858398,0.089599221944808960,0.013867144472897053,0.044047940522432327,-0.008301977068185806,-0.053068693727254868,0.090714953839778900,0.045083701610565186,-0.041558187454938889,0.014592052437365055,0.005760378669947386,0.083082996308803558,-0.118799738585948944,0.003222492989152670,-0.091852732002735138,0.008805676363408566,-0.021790042519569397,-0.052623152732849121,0.057580400258302689,0.040987815707921982,0.034716937690973282,0.074590928852558136,-0.045359354466199875,-0.082847848534584045,-0.019478844478726387,0.116614028811454773,-0.050729319453239441,-0.010665981099009514,-0.018131285905838013,0.032943964004516602,-0.087599545717239380,0.157995477318763733,0.087398126721382141,0.016354061663150787,0.029658867046236992,0.061143931001424789,0.005328184459358454,-0.040948491543531418,-0.040769644081592560,-0.059830997139215469,0.006645493209362030,0.024999242275953293,-0.083386451005935669,0.046281229704618454,-0.001912757754325867,0.058369942009449005
-0.002447573235258460,-0.040152020752429962,0.089456550776958466,-0.096516571938991547,-0.039686586707830429,0.015202958136796951,0.060284860432147980,0.004404146689921618,0.042708210647106171,0.080015040934085846,0.053876698017120361,0.099575363099575043,-0.061916042119264603,-0.022017503157258034,0.012882713228464127,-0.087893567979335785,-0.074972525238990784,-0.011286358349025249,0.082844600081443787,-0.084090523421764374,-0.077842332422733307,0.074381582438945770,0.105232052505016327,0.097222991287708282,-0.002169518033042550,-0.076812691986560822,0.050916276872158051,-0.019249884411692619,-0.041079927235841751,-0.049499016255140305,0.042927846312522888,0.022618865594267845,-0.043319176882505417,0.087200261652469635,0.106539845466613770,-0.020992446690797806,0.035567842423915863,0.010411168448626995,0.053109224885702133,0.051777750253677368,0.030043842270970345,0.032942548394203186,0.097725160419940948,0.054262615740299225,0.022908899933099747,0.016285177320241928,-0.068275533616542816,0.042988810688257217,-0.073319680988788605,0.021225482225418091,-0.074043743312358856,-0.040649566799402237,-0.046739287674427032,0.052819713950157166,0.054891459643840790,0.008669009432196617,-0.102076739072799683,-0.074437297880649567,-0.064034983515739441
0.166582420468330383,0.027352135628461838,-0.001436723396182060,-0.081531569361686707,-0.081714190542697906,0.079862736165523529,-0.001032655243761837,0.016267942264676094,0.046923033893108368,-0.030586505308747292,0.027003949508070946,-0.017245450988411903,0.031537491828203201,0.016966547816991806,-0.019016280770301819,0.036909997463226318,0.021216429769992828,-0.072501219809055328,0.016111249104142189,0.005474448669701815,0.053012818098068237,-0.096137225627899170,0.113311804831027985,0.103852741420269012,0.086463518440723419,0.009578058496117592,-0.015123241581022739,-0.013287464156746864,0.063932999968528748,0.027039591223001480,-0.067544996738433838,-0.070129014551639557,-0.087831072509288788,-0.091613456606864929,0.029639421030879021,0.003599257674068213,-0.116375878453254700,-0.048947952687740326,0.051600068807601929,-0.025082645937800407,-0.016541482880711555,-0.053236193954944611,0.069560013711452484,-0.015596219338476658,0.041722308844327927,0.051851339638233185,-0.089497409760951996,0.012756487354636192,0.074805788695812225,0.081071324646472931,0.022661436349153519,0.056123357266187668,0.092065565288066864,0.025157047435641289,0.065097369253635406,-0.000830582459457219,-0.089908607304096222,0.042180765420198441,0.065430767834186554
-0.000727025384549052,-0.021685337647795677,-0.077620163559913635,-0.065721228718757629,0.032188758254051208,0.061259057372808456,-0.016418263316154480,0.021773951128125191,0.086157433688640594,-0.040487647056579590,-0.061032272875308990,0.119765296578407288,0.011190429329872131,0.046369042247533798,-0.071600310504436493,0.009021343663334846,0.003972883801907301,0.041523884981870651,0.054194390773773193,-0.106540791690349579,-0.001866924110800028,0.026009589433670044,0.108854211866855621,0.071985431015491486,0.086358711123466492,-0.110270120203495026,-0.079527653753757477,-0.080553621053695679,0.006268749013543129,-0.028209043666720390,-0.016775241121649742,-0.011810032650828362,0.053017932921648026,-0.093853712081909180,0.100037202239036560,-0.026205683127045631,-0.074599236249923706,-0.020934844389557838,0.096062324941158295,0.004169442690908909,0.033330842852592468,0.069101892411708832,-0.075381241738796234,0.019749175757169724,0.125484704971313477,-0.027862831950187683,0.064736634492874146,-0.019097940996289253,0.047193273901939392,-0.042468797415494919,-0.025024684146046638,-0.005167894065380096,-0.005155914463102818,-0.070110566914081573,0.089192792773246765,-0.035929802805185318,-0.004894313402473927,0.009603555314242840,-0.057177603244781494
0.045634437352418900,-0.022007178515195847,-0.025586634874343872,0.005739494226872921,-0.027465566992759705,0.006590629462152719,-0.045095629990100861,0.061495445668697357,0.035386592149734497,0.116227209568023682,0.025128243491053581,-0.004751798231154680,-0.057087026536464691,0.109334155917167664,-0.028170213103294373,0.027110384777188301,-0.044043760746717453,0.021467059850692749,-0.049383215606212616,-0.020325742661952972,-0.064369194209575653,0.041470415890216827,-0.031063351780176163,0.011303802952170372,-0.052915886044502258,-0.046628113836050034,-0.007190238684415817,0.026528004556894302,0.073772683739662170,-0.049217093735933304,-0.066903427243232727,0.010344880633056164,0.058421052992343903,-0.009360080584883690,0.074643686413764954,0.041408222168684006,-0.128178134560585022,-0.068739049136638641,-0.006312557030469179,-0.066891245543956757,0.075126662850379944,-0.019249688833951950,0.022945011034607887,0.019577458500862122,0.109216541051864624,0.059162583202123642,0.069275408983230591,-0.007268224842846394,0.078944906592369080,0.009812613949179649,0.023991875350475311,-0.072225347161293030,0.002660248195752501,-0.079655632376670837,0.067852020263671875,-0.017376694828271866,-0.078796580433845520,0.019368888810276985,0.011236340738832951
