-0.163278535008430481,0.131215497851371765,0.207473054528236389,-0.002427665283903480,-0.026300543919205666,0.146278157830238342,-0.062098704278469086,-0.092970125377178192,0.158256769180297852,-0.213510617613792419,0.107248276472091675,-0.036148581653833389,-0.278598755598068237,0.074075728654861450,0.281875908374786377,0.191834509372711182,0.196320861577987671,-0.231677457690238953,0.020630536600947380,0.135613903403282166,0.131194368004798889,-0.039292544126510620,0.085271745920181274,0.194991290569305420,-0.002474631182849407,-0.139217972755432129,0.334219366312026978,0.037043426185846329,-0.053963560611009598,-0.126304909586906433,-0.175104007124900818,-0.149254217743873596,-0.102883681654930115,0.056662384420633316,-0.171615913510322571,0.040697827935218811,-0.326098501682281494,0.302626937627792358,-0.171870261430740356,0.020513983443379402,0.307479292154312134,0.053251154720783234,0.143821269273757935,0.111571751534938812,-0.202593475580215454,0.053469792008399963,0.130509197711944580,-0.076503627002239227,0.021918971091508865,-0.120330467820167542,-0.162335515022277832,-0.173183754086494446,0.103025376796722412,-0.229414299130439758,0.180801287293434143,0.186166793107986450,0.008120518177747726,0.273391187191009521,-0.084484659135341644,-0.158861950039863586,-0.050768487155437469,0.043906755745410919,-0.046638745814561844,0.135690495371818542,-0.324476242065429688,-0.015059617348015308,-0.094989530742168427,0.034415297210216522,0.002789413323625922,0.175245031714439392
-0.088907763361930847,0.093697302043437958,0.091848500072956085,-0.026938768103718758,0.267009079456329346,-0.238330617547035217,-0.211851403117179871,-0.190659910440444946,-0.095674291253089905,0.226937070488929749,-0.230860948562622070,0.200838565826416016,0.034272126853466034,-0.004140284843742847,-0.227565899491310120,-0.142613723874092102,-0.079759478569030762,-0.228098303079605103,-0.173234552145004272,0.112601198256015778,0.079395212233066559,0.022975318133831024,-0.175895154476165771,0.046490892767906189,0.006591526791453362,-0.213624298572540283,-0.243490546941757202,0.099292948842048645,0.072715245187282562,0.313933759927749634,-0.099753782153129578,0.034230645745992661,0.096520051360130310,0.035425953567028046,-0.244307786226272583,0.096800245344638824,-0.032258931547403336,0.020550634711980820,-0.097739569842815399,0.121571235358715057,-0.150156006217002869,0.099938429892063141,-0.244532629847526550,0.031281821429729462,-0.322238773107528687,-0.178889572620391846,-0.154531583189964294,-0.041601102799177170,-0.033083260059356689,-0.022576030343770981,0.024968691170215607,-0.082337737083435059,0.156073987483978271,0.192868977785110474,0.302175521850585938,0.019595650956034660,-0.013529177755117416,-0.159594923257827759,-0.086012937128543854,-0.140270829200744629,-0.125489816069602966,-0.117015019059181213,-0.013355026952922344,-0.161656275391578674,-0.164473295211791992,0.038158327341079712,-0.181496515870094299,0.136221274733543396,0.156129732728004456,0.327656835317611694
0.148060798645019531,0.064469859004020691,0.051606897264719009,0.157116442918777466,-0.262663364410400391,0.074328243732452393,-0.189165160059928894,-0.188657999038696289,0.063244864344596863,0.029840568080544472,0.052098739892244339,-0.011980064213275909,0.035770870745182037,0.271590888500213623,0.084614232182502747,-0.201365277171134949,0.266585975885391235,0.179889559745788574,-0.102287247776985168,-0.159784898161888123,-0.063040778040885925,0.335887730121612549,0.026762470602989197,-0.057247351855039597,-0.133867472410202026,-0.010664929635822773,0.298161774873733521,0.123769648373126984,0.001359552959911525,-0.047391403466463089,0.104846775531768799,-0.040223363786935806,-0.186038091778755188,-0.291550636291503906,0.162204846739768982,-0.265024393796920776,-0.023183856159448624,-0.193700984120368958,-0.051844578236341476,0.089801751077175140,-0.233619153499603271,0.182118445634841919,-0.012794775888323784,-0.194531589746475220,-0.286606669425964355,-0.071945443749427795,0.134515717625617981,-0.066671513020992279,0.164104804396629333,-0.091017253696918488,-0.184385761618614197,0.068686634302139282,0.221897169947624207,0.017120594158768654,-0.292422831058502197,0.248279049992561340,0.036078590899705887,-0.085858926177024841,0.142229512333869934,-0.008752961643040180,-0.017783751711249352,0.051499582827091217,0.196207970380783081,0.161547377705574036,0.200919091701507568,0.173590004444122314,0.239031404256820679,0.100101284682750702,0.158147126436233521,-0.144811674952507019
-0.133790373802185059,-0.116183519363403320,-0.087090872228145599,-0.159432187676429749,-0.203921139240264893,-0.238294467329978943,0.109326906502246857,-0.099835574626922607,-0.200314134359359741,-0.102893814444541931,0.185603946447372437,-0.084222480654716492,0.042564097791910172,-0.128393664956092834,0.154395326972007751,0.196986570954322815,-0.071663871407508850,-0.060798760503530502,0.241122305393218994,-0.107134409248828888,-0.121353290975093842,0.005761139560490847,-0.042035181075334549,0.060130380094051361,-0.230833008885383606,0.037784457206726074,0.106535911560058594,-0.088135682046413422,0.066184058785438538,0.138638153672218323,0.039335604757070541,-0.180784881114959717,-0.032965492457151413,0.097268171608448029,0.212296083569526672,0.345276832580566406,0.289300352334976196,0.117342844605445862,0.054579135030508041,0.165230199694633484,0.014679320156574249,0.168858349323272705,0.210198312997817993,0.174338862299919128,0.281998425722122192,0.036861851811408997,0.071570195257663727,-0.155921980738639832,-0.246473729610443115,-0.017848193645477295,-0.062976881861686707,-0.187937781214714050,0.068096593022346497,-0.128303676843643188,0.186720088124275208,0.317629307508468628,-0.064405225217342377,0.156794905662536621,-0.134172961115837097,0.243913292884826660,0.243704244494438171,0.095439396798610687,0.164767414331436157,-0.123092375695705414,0.098485633730888367,0.028587995097041130,0.245959565043449402,0.166398584842681885,-0.018526399508118629,-0.044977549463510513
-0.303895384073257446,-0.161417707800865173,-0.091429412364959717,0.170538663864135742,0.062741532921791077,-0.110695749521255493,-0.098660856485366821,-0.089183084666728973,-0.154063850641250610,-0.021853426471352577,-0.054077994078397751,-0.153545737266540527,0.369565606117248535,0.188601478934288025,0.125895395874977112,0.183431655168533325,0.008268348872661591,0.373093575239181519,0.173193454742431641,0.188932865858078003,0.238197818398475647,-0.011962374672293663,0.127666592597961426,-0.111444331705570221,-0.020427338778972626,0.046298127621412277,0.021643150597810745,-0.121627807617187500,-0.004901297390460968,0.006929647177457809,0.053749643266201019,0.115169174969196320,0.166386500000953674,-0.151871174573898315,0.058946575969457626,-0.140236258506774902,0.280692666769027710,-0.090743273496627808,0.152189046144485474,-0.081650808453559875,-0.064935952425003052,0.185891792178153992,-0.134166359901428223,-0.016495015472173691,0.263813167810440063,0.070497520267963409,-0.162752568721771240,0.228630691766738892,-0.083077773451805115,0.097021184861660004,-0.075313702225685120,-0.036755267530679703,-0.013376939110457897,0.150383442640304565,0.186395451426506042,-0.214288860559463501,0.226264834403991699,-0.158135801553726196,0.122097648680210114,-0.115238137543201447,0.228456035256385803,0.239243850111961365,-0.329923182725906372,-0.105528227984905243,0.355046242475509644,0.149954929947853088,-0.217982992529869080,0.041752737015485764,-0.156932458281517029,0.130039095878601074
-0.063190631568431854,0.056401699781417847,0.073321864008903503,0.068692639470100403,0.052052397280931473,-0.144452497363090515,-0.153682529926300049,-0.113786160945892334,0.290706723928451538,-0.134581238031387329,-0.033994287252426147,0.272292196750640869,-0.224378541111946106,0.267484962940216064,-0.019040724262595177,-0.066202059388160706,0.143608063459396362,-0.019724963232874870,0.152145996689796448,-0.010247009806334972,0.159404665231704712,0.046856503933668137,0.193313881754875183,0.205415695905685425,0.128227666020393372,-0.032018736004829407,-0.032875247299671173,0.077756017446517944,-0.093222998082637787,-0.156542047858238220,-0.084018588066101074,-0.292687237262725830,0.267105132341384888,0.222166612744331360,-0.311593025922775269,0.022959077730774879,0.054817952215671539,-0.063286758959293365,-0.074718825519084930,-0.008558505214750767,-0.053825553506612778,-0.066774204373359680,-0.101610779762268066,0.290751814842224121,-0.109995953738689423,-0.032163385301828384,0.022394744679331779,-0.261860936880111694,0.277364104986190796,0.218079403042793274,0.182572841644287109,-0.088747717440128326,-0.017962707206606865,0.269327878952026367,0.155814126133918762,0.079201690852642059,-0.198536559939384460,-0.149781152606010437,0.050017826259136200,-0.113310508430004120,-0.159227907657623291,0.224181279540061951,-0.357859224081039429,-0.175141662359237671,0.119620092213153839,-0.060039740055799484,-0.196159690618515015,-0.246127054095268250,-0.228748321533203125,0.305557727813720703
-0.060982998460531235,-0.078937105834484100,0.087049074470996857,-0.031054861843585968,0.200761765241622925,0.009350629523396492,-0.158548161387443542,0.147678941488265991,-0.068787090480327606,0.286938905715942383,0.085685491561889648,0.069653213024139404,0.104082740843296051,-0.097775749862194061,-0.254302322864532471,-0.192626878619194031,-0.120028644800186157,0.219884395599365234,0.244878426194190979,0.274592220783233643,-0.126440703868865967,-0.036979906260967255,0.038305670022964478,-0.071384906768798828,-0.095061287283897400,-0.100912958383560181,0.072101600468158722,-0.229712903499603271,-0.012993484735488892,0.138911306858062744,0.188467651605606079,0.021294254809617996,0.104976356029510498,-0.008278511464595795,-0.219191029667854309,-0.171823129057884216,-0.062969088554382324,-0.262943476438522339,0.069942049682140350,0.044181935489177704,-0.151724979281425476,0.184009552001953125,0.112431488931179047,-0.037967402487993240,-0.048718102276325226,-0.094480089843273163,-0.147484481334686279,0.127542942762374878,0.143441960215568542,0.092839628458023071,-0.029580513015389442,-0.074634313583374023,-0.239880487322807312,-0.149547219276428223,-0.143836483359336853,-0.142347320914268494,0.073697969317436218,-0.023241493850946426,0.307526171207427979,0.053327653557062149,0.161276757717132568,0.162798553705215454,-0.121193096041679382,0.059120550751686096,0.010134388692677021,-0.129333078861236572,-0.164288714528083801,-0.308766037225723267,0.117468968033790588,-0.079049780964851379
0.152080267667770386,-0.111989215016365051,-0.102604031562805176,0.112660259008407593,0.079644411802291870,-0.075567811727523804,0.099511280655860901,0.061347432434558868,0.387541592121124268,-0.173128694295883179,0.028899902477860451,-0.228943213820457458,-0.239009499549865723,-0.036848735064268112,-0.097963444888591766,-0.117040656507015228,0.001944588846527040,-0.174212589859962463,-0.180653303861618042,0.082527555525302887,0.049789115786552429,-0.034621641039848328,-0.139479830861091614,0.105836361646652222,-0.219652682542800903,0.108652867376804352,0.199847891926765442,0.249653205275535583,-0.220658257603645325,-0.029758753255009651,0.047681670635938644,-0.054361350834369659,0.077649965882301331,-0.191476523876190186,0.165222749114036560,0.050770718604326248,0.115445882081985474,0.240204811096191406,0.099494390189647675,0.002692760666832328,-0.101178526878356934,-0.293083518743515015,-0.133421704173088074,0.012130211107432842,0.188990876078605652,0.166477262973785400,-0.119894303381443024,0.027806304395198822,-0.138922140002250671,-0.269764751195907593,0.030521804466843605,-0.060844343155622482,-0.016821376979351044,0.049961663782596588,-0.221181973814964294,0.241751745343208313,-0.198618397116661072,-0.136068269610404968,-0.231728106737136841,-0.267707586288452148,-0.111253276467323303,-0.217479243874549866,-0.009142828173935413,-0.052682269364595413,-0.052928809076547623,-0.070105604827404022,0.096764422953128815,0.098001800477504730,0.205081224441528320,0.040415752679109573
0.164684668183326721,-0.211034566164016724,-0.086155384778976440,-0.428255856037139893,0.084234878420829773,-0.059267651289701462,0.058096148073673248,0.005043982528150082,-0.156484618782997131,0.254986584186553955,-0.233559429645538330,-0.029822755604982376,0.084575794637203217,-0.248263671994209290,-0.004878403153270483,-0.037972170859575272,0.036817327141761780,-0.273502349853515625,0.240210995078086853,-0.154008015990257263,-0.027151197195053101,-0.241658762097358704,0.167086943984031677,-0.045710761100053787,0.077741324901580811,0.139883473515510559,0.066536851227283478,0.268260061740875244,0.031665056943893433,0.246045127511024475,0.244035527110099792,0.287918061017990112,-0.148825630545616150,0.183498531579971313,0.092470064759254456,-0.032528623938560486,-0.268045902252197266,0.088171727955341339,-0.135436460375785828,-0.122070685029029846,0.021446263417601585,0.178367540240287781,0.253910213708877563,-0.194588378071784973,-0.290254324674606323,-0.092458851635456085,0.250842064619064331,0.186051189899444580,0.155963033437728882,-0.035592101514339447,0.161454871296882629,-0.097216643393039703,0.125972896814346313,-0.143774628639221191,-0.024537507444620132,0.058170367032289505,-0.136686429381370544,0.171208262443542480,-0.080925501883029938,0.070790477097034454,0.040367297828197479,-0.114280432462692261,0.171463191509246826,-0.212877944111824036,0.206874787807464600,0.244817391037940979,0.169261842966079712,0.068369619548320770,-0.107759006321430206,0.129819586873054504
-0.096644870936870575,-0.131875127553939819,0.160511642694473267,0.077191866934299469,0.020661100745201111,-0.186976253986358643,0.117164768278598785,-0.127636328339576721,0.084463730454444885,0.155086949467658997,0.187751308083534241,0.021094266325235367,-0.070738121867179871,0.237317055463790894,-0.083364740014076233,0.220562368631362915,-0.193243458867073059,0.081566281616687775,0.116850025951862335,0.002112515503540635,-0.029531784355640411,0.050158798694610596,-0.252958148717880249,0.055907797068357468,0.126653492450714111,0.060508780181407928,-0.170530065894126892,0.207844123244285583,0.057331938296556473,0.149141594767570496,-0.183910965919494629,-0.023095482960343361,-0.196392372250556946,-0.021957864984869957,0.205202445387840271,0.065429121255874634,0.265657693147659302,-0.087657280266284943,-0.179834231734275818,-0.104791328310966492,-0.195928499102592468,0.120660491287708282,-0.126637041568756104,0.033872265368700027,0.226602867245674133,0.160265088081359863,0.051535025238990784,0.252111673355102539,-0.134235337376594543,0.221855849027633667,0.080034129321575165,-0.167268902063369751,0.187180086970329285,-0.069053821265697479,0.127058699727058411,0.073421955108642578,0.241841420531272888,-0.043301898986101151,-0.085249923169612885,-0.033111285418272018,-0.152628630399703979,-0.125573366880416870,-0.031739331781864166,0.103853106498718262,0.162213161587715149,0.086813785135746002,0.106040686368942261,0.188140124082565308,0.114388845860958099,-0.279354542493820190
-0.173354998230934143,-0.156464785337448120,0.120169669389724731,0.032771944999694824,0.057736638933420181,0.132428467273712158,-0.052044764161109924,-0.128559887409210205,0.213185578584671021,-0.122061118483543396,-0.201289981603622437,0.080874994397163391,-0.070628859102725983,0.035379130393266678,0.113888137042522430,0.245539158582687378,0.311232209205627441,0.052529711276292801,-0.006141199264675379,0.097858406603336334,0.090989030897617340,0.091914005577564240,0.244231045246124268,0.048168063163757324,-0.288230299949645996,-0.174682706594467163,0.070537351071834564,0.202719137072563171,-0.135983154177665710,0.174913108348846436,0.078182876110076904,0.102093435823917389,-0.127151519060134888,-0.170631244778633118,0.292350977659225464,-0.311157226562500000,0.105970405042171478,-0.035026714205741882,0.042314313352108002,-0.209471166133880615,0.128422498703002930,-0.065943367779254913,0.234089121222496033,-0.035773131996393204,0.143752172589302063,-0.050330083817243576,-0.069399699568748474,0.387243688106536865,-0.122507698833942413,0.047930844128131866,-0.242092147469520569,0.129719868302345276,0.239620104432106018,0.004965299740433693,-0.300054460763931274,-0.034508973360061646,-0.181435197591781616,0.084619894623756409,0.116727501153945923,-0.118524342775344849,-0.059963651001453400,-0.075745113193988800,0.039495542645454407,0.081898517906665802,-0.040774982422590256,-0.076557286083698273,0.136055871844291687,0.167578041553497314,-0.048235431313514709,0.133337587118148804
-0.151788100600242615,0.013558289967477322,0.133145377039909363,0.132280692458152771,-0.089443154633045197,-0.259048789739608765,0.094887882471084595,0.160045206546783447,-0.106822215020656586,-0.148514688014984131,-0.202498912811279297,-0.272286117076873779,-0.038430508226156235,0.296481877565383911,-0.192825540900230408,-0.025434231385588646,-0.284143149852752686,0.159151703119277954,-0.075115114450454712,-0.097293443977832794,0.104923471808433533,-0.084683820605278015,0.045794282108545303,-0.051813077181577682,0.154223233461380005,-0.111934468150138855,0.095396779477596283,-0.186656624078750610,0.180261194705963135,0.123151242733001709,-0.048380736261606216,-0.242152079939842224,0.003143618116155267,0.398300290107727051,-0.068521812558174133,-0.023607017472386360,0.206226915121078491,-0.092798814177513123,0.081152334809303284,0.018811143934726715,-0.086870327591896057,-0.101217962801456451,-0.153577014803886414,0.180501058697700500,0.035018980503082275,0.042222354561090469,-0.099464789032936096,0.039556764066219330,-0.226638928055763245,0.072743907570838928,0.002623331733047962,-0.076650530099868774,0.074238397181034088,-0.210121557116508484,-0.025497207418084145,-0.127674192190170288,0.065466515719890594,0.010739662684500217,-0.034567207098007202,-0.112568654119968414,0.300449192523956299,-0.175703719258308411,-0.290870308876037598,-0.070460736751556396,-0.322984635829925537,0.067609854042530060,-0.194995447993278503,-0.002430940512567759,-0.111429788172245026,0.158997997641563416
-0.175243675708770752,0.105140537023544312,-0.041428912431001663,0.060642246156930923,-0.073751315474510193,-0.164241105318069458,-0.054276965558528900,-0.209058180451393127,-0.117212921380996704,0.141767293214797974,-0.082262404263019562,-0.181982696056365967,-0.173979714512825012,-0.117093987762928009,0.045455392450094223,-0.126253351569175720,0.043131142854690552,0.223782867193222046,0.113896533846855164,-0.317173540592193604,0.056478835642337799,0.051544707268476486,-0.058293532580137253,-0.185306236147880554,0.170445486903190613,0.097380615770816803,-0.272484064102172852,0.388950169086456299,-0.100063890218734741,0.114073880016803741,-0.000106702529592440,0.081126734614372253,0.172906339168548584,-0.118751354515552521,0.356174170970916748,-0.156820282340049744,0.289763391017913818,0.104276083409786224,0.143954202532768250,-0.089821599423885345,-0.183507531881332397,0.216542094945907593,0.054708264768123627,0.071254827082157135,-0.194056048989295959,-0.205298379063606262,-0.055953051894903183,-0.159728899598121643,-0.159645363688468933,0.075023986399173737,-0.283894032239913940,-0.078360125422477722,0.006129204295575619,-0.068122118711471558,-0.034873496741056442,0.189589157700538635,0.045403104275465012,-0.190087065100669861,-0.129467472434043884,-0.048383206129074097,0.120883807539939880,0.012373294681310654,-0.121776685118675232,0.145361766219139099,-0.101001515984535217,0.061361573636531830,0.012795604765415192,0.126888096332550049,-0.246601000428199768,0.169695794582366943
0.056305877864360809,-0.030491918325424194,0.031342342495918274,-0.017165463417768478,0.026514805853366852,0.019521815702319145,-0.138029158115386963,0.016026657074689865,0.253786116838455200,0.126861929893493652,0.170903995633125305,0.016235010698437691,-0.169761970639228821,0.003525900654494762,0.062800526618957520,0.322539359331130981,-0.236238092184066772,-0.217321217060089111,0.018484262749552727,0.046758349984884262,-0.046864669770002365,-0.200892806053161621,0.177436932921409607,-0.152850821614265442,0.177836641669273376,-0.166204959154129028,-0.157392799854278564,0.120591334998607635,-0.139231503009796143,-0.084131345152854919,-0.253628462553024292,-0.191645011305809021,-0.214704930782318115,-0.255394279956817627,-0.194121062755584717,0.101903900504112244,0.103400275111198425,0.065893158316612244,-0.176787540316581726,0.013023402541875839,0.129803881049156189,-0.036129415035247803,0.103505969047546387,0.177997261285781860,0.043969534337520599,-0.133870914578437805,0.015125544741749763,0.107600942254066467,-0.070382371544837952,0.266793578863143921,0.116597421467304230,-0.014316371642053127,-0.121947504580020905,0.077519237995147705,-0.022210275754332542,0.190657064318656921,0.066667363047599792,0.006806712131947279,-0.143916159868240356,-0.054469540715217590,-0.039111889898777008,0.269387036561965942,0.158581852912902832,-0.081739254295825958,-0.163493141531944275,-0.107283554971218109,-0.119581967592239380,-0.004297152161598206,-0.020040238276124001,-0.037949882447719574
0.138701468706130981,0.117930278182029724,-0.203417122364044189,0.264122098684310913,0.150845527648925781,-0.063228808343410492,-0.314088702201843262,0.026050336658954620,0.106507539749145508,0.304870784282684326,0.177703425288200378,0.096941903233528137,0.256862938404083252,0.085131607949733734,-0.237065806984901428,-0.075400143861770630,-0.127606585621833801,0.023074958473443985,0.011099402792751789,0.140340253710746765,-0.175946950912475586,-0.126664996147155762,0.220516338944435120,-0.097139075398445129,-0.131661355495452881,0.262848705053329468,-0.138325631618499756,-0.067419059574604034,-0.091420896351337433,0.185266211628913879,-0.233549594879150391,-0.165313169360160828,0.438793301582336426,0.145938500761985779,-0.032601892948150635,-0.223250389099121094,0.024899661540985107,-0.295786887407302856,0.129838109016418457,-0.111811093986034393,-0.380118995904922485,0.123662762343883514,0.026613762602210045,0.088896788656711578,0.293408572673797607,0.120044276118278503,-0.054349489510059357,0.168054431676864624,-0.105199977755546570,0.285407990217208862,0.194827884435653687,-0.086247637867927551,0.051110949367284775,-0.021735075861215591,-0.106482326984405518,-0.025241468101739883,0.243565827608108521,-0.240942284464836121,-0.015082433819770813,-0.092132695019245148,0.274625211954116821,0.064936697483062744,-0.109754607081413269,0.211187914013862610,0.254576802253723145,0.150029391050338745,0.005488654598593712,-0.127021595835685730,-0.068493492901325226,-0.223566621541976929
-0.167956739664077759,-0.037851203233003616,-0.238481357693672180,0.107190020382404327,0.150294765830039978,0.101803556084632874,0.099708735942840576,-0.131683677434921265,0.055070478469133377,-0.203791573643684387,0.145448118448257446,0.038930632174015045,0.276861190795898438,0.238016411662101746,-0.128080785274505615,-0.295291602611541748,-0.025361500680446625,-0.128283679485321045,-0.274073392152786255,0.270366549491882324,0.054545007646083832,-0.094683915376663208,0.129750937223434448,0.104122050106525421,0.073089912533760071,-0.185910940170288086,0.230450674891471863,-0.223824843764305115,0.013191312551498413,-0.282597988843917847,0.207972556352615356,-0.161298975348472595,0.140410035848617554,0.156414970755577087,0.231658592820167542,0.036802072077989578,-0.132283285260200500,0.126810938119888306,0.166123300790786743,-0.108628682792186737,-0.177851811051368713,0.009979920461773872,-0.333061873912811279,-0.022786328569054604,0.122779540717601776,-0.031480617821216583,-0.031751569360494614,0.180070087313652039,-0.067772656679153442,0.127764955163002014,-0.059029676020145416,-0.176450476050376892,-0.021006196737289429,-0.004770437721163034,-0.228257372975349426,-0.267104089260101318,0.107922121882438660,-0.011790180578827858,0.005529346875846386,0.074236281216144562,0.150922924280166626,-0.094859749078750610,-0.325901836156845093,0.204406350851058960,0.172920539975166321,-0.151620253920555115,-0.272619724273681641,0.085130274295806885,0.061455611139535904,0.073047183454036713
-0.021410306915640831,-0.049510296434164047,0.225955739617347717,-0.288436293601989746,-0.106938101351261139,-0.031693805009126663,-0.040371738374233246,0.026479395106434822,-0.180472642183303833,0.007014681119471788,-0.166817739605903625,0.014386956579983234,-0.083934664726257324,-0.082396954298019409,-0.120014399290084839,-0.139133736491203308,-0.056459724903106689,-0.097920000553131104,-0.155337646603584290,0.201813876628875732,0.045206800103187561,-0.185837492346763611,-0.250215262174606323,0.080989144742488861,0.133686721324920654,-0.131668999791145325,-0.203100711107254028,0.065875753760337830,-0.104764237999916077,0.197124704718589783,-0.035897172987461090,-0.080578736960887909,0.062829941511154175,0.315601438283920288,-0.182717666029930115,0.251672983169555664,0.229668989777565002,0.227202951908111572,0.108967036008834839,-0.072562642395496368,0.279114782810211182,0.280994355678558350,-0.024833479896187782,-0.035743117332458496,0.089076645672321320,0.203499987721443176,-0.150722444057464600,-0.123969048261642456,-0.042831119149923325,-0.158761948347091675,-0.198578998446464539,-0.133276224136352539,0.079734176397323608,-0.108416073024272919,-0.064434185624122620,0.264260709285736084,-0.079461939632892609,-0.087897837162017822,0.132000356912612915,0.032718095928430557,0.108736768364906311,0.158645749092102051,0.170328602194786072,0.152048200368881226,-0.029615828767418861,-0.040352020412683487,-0.112251073122024536,0.222278907895088196,0.087533406913280487,0.233333960175514221
-0.054698262363672256,-0.189789026975631714,0.086405336856842041,0.140368402004241943,0.038032531738281250,0.251854270696640015,-0.189470425248146057,0.242017954587936401,0.199388042092323303,0.105472035706043243,-0.125067934393882751,0.004334573168307543,-0.157978758215904236,0.040417063981294632,0.255673199892044067,-0.074170529842376709,0.188840985298156738,-0.022048713639378548,0.018163038417696953,-0.059223540127277374,-0.193834289908409119,0.003531668800860643,-0.283369898796081543,0.040827263146638870,-0.264059305191040039,-0.018782807514071465,0.245521098375320435,-0.098917603492736816,-0.213804692029953003,0.009359864518046379,-0.189930602908134460,0.056937813758850098,-0.128781571984291077,-0.137669771909713745,0.016233611851930618,-0.031787328422069550,-0.150783613324165344,0.188884928822517395,-0.041265435516834259,0.007055024616420269,0.019670296460390091,0.221564233303070068,0.023386394605040550,0.148336991667747498,-0.073350623250007629,0.024232387542724609,0.070401914417743683,0.026718920096755028,0.260764628648757935,0.030026946216821671,-0.032912917435169220,0.106182724237442017,0.300886183977127075,0.011877637356519699,0.240738824009895325,-0.141028285026550293,0.116099938750267029,0.116248108446598053,-0.079871818423271179,-0.235085189342498779,-0.002483762800693512,0.154912590980529785,0.197224095463752747,-0.005863036029040813,0.091653786599636078,0.144572496414184570,-0.058729007840156555,0.013512482866644859,-0.036727927625179291,0.033513542264699936
0.184355989098548889,0.113344542682170868,-0.025995943695306778,0.039461608976125717,-0.010042707435786724,-0.123806722462177277,-0.283298879861831665,0.194137588143348694,-0.035701900720596313,-0.003156990278512239,0.189105227589607239,0.016027182340621948,-0.123611532151699066,0.179066732525825500,-0.159860029816627502,0.295666307210922241,0.139989629387855530,-0.244668170809745789,0.088686257600784302,0.121312335133552551,0.105582192540168762,0.030743626877665520,-0.023060515522956848,0.273278057575225830,-0.221527621150016785,-0.217574819922447205,0.097169965505599976,-0.048914980143308640,0.084049008786678314,-0.065975621342658997,0.079363763332366943,-0.041386742144823074,-0.234030410647392273,-0.064973644912242889,-0.326598584651947021,0.088537395000457764,-0.087654083967208862,-0.019892198964953423,0.065767541527748108,-0.044214293360710144,-0.131897643208503723,-0.242546185851097107,0.289889663457870483,0.057401496917009354,0.210194125771522522,0.012165627442300320,-0.124559350311756134,0.242408201098442078,-0.183798611164093018,0.324567854404449463,-0.134479120373725891,-0.084692485630512238,-0.117171123623847961,0.028065873309969902,0.163166806101799011,-0.158964946866035461,-0.002935095923021436,-0.044299948960542679,0.247906327247619629,0.312549889087677002,-0.015705408528447151,0.115363046526908875,-0.029745226725935936,0.094766974449157715,-0.013857441954314709,0.046624172478914261,-0.161180853843688965,-0.129376873373985291,-0.203480973839759827,0.112162813544273376
-0.254303604364395142,-0.174775674939155579,0.103071585297584534,-0.011363041587173939,-0.157734006643295288,-0.204992547631263733,0.249231681227684021,-0.248762711882591248,-0.264329940080642700,0.066225647926330566,-0.004065243992954493,0.142699554562568665,-0.138577863574028015,0.110569231212139130,0.230906262993812561,0.005373609252274036,-0.211470574140548706,0.184722527861595154,0.175404548645019531,-0.096547454595565796,-0.322477072477340698,0.074942715466022491,-0.052171077579259872,-0.096018120646476746,0.258997976779937744,0.174495652318000793,0.130984827876091003,-0.118581652641296387,0.012405561283230782,-0.016253540292382240,0.003185133682563901,0.218395948410034180,-0.151579692959785461,0.113932952284812927,-0.146386489272117615,0.049513552337884903,0.084194734692573547,0.023592833429574966,-0.049029458314180374,0.252852916717529297,0.260514914989471436,0.089478731155395508,-0.037426318973302841,0.005376311950385571,0.019220426678657532,-0.069842293858528137,-0.109353780746459961,-0.095473110675811768,0.285219877958297729,-0.207525908946990967,-0.085939653217792511,0.148287609219551086,-0.236620903015136719,0.119662985205650330,0.055657155811786652,0.101439334452152252,0.009271351620554924,0.125728294253349304,-0.091496221721172333,-0.149179428815841675,-0.096928201615810394,0.115579083561897278,0.046319942921400070,-0.138891175389289856,0.115371361374855042,-0.234261855483055115,0.198273152112960815,0.161837086081504822,0.052534781396389008,-0.240038901567459106
0.019353939220309258,-0.145172655582427979,0.136759907007217407,0.107036158442497253,-0.069065921008586884,0.053769610822200775,0.233276322484016418,0.135111868381500244,0.076961904764175415,0.062837921082973480,0.088949970901012421,0.186406761407852173,0.223758801817893982,0.189515054225921631,0.060734272003173828,0.002841243986040354,-0.053113862872123718,-0.009970908053219318,-0.068560943007469177,-0.075932592153549194,0.193666040897369385,-0.104531325399875641,-0.168381616473197937,0.247970700263977051,0.010526329278945923,-0.205285534262657166,0.156921267509460449,-0.110456600785255432,-0.218825697898864746,0.200780123472213745,-0.015772037208080292,0.194938704371452332,-0.155757352709770203,-0.151864543557167053,-0.055402360856533051,0.128064855933189392,0.036016572266817093,0.184081152081489563,-0.055848553776741028,-0.037078674882650375,0.182991012930870056,0.096168607473373413,-0.001271657296456397,0.060795772820711136,0.058289539068937302,-0.043930724263191223,0.194942757487297058,0.280708551406860352,0.051871147006750107,-0.228049010038375854,0.035137832164764404,0.019405312836170197,0.267984926700592041,-0.309895664453506470,0.176684603095054626,0.146049633622169495,0.177444666624069214,0.285556972026824951,0.170209228992462158,0.084893681108951569,-0.194481611251831055,-0.225767225027084351,0.113217085599899292,-0.194422289729118347,0.158002808690071106,0.079104229807853699,-0.018055768683552742,-0.098459444940090179,-0.046558603644371033,0.028383420780301094
0.296014398336410522,0.022834254428744316,0.206733047962188721,0.131433144211769104,-0.046511750668287277,-0.047813355922698975,-0.105328954756259918,0.092353597283363342,0.235058486461639404,-0.055244825780391693,-0.322971403598785400,0.248835772275924683,0.225449100136756897,-0.019222956150770187,0.155181467533111572,-0.213731706142425537,-0.159274563193321228,0.169107928872108459,0.208059430122375488,-0.018050974234938622,-0.059557791799306870,-0.101254723966121674,0.243224486708641052,0.059887927025556564,0.147976845502853394,0.017269151285290718,0.189399227499961853,0.220939934253692627,-0.212276116013526917,0.046963270753622055,0.097800910472869873,-0.230058521032333374,0.276082783937454224,-0.065121427178382874,-0.117680452764034271,-0.052209008485078812,-0.002861806424334645,0.054755158722400665,-0.197474956512451172,0.103844352066516876,-0.097746804356575012,0.011320545338094234,-0.090001709759235382,-0.064582698047161102,-0.243880510330200195,0.134318009018898010,-0.112181089818477631,0.237641975283622742,0.238591805100440979,-0.032968338578939438,0.250717192888259888,-0.219047322869300842,-0.079747818410396576,0.156123936176300049,-0.142773553729057312,-0.176479056477546692,-0.038216859102249146,-0.214931175112724304,-0.082700990140438080,-0.152259334921836853,0.023833148181438446,0.262317210435867310,-0.220606952905654907,0.131535708904266357,0.219014763832092285,0.166106611490249634,-0.021543243899941444,-0.143990904092788696,-0.016702337190508842,-0.174366429448127747
-0.099289633333683014,0.127821385860443115,0.164207965135574341,-0.243106931447982788,-0.205885902047157288,0.091034442186355591,-0.233180031180381775,0.088226102292537689,0.279353201389312744,-0.070224389433860779,-0.176079675555229187,0.126893430948257446,-0.152327880263328552,0.186444193124771118,-0.049298964440822601,-0.201421275734901428,0.038938313722610474,-0.083620257675647736,0.220159545540809631,-0.226875320076942444,0.073256589472293854,0.104504846036434174,0.180585235357284546,0.088160358369350433,0.094228781759738922,-0.101627938449382782,0.063653714954853058,-0.134319201111793518,0.126961842179298401,-0.046628482639789581,-0.222823977470397949,-0.176161020994186401,-0.133052170276641846,-0.283076107501983643,0.177257299423217773,-0.108942762017250061,0.143715068697929382,0.175204575061798096,-0.200902611017227173,-0.092071197926998138,-0.066069595515727997,-0.164669260382652283,-0.124290809035301208,0.185996338725090027,0.132625654339790344,0.163066878914833069,0.145472899079322815,0.188449978828430176,0.281095087528228760,-0.071074552834033966,-0.124293811619281769,-0.158258557319641113,-0.088257484138011932,0.187254458665847778,0.074505060911178589,0.259306788444519043,-0.098366856575012207,-0.058833554387092590,-0.218852221965789795,0.101289585232734680,-0.360061675310134888,0.151916265487670898,0.028961278498172760,-0.186827525496482849,-0.054143995046615601,0.120035871863365173,0.124780938029289246,-0.130925834178924561,-0.113757498562335968,0.113648526370525360
-0.202485442161560059,-0.166029646992683411,-0.367115586996078491,0.289799600839614868,0.046432912349700928,0.017987009137868881,0.058261681348085403,0.338471829891204834,0.198640286922454834,-0.105270422995090485,0.290306985378265381,-0.038437228649854660,0.067253567278385162,0.082669086754322052,-0.023550484329462051,-0.199459359049797058,-0.156582072377204895,0.080684490501880646,-0.002241509035229683,0.315641075372695923,0.098991580307483673,0.172488167881965637,0.052473444491624832,0.150628253817558289,-0.073365643620491028,0.175596311688423157,-0.068509809672832489,-0.031809199601411819,0.168564647436141968,0.077366739511489868,0.073550201952457428,0.070396810770034790,0.146350845694541931,0.245905637741088867,0.150211051106452942,0.009456019848585129,0.225037932395935059,-0.188484609127044678,0.062653861939907074,-0.178845316171646118,0.047030929476022720,0.205555021762847900,-0.060594379901885986,0.153546869754791260,0.192822873592376709,0.219456657767295837,-0.327906459569931030,-0.036669142544269562,0.030846439301967621,-0.105508685111999512,-0.107943728566169739,0.082848697900772095,-0.063239321112632751,0.118806883692741394,0.032622300088405609,-0.169330269098281860,-0.104773461818695068,0.029151184484362602,0.145060509443283081,0.003668105462566018,0.312572896480560303,0.241585895419120789,-0.079414121806621552,0.206802591681480408,-0.223964825272560120,0.203585654497146606,-0.120932534337043762,-0.427330583333969116,-0.006182801909744740,-0.184969678521156311
0.142134457826614380,-0.120032884180545807,0.070026472210884094,0.218372628092765808,-0.210559651255607605,0.034020625054836273,-0.006147210020571947,0.003580697346478701,0.090655326843261719,-0.223982691764831543,-0.068049609661102295,0.040676210075616837,-0.144025176763534546,0.147525966167449951,0.295652955770492554,0.168237775564193726,0.088890455663204193,0.019420245662331581,0.110161222517490387,-0.085779398679733276,-0.334811180830001831,0.237744137644767761,-0.068698942661285400,-0.139587342739105225,0.205101281404495239,0.217281147837638855,-0.014357333071529865,-0.229037642478942871,0.061286628246307373,-0.093518257141113281,-0.133789420127868652,-0.045055724680423737,-0.020831394940614700,0.022401163354516029,-0.139336869120597839,0.020497545599937439,-0.175237119197845459,-0.020670110359787941,0.136933684349060059,0.056331053376197815,0.193686842918395996,0.151341050863265991,0.245911434292793274,0.183092698454856873,-0.069535493850708008,-0.191696718335151672,-0.064289286732673645,0.151181787252426147,0.172946587204933167,-0.166670292615890503,-0.018998876214027405,0.161343440413475037,0.195032760500907898,-0.125186949968338013,0.135074898600578308,0.140825331211090088,-0.278264820575714111,-0.060242328792810440,-0.015300204046070576,-0.219482809305191040,0.135102063417434692,-0.052695207297801971,0.257684290409088135,0.107467681169509888,-0.160853788256645203,-0.266909986734390259,0.257773816585540771,0.097506299614906311,0.122970357537269592,-0.159790933132171631
0.265133440494537354,-0.211084648966789246,0.208837687969207764,-0.015414102934300900,0.276808738708496094,-0.039499405771493912,0.020275671035051346,-0.216313883662223816,0.242290064692497253,-0.185347616672515869,0.132291808724403381,0.021306004375219345,-0.363152176141738892,-0.097352840006351471,0.106730714440345764,-0.071094766259193420,0.033640872687101364,0.020743468776345253,0.263232678174972534,-0.253857702016830444,-0.071889132261276245,-0.266729086637496948,0.238503038883209229,0.196273311972618103,0.028934374451637268,0.058859489858150482,-0.013882967643439770,0.182947874069213867,0.047284804284572601,-0.104922950267791748,0.153413131833076477,0.194157868623733521,-0.296115785837173462,-0.094365283846855164,0.107413217425346375,-0.130127474665641785,0.151211410760879517,0.236977070569992065,0.064649596810340881,0.239469155669212341,-0.064760997891426086,-0.227385923266410828,0.069704167544841766,0.115209005773067474,0.158432066440582275,-0.195712938904762268,0.022904748097062111,-0.192549452185630798,0.155280783772468567,-0.096340470016002655,-0.182057023048400879,-0.005768336355686188,0.186939701437950134,-0.125057011842727661,0.071553312242031097,0.329040735960006714,-0.202834472060203552,-0.028676951304078102,-0.217577993869781494,0.010061243548989296,0.056487295776605606,0.098994962871074677,0.202723249793052673,-0.120693631470203400,-0.188206374645233154,0.160446241497993469,0.306870371103286743,0.096716806292533875,-0.228243887424468994,-0.230520576238632202
-0.195422023534774780,-0.146306514739990234,-0.182949438691139221,-0.160185113549232483,-0.075887456536293030,0.292783141136169434,0.109675802290439606,0.204912722110748291,0.136912003159523010,-0.349881112575531006,-0.148581773042678833,0.177456051111221313,0.099358886480331421,0.281039685010910034,-0.061482280492782593,-0.274159222841262817,0.128821119666099548,0.037002466619014740,-0.109033234417438507,-0.019091606140136719,0.165791735053062439,-0.040396258234977722,-0.055611778050661087,0.126194477081298828,0.210668936371803284,0.179420262575149536,0.332697749137878418,0.074366718530654907,-0.020176010206341743,0.116209849715232849,-0.015080383978784084,-0.332547366619110107,-0.052885383367538452,0.191632524132728577,0.276774317026138306,-0.076029174029827118,-0.035118561238050461,0.121350318193435669,-0.203553318977355957,0.221210464835166931,0.135413438081741333,-0.070417225360870361,-0.010641928762197495,-0.035783231258392334,-0.123736232519149780,0.092120528221130371,0.164382055401802063,-0.001328049460425973,0.235373198986053467,-0.240443959832191467,-0.086662240326404572,0.105913765728473663,-0.158887222409248352,-0.204796031117439270,-0.251172006130218506,0.055769782513380051,0.052122674882411957,0.027851803228259087,-0.188267156481742859,-0.344358921051025391,-0.208908572793006897,-0.013799100182950497,-0.188090547919273376,0.175034120678901672,0.059873651713132858,0.046916525810956955,-0.044150207191705704,0.084535725414752960,0.132417932152748108,-0.069374725222587585
-0.092965193092823029,-0.123629748821258545,-0.129082992672920227,0.130728825926780701,0.039714515209197998,0.167088702321052551,-0.011646874248981476,0.171788275241851807,0.249599024653434753,-0.126847699284553528,-0.002190186642110348,-0.074562475085258484,0.104444384574890137,0.169058203697204590,0.224255219101905823,-0.204630985856056213,-0.207096353173255920,-0.041176654398441315,-0.088572040200233459,-0.149846762418746948,0.274832636117935181,-0.033146597445011139,0.147384107112884521,-0.023408297449350357,-0.052887693047523499,-0.058044832199811935,0.234697550535202026,-0.021931206807494164,-0.153435707092285156,-0.033685091882944107,-0.134734615683555603,-0.337377220392227173,0.155682563781738281,0.202909231185913086,-0.115643508732318878,-0.078246012330055237,0.007621439639478922,0.360570549964904785,-0.142905548214912415,-0.002218770794570446,0.139047309756278992,0.111914396286010742,0.057862631976604462,0.321329295635223389,-0.260923534631729126,0.081814102828502655,-0.283178001642227173,0.231337577104568481,0.037648934870958328,0.126948595046997070,0.164412766695022583,0.015321444720029831,0.186842188239097595,0.222820043563842773,-0.046394381672143936,-0.028835345059633255,-0.240629285573959351,0.212226733565330505,-0.145179018378257751,0.081811740994453430,-0.328013360500335693,0.269205778837203979,-0.004795220214873552,-0.170933306217193604,0.254590630531311035,-0.109522372484207153,-0.275886237621307373,-0.290335327386856079,0.169944033026695251,0.271400779485702515
0.116569273173809052,-0.192366689443588257,0.026671485975384712,0.070906147360801697,-0.061294000595808029,0.291265189647674561,0.033601481467485428,0.016047013923525810,0.063595794141292572,0.132864221930503845,0.254718244075775146,-0.013418028131127357,0.253684908151626587,0.050757814198732376,-0.140302076935768127,-0.171591684222221375,0.280960232019424438,-0.074787639081478119,-0.140840023756027222,0.182126477360725403,-0.107624642550945282,0.337889999151229858,-0.065326444804668427,0.130806431174278259,-0.007713981904089451,0.109899744391441345,-0.079663231968879700,-0.140517458319664001,-0.078735798597335815,0.185311168432235718,0.299282282590866089,0.263927966356277466,-0.029485493898391724,-0.284081906080245972,0.100930280983448029,0.029992247000336647,0.180982530117034912,-0.279814183712005615,-0.049106542021036148,0.180175468325614929,0.071704022586345673,0.159953415393829346,-0.154928386211395264,-0.320081621408462524,-0.117443725466728210,0.142025575041770935,-0.274569928646087646,0.026251014322042465,0.258896142244338989,0.099303178489208221,0.044335763901472092,-0.144131302833557129,0.266405701637268066,-0.100421935319900513,0.150834932923316956,0.115603961050510406,0.186429575085639954,0.088242776691913605,-0.095436848700046539,-0.252510488033294678,-0.270582944154739380,0.130660101771354675,-0.181156754493713379,-0.166077554225921631,0.337972521781921387,0.156898960471153259,0.051119942218065262,0.226172700524330139,0.057328689843416214,0.277783036231994629
0.113057024776935577,-0.013930123299360275,0.291291743516921997,-0.164432361721992493,0.056419022381305695,-0.214272201061248779,0.241644576191902161,0.053014904260635376,-0.296438306570053101,0.210303366184234619,-0.321998536586761475,-0.233699560165405273,-0.139303207397460938,0.198163822293281555,0.099896974861621857,0.087374992668628693,-0.137657806277275085,0.002244323957711458,0.051533550024032593,0.145027667284011841,-0.221454963088035583,0.122665591537952423,-0.191968604922294617,0.016574967652559280,0.159815713763237000,-0.205514430999755859,-0.219611540436744690,0.060141541063785553,-0.080444686114788055,0.046823345124721527,0.156594902276992798,0.121714733541011810,0.144101113080978394,0.203176811337471008,0.097931236028671265,-0.046799045056104660,-0.177055060863494873,-0.137098625302314758,-0.218466430902481079,0.230253025889396667,0.321253567934036255,-0.138162538409233093,-0.212545633316040039,-0.204364493489265442,-0.203503087162971497,-0.098044469952583313,-0.003038900205865502,0.057932913303375244,-0.075049243867397308,-0.353085011243820190,-0.173991143703460693,-0.079511664807796478,-0.148763477802276611,-0.041658733040094376,-0.026740433648228645,0.062220320105552673,0.305202811956405640,0.190304353833198547,0.081604108214378357,0.118944890797138214,0.080198056995868683,-0.294752448797225952,0.179994836449623108,-0.143736049532890320,0.092001751065254211,0.017333535477519035,0.031201241537928581,-0.009950235486030579,-0.194711223244667053,0.167586088180541992
0.209147363901138306,-0.064841568470001221,0.067100152373313904,0.020802641287446022,0.145216733217239380,-0.098822869360446930,-0.250719934701919556,-0.083229489624500275,0.008893937803804874,0.198112457990646362,0.107509359717369080,0.000695084105245769,0.218109399080276489,0.103003710508346558,-0.150452613830566406,0.019095445051789284,-0.221881896257400513,0.162714779376983643,-0.230003580451011658,0.118985824286937714,0.088584274053573608,-0.037560351192951202,-0.005596130155026913,0.109356403350830078,0.049828346818685532,-0.065824404358863831,-0.366659998893737793,0.019104171544313431,-0.104819841682910919,0.021530637517571449,-0.063144102692604065,0.170411705970764160,0.290224820375442505,0.104278907179832458,0.028210828080773354,0.162239313125610352,0.104704812169075012,0.050291806459426880,0.202307343482971191,0.088237628340721130,-0.055471818894147873,0.001554680056869984,-0.167357295751571655,0.172827452421188354,0.266074955463409424,-0.069821134209632874,-0.272305637598037720,-0.047138292342424393,-0.072422988712787628,0.074298188090324402,0.088154092431068420,0.087253421545028687,-0.018890548497438431,0.051872067153453827,0.193862363696098328,-0.059913199394941330,0.232422038912773132,-0.332664966583251953,0.022594032809138298,-0.088667571544647217,-0.081952728331089020,0.142447486519813538,-0.000431724998634309,-0.217643767595291138,-0.054243516176939011,-0.175821945071220398,-0.230351701378822327,-0.250069886445999146,-0.057917069643735886,-0.096510946750640869
0.037503328174352646,-0.197385057806968689,-0.103005148470401764,0.113287501037120819,-0.106592185795307159,-0.266898125410079956,-0.018122689798474312,-0.086242415010929108,0.111710801720619202,0.382550239562988281,0.078792601823806763,0.194019570946693420,-0.033162456005811691,0.155953407287597656,-0.110455296933650970,-0.084208913147449493,-0.270594716072082520,0.095516279339790344,0.138220638036727905,-0.121037773787975311,0.153345301747322083,0.153766646981239319,-0.088715761899948120,0.026531483978033066,-0.025843271985650063,0.127589419484138489,-0.031223205849528313,0.059026699513196945,-0.132804542779922485,-0.040036872029304504,0.148351103067398071,0.132290512323379517,0.044939517974853516,-0.218642145395278931,-0.209210544824600220,0.103134959936141968,0.109440200030803680,-0.255153685808181763,-0.096436925232410431,0.015590009279549122,-0.187243968248367310,-0.197590604424476624,0.026839155703783035,-0.043573111295700073,0.155172005295753479,-0.056732080876827240,-0.002187103498727083,-0.135378032922744751,0.210369005799293518,0.065327063202857971,0.042211621999740601,0.046680729836225510,-0.125343158841133118,0.000204618030693382,0.265160739421844482,-0.182787403464317322,0.202588319778442383,-0.257938981056213379,-0.141093119978904724,-0.069073528051376343,-0.136427313089370728,-0.197670057415962219,-0.047868892550468445,-0.192591562867164612,-0.246024474501609802,-0.019531076774001122,0.093527294695377350,-0.249520674347877502,0.016259657219052315,-0.091310732066631317
0.122860766947269440,-0.209194272756576538,-0.219441786408424377,-0.231323242187500000,-0.236403837800025940,0.062204156070947647,0.035036548972129822,-0.056149624288082123,-0.116811193525791168,0.269680559635162354,0.062525920569896698,-0.191735014319419861,-0.150937825441360474,-0.225603178143501282,-0.228390455245971680,-0.191611826419830322,0.090480327606201172,-0.019923407584428787,-0.138570129871368408,0.116707779467105865,-0.205827176570892334,-0.204484835267066956,-0.205539911985397339,0.032372850924730301,-0.082833953201770782,0.020225740969181061,-0.183977618813514709,0.185897275805473328,-0.071535430848598480,-0.215018644928932190,0.286205112934112549,-0.143958911299705505,0.085974112153053284,0.383706003427505493,0.165780618786811829,0.338186591863632202,0.172754913568496704,-0.089983507990837097,0.191881284117698669,0.149906396865844727,0.279554098844528198,0.097050637006759644,-0.155709311366081238,0.148393377661705017,0.110462188720703125,0.014507859013974667,-0.141894191503524780,-0.086183182895183563,-0.087232895195484161,-0.061351895332336426,0.118840709328651428,0.012884851545095444,-0.031713169068098068,-0.181860014796257019,0.085062049329280853,-0.073864676058292389,-0.146670088171958923,0.227719262242317200,-0.004370075184851885,-0.168453827500343323,0.383049041032791138,-0.067704319953918457,0.177690982818603516,0.148351818323135376,-0.317152678966522217,0.151137992739677429,0.211387664079666138,-0.119965031743049622,-0.201220348477363586,-0.211359769105911255
0.013460584916174412,0.093587636947631836,-0.154275670647621155,0.154672428965568542,0.142277985811233521,-0.113511294126510620,-0.153576716780662537,-0.226464718580245972,-0.174933820962905884,-0.075399234890937805,0.165208011865615845,-0.043268501758575439,-0.139887079596519470,-0.125397086143493652,-0.075498878955841064,0.027130348607897758,-0.103446796536445618,-0.006774251349270344,-0.151116058230400085,0.075921401381492615,0.132424041628837585,-0.038118936121463776,0.243063107132911682,-0.268958389759063721,-0.159298866987228394,0.167386308312416077,0.120150387287139893,0.110767975449562073,0.161116018891334534,0.073453925549983978,-0.073178388178348541,-0.012185351923108101,0.146594524383544922,0.132273688912391663,0.022675286978483200,0.191546231508255005,-0.040699359029531479,-0.078601114451885223,-0.110319137573242188,-0.140721857547760010,-0.160397008061408997,-0.176656499505043030,0.128804251551628113,-0.168162256479263306,0.014598343521356583,0.098982393741607666,0.074289977550506592,-0.162148162722587585,0.023840127512812614,0.153731271624565125,0.130003884434700012,-0.213744312524795532,-0.185552597045898438,-0.127592667937278748,0.216751337051391602,-0.072778612375259399,0.022402960807085037,-0.111463472247123718,-0.173338890075683594,0.178378850221633911,-0.057693872600793839,-0.115005105733871460,-0.211972057819366455,-0.033600319176912308,0.074648216366767883,-0.122752554714679718,-0.175394535064697266,-0.046907391399145126,-0.191068693995475769,-0.185170948505401611
-0.079277984797954559,-0.039952103048563004,-0.252446174621582031,0.072777993977069855,0.156017228960990906,-0.147503390908241272,-0.024402972310781479,0.006400130689144135,-0.073695600032806396,0.314779669046401978,-0.163174808025360107,0.067748859524726868,0.054055321961641312,0.171992897987365723,-0.026165796443820000,-0.081463143229484558,-0.291494876146316528,-0.297055631875991821,0.213804051280021667,0.010953858494758606,-0.174459561705589294,-0.034705758094787598,-0.077346563339233398,0.078493632376194000,0.077989451587200165,-0.138503402471542358,-0.261747211217880249,-0.116846628487110138,0.050985425710678101,-0.027630819007754326,-0.035433482378721237,0.310170888900756836,0.057716187089681625,0.218952476978302002,-0.099911838769912720,0.150381669402122498,-0.204692661762237549,-0.031435407698154449,-0.137515977025032043,0.194773226976394653,0.112951047718524933,0.235501900315284729,-0.039620816707611084,-0.109690941870212555,-0.225680574774742126,-0.154545605182647705,0.185433685779571533,-0.080435484647750854,0.011402040719985962,0.072315379977226257,-0.002602181397378445,-0.115775957703590393,-0.118750423192977905,-0.068011745810508728,0.269531726837158203,0.205528125166893005,0.285266309976577759,0.266052186489105225,0.156354472041130066,0.246447131037712097,-0.060485005378723145,-0.035899087786674500,0.006079549901187420,0.108804680407047272,-0.323477298021316528,0.053856272250413895,0.248707503080368042,-0.099971182644367218,0.063408277928829193,0.101030275225639343
-0.022016473114490509,-0.111503183841705322,-0.086437657475471497,-0.223557859659194946,-0.121026352047920227,0.206006139516830444,-0.062992699444293976,-0.011089366860687733,-0.031663458794355392,-0.013904334045946598,0.337320566177368164,-0.123603723943233490,-0.202157616615295410,-0.131081208586692810,-0.116673141717910767,0.290772557258605957,0.049942962825298309,0.188355907797813416,0.256038427352905273,-0.018492199480533600,-0.126401886343955994,0.035228572785854340,-0.009355541318655014,-0.279966652393341064,-0.040180176496505737,-0.167951971292495728,-0.098273634910583496,0.022857666015625000,-0.136683911085128784,-0.092331379652023315,0.063389323651790619,-0.227313116192817688,-0.170049473643302917,0.111303694546222687,-0.067269936203956604,-0.098032340407371521,0.132939711213111877,0.202477172017097473,-0.164891824126243591,-0.087420865893363953,-0.221999749541282654,0.162915378808975220,0.267540961503982544,-0.015895055606961250,-0.018048623576760292,-0.190917745232582092,-0.247199654579162598,0.089093334972858429,0.114036299288272858,-0.031721256673336029,-0.041690874844789505,-0.092586062848567963,0.201704218983650208,0.045238643884658813,-0.132463410496711731,-0.000493530649691820,-0.256100177764892578,0.152340203523635864,0.178890541195869446,0.208307966589927673,-0.143625304102897644,0.215042337775230408,-0.011574815958738327,-0.064453773200511932,0.039302516728639603,-0.107203729450702667,-0.074559919536113739,-0.094285361468791962,0.183161422610282898,-0.209534943103790283
-0.022887367755174637,0.026244221255183220,0.018626980483531952,-0.062228407710790634,0.305384695529937744,-0.040739003568887711,0.106903150677680969,0.078307233750820160,0.107384271919727325,-0.221320435404777527,0.053706575185060501,-0.133195638656616211,0.112454116344451904,0.057162415236234665,-0.030486699193716049,0.290402621030807495,0.114564903080463409,-0.156280159950256348,0.059130072593688965,-0.006423641461879015,0.242616251111030579,-0.135020017623901367,0.117271773517131805,0.132702156901359558,0.263300776481628418,-0.136510595679283142,-0.167701825499534607,-0.211661189794540405,0.034460905939340591,-0.183596909046173096,-0.106171101331710815,-0.275399267673492432,0.006377794314175844,-0.167593434453010559,0.137653410434722900,-0.118474788963794708,-0.093250349164009094,0.031766656786203384,-0.036482989788055420,0.191091299057006836,-0.039565008133649826,-0.261648535728454590,0.153192192316055298,0.090369783341884613,-0.062513895332813263,-0.019995126873254776,0.050916761159896851,-0.230292275547981262,-0.128928616642951965,0.051423240453004837,-0.235646724700927734,-0.100732341408729553,-0.050657447427511215,0.151560485363006592,0.217903956770896912,-0.106618918478488922,-0.124640293419361115,0.201619386672973633,-0.074091941118240356,0.224725738167762756,-0.323453277349472046,0.155953332781791687,-0.080250158905982971,-0.313160210847854614,0.073519766330718994,-0.371811449527740479,-0.196007668972015381,0.202370092272758484,-0.112957075238227844,-0.028135424479842186
0.152163997292518616,0.201857551932334900,0.002987445564940572,-0.240394026041030884,-0.039914835244417191,0.239767193794250488,-0.152970880270004272,-0.065425105392932892,0.105220846831798553,0.238880023360252380,0.015768997371196747,-0.145285159349441528,-0.161197140812873840,0.071940414607524872,0.025203280150890350,0.039291281253099442,-0.029231263324618340,-0.066201820969581604,0.197223350405693054,-0.059735145419836044,0.161017447710037231,-0.298134744167327881,0.032901644706726074,-0.061131283640861511,0.019520886242389679,0.057083226740360260,-0.133184745907783508,0.178504094481468201,0.177654772996902466,-0.003209689399227500,0.016863269731402397,0.023653496056795120,0.057415645569562912,0.014268085360527039,0.016519065946340561,-0.166985407471656799,-0.000724037236068398,-0.023078462108969688,0.095637634396553040,-0.042405325919389725,-0.090911351144313812,0.122193180024623871,-0.087535798549652100,0.040767785161733627,0.145876005291938782,-0.128721609711647034,0.195686951279640198,0.223312005400657654,-0.087277203798294067,-0.241708740592002869,-0.046577699482440948,-0.140544444322586060,-0.025985652580857277,0.229786917567253113,-0.019419057294726372,-0.204848751425743103,0.053137261420488358,-0.088174469769001007,-0.027816124260425568,0.031090099364519119,-0.042281433939933777,0.174083232879638672,0.203534603118896484,0.245887771248817444,-0.056567858904600143,0.182198718190193176,0.200363129377365112,-0.292445123195648193,0.009770509786903858,-0.175787925720214844
-0.161600247025489807,-0.121857196092605591,0.014536997303366661,-0.091001808643341064,0.159716948866844177,0.093845143914222717,0.303517580032348633,0.105451561510562897,0.100587472319602966,-0.011309248395264149,-0.109605595469474792,-0.058114014565944672,-0.212008804082870483,-0.172780603170394897,0.116536855697631836,0.017886316403746605,0.232583478093147278,0.233861997723579407,0.185180544853210449,-0.106133416295051575,0.034448381513357162,0.129551723599433899,0.114059828221797943,-0.050146721303462982,0.167125791311264038,-0.162222027778625488,0.146933898329734802,-0.148144751787185669,-0.193319886922836304,-0.082197792828083038,-0.167411074042320251,-0.060036372393369675,0.094192676246166229,0.218700647354125977,0.240430995821952820,0.285329997539520264,-0.139335364103317261,0.058134514838457108,0.106801562011241913,0.042786825448274612,0.191473603248596191,0.158195465803146362,-0.216669067740440369,0.205918297171592712,-0.138784900307655334,0.056723441928625107,-0.156337961554527283,-0.237522035837173462,-0.059588614851236343,0.111719846725463867,-0.108689539134502411,0.006154004018753767,-0.197051569819450378,0.224049597978591919,0.205888122320175171,-0.179536029696464539,-0.223555251955986023,0.103317223489284515,-0.060578051954507828,0.158881410956382751,0.155527457594871521,0.166757166385650635,0.210861220955848694,0.134444087743759155,-0.146113812923431396,-0.141342371702194214,0.281087994575500488,0.194406107068061829,0.158785104751586914,-0.230507180094718933
-0.194930315017700195,0.030464515089988708,0.119606800377368927,0.235844910144805908,-0.065459400415420532,-0.057416308671236038,0.220328256487846375,-0.108909375965595245,0.032595042139291763,-0.027212040498852730,0.316962718963623047,-0.008869266137480736,0.047617517411708832,-0.025216514244675636,0.124507673084735870,0.243950575590133667,0.068968087434768677,0.002856844570487738,0.032178573310375214,-0.072241261601448059,-0.053754720836877823,0.154062941670417786,0.024954603984951973,0.167413040995597839,-0.246559828519821167,-0.187749773263931274,-0.033021893352270126,0.216185256838798523,0.068576522171497345,0.306819349527359009,-0.100493334233760834,-0.180747479200363159,0.233427226543426514,0.046821855008602142,0.337487637996673584,-0.092992573976516724,0.311960577964782715,-0.128974035382270813,-0.190780982375144958,-0.216051876544952393,0.100351959466934204,-0.023059936240315437,-0.309967577457427979,0.083395965397357941,0.128783240914344788,-0.126941740512847900,-0.293568670749664307,0.154954195022583008,-0.150956720113754272,-0.096641056239604950,0.053062990307807922,-0.207459867000579834,0.325874388217926025,-0.061797291040420532,0.122912995517253876,0.005946594756096601,-0.074812605977058411,-0.166875049471855164,-0.005708451382815838,0.102928973734378815,0.004013298079371452,0.031865704804658890,0.055227704346179962,0.126940116286277771,0.278146594762802124,-0.263285696506500244,0.157456338405609131,0.180214524269104004,0.218524292111396790,-0.064099900424480438
-0.009929906576871872,0.179698005318641663,-0.197227507829666138,-0.241784051060676575,0.122357040643692017,0.080817446112632751,-0.271776020526885986,0.124242477118968964,-0.199300393462181091,-0.031156158074736595,0.012031101621687412,0.234694272279739380,0.014334199950098991,0.177273407578468323,-0.178218573331832886,0.199252232909202576,0.067651078104972839,-0.342579662799835205,0.179999917745590210,0.123058870434761047,-0.134747549891471863,-0.275822907686233521,0.146822065114974976,0.066009365022182465,0.176594227552413940,0.172419667243957520,0.087467432022094727,-0.182286217808723450,-0.157836198806762695,-0.126070216298103333,-0.068416051566600800,0.208599701523780823,0.058272801339626312,-0.076580576598644257,-0.158517763018608093,-0.272286236286163330,-0.130730986595153809,0.232379928231239319,0.167228579521179199,-0.089515112340450287,-0.077187165617942810,-0.305736452341079712,0.259208828210830688,0.103943154215812683,0.235658839344978333,-0.032737817615270615,0.018512237817049026,0.190416753292083740,0.060706794261932373,0.001225688261911273,-0.232586428523063660,0.109999276697635651,-0.201646253466606140,0.125784888863563538,-0.203017830848693848,-0.074132964015007019,0.207354933023452759,0.009482645429670811,-0.122899271547794342,0.215678915381431580,-0.239348456263542175,-0.020728243514895439,0.296478986740112305,0.066562809050083160,-0.090025290846824646,-0.011391004547476768,-0.031134877353906631,-0.215982690453529358,0.065548405051231384,-0.007494446355849504
-0.029877565801143646,0.115408517420291901,0.220082178711891174,0.152088910341262817,-0.235511854290962219,-0.259175062179565430,0.046130698174238205,0.138788312673568726,-0.071499519050121307,0.341255694627761841,0.179270565509796143,0.181249275803565979,-0.073281973600387573,-0.088981665670871735,-0.009407848119735718,-0.074638269841670990,-0.170822665095329285,0.314573049545288086,-0.307471811771392822,-0.095507100224494934,0.158570319414138794,0.311342418193817139,-0.230871364474296570,0.282173484563827515,-0.148482352495193481,-0.151359945535659790,0.000793925544712692,-0.008576243184506893,-0.066370658576488495,-0.195279523730278015,0.046515248715877533,-0.030335193499922752,0.354047387838363647,-0.261731088161468506,-0.092878520488739014,0.291598707437515259,0.369818598031997681,-0.232676714658737183,-0.186564490199089050,-0.060332495719194412,-0.240582272410392761,-0.044020120054483414,-0.082253918051719666,-0.154297500848770142,0.219342306256294250,-0.210459172725677490,0.220276832580566406,-0.079474464058876038,0.039801348000764847,0.266286432743072510,0.150386691093444824,-0.200102597475051880,0.292107462882995605,0.259978264570236206,0.080457940697669983,-0.105064161121845245,-0.098427966237068176,-0.164297208189964294,-0.129572480916976929,-0.063468970358371735,0.029717274010181427,-0.180390447378158569,-0.029662303626537323,-0.098334565758705139,0.077351130545139313,0.129625007510185242,0.227520540356636047,0.042902696877717972,-0.150474324822425842,0.245301410555839539
0.253128588199615479,-0.166562199592590332,0.130169704556465149,-0.027132239192724228,-0.012976635247468948,0.184800177812576294,0.197956740856170654,0.088670112192630768,-0.060511220246553421,-0.190477102994918823,0.014364816248416901,-0.002606353955343366,0.062455855309963226,0.099521309137344360,0.022475469857454300,0.229396581649780273,0.269525140523910522,0.315663099288940430,0.055113688111305237,-0.000076678094046656,-0.189827233552932739,0.255557924509048462,0.165164560079574585,0.018302192911505699,-0.000503972987644374,-0.007502810563892126,0.024765653535723686,0.156018346548080444,0.144914239645004272,0.032852318137884140,-0.144327566027641296,-0.007366203702986240,-0.084800750017166138,-0.116396993398666382,0.317578792572021484,0.203967615962028503,0.189851805567741394,-0.266435205936431885,-0.136617690324783325,-0.309910953044891357,-0.140511974692344666,0.023817529901862144,0.086444400250911713,0.169247582554817200,0.230427488684654236,0.106547676026821136,0.042282558977603912,-0.009735317900776863,-0.223949372768402100,0.189818009734153748,-0.339531540870666504,-0.194016620516777039,0.052367664873600006,-0.050033636391162872,-0.322058022022247314,-0.032682694494724274,-0.276957631111145020,0.083634100854396820,-0.140469491481781006,-0.060793243348598480,-0.037004724144935608,0.158894762396812439,0.011065149679780006,-0.138210535049438477,0.148477137088775635,0.165765389800071716,0.215601325035095215,0.167608872056007385,0.124716527760028839,0.032478839159011841
-0.237407013773918152,0.198662757873535156,0.243549689650535583,-0.198410108685493469,0.027072992175817490,-0.152221694588661194,0.408377438783645630,-0.084371767938137054,-0.019098196178674698,-0.102332897484302521,0.163597926497459412,0.145861968398094177,0.011924714781343937,0.081051670014858246,0.303532481193542480,0.214998796582221985,0.319770783185958862,0.186497330665588379,0.146498963236808777,-0.069110862910747528,0.089195676147937775,0.300903052091598511,-0.052519347518682480,0.173284739255905151,-0.122541658580303192,0.061465620994567871,0.148124635219573975,0.152334630489349365,-0.211245074868202209,0.150422215461730957,0.302271246910095215,-0.229716584086418152,-0.123836018145084381,-0.053419008851051331,0.141669064760208130,0.237484425306320190,0.249386355280876160,-0.018827984109520912,0.092237547039985657,0.224394410848617554,-0.001029310515150428,0.063649915158748627,0.174737185239791870,-0.227763161063194275,-0.132633000612258911,0.066717974841594696,-0.038172733038663864,-0.032114785164594650,0.215364471077919006,-0.178689807653427124,-0.154747366905212402,-0.169872775673866272,0.367026209831237793,-0.059460174292325974,0.107418417930603027,0.343139916658401489,-0.096494540572166443,-0.140225574374198914,0.077836245298385620,-0.078252695500850677,-0.075369298458099365,-0.218884438276290894,0.097130052745342255,-0.125396102666854858,0.105585604906082153,-0.123184502124786377,-0.058951552957296371,0.157877832651138306,-0.190869346261024475,0.352547347545623779
0.128347501158714294,-0.184879258275032043,0.053655348718166351,0.053568534553050995,0.117115855216979980,-0.065998189151287079,-0.118513107299804688,-0.103839933872222900,-0.021907322108745575,0.178316175937652588,-0.006812561769038439,0.248698055744171143,0.114250034093856812,0.055197395384311676,0.011969625018537045,-0.113123558461666107,0.184302464127540588,-0.113028630614280701,0.156760901212692261,0.101292870938777924,0.217727839946746826,0.088711157441139221,0.087272897362709045,0.252900183200836182,-0.139886587858200073,-0.030065577477216721,0.074126593768596649,0.158957734704017639,-0.174185723066329956,0.090419135987758636,0.150152683258056641,0.021602878347039223,0.051426656544208527,-0.165292799472808838,-0.112413272261619568,0.035097073763608932,0.072583943605422974,-0.181490018963813782,-0.216620683670043945,-0.006607933435589075,-0.226127192378044128,-0.026436464861035347,0.079876951873302460,0.041144575923681259,-0.007495448924601078,0.154129698872566223,0.034571848809719086,-0.052162438631057739,0.270010679960250854,-0.149116531014442444,0.187697693705558777,-0.094875447452068329,-0.082731992006301880,0.197109743952751160,0.288395106792449951,0.199839174747467041,-0.041773658245801926,0.124123305082321167,-0.107506982982158661,0.056030970066785812,-0.099681362509727478,-0.215315088629722595,-0.076954700052738190,-0.075053498148918152,0.114452026784420013,0.071273118257522583,0.100030347704887390,0.143820971250534058,-0.113082371652126312,0.228558689355850220
0.066638231277465820,0.005549475550651550,0.185232967138290405,-0.201708287000656128,0.394900828599929810,-0.134966149926185608,-0.259295552968978882,0.140699014067649841,0.111609242856502533,0.014039543457329273,-0.087433151900768280,0.108648933470249176,-0.140668928623199463,0.196920245885848999,-0.298535436391830444,-0.050345197319984436,-0.166789084672927856,0.176378205418586731,-0.301434308290481567,-0.012675706297159195,0.262828916311264038,0.035404458642005920,0.126039445400238037,0.003738789819180965,-0.016839435324072838,0.047879789024591446,-0.370438158512115479,0.172711774706840515,-0.171901255846023560,0.243625968694686890,-0.186438888311386108,0.098061420023441315,0.106516085565090179,0.076674200594425201,-0.205006673932075500,-0.196514070034027100,-0.170149952173233032,0.127518370747566223,-0.039447743445634842,-0.135976076126098633,-0.182420030236244202,0.058155111968517303,-0.049232229590415955,-0.101599380373954773,0.175837293267250061,-0.086167015135288239,-0.101874999701976776,0.188277557492256165,-0.023465570062398911,0.098298087716102600,-0.182962715625762939,0.163824260234832764,0.245275691151618958,-0.185389667749404907,0.151923194527626038,-0.236155584454536438,0.226751580834388733,-0.283125191926956177,0.038913149386644363,0.006180927157402039,0.059759315103292465,-0.013150736689567566,0.040205571800470352,0.204217597842216492,-0.245618194341659546,0.244014188647270203,-0.195609673857688904,-0.078228369355201721,-0.098609641194343567,0.069387964904308319
0.141455501317977905,-0.083794698119163513,0.082305379211902618,-0.300506353378295898,-0.050567332655191422,-0.099640928208827972,-0.012433035299181938,0.169100344181060791,0.011239610612392426,0.004874283447861671,0.121831163763999939,-0.183626100420951843,0.142434403300285339,0.220093473792076111,-0.142557099461555481,-0.043766614049673080,-0.112206935882568359,0.056347973644733429,-0.184177264571189880,0.163427874445915222,0.223288998007774353,-0.228791266679763794,-0.255813986063003540,0.213015198707580566,0.135401815176010132,0.046491011977195740,-0.228128015995025635,0.028620248660445213,0.045989867299795151,0.240634530782699585,-0.197647258639335632,0.106142446398735046,-0.165114045143127441,0.092863962054252625,-0.055484384298324585,0.175670698285102844,0.167139247059822083,0.134547665715217590,0.077989749610424042,0.008889777585864067,0.096924692392349243,0.052306272089481354,0.034748449921607971,-0.237865447998046875,-0.051255051046609879,-0.154766440391540527,0.130630344152450562,0.096034146845340729,-0.035693533718585968,0.284010052680969238,0.315916568040847778,0.043070692569017410,0.042219385504722595,-0.195035323500633240,-0.173685148358345032,-0.019471328705549240,0.304949462413787842,-0.050807282328605652,0.249658390879631042,0.005731800105422735,0.040582235902547836,-0.211946487426757812,0.257191985845565796,0.013083055615425110,0.206080764532089233,0.146200492978096008,0.166495382785797119,0.089289896190166473,-0.190291598439216614,0.054142955690622330
0.120838038623332977,-0.175872713327407837,0.216162160038948059,0.036282498389482498,0.155151486396789551,-0.037167739123106003,0.157095104455947876,0.091092906892299652,0.148028284311294556,-0.073389478027820587,0.328705161809921265,-0.263235718011856079,-0.083166435360908508,-0.227198287844657898,-0.092772781848907471,0.041433677077293396,0.133976012468338013,0.133904874324798584,0.062625318765640259,0.123434387147426605,0.059805646538734436,-0.079059652984142303,0.315235495567321777,0.005311014130711555,0.347885102033615112,0.029647817835211754,-0.004684370942413807,0.193359240889549255,0.188758522272109985,0.231977969408035278,0.077117778360843658,0.037015821784734726,-0.097261480987071991,0.073846854269504547,0.147156938910484314,-0.044087063521146774,0.118724972009658813,0.023956520482897758,0.062633022665977478,-0.075406797230243683,-0.184282779693603516,-0.287006050348281860,-0.082641504704952240,-0.225970774888992310,0.195814847946166992,-0.133821845054626465,-0.146707400679588318,0.141923621296882629,-0.242409259080886841,-0.103191822767257690,-0.031248671934008598,-0.166133925318717957,0.065410554409027100,0.059256367385387421,0.062159225344657898,0.170744314789772034,0.123809367418289185,0.069056324660778046,-0.013811956159770489,-0.115723200142383575,-0.174415796995162964,0.281149089336395264,-0.163939893245697021,-0.194176837801933289,0.233740687370300293,-0.119691304862499237,-0.146899163722991943,0.210303038358688354,-0.047593332827091217,0.062894314527511597
-0.435849905014038086,0.145643547177314758,0.206085890531539917,0.297130435705184937,0.369250923395156860,-0.198689952492713928,0.113963440060615540,-0.035383682698011398,0.124559804797172546,-0.023096859455108643,0.130997821688652039,-0.032760862261056900,0.115655764937400818,0.086005672812461853,0.009974884800612926,0.157909467816352844,-0.144266620278358459,0.221948251128196716,-0.164519160985946655,-0.108567871153354645,0.122143521904945374,0.130898877978324890,-0.122851729393005371,0.140693143010139465,-0.101843632757663727,0.137076988816261292,-0.035076446831226349,0.088306054472923279,0.142429322004318237,-0.109071135520935059,0.097554378211498260,-0.129739031195640564,0.223532870411872864,0.108331777155399323,-0.238365411758422852,0.064397357404232025,0.050944782793521881,0.201122149825096130,-0.158995985984802246,0.193353325128555298,-0.164564028382301331,-0.127849251031875610,-0.180596962571144104,-0.030897460877895355,0.043787188827991486,0.046193554997444153,-0.158786237239837646,-0.167862385511398315,0.002995383692905307,-0.087445847690105438,0.033727999776601791,0.203661516308784485,0.023202346637845039,0.187239572405815125,0.226529076695442200,0.131491377949714661,0.083563350141048431,0.016568232327699661,0.000119826596346684,0.090441301465034485,-0.223765820264816284,0.120715744793415070,-0.430847853422164917,-0.206242620944976807,-0.116269826889038086,-0.083832696080207825,-0.069095440208911896,-0.288369745016098022,0.096066087484359741,0.246737271547317505
0.038545023649930954,-0.159147500991821289,-0.120932325720787048,-0.072601497173309326,-0.229849383234977722,0.030887037515640259,-0.073177151381969452,-0.098398603498935699,-0.044582348316907883,-0.089330315589904785,-0.144507542252540588,-0.116491585969924927,0.236708968877792358,0.135099247097969055,0.133669793605804443,-0.209809303283691406,0.139743864536285400,-0.120139457285404205,-0.114526480436325073,-0.102932773530483246,0.192686304450035095,0.207212164998054504,-0.261046618223190308,0.077720910310745239,-0.156433433294296265,-0.174302369356155396,0.198691084980964661,-0.125710204243659973,0.058480370789766312,-0.109643183648586273,-0.112836703658103943,-0.177109703421592712,-0.018393112346529961,-0.027023823931813240,-0.104167163372039795,0.256359726190567017,0.086719006299972534,-0.202419921755790710,0.107675887644290924,-0.142220571637153625,0.029250053688883781,0.041150856763124466,0.156409800052642822,0.078096173703670502,-0.193624913692474365,-0.028622495010495186,0.208915129303932190,-0.195655226707458496,0.110486395657062531,0.001721596345305443,0.180135503411293030,0.110947571694850922,-0.212301120162010193,-0.257133513689041138,-0.220501407980918884,-0.141517132520675659,0.112559385597705841,-0.054348863661289215,0.165563955903053284,-0.164668217301368713,0.247711077332496643,0.055059690028429031,0.074325472116470337,-0.200800016522407532,-0.177706077694892883,0.243164822459220886,0.050031844526529312,0.019960496574640274,0.065514631569385529,0.182859793305397034
-0.169707000255584717,0.194442525506019592,-0.055891718715429306,-0.132568314671516418,-0.113926917314529419,-0.190540179610252380,0.160869657993316650,-0.055626932531595230,-0.178580015897750854,-0.067155286669731140,-0.147275596857070923,0.031753119081258774,0.204210147261619568,-0.198709517717361450,0.221235692501068115,-0.076008856296539307,0.097555749118328094,-0.026550963521003723,0.242178708314895630,0.202827230095863342,0.029335830360651016,0.038528442382812500,0.109288938343524933,-0.224914550781250000,0.047678314149379730,-0.094191253185272217,-0.213614717125892639,0.208868846297264099,-0.101192377507686615,0.197920501232147217,-0.198960617184638977,-0.118736915290355682,-0.001387485535815358,0.137609079480171204,-0.151140511035919189,0.160793423652648926,-0.019058480858802795,0.146749228239059448,0.032689135521650314,0.208513244986534119,-0.060781072825193405,-0.052312750369310379,0.115647174417972565,0.170326754450798035,-0.110517427325248718,0.203382521867752075,-0.066062040627002716,-0.025029649958014488,0.194229245185852051,0.061981126666069031,0.134818896651268005,0.081075266003608704,-0.081604674458503723,-0.019742101430892944,-0.103331066668033600,-0.017095560207962990,0.013327492401003838,-0.226338237524032593,-0.135415911674499512,-0.007480671629309654,0.051447648555040359,-0.197656944394111633,0.044008884578943253,-0.011807284317910671,-0.108995735645294189,0.009577870368957520,-0.087239980697631836,0.114501684904098511,-0.103100031614303589,-0.089715540409088135
-0.018738109618425369,-0.098783709108829498,0.246770918369293213,0.123231902718544006,0.254635095596313477,-0.011292028240859509,-0.092455513775348663,0.072998203337192535,-0.074464105069637299,0.147184595465660095,-0.008168312720954418,0.143123984336853027,-0.036332368850708008,0.159126624464988708,0.035235781222581863,-0.119685404002666473,0.276208490133285522,0.174356997013092041,-0.124182872474193573,-0.088135004043579102,-0.248067095875740051,0.107733495533466339,-0.064046323299407959,0.117597483098506927,-0.264592587947845459,0.095523014664649963,0.165368065237998962,-0.171623572707176208,-0.188256293535232544,-0.008999592624604702,-0.200105950236320496,0.187776029109954834,0.170121356844902039,-0.133931070566177368,0.063956022262573242,-0.170887023210525513,-0.170633077621459961,-0.148082733154296875,0.185784205794334412,-0.152535259723663330,-0.191638320684432983,-0.117951944470405579,-0.225142225623130798,0.103428520262241364,-0.303853243589401245,-0.037021577358245850,0.165073141455650330,0.062463872134685516,0.220025181770324707,-0.267067879438400269,0.077074266970157623,0.022591317072510719,0.197703033685684204,0.152584552764892578,0.224642693996429443,0.086258053779602051,0.172782614827156067,-0.127468690276145935,-0.082870751619338989,-0.135858103632926941,-0.033101875334978104,-0.078760899603366852,0.026424190029501915,-0.077151775360107422,-0.128783553838729858,-0.053361061960458755,0.258998930454254150,0.156597673892974854,-0.128138169646263123,-0.050047602504491806
-0.265708774328231812,0.061422813683748245,-0.158681005239486694,-0.280028015375137329,0.079030819237232208,-0.167580485343933105,0.011024100705981255,-0.289865791797637939,-0.065389797091484070,-0.010341770946979523,-0.043894749134778976,-0.145765706896781921,0.112263485789299011,-0.244913473725318909,0.126763373613357544,0.064053103327751160,0.192795336246490479,0.158571228384971619,-0.016310552135109901,-0.237849161028862000,-0.055405307561159134,0.202178418636322021,0.212226688861846924,-0.067972101271152496,0.168074652552604675,0.072961740195751190,-0.079807937145233154,0.077940843999385834,-0.157910883426666260,-0.196457430720329285,-0.049612011760473251,0.052167877554893494,-0.134989410638809204,-0.081023305654525757,0.227454036474227905,0.313670635223388672,0.076161950826644897,0.078153207898139954,0.119739294052124023,0.248181149363517761,0.173722982406616211,-0.025203233584761620,-0.242305099964141846,0.197776511311531067,-0.104526467621326447,-0.023201592266559601,0.177771687507629395,0.019693698734045029,0.144758448004722595,-0.269842326641082764,-0.255309522151947021,0.042167019098997116,0.164568379521369934,-0.133471727371215820,0.085183769464492798,0.199124068021774292,-0.253726363182067871,0.128087684512138367,0.081014253199100494,0.145978420972824097,0.193417549133300781,0.125537902116775513,0.183396965265274048,0.131012678146362305,0.038300551474094391,0.016917034983634949,0.058759856969118118,0.040529318153858185,-0.296331703662872314,0.186590299010276794
-0.226958766579627991,0.049628913402557373,-0.006043997127562761,-0.161107689142227173,0.146835550665855408,0.070362605154514313,-0.062864452600479126,-0.152598991990089417,0.117687188088893890,-0.220009058713912964,0.159329786896705627,0.057032570242881775,-0.063897907733917236,-0.217489704489707947,-0.170080065727233887,-0.029081137850880623,-0.075447529554367065,0.153797507286071777,0.220568194985389709,0.325987935066223145,0.160074561834335327,0.128347545862197876,0.181916654109954834,-0.028062330558896065,0.119056828320026398,-0.181765675544738770,0.022087873890995979,0.289238899946212769,-0.197275370359420776,0.214647099375724792,-0.002284483984112740,0.123055145144462585,0.094525784254074097,0.023003645241260529,0.209584057331085205,0.115490153431892395,-0.159851104021072388,0.220798060297966003,-0.170366883277893066,-0.115145981311798096,-0.258507341146469116,-0.022108286619186401,-0.021526291966438293,0.183278128504753113,-0.013480572029948235,0.033695071935653687,-0.048714827746152878,0.113381855189800262,-0.206821441650390625,-0.214825287461280823,0.022684862837195396,0.133011192083358765,0.211078897118568420,0.002274791011586785,-0.230818808078765869,-0.099462546408176422,0.034217603504657745,0.056100767105817795,-0.057347439229488373,-0.203272342681884766,0.226561412215232849,-0.087026573717594147,0.241418346762657166,-0.055280201137065887,-0.028247974812984467,-0.004018865991383791,0.141802042722702026,0.157901108264923096,0.018184628337621689,0.107036031782627106
0.002927263267338276,-0.112253032624721527,-0.213732063770294189,-0.232550010085105896,-0.035500835627317429,0.123280398547649384,0.071766495704650879,0.247429847717285156,-0.212932124733924866,0.165919244289398193,0.180198058485984802,-0.086211152374744415,0.071468323469161987,-0.159156844019889832,-0.146810978651046753,0.211194440722465515,-0.187225490808486938,0.144758284091949463,0.030604446306824684,0.033166281878948212,-0.254674881696701050,0.083199210464954376,-0.031080707907676697,-0.184880718588829041,0.079928591847419739,-0.061984319239854813,-0.066571526229381561,0.052523892372846603,-0.126265734434127808,-0.092802546918392181,-0.160005286335945129,-0.195743978023529053,0.041416987776756287,0.214602425694465637,-0.113467045128345490,-0.097485162317752838,0.190428495407104492,-0.079493157565593719,-0.194195136427879333,-0.195185899734497070,-0.016745366156101227,-0.017633242532610893,0.259937733411788940,-0.011059247888624668,-0.125008031725883484,-0.098048120737075806,-0.203009232878684998,0.017491450533270836,0.101733930408954620,-0.003644491545855999,0.119424536824226379,-0.178191140294075012,-0.217998445034027100,-0.003568126820027828,0.112684920430183411,-0.064835622906684875,0.028117410838603973,-0.033726077526807785,0.006600053980946541,-0.131654053926467896,0.328627347946166992,-0.096328407526016235,-0.117714554071426392,0.181209847331047058,-0.198589324951171875,0.241592168807983398,-0.133076265454292297,-0.184118732810020447,-0.195872515439987183,0.059663541615009308
0.269336104393005371,0.082589745521545410,-0.040942750871181488,0.051569174975156784,0.145239949226379395,0.051712591201066971,-0.230693414807319641,0.331395208835601807,0.166152015328407288,0.138771697878837585,0.206376165151596069,0.106736503541469574,-0.132981047034263611,-0.102322235703468323,-0.145559236407279968,0.157348081469535828,-0.152600392699241638,-0.088076643645763397,0.016574658453464508,0.160936564207077026,0.174805358052253723,0.015467210672795773,-0.116727836430072784,0.194544225931167603,-0.084676355123519897,-0.102024830877780914,0.040605954825878143,-0.111033454537391663,0.093979246914386749,0.035764638334512711,0.002766390563920140,0.218222975730895996,-0.119537755846977234,0.102331541478633881,-0.233845055103302002,-0.049340244382619858,0.008307953365147114,0.047653026878833771,0.023893816396594048,0.058632679283618927,0.017317909747362137,-0.136730626225471497,0.007089702412486076,-0.127362757921218872,0.190531507134437561,0.214868113398551941,0.113704189658164978,0.200102284550666809,0.184248030185699463,0.041501149535179138,0.125467166304588318,-0.085995629429817200,-0.048969920724630356,-0.030865015462040901,0.066864199936389923,0.084262646734714508,0.132017150521278381,0.094015255570411682,0.143240138888359070,0.118418484926223755,0.221896946430206299,-0.057888414710760117,-0.073809750378131866,-0.201479852199554443,-0.152244731783866882,0.167066812515258789,0.033352095633745193,0.118732720613479614,0.121567033231258392,0.155039027333259583
-0.233725175261497498,-0.023951297625899315,-0.196431785821914673,0.095104888081550598,0.161277055740356445,-0.167868807911872864,-0.131404235959053040,-0.026326075196266174,-0.007337180431932211,0.024349439889192581,0.048898477107286453,-0.165289580821990967,-0.038723293691873550,-0.170050352811813354,0.115180902183055878,-0.115818127989768982,-0.000776436878368258,-0.022901881486177444,0.088151335716247559,-0.061337478458881378,-0.091769769787788391,-0.181070238351821899,-0.114680357277393341,-0.208056479692459106,-0.073305852711200714,0.039713311940431595,0.191492393612861633,-0.040263492614030838,0.026274338364601135,0.021431263536214828,0.041489250957965851,0.073967494070529938,0.075119413435459137,0.035105817019939423,-0.182153746485710144,-0.226516112685203552,-0.113142922520637512,-0.095081023871898651,-0.198972433805465698,-0.119204923510551453,-0.059882249683141708,-0.068872079253196716,-0.156398132443428040,-0.054229889065027237,-0.153281643986701965,-0.101572059094905853,0.140638619661331177,-0.131095051765441895,0.089550212025642395,0.039018493145704269,-0.032961219549179077,0.095479741692543030,-0.199659451842308044,0.040517847985029221,0.167813092470169067,0.129061505198478699,0.020216671749949455,-0.037131182849407196,0.082033060491085052,0.119630537927150726,-0.175398752093315125,0.116770409047603607,0.102859899401664734,0.030486991629004478,0.001043110503815114,0.148863703012466431,-0.130082920193672180,-0.085190586745738983,-0.031138982623815536,-0.286759853363037109
0.279948651790618896,0.036798343062400818,-0.019445702433586121,-0.065934605896472931,-0.291066467761993408,-0.052136391401290894,0.192525476217269897,0.076302006840705872,-0.012254409492015839,0.146867036819458008,-0.072932511568069458,0.264770537614822388,0.137309625744819641,-0.164959833025932312,0.210927963256835938,0.077144861221313477,0.085784688591957092,0.099459737539291382,0.202084675431251526,-0.147675722837448120,-0.178294166922569275,-0.037185102701187134,0.222021222114562988,-0.222425878047943115,0.261356174945831299,-0.065495267510414124,-0.076214559376239777,-0.196706667542457581,0.073278553783893585,-0.248435601592063904,0.049211710691452026,0.094547912478446960,-0.088851451873779297,-0.110168181359767914,-0.020678313449025154,-0.133262991905212402,0.239842340350151062,-0.033426262438297272,-0.093117415904998779,0.049161717295646667,-0.178460121154785156,0.118038021028041840,0.276312589645385742,0.165360614657402039,0.107154063880443573,0.003843280952423811,-0.026462106034159660,-0.056736771017313004,0.177854865789413452,0.141472458839416504,-0.152536019682884216,0.176829829812049866,-0.174505710601806641,0.038703251630067825,-0.330936759710311890,-0.118476480245590210,-0.193031877279281616,0.060293335467576981,0.202031463384628296,0.207702875137329102,-0.122298918664455414,-0.069683887064456940,-0.027207143604755402,0.082650393247604370,0.132785707712173462,0.122493736445903778,0.117702491581439972,-0.008282910101115704,-0.054611299186944962,-0.040340404957532883
-0.179369434714317322,0.069530896842479706,0.267257779836654663,0.284543991088867188,-0.006348045077174902,0.082699537277221680,0.116109527647495270,-0.036439687013626099,-0.183302223682403564,-0.095870621502399445,-0.104654803872108459,-0.054883055388927460,-0.082799211144447327,-0.112159103155136108,0.195654943585395813,0.200969576835632324,0.279082536697387695,-0.166374325752258301,0.254302680492401123,-0.026661781594157219,-0.194896131753921509,0.100335456430912018,0.329650133848190308,-0.029908927157521248,-0.137211933732032776,0.163223415613174438,-0.090946048498153687,-0.140758395195007324,-0.077514722943305969,-0.069810979068279266,0.154833555221557617,0.251753985881805420,0.174652501940727234,-0.083368875086307526,-0.146284982562065125,-0.086059741675853729,0.216728597879409790,0.230524346232414246,-0.183428496122360229,0.180253386497497559,0.103564761579036713,0.093118786811828613,-0.020934181287884712,-0.070031009614467621,-0.014432566240429878,-0.021728876978158951,-0.014554036781191826,-0.220917046070098877,0.203553244471549988,-0.034128580242395401,0.238422438502311707,-0.093785978853702545,-0.194327473640441895,0.178713977336883545,0.062195599079132080,-0.012003180570900440,0.094073191285133362,-0.161525681614875793,0.180702745914459229,-0.080254264175891876,-0.003378430148586631,0.329146087169647217,-0.168966665863990784,-0.248522549867630005,0.100156314671039581,-0.349050402641296387,-0.171174511313438416,0.211424753069877625,-0.064043655991554260,0.072979688644409180
-0.146349787712097168,0.208424553275108337,0.180184587836265564,0.290487498044967651,0.064164139330387115,-0.055788669735193253,-0.076044350862503052,0.070050075650215149,-0.070536918938159943,0.219056546688079834,0.039175998419523239,-0.066917896270751953,-0.138335660099983215,-0.053122866898775101,-0.084932796657085419,-0.046279989182949066,0.214661434292793274,0.193821191787719727,-0.119776159524917603,-0.127225279808044434,-0.086151562631130219,0.102036498486995697,-0.139099374413490295,0.245694130659103394,-0.069936849176883698,0.095024324953556061,-0.145959824323654175,-0.132610812783241272,-0.063399702310562134,0.016664490103721619,0.013576788827776909,0.145028308033943176,-0.016390120610594749,-0.204227820038795471,0.035761762410402298,0.310078471899032593,0.189971640706062317,0.169738754630088806,0.012195155955851078,0.075792253017425537,-0.045054849237203598,-0.071396477520465851,0.099104396998882294,-0.052910521626472473,0.052349179983139038,0.052795313298702240,-0.036229964345693588,0.209853500127792358,-0.015084350481629372,-0.051015887409448624,0.070657193660736084,-0.159726604819297791,0.208294674754142761,0.199859425425529480,-0.003769930452108383,0.309555888175964355,0.009202576242387295,-0.129912167787551880,-0.023191714659333229,0.158467113971710205,0.050982058048248291,-0.257039844989776611,0.099252082407474518,0.113038010895252228,0.137007519602775574,0.216862112283706665,0.168053612112998962,-0.059145297855138779,-0.076945394277572632,-0.031609486788511276
0.079124912619590759,0.028574597090482712,-0.124447301030158997,0.198023751378059387,-0.177583634853363037,0.209992319345474243,0.124733045697212219,0.308108687400817871,-0.066045857965946198,0.028631279245018959,-0.165810137987136841,-0.096215620636940002,-0.147412911057472229,0.115114554762840271,0.179565459489822388,0.013684261590242386,-0.026693398132920265,0.023114560171961784,0.035609677433967590,0.171222075819969177,0.114221960306167603,0.121301546692848206,-0.221789851784706116,-0.024337191134691238,0.077452838420867920,0.208584606647491455,0.281738996505737305,-0.068472549319267273,-0.202062249183654785,-0.241033032536506653,0.121899247169494629,-0.010774947702884674,0.021800715476274490,0.155851513147354126,0.100951671600341797,0.060903180390596390,-0.097471646964550018,0.118940919637680054,-0.052998933941125870,0.074598178267478943,0.008257869631052017,0.063564196228981018,-0.255297899246215820,0.059209540486335754,-0.139650627970695496,0.008439744822680950,-0.174546435475349426,0.101878970861434937,0.083329789340496063,-0.227111682295799255,-0.128206521272659302,0.120243333280086517,-0.050065942108631134,-0.152349114418029785,-0.225217506289482117,-0.053336888551712036,-0.056079227477312088,0.344491302967071533,-0.233948841691017151,0.177087649703025818,0.037319980561733246,0.165273919701576233,0.063542634248733521,0.004710886627435684,-0.174167558550834656,-0.034234125167131424,0.259713232517242432,0.074573099613189697,0.161515742540359497,-0.106367230415344238
