-0.000441673357272521
0.010604117996990681
-0.021786972880363464
0.007982061244547367
0.007107756100594997
0.018304087221622467
0.002971025649458170
0.019133491441607475
0.017977917566895485
-0.012459860183298588
0.002756314584985375
0.002742341486737132
0.005111911799758673
0.009638798423111439
0.013607054017484188
-0.008711818605661392
0.000950429763179272
0.015467562712728977
0.008341712877154350
-0.013162564486265182
-0.003808947512879968
0.013910664245486259
0.011366602033376694
-0.009701296687126160
0.007266108877956867
0.026152985170483589
0.015319612808525562
0.013743401505053043
0.007657138165086508
-0.003302441677078605
-0.001671204576268792
0.001855969894677401
0.005466552916914225
0.015506274998188019
0.011911337263882160
-0.001981920795515180
-0.001721311942674220
0.005897473543882370
0.000924743770156056
0.009920787997543812
0.001547182677313685
-0.010718197561800480
0.017730196937918663
-0.007043495308607817
-0.000148254752275534
0.005196578335016966
0.019730938598513603
0.023960517719388008
0.012194703333079815
-0.008513962849974632
-0.008925979025661945
-0.014365030452609062
0.026969775557518005
-0.009542617946863174
0.029395274817943573
0.008608537726104259
-0.006867538206279278
0.012871312908828259
0.017118111252784729
0.006470186170190573
0.007576895412057638
-0.001610053819604218
-0.018520552664995193
-0.006529513746500015
0.021827809512615204
0.010661292821168900
0.017382113263010979
0.008391038514673710
-0.013902249746024609
0.006352013908326626
0.004959838930517435
-0.004466393496841192
-0.015163250267505646
0.001891990890726447
-0.007036424241960049
0.025597205385565758
-0.023375852033495903
0.006229214835911989
0.015471754595637321
0.008990921080112457
0.007105144672095776
-0.018417565152049065
0.022184053435921669
-0.002224719850346446
0.008571252226829529
-0.003092701779678464
-0.008551138453185558
0.008588541299104691
-0.005986764095723629
0.008179680444300175
0.004528391640633345
0.003155780490487814
0.009563211351633072
0.000608863949310035
0.024860603734850883
-0.010948480106890202
-0.009049010463058949
-0.011122974567115307
0.012730411253869534
0.009367429651319981
-0.008192173205316067
0.009575342759490013
-0.012848161160945892
0.021047208458185196
0.015852453187108040
0.015255277045071125
-0.000076498661655933
-0.007484384812414646
0.001160433981567621
0.015052422881126404
0.025033764541149139
0.011534350924193859
-0.007719720713794231
-0.010580149479210377
0.001585350721143186
0.011645884253084660
-0.008991241455078125
0.016400203108787537
0.026352945715188980
0.010751854628324509
0.010273220017552376
0.012854518368840218
0.012580995447933674
0.015488891862332821
-0.005798885598778725
0.000771410705056041
-0.014917057938873768
0.018766043707728386
