0.042007070034742355,-0.040796179324388504,-0.037769354879856110,0.005369603168219328,0.045898023992776871,-0.007634269073605537,-0.047328181564807892,0.017434552311897278
0.029184957966208458,0.032636437565088272,0.016464551910758018,0.003145898459479213,-0.029218571260571480,0.051322810351848602,0.002254593651741743,0.036241870373487473
0.006915892474353313,-0.002598088700324297,0.001117981038987637,0.028561690822243690,0.053219299763441086,0.042081903666257858,-0.018827440217137337,-0.041319098323583603
-0.011728400364518166,-0.045362915843725204,0.049399614334106445,0.016005251556634903,-0.040882557630538940,-0.009400121867656708,0.021321572363376617,0.042617242783308029
-0.040802620351314545,-0.034451566636562347,0.034015446901321411,-0.039941091090440750,0.048935696482658386,0.039773058146238327,-0.028003612533211708,-0.035237621515989304
-0.030376143753528595,-0.001781444298103452,-0.046381797641515732,0.012673142366111279,0.024526394903659821,0.041460078209638596,-0.000475241686217487,-0.036467254161834717
0.021271558478474617,0.002727354411035776,0.031541362404823303,0.032180037349462509,-0.023275403305888176,-0.044100128114223480,-0.021879376843571663,-0.044420141726732254
0.000434625952038914,0.022445656359195709,0.011567295528948307,0.030329832807183266,-0.042816031724214554,0.005550268106162548,0.042864084243774414,-0.040991026908159256
-0.007465168833732605,0.045302253216505051,-0.028148183599114418,0.005776155274361372,0.016950368881225586,0.006985733751207590,0.045786205679178238,0.047822691500186920
