0.031878132373094559
-0.027226705104112625
-0.005414478015154600
0.100912898778915405
0.029279885813593864
-0.089744918048381805
0.104448780417442322
-0.080278433859348297
0.000669685541652143
0.053837072104215622
-0.062462497502565384
0.003446016926318407
0.022149804979562759
-0.013234357349574566
0.072056822478771210
0.033601757138967514
-0.033515065908432007
0.079494282603263855
0.000918254605494440
0.079048402607440948
-0.041935630142688751
-0.035835072398185730
0.078736096620559692
-0.002619049977511168
0.023379277437925339
0.011046403087675571
0.000059850513935089
0.034708753228187561
0.045810207724571228
0.036688063293695450
-0.022536035627126694
-0.096323296427726746
-0.047185938805341721
0.036086991429328918
0.052129875868558884
0.069732025265693665
0.043441057205200195
0.044967167079448700
0.034796662628650665
-0.043323323130607605
0.032293714582920074
0.004894211888313293
-0.025987431406974792
0.002543315058574080
0.081627368927001953
-0.029541328549385071
0.074237026274204254
0.005004810635000467
0.054342009127140045
0.002494658343493938
0.021851995959877968
0.049955237656831741
-0.021431030705571175
-0.012332212179899216
0.042728923261165619
0.006481701042503119
0.009109107777476311
0.048007857054471970
-0.024102270603179932
0.063450552523136139
0.030991174280643463
0.092353224754333496
0.025327764451503754
0.057631604373455048
-0.052863057702779770
0.088748767971992493
0.048622436821460724
0.121438972651958466
0.042207170277833939
0.012467137537896633
0.039772957563400269
-0.013911240734159946
-0.007504334673285484
-0.016047649085521698
0.071837730705738068
0.027856651693582535
0.038638561964035034
0.101466126739978790
0.028300153091549873
0.018661078065633774
0.019362021237611771
-0.031421586871147156
0.046280931681394577
-0.063567765057086945
0.029368281364440918
0.079652510583400726
0.018719164654612541
0.042296439409255981
0.007422449532896280
-0.010454362258315086
-0.015383378602564335
-0.046008531004190445
-0.026763416826725006
-0.049388464540243149
0.064597100019454956
-0.016802558675408363
0.046822492033243179
