0.254693478345870972,0.172562971711158752,0.197398990392684937,-0.224278554320335388,-0.156539052724838257,0.143091306090354919,0.265921503305435181,-0.086246192455291748,-0.021052438765764236,0.329767674207687378,0.280373871326446533,0.126553386449813843,0.011672203429043293,0.130646765232086182,0.140620023012161255,0.237004831433296204,0.128172725439071655,0.010377955622971058,0.221771925687789917,-0.071747869253158569,0.231961295008659363,-0.059450492262840271,-0.030054682865738869,-0.164471104741096497,-0.078341059386730194,-0.132060438394546509,-0.135218471288681030,0.011551802046597004,-0.166132301092147827,0.214091882109642029,-0.191513821482658386,-0.008821809664368629
-0.050843369215726852,-0.097241371870040894,-0.152133688330650330,0.152426794171333313,-0.206253692507743835,0.219074264168739319,-0.116365201771259308,-0.166668608784675598,-0.071499943733215332,0.174071684479713440,0.223693594336509705,0.198414757847785950,0.094779714941978455,0.024192040786147118,-0.045282389968633652,0.053873889148235321,-0.109953783452510834,-0.083697274327278137,0.057897966355085373,0.143114954233169556,-0.050306305289268494,0.094206124544143677,0.148507907986640930,0.199111893773078918,-0.035878505557775497,-0.214019387960433960,-0.197569161653518677,-0.066932238638401031,0.140809193253517151,-0.237223803997039795,-0.274817347526550293,0.001110424054786563
-0.070275433361530304,0.304933786392211914,-0.195695102214813232,-0.027660189196467400,-0.265469491481781006,-0.154194757342338562,0.108143873512744904,-0.026380391791462898,-0.068592526018619537,0.123460181057453156,0.063826680183410645,-0.221958503127098083,0.017132166773080826,-0.098270401358604431,-0.175778746604919434,0.092692911624908447,0.203274816274642944,0.244410365819931030,-0.161421447992324829,0.188583716750144958,0.182105183601379395,0.265372395515441895,-0.007760468404740095,-0.009913740679621696,-0.189918816089630127,-0.234478950500488281,-0.011688060127198696,-0.204458862543106079,0.127668172121047974,-0.001254115370102227,0.031731393188238144,0.286544024944305420
0.280464559793472290,-0.012301159091293812,-0.241583377122879028,0.164457842707633972,0.139609947800636292,0.083596050739288330,0.254191875457763672,-0.096494823694229126,-0.112086504697799683,0.028956465423107147,0.117436163127422333,-0.251082271337509155,0.110083557665348053,0.274866938591003418,-0.421278893947601318,-0.212362468242645264,0.043408934026956558,-0.077107042074203491,-0.172877073287963867,-0.111663550138473511,0.171181917190551758,0.229331001639366150,-0.194783866405487061,0.086509563028812408,0.011410146020352840,-0.155135110020637512,-0.183989137411117554,-0.121073536574840546,-0.013584889471530914,0.141918450593948364,-0.033536832779645920,0.237392216920852661
-0.277249455451965332,-0.155864968895912170,-0.164576917886734009,-0.086993157863616943,0.130525410175323486,-0.088596217334270477,-0.209687963128089905,0.310089588165283203,0.035389117896556854,0.060861397534608841,0.288113057613372803,-0.161738798022270203,0.272383719682693481,-0.228828027844429016,0.175682619214057922,-0.157877475023269653,-0.025686282664537430,0.512928903102874756,0.084716387093067169,-0.047300852835178375,0.354571610689163208,-0.451473742723464966,0.104273095726966858,-0.196595579385757446,-0.171743825078010559,-0.262033611536026001,-0.209875702857971191,0.005055701825767756,-0.257177025079727173,-0.310477256774902344,-0.153008759021759033,-0.104491055011749268
-0.125371783971786499,-0.056261360645294189,0.217410638928413391,0.081896767020225525,-0.118843935430049896,0.413494735956192017,0.345621049404144287,0.423127532005310059,-0.038173355162143707,0.121295459568500519,-0.023486109450459480,0.045246679335832596,0.130407750606536865,-0.210939422249794006,0.371751308441162109,0.171124994754791260,-0.501933097839355469,-0.099604949355125427,0.131033822894096375,0.203878834843635559,-0.117279112339019775,-0.250968575477600098,0.118965454399585724,-0.134580209851264954,-0.335723638534545898,0.227411195635795593,-0.118325464427471161,0.194004774093627930,0.195834636688232422,0.354779899120330811,0.298498690128326416,-0.255167782306671143
-0.094049647450447083,0.456033825874328613,-0.012072903104126453,0.009777393192052841,0.031097687780857086,0.029693173244595528,-0.082116447389125824,-0.155991673469543457,0.017137426882982254,-0.107010103762149811,0.119149692356586456,-0.114330440759658813,0.369382739067077637,0.039119847118854523,0.144098743796348572,-0.170491278171539307,0.282010734081268311,-0.042254123836755753,0.098905503749847412,0.079852856695652008,0.108991436660289764,0.458541721105575562,-0.019138650968670845,-0.153156369924545288,-0.262425839900970459,-0.364848077297210693,-0.121853888034820557,-0.072108797729015350,0.307845413684844971,-0.209191754460334778,0.230330705642700195,0.196152642369270325
0.093737825751304626,-0.180579259991645813,0.060247473418712616,0.166685387492179871,0.170572370290756226,-0.090342752635478973,-0.088657632470130920,0.177893459796905518,0.075032718479633331,-0.014802296645939350,0.112672463059425354,-0.049255497753620148,-0.116039931774139404,0.083370871841907501,0.184018462896347046,-0.149658471345901489,0.156151488423347473,-0.063674181699752808,-0.117290034890174866,0.023298144340515137,0.005218101665377617,0.093062095344066620,0.165442094206809998,-0.064607426524162292,-0.193148419260978699,-0.133870124816894531,0.036176826804876328,0.200979724526405334,-0.156744971871376038,0.201077654957771301,-0.096104517579078674,0.087105333805084229
-0.278389781713485718,0.091864190995693207,-0.216757953166961670,0.084562480449676514,-0.289188444614410400,0.016005409881472588,-0.174026176333427429,-0.316945523023605347,-0.264603644609451294,0.044133726507425308,0.112136289477348328,-0.174797311425209045,0.287086308002471924,-0.033664781600236893,0.026148078963160515,-0.084788233041763306,-0.064788691699504852,0.320038855075836182,-0.014316926710307598,-0.066780827939510345,0.235208794474601746,0.217818886041641235,-0.208126768469810486,-0.003258898854255676,0.123190082609653473,-0.138731732964515686,0.114151805639266968,-0.198320090770721436,0.260123997926712036,-0.394172310829162598,-0.291949242353439331,-0.072161354124546051
-0.179319083690643311,0.005863205995410681,0.069892562925815582,-0.093690648674964905,0.087459191679954529,-0.118704132735729218,0.029887273907661438,-0.264668703079223633,-0.003375502768903971,0.305807590484619141,0.278367072343826294,0.049683686345815659,0.395592898130416870,-0.013050061650574207,0.345084309577941895,0.347100466489791870,-0.176506370306015015,0.182941898703575134,-0.155417174100875854,0.208218485116958618,0.221934825181961060,-0.095357060432434082,0.312217056751251221,0.140037775039672852,-0.237936511635780334,-0.224755182862281799,0.323724627494812012,-0.100071690976619720,0.046991549432277679,-0.135383620858192444,-0.132031977176666260,-0.412900090217590332
0.100546874105930328,0.218677446246147156,-0.067411705851554871,-0.087247498333454132,-0.036313865333795547,0.065099798142910004,-0.089019350707530975,-0.156370490789413452,0.153317019343376160,-0.181152865290641785,0.152378588914871216,0.148931249976158142,0.255317836999893188,0.031973484903573990,-0.022525511682033539,0.283385396003723145,0.113514117896556854,-0.024590827524662018,0.037486463785171509,0.078612037003040314,-0.131227001547813416,0.318841606378555298,-0.106797099113464355,-0.124971449375152588,0.267785072326660156,-0.054064232856035233,0.092876337468624115,-0.217933014035224915,0.265110731124877930,-0.060120083391666412,0.201066762208938599,0.108572416007518768
-0.007156852167099714,-0.153845682740211487,-0.087049990892410278,-0.065313771367073059,-0.070694781839847565,0.175665870308876038,-0.008868100121617317,0.053853064775466919,0.164732515811920166,-0.153776988387107849,0.222175687551498413,-0.121815010905265808,0.326519668102264404,-0.162903711199760437,-0.063483357429504395,-0.143211945891380310,0.167492374777793884,-0.050608236342668533,-0.384001076221466064,0.016240106895565987,-0.016154428943991661,-0.466295421123504639,0.339453279972076416,-0.037854012101888657,0.118755973875522614,-0.177626252174377441,-0.015071704983711243,-0.196649685502052307,0.286214351654052734,-0.085773400962352753,-0.122112013399600983,0.089847654104232788
-0.066252678632736206,-0.135040059685707092,0.280251830816268921,0.125443026423454285,0.099562987685203552,-0.232854142785072327,0.057168439030647278,0.296948611736297607,0.151441931724548340,-0.036437746137380600,0.003778556128963828,-0.159074202179908752,0.039647791534662247,-0.086455322802066803,-0.315837115049362183,0.219984397292137146,0.139417037367820740,-0.057104334235191345,0.048938769847154617,0.232037082314491272,-0.182237520813941956,0.037264183163642883,-0.137638494372367859,-0.118405610322952271,0.034097008407115936,0.360416084527969360,-0.057317648082971573,-0.127614721655845642,0.257329970598220825,0.019926244392991066,-0.055252589285373688,-0.287641078233718872
-0.199891477823257446,0.037143237888813019,0.128850638866424561,-0.148917064070701599,0.156450688838958740,0.069460332393646240,-0.206927746534347534,0.031346172094345093,-0.134902358055114746,-0.050958853214979172,-0.146640017628669739,0.034424699842929840,0.318550735712051392,-0.252930849790573120,0.341134279966354370,0.095105908811092377,-0.216449424624443054,0.050392795354127884,-0.196667000651359558,-0.036860514432191849,-0.105112753808498383,0.055753629654645920,0.236783772706985474,-0.212828174233436584,-0.193414241075515747,0.085132464766502380,0.359432131052017212,0.133644849061965942,0.250711679458618164,-0.177366986870765686,0.425856530666351318,-0.110837087035179138
-0.203577846288681030,0.157602682709693909,0.236513033509254456,0.095934517681598663,0.208806231617927551,0.039407584816217422,0.113467670977115631,-0.182160750031471252,-0.016657991334795952,0.064477637410163879,0.217036426067352295,-0.195217803120613098,0.206711322069168091,-0.268977403640747070,-0.031948242336511612,-0.147184401750564575,-0.088337242603302002,-0.174426779150962830,-0.184783011674880981,-0.101708576083183289,-0.010165398009121418,-0.174591228365898132,0.092230275273323059,-0.045277122408151627,-0.288771688938140869,0.047054108232259750,0.129588499665260315,-0.151581764221191406,0.160951197147369385,-0.216090112924575806,-0.222712367773056030,-0.096989110112190247
-0.279449224472045898,0.118591502308845520,0.184977367520332336,0.083993807435035706,0.304248273372650146,0.425062537193298340,0.071466557681560516,0.272657364606857300,0.082219600677490234,-0.125513046979904175,0.306124806404113770,-0.024393349885940552,0.350779563188552856,0.120644740760326385,-0.113620512187480927,-0.033918265253305435,-0.144527241587638855,-0.373788267374038696,-0.306621730327606201,-0.085788115859031677,0.184245690703392029,0.135356202721595764,0.084341332316398621,-0.065383337438106537,-0.285762757062911987,-0.077541694045066833,0.046136323362588882,0.183301702141761780,0.383976101875305176,0.073245100677013397,-0.317599296569824219,-0.114969983696937561
0.404356181621551514,-0.147968858480453491,0.001609617145732045,0.129690393805503845,-0.134008288383483887,0.199476972222328186,0.052764050662517548,0.273001641035079956,0.113581478595733643,0.344422042369842529,0.245061635971069336,0.041292484849691391,0.068499058485031128,0.186062231659889221,-0.309191912412643433,-0.086194299161434174,0.405015319585800171,-0.074956759810447693,-0.353240609169006348,0.157074049115180969,-0.114058934152126312,-0.159050077199935913,-0.303647279739379883,0.098664663732051849,-0.193149879574775696,-0.183497801423072815,-0.171417415142059326,0.014703182503581047,-0.330857992172241211,0.289327442646026611,-0.176164790987968445,0.245604887604713440
0.050011418759822845,-0.043644875288009644,0.066374965012073517,-0.050892349332571030,-0.277471959590911865,0.044753666967153549,-0.238436877727508545,-0.100580908358097076,0.200354143977165222,0.166980594396591187,0.097690351307392120,-0.228797405958175659,-0.056464638561010361,0.324750989675521851,-0.030984085053205490,0.158328980207443237,-0.014098086394369602,-0.203861832618713379,0.118236944079399109,-0.095273599028587341,0.261770188808441162,0.396776169538497925,-0.010245873592793941,0.108158387243747711,-0.279600828886032104,-0.150507718324661255,0.030520455911755562,-0.173247441649436951,0.183367237448692322,-0.423129558563232422,-0.235484108328819275,-0.094997256994247437
0.152887180447578430,0.259533315896987915,0.095637053251266479,0.015543643385171890,0.122465252876281738,-0.306005418300628662,-0.086158283054828644,-0.180706351995468140,0.054148856550455093,0.272623032331466675,-0.172850802540779114,-0.012802318669855595,0.205390959978103638,-0.178464293479919434,-0.226345211267471313,-0.208871200680732727,0.370452105998992920,0.007629910483956337,-0.029493944719433784,0.131453350186347961,0.092183269560337067,0.140822604298591614,-0.021157708019018173,0.201144516468048096,0.118386052548885345,0.227857425808906555,-0.337622910737991333,-0.152577534317970276,-0.156737908720970154,-0.131728515028953552,0.280766159296035767,-0.121051684021949768
0.084113650023937225,-0.189049050211906433,-0.000031781848520041,-0.104860141873359680,-0.176725491881370544,0.019130993634462357,0.137237370014190674,0.170818716287612915,0.249683871865272522,0.000373372895410284,-0.119017630815505981,0.074547894299030304,0.017538966611027718,-0.031598236411809921,-0.158695802092552185,-0.045617919415235519,-0.054870724678039551,-0.133581966161727905,0.350413650274276733,0.131251841783523560,0.291755914688110352,0.087468348443508148,0.083193905651569366,-0.107023075222969055,0.449003547430038452,0.271235972642898560,0.243110895156860352,0.019034640863537788,0.055210489779710770,-0.246495559811592102,-0.204866811633110046,-0.075796701014041901
-0.131691768765449524,-0.242055222392082214,0.227816954255104065,-0.142953187227249146,0.208581447601318359,0.109335206449031830,0.110812969505786896,0.128995954990386963,-0.222513824701309204,0.087891474366188049,0.195463359355926514,0.007885054685175419,-0.336045533418655396,-0.136830627918243408,0.124014094471931458,-0.246793597936630249,0.219579562544822693,0.054016038775444031,0.136545643210411072,-0.094425752758979797,0.279122918844223022,0.109842628240585327,0.202250406146049500,0.075846835970878601,0.278869003057479858,0.319410622119903564,0.292501300573348999,-0.089302480220794678,0.152947023510932922,-0.332827597856521606,0.038202594965696335,0.177275151014328003
0.242999956011772156,-0.124254643917083740,-0.241928398609161377,-0.133916601538658142,0.139431133866310120,0.174444884061813354,0.086239904165267944,0.152964189648628235,0.147672072052955627,0.422997206449508667,-0.037223126739263535,-0.066957183182239532,0.167030304670333862,-0.107008710503578186,0.234303981065750122,0.251862376928329468,-0.018072219565510750,0.491211503744125366,-0.024057714268565178,0.024393908679485321,0.118190541863441467,-0.385902225971221924,-0.096933960914611816,0.171376928687095642,-0.097248286008834839,0.168987408280372620,-0.018477747216820717,-0.020236084237694740,-0.199159592390060425,0.009566566906869411,0.131618142127990723,0.112188465893268585
-0.152623459696769714,0.113217420876026154,0.148613214492797852,0.082637593150138855,-0.149020209908485413,0.255976170301437378,-0.198922127485275269,-0.251307934522628784,-0.351250767707824707,0.017241712659597397,-0.229016438126564026,-0.094488121569156647,-0.170109421014785767,0.261891782283782959,-0.123871900141239166,0.114768691360950470,0.003259905846789479,-0.210868209600448608,0.204589277505874634,-0.039846785366535187,0.174468412995338440,0.428935796022415161,-0.233627587556838989,0.227858319878578186,0.224269643425941467,0.101793475449085236,0.346201300621032715,-0.125233426690101624,0.287970781326293945,0.094497881829738617,0.236208021640777588,0.178569927811622620
-0.181103542447090149,0.432578861713409424,0.111041545867919922,-0.099235109984874725,0.253199547529220581,0.358260065317153931,-0.127724200487136841,-0.000670958310365677,0.027544856071472168,-0.448437482118606567,-0.103563390672206879,0.215943858027458191,0.285657078027725220,-0.108641974627971649,0.109640702605247498,-0.275988221168518066,-0.500916898250579834,0.345916986465454102,0.235342189669609070,0.033271849155426025,-0.327767580747604370,-0.247902825474739075,-0.138461425900459290,0.060002211481332779,0.301127761602401733,-0.432378828525543213,0.280632585287094116,-0.060028363019227982,0.102529868483543396,-0.057164758443832397,0.131956741213798523,0.378481626510620117
0.424302279949188232,-0.011228994466364384,0.041212230920791626,-0.182763367891311646,-0.022424362599849701,-0.334915757179260254,0.029462873935699463,-0.143514156341552734,-0.041464369744062424,0.003832594491541386,-0.202878102660179138,-0.190707713365554810,0.121717303991317749,0.144318193197250366,-0.189140886068344116,-0.259660929441452026,0.119997039437294006,0.347906112670898438,-0.179854661226272583,-0.094020120799541473,0.047642216086387634,0.136671274900436401,-0.267278432846069336,-0.138292208313941956,0.098747141659259796,-0.060742173343896866,0.090525500476360321,-0.168306514620780945,-0.345697194337844849,-0.215558588504791260,-0.184738725423812866,0.048940371721982956
-0.061726644635200500,0.288424640893936157,0.122826762497425079,-0.041400644928216934,0.045927505940198898,0.236748918890953064,0.146298900246620178,0.263272464275360107,-0.117810301482677460,0.386959552764892578,0.098831273615360260,-0.145072922110557556,0.106240198016166687,-0.204853430390357971,0.056550163775682449,0.273891776800155640,-0.241821706295013428,0.290901362895965576,0.144678413867950439,-0.253508746623992920,-0.182756006717681885,-0.251903653144836426,0.084904864430427551,0.163385167717933655,-0.232698336243629456,-0.241355836391448975,0.126795932650566101,-0.073327757418155670,-0.024550894275307655,-0.012032427825033665,0.194286063313484192,0.007485315669327974
-0.111700907349586487,0.062573105096817017,-0.161913931369781494,-0.011200579814612865,-0.028877057135105133,0.084838353097438812,0.167656525969505310,0.065080903470516205,0.113095149397850037,0.018956037238240242,-0.008972709067165852,-0.070595815777778625,-0.185256823897361755,0.177364438772201538,0.043513346463441849,0.120005995035171509,0.130906328558921814,0.182706370949745178,-0.055038139224052429,-0.163301333785057068,0.163704589009284973,0.049024991691112518,0.223846480250358582,0.128685012459754944,0.084772057831287384,0.117819562554359436,0.196461170911788940,0.192119419574737549,0.088497430086135864,-0.194663032889366150,-0.234101921319961548,0.142595171928405762
-0.101498037576675415,-0.085294604301452637,0.002775458851829171,-0.012253798544406891,-0.098377943038940430,0.123993247747421265,0.193739935755729675,-0.053553383797407150,-0.194345355033874512,0.073971696197986603,0.213499799370765686,0.177984476089477539,0.136933356523513794,-0.230592384934425354,-0.052395917475223541,-0.035505652427673340,-0.024007389321923256,0.353767663240432739,0.099609814584255219,-0.143815875053405762,0.274225592613220215,-0.244222581386566162,-0.056470382958650589,-0.091542139649391174,0.256117790937423706,0.051206570118665695,-0.142420813441276550,-0.127593576908111572,-0.221838220953941345,-0.043596841394901276,0.168989837169647217,-0.001733301789499819
0.078040301799774170,-0.233643144369125366,-0.112236246466636658,-0.154344305396080017,0.200972512364387512,-0.049290869385004044,-0.185032680630683899,-0.039776619523763657,0.084448754787445068,-0.154699251055717468,-0.035796042531728745,-0.183479443192481995,-0.001692559570074081,0.005066862795501947,-0.138750389218330383,0.114634297788143158,0.070495620369911194,-0.038663592189550400,-0.204130485653877258,-0.076590538024902344,0.080018073320388794,-0.027983292937278748,0.213618159294128418,-0.094345159828662872,-0.059892844408750534,-0.122473038733005524,0.099483661353588104,0.190344959497451782,0.012559042312204838,0.126207321882247925,-0.012834750115871429,0.140225157141685486
0.171781212091445923,0.121328547596931458,0.337095022201538086,0.084997259080410004,-0.044035941362380981,-0.048460859805345535,-0.033144511282444000,0.082841709256172180,0.214029893279075623,0.247673302888870239,0.046545535326004028,0.145980119705200195,-0.026438871398568153,0.163654595613479614,0.264456927776336670,-0.165634319186210632,0.186057955026626587,-0.158938169479370117,0.282058566808700562,-0.063194826245307922,-0.017930109053850174,0.305031359195709229,0.172188609838485718,0.159490749239921570,-0.094574593007564545,0.286723017692565918,0.194443255662918091,0.036976594477891922,0.275692582130432129,0.019552638754248619,-0.029748523607850075,-0.196476474404335022
0.327934771776199341,0.237518325448036194,-0.066360734403133392,-0.137972280383110046,-0.183220967650413513,0.122872687876224518,0.008605078794062138,0.083992466330528259,0.071760393679141998,0.233770743012428284,-0.265734642744064331,0.130889475345611572,-0.234361499547958374,0.049546431750059128,-0.174961954355239868,-0.049089495092630386,0.158453613519668579,-0.161642938852310181,-0.039061147719621658,0.042340483516454697,0.017924904823303223,0.281075119972229004,-0.108313627541065216,0.121539011597633362,0.339270412921905518,0.108691342175006866,-0.012880045920610428,-0.011463672854006290,-0.147181883454322815,0.224286779761314392,0.055158223956823349,0.016731172800064087
-0.053014624863862991,0.357073664665222168,0.062521725893020630,-0.137691706418991089,0.178422644734382629,0.475206613540649414,0.239943727850914001,0.041225846856832504,0.032571371644735336,-0.131962612271308899,-0.143819704651832581,-0.070537462830543518,0.186551496386528015,0.039263751357793808,-0.079754620790481567,-0.189978778362274170,0.027322381734848022,0.064811699092388153,-0.038137272000312805,-0.095161542296409607,-0.306689590215682983,0.231944948434829712,-0.374936103820800781,-0.135386601090431213,0.127334281802177429,-0.362510919570922852,0.391121864318847656,0.124254204332828522,0.319531410932540894,0.154251202940940857,0.026529382914304733,0.011539705097675323
0.006511502899229527,0.093823410570621490,0.222841411828994751,0.080984599888324738,-0.102965779602527618,0.020655561238527298,-0.214497298002243042,-0.182150244712829590,0.243476957082748413,-0.132196769118309021,0.175928488373756409,0.157079815864562988,-0.074308417737483978,0.058328472077846527,-0.264327019453048706,-0.144036576151847839,0.364341795444488525,-0.322536200284957886,-0.010090224444866180,-0.202228054404258728,0.175153151154518127,0.106846615672111511,-0.127896413207054138,0.031428594142198563,-0.260895431041717529,-0.119418606162071228,-0.088698908686637878,0.199974089860916138,-0.216254547238349915,0.268176674842834473,-0.057873763144016266,-0.128782927989959717
0.297293871641159058,0.057283077389001846,-0.217652708292007446,-0.075183257460594177,0.123007789254188538,-0.172225102782249451,-0.009751607663929462,-0.157078608870506287,0.244335576891899109,-0.156581789255142212,-0.192556291818618774,-0.109511479735374451,0.030067818239331245,0.096572093665599823,-0.078706882894039154,0.254644960165023804,0.071743875741958618,-0.132165655493736267,-0.430428713560104370,-0.143671706318855286,0.066111735999584198,-0.340236872434616089,0.036128174513578415,0.011373050510883331,-0.122444637119770050,-0.114877939224243164,-0.400959402322769165,-0.123601831495761871,-0.189028307795524597,0.193279072642326355,0.305791735649108887,0.415332943201065063
-0.184015259146690369,-0.091117255389690399,0.281466990709304810,-0.146293401718139648,0.046289205551147461,0.239593997597694397,0.020552588626742363,0.208413466811180115,-0.151744872331619263,0.126375481486320496,-0.143104046583175659,0.176053032279014587,-0.198151379823684692,-0.250644534826278687,0.090679742395877838,-0.246170327067375183,0.006279066205024719,-0.023235466331243515,-0.116011738777160645,0.184645742177963257,0.091822072863578796,-0.025795824825763702,0.251482009887695312,0.016669511795043945,0.026544522494077682,0.091975025832653046,-0.322076708078384399,0.023905897513031960,-0.224683284759521484,-0.129188269376754761,0.058458309620618820,0.142950072884559631
-0.089588701725006104,-0.135508388280868530,0.516856789588928223,0.044462874531745911,0.136133611202239990,0.155635058879852295,0.102787822484970093,0.319010615348815918,0.042219914495944977,-0.330761760473251343,0.038876179605722427,0.244622036814689636,-0.169864475727081299,-0.083335883915424347,-0.113409675657749176,0.010932168923318386,-0.231376767158508301,-0.173335239291191101,0.342706948518753052,-0.082876585423946381,-0.439251601696014404,-0.015593077987432480,0.448949068784713745,0.010498971678316593,0.619504511356353760,0.371970891952514648,0.153171479701995850,0.032540202140808105,-0.274096906185150146,-0.052593994885683060,0.389571756124496460,-0.085048101842403412
-0.012855723500251770,0.147927358746528625,-0.101281002163887024,0.083025902509689331,-0.007889466360211372,0.032404989004135132,0.243508964776992798,0.176351413130760193,0.013228864409029484,0.075419761240482330,0.055105566978454590,-0.127498701214790344,-0.230349391698837280,0.203226491808891296,-0.028160305693745613,-0.058868888765573502,-0.171202197670936584,0.397291332483291626,-0.178022161126136780,0.164613440632820129,-0.243955761194229126,0.080996096134185791,-0.165498703718185425,-0.208304643630981445,0.224366232752799988,-0.008642727509140968,0.060654226690530777,0.040508195757865906,-0.042768910527229309,0.138975128531455994,0.247752457857131958,0.305870831012725830
0.381169289350509644,-0.054566983133554459,0.018943976610898972,-0.154772117733955383,0.009666713885962963,0.273073494434356689,0.226024284958839417,0.105560407042503357,-0.086594410240650177,-0.227659344673156738,0.230983346700668335,0.052120372653007507,-0.095753602683544159,0.216204375028610229,0.220848470926284790,-0.021536035463213921,-0.189033478498458862,0.167026206851005554,-0.124639652669429779,0.265980839729309082,-0.271207094192504883,-0.330833315849304199,0.213183313608169556,0.077338486909866333,0.324878722429275513,0.039345443248748779,0.175373733043670654,-0.181716248393058777,0.060221951454877853,-0.155737400054931641,-0.266651183366775513,-0.056681472808122635
0.125940248370170593,0.099771969020366669,0.152723118662834167,-0.041119161993265152,0.175660297274589539,-0.149150729179382324,-0.134846106171607971,0.111293017864227295,-0.053958147764205933,-0.101522810757160187,-0.054920617491006851,0.023281812667846680,-0.221768125891685486,0.049417663365602493,-0.370026946067810059,-0.121876351535320282,-0.170082569122314453,-0.246824517846107483,0.340402096509933472,-0.147013470530509949,0.131633490324020386,0.167430311441421509,-0.101592645049095154,-0.175413325428962708,-0.038831315934658051,0.316128522157669067,0.295157432556152344,-0.013960277661681175,0.152564361691474915,-0.276211589574813843,-0.198306173086166382,-0.089385002851486206
-0.162593796849250793,-0.181357100605964661,0.034452438354492188,0.075582899153232574,0.030518654733896255,0.164523467421531677,0.205693885684013367,0.205858498811721802,0.096047274768352509,0.224253818392753601,0.050351686775684357,0.072637647390365601,0.069294705986976624,-0.153750285506248474,-0.075778238475322723,0.073316894471645355,0.305773556232452393,0.146133467555046082,-0.226320236921310425,0.084986217319965363,0.283385962247848511,0.193327337503433228,-0.077448137104511261,0.030160872265696526,-0.301064252853393555,-0.376528382301330566,-0.230203032493591309,0.046111445873975754,0.196986123919487000,0.313880801200866699,0.210329174995422363,0.262888252735137939
-0.235771253705024719,0.250504851341247559,-0.273445129394531250,-0.096288591623306274,0.030465245246887207,-0.304845362901687622,0.013531457632780075,-0.094392828643321991,0.189774647355079651,-0.337597727775573730,0.116284869611263275,-0.053137131035327911,0.340480148792266846,0.022760547697544098,0.063371866941452026,-0.031908109784126282,-0.172099024057388306,0.432601749897003174,0.299563407897949219,-0.083962984383106232,-0.011793509125709534,-0.128261566162109375,0.296488016843795776,-0.196297332644462585,0.101329952478408813,0.175917461514472961,0.383358269929885864,0.150692969560623169,0.139197543263435364,-0.379433214664459229,-0.136059403419494629,-0.286686211824417114
0.181728288531303406,0.309414774179458618,-0.081007361412048340,-0.097639419138431549,0.248228818178176880,-0.225942060351371765,0.029393108561635017,0.148913294076919556,-0.071453951299190521,0.018753718584775925,0.041657336056232452,-0.006377314683049917,-0.201302632689476013,0.285289198160171509,0.210369110107421875,-0.165532559156417847,-0.050727177411317825,0.156692117452621460,0.038708146661520004,-0.088747486472129822,0.221678569912910461,0.281114995479583740,0.212112233042716980,0.098184943199157715,0.033741939812898636,0.010329898446798325,-0.089271001517772675,-0.134900406002998352,-0.207581222057342529,-0.134335398674011230,0.260285705327987671,0.212896689772605896
-0.040349178016185760,0.295431077480316162,0.242575719952583313,-0.086603999137878418,-0.001261194702237844,0.193588972091674805,0.187987625598907471,0.382918059825897217,0.369567304849624634,-0.098773472011089325,-0.221027597784996033,-0.167986497282981873,0.123468600213527679,0.131962716579437256,0.000201136339455843,0.014658035710453987,-0.319738000631332397,-0.162158519029617310,-0.138990253210067749,-0.080195695161819458,-0.087782844901084900,-0.134059056639671326,0.151122540235519409,0.169664561748504639,0.064037874341011047,0.152816891670227051,-0.283191263675689697,0.127987965941429138,0.192965552210807800,-0.092903688549995422,-0.253601163625717163,0.030935330316424370
-0.252429008483886719,0.023940034210681915,0.194075256586074829,-0.211738064885139465,0.140637367963790894,-0.187908947467803955,-0.333120495080947876,-0.213611945509910583,-0.266919702291488647,0.126022517681121826,-0.167900338768959045,-0.091520003974437714,-0.100457258522510529,-0.162541210651397705,0.058918781578540802,-0.013702055439352989,0.392886132001876831,-0.126380488276481628,0.130336657166481018,-0.198169246315956116,0.337090581655502319,0.132152497768402100,0.365167915821075439,-0.203244477510452271,0.054444774985313416,0.161604076623916626,-0.146489605307579041,-0.220478400588035583,-0.284560948610305786,-0.190764605998992920,0.161516025662422180,-0.072647660970687866
0.041987370699644089,-0.157697185873985291,0.264320105314254761,0.155574247241020203,-0.016949780285358429,0.242359384894371033,-0.176988452672958374,-0.091415509581565857,0.015917712822556496,0.134024843573570251,-0.028776591643691063,0.026541143655776978,0.252854287624359131,-0.140985816717147827,-0.036231908947229385,0.026605483144521713,0.159588709473609924,-0.207545578479766846,-0.215583175420761108,-0.229395106434822083,0.075829669833183289,0.096728354692459106,-0.105331845581531525,0.019713003188371658,-0.024374952539801598,0.042144667357206345,-0.005997016560286283,0.029564216732978821,0.181056022644042969,-0.110372707247734070,-0.187246054410934448,0.068261407315731049
-0.144454315304756165,0.351916551589965820,0.138960093259811401,-0.136061459779739380,0.203174859285354614,-0.132547289133071899,-0.055779613554477692,-0.080703265964984894,0.159759208559989929,0.382788270711898804,0.087039567530155182,-0.046312335878610611,0.090389728546142578,0.128081575036048889,0.055679690092802048,0.236974909901618958,0.003666304517537355,-0.135176405310630798,0.270025074481964111,-0.278893142938613892,0.057573545724153519,0.032437302172183990,0.122032381594181061,0.038089770823717117,-0.343941628932952881,0.027874460443854332,0.281290113925933838,0.090126998722553253,0.304885089397430420,-0.027722829952836037,0.000163261778652668,-0.254761487245559692
-0.079687573015689850,-0.279734432697296143,-0.178927361965179443,-0.113554969429969788,-0.020213378593325615,0.259039670228958130,0.174665287137031555,0.046255338937044144,-0.277558147907257080,0.037855975329875946,0.155944913625717163,0.014288499020040035,-0.215688541531562805,0.011114487424492836,0.013421484269201756,0.250465720891952515,-0.256924867630004883,-0.202636986970901489,0.130754396319389343,0.066686026751995087,-0.068908438086509705,0.009326827712357044,-0.284536272287368774,-0.151844352483749390,-0.051566474139690399,-0.093792647123336792,-0.002752024214714766,-0.194345504045486450,0.111019566655158997,0.242845773696899414,-0.179209426045417786,0.373660206794738770
0.223502144217491150,-0.305516600608825684,0.148483768105506897,-0.222434997558593750,0.177189469337463379,-0.133722186088562012,0.029970632866024971,0.136077672243118286,0.120295830070972443,0.127874851226806641,-0.174140155315399170,0.108093328773975372,-0.369422286748886108,-0.132869586348533630,0.075598970055580139,-0.367031127214431763,-0.085121370851993561,0.051142636686563492,0.112169504165649414,0.108745582401752472,-0.141515523195266724,-0.217005088925361633,0.292382091283798218,-0.071810483932495117,0.505267858505249023,0.350471228361129761,0.070088475942611694,-0.140366882085800171,-0.085249625146389008,-0.017691522836685181,0.082981489598751068,-0.396037220954895020
0.120495505630970001,-0.071839876472949982,0.160454317927360535,0.058874696493148804,0.107413269579410553,-0.200506120920181274,-0.202864661812782288,0.317780733108520508,0.102857381105422974,0.025136109441518784,0.200430303812026978,0.125024914741516113,0.413486719131469727,-0.068449944257736206,-0.053456220775842667,0.251433998346328735,-0.134682312607765198,0.167807549238204956,-0.098844453692436218,-0.100149706006050110,-0.208012163639068604,-0.074845388531684875,0.340212613344192505,-0.220388591289520264,0.134541094303131104,0.299887090921401978,-0.052733730524778366,0.181288510560989380,-0.052091415971517563,-0.090736672282218933,0.035351462662220001,-0.442592024803161621
0.043132632970809937,-0.219961121678352356,0.157141476869583130,-0.218993514776229858,0.041150495409965515,0.249702990055084229,-0.200402468442916870,0.090534992516040802,-0.033287260681390762,-0.205497130751609802,-0.023359389975667000,0.055959470570087433,0.108210764825344086,0.228317022323608398,0.251447677612304688,0.258217841386795044,0.160820409655570984,0.290604293346405029,-0.150695934891700745,0.289040267467498779,0.151161223649978638,0.135505616664886475,-0.282118827104568481,-0.006921098567545414,0.260728001594543457,-0.172134578227996826,0.243121579289436340,0.150639012455940247,0.239968031644821167,0.249229252338409424,0.166392922401428223,0.335334300994873047
-0.142172887921333313,-0.103097051382064819,-0.212188825011253357,0.087095096707344055,0.255364239215850830,-0.075686387717723846,-0.103096194565296173,-0.184714838862419128,0.424518555402755737,0.195812389254570007,-0.148154243826866150,-0.097825862467288971,0.121485449373722076,-0.070741206407546997,0.314237803220748901,0.229970261454582214,-0.423448562622070312,0.075642831623554230,-0.198721960186958313,0.046627815812826157,-0.416250169277191162,-0.373829215764999390,0.148392066359519958,-0.199770569801330566,-0.109965354204177856,-0.067057900130748749,0.128998473286628723,-0.209195405244827271,-0.138879865407943726,0.432031035423278809,0.297501921653747559,-0.210348337888717651
-0.010641010478138924,0.455860584974288940,0.198000892996788025,0.147194400429725647,-0.124455511569976807,-0.082686938345432281,-0.153620272874832153,-0.139109924435615540,0.387094378471374512,0.236150071024894714,-0.340090185403823853,0.237004563212394714,0.423977941274642944,-0.037306301295757294,-0.026431927457451820,-0.050162985920906067,-0.068745844066143036,-0.193578690290451050,-0.078106351196765900,0.028421329334378242,-0.086288616061210632,-0.208486452698707581,0.055114533752202988,0.078387498855590820,-0.179113253951072693,0.144188940525054932,-0.281702667474746704,-0.064612336456775665,0.079345509409904480,-0.067145615816116333,0.243802681565284729,-0.107888914644718170
-0.031510338187217712,0.029424397274851799,-0.116149112582206726,-0.012952896766364574,-0.077892743051052094,0.161756813526153564,0.137469664216041565,-0.133150339126586914,0.089754462242126465,-0.236018449068069458,-0.202931374311447144,-0.061602272093296051,-0.041729532182216644,-0.019734663888812065,-0.340178728103637695,-0.248726591467857361,-0.272849500179290771,0.124253354966640472,0.207543745636940002,-0.232860490679740906,-0.273177713155746460,0.063068047165870667,-0.167211666703224182,-0.036576397716999054,0.231580704450607300,-0.183190718293190002,0.126745983958244324,0.102509550750255585,0.237398251891136169,0.274826109409332275,0.025927176699042320,0.277891188859939575
-0.182764872908592224,0.260606497526168823,-0.224421188235282898,0.020689887925982475,-0.257912456989288330,0.222048163414001465,0.208360522985458374,-0.222858801484107971,-0.281523376703262329,0.070295654237270355,-0.010223903693258762,-0.169699147343635559,-0.096434727311134338,0.101202346384525299,-0.233992502093315125,-0.137521043419837952,-0.126355782151222229,-0.088884182274341583,-0.121297568082809448,-0.127629488706588745,-0.169094815850257874,0.078649021685123444,0.073632687330245972,0.067725449800491333,-0.082025498151779175,-0.158865198493003845,0.254151403903961182,-0.075914427638053894,-0.112218990921974182,0.218984231352806091,0.295865952968597412,0.338184535503387451
0.014979233965277672,0.285123109817504883,0.376940399408340454,-0.009324330836534500,0.152236774563789368,-0.092470362782478333,-0.024049626663327217,-0.188393011689186096,0.002017096849158406,0.139777883887290955,-0.302544891834259033,-0.042469203472137451,0.291645944118499756,-0.273788183927536011,0.183351129293441772,-0.162717923521995544,0.048248589038848877,-0.046861957758665085,-0.169210404157638550,0.061326514929533005,-0.205232024192810059,0.195973694324493408,0.376594603061676025,-0.211452722549438477,-0.058425106108188629,0.118432261049747467,0.032444614917039871,-0.127861723303794861,0.096776306629180908,-0.174067094922065735,0.503021597862243652,-0.127652198076248169
0.057456646114587784,0.074626140296459198,-0.195469468832015991,0.156580075621604919,0.143219158053398132,0.138066306710243225,0.144780382513999939,0.133605912327766418,-0.104393750429153442,-0.048005986958742142,-0.022064002230763435,-0.261007666587829590,-0.013964837417006493,-0.021803317591547966,0.211096867918968201,0.019869402050971985,0.147078663110733032,0.239403322339057922,0.130560293793678284,0.276906400918960571,0.253296315670013428,-0.249713733792304993,-0.025692414492368698,0.180441752076148987,-0.106485344469547272,0.164334774017333984,-0.010008727200329304,-0.001756763784214854,-0.032536901533603668,0.078026227653026581,-0.238227486610412598,0.201363265514373779
-0.134285748004913330,-0.207257241010665894,0.041847206652164459,0.184344738721847534,0.052465748041868210,-0.281497120857238770,0.053552761673927307,-0.006337200291454792,-0.083564192056655884,-0.083845674991607666,0.059725768864154816,-0.164371922612190247,-0.099278368055820465,0.015283482149243355,0.081531710922718048,0.115207791328430176,0.207292973995208740,0.109117440879344940,0.236991927027702332,0.204067662358283997,0.372154414653778076,0.222112655639648438,0.123188935220241547,-0.217618718743324280,-0.016826346516609192,0.359582394361495972,-0.230602487921714783,0.021527020260691643,0.197847485542297363,-0.123071625828742981,0.063794098794460297,-0.100149944424629211
0.044430036097764969,0.079275324940681458,0.143319651484489441,-0.207028195261955261,0.241843089461326599,0.175702616572380066,0.124511756002902985,0.146397441625595093,0.022565023973584175,0.309925198554992676,0.038450289517641068,-0.220261991024017334,0.182574972510337830,-0.292607247829437256,0.077240139245986938,0.045114949345588684,0.177412346005439758,0.033366087824106216,0.202209562063217163,-0.153893515467643738,0.387197047472000122,-0.186830937862396240,0.142347171902656555,-0.199914813041687012,0.063160590827465057,-0.116356641054153442,-0.033749680966138840,0.108189284801483154,0.008242204785346985,0.106624089181423187,-0.162912771105766296,0.210052132606506348
0.312465727329254150,0.176373824477195740,0.133028030395507812,-0.083270579576492310,-0.070698142051696777,-0.294790834188461304,0.112718537449836731,-0.033659428358078003,0.154438123106956482,0.272768318653106689,-0.074858337640762329,-0.185920283198356628,-0.288561791181564331,0.233284831047058105,0.166575774550437927,-0.167105123400688171,-0.003184758825227618,-0.137106806039810181,0.013654815033078194,-0.059560380876064301,-0.117972880601882935,0.178584545850753784,0.161715015769004822,-0.192572161555290222,0.066874690353870392,0.213722169399261475,0.081169702112674713,0.045087177306413651,-0.141580998897552490,-0.230788633227348328,0.191263839602470398,0.099566541612148285
0.063556447625160217,0.206333607435226440,0.147356808185577393,-0.218795657157897949,0.053396597504615784,0.048531685024499893,0.203021854162216187,-0.188004136085510254,0.019748929888010025,0.138818144798278809,0.017546638846397400,-0.184022992849349976,0.236261874437332153,0.079224735498428345,-0.076444238424301147,0.101897887885570526,-0.022184168919920921,-0.170843854546546936,0.058891493827104568,0.122765928506851196,0.092303872108459473,0.027377979829907417,0.152268409729003906,0.167551815509796143,-0.279186218976974487,-0.188613310456275940,-0.101887054741382599,0.200474232435226440,-0.175790101289749146,-0.053923428058624268,-0.127995640039443970,0.076906211674213409
0.035569574683904648,0.262324005365371704,-0.002287058858200908,-0.173766538500785828,-0.039703834801912308,0.083493933081626892,0.150730013847351074,0.057997208088636398,-0.079090744256973267,0.197415962815284729,-0.164693817496299744,-0.092914111912250519,0.335638433694839478,-0.248902454972267151,-0.062472157180309296,0.274745702743530273,0.098170652985572815,-0.029924329370260239,-0.302980929613113403,-0.016370017081499100,0.193294569849967957,-0.036100562661886215,0.415961951017379761,-0.092183813452720642,-0.110307157039642334,-0.032494850456714630,-0.157239899039268494,-0.034512486308813095,-0.171475172042846680,0.234176754951477051,-0.131989106535911560,0.026582980528473854
0.061447553336620331,-0.212564259767532349,-0.167148873209953308,-0.218853726983070374,-0.209937989711761475,0.152828231453895569,0.304749697446823120,0.122997812926769257,-0.011527827940881252,0.269911766052246094,0.012876197695732117,-0.167306169867515564,0.103387549519538879,-0.206517994403839111,0.124594762921333313,0.255657583475112915,0.321507185697555542,-0.259587585926055908,-0.027233490720391273,0.240783587098121643,0.233428880572319031,0.201801940798759460,-0.042447891086339951,-0.214539438486099243,-0.272878468036651611,-0.119392253458499908,0.133847609162330627,0.211279422044754028,-0.228958442807197571,0.115977473556995392,-0.089925810694694519,-0.033612128347158432
0.361614644527435303,-0.064466536045074463,0.278270930051803589,0.109286285936832428,0.102418392896652222,-0.333601266145706177,0.181942611932754517,0.044967554509639740,0.323144078254699707,0.021533217281103134,0.139746084809303284,0.036018181592226028,0.139458119869232178,0.209471002221107483,-0.191248506307601929,-0.041355699300765991,0.169684588909149170,-0.145837888121604919,0.347829997539520264,-0.149034932255744934,-0.148132219910621643,0.140176206827163696,-0.186168834567070007,-0.000220351255848072,0.003875572932884097,0.143571332097053528,-0.058214299380779266,-0.163915827870368958,-0.044652950018644333,0.302570253610610962,0.163212493062019348,-0.004289943724870682
-0.108374305069446564,0.258744776248931885,-0.105828240513801575,-0.080745868384838104,-0.193933263421058655,-0.268606245517730713,0.123265840113162994,-0.118385300040245056,-0.251945465803146362,0.176820844411849976,0.083784103393554688,0.061999998986721039,0.120411939918994904,0.098136514425277710,0.069534622132778168,0.164083376526832581,0.086912430822849274,0.008274716325104237,0.019000973552465439,-0.067948199808597565,-0.077447295188903809,0.252031058073043823,-0.121322415769100189,0.101669736206531525,0.040350578725337982,-0.235619261860847473,0.310384809970855713,-0.118328914046287537,0.239640235900878906,0.015968604013323784,0.041634462773799896,0.001263480167835951
0.150433212518692017,-0.177117154002189636,0.156930178403854370,-0.200753390789031982,-0.055511850863695145,0.290720552206039429,-0.020668579265475273,0.275957584381103516,0.166340723633766174,0.143279671669006348,0.112695857882499695,-0.049824189394712448,0.339039534330368042,-0.219054356217384338,0.075443580746650696,0.031452819705009460,-0.045876465737819672,0.310190379619598389,-0.102770507335662842,0.089214429259300232,-0.213815510272979736,-0.336881816387176514,0.392679929733276367,0.077991798520088196,-0.263587474822998047,-0.234042003750801086,-0.202747479081153870,-0.175427094101905823,0.189067497849464417,0.130241647362709045,-0.214003220200538635,-0.277135998010635376
0.114399418234825134,0.320468574762344360,-0.262872159481048584,-0.010908573865890503,0.285939395427703857,0.067958161234855652,0.185745030641555786,0.131681755185127258,0.060146648436784744,-0.244983598589897156,0.144317820668220520,-0.191457137465476990,-0.217244237661361694,0.326837450265884399,0.006591940298676491,-0.123736828565597534,-0.301653176546096802,0.334686249494552612,0.580619990825653076,-0.069660469889640808,0.023416930809617043,-0.052301924675703049,0.128423944115638733,0.161908864974975586,0.246511787176132202,0.069657780230045319,0.025090286508202553,-0.146101832389831543,0.268866240978240967,-0.346966803073883057,-0.115564793348312378,-0.022328983992338181
-0.068429715931415558,0.122052490711212158,0.264499068260192871,-0.090773142874240875,-0.003244491526857018,-0.396718680858612061,-0.476407587528228760,0.193415895104408264,0.159613952040672302,-0.121751494705677032,-0.201750621199607849,0.030426258221268654,0.169091865420341492,0.126242458820343018,-0.116920970380306244,-0.087598569691181183,-0.138198152184486389,-0.177738413214683533,0.118072599172592163,-0.289233773946762085,0.109919689595699310,0.013710073195397854,0.146850973367691040,0.053573358803987503,0.083124138414859772,0.034136593341827393,0.008428481407463551,-0.164428353309631348,0.031496204435825348,-0.067235156893730164,0.152873575687408447,-0.278914809226989746
-0.150701016187667847,0.242128565907478333,0.240282878279685974,0.061277080327272415,0.015888897702097893,-0.199242308735847473,-0.032673943787813187,0.132456183433532715,-0.082815825939178467,0.180240973830223083,0.138872787356376648,0.067411258816719055,0.260554283857345581,-0.006290894001722336,0.054676633328199387,0.001699398737400770,0.021020786836743355,-0.216384246945381165,0.124085649847984314,-0.341712087392807007,-0.139498829841613770,0.198170930147171021,0.152952685952186584,0.183535322546958923,-0.138135746121406555,0.209413483738899231,-0.038781415671110153,0.088841706514358521,-0.039579737931489944,0.207574948668479919,0.302631229162216187,0.216611549258232117
0.164820894598960876,-0.036994982510805130,-0.120640397071838379,0.080839067697525024,0.102000743150711060,-0.148454844951629639,-0.095628768205642700,-0.164719119668006897,0.373484522104263306,0.208247750997543335,-0.178821459412574768,-0.153687641024589539,0.294018626213073730,-0.092560775578022003,0.077014431357383728,0.397837460041046143,-0.081501260399818420,0.019812224432826042,-0.022209795191884041,0.116388767957687378,-0.094518758356571198,-0.235040634870529175,0.263871729373931885,-0.085730791091918945,-0.214256763458251953,-0.114904239773750305,0.085566006600856781,-0.018871547654271126,-0.199299931526184082,0.075528025627136230,-0.227419421076774597,-0.357551395893096924
0.245629593729972839,0.149861991405487061,-0.222218185663223267,-0.175356909632682800,0.026719268411397934,-0.214135035872459412,0.125541910529136658,0.137575119733810425,0.225827857851982117,-0.234427452087402344,0.063635304570198059,-0.174111023545265198,-0.015217086300253868,-0.225029557943344116,-0.046252496540546417,0.211491927504539490,-0.018971532583236694,0.332760304212570190,0.171166241168975830,0.049534182995557785,0.164049595594406128,-0.124118454754352570,0.209234237670898438,-0.182961121201515198,0.359062820672988892,0.179142341017723083,-0.158632010221481323,-0.025182904675602913,-0.006294272840023041,0.245628848671913147,0.052233777940273285,0.136497437953948975
0.044228654354810715,0.139234423637390137,-0.179521113634109497,0.168795347213745117,0.008966118097305298,0.153250128030776978,-0.237129703164100647,0.218668773770332336,0.014804985374212265,-0.102844543755054474,-0.139865219593048096,0.094177678227424622,-0.206295788288116455,0.231323093175888062,-0.198536664247512817,-0.211347952485084534,0.077710457146167755,0.115600556135177612,-0.169078737497329712,0.261364936828613281,0.319888263940811157,-0.131891831755638123,0.185658037662506104,-0.127391070127487183,0.082100726664066315,0.278189152479171753,0.115015007555484772,-0.020927874371409416,0.090712174773216248,-0.312438696622848511,0.101803220808506012,0.246879145503044128
0.183142647147178650,-0.239483326673507690,0.043020274490118027,0.124793931841850281,0.079781450331211090,0.117669083178043365,-0.064047038555145264,0.022962275892496109,0.411175459623336792,0.021678373217582703,-0.188695624470710754,-0.126018151640892029,0.424342155456542969,0.113717421889305115,0.049882061779499054,0.166103631258010864,0.029628036543726921,-0.101252667605876923,0.078598015010356903,0.212692782282829285,-0.033748064190149307,0.220231205224990845,-0.128690034151077271,-0.009995358064770699,-0.262545645236968994,0.287633299827575684,-0.068331658840179443,-0.216394439339637756,0.418224573135375977,0.165570810437202454,-0.353637933731079102,-0.339386552572250366
0.324420154094696045,0.109238907694816589,-0.276828080415725708,0.159688532352447510,-0.099810518324375153,0.190407261252403259,0.117350623011589050,-0.073556102812290192,0.373156428337097168,0.233888134360313416,0.110971011221408844,-0.222845643758773804,0.247659832239151001,0.145891547203063965,0.341040760278701782,0.062216121703386307,0.042941913008689880,0.279988586902618408,-0.001655497355386615,0.114313572645187378,-0.253103822469711304,0.120158240199089050,-0.104324281215667725,-0.162409499287605286,-0.058209918439388275,0.149809598922729492,0.181258395314216614,-0.073842264711856842,-0.209351986646652222,0.318227887153625488,0.062731526792049408,-0.182036027312278748
-0.206115961074829102,-0.132800802588462830,0.139722228050231934,0.075278729200363159,-0.340599060058593750,0.079024307429790497,0.083274610340595245,-0.336041867733001709,-0.042803455144166946,-0.078309655189514160,-0.020981363952159882,0.178316652774810791,-0.190984711050987244,-0.080071344971656799,0.109316408634185791,0.237530156970024109,0.208010450005531311,0.025032283738255501,0.136699035763740540,0.098073683679103851,0.196471035480499268,0.273830145597457886,0.267874389886856079,-0.155215412378311157,0.027244327589869499,-0.064137943089008331,0.221956416964530945,0.206702366471290588,0.141910478472709656,0.057236142456531525,0.187090441584587097,0.305700093507766724
0.210106208920478821,-0.461649656295776367,-0.027373278513550758,-0.180828988552093506,-0.167647644877433777,0.048804800957441330,0.333931714296340942,0.079998053610324860,-0.116772323846817017,-0.203938573598861694,0.381685763597488403,0.139382943511009216,-0.087746784090995789,-0.255963206291198730,0.320629328489303589,-0.008136918768286705,0.048079799860715866,0.209172278642654419,-0.233964562416076660,0.307632118463516235,0.026336921378970146,-0.424696475267410278,0.232290938496589661,0.225911468267440796,0.152575343847274780,0.204680249094963074,0.077993549406528473,0.203908264636993408,0.020189169794321060,-0.226781800389289856,-0.369177699089050293,-0.000020815117750317
0.151618704199790955,-0.215652242302894592,-0.037467185407876968,-0.178519219160079956,-0.055293068289756775,-0.267625421285629272,-0.273881226778030396,-0.280317455530166626,-0.306728720664978027,-0.190409943461418152,0.185174450278282166,-0.178274229168891907,0.077760465443134308,0.062912024557590485,-0.046303775161504745,0.160429581999778748,0.244131967425346375,-0.102135248482227325,-0.231707304716110229,-0.032198391854763031,0.132215023040771484,-0.006945973262190819,0.010290063917636871,-0.062488172203302383,0.333183497190475464,0.113142728805541992,0.027305698022246361,-0.107320897281169891,0.004798519425094128,0.276704251766204834,0.119115240871906281,0.035827379673719406
-0.161719053983688354,0.212212592363357544,0.101207002997398376,-0.145618841052055359,-0.134001731872558594,-0.026187339797616005,-0.204902008175849915,0.039748083800077438,0.265904337167739868,0.198111817240715027,-0.292972028255462646,0.123631127178668976,-0.046808071434497833,0.246324315667152405,-0.580217719078063965,0.239236012101173401,0.228220313787460327,-0.154238387942314148,0.078692987561225891,-0.141065970063209534,-0.048406559973955154,-0.098677933216094971,-0.039490710943937302,-0.213111147284507751,0.218453943729400635,-0.020531484857201576,-0.337487936019897461,0.066716872155666351,-0.122900500893592834,0.281675428152084351,0.088411562144756317,0.227517798542976379
-0.215751990675926208,0.121853470802307129,0.331221550703048706,-0.108172558248043060,-0.079247631132602692,0.216750651597976685,-0.113511763513088226,0.093501187860965729,0.291807621717453003,0.133569329977035522,-0.272589027881622314,0.205667123198509216,0.024600850418210030,0.189474582672119141,-0.028647920116782188,0.195610687136650085,-0.079498320817947388,-0.060712698847055435,0.114319741725921631,0.012807577848434448,-0.269185215234756470,-0.264301270246505737,0.036290965974330902,0.031602319329977036,-0.198104262351989746,0.334598481655120850,0.116987779736518860,-0.204049557447433472,0.051574356853961945,0.176783457398414612,0.034738738089799881,-0.031590934842824936
0.114569932222366333,-0.192726641893386841,0.012481889687478542,-0.053959622979164124,0.100558996200561523,0.324552685022354126,0.150428339838981628,0.052941050380468369,-0.316815465688705444,-0.180899024009704590,0.167781591415405273,-0.005420709960162640,-0.194387510418891907,-0.174172475934028625,-0.019209058955311775,-0.091997832059860229,0.247686937451362610,-0.139653980731964111,-0.303146541118621826,-0.021809352561831474,0.224625855684280396,0.145433709025382996,-0.065732069313526154,-0.215995877981185913,0.179600358009338379,0.230720713734626770,0.069765828549861908,-0.030518757179379463,0.125148504972457886,0.283563435077667236,-0.010712807066738605,0.319186776876449585
-0.103847630321979523,0.269831925630569458,-0.061690621078014374,0.050649147480726242,0.043570518493652344,0.180217742919921875,-0.175056785345077515,0.197882622480392456,-0.003135056467726827,-0.209612146019935608,-0.102038949728012085,0.190588906407356262,0.187561869621276855,0.144528388977050781,-0.040771901607513428,-0.133821651339530945,0.328608810901641846,0.095299765467643738,0.163939267396926880,0.229710891842842102,0.464783221483230591,0.101041182875633240,0.223968446254730225,-0.026488125324249268,0.137675285339355469,0.208914756774902344,-0.255792826414108276,-0.210873842239379883,0.190720438957214355,-0.352171033620834351,-0.131139889359474182,0.149082347750663757
0.250079631805419922,0.032639708369970322,0.456204712390899658,-0.130484059453010559,-0.069586083292961121,0.003611602820456028,0.314279079437255859,0.137500852346420288,0.008161833509802818,0.161019310355186462,-0.148290202021598816,0.174428716301918030,-0.340225279331207275,0.052415605634450912,0.169712796807289124,-0.064564771950244904,-0.058723822236061096,-0.322440326213836670,-0.187875360250473022,-0.113387249410152435,-0.246884435415267944,0.313534617424011230,-0.070321045815944672,-0.087838672101497650,0.036525864154100418,0.124700143933296204,0.073857031762599945,0.123150326311588287,-0.248979672789573669,0.332487463951110840,0.384099662303924561,0.077868551015853882
0.184634923934936523,0.002665436826646328,0.155199274420738220,-0.027684772387146950,-0.141476050019264221,0.026685103774070740,-0.247048690915107727,-0.234183520078659058,0.285701513290405273,0.193390771746635437,-0.195248246192932129,-0.170392245054244995,0.230683401226997375,-0.040279746055603027,0.036435682326555252,0.351077497005462646,-0.095585420727729797,0.246768414974212646,0.025451906025409698,-0.269793212413787842,-0.220407679677009583,-0.024222176522016525,0.224067479372024536,-0.070250898599624634,0.218873232603073120,-0.168688982725143433,-0.030075445771217346,-0.207199558615684509,-0.103052325546741486,0.312097549438476562,0.200192227959632874,0.184014305472373962
0.082048349082469940,0.118553593754768372,-0.055241789668798447,-0.005138392094522715,0.035459663718938828,0.464432626962661743,0.100303001701831818,-0.001945856143720448,-0.340640097856521606,-0.011261019855737686,-0.177808538079261780,-0.066435523331165314,0.027279183268547058,0.204378888010978699,0.126210793852806091,-0.393879473209381104,-0.344343066215515137,0.262260049581527710,0.353224873542785645,0.214214578270912170,0.060720697045326233,0.449998706579208374,-0.475028783082962036,-0.081594303250312805,0.327562510967254639,0.013005692511796951,0.263519525527954102,-0.150795370340347290,0.483318865299224854,-0.183271721005439758,-0.159134536981582642,0.397681623697280884
