0.059958040714263916,-0.016925163567066193,0.032297804951667786,0.019132174551486969,-0.017686847597360611,-0.003816612530499697,0.016460962593555450,0.027754273265600204,0.050517097115516663,0.022880863398313522,0.049238942563533783,0.045247871428728104,0.058179266750812531,-0.027350559830665588,0.021535383537411690,0.013776421546936035,-0.001418484258465469,-0.047450918704271317,0.050440166145563126,0.042233224958181381,-0.004124979022890329,-0.039413228631019592,0.026718096807599068,-0.015398322604596615,0.045969173312187195,-0.012717287056148052,0.019747033715248108,-0.009424951858818531,-0.020562630146741867,0.008161853998899460,0.021935060620307922,-0.000521062931511551,0.020130835473537445,0.035207197070121765,0.044221661984920502,0.026324922218918800,-0.006194734480232000,0.039304226636886597,0.017015917226672173,0.034798189997673035,-0.036663923412561417,0.000842536508571357,0.009679207578301430,-0.058047436177730560,0.047302290797233582,0.045044876635074615,0.000223473529331386,0.024722106754779816,-0.023328406736254692,0.048911117017269135,-0.041209302842617035,-0.018799180164933205,-0.038206644356250763,-0.001763776876032352,-0.046073891222476959,0.009653956629335880,-0.034611284732818604,0.049137309193611145,-0.041373219341039658,-0.014497221447527409,0.032480116933584213,-0.029527625069022179,-0.002102404600009322,0.055033773183822632,-0.072698295116424561,0.032753709703683853,0.045452248305082321,-0.017476119101047516,-0.021579179912805557,-0.030888054519891739,0.035890754312276840,0.025473864749073982,0.074010916054248810,-0.013979159295558929,-0.007450708653777838,-0.011163235642015934,0.062633447349071503,-0.058278169482946396,-0.007923857308924198,0.025383455678820610,-0.030604798346757889,-0.039540641009807587,0.007164880167692900,0.017829421907663345,0.031123926863074303,-0.028529444709420204,-0.027333743870258331,0.023280275985598564,0.062840282917022705,-0.001023711171001196,-0.004689119290560484,-0.043634977191686630,-0.034591056406497955,-0.036863543093204498,-0.009521115571260452,0.002510018413886428,-0.058305826038122177,0.032651979476213455,-0.044710285961627960,0.047079157084226608,-0.049767747521400452,0.006331535987555981,0.015960171818733215,-0.051470577716827393,0.011335492134094238,-0.012308535166084766,0.002200288465246558,-0.028087524697184563,-0.053009890019893646,-0.035464651882648468,-0.008197561837732792,0.046486232429742813,0.009534609504044056,-0.015038832090795040,0.050749279558658600,0.014314990490674973,0.037762753665447235,-0.000069112582423259,0.024570794776082039,-0.040169861167669296,0.023090351372957230,0.001107901684008539,0.014427135698497295,0.023342400789260864,0.029080070555210114,0.049800865352153778,-0.013494732789695263,0.048684343695640564
-0.031974978744983673,0.024753045290708542,0.040687631815671921,-0.016168223693966866,0.009091616608202457,-0.025545334443449974,0.036311794072389603,0.025016531348228455,-0.041852604597806931,-0.026564972475171089,-0.018320681527256966,0.010658049024641514,0.021110538393259048,-0.003637409536167979,-0.008109358139336109,0.030305245891213417,-0.005573413334786892,-0.026446413248777390,0.012119537219405174,0.029485272243618965,-0.015374862588942051,0.043082971125841141,0.006945872213691473,-0.001271250192075968,-0.013800684362649918,0.001071260776370764,0.056518614292144775,0.050054609775543213,0.049472823739051819,0.004519024398177862,0.011326306499540806,0.055407479405403137,0.052382715046405792,-0.047650821506977081,0.034422203898429871,-0.025032907724380493,0.009164793416857719,-0.032868988811969757,0.008299835026264191,0.034746408462524414,0.040534965693950653,-0.016616743057966232,-0.016194606199860573,-0.053361222147941589,0.002078631892800331,-0.007326813880354166,0.003111250232905149,0.039284359663724899,-0.037553325295448303,0.018059505149722099,0.030728284269571304,-0.027310319244861603,-0.032971695065498352,0.008773136883974075,-0.021725801751017570,-0.011063870042562485,-0.019606862217187881,-0.008587121963500977,-0.029907537624239922,-0.000799099216237664,0.036142207682132721,-0.043302528560161591,-0.054745763540267944,0.012617012485861778,0.029366308823227882,0.023394390940666199,-0.027263814583420753,0.028356641530990601,0.024963695555925369,-0.000914996315259486,-0.047745581716299057,0.023933872580528259,0.041757289320230484,-0.048917710781097412,0.042924810200929642,-0.024919930845499039,0.048792723566293716,-0.010013959370553493,0.014852925203740597,0.009768044576048851,0.025206048041582108,0.017110629007220268,0.017398186028003693,-0.016431251540780067,0.024790832772850990,0.038210328668355942,-0.037728335708379745,-0.011091644875705242,0.038911603391170502,0.036135192960500717,-0.022717382758855820,0.016587970778346062,-0.048499796539545059,0.044646110385656357,0.027290983125567436,-0.006791914347559214,-0.030461525544524193,-0.030280459672212601,-0.053953371942043304,-0.034933604300022125,0.035895582288503647,0.036307662725448608,-0.040742110460996628,0.001516068121418357,-0.031014593318104744,0.067413508892059326,-0.034832883626222610,-0.006613885983824730,-0.023448716849088669,-0.004822233226150274,0.023224124684929848,0.041383486241102219,-0.017504379153251648,0.042323980480432510,0.038218006491661072,-0.026727972552180290,-0.011295235715806484,-0.007441208697855473,-0.009009073488414288,0.050895567983388901,-0.025415223091840744,0.028136188164353371,-0.019342308863997459,0.005504172760993242,0.014603080227971077,-0.036199461668729782,-0.004965605214238167,0.043434459716081619
-0.010819217190146446,-0.009368685074150562,0.030055020004510880,0.029742885380983353,0.002147345338016748,-0.026552185416221619,-0.032017644494771957,0.037123855203390121,-0.001247208798304200,0.044939812272787094,-0.061595778912305832,0.038310848176479340,-0.039827402681112289,-0.000252098834607750,-0.023640081286430359,-0.043803758919239044,-0.061166841536760330,-0.006570334080606699,-0.016281820833683014,0.059744816273450851,0.011936994269490242,0.047476761043071747,0.003736255457624793,-0.008832847699522972,0.000648998830001801,0.023433638736605644,0.024920921772718430,0.033984720706939697,-0.010293510742485523,0.045335739850997925,0.001085441675968468,-0.025494595989584923,-0.021991949528455734,-0.035084620118141174,0.040636986494064331,0.001140187494456768,-0.031016856431961060,-0.025239797309041023,-0.005676143337041140,-0.047283925116062164,-0.048402760177850723,0.048646286129951477,-0.028827048838138580,0.024568434804677963,0.031294662505388260,0.005416992120444775,0.051605604588985443,0.012132044881582260,-0.063943803310394287,0.066442340612411499,0.021754592657089233,-0.025500040501356125,0.057524207979440689,-0.033236905932426453,0.028032686561346054,0.046014402061700821,0.045710880309343338,-0.000040521626942791,0.037609823048114777,-0.005936078261584044,-0.018790539354085922,-0.042404796928167343,0.020433371886610985,-0.048108372837305069,-0.055407792329788208,-0.029049560427665710,0.030324680730700493,0.006274546496570110,0.028050029650330544,-0.000602307613007724,-0.021101118996739388,-0.027805184945464134,0.021858813241124153,-0.051663849502801895,0.011576829478144646,0.003981360234320164,-0.016215533018112183,-0.011177021078765392,0.009945272468030453,-0.008294920437037945,0.030914230272173882,0.015480034053325653,0.064158178865909576,-0.009076770395040512,0.004577883519232273,-0.050423689186573029,-0.034820966422557831,0.020462207496166229,-0.016209002584218979,0.010395020246505737,0.026539808139204979,-0.019618391990661621,0.035369791090488434,0.041112966835498810,-0.007422691211104393,0.015872448682785034,0.001683149137534201,0.054337933659553528,-0.047602143138647079,-0.032596129924058914,0.034271683543920517,-0.035445235669612885,0.007067081052809954,-0.010921120643615723,0.073427915573120117,-0.015565921552479267,-0.021269874647259712,-0.053028803318738937,-0.046402763575315475,-0.008331406861543655,-0.005039231851696968,0.025639152154326439,0.007874924689531326,0.011053555645048618,-0.043271258473396301,0.025087559595704079,-0.028162447735667229,0.029997687786817551,0.016149865463376045,-0.000753537053242326,-0.031557500362396240,-0.005010689143091440,0.007004669401794672,0.011244415305554867,-0.035572379827499390,0.029503727331757545,-0.019194629043340683,0.009139838628470898
0.078354895114898682,-0.036159660667181015,0.049407813698053360,-0.026463380083441734,-0.045315999537706375,-0.034380316734313965,-0.019298804923892021,-0.044386040419340134,0.085407577455043793,0.006259790621697903,0.051452368497848511,0.039542764425277710,0.115135155618190765,-0.006253226194530725,0.064777471125125885,-0.038197997957468033,-0.006162351462990046,-0.022486628964543343,-0.024726925417780876,0.003493937198072672,0.009788068942725658,-0.032449405640363693,-0.001685235532931983,0.005731822922825813,0.024687305092811584,-0.024361466988921165,0.049111280590295792,0.015753583982586861,-0.066358670592308044,0.002050000475719571,0.021203028038144112,-0.067398972809314728,0.017352463677525520,0.004563375376164913,0.020916238427162170,-0.005733226891607046,-0.016546165570616722,-0.046733245253562927,-0.016042485833168030,-0.045437794178724289,0.036358293145895004,0.017673460766673088,0.052951224148273468,-0.052995227277278900,-0.010165981017053127,0.034729216247797012,-0.025674164295196533,0.008619154803454876,0.013268757611513138,-0.039835162460803986,0.006910454481840134,-0.046746637672185898,0.083351537585258484,0.041992597281932831,-0.111415900290012360,0.079390957951545715,0.011395644396543503,0.065599851310253143,0.022486750036478043,0.029085962101817131,0.053578849881887436,-0.047407791018486023,0.026567969471216202,-0.034571573138237000,-0.027658618986606598,-0.005834576673805714,0.020187888294458389,0.001360113848932087,0.020253688097000122,0.027447698637843132,-0.011844463646411896,-0.016775358468294144,0.005156090483069420,-0.007360011804848909,-0.021871905773878098,0.035813003778457642,0.031960595399141312,0.039691362529993057,-0.032489128410816193,-0.038771715015172958,0.002685007872059941,0.021066766232252121,0.047167092561721802,0.086808063089847565,-0.033529341220855713,-0.007744216825813055,0.055829420685768127,0.032743576914072037,0.051370184868574142,-0.024232145398855209,0.047518473118543625,0.059551458805799484,-0.024471869692206383,-0.022767759859561920,0.043365828692913055,-0.068797476589679718,0.027954043820500374,-0.040603961795568466,-0.019372902810573578,0.024063110351562500,0.021480631083250046,0.025514241307973862,-0.073643825948238373,-0.020666696131229401,0.033399503678083420,-0.045733112841844559,0.028917865827679634,-0.040909614413976669,-0.007339954376220703,0.036858439445495605,0.033016599714756012,-0.050588369369506836,0.000228616525419056,0.013731835409998894,0.058187603950500488,0.018125705420970917,-0.010885819792747498,-0.002214588224887848,0.067151829600334167,0.074362821877002716,0.050883959978818893,0.004463308490812778,0.015167005360126495,-0.010406441986560822,0.000242227368289605,0.053305234760046005,0.049256157130002975,-0.045994196087121964
0.019119871780276299,-0.050182152539491653,-0.011466365307569504,-0.019379153847694397,0.056372743099927902,0.011749552562832832,-0.055472958832979202,0.015158891677856445,0.010345867834985256,0.003563782200217247,0.075526349246501923,-0.018356183543801308,-0.033582698553800583,-0.006450702901929617,0.010278282687067986,0.021389095112681389,0.051582567393779755,-0.004147176630795002,0.030816663056612015,-0.015089049935340881,0.008947600610554218,-0.023780895397067070,0.007462253328412771,-0.003883897094056010,0.006183919962495565,0.008881312794983387,0.000437420152593404,0.052894473075866699,-0.018482003360986710,0.014654453843832016,0.036150891333818436,-0.018250633031129837,0.062478389590978622,0.032422762364149094,-0.040324460715055466,-0.001808889326639473,0.008365099318325520,-0.020339246839284897,0.006400398444384336,-0.039402760565280914,-0.017261363565921783,0.018301812931895256,-0.004741237033158541,0.028543662279844284,0.047920167446136475,-0.007855060510337353,0.032662481069564819,0.057904589921236038,-0.027159618213772774,0.029774595052003860,-0.046951565891504288,0.041147839277982712,-0.002181490883231163,0.003035337897017598,0.002569310832768679,0.006798564922064543,-0.046452600508928299,0.024640401825308800,-0.051222708076238632,-0.047030106186866760,0.015837538987398148,-0.025250071659684181,-0.050023067742586136,-0.046177923679351807,0.015120536088943481,-0.009071460925042629,-0.016470629721879959,-0.045457892119884491,-0.017482094466686249,0.042854517698287964,-0.042227834463119507,0.008913914673030376,-0.013204587623476982,-0.007038835436105728,0.016793068498373032,0.036141749471426010,0.006973179057240486,-0.022893508896231651,0.038824297487735748,-0.009237267076969147,-0.031823180615901947,-0.012233153916895390,0.022306565195322037,-0.034750416874885559,0.040128909051418304,0.014919751323759556,0.056689023971557617,0.001921295188367367,-0.029409337788820267,0.016360877081751823,0.017726410180330276,-0.011396135203540325,0.001469638547860086,0.011245341040194035,0.055296607315540314,0.006297511514276266,-0.045166477560997009,-0.012788108550012112,0.035615056753158569,0.019097657874226570,-0.033536657691001892,0.001221045386046171,-0.019651954993605614,0.036474823951721191,-0.019409138709306717,0.006803474854677916,0.003417348954826593,0.045075558125972748,-0.044683206826448441,0.047327429056167603,0.031567584723234177,0.032945856451988220,0.015655661001801491,0.014244278892874718,-0.032951317727565765,-0.047532577067613602,0.009903281927108765,-0.042548336088657379,0.003956337925046682,-0.024350263178348541,-0.021825427189469337,0.010042581707239151,0.057450547814369202,-0.016151947900652885,-0.025824284180998802,0.000282095890725031,-0.041812416166067123,-0.008855097927153111
0.012581573799252510,0.030419424176216125,-0.017736282199621201,0.026059206575155258,0.013564973138272762,0.030738096684217453,-0.004080806393176317,0.063134908676147461,-0.030823038890957832,-0.021429141983389854,0.017526468262076378,0.045959614217281342,-0.007013255730271339,-0.024958854541182518,-0.051321126520633698,0.011523529887199402,0.017372557893395424,0.030363846570253372,0.005970594938844442,0.048774454742670059,0.066603578627109528,0.028667220845818520,0.049714218825101852,0.046707447618246078,-0.015528141520917416,-0.046845082193613052,-0.022793758660554886,-0.013950612396001816,0.025804772973060608,0.013030802831053734,-0.033465962857007980,0.055941764265298843,-0.000528255593962967,0.030573992058634758,0.003212082432582974,0.004770745988935232,-0.009817998856306076,0.044083103537559509,-0.017941391095519066,0.035362202674150467,-0.038689270615577698,0.043614614754915237,-0.022681802511215210,-0.049360141158103943,0.055355846881866455,-0.022143751382827759,0.029646635055541992,0.025580141693353653,-0.031581677496433258,0.016265464946627617,-0.043475180864334106,-0.000965928018558770,-0.004155305214226246,-0.040229812264442444,0.002015294507145882,-0.029794912785291672,0.017588682472705841,0.042605403810739517,0.029936060309410095,-0.042242322117090225,-0.015072201378643513,-0.031126003712415695,-0.048431530594825745,-0.040289707481861115,-0.037636049091815948,0.044384457170963287,-0.013147084973752499,0.003921118099242449,0.002968255663290620,-0.039660260081291199,-0.009648634120821953,-0.046024184674024582,-0.021709710359573364,0.024038583040237427,-0.031330227851867676,-0.047043751925230026,0.021582949906587601,0.008116370998322964,-0.020326234400272369,-0.030017931014299393,0.020581070333719254,0.056003030389547348,0.064031004905700684,0.030371511355042458,0.012351686134934425,0.029581530019640923,-0.022723777219653130,-0.002636835211887956,0.014312451705336571,0.034430429339408875,0.018838971853256226,0.037488918751478195,0.033608030527830124,0.049880135804414749,0.008307269774377346,-0.027694467455148697,-0.044463980942964554,-0.042533494532108307,-0.040688529610633850,0.005122232250869274,0.019052721560001373,0.016284529119729996,0.027961114421486855,0.019335504621267319,-0.028312196955084801,-0.034931126981973648,0.023826573044061661,-0.025933954864740372,-0.035842772573232651,0.020459353923797607,0.034106098115444183,0.022276209667325020,-0.025761889293789864,0.034592725336551666,0.038991078734397888,0.014852954074740410,0.032586775720119476,-0.040568742901086807,0.035752605646848679,-0.010074950754642487,0.048879057168960571,0.034203812479972839,0.047581452876329422,-0.020156150683760643,-0.032677184790372849,-0.036649521440267563,0.029271306470036507,0.057556346058845520
0.016448847949504852,0.004843467846512794,0.007665493059903383,0.048675715923309326,0.038558110594749451,-0.011807692237198353,0.023658668622374535,-0.013700530864298344,0.016932943835854530,0.011173866689205170,-0.060961086302995682,-0.003744119079783559,-0.002207642886787653,-0.042982984334230423,0.003804607549682260,0.012176735326647758,0.001961661968380213,0.019914850592613220,-0.011624372564256191,-0.017702825367450714,0.008459712378680706,0.052517604082822800,0.044296637177467346,-0.008266670629382133,0.036605533212423325,-0.013074268586933613,0.046871531754732132,0.062253296375274658,-0.031113980337977409,0.022366141900420189,0.020912110805511475,0.031787473708391190,0.020971814170479774,0.050928320735692978,0.052594512701034546,0.035241726785898209,0.038893282413482666,-0.037263631820678711,-0.048141580075025558,0.024677174165844917,-0.003197498386725783,-0.052533771842718124,0.009973597712814808,-0.032737083733081818,-0.050478544086217880,0.054786968976259232,-0.006927657406777143,0.022048367187380791,0.012134879827499390,0.027449309825897217,0.037841252982616425,-0.005452062934637070,0.017987957224249840,-0.058323442935943604,-0.025727134197950363,-0.033946912735700607,-0.037673287093639374,0.024100478738546371,0.001107001444324851,-0.046528294682502747,-0.011602597311139107,0.037122141569852829,-0.049149233847856522,0.020525734871625900,-0.019929025322198868,0.000920712191145867,0.023652747273445129,0.019156966358423233,-0.013798153027892113,0.007624428719282150,-0.009315896779298782,0.004903106018900871,-0.039122942835092545,-0.083584003150463104,0.043966166675090790,0.017555018886923790,-0.040303800255060196,0.015096005052328110,0.047572620213031769,-0.049845498055219650,0.019589450210332870,-0.034754689782857895,0.044323936104774475,0.000793500279542059,-0.039043676108121872,0.012764983810484409,0.034956768155097961,-0.002904062857851386,-0.003595134476199746,0.032295525074005127,-0.036256756633520126,-0.009321842342615128,-0.022921897470951080,-0.047128997743129730,0.037533160299062729,0.044488862156867981,0.031390413641929626,-0.015038386918604374,-0.034281726926565170,0.019857950508594513,-0.023795189335942268,-0.049560319632291794,-0.018021432682871819,0.021940127015113831,0.026459477841854095,-0.009416579268872738,0.009497181512415409,0.026497682556509972,-0.031909178942441940,-0.031756229698657990,0.026837989687919617,0.021115386858582497,-0.029571540653705597,0.068735867738723755,0.031289029866456985,0.060899131000041962,0.046131279319524765,0.001092599704861641,0.001399622764438391,0.065538249909877777,0.032801464200019836,-0.048997871577739716,0.029013982042670250,0.031666606664657593,-0.034602601081132889,0.013662157580256462,-0.050385881215333939,0.030798295512795448
0.046900529414415359,-0.033058151602745056,0.029095117002725601,0.008519664406776428,0.020490577444434166,-0.030405377969145775,-0.043106831610202789,0.009069073945283890,-0.010270551778376102,0.023859210312366486,0.050238858908414841,-0.022896138951182365,0.000029016897315159,0.050075419247150421,-0.022379551082849503,0.034751854836940765,0.034738939255475998,-0.031498424708843231,-0.044521622359752655,-0.060394819825887680,-0.016404625028371811,-0.038636643439531326,-0.004628960043191910,0.021721484139561653,-0.090529695153236389,-0.005973733961582184,0.071541272103786469,-0.044661916792392731,-0.058384772390127182,0.059820841997861862,0.036440502852201462,0.029419401660561562,-0.009813008829951286,-0.005505841691046953,0.034922622144222260,-0.066567622125148773,-0.007266610395163298,-0.026914132758975029,-0.001166772912256420,-0.032512150704860687,-0.017646910622715950,0.042083039879798889,-0.009926869533956051,0.041866347193717957,0.083077065646648407,0.061070177704095840,0.017652954906225204,0.011523986235260963,0.013009667396545410,-0.013196817599236965,-0.019372297450900078,0.034522846341133118,-0.015621784143149853,0.031205682083964348,-0.053876701742410660,-0.006632122211158276,0.008228201419115067,-0.005362883675843477,0.030583966523408890,0.026398707181215286,0.080145120620727539,0.004688821267336607,0.014158334583044052,0.004085881169885397,-0.029057776555418968,-0.048206362873315811,0.026517985388636589,-0.006835689302533865,-0.007964028045535088,0.028789345175027847,-0.015028431080281734,0.018041495233774185,0.035683572292327881,0.050853718072175980,-0.036767620593309402,0.017306989058852196,0.045229401439428329,-0.006663505919277668,0.068769522011280060,0.013521707616746426,0.014010303653776646,-0.011533404700458050,0.035918965935707092,-0.020321786403656006,-0.043863829225301743,-0.021994221955537796,-0.029533891007304192,-0.032482780516147614,-0.042892556637525558,-0.059714026749134064,-0.006912506185472012,0.091418437659740448,0.061855785548686981,-0.011262730695307255,0.021382607519626617,-0.072554275393486023,-0.037650369107723236,-0.026598667725920677,0.028259150683879852,-0.025028442963957787,0.026508618146181107,0.028641168028116226,-0.057233229279518127,0.041815437376499176,-0.008124411106109619,-0.003815049305558205,-0.004077665973454714,0.048567228019237518,-0.017184078693389893,0.037271875888109207,0.016950918361544609,-0.022740662097930908,-0.003175245597958565,-0.064012870192527771,-0.049708291888237000,0.004945936147123575,-0.005389362107962370,-0.048989247530698776,-0.020385408774018288,-0.012238752096891403,-0.021243916824460030,0.019908849149942398,0.001981121255084872,0.000689554552081972,0.048880234360694885,0.049801118671894073,0.033203747123479843,0.032059229910373688
-0.010710328817367554,-0.085092522203922272,-0.002741570817306638,-0.019159836694598198,-0.034501492977142334,-0.002350770402699709,-0.027293836697936058,0.017207158729434013,-0.010069640353322029,0.015317056328058243,0.042497068643569946,-0.041307609528303146,0.067160680890083313,0.007974278181791306,-0.023035885766148567,-0.004035077989101410,0.001939829438924789,-0.049485560506582260,-0.042002461850643158,0.015363456681370735,0.036013551056385040,-0.018574481830000877,-0.035370510071516037,0.013734057545661926,0.014745527878403664,-0.019539967179298401,0.021229160949587822,0.021082360297441483,0.020801004022359848,-0.026588605716824532,0.066003218293190002,-0.004614907782524824,0.001563209807500243,-0.026446044445037842,0.031810391694307327,-0.035634551197290421,0.035777159035205841,-0.027290152385830879,0.068511329591274261,-0.002356420736759901,-0.016224155202507973,0.014180015772581100,-0.013012453913688660,-0.055587172508239746,0.029166730120778084,0.004337630700320005,-0.059548847377300262,0.044657349586486816,-0.007459305692464113,0.021499810740351677,-0.009161810390651226,-0.014086188748478889,0.040734518319368362,0.022752486169338226,-0.059080388396978378,0.009716398082673550,0.019431611523032188,0.046752579510211945,-0.016120020300149918,-0.055525399744510651,0.021365951746702194,0.040173679590225220,-0.011554626747965813,-0.000292025040835142,-0.047073286026716232,-0.073103979229927063,0.031273439526557922,0.029210116714239120,0.009495154954493046,-0.049045287072658539,-0.055614337325096130,-0.035434894263744354,-0.027619279921054840,-0.051708783954381943,-0.071846805512905121,-0.003083178307861090,0.005872349720448256,0.049965564161539078,0.042370870709419250,-0.036981079727411270,0.005302615463733673,-0.044739957898855209,0.006565043237060308,0.027401037514209747,0.003859458956867456,-0.006164611317217350,-0.010446427389979362,0.037449102848768234,-0.043456468731164932,-0.062531277537345886,-0.029243955388665199,0.004954839590936899,0.022336533293128014,-0.007835347205400467,0.060884773731231689,-0.076724022626876831,-0.036415889859199524,-0.024088611826300621,0.002548563526943326,-0.054802801460027695,-0.015255559235811234,-0.039042256772518158,0.039210330694913864,0.034497655928134918,-0.041600085794925690,-0.024306530132889748,0.034805286675691605,0.013985878787934780,-0.003674955340102315,0.056685984134674072,0.020596615970134735,-0.001652103033848107,0.050682414323091507,0.004854067694395781,0.007718483451753855,0.042044624686241150,0.047979470342397690,-0.023847177624702454,-0.038416706025600433,0.006359319202601910,0.053981259465217590,0.034438189119100571,-0.021197112277150154,-0.009790712036192417,0.015873147174715996,-0.049804437905550003,-0.042839422821998596,0.046720791608095169
0.007419888861477375,-0.007321333512663841,0.007232169620692730,0.042705290019512177,0.024610962718725204,-0.028423799201846123,0.010648095980286598,0.007758163847029209,0.034993629902601242,0.051819019019603729,-0.001594824367202818,-0.008340832777321339,0.016789395362138748,-0.025171445682644844,-0.036757797002792358,-0.030025988817214966,-0.029254479333758354,-0.035758320242166519,0.017742745578289032,-0.016802730038762093,0.051633499562740326,-0.026869235560297966,0.060467887669801712,0.029088798910379410,-0.007165532559156418,-0.028879601508378983,-0.021963847801089287,0.019169414415955544,0.007069327868521214,0.038653936237096786,-0.039045520126819611,-0.049287315458059311,0.058539703488349915,-0.016483897343277931,0.028208943083882332,0.008414854295551777,0.004676897078752518,-0.040262248367071152,0.006441128905862570,-0.025966625660657883,-0.025365239009261131,0.035360362380743027,0.042167291045188904,0.000342335755703971,0.033461056649684906,-0.020679512992501259,0.032102443277835846,0.040558408945798874,-0.012395373545587063,-0.031296007335186005,-0.004952873568981886,-0.040862910449504852,0.029243573546409607,0.018368998542428017,-0.024743426591157913,-0.016164274886250496,0.002754935994744301,-0.021845389157533646,-0.055774409323930740,0.010066862218081951,0.006347777787595987,-0.016709061339497566,0.000751661951653659,0.032318580895662308,-0.019985355436801910,-0.005499234888702631,-0.022593595087528229,0.046102922409772873,-0.034892234951257706,-0.044839955866336823,-0.042878746986389160,-0.011614731512963772,0.027930431067943573,0.037243302911520004,-0.035130247473716736,0.021506380289793015,0.015978911891579628,-0.045744117349386215,0.048284702003002167,-0.050263613462448120,-0.028377145528793335,-0.012016916647553444,0.005139401182532310,0.011678735725581646,-0.035165023058652878,0.021272912621498108,-0.013136607594788074,0.021087260916829109,-0.036155834794044495,0.033005986362695694,-0.018695116043090820,-0.043581932783126831,-0.003702347865328193,-0.026808569207787514,0.034900881350040436,-0.043811172246932983,0.017106179147958755,-0.016030268743634224,-0.027947662398219109,-0.010781927034258842,0.013582483865320683,-0.027497909963130951,-0.018523650243878365,-0.001683416077867150,0.059352230280637741,-0.004978199489414692,0.031456083059310913,0.058964006602764130,0.031555950641632080,-0.051662463694810867,-0.013309218920767307,0.027076367288827896,0.020491331815719604,0.017125196754932404,-0.024098785594105721,-0.024223433807492256,0.021388074383139610,-0.014061349444091320,0.020357662811875343,0.024067891761660576,0.016550691798329353,0.031351394951343536,0.061764586716890335,0.025498080998659134,-0.028923425823450089,0.026665177196264267,-0.019665289670228958,0.016573164612054825
0.021323932334780693,0.052795261144638062,-0.026329763233661652,-0.016291961073875427,-0.036721624433994293,0.039887025952339172,-0.025921927765011787,0.018681794404983521,0.043197687715291977,0.032867904752492905,-0.044732090085744858,0.030875494703650475,0.012250880710780621,-0.029197480529546738,-0.017495337873697281,-0.079341463744640350,0.004736807197332382,0.030058277770876884,-0.021019995212554932,-0.006493641063570976,0.045174449682235718,0.051872141659259796,0.047501549124717712,0.082860015332698822,0.033030524849891663,0.002072332426905632,0.031174311414361000,0.067191101610660553,0.054128557443618774,0.041470490396022797,-0.072003632783889771,-0.021579656749963760,-0.058958522975444794,0.036264009773731232,-0.003729906631633639,0.034429173916578293,0.049578990787267685,0.047254100441932678,-0.032220631837844849,-0.079029627144336700,-0.005860278848558664,0.037006083875894547,-0.029196426272392273,-0.032625719904899597,-0.040817841887474060,0.004773228894919157,0.072582118213176727,0.041746582835912704,0.044611208140850067,0.043172236531972885,0.006519580725580454,0.007877981290221214,-0.001750725088641047,0.055473733693361282,0.028653744608163834,0.030049918219447136,0.020275998860597610,-0.005812122020870447,0.005633061751723289,-0.021678572520613670,-0.007519592065364122,0.001266585197299719,0.022177860140800476,0.027055453509092331,-0.014728807844221592,0.012007110752165318,0.007986762560904026,0.073420815169811249,-0.047985896468162537,0.040861178189516068,-0.042033057659864426,0.040560677647590637,-0.005959190893918276,-0.048027880489826202,-0.018363295122981071,-0.015395647846162319,-0.030949931591749191,0.002438623690977693,-0.003091610968112946,-0.083141714334487915,-0.010040136985480785,0.051569480448961258,0.007357140071690083,0.052659612149000168,-0.010038539767265320,-0.019355643540620804,0.029805514961481094,0.019831411540508270,0.027034794911742210,0.043894506990909576,0.051569130271673203,-0.024581227451562881,0.013281485997140408,-0.010742238722741604,0.035945113748311996,0.081510215997695923,0.029587848111987114,0.043628178536891937,-0.020483125001192093,-0.030612962320446968,-0.032086450606584549,0.010882611386477947,-0.013899240642786026,0.007752651348710060,0.067426241934299469,0.048806328326463699,-0.033145755529403687,0.027924409136176109,-0.008692410774528980,0.001423555891960859,0.007385871373116970,0.008154740557074547,0.008391857147216797,0.031170817092061043,0.023870185017585754,0.047212470322847366,-0.003641825402155519,-0.009617405943572521,-0.000640547601506114,0.012550366111099720,-0.023424606770277023,0.012069703079760075,-0.012173552997410297,-0.044643249362707138,-0.034834790974855423,-0.023760112002491951,-0.039943467825651169,-0.024882735684514046
-0.020276697352528572,-0.056032888591289520,-0.044221818447113037,0.028529768809676170,-0.001718603190965950,-0.016398824751377106,-0.049428280442953110,-0.006572480313479900,-0.009869510307908058,-0.000181741663254797,0.108318537473678589,-0.027130238711833954,0.017764484509825706,-0.017526367679238319,0.022421844303607941,-0.024222150444984436,0.012150264345109463,0.010135350748896599,0.049029506742954254,-0.038532003760337830,-0.039514739066362381,0.048432163894176483,0.033245448023080826,-0.040090870112180710,-0.066599644720554352,0.002252815756946802,0.054264701902866364,-0.014185243286192417,0.019520612433552742,-0.032337997108697891,0.049897298216819763,0.021248107776045799,0.053757555782794952,0.018936028704047203,0.015799114480614662,-0.073668934404850006,-0.035989586263895035,-0.032229550182819366,0.038873191922903061,0.021598579362034798,0.056028962135314941,-0.047908052802085876,-0.004481479525566101,-0.045437380671501160,-0.024468695744872093,0.059374012053012848,0.003875278402119875,0.001964708557352424,-0.024558726698160172,-0.022246619686484337,0.005983959883451462,-0.058712348341941833,0.015258973464369774,0.063445910811424255,-0.039495557546615601,0.027879171073436737,0.024343604221940041,-0.045685920864343643,-0.003548014909029007,-0.022583600133657455,0.060888901352882385,0.010580977424979210,-0.033809654414653778,0.001785319647751749,-0.021785417571663857,-0.021578138694167137,0.063937358558177948,-0.020996553823351860,0.000104849139461294,0.004357791505753994,0.014661676250398159,0.011510979384183884,0.037914987653493881,0.008507638238370419,0.004260017536580563,0.036064825952053070,0.079983204603195190,-0.034690301865339279,-0.013464335352182388,0.052526708692312241,0.017458062618970871,-0.020687425509095192,-0.078415170311927795,0.017441753298044205,-0.055649533867835999,0.027804190292954445,-0.003470482071861625,0.023159179836511612,0.030489381402730942,0.005992320366203785,0.032723132520914078,0.070901639759540558,0.060410302132368088,-0.038038279861211777,0.034046884626150131,-0.050733316689729691,-0.008310631848871708,-0.002473620697855949,0.027533821761608124,-0.029502524062991142,-0.019636858254671097,0.039959013462066650,0.010406496003270149,0.060063734650611877,-0.029363770037889481,0.019251350313425064,0.020858781412243843,0.038245357573032379,0.017618784680962563,0.011768953874707222,-0.012858982197940350,-0.032433528453111649,-0.016057984903454781,-0.015438658185303211,0.043629977852106094,-0.029969826340675354,-0.023501034826040268,-0.007051430176943541,-0.009237985126674175,0.017009839415550232,-0.016755018383264542,0.056587476283311844,-0.002693277550861239,-0.006116767879575491,0.037397965788841248,-0.058355994522571564,-0.013851387426257133,-0.029482390731573105
0.067578554153442383,-0.085103392601013184,-0.035770896822214127,0.027515619993209839,-0.010702913627028465,0.029920525848865509,0.002686112653464079,-0.006687732879072428,-0.009623222984373569,-0.012126975692808628,-0.009158466942608356,-0.035104356706142426,0.083042986690998077,0.020603381097316742,-0.064042605459690094,0.061971310526132584,0.058540891855955124,0.018141938373446465,-0.025685338303446770,-0.011249794624745846,-0.044967494904994965,0.038724087178707123,-0.038084920495748520,-0.015953840687870979,0.005727405194193125,0.014931006357073784,-0.008201856166124344,-0.051827102899551392,-0.002124207559973001,-0.051196891814470291,0.034658700227737427,-0.039092276245355606,-0.034398540854454041,-0.020070258527994156,-0.040116637945175171,-0.073628455400466919,0.012886828742921352,-0.043734576553106308,-0.004922878928482533,0.000113249821879435,-0.015618106350302696,-0.073961444199085236,0.013568915426731110,0.004532396793365479,0.014181209728121758,-0.051781576126813889,-0.003317959140986204,-0.009925477206707001,0.056680701673030853,0.033831220120191574,0.022756792604923248,0.021205950528383255,0.040319602936506271,-0.036462176591157913,0.004105011466890574,-0.003605953650549054,-0.025615928694605827,0.010780511423945427,-0.046104241162538528,-0.009179191663861275,-0.009429772384464741,-0.052772454917430878,0.041816826909780502,0.001317849964834750,-0.010201323777437210,-0.045527227222919464,-0.009282909333705902,-0.006573592312633991,0.052399571985006332,0.025710279121994972,-0.059268604964017868,-0.030339993536472321,-0.005691333208233118,-0.037526749074459076,-0.023265494033694267,0.051972739398479462,0.079648613929748535,0.042190175503492355,0.015136881731450558,0.044110883027315140,0.041913587599992752,-0.020757835358381271,-0.009141697548329830,-0.053606461733579636,0.003793686395511031,0.042399615049362183,0.002168544335290790,0.042619880288839340,-0.026605786755681038,-0.012820155359804630,-0.011165264062583447,-0.000360047153662890,0.051135543733835220,0.011148022487759590,-0.008362193591892719,-0.045468166470527649,-0.048743914812803268,-0.060524288564920425,-0.031480059027671814,-0.032530982047319412,-0.048839967697858810,0.006463293917477131,0.005823110695928335,0.011090109124779701,-0.040330078452825546,-0.008872704580426216,0.001865245983935893,-0.024275494739413261,0.031690258532762527,0.005245323758572340,-0.020619561895728111,0.016838032752275467,0.053782496601343155,-0.054350268095731735,-0.033880826085805893,-0.028758550062775612,0.003866248531267047,-0.026753544807434082,0.025690259411931038,0.006915894802659750,-0.012751159258186817,0.017643857747316360,-0.007193277124315500,0.021761026233434677,0.025915125384926796,-0.049169663339853287,0.005100945010781288,0.030017537996172905
-0.013026363216340542,0.049881104379892349,-0.031076552346348763,0.043394278734922409,0.029134675860404968,-0.016205193474888802,-0.010315828025341034,0.055462658405303955,0.013732267543673515,0.052864328026771545,0.030069870874285698,-0.039911672472953796,-0.020585140213370323,-0.043417256325483322,0.001525528961792588,-0.034642390906810760,-0.004226610530167818,0.031396035104990005,0.020108263939619064,-0.042142882943153381,-0.014693921431899071,-0.022379679605364799,0.019397702068090439,0.018289281055331230,-0.017176046967506409,-0.013987495563924313,0.019879912957549095,0.021309541538357735,-0.007808033376932144,-0.032278772443532944,-0.039427720010280609,-0.073546841740608215,0.056422494351863861,0.004639131017029285,0.020874520763754845,0.009799664840102196,0.034025300294160843,0.047833785414695740,-0.020972900092601776,0.057898923754692078,-0.039458528161048889,0.009375937283039093,0.064833469688892365,-0.001137974904850125,-0.017066502943634987,-0.025076013058423996,-0.034983951598405838,-0.025882303714752197,-0.014644550159573555,0.032775007188320160,-0.008782506920397282,0.008806121535599232,-0.052004814147949219,-0.031394239515066147,-0.007243352942168713,0.002393517643213272,-0.041557818651199341,0.026732131838798523,-0.027215825393795967,-0.005457874387502670,-0.028081798925995827,-0.026851108297705650,-0.003057086840271950,0.008814138360321522,0.041345618665218353,0.034741856157779694,-0.005021259188652039,-0.013560141436755657,-0.024302357807755470,0.010338376276195049,-0.001897988608106971,0.040399760007858276,0.029225161299109459,0.032847397029399872,-0.004869246855378151,0.012458128854632378,-0.042146731168031693,-0.005461466964334249,0.015369280241429806,0.017133170738816261,-0.021722543984651566,-0.018792260438203812,-0.007797684054821730,-0.018691474571824074,0.044730491936206818,-0.029595410451292992,-0.011833697557449341,0.024880696088075638,-0.058287292718887329,0.007894661277532578,-0.028628230094909668,0.039221953600645065,0.025306701660156250,-0.053035788238048553,-0.007957953959703445,-0.017953623086214066,0.005279628094285727,0.018469149246811867,-0.007645640056580305,0.023079520091414452,-0.027866177260875702,-0.005511269439011812,0.030967492610216141,0.031547702848911285,0.063177637755870819,0.035304009914398193,0.023834943771362305,0.054208908230066299,0.017966806888580322,0.043340835720300674,0.050234034657478333,0.028115576133131981,-0.014741072431206703,0.050108361989259720,0.058837536722421646,-0.018825655803084373,-0.031026732176542282,-0.042885392904281616,-0.016928520053625107,0.045579142868518829,-0.020965266972780228,0.021104386076331139,-0.001990945776924491,-0.041827227920293808,-0.004375531338155270,0.046648260205984116,0.045569658279418945,0.038148287683725357
0.009209948591887951,-0.004580767359584570,-0.024803439155220985,-0.029602702707052231,-0.017559546977281570,-0.011739660054445267,0.035439968109130859,-0.047863278537988663,-0.018465988337993622,0.042947024106979370,-0.061226308345794678,-0.021389024332165718,-0.012909227982163429,-0.034741804003715515,-0.000489717524033040,-0.041839521378278732,-0.008784709498286247,-0.037563182413578033,0.072278745472431183,0.042798358947038651,0.041312068700790405,0.019377134740352631,0.058802757412195206,0.076359458267688751,0.046995475888252258,0.036687623709440231,0.006440985947847366,0.071163035929203033,-0.031302504241466522,0.011666297912597656,0.054680120199918747,-0.062517143785953522,-0.002309216419234872,0.001871672924607992,0.027339866384863853,0.001586600323207676,-0.042623445391654968,-0.027294000610709190,0.021787287667393684,-0.035682663321495056,-0.091576725244522095,0.029277170076966286,0.080654710531234741,-0.043389480561017990,0.018624749034643173,-0.006817650515586138,0.041209671646356583,0.038710519671440125,0.078435592353343964,-0.020032700151205063,0.028076644986867905,-0.036275483667850494,-0.012544700875878334,-0.019917311146855354,-0.030421538278460503,0.072921767830848694,-0.040852904319763184,0.003599390620365739,0.039020977914333344,-0.023647574707865715,0.046891648322343826,-0.033442541956901550,0.010437236167490482,0.000096380514150951,0.019294312223792076,0.061637505888938904,-0.023759016767144203,0.086199238896369934,0.020968640223145485,0.035628370940685272,0.025029750540852547,-0.011925352737307549,0.025537785142660141,0.005755458492785692,-0.029129052534699440,-0.007038852199912071,-0.043760877102613449,-0.099098071455955505,0.010291382670402527,-0.070532239973545074,0.010488117113709450,-0.034111808985471725,0.052958481013774872,0.011832196265459061,0.052867062389850616,-0.002896792488172650,0.031333547085523605,-0.032226372510194778,-0.010854138992726803,0.054653815925121307,0.051424108445644379,0.007582967635244131,-0.032572839409112930,-0.038537781685590744,0.073064796626567841,-0.024572519585490227,0.002986918436363339,0.032853480428457260,0.032632980495691299,0.066419288516044617,-0.047726795077323914,-0.017848936840891838,-0.052909687161445618,0.013655811548233032,0.085382558405399323,0.025611463934183121,-0.009333903901278973,-0.024917682632803917,0.015762092545628548,0.035915035754442215,0.020957568660378456,0.067198410630226135,0.068494804203510284,0.015567952767014503,-0.011886880733072758,-0.021451864391565323,-0.037088114768266678,0.006500936578959227,0.053839217871427536,0.028864111751317978,-0.034742191433906555,-0.008441025391221046,0.002248785458505154,-0.065841786563396454,-0.046380065381526947,0.012263672426342964,-0.010344213806092739,0.035530935972929001
-0.032278638333082199,-0.081286497414112091,-0.051508575677871704,-0.022942895069718361,0.040550265461206436,0.032936755567789078,0.043552361428737640,0.009783227927982807,0.000928765803109854,-0.010520076379179955,-0.050817195326089859,-0.007001096382737160,0.009083697572350502,0.049838382750749588,0.022211367264389992,-0.027039237320423126,-0.019904552027583122,-0.032546605914831161,-0.019144715741276741,-0.041454676538705826,-0.087960451841354370,0.051420677453279495,-0.043034676462411880,-0.014997068792581558,-0.033096276223659515,-0.036274258047342300,-0.038058891892433167,0.014751000329852104,0.053855426609516144,-0.010022268630564213,0.087069943547248840,0.002915131160989404,0.038373623043298721,0.007237337995320559,0.002634140197187662,-0.007083636708557606,-0.021368565037846565,0.071955151855945587,0.014454518444836140,-0.025964386761188507,0.033266082406044006,-0.032730080187320709,0.006332131102681160,-0.041058361530303955,0.029556265100836754,0.042910140007734299,-0.068760640919208527,-0.049013987183570862,0.004930488765239716,0.065093725919723511,0.000275753438472748,0.015048737637698650,0.032277461141347885,-0.027436671778559685,-0.051632344722747803,0.008293609134852886,0.012824887409806252,-0.025407217442989349,0.021603677421808243,-0.048411745578050613,0.026784138754010201,-0.028865708038210869,0.019032072275876999,-0.061306189745664597,-0.015589657239615917,-0.041492249816656113,0.026440847665071487,-0.026341965422034264,0.075888693332672119,-0.043376348912715912,0.011669714935123920,-0.017430232837796211,0.034543786197900772,0.042157392948865891,-0.020361468195915222,-0.022670445963740349,0.005177616607397795,0.027482436969876289,0.006327653769403696,0.005420835688710213,-0.057233471423387527,-0.002272783080115914,-0.014495272189378738,-0.010022635571658611,0.005407372023910284,-0.011611735448241234,-0.000562961853574961,0.009614814072847366,-0.015390291810035706,-0.051635209470987320,-0.045415297150611877,0.068985007703304291,-0.003362777177244425,0.061614468693733215,0.052472099661827087,-0.055981073528528214,0.025763800367712975,-0.010923969559371471,-0.045055046677589417,0.008939279243350029,-0.014455229975283146,0.055389478802680969,0.003664501709863544,0.021468380466103554,0.000414898851886392,-0.032500017434358597,0.019175253808498383,0.023297084495425224,0.026398027315735817,0.015195168554782867,-0.028531268239021301,0.011845705099403858,-0.046884894371032715,-0.045245520770549774,0.003935535438358784,-0.055704563856124878,-0.001971132587641478,0.053572446107864380,-0.016940385103225708,0.004052523057907820,-0.009509304538369179,0.043391924351453781,0.017914090305566788,-0.013797197490930557,0.020220955833792686,-0.003739417763426900,-0.019278241321444511,0.059675596654415131
-0.006131480447947979,-0.041394203901290894,-0.033093303442001343,-0.011799490079283714,-0.052919983863830566,-0.048232067376375198,0.011820588260889053,-0.055512823164463043,0.002383581828325987,-0.043832734227180481,0.021715555340051651,0.014560994692146778,0.010942924767732620,0.032509777694940567,-0.028571968898177147,0.064050815999507904,0.041513845324516296,-0.043316770344972610,-0.034222397953271866,-0.069750703871250153,-0.035742491483688354,-0.023041991516947746,0.019876576960086823,-0.036110330373048782,-0.012968918308615685,-0.025805778801441193,0.045740455389022827,-0.032842878252267838,0.038201555609703064,-0.104503832757472992,0.084676690399646759,0.017918240278959274,-0.048359297215938568,0.002084068255499005,-0.074935629963874817,-0.069213837385177612,0.028986046090722084,0.013513788580894470,0.018711257725954056,-0.029171561822295189,0.045634690672159195,-0.026803638786077499,0.069657675921916962,0.035684242844581604,-0.010066650807857513,-0.039766285568475723,0.021462289616465569,-0.026004582643508911,0.044109158217906952,-0.015417114831507206,0.039970695972442627,0.003536078147590160,0.036043938249349594,0.015981072559952736,-0.009083312936127186,0.045868467539548874,-0.003288731444627047,0.032092299312353134,-0.030743760988116264,0.042300470173358917,0.046381670981645584,0.020835356786847115,-0.043728340417146683,-0.088571846485137939,-0.021451458334922791,-0.053978860378265381,0.029607694596052170,-0.016932779923081398,-0.011130224913358688,0.038469042629003525,-0.005723924376070499,-0.035224638879299164,-0.017289407551288605,0.051042143255472183,-0.007021560799330473,-0.035631936043500900,-0.002770180115476251,-0.019904693588614464,0.025931715965270996,0.020727071911096573,0.043351329863071442,-0.002628502668812871,0.015891686081886292,-0.071596711874008179,0.027368338778614998,0.020581187680363655,-0.024446027353405952,0.008122514933347702,-0.104769155383110046,-0.015144711360335350,0.019643440842628479,0.026642525568604469,0.060258220881223679,-0.022757006809115410,0.050277311354875565,-0.029665196314454079,-0.051813751459121704,-0.049057524651288986,0.027487564831972122,-0.046817511320114136,0.026175372302532196,0.072036325931549072,0.009553598240017891,0.011459408327937126,-0.025599829852581024,-0.061878427863121033,0.032195374369621277,-0.058422725647687912,-0.053850796073675156,0.002495547290891409,-0.020961318165063858,0.034894403070211411,0.062290627509355545,0.009446706622838974,-0.018112108111381531,-0.023791715502738953,0.003480700543150306,0.022374168038368225,0.024822909384965897,0.021120572462677956,0.051492054015398026,0.046481203287839890,0.009590076282620430,-0.008881992660462856,0.035456359386444092,-0.016526199877262115,0.014245911501348019,-0.024306079372763634
0.043989893049001694,0.057964455336332321,-0.005733903963118792,0.046474911272525787,-0.018252953886985779,-0.032613910734653473,-0.002575688296929002,-0.012038520537316799,0.031773082911968231,0.015332882292568684,0.005269081331789494,0.001354470034129918,0.051685944199562073,-0.028191488236188889,0.042043522000312805,-0.027840504422783852,-0.042814470827579498,0.048219360411167145,0.046914957463741302,-0.019494740292429924,0.016768667846918106,-0.004968675784766674,-0.051710322499275208,0.007812535390257835,-0.022533459588885307,-0.043922241777181625,0.056101184338331223,0.028880255296826363,0.005432789679616690,-0.011686128564178944,0.014144599437713623,0.009942714124917984,0.015213085338473320,0.050973124802112579,-0.028912704437971115,0.039563741534948349,-0.044147629290819168,-0.056261487305164337,-0.001257400028407574,0.001412067096680403,0.025628419592976570,0.036067266017198563,0.041871126741170883,-0.038548957556486130,0.038636073470115662,0.026542944833636284,0.022571822628378868,0.034208722412586212,0.005230756476521492,0.010264052078127861,-0.013928056694567204,0.036209899932146072,-0.013357465155422688,0.029733441770076752,-0.045812312513589859,-0.000841639877762645,0.013263316825032234,0.002437183167785406,0.022778740152716637,-0.028851650655269623,0.011782686226069927,-0.047393895685672760,0.027684785425662994,-0.012165508233010769,0.037860654294490814,0.014099678024649620,0.003962326329201460,-0.001396702486090362,-0.026860091835260391,0.007006890140473843,-0.015769610181450844,-0.024356737732887268,-0.016064526513218880,-0.007204405032098293,0.025715539231896400,-0.025871882215142250,0.020646966993808746,-0.012543096207082272,0.018889764323830605,-0.040761925280094147,-0.009452365338802338,0.025337390601634979,-0.006714059039950371,0.002477790694683790,0.037508569657802582,-0.039664633572101593,0.013019407168030739,0.008018395863473415,-0.018404249101877213,0.014383602887392044,0.018252359703183174,-0.008664133958518505,-0.040989443659782410,0.031013213098049164,0.005644344724714756,-0.030932255089282990,-0.054012279957532883,-0.019847903400659561,-0.000671291199978441,0.053017087280750275,0.000411006243666634,-0.027558850124478340,0.046957060694694519,0.007144324015825987,0.053244337439537048,-0.039145328104496002,-0.046154178678989410,0.022883540019392967,-0.009567456319928169,0.006054500117897987,0.029100097715854645,-0.022414466366171837,0.043903231620788574,0.045513104647397995,0.013394291512668133,0.010575911961495876,-0.044150818139314651,-0.040372379124164581,-0.014123100787401199,0.055713858455419540,0.001569925225339830,0.062441140413284302,-0.017502771690487862,-0.014445273205637932,0.021538581699132919,0.035056695342063904,0.001214028918184340,-0.000815184379462153
0.082246989011764526,0.017898619174957275,-0.043635893613100052,0.039678275585174561,0.023978248238563538,0.030817652121186256,0.030201449990272522,-0.046653747558593750,0.043674703687429428,0.036731369793415070,-0.024087317287921906,0.029880138114094734,-0.015501316636800766,-0.059091698378324509,-0.047290559858083725,-0.010480375960469246,-0.000259888358414173,0.023695796728134155,0.058722127228975296,-0.038989406079053879,-0.033923782408237457,0.060903470963239670,0.003243147395551205,0.005509709939360619,-0.062076795846223831,-0.034651108086109161,0.066436544060707092,0.104354739189147949,-0.020488547161221504,-0.017953738570213318,0.050544254481792450,-0.096141025424003601,0.032072402536869049,-0.040532827377319336,0.009998826310038567,-0.008298542350530624,-0.027232792228460312,-0.041593331843614578,0.091072693467140198,0.097411811351776123,-0.021752202883362770,0.042155709117650986,0.037671081721782684,-0.026135167106986046,0.029883153736591339,-0.005674378480762243,-0.021683193743228912,0.026176644489169121,0.036898348480463028,-0.024097835645079613,-0.004131888970732689,-0.037498954683542252,-0.039759289473295212,-0.036903481930494308,0.022374361753463745,0.060487214475870132,0.000847446441184729,-0.025627009570598602,-0.052581623196601868,0.031440097838640213,0.003355919383466244,-0.015321638435125351,-0.036350138485431671,-0.027583939954638481,0.009645189158618450,0.040405176579952240,0.011344498023390770,-0.010671306401491165,-0.015611621551215649,0.017685675993561745,-0.065687023103237152,-0.016031077131628990,0.057052675634622574,0.043990224599838257,-0.018983215093612671,0.073855392634868622,-0.011227370239794254,-0.028385115787386894,0.007910708896815777,-0.058161538094282150,0.037044066935777664,-0.038197975605726242,0.003207420231774449,0.001158067840151489,0.049724794924259186,-0.031201584264636040,0.102343082427978516,0.039044145494699478,0.048747852444648743,-0.033066384494304657,0.059239376336336136,0.024403514340519905,-0.043033555150032043,-0.086754448711872101,0.035719431936740875,-0.019882988184690475,-0.001304799574427307,0.002114890376105905,-0.051959168165922165,0.032779093831777573,-0.022874666377902031,-0.026115646585822105,0.042706295847892761,-0.072313673794269562,0.057011798024177551,0.043986376374959946,0.041197620332241058,-0.005961838178336620,-0.016772326081991196,-0.025240691378712654,0.020057801157236099,0.069493964314460754,-0.003581247990950942,0.018415005877614021,0.004071648698300123,-0.015223772265017033,0.015063308179378510,-0.000927905668504536,0.059150252491235733,-0.054408721625804901,-0.015860307961702347,-0.023631487041711807,0.054454121738672256,-0.066817432641983032,-0.018118664622306824,0.038488071411848068,0.015295127406716347,0.076062291860580444
0.061432294547557831,-0.066693775355815887,-0.050268016755580902,-0.049878906458616257,-0.019105985760688782,-0.035333216190338135,-0.019371647387742996,-0.030103739351034164,0.067075297236442566,-0.032428305596113205,-0.027367398142814636,0.004557700827717781,0.033336710184812546,0.022718241438269615,0.024819051846861839,0.044908519834280014,0.014417747966945171,0.022086706012487411,-0.034450232982635498,-0.090654201805591583,0.011832027696073055,0.004146831110119820,-0.011326282285153866,-0.002984318649396300,0.052259609103202820,-0.023855341598391533,0.038428578525781631,0.015250053256750107,0.029860826209187508,-0.078289762139320374,0.004057620186358690,-0.023960037156939507,0.023557765409350395,-0.002046165056526661,-0.038189105689525604,0.020794328302145004,0.045969579368829727,0.034197326749563217,-0.035714298486709595,-0.002864954760298133,-0.001832946087233722,-0.077151812613010406,0.009798536077141762,0.012958480976521969,0.034136876463890076,0.029799034819006920,0.000966653868090361,-0.027054373174905777,0.065764106810092926,0.070737101137638092,0.032704200595617294,-0.034764461219310760,0.018879165872931480,0.033801604062318802,-0.023021254688501358,0.026209222152829170,0.010972487740218639,-0.062522187829017639,-0.010317742824554443,0.022980302572250366,-0.003310613799840212,0.026882816106081009,0.018969066441059113,-0.024035178124904633,-0.019692465662956238,-0.013023445382714272,-0.022041773423552513,-0.002618812024593353,0.035477690398693085,-0.008534433320164680,-0.040725510567426682,-0.005400798283517361,0.055621575564146042,-0.013659830205142498,-0.024478165432810783,0.026973227038979530,-0.024031654000282288,0.052339717745780945,-0.015156896784901619,0.022766767069697380,0.038204874843358994,-0.051098797470331192,-0.061475791037082672,-0.095593810081481934,0.035715203732252121,0.028783844783902168,0.004177236929535866,-0.053911827504634857,-0.040973387658596039,0.027490494772791862,-0.029885932803153992,0.051740352064371109,0.028999660164117813,0.050109010189771652,0.028207214549183846,-0.031421829015016556,-0.041558906435966492,-0.078759424388408661,0.023897638544440269,-0.009478397667407990,-0.063323065638542175,0.044148001819849014,0.011927601881325245,0.014401541091501713,-0.006193896289914846,-0.016155447810888290,0.006928902585059404,-0.033720158040523529,0.006335936021059752,0.062080185860395432,0.011884695850312710,-0.051419854164123535,0.042236536741256714,-0.028853697702288628,0.040008634328842163,0.045343767851591110,0.027889849618077278,0.027454657480120659,0.021482950076460838,-0.013928738422691822,-0.027700269594788551,0.053909990936517715,0.002149556530639529,-0.003877981100231409,-0.018006065860390663,0.010718751698732376,0.042238045483827591,-0.010635117068886757
0.056107308715581894,-0.004531021229922771,0.018615012988448143,-0.011283082887530327,-0.024110795930027962,0.003151468932628632,0.016063198447227478,0.001484155771322548,0.023271543905138969,0.000281847984297201,-0.012582710012793541,0.026246188208460808,0.057289283722639084,-0.004675623495131731,-0.010943312197923660,0.050652548670768738,0.035543143749237061,0.032180517911911011,0.031791333109140396,-0.017873719334602356,-0.022451967000961304,0.035797785967588425,-0.038557827472686768,0.037188041955232620,0.049510058015584946,0.039421088993549347,-0.003924767952412367,-0.007890858687460423,-0.034868441522121429,-0.105337217450141907,0.061626315116882324,-0.028899827972054482,-0.033852599561214447,0.033723313361406326,-0.061900906264781952,0.007097281049937010,-0.034705571830272675,-0.028572356328368187,0.022458104416728020,-0.025390705093741417,0.002245851326733828,-0.034412868320941925,0.031148552894592285,-0.024751093238592148,0.052693407982587814,0.019826693460345268,0.035432755947113037,-0.013169670477509499,0.025162471458315849,-0.006985421758145094,-0.039427254348993301,0.017235770821571350,0.057311322540044785,-0.046439174562692642,0.021251138299703598,0.045481149107217789,0.011806438677012920,-0.065399728715419769,-0.034784041345119476,-0.037792056798934937,0.045291967689990997,-0.032557878643274307,0.020860493183135986,-0.071646772325038910,0.020854886621236801,-0.024227466434240341,-0.014961360953748226,0.017193576321005821,-0.016482042148709297,-0.012961656786501408,-0.056413039565086365,-0.055724192410707474,-0.016409344971179962,0.048535704612731934,-0.049136642366647720,0.021047286689281464,-0.022271968424320221,0.014720694161951542,-0.011771894991397858,0.014812108129262924,0.053008951246738434,-0.065586745738983154,-0.037414092570543289,-0.006774807814508677,-0.012915736995637417,0.007789412513375282,-0.042382199317216873,0.027900291606783867,0.016118498519062996,-0.051730208098888397,-0.029608257114887238,-0.022572297602891922,0.049138702452182770,0.054559525102376938,-0.010803100652992725,-0.048917159438133240,-0.054731257259845734,0.008499922230839729,-0.037040624767541885,-0.086520694196224213,0.008334901183843613,0.020517386496067047,0.043295305222272873,0.015682920813560486,-0.007283359300345182,-0.094023041427135468,0.027756143361330032,-0.043535690754652023,-0.026539206504821777,0.063631713390350342,0.034149408340454102,0.040031462907791138,-0.040439408272504807,-0.026853932067751884,0.048911042511463165,-0.023371381685137749,-0.034602660685777664,-0.043645083904266357,0.047267649322748184,-0.008404381573200226,0.052326198667287827,0.029974516481161118,0.045770831406116486,0.016021927818655968,-0.038017440587282181,0.029397478327155113,-0.029784213751554489,0.020644707605242729
-0.041160214692354202,0.025620210915803909,0.031344540417194366,0.028431752696633339,-0.043901696801185608,-0.035980660468339920,-0.003381079994142056,0.010774012655019760,0.035026442259550095,0.061083596199750900,-0.025196997448801994,-0.000779236666858196,0.082922041416168213,-0.028874184936285019,-0.015820883214473724,0.029188808053731918,0.015141091309487820,0.033107515424489975,0.003869776381179690,-0.025734299793839455,-0.007096779067069292,0.004431719426065683,0.005273588467389345,-0.017115002498030663,0.082356192171573639,0.007484221365302801,0.038139868527650833,0.042478308081626892,-0.005234085954725742,-0.065717212855815887,0.033757176250219345,0.042790405452251434,-0.000374355557141826,0.074496321380138397,0.041642371565103531,0.055887226015329361,0.030416836962103844,0.004396152682602406,-0.027206435799598694,0.030013730749487877,0.048018183559179306,-0.035918485373258591,0.034005869179964066,-0.007628246676176786,-0.000316007761284709,-0.024889457970857620,0.003547937842085958,-0.045325715094804764,0.037041019648313522,0.014523101039230824,-0.050809342414140701,0.036918312311172485,-0.009723193943500519,0.042987518012523651,-0.055618461221456528,0.007269401103258133,0.054768059402704239,0.061793368309736252,-0.055433046072721481,0.056068576872348785,0.018310151994228363,-0.027960663661360741,-0.049570776522159576,0.008459656499326229,0.004500426352024078,0.050781823694705963,0.020360462367534637,-0.020040715113282204,-0.024840017780661583,0.018206695094704628,-0.028995590284466743,-0.056203231215476990,-0.013683218508958817,-0.003973100800067186,0.009262630715966225,-0.009880566969513893,-0.029303321614861488,0.030429607257246971,0.043083995580673218,-0.016993701457977295,-0.017589738592505455,0.006268111988902092,0.030127661302685738,0.028957473114132881,0.004209229256957769,0.054966177791357040,-0.012632353231310844,-0.032417308539152145,0.039845161139965057,-0.022240566089749336,0.025199551135301590,0.063504554331302643,0.036440011113882065,-0.031452082097530365,-0.003264632076025009,-0.011977695859968662,-0.033686056733131409,0.044377353042364120,-0.001034087035804987,-0.014707665890455246,0.021552532911300659,0.026998132467269897,0.019454691559076309,-0.033601187169551849,-0.038943998515605927,-0.069773405790328979,-0.061037249863147736,-0.065238066017627716,-0.006803775206208229,-0.012818006798624992,-0.009018443524837494,-0.020368188619613647,0.066244326531887054,0.021884549409151077,-0.016618832945823669,0.048623669892549515,-0.037583384662866592,0.009167876094579697,0.010264262557029724,0.059327408671379089,0.001229530200362206,0.057390887290239334,-0.020235987380146980,0.032072555273771286,0.014976869337260723,-0.015687879174947739,0.013720750808715820,0.057579617947340012
0.003132252953946590,0.046538218855857849,-0.028200799599289894,-0.007320328149944544,-0.061602383852005005,-0.030032249167561531,-0.015700552612543106,-0.002169898478314281,0.058468282222747803,0.039479885250329971,-0.025996992364525795,0.024298517033457756,0.064273849129676819,-0.043300177901983261,0.000936511205509305,-0.077730059623718262,-0.022999333217740059,-0.001892080530524254,0.083408579230308533,0.008209719322621822,0.017658229917287827,-0.048418287187814713,0.094670519232749939,-0.006939678918570280,-0.013341324403882027,-0.054962057620286942,0.023954551666975021,0.027770539745688438,-0.029480675235390663,-0.024554399773478508,-0.008659970946609974,-0.063975125551223755,-0.014801936224102974,0.042046386748552322,0.015952983871102333,0.016106199473142624,0.013854522258043289,-0.096437603235244751,0.043616387993097305,0.088910870254039764,-0.053076606243848801,0.021029828116297722,0.095964707434177399,-0.075917176902294159,0.044537346810102463,-0.083190552890300751,-0.077877983450889587,0.073785573244094849,0.137051492929458618,-0.029830444604158401,-0.053101047873497009,-0.048118263483047485,-0.090074956417083740,0.035400196909904480,0.085028387606143951,0.036064039915800095,-0.082921355962753296,-0.024709992110729218,-0.032561719417572021,-0.029898729175329208,0.001894570072181523,-0.099484860897064209,-0.022442452609539032,0.022784039378166199,-0.029251765459775925,-0.022063288837671280,-0.032689336687326431,-0.030745139345526695,-0.020599182695150375,0.068799547851085663,-0.017990738153457642,0.003410298377275467,0.045436568558216095,-0.000469850958324969,-0.040832545608282089,0.037919688969850540,-0.024560289457440376,-0.109815329313278198,0.048656240105628967,-0.079793468117713928,-0.031448218971490860,-0.081594318151473999,-0.014808449894189835,0.000894544995389879,0.083172723650932312,0.014073139987885952,0.053680963814258575,-0.049317229539155960,-0.012398401275277138,0.038263730704784393,0.027680777013301849,0.058712344616651535,-0.061629179865121841,-0.127879813313484192,0.060576416552066803,0.001897979178465903,-0.048812210559844971,0.043511867523193359,0.019022021442651749,0.020012784749269485,-0.031512796878814697,-0.000062639614043292,0.096583850681781769,-0.081898353993892670,-0.023138295859098434,-0.030083099380135536,0.028015233576297760,-0.032610259950160980,0.020394854247570038,0.028866900131106377,0.022262271493673325,-0.028123859316110611,0.008194383233785629,-0.048961572349071503,0.051119558513164520,0.057123716920614243,0.020489478483796120,0.003463770030066371,-0.019768359139561653,-0.006307255942374468,-0.105140544474124908,0.034767083823680878,0.071774490177631378,0.016626471653580666,-0.080180205404758453,0.040085956454277039,0.016788635402917862,0.044230535626411438
0.065783955156803131,-0.003903229720890522,-0.014421797357499599,-0.050505656749010086,0.003036943264305592,0.039811883121728897,0.028703242540359497,-0.015067907050251961,0.007789228111505508,0.020466940477490425,-0.061131823807954788,0.005285479128360748,0.037404205650091171,0.021202370524406433,0.027088679373264313,0.006384072825312614,-0.032524593174457550,0.045193299651145935,-0.005802316591143608,-0.005813966039568186,-0.015182067640125751,0.041219133883714676,0.036265634000301361,0.004613368306308985,-0.008214819245040417,-0.057198215276002884,0.059468552470207214,0.055979628115892410,0.049241326749324799,-0.024877680465579033,0.063712567090988159,-0.012082637287676334,-0.034671619534492493,-0.025390399619936943,-0.049167361110448837,-0.011872335337102413,-0.030482035130262375,-0.054147005081176758,0.033340640366077423,-0.023844406008720398,-0.010394848883152008,-0.038379590958356857,0.027015710249543190,-0.053135499358177185,0.046459790319204330,-0.023959759622812271,0.050216119736433029,-0.044561982154846191,0.004299024119973183,0.038872294127941132,0.017886247485876083,-0.007526769302785397,-0.013904117047786713,-0.004690646193921566,-0.032332193106412888,0.056967183947563171,0.024439061060547829,-0.025649508461356163,-0.045605361461639404,0.008412632159888744,0.045641239732503891,-0.043827380985021591,-0.003006690647453070,-0.009508300572633743,0.038232553750276566,-0.021450126543641090,0.021579273045063019,0.012575812637805939,0.038666184991598129,-0.019827226176857948,-0.007763702422380447,0.000085268744442146,0.064429260790348053,0.043404188007116318,-0.035095799714326859,0.012144792824983597,0.061166215687990189,0.051281858235597610,-0.004370823036879301,-0.019434588029980659,0.010315666906535625,-0.015105694532394409,0.019225176423788071,0.009716503322124481,-0.008974881842732430,0.012705806642770767,0.035443566739559174,0.011528586968779564,0.009231615811586380,0.045192498713731766,0.006205888930708170,0.045597124844789505,0.031374797224998474,-0.022051107138395309,-0.042179830372333527,0.005977498367428780,0.027499947696924210,0.026721088215708733,-0.048534352332353592,-0.016433404758572578,0.025376938283443451,0.059842087328433990,-0.002589203184470534,0.028300289064645767,0.028298806399106979,-0.040869001299142838,0.026889938861131668,0.047682069242000580,-0.026067279279232025,0.066133275628089905,-0.005080168135464191,0.034916952252388000,-0.006805671378970146,0.011001072824001312,-0.001879738061688840,-0.034554544836282730,0.011237264610826969,0.036664005368947983,0.052340880036354065,-0.039357990026473999,0.063703775405883789,0.054941583424806595,0.065389633178710938,-0.011232123710215092,0.067005693912506104,-0.007262653205543756,-0.061730973422527313,-0.002162606222555041
-0.047596398741006851,-0.039680466055870056,0.029977919533848763,-0.060078192502260208,-0.043287724256515503,-0.026133544743061066,0.021513698622584343,-0.038244031369686127,0.008348900824785233,-0.023546051234006882,0.001680331071838737,0.009517259895801544,-0.004663161933422089,0.018679630011320114,0.028355566784739494,-0.012085411697626114,-0.034386068582534790,-0.039955537766218185,-0.052214566618204117,0.030056698247790337,0.015377206727862358,-0.009943781420588493,0.046857930719852448,0.018780944868922234,-0.034471482038497925,-0.047254029661417007,0.009864144027233124,0.006094479467719793,0.015368864871561527,-0.090340688824653625,0.027114540338516235,0.029996151104569435,0.015623915940523148,-0.060640782117843628,0.002306516747921705,0.001402119174599648,0.039401993155479431,0.011581116355955601,-0.015434779226779938,0.063124574720859528,-0.006945485714823008,-0.017501695081591606,-0.017995331436395645,-0.002588604809716344,0.090859167277812958,-0.007277999538928270,-0.037511918693780899,-0.018957210704684258,-0.036541663110256195,0.019650897011160851,-0.038430143147706985,0.000008157428055711,0.061922293156385422,-0.040606703609228134,0.039634354412555695,0.045738678425550461,0.061543907970190048,-0.007778242230415344,-0.000675092800520360,-0.014534594491124153,0.047709636390209198,-0.037395641207695007,-0.021090816706418991,0.013380800373852253,-0.023175837472081184,-0.085554212331771851,0.035514865070581436,0.015658559277653694,0.053626120090484619,0.003167577786371112,0.033931363373994827,0.000306394969811663,-0.005087049212306738,0.012651351280510426,0.013716078363358974,-0.033727258443832397,0.062705352902412415,0.026935677975416183,0.012847715057432652,0.021087987348437309,-0.045555178076028824,-0.050802506506443024,0.009044957347214222,0.024510266259312630,-0.002187235979363322,-0.002420046832412481,0.038985557854175568,-0.008524801582098007,-0.045271158218383789,0.013764237053692341,-0.004733041860163212,0.060677450150251389,0.013449888676404953,0.069626085460186005,0.007710857316851616,-0.095796726644039154,-0.073527969419956207,-0.044352669268846512,0.038091633468866348,-0.052452053874731064,0.010315522551536560,0.006246583536267281,-0.039128672331571579,0.060578886419534683,-0.043126016855239868,-0.072936952114105225,0.024026675149798393,0.029269028455018997,0.033198140561580658,0.035917151719331741,-0.019156362861394882,0.033824682235717773,0.013002736493945122,-0.051737107336521149,-0.035507507622241974,0.024461554363369942,-0.028267832472920418,0.037770535796880722,-0.011820244602859020,-0.074573576450347900,0.044360503554344177,0.036614496260881424,0.005788888316601515,0.027923852205276489,0.081868238747119904,-0.027724379673600197,0.032259564846754074,-0.040128566324710846
0.013188078068196774,-0.048695769160985947,-0.043204866349697113,0.026140637695789337,0.008543973788619041,-0.000178791640792042,-0.032569121569395065,-0.071134798228740692,0.056989993900060654,0.049787744879722595,0.045148849487304688,0.046691931784152985,0.060918789356946945,0.006960288155823946,0.006699260789901018,-0.029764249920845032,-0.023109573870897293,-0.020599912852048874,-0.025655278936028481,0.007008457556366920,0.060624681413173676,-0.009625609032809734,0.016561187803745270,0.087648622691631317,0.063232459127902985,-0.044646322727203369,0.017609190195798874,-0.031805090606212616,-0.012031162157654762,-0.021533608436584473,-0.028670886531472206,0.015779512003064156,-0.068032644689083099,0.068446360528469086,-0.009985183365643024,-0.029676755890250206,0.015942431986331940,0.015340876765549183,0.052885707467794418,-0.024165790528059006,0.001417288091033697,-0.018815467134118080,-0.002224840456619859,-0.016478674486279488,-0.007115450222045183,-0.049222096800804138,0.008517493493855000,0.044549588114023209,0.032254986464977264,0.018062356859445572,-0.031382489949464798,-0.004405494313687086,0.012923697009682655,-0.013165231794118881,-0.022405084222555161,0.001877095084637403,-0.034125324338674545,0.015331961214542389,0.025053510442376137,-0.019101459532976151,0.043188199400901794,0.021429764106869698,-0.008429583162069321,-0.036964666098356247,0.045144245028495789,0.033198058605194092,-0.009021021425724030,-0.016877610236406326,0.065033778548240662,0.039534866809844971,0.047638658434152603,-0.006094278767704964,-0.004068199079483747,-0.004064145963639021,-0.035113785415887833,0.022348148748278618,0.000796177715528756,-0.015022221021354198,0.013356442563235760,0.020725393667817116,-0.006202936172485352,0.038579292595386505,0.066848799586296082,-0.048606127500534058,-0.025704577565193176,0.001298026996664703,0.058832217007875443,0.030489221215248108,-0.014380647800862789,0.042315229773521423,0.008516270667314529,0.055463958531618118,0.022327423095703125,0.008819610811769962,0.057538080960512161,0.027753524482250214,-0.040214523673057556,0.007401447743177414,-0.051969189196825027,0.032191399484872818,0.030255641788244247,0.091898903250694275,0.021139571443200111,0.007904382422566414,0.006064266897737980,-0.025976646691560745,-0.050859190523624420,-0.021307418122887611,-0.048045162111520767,0.010178864002227783,-0.005385834723711014,0.027235649526119232,0.025294570252299309,-0.006772495340555906,0.030319949612021446,0.064148336648941040,0.015585948713123798,-0.015924181789159775,0.001817067735828459,0.086051121354103088,-0.010010309517383575,0.053682029247283936,0.015518708154559135,-0.018718732520937920,0.011338504962623119,0.030618255957961082,-0.035530202090740204,0.047576792538166046
0.010000005364418030,-0.027668835595250130,0.034906934946775436,-0.026639360934495926,-0.076897569000720978,0.041422024369239807,0.011052140034735203,-0.043925534933805466,0.057092543691396713,0.015034168958663940,-0.071521073579788208,0.039148963987827301,0.163638129830360413,-0.025365550071001053,0.000509653298649937,-0.045453339815139771,-0.007728792261332273,0.049984894692897797,0.125595882534980774,-0.032221119850873947,-0.029842339456081390,-0.035873912274837494,-0.009390708059072495,-0.001431119511835277,0.023117266595363617,0.031290180981159210,0.081937745213508606,-0.002228985074907541,-0.031184999272227287,-0.050344899296760559,-0.001226854394190013,-0.026690933853387833,-0.067366123199462891,0.053981412202119827,-0.066559933125972748,0.012723754160106182,0.041208818554878235,-0.086232066154479980,0.076930023729801178,-0.023157235234975815,0.016430541872978210,-0.027439555153250694,0.112544789910316467,-0.040469083935022354,0.095929279923439026,-0.046214092522859573,-0.005829059984534979,-0.026576256379485130,0.077120296657085419,-0.028708595782518387,-0.030025966465473175,0.022272795438766479,-0.125567317008972168,0.057588391005992889,-0.057047549635171890,0.043390728533267975,-0.005813132971525192,0.064047791063785553,-0.052323695272207260,0.000037453424738487,-0.000442327058408409,-0.084124416112899780,0.040707081556320190,-0.060755427926778793,0.002458348870277405,0.011415933258831501,0.036093939095735550,0.023585205897688866,-0.019052742049098015,0.032013177871704102,-0.038443420082330704,-0.002712207846343517,0.043870005756616592,0.018411450088024139,-0.034000091254711151,0.018501652404665947,0.062939263880252838,-0.029431143775582314,0.028398036956787109,-0.014235289767384529,-0.011106916703283787,-0.014583020471036434,0.045706547796726227,-0.053081911057233810,0.058593999594449997,0.036403223872184753,0.055168043822050095,-0.051495347172021866,-0.033616889268159866,-0.009433257393538952,0.067813634872436523,0.091933317482471466,-0.022699758410453796,-0.047180384397506714,0.060730837285518646,0.026996981352567673,-0.003308130661025643,-0.011145793832838535,0.016077665612101555,-0.010442698374390602,-0.005952234845608473,-0.020954245701432228,0.147976964712142944,-0.008346459828317165,0.001725857960991561,0.022566940635442734,-0.012892199680209160,-0.024642698466777802,-0.037648722529411316,0.006945434492081404,0.047629140317440033,-0.041149407625198364,0.089173316955566406,-0.012749716639518738,-0.019752429798245430,-0.009316478855907917,-0.025671213865280151,0.015536241233348846,0.063890464603900909,0.054395291954278946,-0.025527577847242355,-0.000177563677425496,0.087378397583961487,-0.019126588478684425,-0.026962390169501305,0.043446440249681473,0.038735799491405487,0.064674116671085358
0.002163077238947153,-0.042561437934637070,-0.015873603522777557,-0.029005870223045349,0.004257851280272007,0.013675335794687271,0.013589084148406982,-0.060742035508155823,-0.018389288336038589,-0.027190992608666420,-0.010743439197540283,-0.033368568867444992,-0.038175567984580994,-0.047397192567586899,-0.003342418698593974,-0.000174503336893395,-0.053706590086221695,0.025736005976796150,-0.020431729033589363,0.006624406669288874,-0.035442877560853958,0.092433430254459381,0.019256781786680222,-0.012310270220041275,0.021294534206390381,0.035559870302677155,0.050693046301603317,0.041903674602508545,-0.010261958464980125,-0.009853844530880451,0.052358854562044144,0.050558086484670639,-0.055665288120508194,-0.013502922840416431,-0.042079575359821320,-0.008519025519490242,-0.024202452972531319,0.019404808059334755,-0.058629430830478668,-0.021998763084411621,-0.014245199970901012,-0.060243532061576843,-0.021867878735065460,-0.084377497434616089,0.041829429566860199,0.054247636348009109,0.026098938658833504,-0.010779042728245258,0.008217368274927139,-0.016290212050080299,-0.023774953559041023,-0.000553316320292652,0.062230452895164490,-0.044797185808420181,-0.007844568230211735,0.052969094365835190,0.030030013993382454,-0.060778193175792694,-0.023238742724061012,0.025906404480338097,0.064074605703353882,-0.064689375460147858,-0.002164643490687013,-0.003277621231973171,0.029370125383138657,-0.069010287523269653,0.024855226278305054,0.052482921630144119,0.014166873879730701,-0.021403456106781960,-0.039937749505043030,-0.034106392413377762,0.034866537898778915,0.032540984451770782,-0.024803515523672104,0.021382184699177742,0.030608939006924629,0.011365918442606926,-0.071856841444969177,-0.021333113312721252,-0.068484984338283539,-0.049921393394470215,0.020864542573690414,-0.044735606759786606,0.049226921051740646,0.027453312650322914,0.011980281211435795,0.002188679762184620,-0.045879073441028595,0.012332477606832981,-0.048573590815067291,0.066059552133083344,0.016457576304674149,0.019506111741065979,0.047047030180692673,-0.093818537890911102,-0.034550599753856659,0.052321523427963257,0.008738175034523010,-0.010821648873388767,-0.026293713599443436,-0.017722317948937416,-0.001589127932675183,0.060570716857910156,-0.012784717604517937,-0.036981254816055298,-0.021255524829030037,-0.022275688126683235,-0.025762796401977539,0.029899787157773972,-0.005135109648108482,-0.001391203724779189,-0.038872621953487396,-0.051554806530475616,-0.030883003026247025,-0.045505005866289139,-0.010875179432332516,0.008676410652697086,0.015938660129904747,-0.018940478563308716,-0.005300382152199745,0.005556309130042791,0.017065897583961487,-0.033951811492443085,0.027661757543683052,-0.011851263232529163,0.009460686706006527,0.059474714100360870
-0.030983338132500648,-0.011358277872204781,-0.010986558161675930,-0.032825641334056854,0.012538619339466095,0.022223671898245811,-0.020967246964573860,-0.054670434445142746,-0.004064470529556274,-0.005439765285700560,0.007456096820533276,-0.008916546590626240,0.018699962645769119,-0.015840375795960426,-0.006283802445977926,-0.010295566171407700,0.003408454358577728,-0.005249494686722755,-0.002761652227491140,0.031510282307863235,0.040949787944555283,-0.025018867105245590,-0.015667557716369629,-0.006745914928615093,-0.059526037424802780,-0.042695365846157074,0.011886051855981350,-0.029409352689981461,0.075668446719646454,0.000663472805172205,-0.007885567843914032,0.033371046185493469,0.032322842627763748,-0.058852799236774445,-0.040340710431337357,-0.026259629055857658,0.018167117610573769,-0.039534635841846466,-0.005110892932862043,0.030509740114212036,0.034842062741518021,-0.018719568848609924,0.024183085188269615,0.000139804033096880,0.042396664619445801,0.038970876485109329,-0.005100202746689320,0.006549041252583265,-0.020614223554730415,-0.010710601694881916,-0.039765913039445877,0.019336594268679619,0.067444905638694763,0.022345103323459625,0.022580016404390335,-0.055435433983802795,0.090470485389232635,-0.011908775195479393,0.021280288696289062,-0.089754693210124969,-0.021490052342414856,0.068210296332836151,-0.026861382648348808,-0.023024236783385277,0.040898878127336502,-0.032298043370246887,0.043547827750444412,-0.050095714628696442,0.043263226747512817,-0.029460230842232704,0.017931126058101654,0.025968046858906746,0.072116300463676453,0.028170511126518250,-0.061331361532211304,0.003496027318760753,0.038454458117485046,0.044440217316150665,-0.044612590223550797,0.056128054857254028,-0.026568846777081490,0.080948047339916229,0.004735896363854408,0.019746642559766769,0.019867045804858208,0.076838895678520203,-0.063570879399776459,0.010022368282079697,0.015185914002358913,-0.079974018037319183,0.017669359222054482,-0.010088244453072548,0.063219331204891205,0.059637490659952164,0.036139998584985733,-0.065680287778377533,-0.094297520816326141,0.011054733768105507,0.027202393859624863,-0.018461273983120918,0.037285659462213516,0.027931205928325653,-0.040310796350240707,-0.001528283581137657,-0.026940857991576195,-0.021721828728914261,0.017710266634821892,-0.028013236820697784,0.003209073096513748,0.004516538232564926,-0.011359151452779770,0.022586803883314133,-0.002160046482458711,-0.057217467576265335,0.077929832041263580,0.006911870557814837,-0.068531915545463562,0.027901828289031982,0.002041586209088564,0.023690076544880867,-0.042812723666429520,0.022832127287983894,0.041100367903709412,-0.041687317192554474,-0.005462830886244774,-0.010281775146722794,0.028604846447706223,0.043501012027263641
-0.026599744334816933,-0.049856059253215790,-0.055731736123561859,0.033123057335615158,-0.034660637378692627,0.009380362927913666,-0.033808160573244095,0.028811497613787651,-0.021573593840003014,-0.013407377526164055,0.002951070899143815,-0.015388519503176212,0.051130402833223343,-0.056890327483415604,0.029597325250506401,-0.023300163447856903,-0.047942247241735458,0.022733308374881744,0.052639905363321304,0.045984853059053421,-0.028856644406914711,0.016404211521148682,0.022956334054470062,0.008503165096044540,0.030805150046944618,0.013100248761475086,-0.008851555176079273,0.001040630158968270,0.032123852521181107,0.025994405150413513,0.016238097101449966,-0.007621257100254297,-0.002777977613732219,0.070407092571258545,0.062527135014533997,-0.015908932313323021,-0.042978484183549881,0.027455126866698265,-0.001205303007736802,-0.040201745927333832,0.020213587209582329,0.024386987090110779,0.050411090254783630,-0.062739163637161255,0.011371473781764507,0.042904593050479889,0.054939568042755127,-0.031082736328244209,0.032688688486814499,0.014170243404805660,0.000511671125423163,0.003019163850694895,-0.017827086150646210,0.018846102058887482,-0.010780767537653446,0.002350783208385110,0.010156255215406418,0.020709875971078873,0.016591308638453484,-0.049343567341566086,0.025918932631611824,0.035892970860004425,0.007315473165363073,0.002104352926835418,0.000669410685077310,0.014855653047561646,-0.030533567070960999,-0.019276244565844536,0.007804547902196646,-0.006569616962224245,0.026278181001543999,0.024958772584795952,-0.030643600970506668,-0.029978251084685326,0.013466070406138897,0.004135454539209604,0.021421311423182487,-0.023055851459503174,0.016384679824113846,-0.020751306787133217,-0.043006945401430130,0.010394085198640823,0.014323443174362183,-0.026053048670291901,-0.033949103206396103,-0.030067777261137962,0.032373245805501938,0.004394296556711197,-0.006860414985567331,-0.013640964403748512,0.055239036679267883,-0.001489811809733510,0.006416104733943939,0.040809161961078644,0.004924797452986240,0.035243187099695206,0.036918863654136658,0.050925884395837784,-0.058300603181123734,0.043306291103363037,0.025573622435331345,0.022103630006313324,0.007247282657772303,0.028618454933166504,0.009308721870183945,-0.041304580867290497,-0.041563708335161209,0.007394618354737759,-0.046680219471454620,-0.029817637056112289,-0.022454321384429932,0.072799980640411377,0.020944552496075630,-0.018031181767582893,-0.050962168723344803,-0.038377143442630768,0.051839653402566910,-0.008799941278994083,0.051927186548709869,0.088727943599224091,-0.022165663540363312,0.008780423551797867,0.018547464162111282,-0.039757758378982544,-0.032770954072475433,0.066328540444374084,0.025210082530975342,0.028446145355701447
0.036342553794384003,0.005064452998340130,0.042868420481681824,0.042034525424242020,-0.022492565214633942,0.004260005895048380,-0.028141336515545845,0.020182939246296883,-0.001144634210504591,-0.034458748996257782,0.044092316180467606,-0.006622696761041880,0.005883135832846165,-0.029813928529620171,-0.037079159170389175,-0.048136670142412186,-0.008984732441604137,0.013326953165233135,0.079170107841491699,0.058184694498777390,0.038802456110715866,-0.036591485142707825,0.040198069065809250,0.071854516863822937,0.020173788070678711,-0.035570669919252396,0.052706684917211533,0.003060527145862579,0.003566167084500194,-0.019210306927561760,0.016283359378576279,0.056754112243652344,-0.023218065500259399,0.072899393737316132,-0.012730302289128304,0.043537776917219162,0.036503635346889496,-0.034824497997760773,-0.027508020401000977,0.021311644464731216,-0.033510491251945496,-0.059356976300477982,0.004465667065232992,-0.032735690474510193,0.041949432343244553,-0.015772020444273949,-0.017682060599327087,0.001725252717733383,0.046184908598661423,-0.027679190039634705,-0.047915942966938019,-0.032961037009954453,-0.059484619647264481,0.069293834269046783,-0.004759755916893482,0.056736335158348083,0.041603241115808487,0.028972478583455086,0.029106445610523224,-0.027828577905893326,-0.018509300425648689,-0.039600476622581482,-0.042760297656059265,-0.011468676850199699,0.061356242746114731,-0.036728449165821075,0.034606710076332092,0.015089044347405434,-0.050180979073047638,-0.023494681343436241,0.031724520027637482,-0.051275666803121567,-0.010721450671553612,-0.030943473801016808,-0.015229218639433384,-0.008585880510509014,0.001343808020465076,-0.059783291071653366,0.055889274924993515,-0.014469117857515812,-0.020590830594301224,-0.046634145081043243,0.028444701805710793,0.008848482742905617,-0.009553615003824234,0.021638125181198120,0.071088053286075592,-0.024189611896872520,0.012147787027060986,-0.025621255859732628,-0.003615791210904717,0.005263943690806627,0.029585849493741989,-0.039878617972135544,0.025122461840510368,-0.035418827086687088,0.019591018557548523,0.067032933235168457,-0.048427823930978775,-0.009915367700159550,-0.037187568843364716,-0.034609798341989517,0.001156500773504376,-0.013328799977898598,0.024833414703607559,0.021646814420819283,-0.013404410332441330,-0.044701848179101944,0.022920420393347740,0.007937056943774223,0.002032971940934658,0.009156567044556141,0.007119399029761553,0.047918748110532761,-0.033104702830314636,0.014336745254695415,-0.026979716494679451,0.042389426380395889,0.065857291221618652,0.080112129449844360,-0.004273694939911366,-0.015964746475219727,0.007207272574305534,0.008193023502826691,0.037221692502498627,0.082258068025112152,-0.032294541597366333,-0.008987052366137505
-0.048059005290269852,0.036617625504732132,-0.057643584907054901,0.021331053227186203,-0.016101827844977379,0.010704886168241501,0.040773726999759674,-0.078760094940662384,0.079384729266166687,-0.041963737457990646,0.018085271120071411,-0.022723676636815071,0.040398672223091125,-0.005904194898903370,-0.043475136160850525,0.007180657703429461,0.029032381251454353,0.013711020350456238,0.046415243297815323,-0.056252248585224152,-0.019642526283860207,0.066359519958496094,0.009273773990571499,0.056998547166585922,-0.015434044413268566,0.022986840456724167,0.034697733819484711,-0.035281032323837280,0.030887331813573837,-0.015440118499100208,-0.021922079846262932,0.022117821499705315,0.003983024507761002,-0.014029649086296558,-0.059236545115709305,-0.033377822488546371,0.015074818395078182,-0.056535910815000534,-0.032881770282983780,-0.011958888731896877,-0.004494389519095421,0.042439948767423630,-0.007180065847933292,-0.012944464571774006,0.103195637464523315,0.036223061382770538,0.020855262875556946,0.006693152245134115,0.000756174442358315,-0.075774148106575012,-0.002397547941654921,0.013387669809162617,0.043353326618671417,-0.026290062814950943,-0.048272512853145599,0.042803015559911728,0.024053396657109261,-0.065665431320667267,-0.038946546614170074,0.010609649121761322,-0.023105541244149208,-0.039026305079460144,-0.000524880189914256,-0.062052354216575623,0.014157821424305439,-0.029529303312301636,0.022235777229070663,-0.026179382577538490,0.088565677404403687,0.035359758883714676,0.032208371907472610,-0.001092051505111158,0.060478802770376205,-0.054788805544376373,-0.066851481795310974,-0.041351541876792908,0.072426408529281616,0.002515063853934407,-0.070803143084049225,-0.045461695641279221,-0.011481845751404762,0.054560448974370956,0.003447298426181078,-0.019528048112988472,0.007895739749073982,-0.010607237927615643,0.018636882305145264,-0.033778667449951172,-0.051361583173274994,-0.052518330514431000,0.062683805823326111,0.010322656482458115,0.010746200568974018,0.052634254097938538,0.012755172327160835,-0.096274189651012421,-0.076839216053485870,-0.037623111158609390,-0.027271784842014313,0.015142722055315971,-0.016726395115256310,0.025851352140307426,-0.026436410844326019,0.026700114831328392,-0.010773406364023685,-0.052222151309251785,0.022908253595232964,-0.008346104994416237,0.020825019106268883,0.012432469986379147,0.041021965444087982,0.054183848202228546,-0.016856946051120758,-0.014186988584697247,0.046796727925539017,-0.008162974379956722,-0.001036020927131176,0.027181733399629593,-0.025506103411316872,0.020070265978574753,-0.079646088182926178,0.059706494212150574,-0.034299336373806000,-0.023409949615597725,0.054255347698926926,-0.006890343967825174,0.009582839906215668,0.052752483636140823
0.008461399935185909,0.038399334996938705,0.001110152341425419,0.049111749976873398,0.008223387412726879,-0.035448364913463593,-0.037083800882101059,-0.055228736251592636,-0.014178927056491375,-0.037820238620042801,-0.009605510160326958,-0.067882411181926727,0.031110225245356560,0.019204260781407356,-0.019125115126371384,0.055913031101226807,-0.038111560046672821,-0.065333224833011627,-0.035534173250198364,-0.035397026687860489,0.050210252404212952,0.060467209666967392,0.012525450438261032,-0.031641833484172821,-0.059612374752759933,-0.004645137116312981,0.065101377665996552,-0.028908621519804001,0.094123698770999908,-0.036314930766820908,-0.032727517187595367,0.093311227858066559,0.010341243818402290,-0.107381023466587067,0.005620502401143312,-0.011283192783594131,-0.003755854209885001,0.020635351538658142,-0.059915311634540558,0.069725081324577332,0.003685693256556988,-0.041672248393297195,-0.031858190894126892,-0.006581027526408434,0.080574840307235718,-0.042889684438705444,-0.049627050757408142,-0.046231988817453384,-0.028945496305823326,-0.082273744046688080,0.022338574752211571,0.002480517374351621,0.016045102849602699,-0.029987366870045662,0.005768165457993746,0.026311293244361877,0.101218134164810181,-0.021462826058268547,-0.018420733511447906,-0.082212939858436584,-0.033769231289625168,0.017261508852243423,-0.013247313909232616,-0.084255069494247437,0.031402759253978729,-0.102227166295051575,0.031247684732079506,-0.051625594496726990,-0.032087512314319611,-0.003507900051772594,0.018015176057815552,-0.012218817137181759,0.056273661553859711,-0.051424559205770493,0.022647483274340630,-0.004417005926370621,0.070884928107261658,0.045284181833267212,-0.065640129148960114,-0.007563960272818804,-0.000433435372542590,0.053459353744983673,0.016493732109665871,0.053173977881669998,0.024261966347694397,0.011679789982736111,-0.018208583816885948,-0.049279648810625076,-0.061247967183589935,-0.041067779064178467,-0.013043238781392574,0.059430934488773346,-0.060491718351840973,0.053297173231840134,-0.027781520038843155,-0.018096987158060074,-0.024697026237845421,0.033032514154911041,-0.024731675162911415,-0.038339715451002121,-0.046242535114288330,0.044960074126720428,-0.040383137762546539,-0.003373483195900917,0.006294234655797482,-0.059778634458780289,0.012022079899907112,-0.014943375252187252,0.019800087437033653,-0.027214799076318741,-0.031609762459993362,0.016007157042622566,-0.022739108651876450,-0.072714187204837799,0.090997502207756042,-0.011668480001389980,-0.000350141694070771,-0.007760701235383749,-0.018325811251997948,0.018568569794297218,0.003218971658498049,0.019047416746616364,-0.007178827654570341,-0.030351290479302406,0.067913666367530823,0.004661536309868097,-0.009170357137918472,0.067165330052375793
-0.019333131611347198,-0.031000180169939995,-0.031483195722103119,-0.042540870606899261,0.018477849662303925,-0.038016203790903091,-0.049496766179800034,-0.039220184087753296,0.016751306131482124,-0.000611788767855614,0.032861106097698212,-0.015036812983453274,0.071053311228752136,0.036647185683250427,0.059982895851135254,0.003504862543195486,0.014677155762910843,0.043905571103096008,-0.036783106625080109,0.006700083613395691,-0.026475274935364723,0.022548139095306396,-0.057926151901483536,0.045763354748487473,-0.004290477838367224,-0.022434895858168602,-0.020713211968541145,-0.037867251783609390,0.018206022679805756,0.016026897355914116,0.037482187151908875,0.019433043897151947,0.016253791749477386,0.005998104810714722,0.015090101398527622,0.045108556747436523,-0.038619641214609146,0.023751651868224144,0.016201430931687355,-0.028089571744203568,-0.007439447101205587,-0.032783851027488708,-0.001981894951313734,0.002502554561942816,0.028025895357131958,0.092073343694210052,0.057394389063119888,-0.008121175691485405,-0.078074507415294647,0.016496278345584869,0.004660480190068483,-0.006883205845952034,0.019832110032439232,0.014778224751353264,-0.061097621917724609,-0.024992251768708229,0.095992311835289001,0.023709660395979881,-0.010773777961730957,-0.002493391279131174,-0.029889840632677078,0.011277131736278534,0.012899616733193398,-0.033647481352090836,-0.007518189493566751,-0.007940673269331455,0.010667889378964901,-0.006173647940158844,0.032155077904462814,-0.044537719339132309,0.028109122067689896,-0.034162510186433792,-0.018785089254379272,-0.063861578702926636,0.039477366954088211,-0.022908227518200874,0.009557333774864674,0.023460697382688522,-0.015478508546948433,-0.005217086523771286,0.028787577524781227,-0.023161726072430611,0.060447886586189270,0.005562650505453348,-0.000525090435985476,-0.001625639386475086,0.029471311718225479,-0.000088081607827917,0.050060249865055084,0.006994813214987516,0.037131618708372116,0.017582068219780922,0.027144216001033783,0.080372728407382965,-0.044428005814552307,-0.056946367025375366,-0.008182216435670853,0.012981688603758812,-0.035277023911476135,-0.053158596158027649,0.035125438123941422,0.042048376053571701,0.019884478300809860,0.063722707331180573,0.025459745898842812,0.042866297066211700,-0.074178725481033325,-0.030806416645646095,-0.034171160310506821,0.044116593897342682,-0.032356888055801392,0.056283675134181976,0.033523414283990860,-0.000233585466048680,-0.017079988494515419,0.030129758641123772,0.047508921474218369,0.000555310572963208,0.037757769227027893,0.066749267280101776,0.078962445259094238,0.032842766493558884,0.025788767263293266,-0.049774382263422012,0.061671029776334763,0.010215143673121929,0.019181437790393829,0.005316815339028835
0.027580598369240761,0.003806358203291893,-0.040491648018360138,0.025746716186404228,-0.049840476363897324,0.025252701714634895,-0.041119307279586792,0.038629531860351562,0.020233346149325371,-0.012805425561964512,0.024302693083882332,0.063698962330818176,-0.010663504712283611,0.030922440811991692,-0.008667200803756714,0.042818333953619003,-0.036469414830207825,0.048675127327442169,0.029588157311081886,0.017291599884629250,0.037214662879705429,0.028424028307199478,-0.007573787122964859,0.023810058832168579,0.002941795159131289,0.035015746951103210,0.010045981034636497,-0.045692741870880127,-0.009567191824316978,-0.036209668964147568,-0.040761429816484451,0.001380542875267565,0.001824875245802104,-0.001101288245990872,0.011559095233678818,-0.007963785901665688,0.000480620976304635,-0.033451586961746216,-0.058416984975337982,0.001934944768436253,0.026756396517157555,-0.007722730748355389,0.042590439319610596,0.017888227477669716,-0.008116604760289192,-0.024977400898933411,0.003464115550741553,-0.025563452392816544,-0.039093669503927231,-0.002305242000147700,-0.046864248812198639,-0.010995704680681229,-0.032141286879777908,0.050480719655752182,-0.019838154315948486,-0.017712807282805443,0.004367370158433914,0.008967692963778973,-0.034623738378286362,0.000431239954195917,0.046033766120672226,0.033517055213451385,0.042134042829275131,-0.006295553408563137,0.011548575945198536,0.041591953486204147,-0.032048035413026810,0.018201556056737900,0.016384063288569450,-0.004034153651446104,-0.008073613047599792,0.001799571677111089,-0.028012944385409355,-0.025028366595506668,-0.029439816251397133,0.014688695780932903,0.020816987380385399,-0.028526663780212402,-0.017629310488700867,0.022610057145357132,-0.030123542994260788,0.022635923698544502,0.012403630651533604,0.039351947605609894,-0.020398598164319992,-0.037866637110710144,0.078518651425838470,0.008117118850350380,0.013716078363358974,0.062024746090173721,0.018138939514756203,-0.046241119503974915,-0.014127159491181374,-0.009844801388680935,-0.000404156948206946,0.020669970661401749,-0.052071493119001389,0.011147645302116871,-0.012917264364659786,0.026123210787773132,-0.037324838340282440,-0.020151471719145775,0.031557485461235046,0.036880142986774445,-0.014673371799290180,0.035798400640487671,-0.009803036227822304,-0.062213514000177383,0.003009544685482979,0.022457985207438469,0.004588718991726637,0.059382323175668716,0.008619915693998337,-0.039650302380323410,-0.022608162835240364,0.039645753800868988,-0.006228495389223099,0.023923706263303757,-0.013476714491844177,0.006178753450512886,-0.001313572749495506,-0.032415427267551422,0.031745072454214096,-0.022204350680112839,-0.047572206705808640,0.032824393361806870,0.008717166259884834,-0.039654068648815155
-0.020683072507381439,0.042729053646326065,-0.042344540357589722,-0.000603387597948313,-0.039795316755771637,-0.047426786273717880,0.022460581734776497,-0.033941920846700668,0.056455515325069427,-0.026335483416914940,0.067975267767906189,0.001522911712527275,0.030746165663003922,0.019950794056057930,-0.006381049752235413,0.049286901950836182,0.031543016433715820,0.005190043710172176,0.023981980979442596,-0.067950546741485596,-0.006293119397014380,0.046476531773805618,0.011923847720026970,0.014854462817311287,-0.034217301756143570,-0.006506791338324547,0.072259001433849335,-0.026257356628775597,0.080401688814163208,0.047193441540002823,-0.065374761819839478,0.037085849791765213,-0.011805867776274681,-0.079216323792934418,0.027368238195776939,-0.026380572468042374,-0.028497641906142235,-0.055714890360832214,-0.006041809450834990,0.037404332309961319,-0.045285981148481369,-0.004517931491136551,0.017159836366772652,-0.012960867956280708,0.124989576637744904,0.016760053113102913,-0.055421721190214157,-0.015286143869161606,-0.075676247477531433,-0.057917881757020950,-0.016949502751231194,-0.059159684926271439,0.019949439913034439,0.003402788890525699,0.023861516267061234,-0.031493138521909714,0.011227695271372795,0.055633496493101120,0.032489061355590820,-0.028806859627366066,0.061034247279167175,0.009288640692830086,0.042729899287223816,-0.049701239913702011,0.045121036469936371,-0.051826331764459610,0.000746463541872799,-0.027682702988386154,0.049291051924228668,-0.004374015610665083,-0.009412693791091442,0.038767840713262558,0.098048731684684753,-0.003593216184526682,-0.008992551825940609,-0.052639756351709366,0.077644139528274536,0.032419424504041672,-0.002271246397867799,0.035063903778791428,-0.004668750800192356,0.004820169415324926,-0.021568836644291878,0.013238109648227692,0.018195757642388344,0.032819591462612152,-0.035333797335624695,0.004294699057936668,0.036244891583919525,-0.020178372040390968,0.045353375375270844,0.039679657667875290,-0.028964970260858536,-0.004728443920612335,-0.014070169068872929,-0.079304099082946777,-0.050000265240669250,0.004303627181798220,-0.026841137558221817,0.043675851076841354,0.037343274801969528,0.036002673208713531,0.002111358335241675,0.043509896844625473,0.036196589469909668,-0.029969332739710808,0.063528321683406830,0.002368342829868197,0.026401842013001442,0.030367596074938774,0.023427214473485947,0.052951112389564514,-0.045900013297796249,-0.033306818455457687,0.020287819206714630,0.008144778199493885,-0.038608890026807785,-0.042711742222309113,-0.055204477161169052,0.040973335504531860,0.025464400649070740,-0.007113340310752392,0.016976490616798401,-0.033267043530941010,-0.010792544111609459,-0.003906066063791513,-0.018988681957125664,0.020742986351251602
