-0.005399205721914768
0.025979308411478996
-0.007603103294968605
-0.029687078669667244
-0.013979177922010422
-0.001437941333279014
0.038326006382703781
-0.013844887726008892
-0.002741042524576187
-0.004796589724719524
-0.007265300489962101
0.025482753291726112
-0.045019775629043579
0.019087215885519981
-0.012561594136059284
0.009038576856255531
0.006105685140937567
-0.011346630752086639
0.030030228197574615
0.024440696462988853
-0.026350541040301323
0.002546284580603242
-0.018546314910054207
0.014198163524270058
0.005250083748251200
0.010307172313332558
-0.007249129470437765
0.020695369690656662
-0.021009439602494240
0.001539489952847362
-0.013646814972162247
0.019693875685334206
-0.010204670950770378
0.007326062303036451
-0.018068434670567513
0.002425902057439089
-0.010399167425930500
0.007180069573223591
-0.023295570164918900
-0.000601162493694574
-0.005763241089880466
-0.009161365218460560
-0.000337702105753124
0.011340383440256119
-0.022418258711695671
0.025638908147811890
-0.009511443786323071
0.035013172775506973
-0.008023629896342754
0.012745407409965992
0.016311688348650932
-0.020349577069282532
0.008267981000244617
-0.009955626912415028
-0.005834255367517471
-0.011256082914769650
-0.012032519094645977
-0.011137776076793671
0.004957953467965126
0.005068981088697910
0.011382634751498699
0.017954340204596519
0.010964773595333099
0.025025045499205589
-0.000260618864558637
0.009318982250988483
0.006763554643839598
0.022668648511171341
0.030798515304923058
0.024072734639048576
0.014219895936548710
0.010868549346923828
-0.022616110742092133
-0.005179728381335735
0.041744574904441833
0.014151171781122684
-0.005117131862789392
0.007263963110744953
-0.020295869559049606
-0.031468838453292847
-0.027071373537182808
-0.001691529410891235
-0.010942429304122925
0.013086810708045959
0.009003741666674614
0.037662841379642487
0.039182726293802261
0.034687656909227371
-0.003196517005562782
0.006200431380420923
0.001115683349780738
-0.001895891968160868
-0.011912940070033073
-0.012233475223183632
0.008076787926256657
-0.006710348185151815
0.005525283981114626
-0.022401124238967896
-0.008684194646775723
-0.003474491415545344
-0.027827730402350426
-0.021196588873863220
-0.008585147559642792
-0.010267569683492184
-0.002688186010345817
0.008720399811863899
-0.003059826791286469
0.005295413080602884
0.038628496229648590
-0.018771819770336151
-0.027975590899586678
0.001858066185377538
-0.001541705569252372
-0.007855836302042007
0.000166755227837712
-0.019215926527976990
-0.030935477465391159
0.012054113671183586
0.002238778164610267
0.020611377432942390
-0.031096916645765305
-0.009484369307756424
-0.007749566342681646
-0.011858679354190826
-0.024694139137864113
-0.013304369524121284
0.010074992664158344
-0.017567485570907593
0.003323134733363986
0.002979560522362590
-0.017701784148812294
-0.002490950981155038
-0.023644914850592613
-0.023269984871149063
0.037234660238027573
-0.016905423253774643
-0.025107953697443008
-0.005758462008088827
0.019334664568305016
-0.007530422881245613
-0.020910313352942467
0.011227537877857685
-0.018339250236749649
-0.008720286190509796
0.030568817630410194
-0.003580730175599456
0.024794537574052811
0.051131073385477066
-0.014433303847908974
-0.012399561703205109
-0.009628318250179291
0.025590822100639343
-0.002277810592204332
-0.016712112352252007
-0.013539931736886501
-0.014043590985238552
0.004957213532179594
-0.001354191219434142
0.007735144812613726
-0.011892456561326981
0.006445565726608038
-0.020603399723768234
-0.003545402782037854
-0.007111907936632633
-0.004698715638369322
0.049437824636697769
0.001633298234082758
-0.000170162005815655
0.013189681805670261
-0.024267060682177544
-0.009833912365138531
-0.012684397399425507
-0.010548739694058895
0.010289389640092850
0.000113003377919085
0.011551201343536377
-0.015181600116193295
0.008202468045055866
0.011271283961832523
-0.018339151516556740
-0.003103174269199371
0.006071850657463074
-0.004677787888795137
0.002588674426078796
-0.014860309660434723
0.013333221897482872
0.026890212669968605
0.000834572128951550
-0.019976137205958366
0.020628944039344788
-0.006268429104238749
-0.003210619557648897
-0.014125800691545010
-0.022649202495813370
0.031084468588232994
0.017945228144526482
0.013873258605599403
0.042234465479850769
-0.013003794476389885
-0.009089836850762367
