0.00000000,0.00000000,0.00000000,0.00000000,0.00000000,0.00000000,0.00000000,0.00000000,0.00000000,0.00000000,0.00000000,0.00000000,0.00000000,0.00000000,0.00000000,0.00000000,0.00000000,0.00000000,0.00000000,0.00000000,0.00000000,0.00000000,0.00000000,0.00000000,0.00000000,0.00000000,0.00000000,0.00000000,0.00000000,0.00000000,0.00000000,0.00000000,0.00000000,0.00000000,0.00000000,0.00000000,0.00000000,0.00000000,0.00000000,0.00000000,0.00000000,0.00000000,0.00000000,0.00000000,0.00000000,0.00000000,0.00000000,0.00000000,0.00000000,0.00000000,0.00000000,0.00000000,0.00000000,0.00000000,0.00000000,0.00000000,0.00000000,0.00000000,0.00000000,0.00000000,0.00000000,0.00000000,0.00000000,0.00000000,0.00000000,0.00000000,0.00000000,0.00000000,0.00000000,0.00000000,0.00000000,0.00000000,0.00000000,0.00000000,0.00000000,0.00000000,0.00000000,0.00000000,0.00000000,0.00000000,0.00000000,0.00000000,0.00000000,0.00000000,0.00000000,0.00000000,0.00000000,0.00000000,0.00000000,0.00000000,0.00000000,0.00000000,0.00000000,0.00000000,0.00000000,0.00000000,-0.00242934,-0.00071600,0.01215408,0.00063423,0.00000000,0.00000000,0.00000000,0.00000000,0.00000000,0.00000000,0.00000000,0.00000000,0.00000000,0.00000000,0.00000000,0.00000000,0.00000000,0.00000000,0.00000000,0.00000000,0.00000000,0.00000000,0.00000000,0.00000000,0.00114220,-0.00297198,-0.00571146,0.00000000,-0.00420813,-0.01892349,0.11406676,0.00000000,0.05367951,0.00426580,0.09968954,0.00000000,-0.00235463,-0.00556145,0.09840336,0.00134295,0.00000000,0.00663149,0.02420879,0.00000000,0.00000000,0.00000000,0.00000000,0.00000000,0.00000000,-0.01102500,-0.00340974,-0.00802946,0.00000000,0.00000000,0.00000000,0.00000000,0.00000000,0.00000000,-0.00001372,0.00000000,-0.02479064,0.00676575,0.02324775,0.00000000,0.18487402,0.02822938,0.20776032,0.00000000,-0.05005461,0.41063013,1.24844764,0.00000000,0.27985596,0.31084787,1.30179382,0.01971450,0.48178150,-0.30336591,0.44419795,0.03922659,-0.16110277,-0.05266653,0.80026603,-0.03883753,0.00000000,0.03932765,0.17828131,-0.05091009,0.00000000,0.04470886,-0.01354261,-0.00026510,0.00000000,0.00000000,0.00000000,0.00000000,0.01295931,0.05103683,0.00000000,0.00054176,0.00000000,0.00000000,0.00000000,0.00000000,0.06436889,0.00872340,0.02113632,0.00000000,-0.35895550,0.22610913,0.20027168,-0.03210686,0.28577132,-0.23991929,-0.39514694,0.63312610,-0.02870503,0.14802428,-0.89211263,-0.14618304,0.05055916,0.43619044,-0.52224205,0.66874331,0.24714928,0.57780451,-0.01771661,0.06878666,0.59869332,-0.59831106,-0.22216245,0.36796044,0.00216431,0.49523899,-0.32589741,0.30783092,-0.00717090,-0.08876609,-0.02237940,0.00000000,0.00000000,0.00000000,0.00000000,0.00000000,0.00000000,0.00030997,0.00000000,0.00000000,0.00000000,0.00000000,0.00000000,0.00000000,0.06378954,-0.05001918,0.00000000,-0.01163661,-0.14618247,0.34709542,0.00000000,0.24024141,-0.09128680,0.55122519,0.00000000,0.66884360,-0.16211502,0.24920200,0.00000000,-0.26151727,-0.65447629,-0.38377171,-0.24636638,-0.16632674,-0.27248658,-0.78331601,-0.65169503,-0.22844025,0.00603189,-0.70717355,0.00000000,-0.29306403,0.01386169,0.58577637,0.00000000,0.15569904,-0.00648192,0.06015107,0.00000000,0.00000000,0.00000000,0.00000000,0.00000000,0.00000000,0.00000000,0.00000000,0.00000000,0.00000000,0.00000000,0.00000000,0.00000000,0.00000000,0.00000000,0.00000000,0.00000000,-0.02779911,0.00000000,-0.00543276,0.00000000,-0.07685323,-0.10494854,-0.13977679,-0.00304591,-0.07707820,-0.81854418,-0.19155496,-0.95189048,-0.02422105,0.31944255,-0.45780078,0.09760207,-0.45813146,0.02768819,-0.26364911,0.07171965,0.36211349,-0.08744555,0.49496393,0.00000000,0.24542825,-0.00757133,0.13735763,0.00000000,0.00000000,-0.00027551,-0.00248115,0.00000000,0.00000000,0.00000000,0.00000000,0.00000000,0.00000000,0.00000000,0.00000000,0.00000000,0.00000000,0.00000000,0.00000000,0.00000000,0.00000000,0.00000000,0.00000000,0.00000000,0.00000000,0.00615450,-0.00966919,0.09887538,0.00000000,0.02240660,-0.29104479,0.10040918,-0.00431886,-0.51268849,0.19443712,0.31907703,-0.57881325,0.03899430,-0.48379925,0.08066165,-0.59791889,-0.08033386,0.11086657,0.00000000,-0.18744843,-0.06336981,0.13586771,0.00000000,0.00000000,-0.00356087,-0.00466164,0.00000000,0.00000000,0.00000000,0.00000000,0.00000000,0.00000000,0.00000000,0.00000000,0.00000000,0.00000000,0.00000000,0.00000000,0.00000000,0.00000000,0.00000000,0.00000000,0.00000000,0.00000000,0.02413204,-0.00197962,0.02885225,0.00000000,-0.13269411,0.20565647,-0.32604134,0.00000000,-0.38157249,-0.02603164,0.23219245,-0.33368186,-0.06219447,0.02260882,0.06559327,0.38971632,-0.09341470,-0.15880393,0.00000000,0.18603288,-0.00135173,-0.07086083,0.00000000,0.00000000,0.00233876,0.00323554,0.00000000,0.00000000,0.00000000,0.00000000,0.00000000,0.00000000,0.00000000,0.00000000,0.00000000,0.00000000,0.00000000,0.00000000,0.00000000,0.00000000,0.00000000,0.00000000,0.00000000,0.00000000,0.00000000,0.00000000,0.00000000,0.00000000,0.05037756,-0.02230287,-0.07523887,-0.00156519,0.37484701,0.52404347,-0.14162113,0.35761163,-0.07153042,0.33623749,-0.02417592,0.35875714,-0.05861594,-0.30118810,0.00000000,0.42327690,0.02513759,-0.02293385,0.00000000,0.00000000,-0.00071361,0.00204579,0.00000000,0.00000000,0.00000000,0.00000000,0.00000000,0.00000000,0.00000000,0.00000000,0.00000000,0.00000000,0.00000000,0.00000000,0.00000000,0.00000000,0.00000000,0.00000000,0.00000000,0.00000000,0.00000000,0.00000000,0.00000000,0.00000000,0.00000000,0.00000000,0.00000000,0.00000000,-0.03589176,0.02564813,0.00000000,0.03976006,0.05634305,0.54516025,0.00000000,-0.30097215,0.06592284,0.14340097,0.00000000,-0.12490868,0.03394193,-0.22688647,0.00000000,0.00000000,0.00021552,0.00338358,0.00000000,0.00000000,0.00000000,0.00000000,0.00000000,0.00000000,0.00000000,0.00000000,0.00000000,0.00000000,0.00000000,0.00000000,0.00000000,0.00000000,-0.13357660,-0.05780610,-0.14000369,0.00000000,-0.06409656,0.06486159,0.11250443,0.00000000,0.00000000,0.00000000,0.00000000,0.00000000,0.00000000,0.00000000,0.00000000,0.00000000,0.00000000,0.00000000,0.00000000,0.04207434,0.00000000,-0.00299627,0.00000000,0.22975615,0.05896517,0.05415983,0.00000000,0.01807445,0.04082040,0.04790505,0.00000000,0.00000000,0.00000000,0.00000000,0.00000000,0.00000000,0.00000000,0.00000000,0.00000000,0.00000000,0.00000000,0.00000000,0.00000000,0.00000000,0.00000000,0.00000000,0.00000000,0.00000000,-0.06573142,-0.02810452,-0.00357352,0.01231670,-0.27807509,0.10739824,-0.00634241,-0.18027301
0.00000000,0.00000000,0.00000000,0.00000000,0.00000000,0.00000000,0.00000000,0.00000000,0.00000000,0.00000000,0.00000000,0.00000000,0.00000000,0.00000000,0.00000000,0.00000000,0.00000000,0.00000000,0.00000000,0.00000000,0.00000000,0.00000000,0.00000000,0.00000000,-0.02178636,-0.00133889,-0.01491385,0.00000000,-0.01277417,0.00018974,0.03419917,0.00000000,0.00000000,-0.01131079,0.01862643,0.00000000,0.00000000,0.00000000,0.00000000,0.00000000,0.00000000,0.00000000,0.00000000,0.00000000,0.00000000,0.00000000,0.00000000,0.00000000,0.00000000,0.00000000,0.00000000,0.00000000,0.00000000,0.00000000,0.00000000,0.00000000,0.00000000,0.00000000,0.00000000,0.00000000,0.00000000,0.00000000,0.00000000,0.00000000,0.01030759,0.00684628,-0.10049055,0.00000000,-0.05798695,0.06994707,-0.38026578,0.00000000,-0.06633604,0.19331327,0.39070118,-0.08174120,0.00091882,-0.28469888,-0.55196210,0.02724143,0.00000000,0.05932871,0.13140669,-0.02515906,0.00000000,-0.00797123,-0.00136457,0.00013739,0.00000000,0.00000000,0.00000000,0.00000000,0.00000000,0.00000000,0.00000000,0.00000000,0.00000000,0.00000000,0.00000000,0.00000000,0.00000000,0.00000000,0.00000000,0.00000000,0.00000000,0.00000000,0.00000000,0.00000000,-0.01177876,-0.00640420,-0.00696206,0.00000000,-0.12405007,-0.00736079,0.02034960,-0.01455528,0.18177274,-0.00491911,-0.08934078,-0.29541419,0.01866434,-0.69588356,-0.14814035,0.21874647,-0.04443690,-0.56781776,0.69925506,0.00615549,0.18232519,0.04624297,0.30157488,-0.06178712,0.00000000,-0.01219279,0.11505388,0.00163241,0.00000000,0.00000000,0.00000000,0.00000000,0.00000000,0.00000000,0.00000000,0.00000000,0.00000000,0.00000000,0.00000000,0.00000000,0.00000000,0.00000000,0.00000000,0.00000000,0.00000000,0.00000000,0.00000000,0.00000000,-0.08497983,0.02662641,0.04295609,0.00000000,0.35699612,0.09665624,0.10120126,0.36316897,0.00000000,0.70177402,0.00000000,-0.09765276,0.12881099,0.28151038,0.00000000,0.04858945,0.49676123,-0.34669055,0.00000000,0.16626071,-0.08782886,-0.06170191,0.13391651,-0.09937076,0.00000000,0.01836703,0.03263736,0.00000000,0.00000000,0.00000000,0.00000000,0.00000000,0.00000000,0.00000000,0.00000000,0.00000000,0.00000000,0.00000000,0.00000000,0.00000000,0.00000000,0.00000000,0.00000000,0.00000000,0.00000000,0.00000000,0.00000000,0.00000000,-0.18511630,0.08150854,0.02987673,-0.11169835,0.18771282,-0.16891076,-0.02495444,0.65291265,-0.00508972,0.10550745,0.00000000,-0.06102925,0.03405233,0.06291824,0.00000000,0.05081584,0.13972852,0.33552785,0.00000000,0.06499929,0.14445588,-0.38235367,0.00000000,0.24696110,0.00259208,0.14149035,0.00000000,0.00000000,0.00000000,0.00000000,0.00000000,0.00000000,0.00000000,0.00000000,0.00000000,0.00000000,0.00000000,0.00000000,0.00000000,0.00000000,0.00000000,0.00000000,0.00000000,0.00000000,0.00000000,0.00000000,0.00000000,0.00000000,-0.04782659,0.08348017,0.00000000,0.10849593,-0.03953739,0.32182875,0.00000000,0.38110308,-0.08872899,0.13868253,0.00000000,-0.02124527,-0.32983980,-0.07588805,-0.18888161,-0.00503686,-0.17501338,-0.55356984,-0.17561323,-0.14271659,0.00075851,-0.47998926,0.00000000,-0.15416380,0.00924910,0.14837703,0.00000000,0.00000000,0.00000000,0.00000000,0.00000000,0.00000000,0.00000000,0.00000000,0.00000000,0.00000000,0.00000000,0.00000000,0.00000000,0.00000000,0.00000000,0.00000000,0.00003256,0.00000000,-0.00228188,0.00178324,0.04271793,0.00000000,-0.18826659,-0.01123216,0.51463395,-0.01847532,-0.27094646,-0.19006208,-0.15892151,-0.03135680,-0.43617897,-0.19633188,-1.43264294,0.00000000,0.24358883,-0.33066252,0.13605940,-0.16809574,0.09017551,-0.27375317,0.28417779,0.23784601,-0.04226489,0.50635190,0.01525823,0.13803559,-0.00100587,0.06697573,0.01713309,0.00000348,0.00000000,0.00000000,0.00000000,0.00000000,0.00000000,0.00000000,0.00000000,0.00000000,0.00000000,0.00000000,0.00000000,0.00000000,-0.10087702,0.01361575,-0.01563312,0.00000000,-0.01064922,0.16868942,0.00743996,-0.09767331,0.03589454,-0.25201592,1.08123897,-0.47811017,0.01436557,-0.63120017,0.20228642,-0.18850444,-0.38390982,0.18754987,0.48954366,-0.41109011,0.24636129,-0.55750396,0.46652169,-0.57523649,-0.16288258,0.15508912,-0.02843766,-0.33024450,-0.07275760,0.40593904,0.00000000,0.07279763,-0.03572571,-0.08215245,0.00005861,0.00000000,0.00000000,0.00000000,0.00000000,0.00000000,0.00000000,0.00000000,0.00000000,0.00000000,0.00000000,0.00000000,0.00000000,0.00000000,0.01246383,0.00979533,0.00000000,-0.05563003,0.06401647,-0.05284969,0.00000000,-0.09828819,-0.00428779,0.38640341,0.00000000,0.34863678,-0.05891947,-0.01778435,0.00000000,-0.22260704,-0.21368630,0.01677204,0.00000000,0.16366556,-0.41084123,-0.20097958,0.00000000,0.29949999,-0.00122991,-0.26786883,0.00000000,-0.37436205,0.03038030,0.12838645,0.00000000,0.00000000,-0.02793015,0.00587513,0.00000000,0.00000000,0.00000000,0.00000000,0.00000000,0.00000000,0.00000000,0.00000000,0.00000000,0.00000000,0.00000000,0.00000000,0.00000000,0.00000000,0.00000000,0.00000000,0.00000000,0.00896845,0.00000000,-0.00256150,0.00000000,-0.04794894,0.01205789,0.06404807,-0.00370701,0.02241186,-0.15468319,0.08132774,-0.03915855,0.00000000,-0.32770808,-0.26871223,0.14585137,0.63404189,0.00087661,-0.06717262,0.00000000,-0.23004155,-0.01105815,0.11627273,0.00000000,0.00194961,-0.01125048,0.00072541,0.00000000,0.00000000,0.00000000,0.00000000,0.00000000,0.00000000,0.00000000,0.00000000,0.00000000,0.00000000,0.00000000,0.00000000,0.00000000,0.00000000,0.00000000,0.00000000,0.00000000,0.00000000,0.00000000,0.00000000,0.00000000,0.00000000,0.00000000,0.00000000,0.00000000,0.00000000,0.02153950,0.03114491,-0.01524900,0.00000000,0.25304999,0.06866791,0.09650563,-0.09691220,0.10352877,-0.57973175,-0.04623551,0.22924516,0.00184556,0.17688415,0.00000000,0.02790298,-0.01520526,-0.12850153,0.00000000,0.00000000,0.00000000,0.00000000,0.00000000,0.00000000,0.00000000,0.00000000,0.00000000,0.00000000,-0.13357660,-0.05780610,-0.14000369,0.00000000,-0.06409656,0.06486159,0.11250443,0.00000000,0.00000000,0.00000000,0.00000000,0.00000000,0.00000000,0.00000000,0.00000000,0.00000000,0.00000000,0.00000000,0.00000000,0.00000000,0.02036322,-0.00048291,0.00000000,0.07076413,0.10709069,0.08467842,0.00000000,0.19998023,0.05495475,0.54908274,0.00000000,0.08659209,-0.01148170,0.22489002,0.00000000,0.00000000,-0.00181519,-0.00203231,0.00000000,0.00000000,0.00000000,0.00000000,0.00000000,0.00000000,0.00000000,0.00000000,0.00000000,0.00000000,-0.06573142,-0.02810452,-0.00357352,0.01231670,-0.27807509,0.10739824,-0.00634241,-0.18027301
0.00000000,0.00000000,0.00000000,0.00000000,0.00000000,0.00000000,0.00000000,0.00000000,0.00000000,0.00000000,0.00000000,0.00000000,0.00000000,0.00000000,0.00000000,0.00000000,0.00000000,0.00000000,0.00000000,0.00000000,0.00000000,0.00000000,0.00000000,0.00000000,0.00000000,0.00000000,0.00000000,0.00000000,0.00000000,0.00000000,0.00000000,0.00000000,0.00000000,0.00000000,0.00000000,0.00000000,0.00000000,0.00000000,0.00000000,0.00000000,0.00000000,0.00000000,0.00000000,0.00000000,0.00000000,0.00000000,0.00000000,0.00000000,0.00000000,0.00000000,0.00000000,0.00000000,0.00000000,0.00000000,0.00000000,0.00000000,0.01867433,-0.00898781,-0.00108535,0.00000000,0.00679543,-0.00742334,0.02157511,-0.00664882,0.00000000,0.00000000,0.00000000,0.00000000,0.00000000,0.00000000,0.00000000,0.00000000,0.00000000,0.00000000,0.00000000,0.00000000,0.00000000,0.00000000,0.00000000,0.00000000,0.00000000,0.00000000,0.00000000,0.00000000,0.00000000,0.00000000,0.00000000,0.00000000,0.00000000,0.00000000,0.00000000,0.00000000,0.00000000,0.00000000,0.00000000,0.00000000,0.00000000,0.00000000,0.00000000,0.00000000,-0.07359391,-0.00749654,-0.03450866,0.00000000,-0.04393697,-0.01405491,-0.21971566,0.00497807,0.00000000,-0.22349217,-0.11004050,0.06060313,0.00000000,-0.00088122,0.00583154,-0.00062316,0.00000000,-0.00001221,-0.00134488,0.00000000,0.00000000,0.00000000,0.00000000,0.00000000,0.00000000,0.00000000,0.00000000,0.00000000,0.00829318,0.00007039,0.00760078,0.00000000,-0.00531789,-0.00100046,0.02699868,0.00050368,0.00000000,0.00672455,0.02475753,0.00000000,0.00000000,0.00000000,0.00000000,0.00000000,0.00000000,0.00000000,0.00000000,0.00000000,0.07490726,-0.06394013,0.02183436,-0.01807572,0.06301569,-0.55212694,-0.05686505,-0.01713586,-0.14799370,0.21903615,0.20858109,0.09055585,0.03422141,0.08767020,0.40035336,0.00874300,-0.00187016,0.15903801,0.47120105,-0.00172989,0.00369720,0.02192149,0.12471035,0.00106955,0.22317977,-0.04302539,0.11361716,0.00000000,-0.11460103,-0.02361639,0.46350704,0.00000000,0.06646354,0.02496067,0.15013309,-0.03045607,0.00000000,0.06106726,-0.02132113,-0.00067329,0.00000000,0.00000000,0.00000000,0.00000000,0.00000000,0.00000000,0.00000000,0.00000000,-0.10995379,0.03620461,0.00000000,-0.02943371,0.25502414,0.12461573,0.00000000,-0.66452886,-0.24472991,0.57664832,0.10849502,-0.46687956,0.22273803,-0.23123378,-0.29160450,0.42538745,-0.02552666,0.10417734,-0.61823518,-0.04087270,0.12058892,0.27437766,-0.71878161,0.12485181,0.16904120,0.41310838,-0.37309282,0.06649794,0.38870464,-0.41080769,-0.40803917,0.29832090,0.00696807,0.41894230,-0.46927110,0.37090648,-0.00083130,-0.17380279,-0.08669713,-0.00401685,0.00000000,0.00000000,0.00000000,0.00000000,0.00000000,0.00000000,0.00000000,0.00000000,-0.03711208,0.00234848,0.00000000,-0.00580661,0.14332984,-0.56021095,0.00000000,-0.06382386,-0.08571891,0.56249013,0.00000000,0.20671987,-0.02173410,0.30986210,0.00000000,0.28532865,-0.16774514,0.17574506,0.00000000,-0.15008167,-0.23334040,-0.36534815,0.00000000,-0.42372450,-0.05464515,-0.49286078,0.00000000,-0.17323285,0.02296634,-0.51155154,0.00000000,-0.19104261,0.03104962,0.60673758,0.00000000,0.23922193,-0.00272849,0.16720468,0.00000000,0.00000000,0.00000000,0.00000000,0.00000000,0.00000000,0.00000000,0.00000000,0.00000000,0.00000000,-0.04568234,0.00226700,0.00000000,-0.06850461,-0.00924770,0.03010944,0.00000000,-0.18001713,-0.21576640,-0.05144484,0.04342257,-0.11080248,0.00000000,-0.23715406,-0.02516587,-0.00859495,0.00000000,0.00000000,0.00000000,-0.01898834,0.00000000,-0.01595317,0.00000000,-0.03801872,0.03199867,-0.03522225,0.00403439,0.02531111,-0.27460160,0.29526001,0.00081931,0.21992393,-0.00606615,0.38375319,0.00000000,0.35172724,-0.00305983,-0.13581416,0.00000000,0.00000000,0.00000000,0.00000000,0.00000000,0.00000000,0.00000000,0.00000000,0.00000000,0.00000000,-0.01389874,0.00027082,0.00000000,0.01559128,-0.00575658,0.14275719,0.00000000,-0.22671794,0.01478405,-0.23200981,0.00000000,-0.38005212,0.00400913,-0.31819094,0.00000000,-0.00081070,0.00000000,0.00000000,0.00000000,0.00000000,0.00000000,0.00000000,0.00000000,0.00000000,-0.14766967,0.01126248,-0.01294940,-0.02178841,-0.18158689,0.28053246,0.00000000,0.15640814,-0.02433664,-0.45271968,0.00000000,-0.25694997,-0.03197741,0.01393810,0.00000000,0.00000000,0.00000000,0.00000000,0.00000000,0.00000000,0.00000000,0.00000000,0.00000000,0.00000000,0.00000000,0.00000000,0.00000000,-0.00315822,0.00000000,-0.00298925,0.00000000,-0.04267352,-0.00442842,0.17314162,0.00000000,0.12310534,-0.05615405,-0.00568436,0.00000000,0.00000000,0.00000000,0.00000000,0.00000000,0.00000000,0.00000000,0.00000000,0.00000000,0.00000000,-0.00174296,-0.02019522,0.00000000,-0.09019204,0.13631942,0.24269521,0.00000000,0.13141295,-0.08112161,0.05911375,0.00000000,-0.34458007,-0.00431119,0.01812287,-0.00501956,0.00000000,0.00000000,0.00000000,0.00000000,0.00000000,0.00000000,0.00000000,0.00000000,0.00000000,0.00000000,0.00000000,0.00000000,0.00000000,0.00000000,0.00000000,0.00000000,0.00000000,0.00000000,0.00000000,0.00000000,0.00000000,0.00000000,0.00000000,0.00000000,0.00000000,0.00000000,0.00000000,0.00000000,0.00000000,0.00000000,0.00000000,0.00000000,0.00000000,-0.01503959,0.01167889,0.00444549,0.02271242,-0.27584470,0.02393083,0.00000000,-0.64755926,-0.12897068,-0.93048736,0.00000000,-0.31043027,-0.00822492,-0.06479173,0.00142000,0.00000000,0.00000000,0.00000000,0.00000000,0.00000000,0.00000000,0.00000000,0.00000000,0.00000000,0.00000000,0.00000000,0.00000000,0.00000000,0.00000000,0.00000000,0.00000000,0.00000000,0.00000000,0.00000000,0.00000000,0.00000000,0.00000000,0.00000000,0.00000000,0.00000000,0.00000000,0.00000000,0.00000000,0.00000000,0.00000000,0.00000000,0.00000000,0.00000000,-0.04331777,-0.10153095,0.01158163,0.00367078,-0.39645120,-0.82000896,0.01354177,-0.72970165,-0.01357128,-0.13623819,0.00000000,0.00144316,-0.13357660,-0.21861766,-0.14000369,0.00000000,-0.06409656,0.06486159,0.11250443,0.00000000,0.00000000,0.00000000,0.00000000,0.00000000,0.00000000,0.00000000,0.00000000,0.00000000,0.00000000,0.00000000,0.00000000,0.00000000,0.00000000,0.00000000,0.00000000,0.00000000,0.00000000,0.00000000,0.00000000,0.00000000,0.00000000,0.00000000,0.00000000,0.00000000,0.00000000,0.00000000,0.00000000,0.00000000,-0.13083247,-0.06717118,-0.01790540,-0.02103091,-0.31230272,-0.45813975,0.00000000,-0.63886104,-0.05031769,0.13172331,0.00000000,0.03936034,-0.06573142,-0.02810452,-0.00357352,0.01231670,-0.27807509,0.10739824,-0.00634241,-0.18027301
0.00000000,0.00000000,0.00000000,0.00000000,0.00000000,0.00000000,0.00000000,0.00000000,0.00000000,0.00000000,0.00000000,0.00000000,0.00000000,0.00000000,0.00000000,0.00000000,0.00000000,0.00000000,0.00000000,0.00000000,0.00000000,0.00000000,0.00000000,0.00000000,0.00000000,0.00000000,0.00000000,0.00000000,0.00000000,0.00000000,0.00000000,0.00000000,0.00000000,0.00000000,0.00000000,0.00000000,0.00000000,0.00000000,0.00000000,0.00000000,0.00000000,0.00000000,0.00000000,0.00000000,0.00000000,0.00000000,0.00000000,0.00000000,0.00000000,0.00000000,0.00000000,0.00000000,0.00000000,0.00000000,0.00000000,0.00000000,0.00000000,0.00000000,0.00000000,0.00000000,0.00000000,0.00000000,0.00000452,0.00000000,0.01130819,0.00755094,-0.11009753,0.00000000,-0.02762559,0.03581744,-0.26119992,0.00000000,-0.01467274,0.08089758,0.18430938,-0.02160066,0.00000000,-0.06033190,-0.14386654,0.00779396,0.00000000,0.00000000,0.00000000,0.00000000,0.00000000,0.00000000,0.00000000,0.00000000,0.00000000,0.00000000,0.00000000,0.00000000,0.00000000,0.00000000,0.00000000,0.00000000,0.00000000,0.00000000,0.00000000,0.00000000,0.00000000,0.00000000,0.00000000,0.00000000,0.00000000,0.00000000,0.00000000,0.00000000,-0.03977945,-0.02637166,-0.02096576,0.00000000,-0.14010556,-0.00955779,0.03150895,-0.01257547,0.17537363,-0.00690906,-0.14275440,-0.19640132,0.02013899,-0.83925082,-0.30654548,0.12916285,0.00000000,-0.30574467,0.52748521,0.00221275,0.00000000,0.00036916,0.01185203,0.00000000,0.00000000,0.00000000,0.00000000,0.00000000,0.00000000,0.00000000,0.00000000,0.00000000,0.00000000,0.00000000,0.00000000,0.00000000,0.00000000,0.00000000,0.00000000,0.00000000,0.00000000,0.00000000,0.00000000,0.00000000,0.00512152,-0.01222806,-0.00719832,0.00000000,-0.18594030,0.07616807,0.12198546,0.00000000,0.47646189,0.16260904,0.31013734,0.50867640,-0.03659676,1.17694500,0.34144275,-0.11219854,0.33692471,0.64395563,0.00000000,0.10467088,0.04948913,-0.33524215,0.03791725,0.03541526,0.00000000,-0.00328911,0.04103822,0.00000000,0.00000000,0.00000000,0.00000000,0.00000000,0.00000000,0.00000000,0.00000000,0.00000000,0.00000000,0.00000000,0.00000000,0.00000000,0.00000000,0.00000000,0.00000000,0.00000000,-0.00489188,0.00061481,-0.00364892,0.00000000,0.20390284,0.03572985,0.05642889,-0.01801187,-0.32832348,0.36385149,0.17911250,-0.46300492,0.11152887,-0.25108750,-0.11578468,0.97095613,-0.02359659,0.14299174,0.00000000,-0.11709163,0.16655728,0.50957759,0.00000000,0.39854841,0.04326687,0.56728825,-0.03973765,0.02669727,0.00000000,-0.05889197,-0.02998275,0.00000000,0.00000000,0.00000000,0.00000000,0.00000000,0.00000000,0.00000000,0.00000000,0.00000000,0.00000000,0.00000000,0.00000000,0.00000000,0.00000000,0.00000000,0.00000000,0.00000000,-0.00104700,0.00000000,0.00000000,-0.00024253,0.08333845,-0.16473651,0.00000000,-0.03699537,-0.05937638,0.42564722,0.00000000,0.28679770,-0.06215872,0.46646546,0.00000000,0.41208923,-0.38331127,0.10678980,0.00000000,-0.08192353,-0.47949255,-0.59166168,0.00000000,-0.51699446,-0.04551563,-0.82470825,-0.00625883,-0.08585605,0.00206786,-0.10707465,-0.03473000,0.00000000,0.00000000,0.00000000,0.00000000,0.00000000,0.00000000,0.00000000,0.00000000,0.00000000,0.00000000,0.00000000,0.00000000,0.00000000,0.00000000,0.00000000,0.00000000,0.00000000,0.00000000,0.00000000,0.00000000,-0.00030625,0.00000000,0.00000000,0.00000000,-0.04371584,0.00000000,-0.00713537,0.00000000,-0.03780315,-0.04466667,-0.08262447,0.00000000,0.00000000,-0.38961832,-0.09786779,0.00000000,-0.12379846,0.22226866,-0.46628114,0.00000000,-0.33051851,0.01142656,-0.25360046,0.00000000,0.13788037,-0.03150002,0.09217826,0.00000000,0.00000000,0.00000000,0.00000000,0.00000000,0.00000000,0.00000000,0.00000000,0.00000000,0.00000000,0.00000000,0.00000000,0.00000000,0.00000000,0.00000000,0.00000000,0.00000000,0.00000000,0.00000000,0.00000000,0.00000000,0.00000000,0.00000000,0.00000000,0.00000000,0.00000000,0.00000000,0.00000000,0.00000000,0.00000000,0.00000000,0.00000000,0.00000000,0.00000000,-0.24838038,0.04472581,0.00000000,-0.16862103,0.19124888,-0.46145514,0.00000000,-0.35027769,-0.04918709,0.11993930,-0.01876030,-0.09590459,-0.00406396,0.06289851,-0.01214742,0.00000000,0.00000000,0.00000000,0.00000000,0.00000000,0.00000000,0.00000000,0.00000000,0.00000000,0.00000000,0.00000000,0.00000000,0.00000000,0.00000000,0.00000000,0.00000000,0.00000000,0.00000000,0.00000000,0.00000000,0.00000000,0.00000000,0.00000000,0.00000000,0.00000000,0.00000000,0.00000000,0.00000000,0.00000000,0.00000000,0.00000000,0.00000000,0.00000000,-0.11555710,0.00472344,0.00000000,0.11371144,-0.37367769,-0.17872755,0.00000000,0.24857492,-0.00054103,-0.26429262,0.00000000,-0.22903620,0.01501172,0.05338114,0.00000000,0.00000000,0.00000000,0.00000000,0.00000000,0.00000000,0.00000000,0.00000000,0.00000000,0.00000000,0.00000000,0.00000000,0.00000000,0.00000000,0.00000000,0.00000000,0.00000000,0.00000000,0.00000000,0.00000000,0.00000000,0.00000000,0.00000000,0.00000000,0.00000000,0.00000000,0.00000000,0.00000000,0.00000000,0.00000000,0.00000000,0.00000000,0.00000000,0.00000000,-0.16469245,-0.07249427,0.00000000,0.20145783,0.09560788,-0.06825517,0.00000000,-0.15449743,-0.00972756,0.20523569,0.03047698,0.06701431,-0.00690326,0.00533121,-0.07297167,0.00000000,0.00000000,0.00000000,0.00000000,0.00000000,0.00000000,0.00000000,0.00000000,0.00000000,0.00000000,0.00000000,0.00000000,0.00000000,0.00000000,0.00000000,0.00000000,0.00000000,0.00000000,0.00000000,0.00000000,0.00000000,0.00000000,0.00000000,0.00000000,0.00000000,0.00000000,0.00000000,0.00000000,0.00000000,0.00000000,0.00000000,0.00000000,0.00000000,0.10844968,-0.14922245,0.00000000,0.07831435,0.00791192,0.22398814,0.00000000,0.04547890,-0.04276785,-0.97078498,0.03015958,0.01712720,0.00000000,-0.31711705,0.04884389,-0.00859682,0.00000000,0.00000000,0.00000000,0.00000000,-0.13357660,-0.05780610,-0.14000369,0.00000000,-0.06409656,0.06486159,0.11250443,0.00000000,0.00000000,0.00000000,0.00000000,0.00000000,0.00000000,0.00000000,0.00000000,0.00000000,0.00000000,0.00000000,0.00000000,0.00000000,0.00000000,0.00000000,0.00000000,0.00000000,0.00000000,0.00000000,0.00000000,0.00000000,0.23040878,0.19962821,0.00000000,0.05586292,-0.04252679,0.59180368,0.00000000,-0.67798144,-0.09976547,-0.39162165,-0.01415601,-0.06382440,-0.07685105,-0.18835128,0.00551578,-0.01236625,0.00000000,0.00000000,0.00000000,0.00000000,-0.06573142,-0.02810452,-0.00357352,0.01231670,-0.27807509,0.10739824,-0.00634241,-0.18027301
0.00000000,0.00000000,0.00000000,0.00000000,0.00000000,0.00000000,0.00000000,0.00000000,0.00000000,0.00000000,0.00000000,0.00000000,0.00000000,0.00000000,0.00000000,0.00000000,0.00000000,0.00000000,0.00000000,0.00000000,0.00000000,0.00000000,0.00000000,0.00000000,0.00000000,0.00000000,0.00000000,0.00000000,0.00000000,0.00000000,0.00000000,0.00000000,0.00000000,0.00000000,0.00000000,0.00000000,0.00000000,0.00000000,0.00000000,0.00000000,0.00000000,0.00000000,0.00000000,0.00000000,0.00000000,0.00000000,0.00000000,0.00000000,0.00000000,0.00000000,0.00000000,0.00000000,0.00000000,0.00000000,0.00000000,0.00000000,0.00000000,0.00000000,0.00000000,0.00000000,0.00000000,0.00000000,0.00000000,0.00000000,0.00000000,0.00000000,-0.00022157,0.00000000,-0.02163527,0.01460008,-0.12945256,0.00000000,-0.03838469,0.07468706,0.18561539,0.00000000,0.00077706,-0.14181059,-0.31179034,0.01255991,0.00000000,0.01598987,0.05521045,-0.01309761,0.00000000,0.00000000,0.00000000,0.00000000,0.00000000,0.00000000,0.00000000,0.00000000,0.00000000,0.00000000,0.00000000,0.00000000,0.00000000,0.00000000,0.00000000,0.00000000,0.00000000,0.00000000,0.00000000,0.00000000,0.00000000,0.00000000,0.00000000,0.00000000,0.00000000,0.00000000,0.00000000,0.00000000,-0.08208127,-0.00372332,0.01752982,0.00000000,0.19560841,-0.00468262,-0.11159581,-0.10625529,0.03607210,-0.86461382,-0.33027752,0.16732421,-0.00894120,-0.66665551,1.40219221,0.00863047,0.00000000,0.01461756,0.10984631,0.00000000,0.00000000,0.00000000,0.00000000,0.00000000,0.00000000,0.00000000,0.00000000,0.00000000,0.00000000,0.00000000,0.00000000,0.00000000,0.00000000,0.00000000,0.00000000,0.00000000,0.00000000,0.00000000,0.00000000,0.00000000,0.00000000,0.00000000,0.00000000,0.00000000,-0.04385647,0.01316355,0.03386780,0.00000000,0.47485790,0.09088865,0.20617647,0.17909039,-0.06671036,1.18271333,0.82326362,-0.11226517,0.35548195,0.69263206,0.09076684,0.15932892,0.48213891,-0.56993885,0.10198931,0.13016651,0.00000000,-0.03297836,0.17561077,-0.01001710,0.00000000,0.00000000,0.00000000,0.00000000,0.00000000,0.00000000,0.00000000,0.00000000,0.00000000,0.00000000,0.00000000,0.00000000,0.00000000,0.00000000,0.00000000,0.00000000,0.00000000,0.00000000,0.00000000,0.00000000,0.00947503,0.00087789,0.00429849,0.00000000,-0.29866674,0.12735057,0.09883094,-0.00439306,0.30790572,-0.24685316,-0.14284051,0.87805387,-0.01497693,0.19310181,0.00000000,-0.15582121,0.18670015,0.61531012,0.00000000,0.60946165,0.20544543,0.76873160,-0.02902333,0.08074471,0.01904862,-0.35102486,-0.07923127,0.04449889,0.00000000,0.01019408,-0.03942692,0.00066321,0.00000000,-0.00297666,-0.00916443,0.00000000,0.00000000,0.00000000,0.00000000,0.00000000,0.00000000,0.00000000,0.00000000,0.00000000,0.00000000,0.00000000,0.00000000,0.00000000,0.15954338,-0.11852511,-0.12027566,0.00000000,-0.26971749,0.45381759,-0.08025952,0.20105985,-0.18895456,0.62278386,-0.03800051,0.72714568,-0.09351377,0.31106901,0.00000000,-0.24136299,-0.41454928,-0.37376437,0.00000000,-0.41496911,-0.19899326,-0.89412910,0.00000000,-0.15631774,0.02333170,-0.61173519,-0.51157548,-0.02835528,0.00000000,0.18124668,-0.06400929,0.05466287,0.00000000,0.01307586,-0.00500881,0.00006473,0.00000000,0.00000000,0.00000000,0.00000000,0.00000000,0.00000000,0.00000000,0.00000000,-0.15358269,0.01714396,0.02428704,0.00000000,-0.01550310,0.02894026,0.20211257,-0.12861169,-0.36083456,-0.07143944,0.56167817,-0.22720375,-0.00393898,-0.61817176,0.00000000,-0.27412842,-0.13107051,-0.21768859,0.00000000,-0.01199563,0.09487656,-0.09648945,0.00000000,-0.16088567,0.14619102,-0.26758092,0.00000000,0.23112655,-0.35808314,0.68116271,0.09432719,0.29046142,-0.00022488,0.32676787,0.11935148,0.11797396,-0.00092640,-0.02308967,0.00064485,0.00000000,0.00000000,0.00000000,0.00000000,0.00000000,0.00000000,0.00000000,0.00000000,0.00000000,-0.14446008,0.01789868,-0.01583357,0.06849370,-0.00934610,0.24194577,0.00249597,-0.36332368,0.02013979,-0.35483161,0.00000000,-0.60276666,0.00400794,-0.65739786,0.00000000,-0.08386739,-0.06512984,0.03645548,0.00000000,0.00000000,0.06815761,-0.03055814,0.00000000,-0.11208914,-0.42859539,0.10783862,0.00000000,-0.23807223,-0.25190031,0.63393842,0.00000000,0.20531950,-0.02002365,-0.51698429,0.01184291,-0.10782745,0.00000000,0.00608906,0.03911689,-0.00499999,0.00000000,0.00000000,0.00000000,0.00000000,0.00000000,0.00000000,0.00000000,0.00000000,0.00000000,0.00000000,0.00000000,-0.05677254,0.00000000,-0.02735189,0.00000000,-0.07654754,-0.01286426,0.30337699,0.00000000,0.20138254,-0.06405671,-0.01041817,0.00000000,0.00000000,-0.01329045,0.00076148,0.01185448,0.00000000,-0.38477017,-0.04753160,-0.30418395,0.04081932,-0.00603949,-0.23794126,-0.35248765,-0.59090293,0.08880688,0.51299602,0.00000000,0.25709756,-0.07501605,0.07041490,0.00000000,-0.25192235,-0.02870822,0.00619464,0.00000000,0.00000000,0.00000000,0.00000000,0.00000000,0.00000000,0.00000000,0.00000000,0.00000000,0.00000000,0.00000000,0.00000000,0.00000000,0.00000000,0.00000000,0.00000000,0.00000000,0.00000000,0.00000000,0.00000000,0.00000000,0.00000000,0.00000000,0.00000000,0.00000000,0.00000000,-0.13192780,-0.03756171,0.04837090,0.00163927,0.11297547,-0.05035674,0.17052757,-0.14475895,-0.02895822,0.22105303,0.08704758,0.25466261,-0.02956153,0.03802433,0.00000000,-0.76600921,-0.11000009,-0.46022694,0.00000000,0.00000000,-0.00330937,-0.00470818,0.00000000,0.00000000,0.00000000,0.00000000,0.00000000,0.00000000,0.00000000,0.00000000,0.00000000,0.00000000,0.00000000,0.00000000,0.00000000,0.00000000,0.00000000,0.00000000,0.00000000,0.00000000,0.00000000,0.00000000,0.00000000,0.00000000,0.03884222,0.00568222,0.03139989,0.00000000,0.16232704,-0.20358476,-0.28357519,0.03008989,0.00876916,0.19990125,0.11540633,0.06987144,-0.00541773,-0.93514882,0.00000000,0.04930914,-0.09274571,-0.54042644,0.00000000,-0.07619376,-0.06808443,-0.01332324,0.00000000,0.00000000,-0.13357660,-0.05780610,-0.14000369,0.00000000,-0.06409656,0.06486159,0.11250443,0.00000000,0.00000000,0.00000000,0.00000000,0.00000000,0.00000000,0.00000000,0.00000000,0.00000000,0.00000000,0.00000000,0.00000000,0.00000000,0.00000000,0.00000000,0.00000000,0.00000000,0.06958547,0.01054304,-0.00089372,0.02328229,0.41426271,0.39290963,-0.02624316,0.08775276,-0.01607293,0.49715485,0.00000000,-0.72438393,-0.05070319,-0.26658372,0.00000000,-0.03720999,-0.08433371,-0.06498342,0.00000000,0.00000000,0.00000000,0.00000000,0.00000000,0.00000000,-0.06573142,-0.02810452,-0.00357352,0.01231670,-0.27807509,0.10739824,-0.00634241,-0.18027301
0.00000000,0.00000000,0.00000000,0.00000000,0.00000000,0.00000000,0.00000000,0.00000000,0.00000000,0.00000000,0.00000000,0.00000000,0.00000000,0.00000000,0.00000000,0.00000000,0.00000000,0.00000000,0.00000000,0.00000000,0.00000000,0.00000000,0.00000000,0.00000000,0.00000000,0.00000000,0.00000000,0.00000000,0.00000000,0.00000000,0.00000000,0.00000000,0.00000000,0.00000000,0.00000000,0.00000000,0.00000000,0.00000000,0.00000000,0.00000000,0.00000000,0.00000000,0.00000000,0.00000000,0.00000000,0.00000000,0.00000000,0.00000000,0.00000000,0.00000000,0.00000000,0.00000000,0.00000000,0.00000000,0.00000000,0.00000000,0.00000000,0.00000000,0.00000000,0.00000000,0.00816844,-0.00209852,0.01076292,0.00000000,0.00000000,0.00225133,-0.03310905,-0.00212627,0.00000000,0.00000000,0.00000000,0.00000000,0.00000000,0.00000000,0.00000000,0.00000000,0.00048537,-0.00878672,-0.03315756,0.00000000,0.00240405,0.00782637,0.03613193,0.00000000,0.00000000,-0.01399784,-0.00225869,0.00000000,0.00000000,0.00000000,0.00000000,0.00000000,0.00000000,0.00000000,0.00000000,0.00000000,0.00000000,0.00000000,0.00000000,0.00000000,-0.04331462,-0.00341476,-0.02910671,0.00000000,-0.04849147,-0.01310417,-0.23161257,0.00000000,-0.11225630,-0.28375901,-0.16324827,0.04183498,-0.04771462,-0.00573647,0.02668004,-0.00445858,0.10514223,-0.00251597,-0.10176758,0.00000000,0.03179329,-0.45839467,-0.31058777,0.00000000,-0.03773188,-0.46009666,1.74699165,0.00221312,0.12927874,0.03947834,0.65447041,-0.05139709,0.00000000,-0.02775528,0.28979300,0.00572339,0.00000000,0.01303383,0.04326611,0.00000000,0.00000000,0.00000000,0.00000000,0.00000000,0.00000000,0.00000000,0.00000000,0.00000000,0.06775700,-0.06233148,0.05921352,-0.02596636,0.05083536,-0.40534023,-0.07663675,-0.02886630,-0.20346390,0.25507816,0.21583636,0.24474763,0.39840560,0.19553232,0.52795891,0.35027017,-0.04778368,0.82323392,1.58501146,-0.09546814,0.23572382,0.44603157,0.86701541,0.14687218,0.51346686,-0.45774117,0.15969708,0.22729035,-0.22805442,-0.08324953,0.51230331,-0.10178458,0.08928804,0.05803318,0.13520446,-0.05138813,0.00000000,0.06307574,-0.01511746,-0.00041670,0.00000000,0.00000000,0.00000000,0.00000000,0.00000000,0.00000000,0.00000000,0.00000000,-0.00464987,0.00000000,0.00000000,-0.02875810,0.15852862,0.06646426,0.00000000,-0.41704819,-0.32721086,0.59651814,0.00000000,-0.46738676,0.10282710,-0.30535827,0.00000000,0.84139670,-0.00232543,0.11340910,0.00000000,-0.11521354,0.01482162,0.25408686,0.00000000,0.33935122,0.15686564,0.38859690,0.00000000,0.05844385,0.50129036,-0.54807406,0.00000000,0.29601946,0.01057582,0.52209173,-0.08941781,0.27725008,0.00000000,-0.18323466,-0.05746539,-0.00053324,0.00000000,0.00000000,0.00000000,0.00000000,0.00000000,0.00000000,0.00000000,0.00000000,-0.00538508,0.00010913,-0.00520335,-0.00061245,0.21259179,-0.28561894,-0.00830743,-0.03074137,-0.18589678,0.67903530,0.00000000,0.23634574,-0.00722121,0.58177531,0.00000000,0.27500452,-0.05586237,0.06610114,0.00000000,0.00000000,-0.00599080,-0.00466919,0.00000000,-0.00714388,-0.07065921,-0.11587537,0.00000000,-0.07503774,0.03171108,-0.61251387,0.00000000,-0.20569029,0.03857166,0.80391852,-0.01090608,0.34140578,-0.00087432,0.22158265,-0.02152259,0.00000000,0.00000000,0.00000000,0.00000000,0.00000000,0.00000000,0.00000000,0.00000000,0.00000000,-0.11075379,0.01313592,0.00964278,-0.00240473,-0.01441361,0.03232665,0.08490547,-0.20468727,-0.26320301,-0.07296537,0.11051772,-0.20998532,-0.05723308,-0.51389310,0.00000000,-0.08646186,-0.03557964,-0.03479554,0.00000000,0.00000000,0.00000000,0.00000000,0.00000000,0.00000000,0.09258594,-0.04903580,0.04436313,0.03733140,-0.42061879,0.51309409,0.01775828,0.39554774,-0.00377182,0.58803658,0.00000000,0.51713900,-0.00727680,-0.21531994,0.00000000,0.00000000,0.00000000,0.00000000,0.00000000,0.00000000,0.00000000,0.00000000,0.00000000,0.00000000,-0.06862868,0.00524206,0.00000000,0.01373341,-0.01151619,0.23646905,0.00000000,-0.30268652,0.01645076,-0.34886305,0.00000000,-0.58308722,0.00340198,-0.53345700,0.00000000,-0.03175599,-0.02728172,0.00703671,0.00000000,0.00000000,0.01180601,-0.00485764,0.01682129,0.00000000,-0.36638172,0.04330285,-0.05809456,-0.09638475,-0.25052326,0.45604810,0.00000000,0.23995998,-0.05630516,-0.56869981,0.00000000,-0.26734289,-0.05877835,0.01290572,0.00000000,0.00000000,0.00000000,0.00000000,0.00000000,0.00000000,0.00000000,0.00000000,0.00000000,0.00000000,0.03462647,0.00782958,0.00000000,-0.03246634,0.14322571,-0.06945459,0.00000000,-0.11523808,-0.02347227,0.49607477,0.00000000,0.30034161,-0.06800854,-0.01036297,0.00000000,0.00000000,0.00000000,0.00000000,0.00000000,0.00000000,-0.19278786,-0.02049981,-0.16787273,0.00000000,-0.00595792,-0.16215984,-0.27162573,-0.45471971,0.03414029,0.36422307,0.00000000,0.21816184,-0.05713119,0.04763577,0.00000000,-0.07384094,-0.01592720,0.00371756,0.00000000,0.00000000,0.00000000,0.00000000,0.00000000,0.00000000,0.00000000,0.00000000,0.00000000,0.00000000,0.00072523,0.00000000,0.00000000,0.05011623,0.00000000,-0.02973378,0.00000000,-0.18013176,0.05558637,0.20851302,0.00000000,0.06473628,-0.01885926,0.02851817,0.00000000,0.00000000,0.00000000,0.00000000,0.00089235,0.00000000,0.10253869,-0.01689272,0.06694657,-0.02432560,-0.04438355,0.17668574,0.03349137,0.23281060,-0.06071118,0.03352103,0.00000000,-0.76264827,-0.10677607,-0.27532193,0.00000000,0.00000000,0.00000000,0.00000000,0.00000000,0.00000000,0.00000000,0.00000000,0.00000000,0.00000000,0.00000000,0.00000000,0.00000000,0.00000000,0.00000000,0.00000000,0.00000000,0.00266355,0.00000000,0.00029584,0.00000000,0.00134831,0.00060055,0.00577210,0.00000000,0.00000000,0.00000000,0.00000000,0.00000000,0.00000000,0.07660226,-0.06642966,-0.15252550,0.00000000,0.00913513,0.11346771,0.15148889,0.04260157,-0.01547664,-0.70681737,0.03438309,0.04400324,-0.09764767,-0.66922463,0.00000000,-0.12572397,-0.02163543,-0.00406000,0.00000000,0.00000000,-0.13357660,-0.05780610,-0.14000369,0.00000000,-0.06409656,0.06486159,0.11250443,0.00000000,0.00000000,0.00000000,0.00000000,0.00000000,0.00000000,0.00000000,0.00000000,0.00000000,0.00000000,0.00000000,0.00000000,0.00000000,0.00000000,0.00000000,0.00000000,0.00000000,0.04806880,0.00639666,-0.00698030,0.00000000,0.42659752,0.27925405,-0.06934526,0.03680545,-0.04583110,0.41446079,-0.11696312,-0.64501352,-0.04531705,-0.27188221,0.00000000,-0.06291757,-0.07632311,-0.14550607,0.00000000,0.00000000,0.00000000,0.00000000,0.00000000,0.00000000,-0.06573142,-0.02810452,-0.00357352,0.01231670,-0.27807509,0.10739824,-0.00634241,-0.18027301
0.00000000,0.00000000,0.00000000,0.00000000,0.00000000,0.00000000,0.00000000,0.00000000,0.00000000,0.00000000,0.00000000,0.00000000,0.00000000,0.00000000,0.00000000,0.00000000,0.00000000,0.00000000,0.00000000,0.00000000,0.00000000,0.00000000,0.00000000,0.00000000,0.00000000,0.00000000,0.00000000,0.00000000,0.00000000,0.00000000,0.00000000,0.00000000,0.00000000,0.00000000,0.00000000,0.00000000,0.00000000,0.00000000,0.00000000,0.00000000,0.00000000,0.00000000,0.00000000,0.00000000,0.00000000,0.00000000,0.00000000,0.00000000,0.00000000,0.00000000,0.00000000,0.00000000,0.00000000,0.00000000,0.00000000,0.00000000,0.00000000,0.00000000,0.00000000,0.00000000,0.00000000,0.00000000,0.00000000,0.00000000,0.00000000,0.00000000,0.00000000,0.00000000,0.00000000,0.00000000,0.00000000,0.00000000,0.00000000,0.00000000,0.00000000,0.00000000,0.00000000,0.00000000,0.00000000,0.00000000,0.00000000,0.00000000,0.00000000,0.00000000,0.00000000,0.00000000,0.00000000,0.00000000,0.00000000,0.00000000,0.00000000,0.00000000,0.00000000,0.00000000,0.00000000,0.00000000,0.00000000,0.00000000,0.00000000,0.00000000,0.00000000,0.00000000,0.00000000,0.00000000,0.00000000,0.00000000,0.00000000,0.00000000,0.00000000,0.00000000,-0.00054333,0.00000000,-0.04628368,-0.00174449,0.01336353,0.00000000,0.04584943,-0.00098393,-0.04202325,-0.01109566,0.00000000,-0.06460045,-0.05110445,0.00659262,0.00000000,0.00000000,0.00000000,0.00000000,0.00000000,0.00000000,0.00017047,0.00000000,-0.03264674,-0.00749760,0.15897963,0.00000000,0.11677449,0.10115206,0.31115550,0.00000000,-0.01648864,-0.06085816,-0.12065033,-0.00596960,0.00000000,0.00000000,0.00000000,0.00000000,0.00000000,0.00000000,0.00009205,0.00000000,0.01335504,-0.03414198,-0.01826756,0.00000000,-0.16350046,0.08777276,0.17547587,0.00000000,0.44655330,0.13480282,0.46447390,0.29912585,-0.01261518,0.69725846,1.20077575,-0.05985810,0.03788073,0.10057412,0.22101013,0.00584380,0.18821643,-0.04223140,0.11333351,0.00000000,-0.14606551,-0.02473156,0.46827583,0.00000000,0.34514093,0.05346216,0.21994128,-0.08755073,0.00095691,0.47799099,-0.11876094,-0.03119994,0.00005910,-0.16525396,-0.46117948,0.22616848,0.00000000,0.00000000,0.00000000,0.00000000,-0.07798261,0.02193853,-0.06217410,0.00000000,0.31130850,0.07575270,0.13755726,-0.10627906,-0.32707022,0.50786577,0.25761555,-0.39698436,0.12836542,-0.28962759,-0.18914737,0.82205332,-0.02954731,0.14995933,-0.27402321,-0.06770798,0.16605335,0.32654926,-1.07518058,0.03090859,0.20343590,0.56376082,-0.57158018,0.05150240,0.45997992,-0.52507417,-0.46857315,0.32359746,0.01868333,0.64199883,-0.57093944,0.70340382,-0.04433131,-0.86663630,-0.07256912,-0.36834695,0.06365335,0.36509533,0.00000000,0.07624833,-0.00099553,0.00606915,-0.02903771,0.00000000,-0.12797314,0.00834451,-0.09341756,-0.00116440,0.28644926,-0.89365779,-0.24477656,-0.08086740,-0.20186206,0.96824519,-0.05819417,0.29385557,-0.33154509,0.92737182,-0.03754383,0.52051729,-0.62308394,0.39083904,-1.07115225,-0.26837840,-0.48072854,-0.66824476,-1.14526295,-0.76324851,-0.17474071,-0.94630572,-0.47074709,-0.20203943,0.03910027,-0.83410341,0.00000000,-0.23966681,0.06341552,1.02139592,0.00000000,0.58755904,-0.00516843,0.70871226,0.00000000,0.01867475,0.10636491,0.57083423,0.00000000,-0.01322435,-0.09631614,0.00782519,0.05404458,0.00335900,-0.46722534,0.12481010,0.04295008,-0.42281254,-0.01023456,0.06651344,0.06903356,-0.41624322,-0.19711422,-0.08082766,0.00000000,-0.25680708,-0.23760969,-0.67145424,0.00000000,-0.33140598,-0.16194945,-0.46167292,0.00000000,-0.38274985,0.23547421,-0.39419217,0.00000000,-0.35724326,0.16949812,-0.24333459,0.06201525,0.18942517,-0.42339699,0.68643610,0.00000000,0.46711178,-0.00383094,0.64281378,0.00000000,0.71225179,-0.01000384,-0.37082753,0.00000000,0.01745737,0.06509826,0.06651954,0.00000000,0.00000000,-0.03155387,0.00010109,0.00000000,-0.15230505,-0.02691950,0.04427230,0.00000000,0.19722253,-0.00154369,0.23801992,0.00000000,-0.31595351,0.00646635,-0.14005779,0.00000000,-0.13228184,0.00022034,-0.16822347,0.00000000,-0.02968030,-0.35377269,0.04289195,0.15343336,-0.02038983,0.27144765,-0.37182148,0.38061963,-0.35908265,-0.35281794,0.13614775,-0.34864468,-0.34679830,-0.03394523,0.50050391,0.00000000,0.27164788,-0.06680824,-0.36461399,0.00000000,-0.06525077,-0.04769418,0.00762044,0.00000000,0.00000000,0.00000000,0.00000000,0.00000000,0.00000000,0.00000000,0.00000000,0.00000000,0.00573385,0.00000000,0.00239207,0.00000000,-0.02670130,0.01319124,-0.01119466,0.00000000,-0.00706156,-0.00732812,0.02489216,-0.00018769,0.00000000,-0.21814272,-0.00430951,0.11422369,0.00000000,-0.24420607,0.01524119,0.18039430,0.19440245,-0.38787017,-0.19254327,-0.74086766,0.35004307,-0.00070414,-0.29717833,0.00000000,-0.63815422,0.04364138,0.25390354,0.00000000,0.02893126,-0.04068774,0.00768647,0.00000000,0.00000000,0.00000000,0.00000000,0.00000000,0.00000000,0.00000000,0.00000000,0.00000000,0.00000000,0.00000000,0.00000000,0.00000000,0.00000000,0.00000000,0.00000000,0.00000000,0.00000000,0.00000000,0.00000000,-0.00013791,0.00000000,0.22872084,0.11764845,-0.09715304,0.00000000,-0.20110248,0.23299578,-0.09400265,0.16334516,-0.28323941,-0.34903181,0.27960740,0.69753095,0.01243270,-0.07588400,0.00000000,-0.26364682,-0.01127792,0.14702081,0.00000000,0.03946434,-0.05319432,0.00406306,0.00000000,0.00000000,0.00000000,0.00000000,0.00000000,0.00000000,0.00000000,0.00000000,0.00000000,0.00000000,0.00000000,0.00000000,0.00000000,0.00000000,0.00000000,0.00000000,0.00000000,0.00000000,0.00000000,0.00000000,-0.00008888,0.00000000,-0.07771708,0.03907104,0.03180110,0.00000000,0.16632156,0.60637851,-0.23627445,-0.14703598,0.27528007,0.18846987,0.33335118,-0.18663124,0.01985382,-0.68603014,0.00000000,0.27392100,0.00196282,0.14161365,0.00000000,0.01099068,-0.01257730,-0.10730190,0.00000000,0.00000000,0.00000000,0.00000000,0.00000000,0.00000000,0.00000000,0.00000000,0.00000000,0.00000000,0.00000000,0.00000000,0.00000000,0.00000000,0.00000000,0.00000000,0.00000000,0.00000000,0.00000000,0.00000000,0.00000000,0.00000000,-0.03985130,-0.02931458,-0.04739463,0.00302963,-0.11120500,0.00963519,-0.60214219,0.26237423,0.20284151,-0.02665966,0.11231682,1.10707069,0.04876122,0.28281036,0.00000000,0.31879361,0.10482364,0.60191581,0.00000000,0.02088313,-0.00791470,0.07037249,0.00000000,0.00000000,0.00000000,0.00000000,0.00000000,0.00000000,0.00000000,0.00000000,0.00000000,0.00000000,0.00000000,0.00000000,0.00000000,0.00000000,0.00000000,0.00000000,0.00000000,0.00000000,0.00000000,0.00000000,0.00000000,0.00000000
0.00000000,0.00000000,0.00000000,0.00000000,0.00000000,0.00000000,0.00000000,0.00000000,0.00000000,0.00000000,0.00000000,0.00000000,0.00000000,0.00000000,0.00000000,0.00000000,0.00000000,0.00000000,0.00000000,0.00000000,0.00000000,0.00000000,0.00000000,0.00000000,0.00000000,0.00000000,0.00000000,0.00000000,0.00000000,0.00000000,0.00000000,0.00000000,0.00000000,0.00000000,0.00000000,0.00000000,0.00000000,0.00000000,0.00000000,0.00000000,0.00000000,0.00000000,0.00000000,0.00000000,0.00000000,0.00000000,0.00000000,0.00000000,0.00000000,0.00000000,0.00000000,0.00000000,0.00000000,0.00000000,0.00000000,0.00000000,0.00000000,0.00000000,0.00000000,0.00000000,0.00000000,0.00000000,0.00000000,0.00000000,0.00000000,0.00000000,0.00000000,0.00000000,0.00000000,0.00000000,0.00000000,0.00000000,0.00000000,0.00000000,0.00000000,0.00000000,0.00084874,-0.01744003,-0.05819957,0.00000000,0.01248363,0.04519179,0.18218075,0.00000000,-0.09634577,-0.14862489,-0.02197119,0.00000000,-0.00456778,0.09778118,-0.11586280,-0.01781825,0.00000000,-0.00359948,0.03222041,-0.00154013,0.00000000,0.00000000,0.00000000,0.00000000,0.00000000,0.00000000,0.00000000,0.00000000,0.00000000,0.00000000,0.00000000,0.00000000,0.00000000,0.00000000,0.00000000,0.00000000,0.00000000,0.00000000,0.00000000,0.00000000,0.00190289,-0.00000241,-0.00121263,0.00000000,0.01506514,-0.06739338,-0.07083801,0.00000000,-0.04706227,-0.30889457,0.97826144,0.00041126,0.54986422,0.07124978,0.74246019,-0.25966954,-0.07151344,-0.12491525,0.95598478,0.17324033,0.00000000,0.37981130,0.49984806,0.12528161,0.00000000,-0.02691508,-0.02055558,0.00000000,0.00000000,0.00000000,0.00000000,0.00000000,0.00000000,0.00000000,0.00000000,0.00000000,0.00000000,0.00000000,0.00000000,0.00000000,-0.00449274,0.00081627,0.00472854,0.00000000,0.16579709,0.01590540,0.13552902,0.00000000,-0.05207528,0.36780648,1.06313948,0.00000000,0.37102718,0.39185347,1.10335712,0.08211371,0.51231569,-0.40848503,0.39281313,0.30377720,-0.14904005,-0.07704185,0.14585998,-0.20173493,0.39082134,0.08814426,0.00000000,-0.20194204,0.00010877,0.44099763,0.00000000,-0.01639312,0.00319551,-0.02315978,0.00000000,0.00000000,0.00000000,0.00000000,0.00000000,0.00000000,0.00000000,0.00000000,0.00000000,0.00000000,0.05472660,0.00637648,0.02690973,0.00000000,-0.32451007,0.19527767,0.19999993,0.00000000,0.32333217,-0.22064236,-0.38752089,0.40802512,-0.03083772,0.16877873,-0.86540602,-0.13953200,0.09823787,0.51199344,-0.60056168,0.83504309,0.07237532,0.58487445,0.00000000,0.11271046,0.54808254,-0.32134822,0.00000000,0.15618876,0.01992527,0.53608677,0.00000000,0.62042889,-0.00945036,-0.57389645,0.00000000,-0.10057863,0.02707253,0.03336383,0.00000000,0.00000000,0.00000000,0.00000000,-0.00033438,0.00000000,-0.06309170,0.00289781,-0.07000204,0.00000000,0.25231395,-0.46807801,-0.37856428,-0.01123878,-0.24422999,0.70631763,-0.16678455,0.25476494,-0.27722421,0.82066395,-0.08774175,0.73777639,-0.19119044,0.37737813,0.00000000,-0.30186516,-0.08386762,-0.55067712,0.00000000,-0.51630720,-0.15153912,-0.34779853,-0.00531662,-0.00857751,0.03633370,-0.48312959,-0.15735741,-0.23488637,0.00691116,0.70222669,0.00000000,0.52613798,-0.00723138,0.36020945,0.00000000,0.00139977,0.02722489,0.03133557,0.00000000,0.00000000,-0.19187833,0.01526280,0.12261998,0.00000000,-0.49570141,0.15446021,0.09116564,-0.20889657,-0.01454912,0.06920445,0.37438455,-0.36718904,-0.27475597,-0.08267070,0.40518893,-0.27123521,-0.05688691,-0.73111829,0.00000000,-0.36069026,-0.12631795,-0.38536891,0.00000000,-0.20578787,0.10523916,-0.13783232,0.01926146,0.00000000,0.14258150,-0.13736451,0.26626228,0.09754405,-0.33536177,0.56526777,0.08766393,0.42385858,-0.00543664,0.52037992,0.00000000,0.45588978,-0.00871839,-0.14567361,0.00000000,0.00000000,0.00000000,0.00000000,0.00000000,0.00000000,-0.31006533,0.01159757,0.01523633,-0.27462200,-0.31463413,0.12144106,-0.04451782,0.27544991,-0.00612504,0.46765140,0.00000000,-0.46249825,0.00447838,-0.33993665,0.00000000,-0.57289795,0.00375229,-0.43282926,0.00000000,-0.05155949,-0.08377257,0.04138326,0.03660902,0.00000000,0.25973599,-0.21460142,0.32419940,-0.08917293,-0.45388968,0.13657532,-0.32947327,-0.34588793,-0.03143456,0.53061069,-0.07954421,0.25807133,-0.06114552,-0.39838772,0.00000000,-0.06810617,-0.02286505,0.00319667,0.00000000,0.00000000,0.00000000,0.00000000,0.00000000,0.00000000,-0.09495086,0.04369312,0.00000000,0.17792679,0.03432933,0.13835967,0.00000000,-0.28221676,0.05426457,-0.10937551,0.00000000,-0.09517523,-0.02430492,0.24418196,0.00000000,0.00004451,-0.02423849,-0.00135144,0.00997749,0.00000000,-0.21314526,0.00650893,0.10948461,0.00000000,-0.47259508,-0.16511030,-0.60134793,0.31296458,-0.00234691,-0.30611407,-0.04138697,-0.66108942,0.04770141,0.38839290,0.00000000,0.13759959,-0.06529491,0.02122526,0.00000000,0.00000000,0.00000000,0.00000000,0.00000000,0.00000000,0.00000000,0.00000000,0.00000000,0.00000000,0.00000000,0.00000000,0.00000000,0.09142599,0.00000000,-0.02930927,0.00000000,0.09090287,0.01112075,-0.03177889,0.00000000,0.00000000,0.00564419,0.00866478,-0.00003624,0.00000000,-0.08913869,0.03888583,-0.02665489,0.00000000,-0.34148340,-0.23921124,0.15523294,0.41319402,0.09313263,-0.08729263,0.14975636,-0.25513600,-0.00656848,0.24102527,0.00000000,0.20130836,-0.06533102,0.01402071,0.00000000,0.00000000,-0.02691607,-0.03794373,0.00000000,0.00000000,0.00000000,0.00000000,0.00000000,0.00000000,0.00000000,0.00000000,0.00000000,0.00000000,0.00000000,0.00000000,0.00000000,0.00000000,0.00000000,0.00000000,0.00000000,0.00000000,0.00000000,0.00000000,0.00000000,0.00000000,0.02431133,0.03139660,-0.03705393,0.00000000,0.31088841,0.08354375,0.21368415,-0.04439136,0.19461054,-0.69549105,-0.38974463,0.28804252,0.00059827,0.25511400,0.00000000,0.07403245,-0.01842413,-0.67007653,0.00000000,0.00954757,-0.05658364,-0.07132061,0.00000000,0.00000000,0.00000000,0.00000000,0.00000000,0.00000000,0.00000000,0.00000000,0.00000000,0.00000000,0.00000000,0.00000000,0.00000000,0.00000000,0.00000000,0.00000000,0.00000000,0.00000000,0.00000000,0.00000000,0.00000000,0.00000000,0.00000000,0.00000000,0.00000000,0.00000000,0.15957575,-0.00646818,0.06112651,0.24949229,0.46544442,0.19777711,-0.05259658,0.31207280,0.05069152,0.95711593,0.00000000,0.13699667,-0.01091030,0.49089669,0.00000000,-0.33520091,-0.04475668,-0.07679881,0.00000000,0.00000000,0.00000000,0.00000000,0.00000000,0.00000000,0.00000000,0.00000000,0.00000000,0.00000000,0.00000000,0.00000000,0.00000000,0.00000000,0.00000000,0.00000000,0.00000000,0.00000000
0.00000000,0.00000000,0.00000000,0.00000000,0.00000000,0.00000000,0.00000000,0.00000000,0.00000000,0.00000000,0.00000000,0.00000000,0.00000000,0.00000000,0.00000000,0.00000000,0.00000000,0.00000000,0.00000000,0.00000000,0.00000000,0.00000000,0.00000000,0.00000000,0.00000000,0.00000000,0.00000000,0.00000000,0.00000000,0.00000000,0.00000000,0.00000000,0.00000000,0.00000000,0.00000000,0.00000000,0.00000000,0.00000000,0.00000000,0.00000000,0.00000000,0.00000000,0.00000000,0.00000000,0.00000000,0.00000000,0.00000000,0.00000000,0.00000000,0.00000000,0.00000000,0.00000000,0.00000000,0.00000000,0.00000000,0.00000000,0.00000000,0.00000000,0.00000000,0.00000000,0.00000000,0.00000000,0.00000000,0.00000000,0.00000000,0.00000000,0.00000000,0.00000000,0.00000000,0.00000000,0.00000000,0.00000000,0.00000000,0.00000000,0.00000000,0.00000000,0.00000000,0.00000000,0.00000000,0.00000000,0.00000000,0.00000000,0.00000000,0.00000000,0.00000000,0.00000000,0.00000000,0.00000000,0.00000000,0.00000000,0.00000000,0.00000000,0.00000000,0.00000000,0.00000000,0.00000000,0.00000000,0.00000000,0.00000000,0.00000000,0.00000000,0.00000000,0.00000000,0.00000000,0.00000000,0.00000000,0.00000000,0.00000000,0.00000000,0.00000000,0.00000000,0.00000000,0.00000000,0.00000000,0.00000000,0.00000000,0.00000000,0.00000000,0.00000000,0.00000000,0.00000000,0.00000000,0.00000000,0.00000000,0.00000000,0.00000000,0.00000000,0.00000000,0.00000000,0.00000000,0.00000000,0.00000000,0.00000000,0.00000000,0.00000000,0.00000000,0.02237673,0.00675089,0.03383307,0.00000000,0.00000000,-0.00543209,-0.01312167,-0.00063183,0.00000000,0.00000000,0.00000000,0.00000000,0.00000000,0.00000000,0.00000000,0.00000000,0.00000000,0.00000000,0.00000000,0.00000000,0.00000000,0.00000000,0.00000000,0.00000000,0.00000000,0.00000000,0.00000000,0.00000000,-0.00516955,0.01540702,0.08070948,0.00000000,0.06715096,0.03215401,0.17115906,0.00000000,0.10835625,-0.03476410,0.08862431,0.00092916,-0.08497646,-0.01385886,0.33310143,0.00000000,0.24773646,0.02971775,0.18533905,0.00000000,0.00052098,0.21227219,-0.09941575,-0.00903472,0.00000000,-0.05119370,-0.22760257,0.06724279,0.00000000,0.00000000,0.00000000,0.00000000,0.00000000,0.00000000,0.00000000,0.00000000,0.00000000,0.00000000,0.00000000,0.00000000,-0.01834901,0.00504091,0.01141002,0.00000000,0.21246005,-0.04514646,-0.15033390,0.00000000,-0.03131218,0.09247533,-0.82430864,-0.00502546,0.13667776,0.40944342,-1.06312169,0.15300819,0.21472559,0.52656578,-0.54226576,0.02661080,0.45103602,-0.49568756,-0.48860103,0.27669970,0.01772467,0.55532485,-0.77649418,0.58338718,-0.02881117,-0.73346932,-0.47492376,-0.27373312,0.03316966,0.19245584,0.06485847,0.02336002,0.00000000,0.00000000,-0.00016042,0.00000000,-0.01768391,0.00076920,-0.02257484,0.00000000,0.15016135,-0.16450194,-0.21692749,0.00000000,-0.21915300,0.36642847,-0.19453764,0.00000000,-0.30462921,0.57855129,-0.14157806,0.39446870,-0.53362379,0.40050974,-1.14060683,-0.27218267,-0.53975618,-0.84361323,-0.85187470,-0.72034165,-0.20290652,-1.02489454,-0.68933844,-0.22352760,0.02243441,-0.71066800,0.00000000,-0.29401648,0.07198851,0.88391226,0.00000000,0.46646258,-0.00750012,0.69802359,0.00000000,0.01555136,0.08974974,0.45121066,0.00000000,0.00000000,-0.15759267,0.01200290,0.11350552,0.00000000,-0.51072368,0.13121882,0.11275446,-0.04072727,-0.01417813,0.05752126,0.44798662,-0.23319186,-0.34854976,-0.07898517,1.21618000,-0.24205277,-0.43276772,-0.72410569,-0.12608457,-0.36603309,-0.35735202,-0.60309543,0.00000000,-0.44689321,0.06727209,-0.56844121,0.00000000,-0.45082120,0.06895710,-0.22777857,0.00000000,0.26825875,-0.49141466,0.36958234,0.05872900,0.15010602,-0.02624345,0.52294843,0.09272884,0.61210205,-0.00870746,-0.53387494,0.00000000,0.05082557,0.08518599,0.09292325,0.00000000,0.00000000,-0.28629045,0.00921681,0.01624066,-0.29276208,-0.32021058,0.11149076,-0.06228582,0.26192953,-0.00879847,0.47100351,0.00401114,-0.45736457,0.00973212,-0.38049439,0.00000000,-0.67313434,0.00175130,-0.70021370,0.00000000,-0.20161124,-0.05026633,0.14390107,0.00000000,-0.27426473,0.04123283,-0.16563193,0.00000000,-0.06730615,-0.43540670,0.05148416,-0.21777565,-0.05714874,-0.32645916,0.41058024,-0.46550410,0.25966769,-0.03715940,-0.53954893,0.00000000,-0.47114857,-0.07576627,0.03337260,0.00000000,0.00000000,-0.00924813,0.00761502,0.00000000,0.00000000,-0.04936604,0.02454087,0.00000000,0.14928540,0.01952175,0.12014529,0.00000000,-0.27365785,0.03885779,-0.10440917,0.00000000,-0.10680546,-0.01606349,0.29241395,0.00000000,0.08379084,-0.02907888,-0.00569459,0.00000000,0.00000000,-0.01298239,0.00132212,0.00905070,0.00000000,-0.32885216,-0.04818581,-0.36770672,0.04017694,-0.00683301,-0.18497300,-0.63667694,-0.57741845,0.00000000,0.34762938,0.00000000,0.25038899,-0.07129975,0.04869352,0.00000000,-0.14747523,-0.03238160,0.00799246,0.00000000,0.00000000,0.00000000,0.00000000,0.00000000,0.00000000,0.00000000,0.00000000,0.00000000,0.05443001,0.00000000,-0.01740617,0.00000000,0.06398503,0.00783092,-0.02236014,0.00000000,0.00000000,0.00702371,0.01300292,0.00000000,0.00000000,0.00000000,0.00000000,0.00000000,0.00000000,-0.02108527,-0.00594765,0.00449861,0.02514369,0.02452308,-0.01328027,0.00000000,-0.12166209,-0.00091582,0.13631709,0.00000000,0.22209715,-0.07918432,0.02336019,0.00000000,-0.35229844,-0.08543026,-0.15900847,0.00000000,0.00000000,0.00000000,0.00000000,0.00000000,0.00000000,0.00000000,0.00000000,0.00000000,0.00000000,0.00000000,0.00000000,0.00000000,0.00000000,0.00000000,0.00000000,0.00000000,0.00000000,0.00000000,0.00000000,0.00000000,0.00000000,0.00000000,0.00000000,0.00000000,0.00000000,0.00000000,0.00000000,0.00000000,0.00000000,0.00000000,0.00000000,0.00000000,0.00373421,0.00000000,0.00034744,0.00000000,0.00676858,-0.00067853,-0.08021080,0.00000000,0.00464930,-0.02538093,-0.08812620,0.00000000,0.00000000,0.00000000,0.00000000,0.00000000,0.00000000,0.00000000,0.00000000,0.00000000,0.00000000,0.00000000,0.00000000,0.00000000,0.00000000,0.00000000,0.00000000,0.00000000,0.00000000,0.00000000,0.00000000,0.00000000,0.00000000,0.00000000,0.00000000,0.00000000,0.00000000,0.00000000,0.00000000,0.00000000,0.00000000,0.00000000,0.00000000,0.00000000,0.00000000,0.00000000,0.00000000,0.00000000,0.00000000,0.00000000,0.00000000,0.00000000,0.00000000,0.00000000,0.00000000,0.00000000,0.00000000,0.00000000,0.00000000,0.00000000,0.00000000,0.00000000,0.00000000,0.00000000,0.00000000,0.00000000,0.00000000,0.00000000,0.00000000,0.00000000,0.00000000,0.00000000,0.00000000
0.00000000,0.00000000,0.00000000,0.00000000,0.00000000,0.00000000,0.00000000,0.00000000,0.00000000,0.00000000,0.00000000,0.00000000,0.00000000,0.00000000,0.00000000,0.00000000,0.00000000,0.00000000,0.00000000,0.00000000,0.00000000,0.00000000,0.00000000,0.00000000,0.00000000,0.00000000,0.00000000,0.00000000,0.00000000,0.00000000,0.00000000,0.00000000,0.00000000,0.00000000,0.00000000,0.00000000,0.00000000,0.00000000,0.00000000,0.00000000,0.00000000,0.00000000,0.00000000,0.00000000,0.00000000,0.00000000,0.00000000,0.00000000,0.00000000,0.00000000,0.00000000,0.00000000,0.00000000,0.00000000,0.00000000,0.00000000,0.00000000,0.00000000,0.00000000,0.00000000,0.00169614,0.00000000,0.00322242,0.00000000,0.01536521,0.01130975,-0.16367097,0.00000000,-0.02280291,0.03675466,-0.28262571,0.00000000,-0.02531167,0.07990044,0.20384948,0.00000000,0.00065806,-0.12523920,-0.30726676,0.00000000,0.00109051,0.03800786,0.11928675,-0.01403364,0.00000000,-0.02466851,-0.00390920,0.00476848,0.00000000,0.00000000,0.00000000,0.00000000,0.00000000,0.00000000,0.00000000,0.00000000,0.00000000,0.00000000,0.00000000,0.00000000,0.00000000,0.00000000,0.00000000,0.00000000,0.00000000,0.00000000,0.00000000,0.00000000,-0.00600882,-0.00320594,-0.00142729,0.00575697,-0.04557329,-0.00335354,0.00891066,-0.04726600,0.10307584,-0.00266214,-0.07501985,-0.17308516,0.02148076,-0.40973382,-0.22233846,0.14780737,-0.04354500,-0.43800597,1.13442157,0.00738699,0.37457046,0.04313384,0.41253967,-0.09012022,0.00000000,-0.02849303,0.20450766,0.01443759,0.00000000,0.00000000,0.00000000,0.00000000,0.00000000,0.00000000,0.00000000,0.00000000,0.00000000,0.00000000,0.00000000,0.00000000,0.00000000,0.00000000,0.00000000,0.00000000,0.00000000,0.00000000,0.00000000,0.00000000,0.00000000,0.00000000,0.00000000,0.00252648,0.00000000,0.00000000,0.00000000,0.06471130,0.00000000,0.08644179,0.00000000,-0.02664989,0.01085945,0.11731015,0.00000000,0.04453902,0.43125729,-0.27629815,0.00000000,0.12324455,-0.12125462,-0.05509058,0.00000000,-0.12430865,0.04928830,0.02540695,0.00192861,-0.00372760,0.00000000,0.00000000,0.00000000,0.00000000,0.00000000,0.00000000,0.00000000,0.00000000,0.00000000,0.00000000,0.00000000,0.00000000,0.00000000,0.00000000,0.00000000,0.00000000,0.00000000,0.00000000,0.00000000,0.00000000,-0.01005324,0.00219578,0.00644144,0.00000000,0.01473931,-0.00267656,-0.01238527,0.00165852,0.00000000,0.00118055,-0.01883820,0.00000000,0.07662542,0.04788103,-0.11875368,0.00000000,0.15746459,0.32080540,-0.06119791,0.06890289,0.00000000,-0.29315361,0.00000000,0.24844292,0.00338164,0.11814663,0.00000000,0.00000000,0.00000000,0.00000000,0.00000000,0.00000000,0.00000000,0.00000000,0.00000000,0.00000000,0.00000000,0.00000000,0.00000000,0.00000000,0.00000000,0.00000000,0.00000000,0.00000000,0.07160670,-0.04902801,-0.07696493,0.00000000,-0.17152498,0.21664114,-0.13547762,0.00000000,-0.15542217,0.28148745,-0.11503016,0.00000000,-0.18925274,0.12332714,-0.88954151,-0.00032530,-0.41386788,-0.29187592,-0.87515060,-0.20506965,-0.12887526,-0.57983898,-0.45295285,-0.14776643,0.00576772,-0.38482318,0.00000000,-0.08781037,0.00753540,0.04768857,0.00000000,0.00000000,0.00000000,0.00000000,0.00000000,0.00000000,0.00000000,0.00000000,0.00000000,0.00000000,0.00000000,0.00000000,0.00000000,0.00000000,0.00000000,0.00000000,0.00000000,0.00000000,-0.00558370,0.00695266,0.04324252,-0.08363992,-0.25393989,-0.03359147,0.45619489,-0.17443261,-0.29797804,-0.40275381,-0.10867284,-0.23944348,-0.30611115,-0.26742636,-0.72561858,-0.20362976,0.21295032,-0.33259365,0.04116454,-0.30450597,0.00100230,-0.19736765,0.00000000,0.27236205,-0.08289790,0.23245785,0.00000000,0.00000000,0.00000000,0.00000000,0.00000000,0.00000000,0.00000000,0.00000000,0.00000000,0.00000000,0.00000000,0.00000000,0.00000000,0.00000000,0.00000000,0.00000000,0.00000000,0.00000000,0.00000000,0.00000000,0.00000000,0.00000000,0.00000000,0.00000000,0.00000000,-0.05137279,0.00000000,-0.03815798,0.00000000,-0.19932659,0.00049887,-0.17273337,0.00000000,-0.05488964,-0.30901743,0.06749397,0.06202205,-0.04318097,0.14147328,-0.29680726,0.04874558,-0.33582916,-0.06711792,0.08538254,0.00000000,-0.10610084,-0.04438969,0.04419294,0.00000000,0.00000000,0.00000000,0.00000000,0.00000000,0.00000000,0.00000000,0.00000000,0.00000000,0.00000000,0.00000000,0.00000000,0.00000000,0.00000000,0.00000000,0.00000000,0.00000000,0.00000000,0.00000000,0.00000000,0.00000000,0.00000000,0.00000000,0.00000000,0.00000000,0.00000000,0.00000000,0.00000000,0.00000000,0.00000000,-0.07089646,-0.00145150,0.03310774,0.00000000,-0.14313188,0.00814834,0.04109584,0.16794927,-0.03929834,-0.10291539,-0.06352940,0.19051584,-0.00101067,-0.10712137,0.00000000,0.00000000,0.00000000,0.00000000,0.00000000,0.00000000,0.00000000,0.00000000,0.00000000,0.00000000,0.00000000,0.00000000,0.00000000,0.00000000,0.00000000,0.00000000,0.00000000,0.00000000,0.00000000,0.00000000,0.00000000,0.00000000,0.00000000,0.00000000,0.00000000,0.00000000,0.00000000,0.00000000,0.00000000,0.00000000,0.00000000,0.00000000,0.00000000,0.00000000,-0.09374271,0.03848043,-0.01368128,0.00055789,-0.19001958,-0.17735745,0.02067898,0.38930951,0.01699943,-0.04182572,0.00000000,-0.11750600,-0.00896156,0.03219034,0.00000000,0.00000000,0.00000000,0.00000000,0.00000000,0.00000000,0.00000000,0.00000000,0.00000000,0.00000000,0.00000000,0.00000000,0.00000000,0.00000000,0.00000000,0.00000000,0.00000000,0.00000000,0.00000000,0.00000000,0.00000000,0.00000000,0.00000000,0.00000000,0.00000000,0.00000000,0.00000000,0.00000000,0.00000000,0.00000000,0.01129453,0.01367553,-0.01621093,0.00000000,0.20780075,0.05414643,0.07924735,-0.05022865,0.06843234,-0.40078700,-0.12899180,0.15700014,0.00152079,0.10476870,0.00000000,0.00815892,-0.00216471,-0.01434158,0.00000000,0.00000000,0.00000000,0.00000000,0.00000000,0.00000000,0.00000000,0.00000000,0.00000000,0.00000000,0.00000000,0.00000000,0.00000000,0.00000000,0.00000000,0.00000000,0.00000000,0.00000000,0.00000000,0.00000000,0.00000000,0.00000000,0.00000000,0.00000000,0.00000000,0.00000000,0.00000000,0.00000000,0.00000000,0.00000000,0.05373631,-0.00166578,0.01806738,0.07139457,0.26689273,0.10643251,-0.00948042,0.17720412,0.03912291,0.53189237,0.00000000,0.07404677,-0.00994663,0.15638964,0.00000000,0.00000000,0.00000000,0.00000000,0.00000000,0.00000000,0.00000000,0.00000000,0.00000000,0.00000000,0.00000000,0.00000000,0.00000000,0.00000000,0.00000000,0.00000000,0.00000000,0.00000000,0.00000000,0.00000000,0.00000000,0.00000000
0.00000000,0.00000000,0.00000000,0.00000000,0.00000000,0.00000000,0.00000000,0.00000000,0.00000000,0.00000000,0.00000000,0.00000000,0.00000000,0.00000000,0.00000000,0.00000000,0.00000000,0.00000000,0.00000000,0.00000000,0.00000000,0.00000000,0.00000000,0.00000000,0.00000000,0.00000000,0.00000000,0.00000000,0.00000000,0.00000000,0.00000000,0.00000000,0.00000000,0.00000000,0.00000000,0.00000000,0.00000000,0.00000000,0.00000000,0.00000000,0.00000000,0.00000000,0.00000000,0.00000000,0.00000000,0.00000000,0.00000000,0.00000000,0.00000000,0.00000000,0.00000000,0.00000000,0.00000000,0.00000000,0.00000000,0.00000000,0.00000000,0.00000000,0.00000000,0.00000000,0.00000000,0.00000000,0.00000000,0.00000000,0.00000000,0.00000000,0.00000000,0.00000000,0.00000000,0.00000000,0.00000000,0.00000000,0.00000000,0.00000000,0.00000000,0.00000000,0.00000000,0.00000000,0.00000000,0.00000000,0.00000000,0.00000000,0.00000000,0.00000000,0.00000000,0.00000000,0.00000000,0.00000000,0.00000000,0.00000000,0.00000000,0.00000000,0.00000000,0.00000000,0.00000000,0.00000000,0.00000000,0.00000000,0.00000000,0.00000000,0.00000000,0.00000000,0.00000000,0.00000000,0.00000000,0.00000000,0.00000000,0.00000000,0.00000000,0.00000000,0.00000000,0.00000000,0.00000000,0.00000000,0.00000000,0.00000000,0.00000000,0.00000000,-0.00006611,0.00000000,0.00679578,-0.02843520,-0.02343576,0.00000000,-0.00163029,-0.04673802,0.21262328,0.00000000,0.02784502,0.00236020,0.06286247,-0.00137785,-0.01028071,-0.00232133,0.05185676,0.00000000,0.07331497,0.04625992,0.14036346,0.00000000,-0.00003136,-0.02663331,-0.05634558,-0.00402945,0.00000000,0.00000000,0.00000000,0.00000000,0.00000000,0.00000000,0.00000000,0.00000000,0.00000000,0.00000000,0.00000000,0.00000000,0.00000000,0.00000000,0.00000000,0.00000000,0.01190394,0.00065401,0.00970293,0.00000000,-0.06062852,0.25529056,0.67618972,0.00000000,0.40181872,0.38142471,1.40885790,0.02993461,0.39375090,-0.37753375,0.51058654,0.05006718,-0.03826956,-0.03751843,0.61196042,-0.02130596,0.33172181,0.03133666,0.15437161,-0.01118521,0.00084413,0.29298321,-0.09078765,-0.01985540,0.00000000,-0.09037041,-0.23738197,0.09009096,0.00000000,0.00000000,0.00000000,0.00000000,0.00000000,0.00000000,0.00000000,0.00000000,0.00000000,0.00000000,0.00005198,0.00000000,-0.07303992,0.02301760,0.04322380,0.00000000,0.28454922,-0.08901847,-0.22541524,0.00000000,-0.03365626,0.13078066,-0.59906255,-0.10137089,0.14413934,0.59631692,-0.58006529,0.76981124,0.13736909,0.74053603,-0.12070259,0.10031310,0.23139395,-0.37904951,-0.14033732,0.20965964,0.01968526,0.30822482,-0.13289190,0.42125920,-0.04440642,-0.64233199,-0.11591421,-0.28283799,0.04899263,0.23891713,0.01914088,0.02757241,0.00000000,0.00000000,0.00000000,0.00000000,-0.01456449,0.00062292,-0.01876612,0.00000000,0.17352814,-0.17570129,-0.21052617,0.00000000,-0.24436753,0.41829700,-0.19062687,0.05039336,-0.31116641,0.68373107,-0.13009374,0.58133314,-0.43883856,0.36354627,-0.85493715,-0.31927744,-0.16578920,-0.76939366,0.00000000,-0.73445180,-0.04816729,-0.68996234,0.00000000,-0.11187861,0.02457554,-0.24542454,-0.12941502,-0.04726772,0.06759439,0.49261199,-0.03043961,0.42993117,-0.00477574,0.52434460,0.00000000,0.01631915,0.09201737,0.50457755,0.00000000,0.00000000,-0.10213955,0.00716635,0.08934980,0.00000000,-0.50559336,0.11244326,0.09590039,-0.00480090,-0.01485237,0.05517654,0.42667963,-0.26315687,-0.34135403,-0.07235124,1.10718987,-0.26603233,-0.20433636,-0.67489743,-0.02369753,-0.37635201,-0.06993749,-0.47792328,0.00000000,-0.41137980,0.03930627,-0.33003318,0.00000000,-0.17776737,0.05813015,-0.07316923,0.07760802,0.00527722,-0.48578315,0.32301154,0.11919717,0.20127251,-0.02520276,0.50388548,0.20137107,0.68850842,-0.00887756,-0.49073775,0.00000000,0.06327094,0.08043300,0.11549395,0.00000000,0.00000000,-0.27767660,0.00900536,0.01683706,-0.16608630,-0.33143734,0.10482102,-0.07026559,0.25646879,-0.00700238,0.43552258,0.00460017,-0.46088628,0.00215948,-0.33941257,0.00000000,-0.65495832,0.00272556,-0.55942337,0.00000000,-0.11447070,-0.07151500,0.07060406,0.00000000,-0.00986916,0.06004597,-0.03855813,0.10616461,0.00000000,-0.41868847,0.06004194,-0.29137765,-0.06693146,-0.29613187,0.41348786,-0.52550647,0.25916370,-0.04498882,-0.54640352,0.00000000,-0.48961440,-0.07601383,0.03691693,0.00000000,-0.00209489,-0.01374173,0.01055658,0.00000000,0.00000000,-0.09033356,0.03166038,0.00000000,0.14392774,0.02560795,0.12161748,0.00000000,-0.27621520,0.04560493,-0.10322215,0.00000000,-0.09460640,-0.01911744,0.25363764,0.00000000,0.03208818,-0.03507284,-0.00310587,0.00004088,0.00000000,-0.04716112,0.00102032,0.03977883,0.00000000,-0.47054972,-0.08426038,-0.66201564,0.06450468,-0.00747374,-0.23698214,-0.88290290,-0.62708951,0.01432756,0.36033890,0.00000000,0.24540839,-0.07226321,0.04548242,0.00000000,-0.12456456,-0.02916952,0.00841614,0.00000000,0.00000000,0.00000000,0.00000000,0.00000000,0.00000000,0.00000000,0.00000000,0.00000000,0.08970628,0.00000000,-0.02806613,0.00000000,0.08615791,0.01135077,-0.02744268,0.00000000,0.00000000,0.00580662,0.00890208,0.00000000,0.00000000,-0.04498084,0.01765474,-0.02211980,0.00000000,-0.28641949,-0.14358622,0.21356475,0.11336169,0.12036819,-0.05339752,0.23223625,-0.23863126,-0.00295482,0.18275003,0.00000000,0.28664971,-0.08499192,0.02522988,0.00000000,-0.26348912,-0.08257667,-0.15258829,0.00000000,0.00000000,0.00000000,0.00000000,0.00000000,0.00000000,0.00000000,0.00000000,0.00000000,0.00000000,0.00000000,0.00000000,0.00000000,0.00000000,0.00000000,0.00000000,0.00000000,0.00000000,0.00000000,0.00000000,0.00000000,0.00000000,0.00000000,0.00000000,0.00000000,0.00000000,0.15695923,0.02949939,0.11288054,-0.04698651,0.14862241,-0.34961369,-0.29002023,0.20400526,0.00079850,0.15690277,0.00000000,0.06252707,-0.01942422,-0.47256949,0.00000000,0.00636108,-0.05667877,-0.11310397,0.00000000,0.00000000,0.00000000,0.00000000,0.00000000,0.00000000,0.00000000,0.00000000,0.00000000,0.00000000,0.00000000,0.00000000,0.00000000,0.00000000,0.00000000,0.00000000,0.00000000,0.00000000,0.00000000,0.00000000,0.00000000,0.00000000,0.00000000,0.00000000,0.00000000,0.00000000,0.00000000,0.00000000,0.00000000,0.00000000,0.00000000,0.00096561,0.00000000,0.08341358,0.00000000,0.27035418,0.00000000,0.05687543,-0.00981561,0.20778740,0.00000000,-0.10499036,-0.03186369,-0.03558518,0.00000000,0.00000000,0.00000000,0.00000000,0.00000000,0.00000000,0.00000000,0.00000000,0.00000000,0.00000000,0.00000000,0.00000000,0.00000000,0.00000000,0.00000000,0.00000000,0.00000000,0.00000000
0.00000000,0.00000000,0.00000000,0.00000000,0.00000000,0.00000000,0.00000000,0.00000000,0.00000000,0.00000000,0.00000000,0.00000000,0.00000000,0.00000000,0.00000000,0.00000000,0.00000000,0.00000000,0.00000000,0.00000000,0.00000000,0.00000000,0.00000000,0.00000000,0.00000000,0.00000000,0.00000000,0.00000000,0.00000000,0.00000000,0.00000000,0.00000000,0.00000000,0.00000000,0.00000000,0.00000000,0.00000000,0.00000000,0.00000000,0.00000000,0.00000000,0.00000000,0.00000000,0.00000000,0.00000000,0.00000000,0.00000000,0.00000000,0.00000000,0.00000000,0.00000000,0.00000000,0.00000000,0.00000000,0.00000000,0.00000000,0.00000000,0.00000000,0.00000000,0.00000000,0.00000000,0.00000000,0.00000000,0.00000000,0.00000000,0.00000000,0.00000000,0.00000000,0.00000000,0.00000000,0.00000000,0.00000000,0.00000000,0.00000000,0.00000000,0.00000000,0.00000000,0.00000000,0.00000000,0.00000000,0.00000000,0.00000000,0.00000000,0.00000000,0.00000000,0.00000000,0.00000000,0.00000000,0.00000000,0.00000000,0.00000000,0.00000000,0.00000000,0.00000000,0.00000000,0.00000000,0.00000000,0.00000000,0.00000000,0.00000000,0.00000000,0.00000000,0.00000000,0.00000000,-0.00906694,-0.00119767,-0.03427461,0.00000000,-0.10849464,-0.11790285,-0.08391964,0.00000000,-0.01337753,-0.00438157,0.02243905,-0.00218226,0.00013299,-0.00044790,-0.02165189,-0.00038940,0.00000000,-0.01116504,-0.01073993,0.00000000,0.00000000,0.00000000,0.00000000,0.00000000,0.00000000,0.00000000,0.00000000,0.00000000,0.00000000,0.00000000,0.00000000,0.00000000,0.00000000,0.00000000,0.00000000,0.00000000,0.00000000,0.00000000,0.00000000,0.00000000,0.00000000,0.00000000,0.00000000,0.00000000,0.00000000,0.00000000,0.00000000,0.00000000,0.03960825,-0.14232424,-0.02794015,-0.00212032,-0.18687903,0.20697012,0.23769378,0.24744810,0.39133449,0.19892311,0.53011477,0.17025283,-0.00854801,0.53627202,1.17675666,-0.01288622,0.00000000,0.09363371,0.33918916,0.00269703,0.01025251,-0.01587052,0.03798661,0.00000000,-0.00733902,-0.00154128,0.04358199,0.00000000,0.00055508,0.00104608,0.01025708,0.00000000,0.00000000,0.00013161,-0.00081844,0.00000000,0.00000000,0.00000000,0.00000000,0.00000000,0.00000000,0.00000000,0.00000000,0.00000000,-0.00102841,0.00000000,-0.00262948,0.00000000,0.18487070,0.03817441,0.00002990,-0.21793223,-0.31644072,0.53010389,0.00000000,-0.46787835,0.23837709,-0.35405897,-0.04038927,0.84836562,-0.03064445,0.16491745,-0.56675435,-0.06862884,0.16255703,0.37226106,-0.78166581,0.13783803,0.14198780,0.38111835,-0.45975328,0.00774565,0.16994863,-0.23093558,-0.38173400,0.02553735,0.00032683,0.14226227,-0.32221572,0.05049603,0.00000000,-0.03580596,-0.05917061,-0.00220388,0.00000000,0.00000000,0.00000000,0.00000000,0.00000000,0.00000000,0.00000000,0.00000000,-0.01145725,0.00060713,-0.00996032,-0.00025918,0.19202963,-0.29744223,-0.02970785,-0.03989682,-0.21718635,0.79495075,0.00000000,0.27031121,-0.18259459,0.81286049,0.00000000,0.45024457,-0.12079055,0.20499740,0.00000000,-0.16848121,-0.36728514,-0.47001172,0.00000000,-0.40395763,-0.15544073,-0.63616172,-0.11143182,-0.12546587,0.02632839,-0.47332534,-0.54782655,-0.12455107,0.03120844,0.49998854,-0.07791588,0.15589458,0.00000000,0.10165110,-0.03814960,0.00000000,0.00000000,0.00000000,0.00000000,0.00000000,0.00000000,0.00000000,0.00000000,0.00000000,-0.00602129,0.00000000,0.00000000,-0.02750521,-0.00732055,0.01819140,0.00000000,-0.18706478,-0.32326741,-0.07448352,0.00000000,-0.20407856,-0.28474783,-0.74737934,0.00000000,-0.21572326,-0.05223814,-0.23190288,0.00000000,-0.01130591,0.00000000,-0.01624268,0.00000000,-0.07091365,0.00577853,-0.04105564,0.00000000,0.07489241,-0.21703379,0.31224023,0.00000000,0.17327400,-0.01670609,0.38239796,0.00000000,0.24028978,-0.00097177,-0.17155158,0.00597231,0.00010314,0.00000000,0.00000000,0.00000000,0.00000000,0.00000000,0.00000000,0.00000000,0.00000000,0.00000000,0.00000000,0.00000000,0.00024164,-0.00440275,0.06194949,0.00000000,-0.13970678,0.02739175,-0.29477798,0.00000000,-0.51657502,0.00653254,-0.81257668,0.00000000,-0.14762988,-0.08205622,0.08862093,0.00000000,0.00000000,0.00000000,0.00000000,0.00000000,0.00000000,-0.01329165,0.00009023,0.00000000,-0.00932790,-0.14259913,0.14761357,0.00000000,0.09502813,-0.18096549,-0.39845726,0.00448954,-0.21152126,-0.00654885,0.03327513,0.05868865,-0.01267292,0.00000000,0.00000000,0.00000000,0.00000000,0.00000000,0.00000000,0.00000000,0.00000000,0.00000000,0.00000000,0.00000000,0.00000000,0.00000000,0.00000000,0.00000000,-0.02958876,0.00000000,0.21239243,0.00000000,0.25117201,-0.06331281,-0.01517618,0.00000000,-0.11366958,-0.04275434,0.00417347,0.00000000,0.00000000,0.00000000,0.00000000,0.00000000,0.00000000,0.00000000,0.00000000,0.00000000,-0.00868767,0.08006306,0.08624242,0.00000000,0.08255773,-0.19797510,0.05550642,0.00000000,-0.41334225,-0.00152924,0.05445502,-0.02784293,-0.06213625,0.00000000,0.00000000,0.00000000,0.00000000,0.00000000,0.00000000,0.00000000,0.00000000,0.00000000,0.00000000,0.00000000,0.00000000,0.00000000,0.00000000,0.00000000,-0.00088075,0.00000000,0.00000000,0.00000000,0.01144019,-0.00092266,0.00753456,0.00000000,0.00508025,-0.00461793,-0.00353198,0.00000000,0.00000000,0.00000000,0.00000000,0.00000000,0.00000000,0.00000000,0.00000000,0.00000000,0.00000000,-0.16926189,0.00599506,0.00000000,-0.29632752,-0.24329796,-0.74608134,0.00000000,-0.28697135,-0.00643410,-0.16921265,0.00000000,0.03767411,0.00000000,0.00000000,0.00000000,0.00000000,0.00000000,0.00000000,0.00000000,0.00000000,0.00000000,0.00000000,0.00000000,0.00000000,0.00000000,0.00000000,0.00000000,0.00000000,0.00000000,0.00000000,0.00000000,0.00000000,0.00000000,0.00000000,0.00000000,0.00000000,0.00000000,0.00000000,0.00000000,0.00000000,0.00000000,0.00000000,0.00000000,0.00000000,0.00000000,0.00000000,0.00000000,0.00000000,-0.13652523,-0.10483598,0.00000000,-0.23035149,-0.18601171,-0.09052719,0.00000000,0.00110686,-0.02240640,-0.55480722,0.00000000,0.03380710,0.00000000,0.00000000,0.00000000,0.00000000,0.00000000,0.00000000,0.00000000,0.00000000,0.00000000,0.00000000,0.00000000,0.00000000,0.00000000,0.00000000,0.00000000,0.00000000,0.00000000,0.00000000,0.00000000,0.00000000,0.00000000,0.00000000,0.00000000,0.00000000,0.00000000,0.00000000,0.00000000,0.00000000,0.00000000,0.00000000,0.00000000,0.00000000,0.00000000,0.00000000,0.00000000,0.00000000,-0.14065476,-0.04667676,0.00000000,-0.09641168,-0.12338433,0.07929297,0.00000000,0.03277659,-0.00458986,-0.04768795,0.00000000,0.01273502,0.00000000,0.00230256,-0.00032155,-0.00080998
0.00000000,0.00000000,0.00000000,0.00000000,0.00000000,0.00000000,0.00000000,0.00000000,0.00000000,0.00000000,0.00000000,0.00000000,0.00000000,0.00000000,0.00000000,0.00000000,0.00000000,0.00000000,0.00000000,0.00000000,0.00000000,0.00000000,0.00000000,0.00000000,0.00000000,0.00000000,0.00000000,0.00000000,0.00000000,0.00000000,0.00000000,0.00000000,0.00000000,0.00000000,0.00000000,0.00000000,0.00000000,0.00000000,0.00000000,0.00000000,0.00000000,0.00000000,0.00000000,0.00000000,0.00000000,0.00000000,0.00000000,0.00000000,0.00000000,0.00000000,0.00000000,0.00000000,0.00000000,0.00000000,0.00000000,0.00000000,0.00000000,0.00000000,0.00000000,0.00000000,0.00588262,-0.00154292,0.00859505,0.00000000,0.01423918,0.01376943,-0.14883853,0.00000000,-0.00607346,0.01974092,-0.12742839,0.00000000,-0.00214475,0.01957809,0.04855918,-0.00098037,0.00021276,-0.01524787,-0.04441192,0.00000000,0.00039782,0.00473267,0.02064275,-0.00157841,-0.01516625,-0.00835029,-0.00158136,0.00014661,0.00000000,0.00410803,-0.00693479,0.00000000,0.00000000,0.00000000,0.00000000,0.00000000,0.00000000,0.00000000,0.00000000,0.00000000,0.00000000,0.00000000,0.00000000,0.00000000,0.00000000,0.00000000,0.00000000,0.00000000,-0.08731485,-0.06303491,-0.02204843,0.00000000,-0.13881784,-0.01386064,0.03508328,-0.03633979,0.15555095,-0.00567101,-0.13871867,-0.09468413,0.02163351,-0.56165099,-0.29300260,0.04117131,-0.02621735,-0.37020570,1.32984593,0.00035077,0.30707599,0.03616888,0.62528403,0.00000000,-0.00696241,-0.04158923,0.53297733,0.03566713,0.00000000,0.04516435,0.08806182,0.00450135,0.00000000,0.00000000,0.00000000,0.00000000,0.00000000,0.00000000,0.00000000,0.00000000,0.00000000,0.00000000,0.00000000,0.00000000,0.00000000,0.00000000,0.00000000,0.00000000,-0.07318365,0.02680290,0.01630345,0.05849350,0.38898698,0.13415068,0.05319427,0.44952692,-0.02443867,1.04015763,0.00000000,-0.10276646,0.22606529,0.45054568,0.00000000,0.09938688,0.65172740,-0.38738318,0.19232791,0.14701551,-0.22119737,-0.07812976,0.59772149,-0.17742658,0.03082487,0.06353821,0.15573195,-0.11906245,0.00013508,0.06549299,-0.00532857,0.00000000,0.00000000,0.00000000,0.00000000,0.00000000,0.00000000,0.00000000,0.00000000,0.00000000,0.00000000,0.00000000,0.00000000,0.00000000,0.00297106,0.00000000,0.00207635,0.00000000,-0.25822797,0.10695985,0.04519028,-0.05622575,0.23376459,-0.20283446,-0.03084832,0.74183898,-0.00445549,0.13142092,0.00000000,-0.08577285,0.06261053,0.11019335,-0.08675273,0.07361040,0.20485385,0.39749576,-0.06113613,0.08267953,0.16922231,-0.49403984,0.00000000,0.39844969,0.00414050,0.36441397,0.00000000,0.16444212,-0.00938223,-0.06289598,0.00000000,0.00000000,0.00000000,0.00000000,0.00000000,0.00000000,0.00000000,0.00000000,0.00000000,0.00000000,0.00000000,0.00000000,0.00000000,0.00000000,0.05774612,-0.04448590,-0.03489761,0.00000000,-0.22984558,0.31012537,-0.04919399,0.16288516,-0.15054605,0.54006973,-0.02484534,0.57474600,-0.11215762,0.20084774,0.00000000,-0.05148312,-0.43037184,-0.14335777,-0.21870122,-0.07695313,-0.20262305,-0.70065237,-0.27950267,-0.17467461,0.00000000,-0.56682239,0.00000000,-0.18983639,0.01080794,0.21892021,0.00000000,0.00000000,0.00000000,0.00000000,0.00000000,0.00000000,0.00000000,0.00000000,0.00000000,0.00000000,0.00000000,0.00000000,0.00000000,0.00000000,0.00000000,0.00000000,0.00000000,0.00000000,-0.00819767,0.00794403,0.05166688,-0.01190394,-0.29914701,-0.04499506,0.12191781,-0.18267189,0.00000000,-0.50905595,0.00000000,-0.25145898,-0.11219119,-0.18319995,0.00000000,0.00000000,0.23192034,-0.18051163,0.01075117,-0.17860641,0.11290697,-0.25352718,0.00240426,0.29418071,-0.07253293,0.50256461,0.00000000,0.15249428,-0.00313048,0.05035069,0.00000000,0.00000000,0.00000000,0.00000000,0.00000000,0.00000000,0.00000000,0.00000000,0.00000000,0.00000000,0.00000000,0.00000000,0.00000000,0.00000000,0.00000000,0.00000000,0.00000000,0.00000000,-0.00484410,0.05400100,0.00000000,-0.13487218,0.01798688,-0.20935836,0.00000000,-0.47339212,0.00440337,-0.53793020,0.00000000,-0.10020835,-0.15482275,0.03378078,0.04246542,0.00000000,0.19589418,-0.28625427,0.09439008,-0.34470657,-0.07716360,0.11871079,0.00000000,-0.27658364,-0.05106290,0.29402348,0.00000000,0.00613772,-0.01160473,-0.01418192,0.00000000,0.00000000,0.00000000,0.00000000,0.00000000,0.00000000,0.00000000,0.00000000,0.00000000,0.00000000,0.00000000,0.00000000,0.00000000,0.00000000,0.00000000,0.00000000,0.00000000,0.00000000,0.00000000,0.00000000,0.00000000,-0.02144385,0.00000000,0.10803546,0.00000000,0.11471094,-0.05086713,-0.00699185,0.00000000,-0.01196689,-0.12489443,0.00334676,0.02263720,0.03195164,-0.38902260,-0.13707211,-0.09940875,0.27920654,-0.00061791,-0.25812428,0.00000000,-0.43476930,0.04011665,0.12452239,0.00000000,0.00000000,0.00000000,0.00000000,0.00000000,0.00000000,0.00000000,0.00000000,0.00000000,0.00000000,0.00000000,0.00000000,0.00000000,0.00000000,0.00000000,0.00000000,0.00000000,0.00000000,0.00000000,0.00000000,0.00000000,0.00000000,0.00000000,0.00000000,0.00000000,0.00000000,0.00000000,0.00000000,0.00000000,0.00000000,-0.00656616,0.00236150,-0.00224619,0.00000000,-0.24767108,-0.10389285,0.04374291,0.16915512,0.07862022,-0.06332842,0.02838843,-0.18109924,-0.00510063,0.17617123,0.00000000,0.08655696,-0.05326249,0.00362282,0.00000000,0.00000000,0.00000000,0.00000000,0.00000000,0.00000000,0.00000000,0.00000000,0.00000000,0.00000000,0.00000000,0.00000000,0.00000000,0.00000000,0.00000000,0.00000000,0.00000000,0.00000000,0.00000000,0.00000000,0.00000000,0.00000000,0.00000000,0.00000000,0.00000000,0.00000000,0.00000000,0.00000000,0.00000000,0.00000000,0.05726638,0.00846568,0.02508677,0.00000000,0.16666011,-0.33148443,-0.06997609,0.12329640,0.00572513,0.22838551,0.00502427,0.05301526,-0.00803994,-0.64590669,0.00000000,0.00548380,0.00000000,0.00000000,0.00000000,0.00000000,0.00000000,0.00000000,0.00000000,0.00000000,0.00000000,0.00000000,0.00000000,0.00000000,0.00000000,0.00000000,0.00000000,0.00000000,0.00000000,0.00000000,0.00000000,0.00000000,0.00000000,0.00000000,0.00000000,0.00000000,0.00000000,0.00000000,0.00000000,0.00000000,0.00000000,0.00000000,0.00000000,0.00000000,0.11146145,0.01514581,-0.00224534,0.03120678,0.43718736,0.55045977,-0.00480525,0.10741356,-0.01814148,0.58809125,0.00000000,-0.69156608,-0.04260944,-0.22115981,0.00000000,-0.00677551,0.00000000,0.00000000,0.00000000,0.00000000,0.00000000,0.00000000,0.00000000,0.00000000,0.00000000,0.00000000,0.00000000,0.00000000,0.00000000,0.00000000,0.00000000,0.00000000
0.00000000,0.00000000,0.00000000,0.00000000,0.00000000,0.00000000,0.00000000,0.00000000,0.00000000,0.00000000,0.00000000,0.00000000,0.00000000,0.00000000,0.00000000,0.00000000,0.00000000,0.00000000,0.00000000,0.00000000,0.00000000,0.00000000,0.00000000,0.00000000,0.00000000,0.00000000,0.00000000,0.00000000,0.00000000,0.00000000,0.00000000,0.00000000,0.00000000,0.00000000,0.00000000,0.00000000,0.00000000,0.00000000,0.00000000,0.00000000,0.00000000,0.00000000,0.00000000,0.00000000,0.00000000,0.00000000,0.00000000,0.00000000,0.00046605,-0.00165943,-0.00849056,0.00000000,0.06952626,-0.05053023,-0.14560424,0.00000000,0.09367719,-0.11160379,-0.01046763,0.00000000,0.04782443,-0.07058658,0.21304235,0.00000000,0.01782101,0.04968283,-0.59679521,0.00000000,-0.00530891,0.04644401,-0.28677087,-0.00505016,-0.00620694,0.03139676,0.08038830,0.00000000,0.00052280,-0.03808541,-0.09995910,0.00000000,0.00000000,0.01055767,0.03915826,-0.00414245,0.00000000,0.00000000,-0.00012879,0.00000000,0.00000000,0.00000000,0.00000000,0.00000000,0.00000000,0.00000000,0.00000000,0.00000000,-0.03632607,-0.00361098,0.03982541,0.00000000,-0.21951069,-0.04209885,-0.11800489,0.03485198,-0.08723087,-0.06062120,-0.59737442,0.04827046,-0.27290713,-1.07032734,-0.36223692,0.30815323,-0.11909417,-0.02831090,0.07952940,-0.11807031,0.16607928,-0.00783597,-0.15361483,-0.12200729,0.03572617,-0.71363420,-0.34513572,0.04423147,-0.02267069,-0.50245095,1.57985031,0.00304707,0.00000000,0.02784123,0.36768026,-0.02192312,0.00000000,-0.00555265,0.08046182,0.00142289,0.00000000,0.00000000,0.00000000,0.00000000,0.00000000,0.00000000,0.00000000,0.00000000,0.15732598,-0.06961117,-0.01439438,-0.02038790,0.18072083,-0.47173083,0.15763699,-0.10801501,0.04970142,-0.96922321,-0.00009480,-0.04906664,-0.16453488,0.33949095,0.00000000,0.47449699,0.47027028,0.27138931,0.00000000,0.44157868,-0.06566800,1.37034824,0.06562029,-0.08904523,0.40140755,0.73488166,0.57345216,0.13838300,0.55584399,-0.66368095,0.30119807,0.20817123,-0.05405071,-0.07284460,0.45915384,-0.06753220,0.00000000,0.01324426,0.03293156,0.00000000,0.00000319,0.00112005,-0.00158391,0.00000000,0.00000000,-0.00010247,-0.00460275,0.00000000,0.08407359,0.16359615,0.00000000,0.01657513,-0.21673322,0.33242430,0.00000000,-0.19054097,0.24398617,0.19858480,0.00000000,-0.74705589,-0.23866957,0.64203329,0.00000000,-0.48667228,0.36220783,-0.33417979,0.00000000,0.71136847,-0.03213844,0.22903183,0.00000000,-0.12545979,0.16044051,0.72448912,0.00000000,0.64738697,0.20751924,0.92160148,0.00000000,0.09692286,0.44143623,-0.62715075,-0.20421478,0.15567147,0.00768794,0.28719850,-0.41999319,0.00000000,-0.00998297,-0.15157412,-0.26967400,-0.00441201,0.00000000,0.03999447,0.05112866,0.00694985,0.00000000,0.00000000,0.00000000,0.08316026,0.00000000,0.00234601,0.00000000,-0.01432790,0.11586267,-0.52486013,0.00000000,-0.05353001,-0.27588502,0.63072053,-0.01754113,0.15555146,-0.31216778,0.82727346,-0.01821127,0.61524280,-0.52361029,0.45206483,0.00000000,-0.25631793,-0.49866918,-0.89004324,0.00000000,-0.60534269,-0.22240409,-1.22633378,0.00000000,-0.18247828,0.03758533,-0.93725928,-0.54923140,-0.21756448,0.07554160,1.00956266,-0.17502873,0.27941077,-0.02890284,0.61288349,-0.29221105,0.00892741,0.00000000,0.46228844,-0.34310079,-0.03311820,0.00000000,0.00000000,0.00000000,0.00000000,-0.06821985,0.00791745,0.00912444,0.00000000,-0.01319650,0.02154143,0.10804962,-0.10452613,-0.35939165,-0.07608768,0.22202612,-0.21886954,-0.48979528,-0.84909663,0.00000000,-0.29399306,-0.66815214,-0.67681415,0.00000000,-0.34252449,0.25382749,-0.70755258,0.00000000,-0.36491921,0.13230169,-0.38358062,0.00000000,0.29111047,-0.42424970,0.85515659,0.00000000,0.38555591,-0.03684010,0.81138078,0.00000000,0.61344118,-0.03519927,-0.82712283,0.00348057,0.09081380,0.05438052,0.41292382,0.00388735,0.14640669,0.00000000,0.00000000,0.00000000,0.00000000,-0.06144918,0.00606834,-0.00379822,0.02245514,-0.01095245,0.18743834,0.00079454,-0.27706576,0.03543317,-0.40804927,0.00000000,-0.57171083,0.01908123,-1.05057011,0.00000000,-0.19184208,-0.45090206,0.30984359,0.00000000,-0.47022545,0.21387305,-0.71491292,0.00000000,-0.47413166,-0.40028841,0.19351534,0.00000000,-0.31922101,-0.26314289,0.71600615,0.00000000,0.27702926,-0.24142435,-0.84592992,0.00000000,-0.50145331,-0.12671331,0.09610623,0.00000000,-0.35625954,-0.06943099,0.24558418,0.00000000,0.02977054,0.00000000,0.00000000,0.00000000,0.00000000,0.00000000,0.00000000,0.00000000,-0.02343504,0.01921070,-0.03220862,0.00000000,-0.09541403,-0.06442536,0.56559851,0.00000000,0.35385358,-0.34880552,-0.03497331,0.00000000,-0.25177336,-0.23776488,0.03209651,0.00000000,0.31571075,-0.41873638,-0.27127589,0.00000000,0.28935479,-0.00482102,-0.39859027,0.00000000,-0.62244509,0.00971460,0.44109637,0.00000000,0.21837601,-0.01289064,0.04800859,0.00000000,-0.52126737,-0.04648171,0.04890534,0.00000000,-0.15678185,0.04279307,0.06256580,0.00000000,0.00000000,0.00000000,0.00000000,0.00000000,0.00000000,0.00000000,0.00000000,0.00000000,0.00000000,0.00000000,0.00000000,0.00000000,-0.04001471,0.04014229,0.07337383,0.00000000,0.10274274,-0.15234166,0.23106363,0.00000000,0.20074694,-0.31402748,-0.46943444,0.00000000,0.58206222,0.11301470,-0.10797685,0.00000000,-0.21975922,-0.01355247,0.29552201,0.00000000,0.21739927,-0.06230091,0.02313040,0.00000000,-0.04504289,-0.03542472,-0.04845971,0.00000000,0.00000000,0.00000000,0.00000000,0.00000000,0.00000000,0.00000000,0.00000000,0.00000000,0.00000000,0.00000000,0.00000000,0.00000000,0.00000000,0.00000000,0.00000000,0.00000000,0.00000000,0.00000000,0.00000000,0.00000000,0.00000000,0.02231122,0.02416672,0.00000000,-0.01816541,0.24027409,0.09380572,0.00000000,-0.11838568,0.15751896,-0.89061329,0.00000000,0.23764748,0.00819083,0.31319781,0.00000000,0.06132527,-0.00613876,-1.02226163,0.00000000,0.02897184,-0.07304119,-0.31667095,0.00000000,0.00000000,0.00000000,0.00000000,0.00000000,0.00000000,0.00000000,0.00000000,0.00000000,0.00000000,0.00000000,0.00000000,0.00000000,0.00000000,0.00000000,0.00000000,0.00000000,0.00000000,0.00000000,0.00000000,0.00000000,0.00000000,0.00000000,0.00000000,0.00000000,0.00000000,0.00801985,0.00000000,0.00000000,0.08707455,0.01732307,0.07303793,0.00000000,0.21338213,0.30755316,0.86973367,0.00000000,0.11054707,-0.03818062,0.63076006,0.00000000,-0.65752767,-0.05725579,-0.28976825,0.00000000,-0.02872532,-0.04464059,-0.06697386,0.00000000,0.00000000,0.00000000,0.00000000,0.00000000,0.00000000,0.00000000,0.00000000,0.00000000,0.00000000,0.00000000,0.00000000,0.00000000,0.00000000
0.00000000,0.00000000,0.00000000,0.00000000,0.00000000,0.00000000,0.00000000,0.00000000,0.00000000,0.00000000,0.00000000,0.00000000,0.00000000,0.00000000,0.00000000,0.00000000,0.00000000,0.00000000,0.00000000,0.00000000,0.00000000,0.00000000,0.00000000,0.00000000,0.00000000,0.00000000,0.00000000,0.00000000,0.00000000,0.00000000,0.00000000,0.00000000,0.00000000,0.00000000,0.00000000,0.00000000,0.00000000,0.00000000,0.00000000,0.00000000,0.00000000,0.00000000,0.00000000,0.00000000,0.00000000,0.00000000,0.00000000,0.00000000,0.00000000,0.00000000,0.00000000,0.00000000,0.00000000,0.00000000,0.00000000,0.00000000,0.00000000,0.00000000,0.00000000,0.00000000,0.00000000,0.00000000,0.00000000,0.00000000,0.00000000,0.00000000,-0.00022157,0.00000000,-0.01181615,0.00802675,-0.07183191,0.00000000,-0.03068937,0.05078108,0.13081454,0.00000000,0.00052595,-0.10590602,-0.25100946,0.00000000,0.00068039,0.02705843,0.09386476,-0.01193711,0.00000000,-0.01612388,-0.00253510,0.00007592,0.00000000,0.00000000,0.00000000,0.00000000,0.00000000,0.00000000,0.00000000,0.00000000,0.00000000,0.00000000,0.00000000,0.00000000,0.00000000,0.00000000,-0.00002539,0.00000000,-0.01367224,-0.00183835,-0.05028995,0.00000000,-0.07625993,-0.08468220,-0.05543754,0.00495604,-0.03426930,-0.00214449,0.01205879,-0.00252061,0.18614289,-0.00349034,-0.09330399,-0.03599560,0.03627092,-0.79994431,-0.30107753,0.13479798,-0.03461864,-0.72674412,1.49528174,0.00702988,0.18460892,0.04672549,0.53613497,-0.06738842,0.00000000,-0.02701060,0.27021824,0.00588956,0.00000000,0.01303588,0.04326396,0.00000000,0.00000000,0.00000000,0.00000000,0.00000000,0.00000000,0.00000000,0.00000000,0.00000000,0.04821581,-0.03295957,0.05525255,0.00000000,0.05818289,-0.32823949,-0.08121245,-0.00562984,-0.08840570,0.15134657,0.20514804,0.18208782,0.41562915,0.09110244,0.26664462,0.06027824,-0.06542151,0.93108996,0.76517751,-0.11346640,0.15723737,0.60385707,0.18007465,0.17821252,0.63361711,-0.53735816,0.00000000,0.21583909,-0.21118639,-0.08799328,0.47771673,-0.11294897,0.08892242,0.05711765,0.13075351,-0.05144162,0.00000000,0.06420806,-0.01581465,-0.00043695,0.00000000,0.00000000,0.00000000,0.00000000,0.00000000,0.00000000,-0.00005484,0.00000000,-0.16248047,0.05669022,-0.06796298,-0.01983108,0.24852871,0.12908826,0.07427138,-0.61971794,-0.14004260,0.56064578,0.09435169,-0.36504907,0.30425458,-0.20707157,-0.04937142,0.50594037,-0.01941802,0.15890591,0.00000000,-0.15077959,0.02817934,0.45302166,0.00000000,0.49730457,0.16805657,0.44365708,0.00000000,0.07435166,0.48500480,-0.57275077,0.00000000,0.31287967,0.01246848,0.52695595,-0.11355169,0.27458419,0.00000000,-0.20534030,-0.07009115,-0.00094725,0.00000000,0.00000000,0.00110929,0.00000000,-0.00040895,0.00227652,-0.00805113,0.00000000,-0.09209729,0.00681963,-0.02342374,-0.00665849,0.25136507,-0.91357982,-0.02866660,-0.07836440,-0.23026097,0.88600436,0.00000000,0.21222124,-0.30724506,0.66021806,-0.01171075,0.59717681,-0.06052023,0.27933202,0.00000000,-0.24409328,-0.10910502,-0.27105126,0.00000000,0.00000000,-0.04239833,-0.11084762,0.00000000,-0.08586988,0.03555540,-0.61248003,0.00000000,-0.18613513,0.05181789,0.81238322,-0.02563976,0.35882483,0.00000000,0.30054548,-0.05200431,0.00125085,0.00000000,0.00389826,-0.00354002,0.00000000,-0.01346620,0.00075862,0.00210941,0.00077611,-0.33019714,0.07490294,0.00024118,-0.23657221,-0.01402616,0.06879270,0.00000000,-0.32492308,-0.37710338,-0.09245462,0.00000000,-0.21020629,-0.14766051,-0.65322639,0.00000000,-0.27032485,-0.13549824,-0.31281820,0.00000000,-0.12187476,0.04172631,-0.06009062,0.00000000,0.00000000,0.05441552,-0.01881271,0.01851951,0.03485512,-0.41658389,0.43279093,0.00000000,0.35364523,-0.01445146,0.60186681,0.00000000,0.59964405,-0.00517701,-0.33681131,0.00000000,0.00328372,0.00107020,0.00073997,0.00000000,0.00000000,-0.00548875,0.00000000,0.00000000,-0.02068037,-0.12477098,0.03257673,0.00000000,0.12113107,-0.01032597,0.41633691,0.00000000,-0.39762335,0.02145413,-0.41690780,0.00000000,-0.61465043,0.00421290,-0.67253461,0.00000000,-0.11343535,-0.08572937,0.05424716,0.00000000,0.00000000,0.01970770,-0.00793609,0.03631705,0.00000000,-0.41798532,0.04461504,-0.17555410,-0.04393320,-0.28975752,0.49232191,-0.46236319,0.22937124,0.00000000,-0.64593535,0.00000000,-0.39342549,-0.04217302,0.02957327,0.00000000,0.00000000,0.00000000,0.00000000,0.00000000,0.00000000,0.00000000,0.00000000,0.00000000,0.00085478,0.00000000,0.00000000,0.00000000,-0.07682660,0.00000000,-0.04721581,0.00000000,-0.09268735,-0.01702661,0.33267964,0.00000000,0.16384464,-0.06073748,-0.00756488,0.00000000,0.00000000,-0.01207317,0.00082628,0.00003173,0.00000000,-0.24072836,-0.02135222,-0.21258434,0.00000000,-0.00738193,-0.20930457,-0.48561542,-0.43779463,0.16256664,0.50443896,-0.19335622,0.27267499,-0.06332389,0.08569170,0.00000000,-0.47172939,-0.04569395,0.01896965,0.00000000,0.00000000,0.00000000,0.00000000,0.00000000,0.00000000,0.00000000,0.00000000,0.00000000,0.00000000,0.00000000,0.00000000,0.00000000,0.00000000,0.00000000,0.00000000,0.00000000,0.00000000,0.00000000,0.00000000,0.00000000,0.00000000,0.00000000,0.00000000,0.00000000,0.00000000,-0.06844013,-0.01762621,0.04431366,0.00000000,0.13367244,-0.03557196,0.21364882,-0.06494477,-0.05226781,0.25259861,0.20416583,0.28562814,0.00000000,0.04549855,0.00000000,-1.24009734,-0.11650852,-0.73851866,0.00000000,-0.06021983,-0.01691921,-0.02193619,0.00000000,0.00000000,0.00000000,0.00000000,0.00000000,0.00000000,0.00000000,0.00000000,0.00000000,0.00000000,0.00000000,0.00000000,0.00000000,0.00000000,0.00000000,0.00000000,0.00000000,0.00000000,0.00000000,0.00000000,0.00000000,0.00000000,0.01545494,0.00169952,0.01919247,0.00000000,0.14679201,-0.15208920,-0.21870520,0.00908977,0.00969504,0.19685311,0.18216270,0.06489189,-0.03942989,-1.05034719,0.00000000,0.05590016,-0.11075442,-1.06904713,0.00000000,-0.43764263,-0.08777331,-0.02626823,0.00000000,0.00000000,0.00000000,0.00000000,0.00000000,0.00000000,0.00000000,0.00000000,0.00000000,0.00000000,0.00000000,0.00000000,0.00000000,0.00000000,0.00000000,0.00000000,0.00000000,0.00000000,0.00000000,0.00000000,0.00000000,0.00000000,0.00000000,0.00000000,0.00000000,0.00000000,0.05933398,0.00928113,-0.00515185,0.01645635,0.48132573,0.35422834,-0.07888829,0.08121048,-0.04884492,0.61756165,-0.08562355,-0.79941491,-0.03434712,-0.38615689,0.00000000,-0.08594146,-0.08422501,-0.26356443,0.00000000,0.00000000,-0.01001074,0.00339762,0.00000000,0.00000000,0.00000000,0.00000000,0.00000000,0.00000000,0.00000000,0.00000000,0.00000000,0.00000000
