0.019939934834837914
0.002671038499101996
0.008009891025722027
-0.003922082483768463
-0.001878558308817446
0.014898689463734627
-0.009413639083504677
-0.014841238968074322
-0.002472789492458105
-0.011185655370354652
0.016766708344221115
0.010953658260405064
0.020169630646705627
-0.001821705605834723
0.009639464318752289
0.012761062942445278
0.010221124626696110
-0.009203473106026649
-0.004030275158584118
-0.006870542187243700
-0.013577853329479694
0.007224902044981718
0.000366983033018187
0.031107854098081589
0.011104499921202660
0.017739340662956238
-0.001025592559017241
0.020734980702400208
0.050956446677446365
0.031990882009267807
0.030197469517588615
-0.019014811143279076
0.042332880198955536
-0.030894683673977852
-0.022820746526122093
0.034365456551313400
-0.005979740060865879
0.024467173963785172
-0.004411054309457541
0.006871866993606091
-0.005983376875519753
0.008557100780308247
-0.020925909280776978
0.040553152561187744
0.022324442863464355
0.007894477806985378
-0.014529858715832233
-0.004195915535092354
-0.006181641481816769
0.034918680787086487
-0.041274342685937881
0.002691132016479969
0.009005391970276833
0.016299000009894371
0.013997067697346210
0.000676167430356145
0.004000931512564421
0.004241442307829857
-0.009311010129749775
0.040771767497062683
0.000347414956195280
-0.004558485001325607
-0.011742210946977139
-0.020037518814206123
-0.005039830226451159
-0.016214456409215927
0.030642287805676460
0.011877195909619331
-0.013862350955605507
0.027154302224516869
-0.011182356625795364
0.039176985621452332
0.032635278999805450
0.001674182247370481
0.021283635869622231
0.026368521153926849
0.020476689562201500
0.018099090084433556
-0.007607116363942623
0.003602954093366861
-0.001407026546075940
-0.007381361443549395
0.014133421704173088
0.012665402144193649
-0.009165671654045582
-0.009256660006940365
-0.004786914680153131
0.007133705541491508
-0.007913609966635704
0.019849890843033791
-0.001215579570271075
0.005000356119126081
0.011870046146214008
-0.007394643500447273
-0.000853254867251962
-0.009704492986202240
0.007084420416504145
0.006961314473301172
-0.007377307396382093
0.041628956794738770
-0.000372895447071642
0.000692289206199348
0.013650241307914257
0.030750872567296028
0.000197300192667171
0.004643531516194344
0.011557182297110558
0.009695585817098618
-0.001260801916942000
-0.008194596506655216
0.011830904521048069
0.013933349400758743
0.004107479471713305
0.005815684795379639
0.020785637199878693
0.028005378320813179
0.004537615459412336
-0.009910128079354763
-0.017590764909982681
-0.009105922654271126
0.019065642729401588
0.033508446067571640
0.007728043012320995
0.019978478550910950
0.009765760973095894
0.000669994449708611
0.018447183072566986
0.040858063846826553
