0.031338542699813843,0.008029973134398460,-0.011701923795044422,-0.146616354584693909,-0.166983649134635925,-0.078180804848670959,-0.349942415952682495,-0.331400990486145020,-0.034846175462007523,-0.161605611443519592,-0.247284680604934692,0.336552172899246216,-0.208201572299003601,-0.166938662528991699,-0.112643592059612274,0.045323848724365234,0.351426541805267334,-0.088699437677860260,-0.224331676959991455,0.007051674183458090,0.001387454220093787,-0.009353040717542171,0.045257247984409332,0.262366503477096558,0.174669504165649414,-0.069723881781101227,-0.061460860073566437,0.063038446009159088,0.143267020583152771,0.155109331011772156,-0.088595844805240631,0.219645336270332336,0.149861454963684082,0.047411672770977020,-0.151579752564430237,0.007087670732289553,0.096367880702018738,0.061640806496143341,0.016712369397282600,0.335024386644363403,-0.123312279582023621,-0.055008947849273682,-0.114688679575920105,-0.186739936470985413,0.089340038597583771,-0.042666710913181305,0.153878822922706604,0.054154217243194580,0.076665751636028290,-0.147932693362236023,0.070962630212306976,-0.036716956645250320,-0.232080474495887756,0.122794814407825470,0.062885485589504242,-0.162464395165443420,0.371325284242630005,-0.003352915402501822,-0.073697991669178009,0.338023453950881958,-0.060880959033966064,0.153003737330436707,-0.053471021354198456,0.028647547587752342,0.166673853993415833,0.113112218677997589,-0.129596263170242310,-0.050095353275537491,0.305696368217468262,0.083787269890308380,0.071047984063625336,-0.046478562057018280,-0.030583851039409637,-0.037997163832187653,-0.034284278750419617,-0.126732870936393738,-0.177406430244445801,-0.036095209419727325,-0.077819369733333588,0.053567364811897278,-0.111096948385238647,-0.037181764841079712,0.187991023063659668,-0.178335800766944885,0.113760411739349365,-0.094157248735427856,-0.018187349662184715,0.106064282357692719,0.182076930999755859,-0.064554423093795776
0.083004876971244812,0.015495049767196178,0.225187420845031738,-0.140193209052085876,-0.127309739589691162,-0.064529694616794586,-0.013210729695856571,0.239094644784927368,0.220266446471214294,-0.195126593112945557,-0.077492304146289825,0.061283919960260391,0.245114073157310486,-0.128904879093170166,0.271794140338897705,0.168915987014770508,0.022622542455792427,-0.048086687922477722,-0.139986738562583923,0.285061895847320557,0.022779008373618126,-0.161107152700424194,-0.004570849705487490,0.371235162019729614,-0.154374569654464722,-0.082985624670982361,0.144864231348037720,0.224853128194808960,0.204268187284469604,-0.202654927968978882,-0.022903194651007652,0.294308423995971680,-0.069289669394493103,-0.202139988541603088,-0.072421275079250336,0.008120160549879074,-0.140530481934547424,0.041357781738042831,-0.057441700249910355,0.016753591597080231,-0.030480258166790009,-0.063332282006740570,0.008874546736478806,0.147268056869506836,-0.049725309014320374,-0.046907376497983932,-0.012909634038805962,0.051018696278333664,-0.104922503232955933,0.007634159177541733,-0.108198672533035278,0.032093774527311325,-0.267907381057739258,-0.080501757562160492,-0.125298768281936646,0.114288635551929474,0.240265920758247375,-0.084133461117744446,-0.147304922342300415,0.076923467218875885,-0.044247429817914963,-0.306168198585510254,-0.232739448547363281,0.004294758662581444,-0.014716940000653267,-0.081541053950786591,-0.128775894641876221,-0.130342379212379456,-0.148734807968139648,0.014717367477715015,-0.097822673618793488,0.185234874486923218,-0.245988905429840088,0.080490961670875549,0.166733607649803162,0.042498543858528137,0.097816944122314453,0.100796133279800415,-0.249999567866325378,-0.009735251776874065,0.110356420278549194,-0.146684959530830383,-0.201354324817657471,-0.050626665353775024,0.075250253081321716,-0.100827448070049286,0.054963257163763046,0.122924208641052246,0.098593026399612427,-0.171250149607658386
0.215318024158477783,-0.117968685925006866,0.066952742636203766,-0.039052035659551620,-0.054981701076030731,-0.110312849283218384,0.031180551275610924,-0.036089576780796051,0.000876193342264742,-0.054150950163602829,0.254142016172409058,0.092186264693737030,-0.042553693056106567,-0.026760568842291832,0.119229815900325775,-0.031919520348310471,-0.023521192371845245,-0.123023152351379395,0.010939834639430046,-0.071096830070018768,0.242401897907257080,-0.216852948069572449,-0.014553901739418507,0.246857270598411560,-0.063068613409996033,-0.151956215500831604,-0.077864222228527069,-0.064868725836277008,-0.002290314063429832,0.074143342673778534,0.124946303665637970,0.326798945665359497,-0.070871472358703613,-0.153034165501594543,0.098354369401931763,-0.365267962217330933,0.010460107587277889,0.130030781030654907,0.240227192640304565,0.029231660068035126,0.118814691901206970,-0.244152143597602844,-0.191983193159103394,-0.096902228891849518,0.200238734483718872,0.089133672416210175,-0.076403245329856873,-0.131269127130508423,-0.246269807219505310,-0.033778849989175797,0.181644946336746216,-0.165776297450065613,0.214437142014503479,-0.188582524657249451,-0.082093708217144012,0.100782513618469238,0.261446505784988403,0.048306554555892944,0.035377491265535355,0.176425039768218994,0.050720043480396271,0.084738820791244507,-0.132152348756790161,0.209759846329689026,0.014323987998068333,0.022152628749608994,-0.297496378421783447,0.106985315680503845,0.174868777394294739,0.134473368525505066,-0.095906764268875122,0.051140546798706055,0.002325444482266903,-0.028851758688688278,0.185111492872238159,-0.135240256786346436,-0.109508082270622253,0.153242930769920349,0.052321881055831909,0.017346194013953209,0.259281724691390991,0.114873893558979034,0.061820037662982941,-0.118408940732479095,-0.192455559968948364,0.046544067561626434,-0.176389992237091064,0.013095096684992313,-0.160804599523544312,-0.242629438638687134
0.177167624235153198,-0.139101713895797729,0.037283744663000107,0.053787939250469208,0.065725609660148621,0.232497036457061768,0.004355603363364935,0.173390135169029236,-0.145681992173194885,-0.303040027618408203,-0.104026898741722107,0.012360732071101665,0.083614490926265717,0.280994951725006104,0.049179207533597946,0.084693245589733124,0.055841598659753799,0.162939369678497314,0.240664511919021606,0.111269816756248474,0.154685348272323608,0.219658717513084412,0.111383952200412750,0.180915921926498413,0.107017286121845245,0.116792015731334686,-0.198368534445762634,-0.177422612905502319,0.201314002275466919,0.150444075465202332,0.062703236937522888,0.161425113677978516,0.302085965871810913,-0.059971340000629425,0.150578588247299194,0.023021548986434937,0.161039099097251892,0.213876888155937195,-0.091634318232536316,0.076511934399604797,-0.271088600158691406,0.147907316684722900,0.091097071766853333,-0.042771134525537491,0.092862583696842194,0.072802200913429260,0.173018485307693481,0.058718685060739517,0.155549883842468262,-0.062748290598392487,0.229498609900474548,-0.087428204715251923,0.076890483498573303,-0.153188467025756836,0.092917524278163910,0.162422388792037964,0.098796866834163666,0.187930360436439514,0.134625345468521118,0.215251281857490540,0.138190314173698425,-0.135741591453552246,-0.014635834842920303,-0.205467611551284790,-0.001532304100692272,0.105674952268600464,0.068577274680137634,0.043814253062009811,0.084800206124782562,0.104399167001247406,0.249805107712745667,-0.165013715624809265,-0.172114506363868713,-0.174495190382003784,0.140959963202476501,0.058937516063451767,0.049447838217020035,-0.060133196413516998,0.062094807624816895,-0.027802683413028717,0.126948878169059753,0.084515042603015900,-0.169797450304031372,0.141677081584930420,0.140453159809112549,0.082783177495002747,-0.194577157497406006,0.064768135547637939,0.069929309189319611,-0.214254140853881836
0.148055121302604675,0.032727088779211044,-0.121314100921154022,-0.031387474387884140,0.097649097442626953,0.092994824051856995,0.097819715738296509,-0.091002739965915680,0.142642304301261902,0.178590074181556702,-0.186010479927062988,-0.013724884018301964,0.043196015059947968,-0.116031587123870850,-0.140999779105186462,0.150352120399475098,-0.174379363656044006,0.143956810235977173,-0.112362742424011230,0.152715623378753662,-0.009915953502058983,-0.069884285330772400,-0.065081879496574402,0.055560976266860962,0.016610693186521530,0.098776876926422119,-0.046860359609127045,0.143590837717056274,-0.027925165370106697,-0.079820923507213593,0.052449595183134079,-0.048440515995025635,0.162616610527038574,0.122712999582290649,-0.061421517282724380,-0.038861099630594254,-0.116395212709903717,-0.125259876251220703,0.078301094472408295,-0.029619649052619934,-0.133389174938201904,-0.028498420491814613,-0.057576078921556473,0.076372466981410980,0.083853133022785187,0.086120404303073883,0.078339681029319763,-0.066640555858612061,-0.159460529685020447,0.170589089393615723,-0.190441355109214783,-0.064143814146518707,0.013187845237553120,0.157125785946846008,0.029852647334337234,0.062715172767639160,0.072248741984367371,0.195623338222503662,0.073917984962463379,0.053585585206747055,0.011482137255370617,0.036055963486433029,-0.103377036750316620,-0.010251874104142189,0.005840816535055637,-0.190551608800888062,-0.102439619600772858,-0.183040931820869446,-0.198330596089363098,-0.009214501827955246,0.074702680110931396,0.164986982941627502,-0.069063991308212280,-0.021931529045104980,-0.153159663081169128,-0.061071023344993591,-0.005542206112295389,0.069963663816452026,0.001347778481431305,0.076206259429454803,-0.117588080465793610,-0.101922713220119476,0.165248692035675049,0.044989235699176788,0.151332229375839233,0.074430771172046661,-0.135755181312561035,0.090926058590412140,0.007967153564095497,0.078900523483753204
0.382547855377197266,-0.044017557054758072,0.296760380268096924,0.101065933704376221,0.121110804378986359,-0.187558397650718689,0.184347569942474365,0.162318632006645203,0.140496999025344849,-0.116229578852653503,-0.071728035807609558,0.187744289636611938,-0.025180429220199585,-0.089169137179851532,0.172418013215065002,0.046759758144617081,0.009321715682744980,0.281100213527679443,-0.071387432515621185,-0.046589247882366180,-0.062666721642017365,0.202965378761291504,0.163226723670959473,0.049618534743785858,0.024226101115345955,-0.102199599146842957,-0.142421066761016846,-0.028790429234504700,0.015034987591207027,0.109749130904674530,-0.053557895123958588,-0.080862462520599365,-0.002649273956194520,-0.040532428771257401,0.125817075371742249,0.226282238960266113,-0.126690372824668884,0.155722111463546753,0.051372617483139038,0.121648468077182770,0.047506414353847504,-0.148519352078437805,-0.142621040344238281,0.005683343391865492,-0.066856630146503448,-0.061506073921918869,-0.128018334507942200,0.271489083766937256,0.075204230844974518,0.134544074535369873,-0.026407249271869659,-0.171434715390205383,0.060893397778272629,0.072932563722133636,-0.221188023686408997,0.197518989443778992,-0.169837787747383118,-0.084214121103286743,0.179231122136116028,-0.157016471028327942,-0.277393281459808350,-0.300484508275985718,0.284671247005462646,0.009551505558192730,-0.052594397217035294,-0.065333068370819092,-0.102864339947700500,-0.214278236031532288,-0.184694409370422363,-0.007551419548690319,-0.139617100358009338,-0.166242763400077820,-0.116007290780544281,-0.195682734251022339,-0.305385708808898926,0.044563267379999161,-0.088792152702808380,-0.022472659125924110,0.008596320636570454,0.114798478782176971,-0.010153765790164471,-0.232577830553054810,0.167962968349456787,-0.005438905674964190,0.130400404334068298,0.028479205444455147,-0.221217840909957886,0.015998922288417816,0.106998898088932037,-0.026150686666369438
0.218476191163063049,-0.173466771841049194,0.244635373353958130,0.078940249979496002,-0.074081428349018097,-0.071381866931915283,0.143611893057823181,0.029486827552318573,0.050226487219333649,0.076996669173240662,-0.062126692384481430,0.058992862701416016,-0.067671269178390503,-0.187075361609458923,0.091188952326774597,-0.164213210344314575,0.035019133239984512,-0.021808359771966934,0.142505347728729248,-0.063550084829330444,-0.258163005113601685,0.227335348725318909,0.038831528276205063,-0.054666273295879364,-0.168086990714073181,0.058146465569734573,0.252414137125015259,0.085495203733444214,0.045264814049005508,-0.083506308495998383,0.214943051338195801,0.073657400906085968,-0.028543561697006226,0.167746782302856445,0.043021705001592636,0.075998984277248383,-0.212960094213485718,0.010906230658292770,0.111208617687225342,-0.038731589913368225,-0.065011270344257355,0.174187660217285156,-0.012648194096982479,0.272015661001205444,-0.276977390050888062,-0.191002145409584045,-0.112562909722328186,0.061092130839824677,-0.000375009200070053,-0.158121854066848755,-0.011859618127346039,-0.175274297595024109,0.159128263592720032,0.020328780636191368,-0.028691496700048447,-0.044780660420656204,0.112270109355449677,0.000871402444317937,-0.193391799926757812,-0.122719056904315948,-0.042328756302595139,-0.050407297909259796,-0.224682465195655823,0.094196349382400513,-0.018785666674375534,-0.124082267284393311,0.281882584095001221,-0.104966782033443451,-0.141074001789093018,-0.273551076650619507,0.116258814930915833,0.059510149061679840,-0.136804729700088501,0.095911711454391479,-0.105673842132091522,0.150935217738151550,0.184230655431747437,-0.233041137456893921,0.241479545831680298,0.120519705116748810,-0.071977823972702026,0.264772981405258179,-0.183993980288505554,-0.217811152338981628,0.019416037946939468,0.244588822126388550,-0.199882790446281433,-0.030226590111851692,-0.034892734140157700,0.274183839559555054
0.073877505958080292,-0.202617913484573364,0.166478618979454041,0.181796520948410034,-0.120011702179908752,0.246173128485679626,-0.119246393442153931,-0.072808817028999329,-0.073208130896091461,0.101866200566291809,0.116504564881324768,-0.178566083312034607,0.126908794045448303,-0.185046657919883728,0.007173340767621994,0.163944303989410400,0.235204041004180908,-0.209723994135856628,0.177157372236251831,0.108717799186706543,0.465357005596160889,0.116682544350624084,0.062689252197742462,0.381359100341796875,0.162073045969009399,-0.274017900228500366,0.135511621832847595,0.129394307732582092,-0.140793383121490479,0.166725039482116699,-0.097603507339954376,-0.003710595890879631,0.354123622179031372,0.150539413094520569,0.095599234104156494,-0.179349288344383240,-0.007728474680334330,-0.035487737506628036,0.323965728282928467,0.083943471312522888,-0.039867885410785675,-0.001323832548223436,-0.020525492727756500,0.007261308375746012,0.011609342880547047,0.205802768468856812,-0.008913716301321983,-0.256264984607696533,0.000612224743235856,0.103240996599197388,-0.075946405529975891,0.214489996433258057,-0.082725748419761658,0.175272300839424133,-0.190990924835205078,-0.070260465145111084,0.154833063483238220,-0.030997637659311295,0.141181766986846924,0.067341297864913940,-0.020817110314965248,-0.098129019141197205,0.165003463625907898,-0.272111326456069946,-0.198732689023017883,-0.140468075871467590,-0.046245943754911423,0.117995575070381165,-0.046551827341318130,0.180646464228630066,-0.055107269436120987,0.068060696125030518,-0.156642675399780273,-0.066745765507221222,0.024905435740947723,-0.026571299880743027,0.248386472463607788,-0.088880643248558044,-0.119389086961746216,-0.067766405642032623,0.134425818920135498,0.130575433373451233,-0.009570090100169182,0.098984777927398682,-0.173128083348274231,0.078600496053695679,-0.096998952329158783,0.198815032839775085,0.214812368154525757,-0.071312442421913147
-0.072619669139385223,-0.062541700899600983,-0.113178081810474396,-0.159708678722381592,-0.028241420164704323,-0.282090604305267334,0.088631696999073029,-0.023655440658330917,0.074152708053588867,-0.127974048256874084,0.140120923519134521,-0.110473737120628357,0.033218689262866974,-0.075791358947753906,-0.037331994622945786,0.076625302433967590,-0.038858842104673386,0.014142509549856186,0.003010664135217667,-0.057360645383596420,-0.094797059893608093,-0.224559828639030457,0.131852179765701294,-0.072552613914012909,0.022499775514006615,0.256850361824035645,-0.016491360962390900,-0.043959327042102814,-0.009084563702344894,-0.109466627240180969,0.100904807448387146,0.089258529245853424,-0.086557753384113312,0.141297683119773865,-0.001068716286681592,-0.346100986003875732,-0.112958379089832306,0.182260721921920776,0.212212532758712769,-0.138362243771553040,-0.077901639044284821,-0.128950864076614380,0.080545812845230103,0.135619372129440308,-0.036561116576194763,-0.169060736894607544,0.150544464588165283,0.167495846748352051,-0.073530785739421844,-0.072903282940387726,-0.209371373057365417,-0.141176238656044006,0.080065630376338959,0.043098572641611099,-0.357236385345458984,-0.238740101456642151,0.190735608339309692,-0.266246050596237183,0.186354786157608032,-0.230885043740272522,-0.042673356831073761,0.056694503873586655,0.042766060680150986,-0.011707964353263378,-0.224488303065299988,0.163157373666763306,-0.043739438056945801,0.229358375072479248,-0.023202428594231606,0.019803345203399658,0.185857877135276794,0.088209494948387146,-0.001802911865524948,0.194924131035804749,-0.030467141419649124,-0.038121003657579422,0.262309700250625610,-0.033126197755336761,-0.042954541742801666,-0.214231595396995544,0.030222417786717415,0.227613151073455811,0.054615907371044159,0.058169789612293243,-0.291313618421554565,0.010775874368846416,0.208730354905128479,-0.219681188464164734,0.019020304083824158,0.026400588452816010
0.186954364180564880,0.103551983833312988,-0.200919032096862793,0.038947775959968567,-0.143385142087936401,-0.226845368742942810,-0.212075024843215942,0.033612318336963654,0.008937510661780834,-0.159608229994773865,0.181934580206871033,-0.025826489552855492,0.213478744029998779,0.023663941770792007,0.160187318921089172,0.039601266384124756,0.228649094700813293,-0.024852167814970016,0.172054752707481384,-0.300874531269073486,0.030297119170427322,-0.278960913419723511,0.262288093566894531,0.099366635084152222,0.205061361193656921,-0.053158648312091827,-0.023414462804794312,0.054896976798772812,0.134654074907302856,0.043247126042842865,0.075698345899581909,0.008754053153097630,-0.118295639753341675,-0.147822245955467224,0.106174610555171967,-0.045913714915513992,-0.249092400074005127,-0.020027205348014832,0.054360058158636093,-0.145268052816390991,0.110647030174732208,-0.098707281053066254,0.128517210483551025,-0.212595418095588684,-0.133095175027847290,0.079157873988151550,0.129061982035636902,0.040614012628793716,0.097913697361946106,-0.173011690378189087,-0.223869398236274719,0.074601158499717712,-0.011413509957492352,0.259326517581939697,-0.166154369711875916,-0.059113964438438416,-0.033889323472976685,0.090934999287128448,0.002532594604417682,-0.149991407990455627,-0.004939384292811155,-0.074819564819335938,-0.083156891167163849,-0.019850613549351692,-0.038110926747322083,0.105897963047027588,0.188312217593193054,0.034983493387699127,-0.010612205602228642,-0.050019666552543640,0.101953335106372833,-0.101928278803825378,-0.198527500033378601,0.123471386730670929,-0.224592968821525574,-0.347640395164489746,0.230268821120262146,0.162403494119644165,-0.061746578663587570,0.000848778639920056,-0.012145094573497772,0.029374660924077034,0.206148967146873474,0.275034159421920776,-0.113968372344970703,-0.199063703417778015,-0.008942068554461002,-0.083224333822727203,0.111760623753070831,-0.070643983781337738
-0.108252570033073425,-0.228277564048767090,0.125465109944343567,-0.185501158237457275,-0.011094500310719013,0.042902287095785141,0.125740051269531250,0.174097970128059387,0.140586420893669128,0.149151951074600220,0.132477819919586182,0.075673513114452362,-0.061271447688341141,0.192014440894126892,0.096582785248756409,0.023482572287321091,0.070165522396564484,-0.018857475370168686,-0.014607714489102364,0.091684453189373016,-0.340417325496673584,0.054468024522066116,-0.027896068990230560,-0.166347965598106384,-0.094108171761035919,0.094389967620372772,-0.296186029911041260,-0.034077107906341553,0.035531133413314819,0.037655778229236603,0.235779032111167908,0.130141273140907288,-0.201153904199600220,-0.066902302205562592,0.031645487993955612,0.312945216894149780,-0.165246203541755676,-0.160893872380256653,-0.178457200527191162,0.070015005767345428,-0.024067452177405357,0.266612768173217773,-0.097644306719303131,0.220446959137916565,0.032540570944547653,-0.096853144466876984,0.098011955618858337,0.069903507828712463,0.036668095737695694,0.027296124026179314,0.163367092609405518,-0.005431108642369509,0.073850266635417938,-0.111521050333976746,0.027739670127630234,-0.177970647811889648,-0.159945741295814514,-0.051196288317441940,0.029904354363679886,-0.104612044990062714,-0.032591782510280609,0.105847366154193878,0.096553266048431396,0.018914932385087013,-0.164178296923637390,0.022575423121452332,0.148046374320983887,0.088132902979850769,-0.169416323304176331,-0.061733178794384003,0.020641420036554337,0.065956026315689087,0.300182104110717773,-0.147995010018348694,-0.137379124760627747,0.179805859923362732,0.200309038162231445,0.113161370158195496,-0.107008568942546844,0.139212176203727722,0.214979425072669983,-0.161862894892692566,0.087293066084384918,-0.104533329606056213,-0.062583461403846741,-0.061929311603307724,0.160459965467453003,-0.082666881382465363,0.264378160238265991,0.115971386432647705
-0.187957420945167542,-0.198251470923423767,-0.158039912581443787,0.165156662464141846,-0.050698537379503250,0.043944276869297028,-0.292534738779067993,0.198944464325904846,0.163214907050132751,-0.281993865966796875,-0.022163085639476776,-0.080314211547374725,0.188496470451354980,0.239994019269943237,-0.035725932568311691,-0.214996635913848877,0.103274948894977570,-0.008238472975790501,0.139850944280624390,0.169181331992149353,-0.039007551968097687,-0.019831424579024315,-0.141233339905738831,0.112601660192012787,-0.261476516723632812,0.126541331410408020,0.224690586328506470,0.025438912212848663,0.069604493677616119,0.187989652156829834,0.236332505941390991,-0.125441357493400574,0.045928996056318283,-0.123128056526184082,0.108279794454574585,0.038758344948291779,-0.053405463695526123,0.124293349683284760,0.028331890702247620,-0.001867703977040946,-0.003415631130337715,-0.086228378117084503,-0.083820156753063202,-0.111268490552902222,0.115170463919639587,-0.259558469057083130,-0.097230285406112671,-0.242222800850868225,-0.023025812581181526,-0.027349364012479782,0.153162375092506409,0.206882327795028687,0.081260137259960175,0.020301619544625282,-0.150325849652290344,0.075895763933658600,-0.122396409511566162,-0.216655656695365906,-0.148230552673339844,0.090117104351520538,-0.283337622880935669,0.093899860978126526,0.146534442901611328,0.102653846144676208,-0.068340681493282318,-0.018420729786157608,-0.235650539398193359,0.019872754812240601,0.045255735516548157,-0.123541101813316345,0.046743899583816528,0.153246641159057617,-0.174638465046882629,-0.091474093496799469,-0.086375519633293152,-0.200227335095405579,0.057494450360536575,0.002747945254668593,0.032624054700136185,0.089759103953838348,0.025541635230183601,-0.055597618222236633,0.003686368698254228,0.203916102647781372,-0.199008539319038391,0.259560286998748779,-0.192022502422332764,0.193774625658988953,0.072434999048709869,0.118090458214282990
-0.093080282211303711,-0.103765562176704407,-0.136130586266517639,-0.080712124705314636,-0.018596453592181206,-0.043776851147413254,-0.058054193854331970,0.067829050123691559,0.006284760776907206,-0.117800027132034302,0.166477039456367493,-0.159741148352622986,0.061367571353912354,-0.032328870147466660,-0.049080565571784973,0.158620283007621765,0.153683543205261230,0.135730773210525513,-0.054267328232526779,0.117084406316280365,-0.144841864705085754,0.093643434345722198,0.005967187695205212,-0.189483821392059326,0.215711623430252075,-0.027229819446802139,0.242233395576477051,0.213188365101814270,0.259293645620346069,0.256739109754562378,0.149018377065658569,0.174621224403381348,-0.027399651706218719,-0.099572457373142242,-0.002170512219890952,0.003534006653353572,-0.239937216043472290,0.000409417843911797,0.059616606682538986,-0.176171869039535522,-0.091160312294960022,0.009543728083372116,0.096431136131286621,-0.044423602521419525,-0.164997279644012451,0.127471640706062317,-0.085610106587409973,-0.156666159629821777,-0.036831770092248917,0.102764450013637543,-0.360243290662765503,-0.028021443635225296,-0.063243590295314789,0.202198982238769531,0.064044006168842316,-0.213217243552207947,-0.118254087865352631,0.302383184432983398,-0.172576338052749634,-0.041416008025407791,-0.280727475881576538,0.015604259446263313,0.183007732033729553,0.228583768010139465,-0.077409856021404266,0.103191964328289032,-0.040355965495109558,0.189442589879035950,-0.190020978450775146,-0.106346569955348969,-0.016065694391727448,-0.146160617470741272,0.111320339143276215,0.039239272475242615,0.121157072484493256,0.074973955750465393,0.117972612380981445,-0.125745639204978943,-0.077327154576778412,-0.072753697633743286,-0.146286591887474060,0.071228601038455963,0.204044908285140991,-0.082661874592304230,-0.145725145936012268,-0.205997452139854431,0.103303045034408569,0.070203982293605804,-0.032334428280591965,0.157971426844596863
-0.271506577730178833,-0.090478852391242981,0.009523295797407627,0.199042171239852905,-0.163290277123451233,-0.207571715116500854,0.004849093034863472,-0.201536402106285095,0.174830928444862366,-0.196002840995788574,0.119463354349136353,0.068197473883628845,-0.228904426097869873,-0.132803931832313538,0.106485404074192047,0.111124448478221893,-0.106159716844558716,0.249838650226593018,-0.047706045210361481,0.118824504315853119,-0.137173742055892944,0.121909886598587036,-0.208336874842643738,-0.035559460520744324,-0.029061622917652130,0.109088987112045288,-0.128794193267822266,0.001054309657774866,0.344312876462936401,0.107596307992935181,-0.294317126274108887,0.162347212433815002,0.254567652940750122,-0.212790444493293762,0.112275563180446625,0.025404291227459908,0.217355534434318542,0.217425331473350525,0.183965012431144714,0.358696728944778442,-0.008670900017023087,0.013064030557870865,0.163645699620246887,0.172867760062217712,0.190332353115081787,-0.022193487733602524,0.234955042600631714,0.208833500742912292,-0.026700349524617195,-0.095589436590671539,-0.199628248810768127,-0.127266854047775269,0.254347354173660278,0.111101411283016205,-0.127763986587524414,0.064513318240642548,-0.219787076115608215,0.327802002429962158,0.162782266736030579,0.140680447220802307,0.066538050770759583,0.028073418885469437,0.182048693299293518,-0.127536535263061523,0.168646618723869324,0.157129198312759399,-0.063861653208732605,-0.033339355140924454,0.312170833349227905,-0.189857080578804016,0.197522506117820740,0.114964015781879425,-0.294997513294219971,0.068521752953529358,0.061598490923643112,0.098469845950603485,0.263728439807891846,-0.025975158438086510,0.167036354541778564,-0.194557905197143555,-0.092327393591403961,-0.033057190477848053,0.067377403378486633,-0.157860085368156433,0.031723786145448685,0.135355517268180847,-0.011837668716907501,0.005545394029468298,0.168743163347244263,-0.324430197477340698
-0.068612240254878998,0.155169844627380371,-0.193100214004516602,0.034007463604211807,0.112564161419868469,-0.137248024344444275,0.138148203492164612,0.036796409636735916,0.084429971873760223,0.167536616325378418,0.077908925712108612,-0.234579816460609436,0.004918174818158150,0.248364672064781189,0.173885077238082886,-0.127787113189697266,-0.197957009077072144,-0.126827955245971680,-0.010507337749004364,0.241626307368278503,-0.125435158610343933,-0.003343476215377450,0.114304311573505402,0.160868808627128601,-0.227663010358810425,-0.150562986731529236,-0.117424055933952332,-0.034173659980297089,0.166740104556083679,-0.241540148854255676,0.160205885767936707,0.293088555335998535,-0.092176802456378937,-0.102975532412528992,-0.177241519093513489,0.159647703170776367,0.121770784258842468,0.078791201114654541,0.062135994434356689,-0.182659402489662170,-0.069551616907119751,-0.141359508037567139,-0.006933069787919521,-0.050945825874805450,-0.175852850079536438,-0.206093981862068176,0.171567529439926147,-0.181687131524085999,-0.139035195112228394,-0.112751513719558716,0.083877556025981903,0.062178049236536026,0.075993575155735016,0.078998446464538574,0.184108689427375793,0.072326019406318665,0.142769172787666321,0.010441092774271965,-0.000674512877594680,-0.128326073288917542,0.068913973867893219,-0.100333184003829956,0.066548757255077362,-0.114111214876174927,0.116040408611297607,0.089191615581512451,0.188077569007873535,-0.058254957199096680,-0.090768501162528992,-0.127696141600608826,-0.090557552874088287,-0.202812850475311279,0.151232331991195679,-0.029706800356507301,0.035610757768154144,0.194073423743247986,0.151947647333145142,0.240336075425148010,0.024514162912964821,0.068766325712203979,-0.040472794324159622,-0.054629404097795486,-0.172975838184356689,0.223240554332733154,-0.117074996232986450,-0.145131319761276245,0.164537593722343445,-0.043606810271739960,-0.056719217449426651,0.019861744716763496
-0.235337793827056885,-0.023896897211670876,-0.051614437252283096,-0.002957909367978573,0.107730239629745483,-0.207257881760597229,0.135415077209472656,-0.051524698734283447,-0.165051624178886414,-0.160246059298515320,0.086181119084358215,-0.147031545639038086,0.059597223997116089,-0.154988482594490051,-0.014140461571514606,0.068089842796325684,0.098035857081413269,-0.099969103932380676,-0.119081333279609680,-0.056773737072944641,0.019452594220638275,-0.180254295468330383,-0.060496177524328232,0.310249239206314087,-0.056811396032571793,-0.193722262978553772,-0.151745691895484924,0.151885017752647400,-0.081591069698333740,-0.133912011981010437,-0.018434884026646614,-0.070093929767608643,-0.242386743426322937,0.038776844739913940,0.000330775714246556,-0.089442908763885498,-0.093879893422126770,0.149676814675331116,0.244121164083480835,-0.127454519271850586,0.101070262491703033,0.133259981870651245,0.144491747021675110,0.036575935781002045,-0.086964339017868042,0.170803546905517578,-0.051140688359737396,-0.049631990492343903,0.014139439910650253,0.163698256015777588,0.103547684848308563,0.086759127676486969,-0.301187425851821899,-0.117003463208675385,-0.264872789382934570,0.000270815420662984,0.159433946013450623,-0.098307870328426361,0.065616287291049957,0.191812530159950256,0.124192818999290466,0.133837834000587463,0.151767507195472717,-0.299575716257095337,-0.205573886632919312,-0.029934756457805634,-0.204045489430427551,-0.047470565885305405,-0.147423207759857178,-0.054385479539632797,0.192820861935615540,-0.024565093219280243,-0.042790602892637253,-0.241239994764328003,-0.108493119478225708,-0.071994043886661530,0.153845489025115967,-0.195129409432411194,0.187621504068374634,-0.261548042297363281,-0.156931012868881226,-0.067636430263519287,0.116826549172401428,0.275309771299362183,0.018241595476865768,0.020438037812709808,-0.227718695998191833,-0.089570194482803345,0.065910987555980682,0.067315332591533661
0.036866627633571625,0.017548184841871262,0.265613436698913574,0.239607602357864380,-0.144285187125205994,-0.202477961778640747,-0.184333294630050659,-0.029918719083070755,0.024286210536956787,-0.220832571387290955,-0.106388159096240997,-0.039053596556186676,0.041299037635326385,0.119198277592658997,0.247587546706199646,-0.044706758111715317,-0.119423106312751770,0.052047569304704666,0.060854900628328323,0.043536625802516937,-0.003620699746534228,0.098591879010200500,0.157227307558059692,0.309090346097946167,-0.118632979691028595,0.181073337793350220,0.271225869655609131,0.004343445878475904,-0.151362359523773193,-0.102670185267925262,-0.050261631608009338,0.263419687747955322,-0.215845331549644470,-0.142365470528602600,0.050492584705352783,-0.160467728972434998,0.188120901584625244,0.199186444282531738,0.183060735464096069,-0.270570814609527588,0.008326019160449505,-0.155009761452674866,0.061998561024665833,0.064945802092552185,0.240502297878265381,0.142139703035354614,-0.121751174330711365,0.027429321780800819,-0.012844308279454708,-0.042805261909961700,-0.099814906716346741,0.121381610631942749,0.141031175851821899,-0.094152167439460754,-0.235051229596138000,-0.012295551598072052,0.202876254916191101,-0.332698762416839600,0.145713418722152710,0.161651402711868286,-0.118882730603218079,-0.208299517631530762,0.229287326335906982,0.040132585912942886,-0.016786554828286171,0.266257673501968384,0.014310653321444988,-0.189685270190238953,0.102184578776359558,-0.088611043989658356,-0.101794973015785217,0.133541181683540344,-0.447720438241958618,-0.231149300932884216,0.214865446090698242,-0.261839866638183594,0.271358460187911987,-0.007239344529807568,-0.146986216306686401,0.010579762049019337,0.155866250395774841,-0.111477933824062347,-0.259915202856063843,0.131153360009193420,-0.330992609262466431,0.092057786881923676,0.068795323371887207,-0.024686533957719803,0.350813448429107666,-0.150124639272689819
-0.116558849811553955,-0.026056749746203423,0.050898075103759766,0.011114390566945076,-0.164662957191467285,0.059301272034645081,-0.031623627990484238,-0.199727073311805725,-0.014183798804879189,-0.142014935612678528,-0.092222020030021667,-0.011388425715267658,-0.167542085051536560,0.116307809948921204,-0.041397430002689362,-0.008859621360898018,-0.254980564117431641,0.192233979701995850,-0.012325075455009937,-0.115473210811614990,-0.168500572443008423,0.054619416594505310,-0.086958549916744232,0.157999694347381592,-0.046252146363258362,0.201388478279113770,-0.053673166781663895,0.175253555178642273,0.201582744717597961,-0.094902247190475464,-0.115098446607589722,-0.052497748285531998,-0.076863303780555725,0.053527351468801498,-0.107679754495620728,0.111911796033382416,-0.110936172306537628,-0.035629581660032272,-0.022083410993218422,-0.090442396700382233,0.175078332424163818,-0.109777972102165222,0.148982599377632141,-0.151036173105239868,-0.074114672839641571,0.102576725184917450,0.204837456345558167,0.225239470601081848,-0.112330332398414612,0.109404981136322021,0.026018692180514336,-0.147095307707786560,0.014776313677430153,0.068397179245948792,0.034122817218303680,-0.091433428227901459,-0.015079490840435028,0.027255307883024216,-0.018909012898802757,-0.105152428150177002,0.027296364307403564,-0.113969564437866211,0.087305992841720581,0.252803325653076172,0.057533487677574158,-0.055635347962379456,-0.074308983981609344,0.120064929127693176,0.058160722255706787,-0.047489304095506668,-0.080622337758541107,-0.113808117806911469,-0.189595967531204224,-0.113804757595062256,0.168155282735824585,0.236409679055213928,0.065365508198738098,0.115824453532695770,0.128601193428039551,0.036028832197189331,-0.069049239158630371,0.029231293126940727,-0.163189321756362915,0.062985800206661224,-0.052571877837181091,-0.109053649008274078,-0.009546983055770397,-0.045880384743213654,0.081190079450607300,-0.139711111783981323
0.002607732312753797,-0.057429309934377670,-0.091588959097862244,-0.231617525219917297,0.031201135367155075,0.143533974885940552,0.114218294620513916,-0.249098166823387146,0.005304179154336452,-0.064971290528774261,-0.120212532579898834,0.141598269343376160,0.137279555201530457,0.175749972462654114,0.019336430355906487,-0.141368463635444641,-0.183604985475540161,0.162658452987670898,0.036103531718254089,0.077465243637561798,-0.096762329339981079,-0.110869288444519043,-0.013753760606050491,0.208295866847038269,-0.154817536473274231,-0.052806764841079712,0.013723951764404774,-0.256873697042465210,0.131463199853897095,0.085054963827133179,0.161305978894233704,-0.016209177672863007,-0.093854084610939026,-0.042543873190879822,-0.192426532506942749,-0.158369734883308411,0.064131431281566620,-0.252251148223876953,0.127552628517150879,-0.079791128635406494,0.159284293651580811,-0.208689987659454346,-0.205466479063034058,-0.217778116464614868,-0.018252471461892128,-0.171614691615104675,-0.136091127991676331,-0.082198962569236755,-0.098564721643924713,-0.184857383370399475,0.100467145442962646,-0.015353139489889145,0.023183468729257584,-0.136989071965217590,0.105345778167247772,0.092718772590160370,-0.025235885754227638,-0.121606327593326569,-0.155754566192626953,0.014707845635712147,0.218072846531867981,0.167494133114814758,0.134312748908996582,-0.161085113883018494,-0.156614139676094055,-0.038962148129940033,-0.192518562078475952,0.013463900424540043,0.049490939825773239,0.221231281757354736,0.172475904226303101,-0.062073577195405960,0.150484740734100342,-0.080949418246746063,0.260553687810897827,0.205411925911903381,-0.042169302701950073,0.201516374945640564,-0.156819850206375122,0.069777816534042358,-0.086899764835834503,0.122977323830127716,0.047096472233533859,-0.088343001902103424,0.159350052475929260,0.014203052036464214,-0.089650124311447144,-0.119339972734451294,0.237782552838325500,0.094621099531650543
0.173221096396446228,0.080689392983913422,0.219978883862495422,-0.228123113512992859,0.069506183266639709,-0.189194887876510620,0.195742025971412659,0.184991255402565002,0.060107361525297165,0.007436230778694153,-0.153566136956214905,-0.052011262625455856,-0.112072236835956573,-0.060853295028209686,0.198325395584106445,-0.086605183780193329,-0.111052528023719788,-0.013112889602780342,-0.138695448637008667,0.003316561924293637,-0.042367100715637207,-0.184562638401985168,-0.231033831834793091,-0.075192041695117950,0.035469315946102142,0.147126793861389160,0.065784513950347900,-0.096301831305027008,-0.262140154838562012,-0.138185039162635803,0.180501028895378113,-0.195848226547241211,0.100857578217983246,-0.140459105372428894,0.156090468168258667,0.269291549921035767,-0.138298735022544861,0.099327571690082550,0.071737408638000488,0.151046589016914368,-0.032515358179807663,0.088531680405139923,-0.016014060005545616,0.186839953064918518,-0.095296204090118408,-0.175362363457679749,-0.126988321542739868,0.231014207005500793,0.078580752015113831,-0.018260167911648750,-0.136801987886428833,-0.108276695013046265,-0.168346345424652100,0.155387297272682190,-0.127908989787101746,0.153280422091484070,0.006126319523900747,-0.157389432191848755,-0.021625986322760582,-0.209347307682037354,-0.020189668983221054,-0.024444008246064186,-0.282999932765960693,-0.088104166090488434,0.007148518692702055,-0.191827535629272461,0.194211542606353760,-0.191808402538299561,0.033975023776292801,-0.063013337552547455,-0.110047303140163422,-0.161955103278160095,-0.068303689360618591,-0.015981089323759079,-0.116343356668949127,-0.099387310445308685,-0.147532716393470764,-0.222184091806411743,0.176788136363029480,-0.007844294421374798,0.205139294266700745,0.048894178122282028,-0.229751050472259521,-0.130451783537864685,0.264602690935134888,0.156112223863601685,-0.250470995903015137,0.150999531149864197,-0.031473636627197266,0.202003926038742065
0.099490463733673096,-0.202742576599121094,0.231716513633728027,-0.009837608784437180,0.164374127984046936,-0.093845486640930176,-0.002081362996250391,0.058217596262693405,0.009398248977959156,0.154511481523513794,-0.058435291051864624,0.098715119063854218,0.018161596730351448,-0.146257713437080383,-0.027460714802145958,-0.165626779198646545,-0.092678390443325043,0.172534793615341187,-0.022822238504886627,0.060840453952550888,0.167653024196624756,-0.171694949269294739,0.214352548122406006,-0.108978785574436188,0.007365559693425894,-0.022852748632431030,0.025153856724500656,0.176430091261863708,-0.092437990009784698,0.011283108964562416,-0.052575711160898209,0.123377352952957153,0.038476042449474335,0.103650689125061035,0.132590875029563904,-0.310960382223129272,0.019364284351468086,-0.216462612152099609,0.063488148152828217,-0.088028244674205780,0.070698723196983337,-0.092244505882263184,0.092741467058658600,0.000876097416039556,-0.005958182737231255,0.153211310505867004,-0.037734594196081161,0.069150306284427643,-0.196771129965782166,-0.137060090899467468,0.243606343865394592,0.137553498148918152,-0.340895503759384155,-0.036921843886375427,-0.171050369739532471,-0.116389885544776917,-0.087030045688152313,-0.176761403679847717,-0.184770822525024414,0.075610086321830750,-0.013729995116591454,0.035914670675992966,0.111822254955768585,0.098261557519435883,0.140873223543167114,0.229192957282066345,0.078046113252639771,-0.218287557363510132,0.068131834268569946,0.054018739610910416,-0.029123380780220032,-0.060719683766365051,0.127462506294250488,0.090039893984794617,0.333838522434234619,-0.139610931277275085,0.067572265863418579,-0.236114099621772766,-0.222835808992385864,0.024852890521287918,0.218747645616531372,-0.083494082093238831,0.007642849348485470,-0.247435972094535828,0.002377134049311280,0.110051535069942474,-0.145806103944778442,-0.167178273200988770,-0.048832118511199951,-0.009781077504158020
0.064006090164184570,-0.241496741771697998,-0.104177206754684448,0.057696815580129623,0.154611736536026001,0.284884393215179443,-0.200636580586433411,-0.243147194385528564,-0.169516593217849731,-0.002890371019020677,-0.264893233776092529,0.382879078388214111,-0.316449820995330811,0.036716680973768234,-0.310673981904983521,0.000865984999109060,0.249356240034103394,-0.111741751432418823,0.096914410591125488,-0.300501555204391479,-0.139196485280990601,-0.023916343227028847,-0.179276585578918457,-0.073071695864200592,0.039520435035228729,-0.072554476559162140,0.026294343173503876,0.016033651307225227,-0.156053349375724792,0.220164954662322998,-0.022707428783178329,-0.026294562965631485,0.233699887990951538,0.147247567772865295,-0.193634778261184692,0.193729981780052185,0.025957446545362473,0.164573162794113159,-0.133338436484336853,0.306119114160537720,0.239176228642463684,-0.006718809250742197,-0.213427871465682983,0.021736120805144310,-0.086359009146690369,-0.086007155478000641,-0.230654105544090271,0.244306862354278564,0.116527765989303589,-0.118000447750091553,-0.121295019984245300,-0.065053001046180725,-0.271641552448272705,-0.078025117516517639,0.017076328396797180,-0.000794546213001013,-0.063206322491168976,0.044536553323268890,0.002988804364576936,0.102770745754241943,0.313562542200088501,0.191374853253364563,-0.161100611090660095,0.046043202280998230,-0.082419805228710175,-0.034234743565320969,0.138245791196823120,0.091074183583259583,0.149372965097427368,0.138168260455131531,0.105384796857833862,-0.142822265625000000,-0.137208431959152222,0.242723628878593445,0.028213879093527794,-0.004676556680351496,0.089470140635967255,-0.176778018474578857,0.127405658364295959,-0.090927332639694214,0.010438046418130398,0.154079020023345947,0.209120437502861023,-0.213031455874443054,0.459349960088729858,-0.219909951090812683,-0.128598555922508240,0.136298507452011108,-0.129341199994087219,-0.105730824172496796
0.279614031314849854,0.145215153694152832,0.194269508123397827,-0.072606079280376434,-0.011641974560916424,-0.230938211083412170,0.003701345529407263,0.019588602706789970,0.100221447646617889,0.010073972865939140,0.263103276491165161,-0.177604764699935913,-0.111193522810935974,-0.086043469607830048,0.241038888692855835,-0.010607996024191380,-0.064437471330165863,-0.219257771968841553,-0.060071069747209549,0.072493351995944977,-0.103759907186031342,0.093403995037078857,0.179518774151802063,-0.021783536300063133,-0.005346924532204866,-0.047716300934553146,0.012570329010486603,0.256618916988372803,-0.169997677206993103,0.056328389793634415,0.266234576702117920,-0.090262755751609802,0.070571742951869965,0.030249506235122681,-0.025282895192503929,-0.167644768953323364,0.049228217452764511,0.278761923313140869,0.258859902620315552,0.116788327693939209,-0.084256440401077271,-0.068810887634754181,0.106050439178943634,-0.102065518498420715,-0.113605372607707977,-0.030394904315471649,-0.041800118982791901,0.013033184222877026,0.080623462796211243,0.113358370959758759,0.010219191201031208,0.193546101450920105,0.141313791275024414,0.082333520054817200,-0.177273705601692200,-0.022476995363831520,0.093492880463600159,-0.177230671048164368,-0.093080587685108185,-0.131193384528160095,-0.148911029100418091,-0.062815666198730469,-0.194537535309791565,0.165224730968475342,-0.134957388043403625,0.053368479013442993,0.129120692610740662,0.058890871703624725,0.054251085966825485,0.025288702920079231,0.108542814850807190,-0.070156730711460114,0.077987104654312134,-0.212096065282821655,-0.058351870626211166,-0.175534412264823914,0.213902205228805542,-0.181551024317741394,-0.088719338178634644,-0.132791399955749512,-0.024544499814510345,-0.083273172378540039,-0.111759863793849945,-0.073910705745220184,-0.170531332492828369,-0.095436528325080872,0.104218631982803345,0.231918722391128540,-0.039342932403087616,0.023505760356783867
0.098476059734821320,0.059379290789365768,-0.022332528606057167,-0.200229600071907043,0.209305748343467712,-0.194922670722007751,-0.151117503643035889,0.193516880273818970,-0.023433741182088852,-0.073955416679382324,0.035770721733570099,-0.181128382682800293,0.006517929024994373,-0.083484031260013580,-0.043096810579299927,-0.001849725376814604,0.251736313104629517,0.013905653730034828,0.214475661516189575,-0.254766017198562622,0.274314999580383301,-0.083875820040702820,0.168869376182556152,0.199989929795265198,-0.037797302007675171,-0.072031296789646149,-0.093517251312732697,-0.206254705786705017,-0.208543926477432251,0.015177506022155285,0.189514592289924622,-0.213611111044883728,-0.137238427996635437,0.051167760044336319,0.213068976998329163,0.060456212610006332,-0.177308186888694763,0.150095313787460327,-0.160264104604721069,0.183125630021095276,-0.219891875982284546,0.060450255870819092,-0.184823825955390930,0.109744414687156677,-0.017269155010581017,-0.207351684570312500,-0.038325451314449310,-0.052430342882871628,-0.123452059924602509,0.189851894974708557,-0.133484676480293274,0.178897663950920105,-0.169925436377525330,-0.079201385378837585,-0.081859268248081207,-0.184783607721328735,0.020011218264698982,-0.024933099746704102,-0.180753946304321289,0.075170755386352539,-0.084944002330303192,-0.067873209714889526,-0.109284974634647369,-0.182913109660148621,-0.125529542565345764,-0.045126728713512421,-0.161291331052780151,-0.085765011608600616,0.090241812169551849,-0.088430091738700867,0.196930184960365295,-0.153283700346946716,0.229678988456726074,0.106312729418277740,0.127723306417465210,-0.081751026213169098,-0.225869312882423401,0.121740974485874176,0.121844552457332611,0.051377207040786743,-0.133943229913711548,0.125723481178283691,0.047438740730285645,-0.126140594482421875,-0.182939305901527405,0.151031956076622009,0.014830057509243488,0.187978982925415039,0.095613017678260803,0.014529342763125896
-0.244531989097595215,0.021966727450489998,0.068034030497074127,0.278411477804183960,-0.039062310010194778,-0.153782084584236145,0.199245974421501160,-0.147490397095680237,0.169746711850166321,-0.109013281762599945,0.037318602204322815,-0.235337555408477783,-0.202010750770568848,-0.134634643793106079,-0.014906776137650013,-0.150364652276039124,0.051401987671852112,0.167915701866149902,-0.156896635890007019,0.033355277031660080,-0.087817102670669556,0.227306365966796875,0.183704644441604614,-0.179639011621475220,-0.092124886810779572,-0.061463456600904465,0.083898283541202545,0.033609803766012192,0.086080402135848999,-0.093524955213069916,-0.004061902407556772,-0.032622877508401871,0.281747728586196899,-0.148417279124259949,0.005889953579753637,-0.006416009273380041,-0.000392584130167961,0.064004547894001007,-0.203658044338226318,0.193106681108474731,-0.236923709511756897,0.071200549602508545,-0.102319113910198212,-0.035427786409854889,0.191167443990707397,0.109843194484710693,0.350067824125289917,0.288194358348846436,0.226307302713394165,0.061082269996404648,-0.091591268777847290,0.086170487105846405,0.079325452446937561,0.080607809126377106,0.149112850427627563,0.010543221607804298,-0.002119665732607245,0.234910547733306885,-0.098742447793483734,0.182201817631721497,0.059458956122398376,-0.247119888663291931,0.200001254677772522,-0.171491429209709167,0.224577888846397400,0.016365997493267059,0.071629717946052551,0.305227577686309814,-0.080930516123771667,-0.151847839355468750,0.020677419379353523,0.069573864340782166,-0.132749050855636597,0.086002282798290253,-0.222079366445541382,0.118293680250644684,-0.058442059904336929,0.262643218040466309,-0.179453805088996887,-0.267126530408859253,-0.280234068632125854,-0.048085719347000122,0.236063033342361450,0.026155084371566772,-0.135422870516777039,-0.223678246140480042,0.154746606945991516,0.178876265883445740,-0.310707598924636841,-0.151926591992378235
-0.172239005565643311,-0.139480993151664734,-0.081665597856044769,0.127591550350189209,-0.100830718874931335,-0.109450809657573700,0.000395596143789589,-0.122816383838653564,-0.104439787566661835,0.137994199991226196,-0.138704612851142883,0.109194263815879822,0.061211641877889633,-0.133726790547370911,-0.297881990671157837,0.100477069616317749,0.230642452836036682,-0.175812929868698120,0.031995303928852081,-0.099626637995243073,0.111215315759181976,0.246193081140518188,-0.191762343049049377,-0.000102491510915570,0.174332141876220703,-0.163031101226806641,0.009982231073081493,-0.148789852857589722,0.094150565564632416,0.175440877676010132,-0.003042137250304222,0.189584076404571533,0.145614847540855408,-0.044506717473268509,-0.002884068991988897,-0.181180819869041443,0.159681811928749084,-0.065103143453598022,0.104723237454891205,0.097001411020755768,0.067095428705215454,-0.056156639009714127,-0.090043716132640839,0.013208223506808281,0.046772029250860214,-0.032535970211029053,-0.052064053714275360,-0.183757796883583069,-0.208510339260101318,-0.175073042511940002,0.191412687301635742,0.004381830804049969,-0.146528750658035278,-0.099857971072196960,-0.207255497574806213,0.101486712694168091,0.020220128819346428,-0.060660671442747116,-0.101807378232479095,-0.037119105458259583,0.224035218358039856,0.186714380979537964,0.115479670464992523,-0.126218125224113464,-0.092768117785453796,-0.116216294467449188,0.154714956879615784,-0.056239817291498184,-0.029808212071657181,0.211502000689506531,-0.166644752025604248,0.021301712840795517,0.010745445266366005,0.190565124154090881,0.168622881174087524,-0.113848224282264709,0.141541674733161926,-0.073527596890926361,0.118644617497920990,-0.053352307528257370,-0.156019464135169983,0.059135977178812027,0.083209633827209473,0.134283125400543213,-0.121618680655956268,0.000057739896874409,0.047102067619562149,-0.047080282121896744,-0.125510305166244507,-0.054262042045593262
-0.050781913101673126,-0.226873025298118591,0.130080401897430420,-0.083012126386165619,-0.047476869076490402,-0.054782129824161530,-0.153865963220596313,-0.163617104291915894,-0.120091654360294342,-0.253612637519836426,-0.109370924532413483,0.200096011161804199,-0.349277883768081665,0.054647959768772125,-0.083524227142333984,-0.072115123271942139,-0.001600422663614154,-0.009668757207691669,0.021086476743221283,0.109111577272415161,0.223431482911109924,0.080626644194126129,0.030728215351700783,0.099775806069374084,-0.062165930867195129,0.170298680663108826,0.147299349308013916,0.074827797710895538,0.240424603223800659,-0.030511479824781418,-0.194743469357490540,0.053858675062656403,0.160135209560394287,-0.031700447201728821,0.049580860882997513,0.061733622103929520,0.196932494640350342,-0.372518301010131836,0.173702284693717957,0.218905925750732422,0.091534823179244995,0.063791081309318542,-0.183923900127410889,0.035999450832605362,0.030150515958666801,-0.040400162339210510,-0.135458767414093018,-0.119915805757045746,-0.050802808254957199,0.005881944671273232,0.248711302876472473,0.174893274903297424,-0.251224845647811890,-0.004436028189957142,0.000763361807912588,0.156582891941070557,0.020974539220333099,0.160225003957748413,0.125647991895675659,0.149850025773048401,0.137065306305885315,0.121665351092815399,-0.179843887686729431,0.189791202545166016,0.228148505091667175,0.157431840896606445,0.104682184755802155,0.036224916577339172,0.283625036478042603,0.026123462244868279,-0.055888250470161438,0.178995743393898010,0.018488958477973938,0.344447761774063110,0.273733049631118774,0.020822152495384216,0.153309687972068787,-0.061615116894245148,0.198015809059143066,0.139529228210449219,-0.126240283250808716,0.091768994927406311,0.055494774132966995,0.028259091079235077,0.357336223125457764,0.053373426198959351,0.151930600404739380,0.062469925731420517,-0.226882502436637878,-0.116649888455867767
0.082421861588954926,0.021433845162391663,0.018795503303408623,-0.015795094892382622,0.207020387053489685,0.133040651679039001,0.092482648789882660,-0.056959249079227448,0.004461539443582296,0.182049319148063660,0.177812516689300537,-0.114357374608516693,0.136472299695014954,0.047622296959161758,0.183562532067298889,0.003885754384100437,0.175001651048660278,-0.204174488782882690,-0.036740031093358994,-0.139412567019462585,-0.266282886266708374,-0.035378877073526382,-0.128910884261131287,-0.177043929696083069,0.091939426958560944,-0.033572457730770111,0.193255141377449036,-0.147165715694427490,0.021679952740669250,-0.068232282996177673,-0.198443844914436340,-0.299898535013198853,-0.178702145814895630,0.109643153846263885,0.036607325077056885,0.109268479049205780,-0.070549257099628448,0.148691996932029724,-0.269012838602066040,0.203239530324935913,0.222517460584640503,-0.144262790679931641,0.015604624524712563,-0.030140018090605736,-0.075635321438312531,-0.140235215425491333,-0.078262209892272949,0.005485908593982458,-0.067954905331134796,-0.118227854371070862,-0.002469019498676062,-0.005072485189884901,-0.031568907201290131,-0.101836718618869781,0.143299072980880737,0.166082963347434998,0.194819867610931396,0.096301458775997162,0.177330210804939270,-0.148947879672050476,0.195801615715026855,-0.100386604666709900,-0.069132253527641296,0.211585998535156250,-0.006488885264843702,0.074810959398746490,0.159613892436027527,-0.021082328632473946,-0.269130021333694458,0.165749579668045044,-0.069689691066741943,-0.157996177673339844,0.143465116620063782,0.213806733489036560,-0.198617115616798401,0.104686737060546875,-0.289409190416336060,-0.040420580655336380,0.062403932213783264,-0.196852311491966248,-0.149001196026802063,-0.239579766988754272,-0.258593171834945679,-0.007754430174827576,0.102809175848960876,0.107624299824237823,0.063770927488803864,0.016876624897122383,-0.063220232725143433,-0.099513441324234009
-0.107142537832260132,-0.000012914359103888,-0.148873955011367798,0.295642614364624023,-0.093600057065486908,0.052211374044418335,-0.014134713448584080,0.022165177389979362,0.000351947906892747,-0.128479510545730591,-0.250128269195556641,0.075428649783134460,0.142739847302436829,-0.146507441997528076,-0.179341763257980347,-0.068893425166606903,0.119156941771507263,0.216670066118240356,-0.164169386029243469,-0.129472702741622925,-0.355426907539367676,-0.129206568002700806,0.019777368754148483,0.041385415941476822,0.226086184382438660,0.118479631841182709,-0.111415602266788483,0.249309360980987549,0.152105748653411865,-0.251558750867843628,-0.275871664285659790,0.001404444104991853,0.152999982237815857,-0.094731613993644714,-0.258114188909530640,-0.057586528360843658,-0.248943775892257690,0.027456438168883324,-0.275958746671676636,0.019281074404716492,0.263708770275115967,0.193618610501289368,-0.056128367781639099,-0.022382987663149834,-0.218569457530975342,-0.030148793011903763,0.049068596214056015,0.034943394362926483,-0.079316653311252594,0.254027277231216431,-0.151689395308494568,-0.037767857313156128,0.073329389095306396,0.158574029803276062,0.108015201985836029,0.068257980048656464,-0.170714765787124634,0.043611675500869751,-0.060464836657047272,-0.087676770985126495,0.221264928579330444,-0.033518217504024506,0.157465294003486633,0.105239830911159515,0.080844774842262268,-0.098231710493564606,0.104286767542362213,-0.011030313558876514,-0.109160900115966797,-0.155473768711090088,-0.277077257633209229,-0.156850337982177734,-0.167044252157211304,-0.077529095113277435,-0.204241216182708740,-0.196765914559364319,-0.104623936116695404,-0.054723683744668961,0.184800714254379272,-0.170199424028396606,0.187077343463897705,0.246201440691947937,-0.118703186511993408,0.110376030206680298,0.143401488661766052,0.011446864344179630,-0.181206077337265015,-0.135072678327560425,-0.259531855583190918,0.242171078920364380
-0.046836297959089279,0.028771741315722466,0.065411925315856934,-0.052877683192491531,-0.049644581973552704,-0.057700160890817642,0.223555743694305420,-0.096527740359306335,-0.136326834559440613,-0.050601594150066376,-0.029894100502133369,-0.121173463761806488,-0.158846974372863770,-0.027026504278182983,0.043497852981090546,0.008064143359661102,0.111698396503925323,0.132051497697830200,-0.023692244663834572,0.029453460127115250,0.093288250267505646,0.103830322623252869,-0.151800766587257385,0.102974958717823029,-0.021567406132817268,0.097960695624351501,-0.017473435029387474,0.036821819841861725,-0.020589048042893410,-0.172756999731063843,0.147067159414291382,-0.229368209838867188,-0.134025350213050842,-0.043191846460103989,0.052235335111618042,-0.086504332721233368,-0.208538070321083069,-0.154333457350730896,0.103221908211708069,-0.053152874112129211,0.159971356391906738,-0.211938396096229553,-0.019659234210848808,0.090631403028964996,-0.088424652814865112,-0.124272234737873077,-0.129575178027153015,0.200683712959289551,-0.127087607979774475,-0.210868895053863525,0.031270861625671387,-0.217041313648223877,0.142843216657638550,0.155042439699172974,-0.076909601688385010,0.042156081646680832,0.041873134672641754,0.155259549617767334,-0.140166208148002625,0.069695644080638885,-0.065679095685482025,0.186604186892509460,-0.173309430480003357,0.042497392743825912,0.068812750279903412,-0.057984650135040283,0.049884457141160965,-0.172554865479469299,0.031533271074295044,-0.106765076518058777,0.091817416250705719,0.004791625775396824,-0.077573582530021667,0.091132439672946930,0.268825203180313110,0.126458629965782166,-0.029967889189720154,-0.152705267071723938,0.004498782102018595,-0.172120377421379089,-0.166864544153213501,0.120595216751098633,-0.121807143092155457,0.167913913726806641,0.196251749992370605,0.138708859682083130,-0.165046513080596924,-0.032732557505369186,0.154595106840133667,0.172606185078620911
-0.054764937609434128,-0.124393083155155182,0.166139528155326843,-0.125590667128562927,0.175426974892616272,0.183658957481384277,0.181028723716735840,-0.104938827455043793,0.297412097454071045,-0.156688258051872253,0.020592609420418739,-0.109115548431873322,0.101688928902149200,0.008202649652957916,0.155065163969993591,0.133613750338554382,0.167210385203361511,0.057212635874748230,0.049194853752851486,0.216518327593803406,-0.045680161565542221,0.204861849546432495,-0.095736779272556305,0.075918473303318024,-0.160549819469451904,0.023438611999154091,0.126405894756317139,0.001539704389870167,0.066070698201656342,-0.001902518095448613,-0.149143368005752563,0.082239829003810883,-0.001862546429038048,-0.014172139577567577,0.097707830369472504,-0.008774491026997566,-0.175323516130447388,-0.117929279804229736,-0.180383428931236267,-0.068982183933258057,-0.116016387939453125,-0.072866074740886688,0.132371559739112854,0.098285607993602753,0.107870534062385559,-0.222820520401000977,0.070556640625000000,-0.150942176580429077,0.169638559222221375,0.045417856425046921,-0.117450572550296783,-0.129528209567070007,-0.031619876623153687,-0.011444922536611557,-0.002954579191282392,-0.057860027998685837,0.067593052983283997,-0.079143866896629333,-0.035704769194126129,-0.071278080344200134,-0.068172976374626160,-0.310939103364944458,0.142430618405342102,0.050145573914051056,0.100222535431385040,0.177743658423423767,0.026943685486912727,-0.183283478021621704,0.113012105226516724,0.027441071346402168,-0.123259492218494415,0.060690104961395264,0.114630520343780518,0.124312691390514374,-0.023455971851944923,-0.072650656104087830,0.170888304710388184,-0.126112401485443115,0.177401363849639893,0.102753460407257080,0.133526578545570374,-0.167358383536338806,-0.078482605516910553,0.227058038115501404,-0.140356585383415222,0.133541777729988098,0.112000517547130585,0.206939637660980225,-0.116708301007747650,0.142571747303009033
0.044418502599000931,0.114547364413738251,0.323048681020736694,-0.013198681175708771,0.098441362380981445,0.219334691762924194,0.079608447849750519,0.182571604847908020,-0.109680831432342529,0.259440392255783081,0.088660247623920441,0.162887796759605408,0.057626806199550629,-0.087342284619808197,0.153630897402763367,0.144686460494995117,0.078605704009532928,0.070761509239673615,-0.126843795180320740,-0.200675770640373230,0.140086457133293152,-0.091202467679977417,-0.119240500032901764,-0.185503602027893066,0.176161766052246094,0.152574151754379272,0.069064900279045105,-0.062618009746074677,-0.321759432554244995,0.242114141583442688,0.129045844078063965,0.107795536518096924,-0.069063827395439148,0.099008910357952118,0.065115153789520264,-0.156704559922218323,-0.206134438514709473,-0.039064001291990280,-0.216186493635177612,0.075376749038696289,-0.040821433067321777,0.042112331837415695,0.178464785218238831,0.115481995046138763,0.041857346892356873,0.207133635878562927,-0.058186445385217667,0.309823065996170044,0.195340186357498169,0.147024482488632202,-0.044389918446540833,0.057617597281932831,-0.045655198395252228,0.202722534537315369,-0.350203156471252441,0.055901531130075455,-0.266172587871551514,-0.204071372747421265,0.019266635179519653,0.148338794708251953,-0.267759948968887329,0.214921772480010986,0.017110381275415421,0.252741813659667969,-0.055899932980537415,0.195349335670471191,0.160253524780273438,0.120786450803279877,-0.075914815068244934,-0.154359757900238037,-0.160384759306907654,0.149229854345321655,0.097255133092403412,0.148650124669075012,0.131023526191711426,0.044242300093173981,-0.182190060615539551,-0.237541064620018005,-0.243230581283569336,-0.091031618416309357,0.062201432883739471,-0.131309613585472107,0.133611559867858887,0.035879399627447128,0.165505871176719666,-0.115381106734275818,-0.152147471904754639,0.018727418035268784,-0.249987840652465820,-0.065622471272945404
-0.151536315679550171,-0.028848895803093910,0.126491025090217590,0.074913918972015381,-0.074577137827873230,0.080653622746467590,-0.154879689216613770,-0.060323964804410934,0.105755828320980072,-0.211294963955879211,0.252754032611846924,-0.043897703289985657,-0.075638234615325928,-0.089325986802577972,-0.052928663790225983,0.127869680523872375,0.090308189392089844,0.120821133255958557,-0.136660024523735046,-0.015462986193597317,0.194420754909515381,0.141549259424209595,0.016225568950176239,-0.163181886076927185,-0.014661588706076145,-0.200271785259246826,-0.096249006688594818,0.174095734953880310,-0.073178179562091827,0.221618995070457458,0.057602088898420334,-0.204100877046585083,0.132931694388389587,-0.009708456695079803,0.186043292284011841,-0.081244796514511108,-0.167195469141006470,0.237422406673431396,-0.209115937352180481,0.386200100183486938,-0.178058415651321411,-0.141975760459899902,0.079623028635978699,0.029034817591309547,-0.087732724845409393,0.167665511369705200,0.092264585196971893,-0.180727720260620117,0.209747448563575745,-0.112131267786026001,-0.239469349384307861,0.195062652230262756,0.116005577147006989,0.073279194533824921,0.143213927745819092,0.148666217923164368,-0.117382638156414032,0.161770254373550415,0.176678285002708435,0.202401325106620789,-0.250824004411697388,0.120801791548728943,0.069680802524089813,-0.044563509523868561,0.076822951436042786,-0.097780264914035797,0.046038851141929626,-0.212227642536163330,0.066032379865646362,-0.102825000882148743,-0.219085454940795898,0.195027112960815430,-0.152573779225349426,0.115839555859565735,-0.082938164472579956,0.014144463464617729,-0.245400726795196533,0.010075411759316921,-0.006124862469732761,0.140642434358596802,0.146172508597373962,-0.023042937740683556,0.027002539485692978,0.251209408044815063,0.053538933396339417,-0.194006383419036865,0.019759843125939369,-0.093798317015171051,-0.074818469583988190,-0.143505051732063293
0.008356256410479546,-0.012869126163423061,-0.096093773841857910,0.365964591503143311,0.126797199249267578,0.331962436437606812,-0.033143021166324615,-0.050698284059762955,0.280276179313659668,-0.412145555019378662,0.124009475111961365,-0.164816573262214661,0.259814471006393433,0.214657306671142578,-0.028882108628749847,0.005802851170301437,-0.150133594870567322,0.146664962172508240,0.177936434745788574,-0.128691539168357849,0.068133018910884857,0.177119016647338867,0.117382973432540894,0.343907415866851807,0.341108977794647217,-0.137541413307189941,-0.013050524517893791,0.184309855103492737,0.091927602887153625,0.058726493269205093,-0.128374978899955750,0.019962102174758911,0.290923178195953369,-0.019948124885559082,0.136426016688346863,-0.235617071390151978,0.157243981957435608,0.133650153875350952,0.042352616786956787,-0.135596349835395813,0.045108750462532043,0.165920764207839966,0.136925429105758667,-0.229992285370826721,0.118541821837425232,0.134504258632659912,0.050014525651931763,0.201492205262184143,-0.158807307481765747,0.111388936638832092,-0.143785163760185242,-0.040236063301563263,0.071089468896389008,0.260752022266387939,-0.046318721026182175,-0.285853207111358643,-0.014025466516613960,0.147545203566551208,0.120152346789836884,0.107842504978179932,-0.325875401496887207,-0.182365700602531433,0.011157473549246788,0.061344556510448456,-0.066429316997528076,0.018337920308113098,0.047206670045852661,-0.255292057991027832,0.174162983894348145,-0.225933298468589783,0.064411573112010956,-0.050002764910459518,-0.248992308974266052,-0.278218090534210205,-0.091007143259048462,-0.086749307811260223,0.129259318113327026,0.287142753601074219,0.243662282824516296,-0.127394884824752808,0.080613188445568085,-0.161399543285369873,-0.218720301985740662,-0.190139293670654297,-0.225741162896156311,-0.067395739257335663,0.186195492744445801,0.035027917474508286,0.229532301425933838,-0.105720251798629761
-0.124780088663101196,0.142795100808143616,-0.188751921057701111,-0.191556215286254883,-0.019540872424840927,0.223577797412872314,-0.030482543632388115,0.237421602010726929,0.221123233437538147,0.095471166074275970,0.189991742372512817,0.019946629181504250,0.135568633675575256,-0.125243023037910461,-0.205937221646308899,-0.040836531668901443,0.172124519944190979,-0.131139367818832397,-0.128457516431808472,-0.081709995865821838,0.179441198706626892,0.023655720055103302,0.128506943583488464,0.025110477581620216,0.092445455491542816,-0.113140188157558441,0.085057310760021210,-0.012928760610520840,-0.057617910206317902,0.230736047029495239,0.044107064604759216,0.020093414932489395,-0.157914176583290100,0.085016429424285889,-0.148657947778701782,0.164790213108062744,0.122465103864669800,-0.026767501607537270,0.108550846576690674,0.168180957436561584,-0.149796918034553528,0.080151870846748352,0.071295246481895447,0.204460814595222473,0.062739208340644836,0.050636708736419678,-0.145545631647109985,0.160911187529563904,0.196765542030334473,-0.138730138540267944,0.203378304839134216,0.068013846874237061,0.079829022288322449,-0.208427011966705322,-0.155636712908744812,0.031928844749927521,0.118233077228069305,0.144007325172424316,-0.021394101902842522,-0.001396629726514220,0.060435172170400620,0.016666116192936897,0.150349900126457214,0.072662822902202606,0.192347586154937744,-0.064773283898830414,-0.104240283370018005,-0.068740427494049072,0.122170910239219666,-0.112885944545269012,-0.123234227299690247,0.084981769323348999,0.197136953473091125,-0.200658023357391357,-0.088640451431274414,0.268693774938583374,-0.200992852449417114,-0.155266553163528442,-0.093795679509639740,-0.171960622072219849,0.005362555384635925,-0.239722967147827148,0.186048522591590881,-0.186846792697906494,-0.062198247760534286,0.025235293433070183,-0.068068318068981171,0.197298809885978699,-0.056233149021863937,-0.132161185145378113
-0.015865987166762352,0.135164171457290649,-0.096766501665115356,0.243488371372222900,-0.068441756069660187,0.338058918714523315,-0.102917991578578949,0.141429066658020020,0.131919294595718384,0.126564294099807739,-0.312963217496871948,-0.088296264410018921,0.114904068410396576,0.039897248148918152,0.149731010198593140,-0.072712533175945282,0.149804159998893738,0.029014162719249725,-0.139106199145317078,-0.128487259149551392,0.242343798279762268,-0.167588755488395691,-0.019812101498246193,0.078237421810626984,0.086887530982494354,0.069367125630378723,0.265118151903152466,-0.068547002971172333,0.153500020503997803,0.002180869923904538,-0.233215883374214172,0.218428045511245728,-0.045415382832288742,-0.131613299250602722,-0.232273474335670471,-0.159524425864219666,-0.036963604390621185,0.038568191230297089,0.150970041751861572,-0.004769596736878157,-0.155536532402038574,-0.203226760029792786,0.070258244872093201,-0.190635129809379578,0.119356773793697357,0.135377883911132812,0.076353393495082855,0.156304031610488892,-0.038739670068025589,0.024288149550557137,-0.109792418777942657,-0.118046440184116364,-0.006826621945947409,0.336955994367599487,0.039835024625062943,-0.030766397714614868,0.360309720039367676,-0.143568530678749084,0.133982762694358826,0.325396567583084106,-0.227789267897605896,0.062781192362308502,0.133450448513031006,0.182676449418067932,0.175222173333168030,0.195230126380920410,0.025588799268007278,0.092691235244274139,-0.050868719816207886,0.063569255173206329,-0.137610614299774170,-0.106471605598926544,0.094751425087451935,0.105100207030773163,-0.119460031390190125,-0.161423891782760620,0.257274657487869263,-0.079785592854022980,0.161239027976989746,0.174138724803924561,0.085149794816970825,0.096062026917934418,-0.195760563015937805,-0.249052196741104126,-0.153536841273307800,0.145308583974838257,0.182364717125892639,-0.124294117093086243,-0.053417149931192398,-0.025332482531666756
-0.030769102275371552,-0.077397361397743225,-0.013003395870327950,0.022196194157004356,-0.145573273301124573,-0.031611774116754532,-0.192213296890258789,-0.149315431714057922,-0.119334071874618530,-0.076667122542858124,0.060663208365440369,0.174635052680969238,0.045147217810153961,0.090619921684265137,-0.097813524305820465,-0.165549024939537048,-0.190723612904548645,-0.095472358167171478,-0.145438671112060547,-0.047697633504867554,0.123529225587844849,-0.032935608178377151,-0.121975317597389221,-0.118892394006252289,0.015521303750574589,0.302884191274642944,-0.049854017794132233,-0.006286751013249159,0.115591309964656830,0.188395336270332336,-0.082439035177230835,-0.015386732295155525,0.076978534460067749,-0.008276812732219696,-0.044880364090204239,0.002611261093989015,0.181044414639472961,-0.170519813895225525,0.150630235671997070,0.067272260785102844,0.115090698003768921,0.115918904542922974,-0.032457519322633743,-0.215314745903015137,0.030723847448825836,-0.036984190344810486,0.113518305122852325,-0.147535696625709534,-0.323268622159957886,-0.134196951985359192,-0.037563297897577286,0.064147502183914185,0.064947962760925293,-0.203715458512306213,0.033066365867853165,-0.255170822143554688,-0.064490146934986115,-0.244916245341300964,-0.176522731781005859,-0.126636698842048645,-0.021507443860173225,0.061763361096382141,0.136833593249320984,0.316871434450149536,0.057883258908987045,-0.093381240963935852,-0.027611628174781799,0.204557105898857117,-0.096879027783870697,0.326051056385040283,0.149263396859169006,0.066560663282871246,0.262109696865081787,0.194492474198341370,0.287958323955535889,0.234286770224571228,0.169254839420318604,-0.050760619342327118,-0.299320012331008911,0.163115501403808594,-0.109759978950023651,-0.036013536155223846,0.162333726882934570,0.029509186744689941,-0.267622917890548706,-0.059098090976476669,-0.027890959754586220,-0.099871844053268433,0.038981009274721146,0.147029250860214233
-0.252048611640930176,0.120085820555686951,-0.101637788116931915,0.224704816937446594,-0.187757223844528198,-0.010501583106815815,-0.105051465332508087,-0.055727481842041016,-0.141847729682922363,0.059124581515789032,0.097157873213291168,0.121697686612606049,-0.132124379277229309,0.056839086115360260,-0.067379280924797058,0.016511075198650360,0.109327793121337891,0.165966123342514038,0.040803574025630951,-0.000103624784969725,0.152395978569984436,-0.019312018528580666,-0.144298240542411804,-0.112370498478412628,0.225686281919479370,-0.162260726094245911,-0.012813220731914043,-0.087644360959529877,-0.080940738320350647,0.218550041317939758,-0.181042835116386414,0.011813499964773655,0.156454622745513916,-0.199514225125312805,0.175585731863975525,0.070257700979709625,-0.085317566990852356,0.133241593837738037,0.081248939037322998,0.008474273607134819,0.123419553041458130,0.072430402040481567,0.083237551152706146,0.084964029490947723,-0.075469031929969788,0.202775254845619202,0.032913450151681900,0.018674073740839958,0.004683898761868477,0.178829953074455261,-0.088789597153663635,0.212765440344810486,-0.098450459539890289,0.153608486056327820,0.036443945020437241,-0.213688030838966370,-0.065409734845161438,-0.040775883942842484,0.092868000268936157,0.078654021024703979,-0.074145451188087463,0.066811740398406982,-0.011711507104337215,-0.017504302784800529,0.023946348577737808,-0.058833364397287369,0.269274681806564331,-0.084276251494884491,-0.140566661953926086,0.070362158119678497,0.029372552409768105,-0.113374166190624237,0.009991674683988094,-0.041727956384420395,-0.216666877269744873,0.037484172731637955,-0.054599080234766006,-0.019864853471517563,-0.185835987329483032,-0.208672598004341125,-0.112352833151817322,0.008449648506939411,0.130041897296905518,0.012116146273910999,0.141862541437149048,0.006709846667945385,-0.138507440686225891,0.106954559683799744,-0.104070708155632019,0.162111997604370117
-0.072718657553195953,-0.171077787876129150,-0.120550386607646942,0.114120915532112122,-0.078122504055500031,-0.078815557062625885,0.180346131324768066,0.023492842912673950,0.094410046935081482,0.173368439078330994,0.129202798008918762,0.313985198736190796,-0.152814388275146484,0.252828419208526611,0.216360047459602356,0.097562350332736969,-0.197684004902839661,0.243625655770301819,-0.114436350762844086,0.101872444152832031,-0.097405336797237396,-0.157967492938041687,0.134700864553451538,0.046090614050626755,0.134398221969604492,0.121984772384166718,0.160027593374252319,0.095075316727161407,0.054107408970594406,-0.095174163579940796,-0.300372660160064697,0.340722501277923584,0.101633079349994659,-0.024790158495306969,-0.246386840939521790,-0.075121663510799408,-0.133313059806823730,-0.046643204987049103,0.174154773354530334,-0.016867252066731453,0.143336787819862366,-0.213901594281196594,-0.135852247476577759,0.187465190887451172,-0.098829142749309540,0.133407294750213623,0.093021266162395477,0.071529932320117950,-0.080222211778163910,-0.049957182258367538,-0.266642391681671143,-0.350800931453704834,-0.077481985092163086,-0.140890717506408691,0.265386819839477539,-0.085755966603755951,0.171669274568557739,0.259963214397430420,-0.190878644585609436,-0.012271937914192677,-0.271215468645095825,0.115173794329166412,0.126273244619369507,0.362940788269042969,-0.045356120914220810,0.201584070920944214,0.050334110856056213,-0.024246491491794586,0.151462897658348083,0.120494842529296875,0.142957866191864014,-0.208042666316032410,-0.070717498660087585,-0.085057482123374939,-0.256582587957382202,0.083753801882266998,0.198361888527870178,-0.199860841035842896,0.044326826930046082,0.107112847268581390,-0.069661118090152740,-0.065862767398357391,-0.060355208814144135,-0.253641366958618164,-0.038935385644435883,0.234752967953681946,-0.129675716161727905,-0.238728761672973633,-0.098247192800045013,0.082274489104747772
-0.124508306384086609,0.110546819865703583,-0.178966179490089417,-0.178773283958435059,-0.136048927903175354,-0.047953702509403229,-0.137029662728309631,0.118980109691619873,-0.201332822442054749,0.153996169567108154,-0.268408864736557007,0.231934145092964172,-0.202280879020690918,0.070044606924057007,-0.125163331627845764,-0.024420864880084991,0.240593478083610535,0.028193764388561249,-0.176892429590225220,-0.024731820449233055,-0.070226334035396576,-0.015151251107454300,-0.092631608247756958,0.229694813489913940,0.040254034101963043,0.024237316101789474,-0.134250357747077942,0.309013515710830688,0.160630315542221069,0.094827711582183838,0.021102625876665115,0.021425174549221992,-0.003685904899612069,0.089275926351547241,-0.027838828042149544,-0.202070981264114380,-0.104427292943000793,0.072216860949993134,0.014952722936868668,-0.170018270611763000,0.149696692824363708,0.024792930111289024,-0.092252910137176514,-0.365473061800003052,-0.170568495988845825,0.193556606769561768,0.031063439324498177,-0.130125775933265686,-0.211820602416992188,0.018131237477064133,-0.203409403562545776,0.235150098800659180,-0.011343138292431831,0.178646788001060486,-0.186652347445487976,-0.229650720953941345,0.073873586952686310,-0.054910458624362946,-0.154381692409515381,0.118299245834350586,0.091478921473026276,0.237437650561332703,-0.124444119632244110,0.095896430313587189,0.072297260165214539,0.103133201599121094,-0.029874529689550400,0.150222107768058777,0.218171223998069763,-0.008116278797388077,-0.133286669850349426,0.019293401390314102,-0.094727493822574615,0.095936290919780731,0.201975524425506592,-0.308071732521057129,0.245427951216697693,0.120080940425395966,0.139308422803878784,-0.028114723041653633,-0.235062658786773682,0.114232733845710754,0.085727646946907043,-0.267122745513916016,0.063425444066524506,0.048167292028665543,0.123989969491958618,-0.188647210597991943,0.140744403004646301,0.061829611659049988
0.134177163243293762,0.141389384865760803,0.019821079447865486,0.030137745663523674,-0.009446369484066963,-0.250722736120223999,0.182601988315582275,0.128884091973304749,-0.062144070863723755,0.074999518692493439,-0.141650617122650146,-0.206310763955116272,-0.045842990279197693,0.238407343626022339,0.171964913606643677,0.040733262896537781,0.016084922477602959,0.229558765888214111,-0.047184795141220093,0.255505710840225220,0.098680369555950165,-0.052833531051874161,-0.138449624180793762,-0.088601373136043549,0.057592220604419708,0.195662483572959900,-0.070689342916011810,0.076671674847602844,0.043655075132846832,-0.231322512030601501,-0.058042239397764206,-0.060456164181232452,-0.203877985477447510,-0.162763938307762146,0.152001693844795227,-0.128101721405982971,0.187644407153129578,0.090774893760681152,-0.147551253437995911,0.146576255559921265,-0.196770548820495605,0.039786960929632187,-0.043809078633785248,0.233122274279594421,-0.180013567209243774,0.021225955337285995,0.210553333163261414,-0.153123885393142700,-0.220829889178276062,-0.077492415904998779,0.145709708333015442,-0.007483320776373148,-0.210859507322311401,-0.122374087572097778,0.273100227117538452,0.205708771944046021,0.152383476495742798,-0.031154757365584373,0.184663429856300354,0.044541515409946442,-0.114388115704059601,-0.130296230316162109,0.040028143674135208,0.205539330840110779,0.187528997659683228,-0.122491404414176941,-0.112597823143005371,-0.024042131379246712,0.026146629825234413,-0.097755275666713715,0.168240591883659363,-0.074940517544746399,0.043361958116292953,0.028790678828954697,-0.011656632646918297,-0.092029072344303131,-0.057802457362413406,0.226567864418029785,-0.002493955893442035,0.202269390225410461,0.248234808444976807,-0.114402294158935547,0.102034606039524078,0.146691247820854187,0.167227029800415039,-0.145180240273475647,-0.083281338214874268,-0.097811795771121979,0.202480584383010864,-0.136756911873817444
0.116349436342716217,0.002045346191152930,-0.081767916679382324,-0.065282583236694336,-0.136101335287094116,-0.230011463165283203,0.156998693943023682,0.199613973498344421,-0.008540030568838120,0.146010980010032654,0.084067374467849731,-0.115745268762111664,0.072577297687530518,0.156591892242431641,0.225447446107864380,-0.029443694278597832,0.007625713944435120,-0.228647485375404358,0.100047297775745392,-0.011129599064588547,-0.216010183095932007,0.107217445969581604,0.096686512231826782,0.028693782165646553,-0.235104128718376160,0.096024587750434875,-0.102831862866878510,-0.044284649193286896,0.067979484796524048,0.102090738713741302,0.344847112894058228,0.088538184762001038,-0.083433538675308228,-0.159567192196846008,0.181775629520416260,0.164781823754310608,-0.060759406536817551,0.092798970639705658,0.164713934063911438,-0.204737797379493713,0.236969649791717529,0.081949710845947266,-0.135742023587226868,-0.190503865480422974,-0.066717237234115601,-0.159566625952720642,0.015550063923001289,0.001906387740746140,-0.070370070636272430,-0.159597277641296387,-0.198349893093109131,0.190827533602714539,0.169822365045547485,0.039135195314884186,0.141265094280242920,0.243975326418876648,0.146078661084175110,-0.247738853096961975,0.116137854754924774,-0.248024627566337585,-0.217451423406600952,-0.287775129079818726,0.054685033857822418,-0.188223525881767273,-0.220184177160263062,-0.113179035484790802,-0.124211229383945465,0.075857967138290405,-0.191105902194976807,0.056170687079429626,-0.303208440542221069,-0.010354594327509403,0.121712915599346161,-0.295238047838211060,0.082511276006698608,0.061425812542438507,0.157446131110191345,0.155307412147521973,0.072550714015960693,-0.218178406357765198,0.109316758811473846,-0.062609277665615082,-0.023874899372458458,0.108438588678836823,-0.234678015112876892,0.221828371286392212,-0.132678255438804626,0.152501136064529419,-0.074239015579223633,-0.015467496588826180
0.097134448587894440,-0.155218243598937988,-0.084752075374126434,-0.064542643725872040,-0.087750136852264404,0.199382826685905457,0.058968357741832733,0.012004457414150238,-0.162706166505813599,0.081549093127250671,0.002190639264881611,-0.025326298549771309,0.066789045929908752,0.139453366398811340,-0.029599517583847046,0.199753031134605408,0.256263285875320435,-0.149625942111015320,0.161181136965751648,0.114891260862350464,-0.068597167730331421,-0.058429762721061707,0.285164743661880493,-0.073082059621810913,0.032960120588541031,-0.104371726512908936,-0.060543712228536606,0.362476944923400879,0.040484778583049774,0.222315385937690735,-0.094195865094661713,-0.127213373780250549,0.008564079180359840,-0.043664131313562393,-0.123572312295436859,0.045777238905429840,-0.065839476883411407,0.197456046938896179,0.025965414941310883,-0.114879116415977478,0.187140986323356628,-0.082524321973323822,-0.129927188158035278,0.188053771853446960,0.147638455033302307,0.135447070002555847,-0.168792009353637695,-0.308484256267547607,-0.004295524675399065,-0.021024759858846664,-0.150897234678268433,0.196551933884620667,0.255769699811935425,0.171758189797401428,-0.269076347351074219,-0.201981782913208008,0.067279048264026642,-0.367106556892395020,-0.093191049993038177,-0.112264901399612427,-0.227848514914512634,-0.156514331698417664,0.026249676942825317,0.064807638525962830,-0.243904694914817810,-0.002882208442315459,-0.133466914296150208,-0.181783393025398254,-0.301988303661346436,0.011769648641347885,0.156992152333259583,-0.050529297441244125,-0.039633624255657196,-0.046501882374286652,0.156563043594360352,-0.182205140590667725,0.253038167953491211,-0.090911030769348145,0.071677148342132568,-0.081368073821067810,0.293693333864212036,0.225648388266563416,0.155775442719459534,0.173859864473342896,-0.307010322809219360,-0.080955676734447479,-0.083336733281612396,-0.172642409801483154,-0.004733683075755835,0.169906571507453918
0.151238411664962769,-0.100790880620479584,0.181385666131973267,-0.019523045048117638,0.064907327294349670,-0.041976854205131531,-0.086396977305412292,0.225965231657028198,0.187072828412055969,-0.210698753595352173,0.041463982313871384,0.078260757029056549,0.023109473288059235,-0.067777901887893677,-0.033434700220823288,0.094908140599727631,-0.002865195041522384,0.128893077373504639,0.147674724459648132,-0.167727962136268616,0.093171685934066772,0.165810018777847290,0.076798364520072937,-0.140024200081825256,0.113503657281398773,0.220671504735946655,0.128106355667114258,-0.100871175527572632,-0.091074101626873016,-0.247540310025215149,0.159658551216125488,-0.250577390193939209,-0.007652055006474257,-0.194530591368675232,-0.057639703154563904,0.185126692056655884,-0.113675750792026520,0.080787807703018188,-0.043929547071456909,0.109232053160667419,0.212389677762985229,0.003929470665752888,-0.082644380629062653,0.114944174885749817,-0.105747647583484650,0.080035783350467682,-0.160208880901336670,0.122057810425758362,0.061788532882928848,-0.176406756043434143,0.103117622435092926,-0.041170783340930939,-0.020587885752320290,0.173124566674232483,-0.047889128327369690,0.080671906471252441,0.088621318340301514,-0.016787627711892128,-0.065889529883861542,0.117134615778923035,-0.061370216310024261,-0.111384332180023193,0.061067290604114532,-0.009286116808652878,0.251684635877609253,-0.085282623767852783,0.162882581353187561,0.282455682754516602,0.213960886001586914,0.094681881368160248,-0.170113757252693176,0.059397626668214798,0.039546266198158264,0.032149463891983032,-0.186278834939002991,0.212260067462921143,-0.146193295717239380,-0.230063661932945251,-0.113851413130760193,0.028428951278328896,0.157224908471107483,-0.017591767013072968,-0.280043512582778931,-0.059661995619535446,0.127095878124237061,0.100019581615924835,0.051443353295326233,0.009516390040516853,-0.235744163393974304,0.073619097471237183
-0.171042844653129578,-0.129923179745674133,0.094406612217426300,0.094997562468051910,0.092221356928348541,0.091438010334968567,0.127483382821083069,-0.080641306936740875,-0.166379466652870178,0.137006491422653198,-0.417676180601119995,0.184622198343276978,0.109241440892219543,0.015705091878771782,-0.168010458350181580,-0.014988075941801071,0.276928782463073730,-0.144312694668769836,-0.246154174208641052,-0.042410250753164291,-0.015562258660793304,-0.203690946102142334,0.107305556535720825,-0.074909754097461700,0.232606321573257446,-0.015965465456247330,-0.100651465356349945,-0.044388964772224426,-0.044300343841314316,0.064641617238521576,-0.169581353664398193,0.044986721128225327,0.276268154382705688,-0.159422799944877625,-0.065816618502140045,-0.034675955772399902,-0.181235209107398987,0.264695316553115845,-0.232190743088722229,-0.104165971279144287,0.100169308483600616,0.135197728872299194,0.017141578719019890,-0.178393617272377014,0.105414904654026031,0.086115717887878418,-0.075168617069721222,0.075485616922378540,-0.242767229676246643,-0.156282246112823486,-0.032254442572593689,-0.033234637230634689,-0.166923850774765015,0.192446306347846985,-0.103156149387359619,-0.070904493331909180,-0.149382665753364563,0.198353871703147888,0.148646488785743713,0.003316938877105713,-0.072306454181671143,-0.057301141321659088,0.065841339528560638,0.006188671570271254,0.212184384465217590,0.090779446065425873,0.209056273102760315,0.219014316797256470,-0.087606489658355713,0.032232157886028290,0.256278634071350098,0.012748181819915771,-0.118165411055088043,-0.036724817007780075,0.153981551527976990,-0.187447533011436462,0.076260156929492950,-0.000476675457321107,0.186491072177886963,0.157088190317153931,-0.222933545708656311,0.212489619851112366,0.149738565087318420,-0.132009461522102356,0.145979955792427063,0.053141072392463684,-0.034112162888050079,-0.302976071834564209,0.075682379305362701,0.159690052270889282
0.135437414050102234,0.107025302946567535,-0.104276165366172791,0.000978699419647455,-0.059864904731512070,-0.001905939774587750,0.121999666094779968,-0.078044481575489044,0.092693552374839783,-0.217828273773193359,-0.054322857409715652,-0.022917581722140312,0.182548895478248596,-0.121423736214637756,-0.037932228296995163,0.225893884897232056,0.173931270837783813,0.100388959050178528,-0.068022981286048889,-0.031952284276485443,-0.052328232675790787,0.145845577120780945,-0.054736264050006866,0.050376366823911667,-0.070509001612663269,-0.279504269361495972,-0.170327365398406982,0.008445485495030880,-0.005111762788146734,0.016341995447874069,0.014495044946670532,-0.304611206054687500,-0.171195626258850098,-0.042224239557981491,-0.222931727766990662,0.216670244932174683,0.050130467861890793,-0.076123721897602081,-0.021368825808167458,0.222026154398918152,-0.123178206384181976,0.158676534891128540,-0.199975371360778809,0.013035404495894909,-0.043032731860876083,-0.019924938678741455,0.112869329750537872,0.147318795323371887,0.042480327188968658,-0.023256000131368637,0.200373768806457520,-0.034685987979173660,-0.086561687290668488,-0.021190052852034569,0.225954651832580566,0.235903590917587280,-0.121848300099372864,0.117655113339424133,-0.136478051543235779,0.049345184117555618,0.166489660739898682,-0.120290964841842651,0.043537843972444534,-0.110715262591838837,-0.141435533761978149,0.072022013366222382,0.094114191830158234,0.129307582974433899,0.082384996116161346,-0.140310138463973999,0.033312562853097916,0.080721892416477203,0.018942093476653099,0.133761197328567505,0.112392812967300415,-0.022144613787531853,0.126522377133369446,-0.006716937758028507,0.044194865971803665,-0.017484476789832115,0.091046199202537537,0.123296029865741730,0.107198528945446014,0.080704741179943085,0.021767400205135345,0.032909210771322250,0.165012493729591370,0.073561020195484161,0.089220106601715088,0.085962094366550446
0.078583769500255585,0.072469472885131836,-0.166633367538452148,0.153218492865562439,0.014674633741378784,0.012611501850187778,-0.145046800374984741,-0.197645112872123718,-0.040629193186759949,-0.018211942166090012,-0.039926182478666306,-0.269567221403121948,-0.283708363771438599,0.026238156482577324,-0.183691203594207764,0.125908955931663513,0.099581778049468994,0.130897462368011475,0.039098337292671204,0.169284731149673462,0.083016030490398407,0.198588654398918152,-0.041080847382545471,-0.073943801224231720,0.069855362176895142,0.005618941504508257,0.048332840204238892,-0.109709702432155609,-0.139568999409675598,-0.134336769580841064,0.052600901573896408,0.069002769887447357,0.016330702230334282,0.124932803213596344,-0.163535639643669128,-0.063250660896301270,0.089872866868972778,0.104362107813358307,-0.052297204732894897,-0.185168400406837463,0.020271500572562218,0.054821655154228210,-0.071061611175537109,0.044186599552631378,-0.231080397963523865,-0.014561767689883709,0.244301706552505493,-0.192487746477127075,0.271589308977127075,-0.204614579677581787,-0.302118986845016479,-0.185950100421905518,0.144182309508323669,0.161599665880203247,-0.033065337687730789,-0.079583391547203064,0.010915253311395645,0.284506976604461670,-0.063441619277000427,-0.215129315853118896,-0.104050226509571075,0.060418173670768738,0.231273904442787170,0.214493557810783386,0.160189628601074219,0.138258293271064758,0.156099185347557068,-0.052909977734088898,-0.172870606184005737,0.067912384867668152,-0.037292774766683578,-0.154544427990913391,0.023284548893570900,-0.121757112443447113,-0.158788844943046570,-0.066891722381114960,0.174999475479125977,-0.143275886774063110,-0.154627382755279541,0.129168421030044556,0.102928772568702698,0.126245409250259399,-0.048177529126405716,-0.108182430267333984,0.010323913767933846,-0.094860985875129700,-0.170658513903617859,0.125636667013168335,0.072581395506858826,-0.051478751003742218
-0.032002564519643784,-0.249053701758384705,-0.260147243738174438,0.065189220011234283,0.204715386033058167,-0.044431280344724655,0.285074681043624878,0.174425929784774780,0.048488102853298187,-0.080949343740940094,0.195945635437965393,0.069851376116275787,-0.083699904382228851,-0.154572740197181702,-0.020392807200551033,-0.136952742934226990,0.092423766851425171,-0.055366512387990952,0.082758121192455292,0.113728255033493042,-0.000770081474911422,0.127549901604652405,-0.077908031642436981,0.141518041491508484,0.132716611027717590,0.190586939454078674,0.230196371674537659,0.222470372915267944,-0.070861838757991791,0.086160726845264435,0.155213668942451477,-0.127678304910659790,0.066934250295162201,-0.042811635881662369,-0.094473242759704590,0.099651739001274109,-0.189711838960647583,0.146188452839851379,-0.111914567649364471,-0.287597626447677612,-0.083361595869064331,-0.115466162562370300,0.155841648578643799,0.039570912718772888,-0.086088262498378754,0.028812810778617859,-0.114858910441398621,-0.161717742681503296,0.143984124064445496,0.155922412872314453,-0.039199884980916977,0.067624911665916443,-0.019215140491724014,0.315382897853851318,-0.025465879589319229,0.102378830313682556,0.159623384475708008,-0.141346320509910583,0.017221733927726746,0.021386191248893738,0.108221381902694702,0.142962262034416199,0.152712881565093994,0.178133741021156311,0.069006003439426422,0.130623191595077515,0.125522896647453308,-0.258917361497879028,-0.035051248967647552,0.028802447021007538,-0.132719144225120544,0.112397469580173492,0.034064855426549911,0.120817877352237701,-0.059252455830574036,0.082406222820281982,0.164919391274452209,-0.227575719356536865,0.081252820789813995,0.014184766449034214,-0.170202523469924927,0.140270993113517761,0.075609676539897919,-0.128225028514862061,0.098099999129772186,0.274921596050262451,0.043349195271730423,-0.130636394023895264,0.048777941614389420,0.319351017475128174
-0.000515018764417619,0.127427473664283752,0.132673949003219604,-0.118296608328819275,-0.171592235565185547,-0.134144753217697144,0.018403101712465286,0.166058197617530823,0.192586004734039307,-0.164025962352752686,-0.001735886791720986,0.045186437666416168,-0.253198295831680298,0.028619306161999702,0.126839756965637207,-0.201973468065261841,0.007847435772418976,0.275754690170288086,-0.198337778449058533,0.034591022878885269,0.209936738014221191,0.165141895413398743,-0.175565525889396667,-0.014529013074934483,0.055897884070873260,0.139993295073509216,0.027383387088775635,0.194286301732063293,0.197957500815391541,0.042591691017150879,0.011875022202730179,-0.162493288516998291,0.152774155139923096,-0.150889948010444641,0.094628177583217621,0.161413043737411499,0.187505468726158142,-0.116598449647426605,0.162052437663078308,0.247872635722160339,-0.015928322449326515,0.235278531908988953,-0.148797750473022461,-0.047309473156929016,-0.176918953657150269,0.082234323024749756,0.146422803401947021,0.033133476972579956,0.298151373863220215,0.000241669011302292,-0.059404402971267700,-0.107369825243949890,-0.159100040793418884,-0.107985362410545349,-0.000074815703555942,0.146702930331230164,-0.073035538196563721,0.299560099840164185,-0.013201813213527203,0.062579400837421417,-0.170981496572494507,-0.185353770852088928,-0.024929728358983994,-0.148017406463623047,0.001850367523729801,-0.127958536148071289,0.178822770714759827,0.076292648911476135,0.202414453029632568,-0.166538044810295105,-0.049619130790233612,0.107988834381103516,-0.171410799026489258,0.008661833591759205,-0.151793956756591797,0.160030230879783630,0.196365699172019958,-0.022227440029382706,-0.228143155574798584,0.153457820415496826,0.112047746777534485,-0.207339972257614136,0.099268592894077301,-0.059808805584907532,0.097272634506225586,0.142871692776679993,-0.191592305898666382,0.234648540616035461,-0.188571602106094360,-0.090435370802879333
-0.197491243481636047,-0.087584577500820160,-0.165372639894485474,-0.031860373914241791,-0.191851437091827393,0.136774927377700806,-0.164730042219161987,-0.095019556581974030,-0.163545444607734680,-0.003051038132980466,0.159975707530975342,-0.035274874418973923,0.101943142712116241,0.071492016315460205,-0.184199467301368713,-0.067614488303661346,-0.091913416981697083,-0.100236944854259491,-0.038749307394027710,-0.165161341428756714,0.124230846762657166,0.182304248213768005,-0.044723384082317352,0.215585544705390930,0.042511869221925735,-0.143616527318954468,-0.135451838374137878,0.134785220026969910,0.108947128057479858,0.099457457661628723,0.207236021757125854,-0.193663910031318665,0.071988411247730255,0.179951190948486328,0.129404604434967041,0.010528597049415112,0.085085548460483551,-0.133374884724617004,-0.007075046189129353,0.181535944342613220,0.140595808625221252,-0.054313752800226212,0.031281471252441406,-0.069787569344043732,0.171310558915138245,-0.154526352882385254,-0.150084823369979858,-0.064756378531455994,-0.197935238480567932,-0.189912825822830200,0.185334920883178711,-0.009863709099590778,-0.203972175717353821,-0.050920370966196060,-0.034409623593091965,0.161049067974090576,0.045498445630073547,0.026026219129562378,0.174603611230850220,0.070742741227149963,-0.114810079336166382,-0.162013739347457886,0.134517639875411987,-0.022925160825252533,0.014139443635940552,-0.134816125035285950,-0.039624746888875961,0.108408875763416290,0.138397678732872009,0.195356234908103943,0.025989921763539314,0.013679573312401772,0.102172635495662689,-0.102833919227123260,0.075157806277275085,-0.021881632506847382,0.096430115401744843,-0.203175753355026245,0.019815668463706970,-0.153402581810951233,0.069609560072422028,-0.118040584027767181,0.063310764729976654,-0.143845975399017334,0.200500950217247009,0.162434697151184082,-0.044859245419502258,0.083606615662574768,0.134074166417121887,-0.062346294522285461
-0.165221571922302246,0.092763684689998627,0.155637130141258240,-0.240820959210395813,-0.181500047445297241,-0.043816156685352325,0.262310802936553955,-0.075337789952754974,-0.178457498550415039,-0.039387248456478119,-0.153073698282241821,-0.323001176118850708,0.096739463508129120,0.040903039276599884,0.131916403770446777,0.073101498186588287,0.071070425212383270,0.059528887271881104,-0.099979825317859650,-0.179009556770324707,0.148025602102279663,-0.040957663208246231,0.159734562039375305,0.382356345653533936,-0.250854581594467163,0.202178046107292175,-0.035522449761629105,0.193420901894569397,0.291630715131759644,-0.140451148152351379,0.304938912391662598,-0.123580105602741241,-0.302200347185134888,0.100618362426757812,0.239961817860603333,-0.148481115698814392,-0.093745946884155273,0.013010181486606598,0.264273166656494141,0.166339293122291565,-0.221194878220558167,-0.272822827100753784,0.124128565192222595,-0.220833897590637207,0.207258850336074829,-0.156815096735954285,0.163432061672210693,-0.184196576476097107,-0.108504131436347961,-0.081001468002796173,-0.051924657076597214,-0.273239821195602417,0.129697382450103760,0.021710200235247612,-0.070119738578796387,-0.153008580207824707,0.125135272741317749,0.210335254669189453,-0.140670418739318848,-0.110086038708686829,-0.043037597090005875,-0.069826632738113403,-0.001578934607096016,-0.205659464001655579,0.317352980375289917,0.052108265459537506,-0.191431328654289246,-0.295459181070327759,0.325605630874633789,-0.104008965194225311,-0.178375408053398132,0.031984589993953705,-0.249425038695335388,0.008474451489746571,0.048997741192579269,0.238944381475448608,0.014484699815511703,-0.013750596903264523,-0.076770387589931488,-0.015857227146625519,0.014647269621491432,-0.088678151369094849,-0.222081080079078674,-0.118148036301136017,-0.184373602271080017,-0.102832898497581482,-0.128760635852813721,-0.112239569425582886,0.189562261104583740,0.016122665256261826
