0.093082562088966370,-0.183386057615280151,0.192517474293708801,-0.191117003560066223,0.258515894412994385,-0.473400115966796875,0.136944770812988281,-0.115804500877857208,0.060562670230865479,0.549418807029724121,0.072613745927810669,0.009617926552891731,-0.240236267447471619,-0.071482785046100616,-0.095304422080516815,0.069438256323337555,-0.199689134955406189,-0.074842147529125214,0.058801040053367615,0.085711061954498291,0.607080340385437012,0.202442869544029236,-0.195922151207923889,-0.332103401422500610,-0.057478889822959900,-0.026479743421077728,-0.488971084356307983,-0.147239059209823608,0.286990612745285034,-0.337088614702224731,-0.115293823182582855,-0.087988853454589844,-0.052331846207380295,0.362543702125549316,-0.119716830551624298,0.302211374044418335,0.241001412272453308,0.335883855819702148,0.273118942975997925,-0.096865564584732056,0.073802456259727478,-0.014458518475294113,-0.371906787157058716,-0.154351726174354553,0.136767342686653137,0.218051865696907043,0.526209831237792969,-0.233817160129547119
0.184211656451225281,0.007766690570861101,0.136795982718467712,-0.108283326029777527,-0.085555121302604675,-0.082728639245033264,0.036369856446981430,0.082801774144172668,-0.366358101367950439,0.044954966753721237,-0.374195724725723267,0.073462069034576416,0.086491815745830536,-0.210535347461700439,0.412250846624374390,-0.257784962654113770,0.037543576210737228,0.374507218599319458,-0.131071582436561584,-0.246902778744697571,-0.137893706560134888,0.126820653676986694,0.012408171780407429,0.290511667728424072,0.058062110096216202,-0.181291133165359497,0.191802799701690674,0.187762454152107239,-0.076511919498443604,-0.140800967812538147,-0.185230135917663574,-0.265988558530807495,0.319127231836318970,-0.141469329595565796,-0.214471489191055298,0.019092107191681862,-0.043968860059976578,-0.192973285913467407,0.318760335445404053,-0.101768590509891510,-0.141777873039245605,0.348834574222564697,0.412554949522018433,-0.093188390135765076,-0.201454311609268188,0.171980723738670349,-0.080043330788612366,0.239299297332763672
-0.186425715684890747,0.190810635685920715,0.019216435030102730,0.080814175307750702,-0.079301446676254272,-0.275725930929183960,-0.042346142232418060,0.068469569087028503,0.039066899567842484,-0.127799868583679199,0.350049912929534912,-0.322173357009887695,-0.103071860969066620,0.070002116262912750,-0.163904860615730286,-0.283682197332382202,0.050674177706241608,0.569774389266967773,0.360647767782211304,0.201200813055038452,0.164759218692779541,-0.422129720449447632,-0.217826575040817261,0.157066792249679565,0.521727979183197021,-0.141175135970115662,0.283743470907211304,0.251872330904006958,-0.090307839214801788,-0.199588760733604431,-0.333997666835784912,0.095893740653991699,0.321113467216491699,0.029322447255253792,0.129325151443481445,0.004849925637245178,0.056332610547542572,-0.214392200112342834,-0.049998588860034943,0.015380108729004860,0.189458578824996948,-0.167933493852615356,0.351764559745788574,-0.079374842345714569,0.151956841349601746,0.129323452711105347,-0.301188439130783081,0.000184115386218764
0.248095542192459106,0.097178176045417786,0.012555142864584923,-0.341200053691864014,0.122537136077880859,0.285408616065979004,0.216973751783370972,0.167474165558815002,-0.162664309144020081,0.234831705689430237,0.033443287014961243,0.133525326848030090,0.305726706981658936,0.102860748767852783,-0.064921528100967407,-0.232160732150077820,0.152260676026344299,0.244917392730712891,-0.103739954531192780,0.007764377165585756,-0.139699235558509827,0.141398072242736816,-0.224960878491401672,-0.284980416297912598,-0.197760850191116333,0.078904777765274048,-0.144548341631889343,-0.293123900890350342,0.015017764642834663,0.171473234891891479,0.054318301379680634,0.305627793073654175,0.502195417881011963,0.182697653770446777,0.027637548744678497,0.173801168799400330,0.061674050986766815,-0.066086173057556152,-0.001024895231239498,0.221376746892929077,0.242061570286750793,0.198230981826782227,-0.231040760874748230,-0.039051927626132965,-0.041046068072319031,-0.240884423255920410,-0.095366023480892181,0.348162293434143066
-0.317136734724044800,-0.168125063180923462,0.027985675260424614,0.273721247911453247,0.412170231342315674,0.092925526201725006,-0.093329004943370819,-0.045880898833274841,0.320319682359695435,0.292097866535186768,0.063807196915149689,0.279818594455718994,0.399215012788772583,-0.072361975908279419,0.279803305864334106,0.127601459622383118,-0.141215309500694275,-0.260995209217071533,0.339428812265396118,0.536918997764587402,0.086424365639686584,-0.036073848605155945,-0.220004290342330933,0.089910708367824554,0.213256433606147766,-0.032531797885894775,0.251007497310638428,0.135315328836441040,0.189370647072792053,0.115787804126739502,0.014862277545034885,-0.060246240347623825,0.368923842906951904,-0.122025251388549805,0.242668882012367249,0.280259698629379272,0.228238672018051147,-0.226407468318939209,-0.092854477465152740,-0.188691064715385437,-0.331221997737884521,0.191036418080329895,0.371240407228469849,0.347173392772674561,0.065880745649337769,-0.264339983463287354,0.064018346369266510,0.172082170844078064
0.285107016563415527,0.266336798667907715,-0.027422143146395683,0.134504184126853943,-0.192529097199440002,-0.086846292018890381,0.130641564726829529,0.224520906805992126,-0.256645381450653076,-0.090240351855754852,-0.109948351979255676,0.061819180846214294,-0.106013923883438110,-0.147392705082893372,-0.252940893173217773,0.221118345856666565,0.300009280443191528,0.285037010908126831,-0.162995159626007080,0.296150028705596924,-0.297202408313751221,-0.202025949954986572,0.162089750170707703,0.247592836618423462,0.239289864897727966,-0.090558797121047974,-0.046198833733797073,0.048463709652423859,0.234731733798980713,0.029414530843496323,0.178108304738998413,0.019405091181397438,-0.060248561203479767,-0.096101999282836914,0.000855650228913873,0.059846013784408569,-0.012971042655408382,0.139461830258369446,-0.059652194380760193,-0.270406931638717651,-0.106878519058227539,-0.223194628953933716,0.282129675149917603,0.461137235164642334,-0.023358989506959915,-0.143431559205055237,-0.418529897928237915,0.075962036848068237
-0.014273693785071373,-0.027222063392400742,-0.199187740683555603,-0.159053087234497070,0.128463134169578552,0.099500335752964020,0.366998106241226196,-0.025118304416537285,-0.429951965808868408,0.092477247118949890,0.011431203223764896,-0.047673963010311127,-0.278821766376495361,-0.261860072612762451,0.107718184590339661,-0.197688758373260498,0.029307182878255844,-0.292338281869888306,0.154205754399299622,-0.118281111121177673,0.100914172828197479,0.349493891000747681,0.052792992442846298,-0.052901625633239746,-0.262379974126815796,-0.061401933431625366,0.396768450736999512,0.156913369894027710,-0.225281536579132080,0.126208156347274780,0.109889775514602661,0.355394035577774048,0.164450556039810181,0.079660028219223022,-0.216862678527832031,0.307282596826553345,-0.297394633293151855,-0.002296613063663244,0.081000491976737976,-0.118218593299388885,-0.206525206565856934,0.085379190742969513,0.238494604825973511,0.259063363075256348,-0.181230783462524414,-0.100826129317283630,0.169583052396774292,-0.177738457918167114
0.262115746736526489,-0.012532025575637817,-0.274514764547348022,-0.273572176694869995,0.075129225850105286,0.302961319684982300,0.027096403762698174,-0.079431109130382538,0.201062589883804321,0.176914632320404053,-0.130282998085021973,0.063173390924930573,0.313943386077880859,-0.284322142601013184,-0.063320912420749664,-0.370963990688323975,-0.222797214984893799,-0.329654991626739502,0.363769739866256714,-0.033911354839801788,0.036372933536767960,-0.109533824026584625,-0.240284487605094910,-0.315770626068115234,-0.156997099518775940,0.100904300808906555,0.054095584899187088,-0.255016088485717773,-0.168399646878242493,0.363775104284286499,0.175152033567428589,-0.043037287890911102,0.416617453098297119,0.240799129009246826,-0.281227260828018188,-0.168780311942100525,0.205787703394889832,-0.001520505058579147,-0.145944595336914062,-0.237395226955413818,0.131039693951606750,-0.117447048425674438,0.278285235166549683,-0.252133041620254517,0.050956398248672485,0.229217976331710815,0.181114926934242249,0.173093691468238831
0.047239966690540314,0.067400224506855011,0.199488356709480286,0.196632370352745056,-0.033614672720432281,0.216464549303054810,-0.379110544919967651,0.036097005009651184,0.137436091899871826,-0.242844447493553162,0.207260176539421082,0.332197099924087524,-0.193864509463310242,-0.047338981181383133,0.393363773822784424,0.126830458641052246,-0.159310683608055115,0.285227686166763306,-0.149892657995223999,-0.103092506527900696,0.007418686524033546,0.062930449843406677,0.352609395980834961,-0.264573842287063599,-0.001939738518558443,0.156365126371383667,-0.534878253936767578,0.009805508889257908,0.038933727890253067,-0.126729965209960938,0.365008115768432617,-0.143948957324028015,-0.243466928601264954,0.166794151067733765,-0.197333544492721558,0.106119118630886078,0.173227787017822266,0.027445567771792412,-0.004239189904183149,-0.045476302504539490,-0.212117865681648254,-0.180600926280021667,0.107565440237522125,0.070061922073364258,-0.159714922308921814,0.060344438999891281,-0.305224299430847168,-0.068103730678558350
0.240947410464286804,-0.231135278940200806,0.003125492949038744,0.336636096239089966,-0.066558629274368286,-0.175492420792579651,-0.201741620898246765,0.171944811940193176,0.139679744839668274,0.199344396591186523,-0.159490436315536499,0.229518800973892212,-0.123001195490360260,-0.168583706021308899,-0.076402388513088226,0.118391752243041992,-0.170579150319099426,0.317082911729812622,-0.066626422107219696,0.205810442566871643,-0.022871481254696846,0.101928889751434326,0.232879504561424255,0.146417811512947083,0.120619587600231171,0.245320469141006470,-0.132020190358161926,-0.254896074533462524,0.017394661903381348,0.266917467117309570,0.078308545053005219,-0.096864007413387299,-0.053697582334280014,-0.067840315401554108,-0.039331771433353424,-0.194881528615951538,-0.109919719398021698,0.293914139270782471,-0.051259998232126236,-0.265475690364837646,-0.118586033582687378,0.061129022389650345,0.267562240362167358,-0.275871902704238892,-0.239889413118362427,0.050638746470212936,0.009676609188318253,0.202200263738632202
-0.248314544558525085,-0.016417307779192924,-0.057815406471490860,0.217691600322723389,0.154396444559097290,0.043225500732660294,0.294085323810577393,0.187064513564109802,-0.290462762117385864,-0.166037663817405701,0.326871544122695923,-0.156247809529304504,0.153919324278831482,-0.246215671300888062,0.063443526625633240,-0.339558720588684082,0.029551973566412926,0.255638778209686279,-0.276242136955261230,-0.305180221796035767,0.343310624361038208,0.348230093717575073,-0.196316331624984741,0.253993868827819824,0.130132794380187988,0.020256668329238892,0.240896791219711304,0.159829676151275635,-0.025959685444831848,0.182550936937332153,-0.044992599636316299,0.411796420812606812,0.427253425121307373,0.048467662185430527,-0.163722917437553406,-0.076448731124401093,-0.374135762453079224,0.021845579147338867,-0.341007471084594727,-0.091666735708713531,-0.165873587131500244,-0.017986102029681206,0.172582298517227173,-0.209458321332931519,0.069007731974124908,-0.073525696992874146,0.237611219286918640,-0.067067340016365051
-0.126228943467140198,0.046876665204763412,-0.042773865163326263,-0.000257239968050271,-0.283353745937347412,-0.208901092410087585,-0.374281615018844604,0.045810330659151077,0.296235918998718262,-0.228278741240501404,-0.065712563693523407,0.061130143702030182,0.265777528285980225,0.200940147042274475,-0.098074041306972504,0.015408609062433243,0.274094015359878540,0.211731404066085815,0.217434376478195190,0.015534984879195690,0.172118693590164185,-0.036290664225816727,-0.034639284014701843,-0.135790705680847168,0.286631435155868530,0.354037970304489136,-0.159665212035179138,-0.043361380696296692,-0.174741417169570923,0.536393642425537109,-0.103309147059917450,0.194973364472389221,-0.036750521510839462,-0.301348239183425903,0.325176030397415161,-0.165669098496437073,0.305047929286956787,-0.202509522438049316,-0.264343500137329102,0.257688015699386597,0.022004220634698868,-0.447818368673324585,0.089130304753780365,-0.338329821825027466,0.269898325204849243,0.236853688955307007,-0.261808961629867554,0.367805421352386475
0.443562716245651245,0.404138565063476562,-0.016779860481619835,0.210185825824737549,-0.317396014928817749,0.223473548889160156,-0.191121801733970642,-0.038017708808183670,-0.342903017997741699,0.163110554218292236,0.055620580911636353,-0.209438562393188477,-0.182754099369049072,-0.155389741063117981,0.052845228463411331,-0.237674221396446228,0.155578151345252991,-0.138589903712272644,0.237321704626083374,0.145084694027900696,0.206911534070968628,-0.010461943224072456,0.126763388514518738,0.249269232153892517,0.131848216056823730,0.238835141062736511,-0.305439680814743042,-0.319765418767929077,0.255490481853485107,0.358829170465469360,-0.373518139123916626,0.145558655261993408,-0.324493706226348877,0.334073215723037720,0.128174662590026855,-0.268811285495758057,0.251959979534149170,-0.140591591596603394,0.168990373611450195,-0.264992445707321167,-0.288683205842971802,-0.254010200500488281,-0.083309248089790344,-0.055441062897443771,-0.219965964555740356,0.050757862627506256,-0.151205569505691528,0.541916131973266602
0.055805791169404984,0.010103211738169193,-0.323299765586853027,0.092747718095779419,0.076214782893657684,0.001235635718330741,-0.314376026391983032,-0.251087099313735962,-0.017986701801419258,0.153485462069511414,0.131715521216392517,0.399333268404006958,-0.054452322423458099,-0.072269760072231293,0.218435823917388916,-0.029802449047565460,0.259380280971527100,0.048405855894088745,-0.044048208743333817,-0.133468568325042725,-0.192121237516403198,0.400962144136428833,-0.151666268706321716,0.303881555795669556,-0.093298755586147308,-0.007494382560253143,-0.316936999559402466,0.033790100365877151,-0.029995663091540337,0.072821274399757385,0.323919862508773804,0.285293668508529663,0.454965978860855103,-0.261605471372604370,0.051145635545253754,-0.330754995346069336,0.016620911657810211,-0.323796510696411133,0.008294352330267429,-0.035628065466880798,-0.154664874076843262,-0.317812830209732056,-0.284356415271759033,0.257474213838577271,0.026437623426318169,0.115632452070713043,0.060047581791877747,0.021465463563799858
0.032826248556375504,-0.007558968849480152,-0.263625591993331909,0.211204916238784790,0.084724880754947662,-0.225541576743125916,-0.141502812504768372,0.008390160277485847,-0.186245948076248169,-0.114397332072257996,-0.278604149818420410,0.054823189973831177,0.033011227846145630,0.152010560035705566,0.168998852372169495,0.125651136040687561,-0.276089370250701904,-0.258639603853225708,-0.203985139727592468,-0.018841926008462906,0.110043935477733612,-0.157717332243919373,-0.115726560354232788,-0.228594690561294556,0.265680819749832153,-0.047910481691360474,-0.250341683626174927,0.173365294933319092,0.161855205893516541,0.053772877901792526,0.126463606953620911,-0.232668817043304443,0.244350329041481018,-0.132677063345909119,-0.015769094228744507,-0.161926463246345520,-0.287735283374786377,-0.199711501598358154,0.118752479553222656,0.205749377608299255,-0.087161064147949219,0.176118925213813782,0.127765506505966187,-0.245278209447860718,-0.191606864333152771,0.020857745781540871,-0.248863041400909424,-0.115002050995826721
-0.283586055040359497,0.235879212617874146,-0.074929729104042053,-0.189423337578773499,-0.175053179264068604,0.048170574009418488,0.128703981637954712,-0.388693243265151978,0.264876842498779297,-0.121973365545272827,0.421183794736862183,0.173882514238357544,0.073243550956249237,-0.019232662394642830,0.183654606342315674,0.289311289787292480,-0.058076389133930206,0.307799011468887329,-0.135580718517303467,0.188776537775993347,-0.043061774224042892,-0.300939619541168213,0.026299936696887016,-0.019678793847560883,0.217443376779556274,0.232444465160369873,0.392754226922988892,0.140126332640647888,0.214759454131126404,0.325790613889694214,0.055307466536760330,0.067935697734355927,0.222239837050437927,-0.178268685936927795,0.233836740255355835,0.022073540836572647,0.255769520998001099,0.078385107219219208,0.145156458020210266,0.167285844683647156,-0.064600318670272827,-0.086165271699428558,-0.325684010982513428,-0.388652890920639038,-0.239836230874061584,-0.158083498477935791,-0.048259250819683075,0.095882192254066467
0.008591894060373306,0.207702219486236572,-0.058226689696311951,-0.010844348929822445,-0.313571929931640625,0.349475800991058350,-0.378553390502929688,0.142043560743331909,0.131395861506462097,-0.220133647322654724,0.396642953157424927,-0.207482486963272095,0.171690940856933594,-0.043092776089906693,-0.241822630167007446,0.403935104608535767,-0.325387626886367798,-0.393365889787673950,0.024764681234955788,0.310857564210891724,-0.111214332282543182,-0.053577341139316559,-0.097642622888088226,0.224072396755218506,0.057572968304157257,0.224735781550407410,0.175108209252357483,0.143934428691864014,0.162393867969512939,0.054614573717117310,0.265531122684478760,0.028196016326546669,-0.252451866865158081,0.008958070538938046,-0.165228500962257385,-0.095394350588321686,0.251699715852737427,-0.097848705947399139,-0.144178852438926697,0.075521565973758698,0.046023927628993988,0.173245623707771301,0.204705998301506042,-0.066079102456569672,0.228643581271171570,0.239300727844238281,-0.035397902131080627,0.073232643306255341
0.195045590400695801,0.069691404700279236,-0.125109761953353882,0.073839239776134491,0.148739174008369446,0.127472132444381714,-0.163089931011199951,-0.042634140700101852,-0.456993609666824341,0.136647015810012817,0.376414686441421509,-0.064160235226154327,-0.244245231151580811,0.007730007637292147,-0.348302751779556274,0.222001627087593079,0.235654085874557495,-0.067758917808532715,-0.226537078619003296,-0.364761829376220703,0.240441724658012390,0.033792678266763687,0.041129555553197861,0.292308062314987183,-0.146127894520759583,-0.233094543218612671,0.236843764781951904,0.209502652287483215,0.207526996731758118,-0.177238509058952332,-0.115303322672843933,0.431547284126281738,-0.226967975497245789,0.177849963307380676,0.260615646839141846,0.228565111756324768,0.239623367786407471,-0.023080086335539818,-0.002610326744616032,-0.263520777225494385,-0.132145956158638000,0.018761858344078064,-0.130880862474441528,0.310095816850662231,-0.104278579354286194,-0.292244195938110352,-0.054712023586034775,-0.054036203771829605
0.084481671452522278,-0.047091752290725708,0.352683067321777344,0.027611438184976578,-0.126390248537063599,0.157504469156265259,-0.120490618050098419,0.504308223724365234,0.288234949111938477,0.318571656942367554,0.085946023464202881,-0.267409503459930420,0.260876029729843140,-0.265616685152053833,-0.146480366587638855,0.205896720290184021,-0.337041825056076050,-0.333258330821990967,0.071482278406620026,0.539826929569244385,-0.041067939251661301,-0.077866367995738983,-0.301656484603881836,0.087109006941318512,-0.297411710023880005,-0.001468238537199795,-0.179461225867271423,0.192368119955062866,0.235789060592651367,-0.301266640424728394,0.460092186927795410,0.027351599186658859,-0.223504424095153809,0.238769859075546265,0.199392259120941162,-0.164541974663734436,0.230438858270645142,0.105666324496269226,-0.284412950277328491,-0.172990962862968445,0.154417946934700012,0.353695034980773926,-0.031587339937686920,0.195424154400825500,-0.062018286436796188,-0.111789025366306305,0.052385762333869934,-0.276219666004180908
0.003964459057897329,-0.264808595180511475,-0.083387792110443115,0.129762873053550720,-0.266138583421707153,-0.209870010614395142,-0.163754612207412720,0.012374920770525932,0.168218195438385010,-0.339535921812057495,-0.004613512195646763,0.313880741596221924,0.121401332318782806,0.260702311992645264,0.420587927103042603,0.208023220300674438,-0.164282083511352539,-0.262219429016113281,0.014899083413183689,0.012429552152752876,-0.236494645476341248,0.386283665895462036,-0.010731371119618416,-0.059324674308300018,-0.203000515699386597,0.398983597755432129,-0.125537306070327759,0.085314430296421051,-0.280942946672439575,0.401946544647216797,0.367998570203781128,-0.069183610379695892,-0.134430617094039917,-0.150368526577949524,-0.033771481364965439,-0.068716034293174744,0.072458915412425995,-0.107501119375228882,-0.117391049861907959,-0.021036559715867043,-0.029945518821477890,-0.216325357556343079,-0.246542274951934814,0.228547200560569763,-0.051219552755355835,-0.081346400082111359,0.134644031524658203,0.135144889354705811
0.134679853916168213,-0.089583843946456909,-0.109899006783962250,0.233439013361930847,0.253694683313369751,-0.069119036197662354,0.256805628538131714,0.185421764850616455,0.280588805675506592,-0.025402251631021500,-0.036647506058216095,-0.042578708380460739,0.161965340375900269,0.266014277935028076,0.520384371280670166,0.085382409393787384,0.013595292344689369,0.404017835855484009,0.328974395990371704,-0.047172307968139648,0.180232718586921692,0.317858636379241943,0.345070362091064453,0.146859154105186462,0.333107411861419678,-0.058763571083545685,0.069676138460636139,-0.244957998394966125,-0.369285285472869873,-0.111884370446205139,0.062915436923503876,-0.055305100977420807,0.269267946481704712,-0.210277125239372253,-0.334968388080596924,-0.055614624172449112,-0.052729234099388123,0.062186419963836670,-0.249140501022338867,0.030462196096777916,0.151552245020866394,0.452499866485595703,0.362464994192123413,-0.071763858199119568,-0.114849284291267395,-0.193656951189041138,-0.076020993292331696,-0.178688451647758484
