0.022953046485781670,-0.020315539091825485,-0.028709432110190392,0.026163274422287941,0.044606313109397888,-0.001734083052724600,-0.008443801663815975,-0.030543388798832893,0.018617078661918640,0.042157340794801712,-0.022604655474424362,-0.020136294886469841,-0.027550106868147850,0.061490602791309357,-0.033919546753168106,-0.006353010423481464,0.016696393489837646,-0.021844716742634773,0.031520433723926544,0.033707380294799805,-0.030147995799779892,0.044354934245347977,0.023389831185340881,0.016759771853685379,0.036025594919919968,-0.029732678085565567,-0.007622608449310064,0.006353620439767838,-0.032671138644218445,0.029153510928153992,0.044603489339351654,-0.026223560795187950,0.005710038822144270,-0.039719816297292709,0.040406771004199982,-0.011506494134664536,0.023394359275698662,-0.028494494035840034,0.057246312499046326,0.008609961718320847,0.031305443495512009,-0.004254010040313005,0.053497906774282455,0.023620227351784706,-0.039649475365877151,0.048851303756237030,-0.010402247309684753,0.023150101304054260,-0.033032651990652084,0.046218723058700562,0.051738586276769638,0.000598010316025466,0.037337813526391983,-0.046340227127075195,-0.039787549525499344,-0.030500991269946098,0.040576044470071793,0.004781850613653660,-0.007282142527401447,0.007979492656886578,0.015350343659520149,0.018268924206495285,-0.030260317027568817,0.032745715230703354,-0.003517342498525977,-0.016750708222389221,0.016354527324438095,0.040178079158067703,0.022521497681736946,-0.016269406303763390,-0.019476560875773430,0.017287358641624451,-0.015924472361803055,0.019485143944621086,0.010861234739422798,-0.045436073094606400,0.052757624536752701,0.042217221111059189,-0.023714294657111168,0.018527237698435783,0.033039003610610962,-0.036341831088066101,-0.025277394801378250,0.021498169749975204,0.004854321945458651,0.049473006278276443,0.035337422043085098,-0.002745726611465216,0.008263202384114265,0.048817139118909836,0.027637610211968422,-0.020115742459893227,0.037055674940347672,0.044386699795722961,0.035476572811603546,0.009778948500752449,-0.017248282209038734,0.019318889826536179,0.031053509563207626,0.030236436054110527,0.039612039923667908,0.005561783909797668,0.034719023853540421,0.013804120942950249,0.041372988373041153,-0.000275971251539886,-0.043428864330053329,0.004102329723536968,0.024712005630135536,-0.043540090322494507,0.040344331413507462,0.013089736923575401,-0.006166556384414434,0.025217059999704361,-0.041402008384466171,-0.026031948626041412,-0.037530977278947830,-0.030424112454056740,-0.042097575962543488,0.041460145264863968,0.034228209406137466,0.020613312721252441,-0.039544336497783661,0.028651554137468338,0.019099261611700058,-0.033159062266349792,0.033491831272840500,0.035197675228118896
0.032128866761922836,0.005964294541627169,0.034123759716749191,0.000177466674358584,0.026547780260443687,-0.035424057394266129,-0.054826192557811737,-0.024108482524752617,0.022946948185563087,-0.021102486178278923,-0.022433411329984665,-0.058170236647129059,-0.026035355404019356,-0.004855397623032331,0.042098779231309891,-0.052526149898767471,-0.055712498724460602,0.031819500029087067,-0.018532462418079376,-0.040396783500909805,0.025098217651247978,-0.054217524826526642,-0.037984661757946014,0.000186818680958822,-0.053803574293851852,0.008704386651515961,0.033387802541255951,-0.025505283847451210,0.026063682511448860,0.027623150497674942,0.010833431966602802,0.031111489981412888,0.062532544136047363,0.013004342094063759,0.026757210493087769,0.057557638734579086,0.039707027375698090,0.078110516071319580,-0.049497518688440323,0.020680947229266167,0.017411345615983009,-0.041456069797277451,0.040132049471139908,-0.003531587310135365,-0.002135138027369976,0.008694808930158615,-0.003149378346279263,0.022280983626842499,0.013168736360967159,0.077092126011848450,0.030161779373884201,0.015038966201245785,0.023417638614773750,0.019214820116758347,-0.047281607985496521,0.047215480357408524,0.015877783298492432,-0.034197822213172913,-0.019026838243007660,-0.042492918670177460,0.037381522357463837,-0.040525604039430618,0.035945277661085129,-0.013712975196540356,0.013318376615643501,0.023712916299700737,-0.010891219601035118,0.015258782543241978,0.038002956658601761,-0.042547382414340973,-0.031354106962680817,0.054697588086128235,0.025758519768714905,-0.032256186008453369,-0.110691808164119720,-0.034013036638498306,0.022866340354084969,0.020930139347910881,-0.035486232489347458,0.034030552953481674,-0.015746977180242538,0.016594756394624710,-0.072307497262954712,-0.012611339800059795,-0.023973364382982254,0.025295393541455269,0.032905254513025284,0.012866486795246601,-0.020885949954390526,0.028733931481838226,-0.018048437312245369,0.046337872743606567,0.020217446610331535,0.012402826920151711,0.034810498356819153,0.042158342897891998,-0.025466959923505783,-0.029791694134473801,0.058969788253307343,-0.020468505099415779,-0.059437993913888931,-0.002206177683547139,0.047376502305269241,-0.004351689480245113,0.024085884913802147,0.032581962645053864,-0.020933674648404121,-0.012471098452806473,-0.037495031952857971,-0.036813773214817047,0.000457051821285859,0.049947984516620636,-0.013738512061536312,-0.035340003669261932,0.016706697642803192,-0.021246505901217461,0.017023408785462379,-0.008336258120834827,0.063989304006099701,-0.049613825976848602,-0.056889664381742477,0.003023028373718262,-0.029578711837530136,0.024127915501594543,0.067599579691886902,-0.022579230368137360,0.036641363054513931,-0.068250700831413269
0.025414353236556053,0.011348516680300236,-0.022159913554787636,-0.078229740262031555,0.005601012613624334,0.030860463157296181,0.043153740465641022,0.003115581348538399,0.008531019091606140,0.020864123478531837,0.014982207678258419,-0.027528779581189156,0.009851397946476936,0.035551235079765320,0.020355150103569031,-0.010099023580551147,0.074003063142299652,-0.034430850297212601,0.023854490369558334,0.007321103475987911,0.036516088992357254,-0.034434206783771515,-0.039926130324602127,0.027389589697122574,-0.070093445479869843,0.004326082766056061,0.046964604407548904,0.011084653437137604,-0.008226379752159119,0.046435322612524033,0.048800256103277206,0.028076369315385818,0.006259992718696594,-0.005055599380284548,-0.022262323647737503,-0.014419568702578545,-0.024671636521816254,-0.012630729936063290,0.015132494270801544,-0.007798065431416035,0.039433136582374573,0.001830273889936507,0.056764993816614151,0.039567302912473679,0.026815099641680717,0.073238432407379150,0.002886428730562329,-0.012429269030690193,0.047229722142219543,0.060518477112054825,0.067586429417133331,0.008419174700975418,0.091171190142631531,0.022942505776882172,0.020699152722954750,0.013679514639079571,-0.017511313781142235,-0.030666055157780647,-0.009988749399781227,-0.015545282512903214,0.019741492345929146,-0.001614624750800431,-0.025096602737903595,0.006296139210462570,-0.018627539277076721,-0.019925575703382492,-0.013150107115507126,0.008940408937633038,0.033096838742494583,0.031154101714491844,-0.033910002559423447,0.004074505995959044,-0.025632733479142189,-0.036605730652809143,-0.006172379013150930,0.001465845154598355,0.028254453092813492,-0.036421626806259155,-0.016393471509218216,0.003818555502220988,0.053204338997602463,-0.000199570116819814,-0.039663285017013550,0.027001056820154190,-0.039946064352989197,-0.017437798902392387,0.012396933510899544,-0.011805792339146137,-0.050076730549335480,0.020949337631464005,-0.099654681980609894,0.034977111965417862,-0.011467223055660725,-0.031134182587265968,-0.017622206360101700,-0.006616338621824980,-0.065068826079368591,0.021136200055480003,0.033422749489545822,0.023786390200257301,-0.021978052332997322,-0.012544298544526100,-0.025964153930544853,0.021664042025804520,-0.012848406098783016,0.022880667820572853,-0.023720245808362961,0.027240019291639328,-0.009918543510138988,0.041363961994647980,0.014620706439018250,-0.012034119106829166,-0.028291983529925346,-0.053050387650728226,0.021279942244291306,0.028467601165175438,0.007408050820231438,-0.022802023217082024,-0.015891419723629951,-0.011493207886815071,-0.015316768549382687,-0.035945683717727661,-0.024959189817309380,0.009951965883374214,0.064628876745700836,-0.034470744431018829,-0.042673420161008835,-0.029884319752454758
-0.036765687167644501,-0.033917106688022614,0.002966768108308315,0.022975936532020569,-0.024058001115918159,0.024855513125658035,0.002449892926961184,-0.044126674532890320,0.025270232930779457,-0.027832232415676117,-0.026894522830843925,0.032169658690690994,-0.021843925118446350,-0.007123913150280714,-0.025235144421458244,0.046213984489440918,-0.031876176595687866,0.033155448734760284,0.009899778291583061,-0.016357908025383949,-0.010867725126445293,-0.047878488898277283,0.011794279329478741,-0.022284779697656631,0.046521667391061783,-0.055846493691205978,0.064990133047103882,0.020351596176624298,-0.004165470134466887,-0.044381342828273773,0.006239266134798527,-0.008335427381098270,0.039091225713491440,-0.042992085218429565,-0.055630322545766830,0.029891805723309517,-0.039229895919561386,-0.003503757528960705,-0.006218213587999344,-0.000064101310272235,-0.013837915845215321,0.019422054290771484,0.016530025750398636,-0.038749966770410538,0.016072714701294899,-0.024994270876049995,0.043418146669864655,-0.008037372492253780,-0.007856640033423901,0.023172097280621529,-0.017313672229647636,0.021494418382644653,0.030421560630202293,-0.011660967022180557,0.015317084267735481,0.039955064654350281,0.023636333644390106,0.021945450454950333,0.049218583852052689,-0.013056084513664246,0.038646016269922256,0.040735509246587753,0.043944679200649261,0.049747008830308914,0.044803857803344727,-0.046646468341350555,-0.035373549908399582,-0.026329051703214645,0.023834316059947014,0.028953494504094124,0.014096196740865707,0.056711100041866302,-0.016855126246809959,-0.030603878200054169,0.023930367082357407,0.022520864382386208,0.039218157529830933,0.035107739269733429,-0.034607883542776108,0.019091861322522163,0.052027046680450439,0.017613289877772331,-0.033699985593557358,0.009022983722388744,-0.026017945259809494,0.044613119214773178,0.013912985101342201,0.049231890588998795,-0.022945277392864227,-0.004703010898083448,-0.035789951682090759,0.041017156094312668,-0.003386233467608690,-0.038456864655017853,-0.013897522352635860,-0.008002485148608685,-0.016781009733676910,0.072557926177978516,0.029199168086051941,0.026279957965016365,-0.008328424766659737,-0.022190133109688759,-0.019449975341558456,-0.037021443247795105,-0.028587028384208679,-0.006542428396642208,0.009729660116136074,-0.003556840587407351,0.014263266697525978,-0.013583022169768810,0.065617732703685760,0.047212176024913788,-0.040571738034486771,0.015197696164250374,0.056514393538236618,0.042194753885269165,-0.034531623125076294,-0.004533290397375822,0.032113991677761078,0.032262250781059265,-0.019561661407351494,-0.055768094956874847,-0.052702870219945908,-0.028936177492141724,0.007347413338720798,0.023960668593645096,0.012256647460162640,0.025171404704451561
-0.047378089278936386,-0.003767102491110563,-0.050476081669330597,-0.047022216022014618,-0.001434276695363224,0.042652867734432220,0.013307882472872734,0.015822120010852814,-0.024575404822826385,-0.024497333914041519,0.040664460510015488,-0.045926552265882492,-0.052391070872545242,0.052916321903467178,0.028664631769061089,0.038383949548006058,0.036835882812738419,-0.039496261626482010,0.030910249799489975,-0.049098469316959381,0.021497888490557671,-0.044227533042430878,0.022203829139471054,0.030242267996072769,0.023603880777955055,0.019443236291408539,0.027930593118071556,-0.012037020176649094,0.036675658077001572,0.005912300199270248,0.065978847444057465,-0.010719659738242626,0.049010057002305984,0.033358592540025711,-0.060054477304220200,0.009104809723794460,0.039103683084249496,-0.018604464828968048,-0.017739331349730492,0.036652170121669769,-0.036766406148672104,0.004714819602668285,-0.011026688851416111,0.046500198543071747,0.046707458794116974,0.000028489734177128,0.009338313713669777,0.051860742270946503,0.031678013503551483,0.016818214207887650,0.031368255615234375,0.008366025984287262,0.027244452387094498,-0.020614219829440117,-0.008524504490196705,-0.064838759601116180,-0.026016660034656525,0.028780154883861542,-0.009221421554684639,0.048362065106630325,0.017115686088800430,0.038418985903263092,0.038073617964982986,0.000211642865906470,-0.032102398574352264,-0.012119380757212639,0.020279532298445702,-0.034981966018676758,-0.041478287428617477,0.036971207708120346,-0.027523074299097061,0.018573787063360214,-0.022704480215907097,-0.015822285786271095,0.010116723366081715,-0.023561704903841019,0.028912970796227455,-0.009168550372123718,-0.066924139857292175,-0.002197072608396411,0.040622580796480179,0.004381721839308739,0.019424544647336006,0.049258194863796234,-0.040002603083848953,0.031608831137418747,0.046980723738670349,0.026839703321456909,0.015612194314599037,0.021081894636154175,0.034004222601652145,-0.044463653117418289,-0.002016893820837140,-0.034346364438533783,-0.019596550613641739,-0.042723681777715683,-0.005124950315803289,0.053829606622457504,0.047574687749147415,0.040335856378078461,-0.020330103114247322,-0.009925303980708122,0.001951687736436725,-0.012712885625660419,0.001307655940763652,-0.006722697988152504,-0.011471483856439590,-0.007601239718496799,-0.007796911522746086,-0.046609859913587570,0.047219574451446533,-0.010095914825797081,0.035137753933668137,0.003936922177672386,-0.020108157768845558,-0.016059115529060364,0.039979934692382812,0.036294631659984589,-0.021892806515097618,-0.008386471308767796,-0.035398185253143311,-0.027996709570288658,0.031242465600371361,0.003628048114478588,0.064938291907310486,0.060557216405868530,-0.027985580265522003,-0.002831099787726998
0.039776157587766647,0.025819854810833931,0.009409370832145214,-0.053639490157365799,0.025961156934499741,-0.003447042079642415,0.032593607902526855,0.022226234897971153,-0.012095397338271141,0.019694408401846886,-0.009678767062723637,-0.010929435491561890,-0.055329792201519012,-0.067652016878128052,-0.003740758402273059,0.014908154495060444,0.084317848086357117,-0.043314389884471893,0.063376978039741516,-0.053119741380214691,-0.023794146254658699,-0.036346029490232468,0.067454904317855835,0.003056664019823074,0.002757111331447959,0.016130119562149048,-0.018361920490860939,-0.029655620455741882,0.007033437956124544,0.035366855561733246,0.052363160997629166,0.015751577913761139,0.025078112259507179,0.070263117551803589,-0.033448155969381332,-0.034035436809062958,-0.030071865767240524,-0.002488384954631329,0.041109651327133179,-0.018828457221388817,0.005550154950469732,0.034768637269735336,0.051761113107204437,0.026830963790416718,0.045230545103549957,0.069718971848487854,0.003684920258820057,0.012232122011482716,0.031877614557743073,0.091148301959037781,0.033565998077392578,0.017691303044557571,0.064646825194358826,0.011733259074389935,0.008544823154807091,-0.030572062358260155,-0.029755262657999992,-0.019987476989626884,-0.037307959049940109,0.065641447901725769,0.083773747086524963,0.010783232748508453,0.023260544985532761,-0.019023017957806587,-0.027290616184473038,0.036683820188045502,-0.016498142853379250,-0.016752246767282486,-0.027196919545531273,0.054856978356838226,0.037851728498935699,-0.004105674102902412,0.023267725482583046,-0.045993458479642868,-0.053312063217163086,-0.047971960157155991,0.032597411423921585,-0.055162426084280014,0.045640200376510620,0.046694919466972351,0.056897476315498352,-0.031711984425783157,0.008428323082625866,-0.015343871898949146,-0.029582511633634567,0.025063497945666313,-0.007694214116781950,-0.013723059557378292,-0.005392038263380527,-0.012124477885663509,-0.042010031640529633,0.028656195849180222,0.016948739066720009,0.030033169314265251,-0.016965929418802261,0.039518471807241440,-0.051950804889202118,0.019869806244969368,0.038588456809520721,-0.017481954768300056,-0.059774965047836304,0.077422820031642914,0.041798837482929230,-0.038989316672086716,0.015640098601579666,-0.034430187195539474,0.015973018482327461,0.054675810039043427,0.021309942007064819,-0.028594257310032845,-0.008515850640833378,-0.038181249052286148,-0.028846113011240959,-0.025496443733572960,-0.043081644922494888,0.003319405252113938,0.061814747750759125,-0.027843555435538292,0.043258629739284515,-0.030559549108147621,-0.023017210885882378,-0.012800129130482674,-0.002091657370328903,-0.045674555003643036,0.057881720364093781,0.017196163535118103,0.009462214075028896,-0.049918696284294128
-0.025945613160729408,-0.038299482315778732,-0.046576812863349915,-0.008513657376170158,-0.086756616830825806,0.018901064991950989,-0.055621031671762466,-0.009368993341922760,-0.014276151545345783,0.042790848761796951,0.025081807747483253,-0.016609460115432739,0.012386352755129337,-0.014773788861930370,-0.042168911546468735,0.038134329020977020,0.021775454282760620,-0.042586252093315125,0.025194428861141205,-0.043139208108186722,-0.016129991039633751,0.004649847280234098,-0.016651600599288940,-0.053955011069774628,-0.034531172364950180,0.045262936502695084,0.063294745981693268,-0.046471782028675079,0.016839504241943359,-0.027683006599545479,0.030360339209437370,0.038901109248399734,0.090937957167625427,-0.000211961480090395,0.043496325612068176,-0.022514114156365395,-0.036463409662246704,-0.048992250114679337,-0.007731536868959665,0.048545099794864655,0.022804806008934975,0.031577166169881821,0.015273744240403175,0.010096150450408459,0.036873493343591690,0.034568294882774353,-0.018911043182015419,0.024552151560783386,0.070269636809825897,0.033132124692201614,0.049155902117490768,-0.042636975646018982,-0.002483741613104939,-0.042056839913129807,-0.013259699568152428,0.046321287751197815,-0.006540224887430668,0.017213976010680199,-0.097343951463699341,0.022276930510997772,0.050586584955453873,-0.052087496966123581,0.065030641853809357,-0.027159553021192551,-0.024059103801846504,0.003438948420807719,-0.042850870639085770,-0.020021159201860428,-0.012410933151841164,0.067732892930507660,-0.043475680053234100,0.026915721595287323,0.063652649521827698,-0.043133839964866638,-0.020550096407532692,-0.043032836169004440,0.023027544841170311,-0.030391849577426910,-0.079365164041519165,-0.064946718513965607,0.078588940203189850,-0.017335722222924232,-0.054269753396511078,-0.024599712342023849,-0.033802505582571030,-0.046563897281885147,0.002293932717293501,0.001827299478463829,-0.015832994133234024,0.022517150267958641,-0.023219587281346321,0.048360783606767654,0.008625226095318794,-0.008121527731418610,0.066231317818164825,0.039612185209989548,-0.011701368726789951,0.009743846021592617,0.080894015729427338,-0.010018038563430309,-0.009637290611863136,0.000598679936956614,-0.020522085949778557,-0.069689251482486725,0.035506460815668106,-0.044054023921489716,-0.029641898348927498,-0.032184276729822159,0.036930743604898453,-0.036186650395393372,0.032006021589040756,0.003116507083177567,-0.026026003062725067,-0.022520534694194794,0.012035596184432507,-0.041666593402624130,-0.031462103128433228,-0.041756954044103622,0.006969159469008446,-0.084188587963581085,0.008396727032959461,-0.018049763515591621,-0.017148545011878014,-0.081819131970405579,0.004189855884760618,-0.012129087932407856,-0.054217983037233353,-0.034581955522298813
0.019198527559638023,-0.029634948819875717,0.024357037618756294,-0.044107928872108459,-0.071630775928497314,-0.003117672167718410,-0.054879073053598404,0.019643323495984077,-0.014960250817239285,0.043206382542848587,-0.008785792626440525,-0.021533384919166565,-0.012525171972811222,-0.033557619899511337,0.020234230905771255,0.027118636295199394,0.052699934691190720,-0.007097783964127302,-0.053654164075851440,0.011667786166071892,0.012023879215121269,-0.055357165634632111,0.012225270271301270,-0.042076859623193741,-0.040359344333410263,-0.016695205122232437,0.013365531340241432,-0.006669066846370697,0.023026304319500923,0.004897911101579666,-0.018821513280272484,0.007414212450385094,0.034179754555225372,0.066119462251663208,0.034096285700798035,0.079170040786266327,0.001506085856817663,0.010473708622157574,0.002559940330684185,0.055591631680727005,-0.048857614398002625,0.022071650251746178,0.065604493021965027,-0.043497886508703232,-0.011914449743926525,-0.042404975742101669,-0.007934976369142532,-0.020724685862660408,-0.035387367010116577,0.002684808336198330,0.009829808026552200,0.078850358724594116,-0.022686768323183060,-0.040797792375087738,-0.012377867475152016,-0.066081330180168152,0.010224077850580215,-0.031872674822807312,-0.051374342292547226,-0.018998527899384499,0.019984364509582520,-0.001665857853367925,-0.005055433139204979,-0.006122768856585026,0.010394524782896042,-0.007976031862199306,-0.025021364912390709,0.038449056446552277,-0.038426715880632401,0.022701838985085487,-0.016831140965223312,0.017210120335221291,-0.000107322790427133,0.028593124821782112,0.024083798751235008,-0.053420081734657288,0.076787337660789490,0.054754316806793213,0.036070208996534348,-0.006356072146445513,-0.017279662191867828,-0.037055682390928268,0.018946871161460876,0.014051575213670731,0.012911870144307613,0.053130920976400375,0.052191633731126785,-0.007093152496963739,-0.049053840339183807,-0.028305886313319206,-0.006836665794253349,0.003109237179160118,0.033315360546112061,0.010107867419719696,0.013413870707154274,-0.016880499199032784,-0.041980344802141190,0.007403583731502295,0.034912884235382080,0.024336809292435646,-0.021994391456246376,0.080283083021640778,-0.023875385522842407,0.026585627347230911,-0.004040309693664312,0.056689459830522537,-0.045077253133058548,-0.004086935892701149,-0.017717778682708740,0.028360053896903992,-0.021069932729005814,0.066612273454666138,-0.039758406579494476,-0.052677910774946213,0.009591256268322468,0.018207384273409843,0.007294957526028156,-0.064441457390785217,0.038229946047067642,0.021609418094158173,0.051216781139373779,-0.039651785045862198,-0.001569447573274374,-0.013572201132774353,-0.027590833604335785,0.013762656599283218,0.008107337169349194,-0.039463441818952560
-0.053411900997161865,-0.044397067278623581,-0.052777633070945740,-0.007094517350196838,-0.060386899858713150,0.043778415769338608,-0.024979222565889359,0.009067500941455364,0.018793262541294098,0.022053543478250504,0.038383506238460541,0.002459250623360276,-0.010147416032850742,0.047790352255105972,0.007448380813002586,0.069745399057865143,0.077302299439907074,-0.055236618965864182,-0.034136861562728882,-0.004292281810194254,0.014944584108889103,-0.047687932848930359,-0.015439474955201149,-0.042185399681329727,-0.039756551384925842,0.026457063853740692,0.037031546235084534,0.023606980219483376,-0.000650164729449898,0.005164467729628086,-0.006379617843776941,-0.035648696124553680,0.027996866032481194,0.016834462061524391,0.023084422573447227,0.038373302668333054,-0.043959598988294601,0.011509919539093971,-0.009457277134060860,-0.052258376032114029,-0.047402735799551010,-0.020651683211326599,-0.024885652586817741,0.039357878267765045,0.045115701854228973,0.024545440450310707,-0.036091230809688568,-0.048439182341098785,-0.010484880767762661,0.092314928770065308,-0.040489550679922104,-0.017605120316147804,0.036218136548995972,0.035962451249361038,0.029571270570158958,0.040017608553171158,-0.001110585290007293,-0.028523100540041924,-0.031058110296726227,-0.019584320485591888,0.030213262885808945,-0.008386741392314434,0.015753980726003647,0.017103645950555801,0.011764787137508392,-0.025649005547165871,-0.021047281101346016,0.002254698891192675,0.013558767735958099,-0.014465517364442348,-0.054250817745923996,-0.012595393694937229,0.080830655992031097,0.013518016785383224,-0.020448673516511917,0.034710433334112167,0.007697235327214003,0.019533803686499596,0.004049390088766813,0.011542021296918392,0.019520986825227737,-0.037875328212976456,0.013724274933338165,-0.046251814812421799,0.020448600873351097,0.010055664926767349,-0.014338580891489983,0.050102863460779190,0.030008884146809578,-0.039101257920265198,-0.061734765768051147,-0.049936346709728241,0.086440235376358032,-0.011145517230033875,0.076028145849704742,0.089824490249156952,0.009293423034250736,0.007299331948161125,-0.017790915444493294,-0.029098466038703918,-0.041955426335334778,0.001259914366528392,0.019665896892547607,-0.020282765850424767,-0.016450311988592148,0.008058656938374043,-0.016684040427207947,0.005217113066464663,0.057409465312957764,-0.006972393020987511,0.035553310066461563,0.061981331557035446,0.017958739772439003,-0.033860400319099426,-0.048987515270709991,0.052937995642423630,0.024850394576787949,-0.013233699835836887,-0.040917210280895233,-0.020020525902509689,-0.036034863442182541,0.026797449216246605,0.045454233884811401,0.045918025076389313,0.038413792848587036,0.022424079477787018,0.032807074487209320,-0.051389843225479126
-0.031419280916452408,0.019949080422520638,0.012999161146581173,-0.021291969344019890,0.008323813788592815,-0.032982613891363144,-0.057479005306959152,-0.012738691642880440,0.053652271628379822,-0.005318424198776484,-0.023002646863460541,0.008728400804102421,-0.069103822112083435,0.003026026999577880,-0.005918778944760561,0.030065013095736504,0.030949810519814491,0.021025380119681358,0.028323946520686150,0.015559697523713112,-0.085590302944183350,-0.024608870968222618,-0.031115749850869179,-0.044647626578807831,-0.010384979657828808,0.047299712896347046,0.002567386720329523,0.031380273401737213,-0.046364374458789825,0.050211839377880096,0.027784543111920357,-0.018211059272289276,0.051904674619436264,0.049148991703987122,-0.032792240381240845,0.033934745937585831,0.010910375043749809,-0.042297322303056717,0.042022608220577240,-0.019956609234213829,-0.052735254168510437,-0.020082924515008926,0.067254416644573212,0.064291849732398987,-0.040734525769948959,-0.030983427539467812,-0.012226797640323639,0.058002680540084839,-0.017065325751900673,-0.010119495913386345,0.042800895869731903,-0.012479696422815323,0.043614953756332397,-0.002146202372387052,0.013560957275331020,0.000485910975839943,0.068815879523754120,-0.013891648501157761,-0.053075116127729416,-0.029328579083085060,0.108369857072830200,-0.004067003726959229,-0.019597839564085007,-0.026392841711640358,-0.038996271789073944,0.048852488398551941,0.042399521917104721,-0.093264877796173096,-0.057330179959535599,-0.014573834836483002,-0.011423362419009209,0.034853249788284302,-0.019245687872171402,0.012232495471835136,-0.010734762996435165,-0.039030853658914566,0.056125264614820480,-0.046536851674318314,-0.033143814653158188,0.033066302537918091,0.003460256149992347,-0.022716503590345383,-0.042785722762346268,0.007915970869362354,0.029020342975854874,-0.011184640228748322,0.009078598581254482,-0.041032176464796066,-0.060752622783184052,0.004353254102170467,-0.047073427587747574,0.026850091293454170,0.032360780984163284,0.009659188799560070,0.039106488227844238,0.034547254443168640,-0.037250030785799026,-0.043948847800493240,0.022949365898966789,-0.031097132712602615,-0.040803179144859314,-0.003397796070203185,-0.017385818064212799,0.008569226600229740,0.027050057426095009,0.024142185226082802,0.015086808241903782,0.041738014668226242,-0.036786340177059174,-0.027625098824501038,-0.025677269324660301,-0.029555538669228554,-0.002628597896546125,-0.003507704706862569,0.004191200248897076,-0.057972494512796402,0.027172556146979332,-0.038807384669780731,-0.014907066710293293,0.006239432375878096,-0.043305866420269012,-0.036615941673517227,0.040101230144500732,-0.033492837101221085,0.010287055745720863,0.004598815925419331,0.017281072214245796,-0.025274056941270828
0.019035791978240013,-0.059595301747322083,-0.028249224647879601,-0.034799605607986450,-0.039970796555280685,0.034911151975393295,-0.069405667483806610,0.019896879792213440,-0.012483067810535431,-0.007372849155217409,-0.001988311763852835,-0.007321172859519720,-0.027581665664911270,-0.015071531757712364,0.032417941838502884,0.005863789469003677,-0.039286486804485321,-0.125098824501037598,-0.031440731137990952,0.010596256703138351,0.039820309728384018,-0.038872402161359787,-0.032394308596849442,0.059599287807941437,-0.059121239930391312,-0.038746297359466553,0.032482668757438660,-0.050068583339452744,0.025442771613597870,-0.000483935116790235,0.001131601165980101,-0.026102598756551743,0.047690741717815399,0.056930512189865112,0.014857581816613674,0.030567966401576996,-0.027755517512559891,-0.069897919893264771,0.028612283989787102,-0.024680025875568390,0.020860986784100533,-0.028093060478568077,0.091512039303779602,0.032654009759426117,0.096274495124816895,-0.024799091741442680,-0.025125423446297646,0.003708770731464028,-0.015614220872521400,0.052139215171337128,-0.026740033179521561,-0.055877581238746643,0.030129069462418556,-0.017275951802730560,-0.071663983166217804,-0.022646581754088402,0.012430377304553986,-0.015515171922743320,-0.031134953722357750,0.034360621124505997,0.031351197510957718,-0.047869108617305756,-0.023065375164151192,0.062364682555198669,-0.005246836226433516,-0.009319649077951908,-0.029213555157184601,-0.048542536795139313,-0.000608201546128839,0.002897537313401699,-0.031775314360857010,-0.022944679483771324,0.032446190714836121,-0.020604737102985382,-0.038506917655467987,-0.064104758203029633,0.110478021204471588,-0.018662557005882263,-0.090931914746761322,-0.105568006634712219,-0.008475813083350658,0.001573733752593398,-0.002362427767366171,-0.007411400787532330,-0.035237412899732590,-0.012140420265495777,-0.021749924868345261,-0.025004846975207329,-0.075599335134029388,-0.017482284456491470,-0.028608411550521851,0.003267188556492329,0.000249289965722710,-0.013408715836703777,0.063971601426601410,-0.004363213665783405,-0.071230009198188782,-0.063577450811862946,0.025606339797377586,-0.002387773245573044,-0.050997320562601089,0.005941948387771845,-0.001182404696010053,-0.080889724195003510,0.012280247174203396,-0.057893656194210052,-0.008779990486800671,0.018141249194741249,-0.038162074983119965,-0.035830907523632050,-0.029391871765255928,0.008884144015610218,-0.083915658295154572,0.010226707905530930,0.010988021269440651,-0.010740431025624275,0.069008029997348785,0.005816415417939425,-0.047674722969532013,-0.003255758900195360,0.099255472421646118,-0.028029300272464752,0.104561179876327515,-0.097233735024929047,0.110399603843688965,-0.032847270369529724,0.024804174900054932,-0.030024360865354538
0.008770518936216831,-0.031801018863916397,-0.021817928180098534,-0.046141847968101501,-0.058625623583793640,0.028120772913098335,0.009761805646121502,0.000182715157279745,-0.043802604079246521,0.037111718207597733,0.037743505090475082,-0.074178427457809448,-0.059924464672803879,0.022812299430370331,0.072858907282352448,0.066272467374801636,0.039832174777984619,-0.090795852243900299,-0.020054131746292114,-0.015546202659606934,-0.000564006797503680,-0.029979355633258820,0.012720786966383457,0.114088453352451324,0.025227390229701996,0.011598509736359119,0.014219284057617188,-0.044607199728488922,0.058110710233449936,0.053944408893585205,-0.004854370374232531,-0.052696652710437775,0.011074411682784557,-0.005237298551946878,-0.056465867906808853,0.058625556528568268,0.003860157215967774,-0.013640145771205425,-0.028544316068291664,-0.023044060915708542,0.037488769739866257,0.002093835733830929,0.048639412969350815,0.053130056709051132,0.076757006347179413,-0.074005715548992157,-0.025371456518769264,0.030839137732982635,-0.016371358186006546,0.025970827788114548,0.013024736195802689,-0.015541892498731613,-0.053069643676280975,-0.037134181708097458,-0.062056008726358414,0.018041478469967842,-0.017633378505706787,-0.032385136932134628,0.010102069936692715,-0.036905359476804733,0.041764345020055771,-0.041796524077653885,0.005800248123705387,0.093811944127082825,0.016382072120904922,0.079230137169361115,-0.053796723484992981,0.028012333437800407,-0.038767393678426743,0.008692140690982342,0.037510920315980911,-0.005904608871787786,0.026345808058977127,0.008990188129246235,0.061311561614274979,-0.002027281094342470,0.024814715608954430,0.016204362735152245,-0.072106018662452698,-0.054697766900062561,0.050198696553707123,0.004655956290662289,-0.055317282676696777,-0.020385859534144402,0.012176260352134705,-0.001756408601067960,-0.033709347248077393,0.046018686145544052,0.011849655769765377,-0.053790371865034103,-0.016015587374567986,0.033199936151504517,0.039244242012500763,0.038232475519180298,0.083201095461845398,0.012471870519220829,-0.051694218069314957,-0.040502339601516724,-0.004512302111834288,-0.025633677840232849,-0.072795443236827850,0.031933318823575974,-0.013130845502018929,-0.004685349296778440,-0.027553884312510490,-0.010756336152553558,0.049360055476427078,-0.028832590207457542,-0.015946656465530396,0.000296562560833991,-0.001655164640396833,0.026347385719418526,-0.008163768798112869,-0.011770688928663731,-0.067878469824790955,-0.060599341988563538,0.017368262633681297,0.020749611780047417,-0.065577313303947449,-0.055516012012958527,0.074811302125453949,-0.032545611262321472,-0.011755647137761116,0.022794554010033607,0.040682718157768250,-0.021823830902576447,-0.054502677172422409,-0.002723890356719494
-0.023354135453701019,0.008167780935764313,-0.046705331653356552,-0.029442705214023590,-0.042070131748914719,0.014558741822838783,-0.026720141991972923,0.018978690728545189,0.025158932432532310,-0.006164745427668095,0.067404776811599731,-0.002266219118610024,-0.035652164369821548,-0.036738395690917969,0.076866157352924347,0.072011448442935944,0.047087065875530243,-0.045677501708269119,-0.045097157359123230,-0.065840654075145721,-0.025346802547574043,-0.057976953685283661,0.042396280914545059,0.046265956014394760,-0.022741347551345825,0.021238142624497414,0.001490158727392554,-0.026046028360724449,-0.040075816214084625,-0.002469090279191732,0.003443433903157711,-0.023719565942883492,0.023680642247200012,0.011255857534706593,-0.052486769855022430,0.050780128687620163,-0.060462564229965210,0.028487509116530418,-0.006769092753529549,0.004997903946787119,-0.047022871673107147,0.018388679251074791,0.012984799221158028,0.087060287594795227,0.069938264787197113,-0.036223873496055603,-0.065052278339862823,0.054232038557529449,0.013371155597269535,0.083349570631980896,0.025787202641367912,-0.078339681029319763,0.046789579093456268,0.024470133706927299,0.005417647305876017,0.033400859683752060,-0.055861990898847580,0.035222280770540237,-0.098208688199520111,-0.011641607619822025,-0.030269172042608261,-0.013080004602670670,-0.008270549587905407,-0.052251201122999191,-0.018406247720122337,0.076429724693298340,0.016734248027205467,-0.006726992782205343,0.006676381453871727,0.086346171796321869,0.001892108470201492,-0.020065525546669960,0.042315460741519928,-0.005278000608086586,-0.016806663945317268,0.012003937736153603,0.089831665158271790,-0.052747976034879684,0.018324015662074089,-0.065888829529285431,0.057498324662446976,-0.049610286951065063,-0.047835215926170349,0.028252262622117996,-0.028425941243767738,-0.032775219529867172,-0.033926405012607574,-0.043343026190996170,-0.052200116217136383,0.029344426468014717,-0.005907598882913589,0.018943032249808311,0.043868631124496460,0.008401061408221722,0.051767405122518539,0.032143063843250275,-0.082334749400615692,-0.010223716497421265,0.048431385308504105,-0.020412862300872803,-0.054362274706363678,0.054347768425941467,0.067185536026954651,-0.011420693248510361,0.029290225356817245,0.000835497688967735,0.004584486596286297,0.014372491277754307,0.018336262553930283,-0.001875462010502815,0.002057988895103335,0.032992791384458542,-0.054699774831533432,-0.002677054610103369,-0.069205082952976227,-0.010907137766480446,0.140712648630142212,-0.011872775852680206,-0.013273820281028748,-0.038463130593299866,0.021097272634506226,0.009739758446812630,0.034105062484741211,-0.056243576109409332,0.066159173846244812,0.051479544490575790,0.019810527563095093,-0.001161356922239065
-0.003743220120668411,-0.043154522776603699,0.020395195111632347,0.037852331995964050,-0.018290575593709946,-0.023290874436497688,0.008922769688069820,-0.049631550908088684,0.050012420862913132,0.069256760179996490,0.055849704891443253,-0.083118304610252380,-0.047888796776533127,-0.048789311200380325,0.034798484295606613,0.075306020677089691,-0.021113961935043335,-0.046560049057006836,-0.052426539361476898,0.035505212843418121,-0.056180413812398911,-0.052625823765993118,-0.052042864263057709,0.005123498383909464,-0.036015417426824570,0.036487609148025513,0.038062244653701782,0.026376595720648766,-0.034473307430744171,-0.026028191670775414,0.030138948932290077,-0.048428639769554138,0.018774978816509247,0.016309186816215515,0.019457487389445305,-0.013342645950615406,-0.063094906508922577,-0.023494832217693329,0.002533347345888615,-0.047791387885808945,-0.045753899961709976,-0.006038174033164978,0.033197674900293350,0.087265394628047943,0.009356576018035412,-0.052652981132268906,-0.033246960490942001,-0.008708400651812553,0.054480396211147308,0.007008669897913933,0.016415437683463097,-0.091437816619873047,-0.012343489564955235,-0.020056160166859627,-0.061024386435747147,0.052006237208843231,0.014394069090485573,-0.015391122549772263,-0.019965544342994690,-0.025607582181692123,0.039097998291254044,-0.014088992029428482,-0.001373724779114127,0.013469592668116093,-0.021594461053609848,-0.019798576831817627,-0.018351402133703232,-0.022365117445588112,-0.036813206970691681,0.013320344500243664,-0.010442111641168594,-0.008239600807428360,-0.013293023221194744,0.030153317376971245,0.012669792398810387,-0.001234310795553029,0.031767092645168304,-0.019625602290034294,-0.027454653754830360,-0.050134889781475067,-0.011874990537762642,0.040146023035049438,0.000797968183178455,-0.002942153252661228,-0.058200780302286148,-0.006649027112871408,0.000489769154228270,-0.069708548486232758,-0.023929290473461151,0.000068373730755411,-0.036478523164987564,-0.029241640120744705,0.036617558449506760,-0.038254451006650925,0.061967875808477402,0.043901238590478897,-0.027583656832575798,-0.062836669385433197,-0.014860327355563641,-0.018822740763425827,0.059245042502880096,0.025642309337854385,-0.037312332540750504,-0.035567745566368103,0.003967575263231993,-0.040670145303010941,0.038791611790657043,0.034809119999408722,-0.026419501751661301,0.034131951630115509,-0.081287674605846405,0.065668538212776184,-0.088299624621868134,-0.057419240474700928,-0.028300197795033455,-0.005531470756977797,0.022812440991401672,-0.017688060179352760,-0.092868313193321228,-0.017541557550430298,0.020111156627535820,-0.005640446208417416,0.032810207456350327,0.041220255196094513,0.079619258642196655,-0.033638998866081238,-0.018537975847721100,0.016252463683485985
-0.002874655649065971,-0.021160790696740150,-0.042852517217397690,-0.079036667943000793,-0.052954249083995819,0.011871349066495895,-0.072855785489082336,-0.048162322491407394,0.010124010965228081,0.049017660319805145,0.029682913795113564,-0.020672267302870750,0.019703524187207222,0.004230265971273184,-0.008272963576018810,0.023268114775419235,-0.069686166942119598,-0.115052096545696259,-0.090234428644180298,0.027865275740623474,0.061696931719779968,0.009116962552070618,0.049224253743886948,0.062143020331859589,-0.058694351464509964,-0.001480941195040941,0.064028963446617126,-0.061555776745080948,0.011664375662803650,0.047953512519598007,0.042573682963848114,0.031319182366132736,0.049819659441709518,-0.006985834799706936,-0.011184522882103920,0.099108330905437469,-0.009183388203382492,-0.020534843206405640,-0.012517873197793961,0.002290870528668165,-0.049326132982969284,0.017230808734893799,0.023047382012009621,0.026919968426227570,0.029990207403898239,-0.089157752692699432,0.045285116881132126,-0.027653669938445091,-0.055238477885723114,0.038376845419406891,-0.026054013520479202,-0.086253739893436432,0.039447836577892303,0.033619835972785950,-0.026012649759650230,-0.061236679553985596,-0.017736587673425674,-0.051628485321998596,-0.008701549842953682,-0.046482637524604797,-0.076640948653221130,0.012027951888740063,0.013941895216703415,-0.022404145449399948,0.034775909036397934,0.044310804456472397,0.004022683482617140,-0.055742334574460983,0.006316270679235458,-0.000216538683162071,-0.065003111958503723,0.043715022504329681,0.021101128309965134,0.009270494803786278,-0.002004010835662484,-0.104116812348365784,0.056295499205589294,0.018464297056198120,-0.052510228008031845,-0.127529263496398926,-0.026530880481004715,0.021822921931743622,0.023432601243257523,0.051160190254449844,-0.015654828399419785,-0.002521092537790537,-0.047688003629446030,0.046992715448141098,-0.049270916730165482,-0.032435785979032516,-0.029936030507087708,0.042543165385723114,-0.004220281727612019,0.028720803558826447,0.111686319112777710,-0.062408354133367538,0.011017427779734135,0.025105979293584824,0.043852984905242920,-0.035088889300823212,-0.050272136926651001,0.069864585995674133,0.018571998924016953,-0.010973817668855190,0.045531194657087326,-0.019696956500411034,0.074970424175262451,0.028751768171787262,0.002552039688453078,0.024670172482728958,-0.100513711571693420,0.043911222368478775,-0.113101534545421600,-0.109567575156688690,-0.080931067466735840,-0.076209582388401031,0.031689096242189407,-0.060189254581928253,-0.039252787828445435,-0.005963163916021585,0.048604849725961685,-0.017738597467541695,0.019466493278741837,-0.003959788475185633,0.024279480800032616,0.008714413270354271,0.013438160531222820,-0.086409583687782288
0.021608430892229080,-0.084782645106315613,-0.044412083923816681,-0.045168187469244003,-0.046052481979131699,-0.037311002612113953,0.000593048112932593,0.019812162965536118,-0.005481240339577198,0.054687660187482834,0.036152910441160202,0.014494472183287144,-0.005044518038630486,-0.033174231648445129,0.043148342519998550,0.041795302182435989,-0.042800877243280411,-0.075494512915611267,-0.041198804974555969,-0.020623533055186272,0.021721128374338150,-0.060682822018861771,0.021027233451604843,0.110213957726955414,-0.022448638454079628,-0.019014460965991020,0.040307532995939255,-0.016306940466165543,0.038034878671169281,0.015847852453589439,0.006114940624684095,0.010783639736473560,0.043425772339105606,0.034374803304672241,-0.012686849571764469,0.107571914792060852,-0.030988870188593864,-0.017674827948212624,-0.015106193721294403,0.054176375269889832,-0.028301546350121498,-0.021495454013347626,0.076606608927249908,0.018426310271024704,0.042843595147132874,-0.109008990228176117,-0.001440994790755212,0.044862411916255951,-0.050445508211851120,0.033950258046388626,-0.050481151789426804,-0.028311699628829956,-0.034498862922191620,0.003034544410184026,0.041062373667955399,-0.045712985098361969,0.021086746826767921,-0.000408043910283595,0.040358513593673706,-0.079083539545536041,0.055768828839063644,-0.034907530993223190,0.039120808243751526,0.113281898200511932,-0.014365078881382942,0.052504952996969223,-0.042658060789108276,-0.047774594277143478,0.007656319998204708,0.044326607137918472,-0.032080639153718948,0.057346601039171219,0.072886079549789429,-0.022623028606176376,-0.045929003506898880,-0.092839613556861877,0.073688298463821411,0.025090418756008148,0.007512385956943035,-0.034583818167448044,0.015019864775240421,-0.054047588258981705,0.012824312783777714,0.025225529447197914,-0.003694307757541537,-0.032254841178655624,-0.039587277919054031,0.051081281155347824,-0.022964430972933769,-0.041104622185230255,-0.096734061837196350,-0.015006986446678638,-0.006167971994727850,-0.017789538949728012,0.056204389780759811,-0.068705298006534576,-0.001083514653146267,0.013253936544060707,0.005892680957913399,0.037285558879375458,-0.089922867715358734,0.010275397449731827,0.026318537071347237,-0.090422898530960083,0.002005458809435368,0.003279813798144460,0.072215802967548370,0.003655860666185617,0.029115851968526840,0.051607422530651093,-0.047007638961076736,0.057423178106546402,-0.082878559827804565,-0.058196522295475006,-0.074149645864963531,-0.036270346492528915,0.079528510570526123,-0.080522216856479645,-0.080657884478569031,0.061902232468128204,0.041500587016344070,-0.045550148934125900,-0.009391755796968937,0.033808685839176178,0.057122588157653809,0.033105991780757904,0.005351038649678230,0.013426082208752632
-0.039965439587831497,0.012486052699387074,-0.016875268891453743,-0.053240541368722916,-0.002605025423690677,-0.035256411880254745,0.010509601794183254,-0.039930831640958786,0.030721105635166168,-0.014495065435767174,0.019018154591321945,-0.069271020591259003,0.013170320540666580,0.002299790969118476,0.033584333956241608,0.070541441440582275,0.038501422852277756,-0.033742118626832962,-0.004062051884829998,0.036841608583927155,-0.060604777187108994,-0.007613788358867168,-0.044905379414558411,0.001144107081927359,-0.059720963239669800,0.028370918706059456,-0.008856989443302155,-0.045894909650087357,0.006797933485358953,0.070929318666458130,0.030318517237901688,0.021683979779481888,0.002845293609425426,0.077930167317390442,-0.002063497435301542,0.083597905933856964,-0.011852460913360119,-0.042890306562185287,-0.033575773239135742,0.018213633447885513,-0.013903710059821606,0.024223558604717255,-0.026998626068234444,0.047692753374576569,0.092347398400306702,-0.016275174915790558,0.001707768766209483,0.018488602712750435,-0.025195378810167313,-0.004738302435725927,0.015360947698354721,-0.057688921689987183,0.053116515278816223,-0.052522778511047363,-0.040219735354185104,0.039151530712842941,0.014573281630873680,-0.041839588433504105,-0.061701375991106033,0.046620592474937439,-0.019386721774935722,0.041634410619735718,0.050358925014734268,0.002999323885887861,0.032364979386329651,0.086526624858379364,-0.076453268527984619,-0.031259249895811081,-0.002563288668170571,0.087103396654129028,0.025960460305213928,0.001330019324086607,0.072151929140090942,-0.021311318501830101,-0.003814940107986331,-0.023938218131661415,0.078908160328865051,-0.023197254166007042,-0.024269845336675644,-0.082652598619461060,-0.006807850208133459,-0.051352348178625107,-0.033354695886373520,0.029751572757959366,-0.046600028872489929,0.008625926449894905,-0.060417063534259796,-0.007662786636501551,-0.032967075705528259,-0.028205022215843201,-0.008722994476556778,-0.036574643105268478,-0.000943791237659752,0.005342040210962296,0.003441723994910717,0.011812375858426094,-0.067666389048099518,-0.033698033541440964,0.043014455586671829,-0.030448226258158684,0.001357897650450468,0.009244887158274651,0.077297247946262360,-0.084747761487960815,0.060667634010314941,-0.018596287816762924,0.036005027592182159,0.037888504564762115,-0.007722638081759214,0.017256014049053192,-0.024530146270990372,0.083140335977077484,-0.078791163861751556,-0.070747755467891693,-0.040474392473697662,0.016428960487246513,0.047471433877944946,-0.033786516636610031,-0.073944993317127228,-0.058729190379381180,0.042850855737924576,-0.015381718054413795,0.062407094985246658,0.022969931364059448,0.057242039591073990,-0.001196617493405938,-0.015308305621147156,-0.011253850534558296
-0.051243305206298828,-0.056381404399871826,-0.002309734234586358,0.018404191359877586,0.043669790029525757,-0.021566214039921761,-0.067887604236602783,0.034595776349306107,-0.054914180189371109,0.004573630169034004,-0.017250100150704384,-0.002548422198742628,0.004873920232057571,-0.074365772306919098,0.042388811707496643,0.015746552497148514,-0.060638323426246643,-0.008663698099553585,-0.037631534039974213,0.004916605539619923,0.037948906421661377,0.018740480765700340,0.077377460896968842,0.017897740006446838,0.022625517100095749,0.006612027063965797,-0.003739805193617940,-0.027740404009819031,-0.055519349873065948,0.028194606304168701,-0.013405809178948402,0.025878190994262695,-0.028850972652435303,0.004818376153707504,0.029279567301273346,0.042987171560525894,0.008686784654855728,-0.030200915411114693,-0.045302484184503555,-0.003449509851634502,-0.018823517486453056,0.032011087983846664,-0.019627850502729416,0.090287052094936371,0.035255111753940582,-0.073992550373077393,-0.005784863140434027,0.005038789939135313,0.011091289110481739,0.029154988005757332,-0.032776854932308197,-0.025625569745898247,-0.010643279179930687,0.054509613662958145,0.004921226296573877,0.009610189124941826,0.045389313250780106,0.019894316792488098,0.026639962568879128,0.007377881556749344,-0.085609585046768188,-0.055004291236400604,-0.035540357232093811,0.000819575914647430,0.031987547874450684,0.043370995670557022,0.051277790218591690,0.016020897775888443,-0.049047149717807770,0.007829940877854824,-0.001218523946590722,0.025921914726495743,0.063751280307769775,-0.024394920095801353,0.044821642339229584,-0.065210558474063873,0.044129725545644760,-0.043957449495792389,-0.021244646981358528,-0.098705194890499115,0.066790223121643066,-0.039079956710338593,-0.069383129477500916,0.035140972584486008,-0.023105008527636528,-0.001199339516460896,0.033271957188844681,-0.046059429645538330,-0.008960611186921597,-0.049371030181646347,0.030031519010663033,-0.013567575253546238,0.007454378530383110,-0.001926681841723621,-0.034643452614545822,0.008315296843647957,-0.026039699092507362,0.017922503873705864,0.000898350495845079,-0.006038770079612732,0.007825379259884357,-0.032749321311712265,-0.028821337968111038,-0.043610826134681702,-0.049307011067867279,-0.021296788007020950,-0.050556898117065430,-0.019459998235106468,0.017002297565340996,-0.006142009049654007,-0.023018378764390945,-0.011600216850638390,-0.117358639836311340,0.022401079535484314,-0.023417484015226364,0.030500633642077446,-0.004992707632482052,0.028914453461766243,-0.121202841401100159,-0.012993085198104382,0.061900213360786438,0.012764235958456993,0.058833211660385132,-0.053789023309946060,0.027705993503332138,0.048709712922573090,-0.017122672870755196,0.019163241609930992
-0.030380085110664368,-0.052150409668684006,-0.055011268705129623,-0.053842000663280487,-0.061025068163871765,-0.013503691181540489,-0.088092818856239319,-0.018761064857244492,-0.009371888823807240,0.090391680598258972,0.006479097995907068,-0.036884393543004990,0.016287421807646751,-0.065391518175601959,0.081251107156276703,0.045953944325447083,0.000342426646966487,-0.097155004739761353,-0.033917676657438278,-0.010352585464715958,0.060971774160861969,0.009216304868459702,0.066418483853340149,0.003786066314205527,0.030213722959160805,-0.017136255279183388,0.022669244557619095,-0.044438887387514114,-0.018151696771383286,-0.006853406783193350,-0.003235639072954655,-0.025141496211290359,0.073958389461040497,0.082799449563026428,-0.049172475934028625,0.057518303394317627,-0.068596579134464264,0.024544179439544678,-0.044583432376384735,0.035630512982606888,-0.012252778746187687,-0.057752016931772232,0.040626298636198044,-0.005925689358264208,0.094486616551876068,-0.096337422728538513,0.039019942283630371,-0.011341783218085766,-0.036713041365146637,0.017553066834807396,-0.053533781319856644,-0.010225798003375530,0.042410116642713547,0.033082392066717148,-0.051304932683706284,0.024681288748979568,0.020312311127781868,0.025619467720389366,-0.051165975630283356,-0.039977233856916428,-0.023421285673975945,-0.052103288471698761,0.029013874009251595,-0.017533974722027779,-0.003262787358835340,-0.007684469688683748,-0.011408984661102295,-0.048321038484573364,-0.056631527841091156,-0.003900038311257958,-0.009424527175724506,0.065207548439502716,0.004380981437861919,0.038122087717056274,-0.054716240614652634,-0.113221101462841034,0.048032637685537338,-0.059209439903497696,-0.040402751415967941,-0.033501110970973969,0.015465295873582363,-0.012846066616475582,-0.053202345967292786,-0.002073375741019845,0.050630506128072739,-0.060461722314357758,-0.013404281809926033,0.019513987004756927,-0.006363081745803356,0.000364324310794473,-0.094474203884601593,-0.024708118289709091,-0.034950301051139832,-0.011521333828568459,0.114676035940647125,0.028245981782674789,0.004836748819798231,-0.022562190890312195,0.041831791400909424,-0.009402957744896412,-0.045842260122299194,0.051501877605915070,0.002529806224629283,-0.060184441506862640,0.075324110686779022,0.007244969718158245,0.024298476055264473,-0.063514426350593567,0.023075146600604057,0.054050385951995850,-0.001053197542205453,0.079316399991512299,-0.092043347656726837,-0.105671651661396027,-0.061122823506593704,-0.062935061752796173,0.015421532094478607,-0.075045041739940643,-0.056488141417503357,0.074393913149833679,0.012458859942853451,-0.016520254313945770,0.014802441932260990,-0.024296864867210388,-0.000326889945426956,0.038134876638650894,0.041414752602577209,-0.034962512552738190
0.046024814248085022,-0.062009610235691071,-0.069460518658161163,-0.095536112785339355,0.029110232368111610,-0.005912402179092169,0.008333710953593254,-0.029997376725077629,0.055325776338577271,-0.032786320894956589,0.028638528659939766,-0.042713411152362823,-0.004214463289827108,-0.034284841269254684,0.013850240968167782,-0.019511591643095016,-0.002782805357128382,-0.137360796332359314,-0.049001764506101608,-0.021849060431122780,0.013413825072348118,-0.072192817926406860,0.021620918065309525,0.073793962597846985,-0.057014673948287964,0.039125677198171616,0.025137810036540031,-0.022286050021648407,0.081380017101764679,0.027236390858888626,0.043866310268640518,-0.026751283556222916,0.076387874782085419,0.118077777326107025,0.014643542468547821,0.086517542600631714,-0.055564936250448227,-0.009913370013237000,-0.044230606406927109,-0.013840049505233765,-0.031853180378675461,-0.005813002586364746,-0.020290611311793327,0.011628211475908756,-0.001282674260437489,-0.043679796159267426,0.014911471866071224,-0.061386156827211380,0.005927532911300659,-0.026838053017854691,0.016739748418331146,-0.038856718689203262,0.039771884679794312,-0.016908230260014534,-0.016077043488621712,-0.047146312892436981,0.023628611117601395,0.014536626636981964,-0.074673041701316833,-0.033250331878662109,-0.010992929339408875,0.042374067008495331,0.058691840618848801,-0.011376158334314823,0.059982538223266602,0.062035910785198212,-0.031869329512119293,-0.023954551666975021,-0.021437743678689003,-0.036134023219347000,0.016601197421550751,-0.038669403642416000,0.047991789877414703,0.025210563093423843,-0.048151656985282898,-0.097685858607292175,0.067245483398437500,0.005844908766448498,0.001511370181106031,-0.062775351107120514,0.034861046820878983,0.036704648286104202,-0.006984008941799402,0.021777104586362839,0.028753437101840973,-0.018405426293611526,-0.057400420308113098,0.045121148228645325,-0.050646971911191940,0.012685040012001991,-0.086885869503021240,0.008693533949553967,-0.017537133768200874,0.040016449987888336,0.020599629729986191,-0.069847092032432556,-0.035267885774374008,0.026845222339034081,0.010707232169806957,-0.007851950824260712,-0.022855240851640701,0.010367080569267273,0.040569223463535309,-0.100630328059196472,0.069009497761726379,-0.046689629554748535,-0.017167096957564354,0.010584857314825058,0.031331375241279602,-0.005691060796380043,-0.006355593912303448,0.071535065770149231,-0.037429980933666229,-0.009959774091839790,-0.039727143943309784,0.007924830541014671,0.033296935260295868,-0.021844040602445602,-0.093539535999298096,0.066270433366298676,0.028965210542082787,-0.051050670444965363,-0.025901548564434052,-0.005358238238841295,0.067776128649711609,0.044848144054412842,0.016863161697983742,0.010081193409860134
-0.053867176175117493,-0.067361332476139069,-0.033866237848997116,-0.045348290354013443,0.051309950649738312,-0.041213825345039368,-0.024116398766636848,0.000337777397362515,-0.009209170937538147,-0.019536597654223442,0.047308765351772308,-0.069728545844554901,-0.036055587232112885,-0.060246944427490234,0.051994144916534424,-0.001288510975427926,-0.052058488130569458,-0.057785362005233765,-0.034888297319412231,0.011056851595640182,-0.044407863169908524,-0.011995418928563595,0.047619614750146866,0.006135562434792519,-0.029278377071022987,-0.018470138311386108,-0.060191042721271515,-0.049012754112482071,0.032701730728149414,-0.004385291598737240,0.048734556883573532,-0.010730416513979435,0.053699415177106857,-0.018272800371050835,0.024452531710267067,0.053561065346002579,-0.027118502184748650,0.003228534711524844,-0.057378754019737244,-0.010332782752811909,-0.005003906320780516,-0.072590045630931854,0.052121028304100037,0.026652377098798752,0.054637312889099121,-0.002830606186762452,-0.011287860572338104,-0.077681221067905426,0.011819052509963512,-0.000911561597604305,0.040132798254489899,-0.056163709610700607,-0.040353629738092422,0.008769004605710506,0.001054407446645200,0.014040156267583370,-0.065771378576755524,-0.031631577759981155,-0.033166054636240005,-0.051303736865520477,-0.041039019823074341,-0.033897466957569122,-0.002878324594348669,0.013027248904109001,0.025340065360069275,0.061437077820301056,-0.049123007804155350,-0.008677833713591099,-0.014119316823780537,0.050455030053853989,0.029738413169980049,-0.012128899805247784,0.028141200542449951,-0.048020850867033005,0.021491451188921928,-0.064550131559371948,0.011341434903442860,0.007467889692634344,0.028451122343540192,-0.052191402763128281,0.036803387105464935,0.005161949899047613,-0.063019648194313049,0.090743660926818848,0.031567782163619995,0.049703978002071381,-0.074087560176849365,0.005297994241118431,-0.061499830335378647,0.026424061506986618,0.024264741688966751,0.037431750446557999,-0.023689432069659233,0.031275901943445206,-0.005417022388428450,0.038245335221290588,-0.016855938360095024,-0.011237877421081066,0.026890208944678307,0.006318356376141310,0.047396119683980942,0.036058180034160614,0.058068290352821350,-0.066642254590988159,0.061200242489576340,-0.048155356198549271,0.019988032057881355,-0.027304757386445999,-0.019325610250234604,0.020362127572298050,-0.052352052181959152,0.068005561828613281,-0.075789518654346466,0.003039300907403231,-0.060595691204071045,-0.014975368976593018,0.066418960690498352,-0.017546523362398148,-0.041619651019573212,-0.043972384184598923,0.047348540276288986,-0.005525160580873489,0.020396314561367035,0.034310441464185715,0.088905878365039825,0.029968174174427986,-0.025013692677021027,-0.018555372953414917
0.021721296012401581,0.009197455830872059,-0.028277672827243805,-0.031465001404285431,0.015599069185554981,-0.066840298473834991,-0.053029682487249374,0.026162752881646156,0.004220686852931976,0.069637194275856018,-0.026047188788652420,-0.003558501135557890,0.015528222545981407,0.007707762997597456,-0.018398618325591087,0.020119978114962578,-0.004169499967247248,-0.035556454211473465,-0.037853956222534180,0.009413024410605431,0.025455467402935028,0.011298851110041142,0.092713803052902222,0.020319808274507523,0.026200143620371819,-0.020342113450169563,0.008716686628758907,-0.040966682136058807,-0.009998624213039875,-0.022773260250687599,-0.001502639497630298,-0.047505978494882584,0.020573470741510391,0.061469182372093201,0.026937110349535942,0.002896874677389860,-0.056460291147232056,-0.004056818317621946,0.005525415763258934,-0.035897593945264816,0.004797064233571291,-0.024097299203276634,-0.044726684689521790,0.077492006123065948,0.039704341441392899,-0.011959697119891644,0.030465150251984596,-0.072075702250003815,-0.014958078041672707,-0.037798292934894562,0.049737442284822464,-0.028055317699909210,0.027620183303952217,-0.004667780827730894,-0.003000071970745921,0.018756687641143799,-0.048433661460876465,-0.030813181772828102,0.008197272196412086,-0.022328890860080719,-0.089592620730400085,0.031958032399415970,0.029714072123169899,-0.006452059838920832,0.033055998384952545,0.030023727566003799,-0.038777064532041550,-0.032254852354526520,-0.029626658186316490,0.033836115151643753,0.055845357477664948,-0.004979033023118973,0.061251219362020493,-0.029928591102361679,-0.013290010392665863,0.004934957716614008,0.065095521509647369,-0.111926779150962830,-0.014446354471147060,-0.081039182841777802,0.060680303722620010,0.013519973494112492,-0.055040452629327774,0.055598672479391098,0.012806271202862263,-0.048340115696191788,-0.018640371039509773,0.038835871964693069,-0.070377394556999207,-0.081134334206581116,-0.018234517425298691,0.012944554910063744,0.010077000595629215,-0.021087704226374626,0.031316831707954407,0.029346704483032227,-0.048588648438453674,0.027600472792983055,0.037633921951055527,0.019855855032801628,0.015084853395819664,0.015139585360884666,-0.030350958928465843,-0.017273141071200371,-0.026513196527957916,-0.073315151035785675,-0.007749683223664761,-0.011749720200896263,-0.000337220466462895,0.013589246198534966,-0.026381351053714752,0.029858462512493134,-0.118255726993083954,-0.029964024201035500,-0.003575986716896296,-0.029894920065999031,0.049866653978824615,-0.068977929651737213,-0.073777288198471069,0.039790891110897064,-0.022303262725472450,0.005107912700623274,-0.015683626756072044,-0.025117943063378334,0.030536742880940437,0.087231203913688660,-0.034443546086549759,0.005963985808193684
0.066403359174728394,-0.056447654962539673,-0.080215640366077423,-0.054986212402582169,0.032048027962446213,-0.060710944235324860,-0.034805539995431900,0.007281593512743711,0.048567455261945724,0.059990037232637405,-0.036262571811676025,-0.064877733588218689,0.011102246120572090,-0.042278554290533066,0.017455844208598137,-0.040051985532045364,-0.002910485025495291,-0.059710457921028137,-0.070571772754192352,-0.038325969129800797,0.062903821468353271,-0.039957799017429352,0.000427737832069397,-0.019127311185002327,0.025056015700101852,-0.000115952643682249,0.046376507729291916,-0.069288015365600586,0.102242089807987213,-0.032662563025951385,-0.014881663024425507,0.010649138130247593,0.075495339930057526,0.031087277457118034,-0.031341794878244400,0.062197387218475342,-0.040955469012260437,0.016122357919812202,-0.019856499508023262,0.038959391415119171,0.013659630902111530,0.012628211639821529,0.020483944565057755,0.006311745848506689,0.046773381531238556,-0.033972147852182388,0.020972430706024170,-0.038394547998905182,0.013238708488643169,-0.039112500846385956,-0.034184716641902924,0.044104397296905518,0.019033016636967659,-0.022439690306782722,-0.008405831642448902,-0.048558641225099564,0.012844599783420563,0.019864985719323158,-0.055330924689769745,-0.062812879681587219,-0.066945537924766541,0.014526790007948875,-0.031287375837564468,0.044280692934989929,-0.004905672278255224,0.062243074178695679,-0.008196687325835228,-0.032406192272901535,0.015889791771769524,0.010382472537457943,0.027065368369221687,-0.003938361071050167,-0.056136429309844971,-0.024833962321281433,0.037625133991241455,-0.048600990325212479,-0.026044309139251709,-0.063161149621009827,0.003729609539732337,-0.089388005435466766,0.020204067230224609,0.012596859596669674,0.016999814659357071,0.006439589429646730,-0.037643786519765854,-0.041165366768836975,-0.040002889931201935,0.042881309986114502,-0.054382476955652237,-0.083302155137062073,-0.070595026016235352,0.038875948637723923,0.014819768257439137,0.021844420582056046,0.041849501430988312,-0.002613950753584504,0.003303048666566610,-0.017635859549045563,0.044803932309150696,0.062705382704734802,-0.030604010447859764,0.126599654555320740,0.069331854581832886,-0.054626140743494034,0.050800308585166931,-0.079406000673770905,0.087112523615360260,-0.045077241957187653,0.012645177543163300,0.052355755120515823,0.015246549621224403,0.012216846458613873,-0.077562168240547180,-0.010059026069939137,-0.036089662462472916,-0.073648005723953247,-0.051498673856258392,-0.021239245310425758,-0.055320952087640762,-0.002746278885751963,-0.021473621949553490,0.020049948245286942,-0.027961390092968941,-0.039365477859973907,-0.020160308107733727,-0.002077611163258553,-0.001671316917054355,-0.075227931141853333
0.063627116382122040,0.023557538166642189,-0.034580186009407043,-0.012504876591265202,-0.037537340074777603,-0.032160162925720215,-0.050030890852212906,-0.047964919358491898,-0.032519690692424774,0.019775198772549629,0.007209130097180605,0.021344352513551712,0.015803614631295204,0.007801788859069347,0.062345512211322784,0.011956824921071529,0.060226570814847946,-0.106933385133743286,-0.012803635559976101,0.003873145906254649,0.006902225315570831,0.011956306174397469,-0.043573860079050064,0.005442330613732338,-0.056582823395729065,0.027544340118765831,0.009190992452204227,0.036347895860671997,0.020127033814787865,0.137688294053077698,0.019495811313390732,-0.013536565005779266,0.060021318495273590,0.087705351412296295,-0.015395982190966606,0.123051844537258148,-0.057289496064186096,-0.051061093807220459,-0.024356536567211151,-0.031240634620189667,-0.017498642206192017,-0.027321934700012207,-0.011597495526075363,0.009493737481534481,0.031943291425704956,-0.070877268910408020,0.013081510551273823,-0.059599850326776505,-0.025823619216680527,-0.003455671481788158,0.055800221860408783,0.001254743663594127,0.074471198022365570,-0.046628784388303757,0.001467348891310394,0.044147104024887085,-0.085360102355480194,-0.014755068346858025,0.021860703825950623,0.041656970977783203,-0.103048391640186310,0.043054606765508652,-0.026751071214675903,0.001515934593044221,0.008036275394260883,0.001703683636151254,-0.066477678716182709,-0.043373182415962219,0.000535798259079456,0.019886791706085205,0.059316374361515045,0.042981676757335663,0.018581686541438103,0.023117786273360252,-0.053052227944135666,-0.067706838250160217,0.069872096180915833,-0.009026693180203438,0.070132680237293243,-0.038216672837734222,0.052323482930660248,-0.023478768765926361,-0.037500862032175064,-0.057732645422220230,0.027634026482701302,0.017421215772628784,-0.059003833681344986,0.032752357423305511,-0.038848981261253357,0.025643428787589073,-0.056090172380208969,0.006569558288902044,0.012669792398810387,0.039922669529914856,0.017206100746989250,0.047394674271345139,0.000795517873484641,-0.006231886800378561,-0.024590322747826576,-0.051091101020574570,-0.090787865221500397,0.078383378684520721,0.047787256538867950,-0.039339788258075714,0.149337798357009888,-0.022120609879493713,-0.069886587560176849,-0.026775965467095375,-0.025742044672369957,-0.043347887694835663,0.025267314165830612,-0.002115665236487985,-0.083035178482532501,-0.067738018929958344,-0.028713660314679146,-0.069313637912273407,0.081174977123737335,-0.055156487971544266,-0.097480274736881256,0.056225627660751343,0.006159459706395864,-0.016572391614317894,-0.071263045072555542,0.057696215808391571,0.039434257894754410,-0.014357693493366241,0.016513211652636528,0.015119791962206364
0.024111222475767136,-0.028716901317238808,-0.019652556627988815,-0.053422972559928894,0.023220477625727654,-0.006627415772527456,0.006522603332996368,-0.033231217414140701,0.066641762852668762,0.024131461977958679,0.020681293681263924,0.007241780869662762,0.047088894993066788,0.007350743282586336,0.047375380992889404,-0.024645106866955757,-0.045715570449829102,-0.037671502679586411,-0.056399002671241760,-0.049960132688283920,-0.054099716246128082,0.019098486751317978,-0.036335457116365433,-0.011231128126382828,0.004963081330060959,0.051648218184709549,0.018284324556589127,-0.040298659354448318,0.054980508983135223,-0.007638529874384403,0.000033850432373583,-0.015361240133643150,-0.012715076096355915,-0.016461499035358429,-0.004712348803877831,0.074119366705417633,0.041886150836944580,-0.029807990416884422,0.019367018714547157,0.017656166106462479,-0.001905223121866584,0.009015059098601341,0.021421071141958237,0.048289235681295395,-0.007892393507063389,0.010197830386459827,0.039189439266920090,-0.042054794728755951,-0.044264588505029678,-0.042882118374109268,0.003903317498043180,-0.027282416820526123,-0.020475426688790321,-0.002181389136239886,-0.078362822532653809,-0.020113227888941765,-0.053212177008390427,-0.050506703555583954,-0.011311998590826988,0.032369282096624374,-0.089519590139389038,0.003362406976521015,0.015645628795027733,-0.032756902277469635,0.046882502734661102,0.009866295382380486,0.010298604145646095,-0.024949239566922188,0.013435032218694687,-0.013855373486876488,0.039579052478075027,-0.007150351069867611,0.051795978099107742,-0.054882302880287170,-0.052936807274818420,-0.022089309990406036,0.084926143288612366,-0.055582933127880096,0.025012766942381859,-0.024161726236343384,0.022296141833066940,0.021240888163447380,-0.079122327268123627,0.072974301874637604,-0.037859607487916946,-0.024047501385211945,-0.018000727519392967,-0.031393039971590042,-0.074581302702426910,0.037723839282989502,-0.040305521339178085,-0.007494287565350533,-0.044440101832151413,0.042099852114915848,-0.000090210844064131,-0.051574181765317917,-0.018182206898927689,-0.040984749794006348,0.058257173746824265,0.015552063472568989,0.053663857281208038,-0.014181100763380527,-0.018056521192193031,-0.031046975404024124,0.094026975333690643,0.004751123487949371,-0.003489208640530705,0.027462450787425041,-0.005661483388394117,0.006060138810425997,-0.026808738708496094,0.032884817570447922,-0.040597934275865555,-0.066412068903446198,-0.049088403582572937,-0.085620328783988953,-0.064901359379291534,-0.014969760552048683,-0.079324558377265930,-0.034224826842546463,-0.015962436795234680,-0.048801504075527191,-0.030359419062733650,-0.016968933865427971,0.080058254301548004,-0.026669654995203018,0.040094196796417236,-0.009535504505038261
-0.041502259671688080,-0.072072573006153107,-0.009160165674984455,0.020731734111905098,0.013435036875307560,0.039064839482307434,0.022796431556344032,-0.035707090049982071,-0.032551791518926620,-0.036511711776256561,0.035253897309303284,-0.051161773502826691,0.012984141707420349,-0.005566574167460203,0.014393463730812073,-0.045411899685859680,0.007747015450149775,-0.057421788573265076,-0.044658683240413666,-0.024784225970506668,0.047236677259206772,-0.029730563983321190,-0.007277370430529118,-0.006691042333841324,0.011976688168942928,-0.038012206554412842,-0.022571133449673653,-0.040154606103897095,0.019177725538611412,0.009615988470613956,-0.006009113043546677,-0.021307010203599930,-0.009486122988164425,0.037056338042020798,0.037716757506132126,0.011036211624741554,0.009116225875914097,0.050145689398050308,-0.018366539850831032,0.005354937631636858,0.060588859021663666,0.004144415259361267,0.048007350414991379,0.030409328639507294,-0.030555792152881622,-0.003089671488851309,0.026692826300859451,-0.026673603802919388,0.013841377571225166,-0.049554575234651566,-0.021765923127532005,0.052438784390687943,-0.011844824999570847,-0.028858566656708717,-0.007580682169646025,-0.018838433548808098,-0.045313991606235504,0.030635476112365723,-0.044255483895540237,-0.026823781430721283,0.001223527011461556,0.036285184323787689,-0.053089469671249390,0.064524047076702118,0.066854782402515411,-0.016216060146689415,0.020700613036751747,0.022513885051012039,-0.048546656966209412,0.014058404602110386,-0.028557512909173965,-0.005048045888543129,0.033415969461202621,-0.022303761914372444,0.042767912149429321,-0.083719439804553986,0.016884034499526024,-0.073757849633693695,0.022334896028041840,0.007686150725930929,-0.028039107099175453,0.011579570360481739,-0.030833972617983818,0.018789105117321014,-0.065698921680450439,-0.024950180202722549,-0.021499993279576302,-0.020887350663542747,-0.029352968558669090,-0.098264276981353760,-0.024673946201801300,0.038517724722623825,0.043526437133550644,-0.010715767741203308,-0.053371395915746689,-0.007580514997243881,-0.055581506341695786,0.047418382018804550,0.055419929325580597,-0.035516884177923203,0.019060747697949409,0.058294937014579773,0.024441998451948166,-0.090574443340301514,0.028719911351799965,-0.021654909476637840,-0.035706881433725357,-0.075826741755008698,0.048813309520483017,0.013034036383032799,-0.041697762906551361,0.046336896717548370,-0.073934756219387054,-0.056621324270963669,0.053573854267597198,-0.027758896350860596,-0.057086568325757980,-0.064664043486118317,-0.070934288203716278,0.019257429987192154,-0.005224316846579313,0.042963061481714249,-0.016884291544556618,0.035268671810626984,-0.022824149578809738,0.023472089320421219,0.026560792699456215,-0.046760417520999908
0.031813651323318481,-0.055334452539682388,-0.066222123801708221,-0.001532771158963442,-0.042650602757930756,0.026474289596080780,-0.008971902541816235,-0.031321141868829727,0.056070882827043533,-0.017830029129981995,0.004197906237095594,-0.017904041334986687,-0.007176030427217484,0.012451146729290485,-0.039407793432474136,-0.021769905462861061,0.019973434507846832,-0.095573626458644867,0.020372033119201660,-0.015843866392970085,0.003663512878119946,-0.017195980995893478,-0.022449407726526260,0.059694245457649231,0.001875121495686471,0.015489135868847370,0.042645487934350967,-0.077736213803291321,0.099535442888736725,-0.029582919552922249,0.004594562109559774,-0.015101951546967030,-0.030260117724537849,0.021800968796014786,0.010246926918625832,-0.031381841748952866,0.004582235123962164,-0.034109573811292648,0.001618248294107616,0.003495220793411136,0.075483001768589020,0.046712927520275116,0.093669854104518890,0.029542785137891769,0.040833819657564163,0.001215021125972271,-0.030243925750255585,0.020454155281186104,-0.026196483522653580,-0.045565068721771240,-0.003681509988382459,-0.003555894829332829,0.043526001274585724,-0.046198327094316483,-0.020108019933104515,0.024035183712840080,0.014494496397674084,-0.010872127488255501,0.026471327990293503,0.019326750189065933,-0.061146009713411331,-0.043921206146478653,0.005242882296442986,0.042112097144126892,0.044761121273040771,0.056976016610860825,0.030836446210741997,-0.034121949225664139,-0.058075431734323502,-0.002916516503319144,-0.036237083375453949,0.085864260792732239,0.007789955008774996,0.002321317791938782,0.012225014157593250,-0.098393134772777557,-0.002020744839683175,-0.064630299806594849,0.005077027715742588,-0.036881364881992340,-0.049787089228630066,-0.009970110841095448,-0.024321498349308968,0.003728643059730530,0.033741310238838196,-0.020628811791539192,-0.014178492128849030,0.075315378606319427,-0.002284375717863441,-0.062471657991409302,0.019962310791015625,0.011624810285866261,-0.010560693219304085,-0.034473501145839691,-0.004172152839601040,0.029066465795040131,-0.049685183912515640,0.056862570345401764,0.041715681552886963,0.087169751524925232,0.042999360710382462,0.083427958190441132,-0.028580464422702789,-0.067899711430072784,-0.042079973965883255,-0.038168545812368393,0.018887450918555260,0.035526860505342484,-0.021681556478142738,0.067690983414649963,-0.038385353982448578,-0.018181562423706055,-0.108625099062919617,-0.042621850967407227,0.048715367913246155,-0.063457019627094269,-0.080598503351211548,-0.019047938287258148,0.013006458990275860,0.062542490661144257,-0.040796045213937759,-0.029628127813339233,-0.083930946886539459,-0.027667468413710594,0.000402174569899216,-0.025855939835309982,0.010523869656026363,-0.024294976145029068
0.007879568263888359,-0.040790904313325882,0.012933011166751385,-0.045072499662637711,-0.021800134330987930,0.004130402579903603,-0.001601817552000284,-0.044636920094490051,-0.006326259113848209,-0.046605676412582397,-0.041299663484096527,0.057962995022535324,0.018014205619692802,-0.012326972559094429,-0.003685929812490940,0.054390534758567810,0.039300568401813507,0.000956746225710958,0.056730780750513077,0.025887764990329742,-0.080403126776218414,-0.083530820906162262,-0.027972882613539696,0.073590576648712158,-0.038490142673254013,0.041247081011533737,-0.025379758328199387,0.003724721260368824,0.102692492306232452,0.072656527161598206,0.041185110807418823,-0.048729676753282547,0.006347738206386566,0.031139107421040535,0.009269748814404011,0.076937951147556305,0.031266912817955017,-0.022996047511696815,-0.007884751074016094,-0.069678656756877899,0.078222632408142090,-0.017776397988200188,-0.002424758393317461,0.076136648654937744,0.024140423163771629,0.007783222012221813,-0.000260780332610011,-0.032734591513872147,-0.072756007313728333,0.053814109414815903,-0.005982300266623497,-0.031397823244333267,-0.039378888905048370,-0.025010216981172562,-0.021378295496106148,0.081541523337364197,-0.115007743239402771,-0.037026062607765198,-0.028114162385463715,0.020259629935026169,-0.046981140971183777,0.012295080348849297,0.023588240146636963,0.046493977308273315,0.018902253359556198,0.030958879739046097,-0.083647742867469788,-0.038959927856922150,-0.044312067329883575,-0.000391369976568967,0.035867549479007721,0.038733847439289093,0.022117737680673599,-0.034309603273868561,-0.014237201772630215,0.012454895302653313,0.125018000602722168,0.018235582858324051,0.031369075179100037,0.007567750755697489,0.045951969921588898,-0.045035049319267273,-0.118326872587203979,0.012716079130768776,-0.045422315597534180,-0.013619421049952507,-0.016301983967423439,0.057885520160198212,0.040595781058073044,0.014845246449112892,-0.005561187863349915,-0.021057548001408577,-0.014913091436028481,0.003794624935835600,0.015790512785315514,-0.007253574207425117,0.018033990636467934,-0.003004149766638875,-0.051908016204833984,-0.027272514998912811,-0.013354402966797352,0.057332247495651245,0.052594915032386780,0.015889966860413551,0.072757318615913391,-0.047244161367416382,0.046159502118825912,-0.030302457511425018,-0.019665604457259178,0.005145799834281206,-0.015629980713129044,0.096521824598312378,-0.013663562946021557,0.041385915130376816,-0.041366077959537506,-0.054723955690860748,-0.034907415509223938,0.023713782429695129,-0.016323262825608253,-0.017715215682983398,0.032622177153825760,-0.048880629241466522,-0.029511405155062675,-0.010453378781676292,0.125797837972640991,-0.081507690250873566,-0.049158401787281036,-0.026801953092217445
0.007694797124713659,-0.051144119352102280,-0.060641292482614517,-0.021651599556207657,0.051859669387340546,0.007198256440460682,-0.016516936942934990,-0.024554062634706497,0.091861240565776825,0.017703197896480560,-0.046598173677921295,-0.002024239860475063,0.009817987680435181,-0.018115010112524033,-0.025221817195415497,-0.005810617003589869,0.032312203198671341,-0.104911386966705322,-0.041720148175954819,0.023656249046325684,-0.009662816300988197,0.004055240657180548,-0.024213435128331184,0.049173329025506973,0.000075423085945658,-0.017399443313479424,-0.042587067931890488,-0.040496502071619034,0.073537714779376984,0.005688245408236980,0.001741909305565059,0.006100039463490248,-0.026449808850884438,0.033853415399789810,-0.018210504204034805,-0.004220065660774708,0.036597553640604019,0.003628899110481143,-0.005535852164030075,0.032095327973365784,0.066350638866424561,0.024113586172461510,0.017874144017696381,0.012472501024603844,0.069683462381362915,0.011727952398359776,0.010280651040375233,0.004359479527920485,-0.014961794018745422,0.011243740096688271,0.016367232427000999,0.020790213719010353,-0.044172473251819611,-0.037698760628700256,-0.057113658636808395,0.014451364055275917,-0.018157634884119034,-0.017350913956761360,0.003762730397284031,-0.010858659632503986,-0.078477889299392700,0.029257094487547874,-0.015763707458972931,0.053062759339809418,-0.021378826349973679,0.056351955980062485,-0.027561275288462639,-0.057479757815599442,0.007141617592424154,0.030456773936748505,0.038571130484342575,0.071108713746070862,-0.047377932816743851,-0.039503876119852066,0.016884263604879379,-0.033629186451435089,0.015924528241157532,0.035627130419015884,0.040163502097129822,-0.019470997154712677,-0.017695546150207520,-0.031844876706600189,-0.045205030590295792,0.130372956395149231,0.035488925874233246,-0.044806834310293198,-0.033547997474670410,-0.002739086514338851,-0.097864076495170593,-0.049124933779239655,0.038005374372005463,0.045342519879341125,-0.000393279537092894,0.047544829547405243,-0.026900945231318474,0.030394880101084709,-0.017306195572018623,-0.053528700023889542,0.059033770114183426,0.099937878549098969,-0.018374476581811905,0.033045671880245209,0.058946497738361359,-0.017974801361560822,0.008208727464079857,-0.032749325037002563,0.073133207857608795,0.011129511520266533,0.046621315181255341,-0.001588836545124650,-0.020011648535728455,0.006116400938481092,-0.055093321949243546,-0.010978519916534424,-0.026074336841702461,-0.077777475118637085,-0.039647288620471954,-0.076219029724597931,-0.003516519442200661,-0.043235085904598236,0.016091201454401016,-0.043253179639577866,-0.055418010801076889,-0.043793790042400360,0.034575838595628738,-0.000366612046491355,0.032470669597387314,-0.088127136230468750
0.001494507654570043,0.000678783690091223,0.007670674938708544,0.035940531641244888,0.010424599051475525,-0.007917545735836029,0.028298024088144302,-0.020049687474966049,-0.013338614255189896,-0.009493804536759853,-0.004621003754436970,-0.025313645601272583,-0.010315822437405586,0.005966844037175179,-0.029109539464116096,-0.001657922868616879,0.042136687785387039,-0.084239751100540161,-0.038128390908241272,-0.008348019793629646,-0.003714563557878137,0.001043489901348948,-0.001953855855390429,-0.023150907829403877,0.022969720885157585,0.018187681213021278,-0.040012601763010025,-0.028317349031567574,0.055777925997972488,0.032831870019435883,-0.004840062931180000,0.035048402845859528,0.011758523061871529,0.008782807737588882,-0.019301787018775940,-0.002603459171950817,0.024205710738897324,0.018287567421793938,0.025223702192306519,0.008650723844766617,0.034009814262390137,0.050063539296388626,0.036563660949468613,-0.002996330149471760,0.073656283318996429,0.014994530007243156,-0.024285731837153435,0.013782721944153309,0.041907522827386856,-0.028913937509059906,-0.021468752995133400,-0.026466546580195427,0.011759453453123569,0.024470277130603790,-0.050316538661718369,0.009580235928297043,-0.054151624441146851,-0.005462761037051678,0.022738948464393616,0.034356899559497833,-0.020647531375288963,0.005598165094852448,-0.025078363716602325,0.068031713366508484,0.022939246147871017,-0.020766898989677429,-0.041901424527168274,0.002416610252112150,0.006147829815745354,-0.021738937124609947,-0.041989400982856750,-0.018588159233331680,0.028127556666731834,0.033834658563137054,-0.000809594581369311,-0.082436084747314453,0.043988667428493500,-0.106994144618511200,0.016489489004015923,0.001940918969921768,0.039609201252460480,-0.025133298709988594,-0.017391221597790718,0.007142308633774519,-0.008597728796303272,-0.014757208526134491,-0.065632365643978119,0.038207296282052994,-0.073430553078651428,-0.114299416542053223,0.027231836691498756,-0.010344256646931171,-0.017314760014414787,-0.020170696079730988,0.005075924564152956,-0.009759242646396160,-0.041909981518983841,-0.030229022726416588,0.044408630579710007,0.012317403219640255,0.047202762216329575,0.029594205319881439,0.042050432413816452,-0.074238948523998260,0.026808667927980423,-0.066985584795475006,0.074004657566547394,0.017687706276774406,-0.004493677057325840,0.069939509034156799,-0.072179079055786133,0.025024343281984329,-0.137323334813117981,-0.055869329720735550,-0.007139614317566156,-0.013634982518851757,-0.125075265765190125,-0.018810616806149483,-0.000741808151360601,-0.022471101954579353,-0.022091813385486603,-0.040098480880260468,-0.040425881743431091,-0.019410606473684311,0.046033225953578949,-0.018845887854695320,0.031477801501750946,0.014649834483861923
0.056587129831314087,-0.008164574392139912,-0.012895184569060802,-0.004888569936156273,-0.040610905736684799,0.049533907324075699,-0.017565535381436348,-0.024055909365415573,0.087829612195491791,0.046862356364727020,0.015413880348205566,-0.028007315471768379,0.016637494787573814,0.017544781789183617,0.005934504326432943,-0.058528609573841095,-0.022157365456223488,-0.049067992717027664,0.016310842707753181,-0.032085876911878586,0.063678324222564697,-0.077088646590709686,-0.052126046270132065,0.059817727655172348,-0.077588468790054321,0.020368494093418121,0.016604557633399963,-0.003991063684225082,0.075479067862033844,0.008414794690907001,0.004493282176554203,-0.026102589443325996,0.058234244585037231,-0.065329350531101227,0.034780651330947876,-0.020143527537584305,-0.044244565069675446,-0.045673023909330368,0.102120667695999146,0.024639725685119629,0.075758896768093109,-0.027069056406617165,0.054024852812290192,0.020803615450859070,0.071656182408332825,-0.057099618017673492,0.070084877312183380,0.051874861121177673,0.006617783568799496,0.023103779181838036,0.017957385629415512,0.087910711765289307,0.046345274895429611,-0.041518840938806534,-0.081521287560462952,0.002770091407001019,-0.029250238090753555,0.014835116453468800,-0.020936083048582077,0.042097050696611404,-0.034712880849838257,0.017109878361225128,-0.042255688458681107,0.091471977531909943,0.005843414925038815,-0.006646542809903622,-0.001227112137712538,0.038828268647193909,-0.006104507017880678,0.020941268652677536,0.001458789687603712,0.018449882045388222,-0.049023736268281937,0.014690874144434929,0.031412396579980850,-0.006110757589340210,-0.020170029252767563,0.006036629900336266,-0.061882711946964264,-0.017333352938294411,-0.002048086607828736,0.005468143615871668,0.066611334681510925,0.056799471378326416,-0.043424054980278015,0.050639461725950241,0.006591852288693190,0.033605165779590607,0.008858353830873966,-0.042057108134031296,-0.015409636311233044,0.005251414142549038,0.015118482522666454,0.055205363780260086,-0.005199854262173176,-0.061869699507951736,-0.021804617717862129,-0.019471522420644760,-0.002115037990733981,0.102434113621711731,0.041269645094871521,0.077962800860404968,0.009876563213765621,-0.041264683008193970,-0.047621481120586395,0.013129081577062607,0.124316580593585968,0.000780937087256461,-0.014150617644190788,0.001771125593222678,-0.044855576008558273,-0.003345452016219497,-0.050340242683887482,-0.014795767143368721,0.036946661770343781,-0.073234200477600098,-0.100622229278087616,0.022330323234200478,0.084541969001293182,-0.033391274511814117,-0.023628940805792809,-0.045552864670753479,-0.014895072206854820,0.027750412002205849,0.058053106069564819,-0.041931685060262680,-0.039083480834960938,-0.011114553548395634
0.030799228698015213,-0.044572655111551285,-0.001604870543815196,-0.050554990768432617,-0.055668186396360397,0.041895288974046707,0.017563102766871452,-0.029946452006697655,0.020417355000972748,-0.028985990211367607,-0.065794929862022400,-0.034928493201732635,-0.007844938896596432,0.004282692912966013,0.027956204488873482,-0.033519133925437927,-0.002703285776078701,-0.007923200726509094,0.001763864071108401,0.021251402795314789,-0.060998607426881790,-0.027912771329283714,-0.024635734036564827,-0.044860854744911194,-0.003369576297700405,0.023360848426818848,-0.004209788050502539,-0.009453289210796356,0.091155461966991425,0.076885357499122620,0.020755389705300331,-0.047150906175374985,0.037865098565816879,0.011722990311682224,-0.034421097487211227,-0.010216968134045601,-0.026007134467363358,-0.036604978144168854,-0.005118544213473797,-0.004738054238259792,0.028598656877875328,0.066522561013698578,0.021099383011460304,0.051877792924642563,0.030671877786517143,0.031204290688037872,-0.047880910336971283,0.062993973493576050,-0.063710078597068787,0.009409639984369278,0.028352152556180954,0.013257666490972042,-0.038270235061645508,0.017890432849526405,-0.012989682145416737,-0.004210797604173422,-0.018020981922745705,0.015760555863380432,-0.042253118008375168,-0.012538433074951172,-0.024457395076751709,0.038570716977119446,0.024388927966356277,0.061719402670860291,0.010408876463770866,-0.037468124181032181,0.040337357670068741,-0.032513994723558426,-0.045558564364910126,0.073167532682418823,-0.027608318254351616,0.004400324542075396,-0.012519370764493942,-0.025404267013072968,0.028517549857497215,0.038403164595365524,0.050810817629098892,0.018382536247372627,0.032307531684637070,-0.006340612191706896,-0.015170836821198463,-0.052027158439159393,-0.026944682002067566,0.030558040365576744,-0.005266382358968258,0.013403852470219135,-0.024837249889969826,0.031771954149007797,-0.006281407084316015,-0.026487438008189201,0.014562871307134628,0.037938881665468216,-0.032914109528064728,-0.009002468548715115,-0.019505176693201065,-0.015694241970777512,-0.010719092562794685,-0.016182277351617813,0.002560400171205401,0.002700823592022061,0.025387419387698174,0.090024456381797791,-0.015365159139037132,-0.028617072850465775,0.062574639916419983,0.049689792096614838,0.011759872548282146,-0.021858084946870804,0.022523062303662300,0.052780736237764359,0.067128017544746399,0.006903359200805426,0.013118207454681396,-0.061564788222312927,-0.059558585286140442,0.031382787972688675,-0.020057624205946922,0.011526810936629772,0.037480868399143219,-0.045578043907880783,-0.007592219393700361,-0.010593784041702747,0.001425919588655233,-0.010905248112976551,0.044659726321697235,0.010911904275417328,-0.054075952619314194,-0.010629676282405853
0.059207733720541000,0.008850838989019394,-0.068954557180404663,0.005213675089180470,-0.051031477749347687,0.070932812988758087,0.053328964859247208,-0.041681189090013504,0.066367872059345245,0.013394091278314590,-0.038050871342420578,-0.034988638013601303,0.027005150914192200,-0.065848499536514282,-0.038143102079629898,0.021837027743458748,-0.018105622380971909,-0.015280471183359623,-0.045135572552680969,0.026716800406575203,-0.008015790954232216,-0.047712631523609161,-0.003612385364249349,0.066447935998439789,-0.045985978096723557,0.019398953765630722,-0.008830516599118710,0.000624621519818902,0.093545302748680115,-0.006946766283363104,-0.013536922633647919,-0.013117358088493347,0.059434723109006882,-0.038713052868843079,-0.018377389758825302,-0.012813134118914604,0.015337643213570118,0.002771214582026005,0.066989630460739136,0.040333356708288193,0.073150947690010071,-0.067584291100502014,0.043336097151041031,-0.042836081236600876,0.057680699974298477,-0.037724010646343231,-0.004702766891568899,-0.015219810418784618,-0.020822225138545036,-0.019511975347995758,0.027687447145581245,0.021974286064505577,-0.043869864195585251,-0.029759235680103302,-0.028305154293775558,0.007236468140035868,-0.031293578445911407,0.014545269310474396,-0.052103802561759949,0.015785949304699898,-0.049037218093872070,-0.021174710243940353,-0.046027291566133499,0.017709048464894295,0.034691765904426575,0.005282786674797535,-0.053731061518192291,0.040472801774740219,-0.066640712320804596,0.007891662418842316,-0.057809263467788696,0.067427739500999451,-0.050888281315565109,0.005436340346932411,0.071128115057945251,-0.032050944864749908,0.035836931318044662,0.006236336659640074,-0.029616340994834900,0.017729736864566803,-0.056464154273271561,0.001884203287772834,-0.067635796964168549,0.026947103440761566,-0.038916535675525665,0.023732965812087059,-0.048689831048250198,0.069002024829387665,-0.054321642965078354,-0.047258652746677399,0.019601298496127129,-0.003155261976644397,-0.048276361078023911,0.017293674871325493,-0.030914634466171265,-0.055291596800088882,0.002785565331578255,0.013794171623885632,-0.031394332647323608,0.023090669885277748,-0.002119352109730244,0.037509683519601822,0.030873481184244156,-0.058840658515691757,0.000077564385719597,0.022434776648879051,0.112963005900382996,-0.008722665719687939,0.000062682505813427,-0.001889441395178437,-0.007847634144127369,0.012125984765589237,-0.014750103466212749,-0.038812514394521713,0.023407252505421638,-0.104589022696018219,-0.083003252744674683,0.009347164072096348,0.058549553155899048,0.003743785433471203,0.002270168159157038,0.037197757512331009,-0.046250320971012115,-0.031441774219274521,0.089950695633888245,-0.003211047500371933,0.021273357793688774,-0.001379995839670300
0.015903789550065994,-0.004553426522761583,0.011888874694705009,0.052683781832456589,-0.010414246469736099,-0.024605654180049896,0.020247096195816994,-0.049446556717157364,0.038524270057678223,-0.028101827949285507,-0.043860990554094315,-0.005642311647534370,0.024880465120077133,-0.054184254258871078,0.028282862156629562,-0.040455825626850128,-0.006707721389830112,-0.068622075021266937,0.020381245762109756,0.000752382446080446,0.003116067731752992,0.029132600873708725,0.048378910869359970,-0.029439976438879967,-0.053808722645044327,0.000166947473189794,-0.027566775679588318,-0.010814547538757324,-0.014094511047005653,0.023850230500102043,0.046755127608776093,-0.016429511830210686,0.056984633207321167,-0.050841540098190308,0.017090508714318275,0.017848124727606773,-0.024890454486012459,-0.022788492962718010,0.003039062255993485,0.015500802546739578,0.039110902696847916,-0.039873756468296051,0.024590298533439636,0.042347513139247894,-0.013635198585689068,-0.046010557562112808,0.012335821054875851,0.021282996982336044,0.020526800304651260,0.026349753141403198,-0.034297548234462738,0.076480157673358917,-0.047032650560140610,-0.004736650269478559,-0.020309124141931534,-0.009875432588160038,0.069987833499908447,0.029993914067745209,0.054999537765979767,0.012592460028827190,-0.003867782186716795,-0.037705708295106888,0.031200671568512917,0.044583380222320557,-0.037967566400766373,0.044863272458314896,-0.051925700157880783,-0.006370586343109608,0.012596620246767998,0.034627530723810196,-0.070416614413261414,0.026512604206800461,-0.049103271216154099,0.042686726897954941,0.058200895786285400,-0.002035103738307953,-0.042897183448076248,-0.049971308559179306,-0.053229108452796936,-0.043501615524291992,0.000270549644483253,0.015078424476087093,0.006458217278122902,-0.007565890438854694,0.007615343201905489,0.031308755278587341,-0.020244603976607323,0.001174143981188536,-0.040078036487102509,-0.103543058037757874,0.014526165090501308,0.026419971138238907,-0.000268818141194060,0.029976285994052887,0.038406159728765488,-0.023224946111440659,0.014732398092746735,0.012377344071865082,0.061656475067138672,0.017360284924507141,0.016801130026578903,0.015314225107431412,0.012786212377250195,-0.049858752638101578,-0.019622068852186203,0.031203670427203178,0.015407226979732513,-0.049273103475570679,0.066360756754875183,0.011786872521042824,0.018066111952066422,-0.029141239821910858,-0.091035433113574982,0.018399953842163086,0.042534917593002319,-0.016802145168185234,-0.057878747582435608,0.009779052808880806,-0.017826376482844353,-0.065524786710739136,-0.002532162237912416,-0.053639173507690430,-0.006790171377360821,0.001860690768808126,0.061112590134143829,0.047719128429889679,-0.038440804928541183,-0.026902921497821808
-0.034774478524923325,-0.018364772200584412,-0.007033898029476404,-0.015599909238517284,-0.046906586736440659,0.001589139341376722,-0.013422114774584770,-0.037594255059957504,0.101555712521076202,0.048755679279565811,-0.066272452473640442,-0.003490415168926120,-0.057988349348306656,-0.039127707481384277,-0.042597334831953049,-0.029592825099825859,-0.075894840061664581,-0.085701480507850647,0.039448607712984085,-0.045268632471561432,0.039237722754478455,0.023065008223056793,-0.012819088064134121,-0.023875109851360321,-0.056930329650640488,0.014446659013628960,0.032950136810541153,-0.059429325163364410,0.022379452362656593,0.042339447885751724,0.003100725822150707,0.028311805799603462,0.064048610627651215,0.000680402852594852,-0.059845928102731705,-0.081586457788944244,-0.003638933645561337,-0.020477956160902977,0.095484070479869843,0.063158817589282990,-0.006115604657679796,0.036001339554786682,0.016776995733380318,-0.054702240973711014,0.078601464629173279,0.019938161596655846,0.057384621351957321,0.079605191946029663,0.018633205443620682,-0.008388126268982887,-0.032760117202997208,0.081271149218082428,-0.023104470223188400,0.019132882356643677,-0.080921649932861328,0.015984127297997475,0.081440597772598267,-0.020613560453057289,-0.044476002454757690,-0.044642176479101181,-0.051191754639148712,0.012904486618936062,0.037232279777526855,0.095950841903686523,0.045790918171405792,0.019189657643437386,-0.019760932773351669,-0.005315092392265797,-0.079063192009925842,0.004753150511533022,-0.097497776150703430,0.022702632471919060,-0.056299269199371338,-0.004527118522673845,0.100883208215236664,0.007854124531149864,-0.017099710181355476,0.018044795840978622,-0.093145892024040222,0.055226583033800125,-0.041857305914163589,0.001597966998815536,0.052123691886663437,0.009191803634166718,-0.038829527795314789,0.063596621155738831,-0.000059261459682602,-0.008655928075313568,-0.048749621957540512,-0.074070155620574951,-0.019364599138498306,-0.025361768901348114,-0.019512334838509560,-0.022765651345252991,0.054553501307964325,0.037243291735649109,-0.006008724216371775,-0.015602690167725086,0.036892786622047424,0.108889572322368622,-0.007390720304101706,-0.016252029687166214,-0.000480316492030397,-0.007954620756208897,-0.052623562514781952,-0.012784015387296677,0.110008835792541504,0.004466217942535877,0.048280429095029831,-0.023304911330342293,0.003916960209608078,-0.080909527838230133,0.030218204483389854,-0.037515204399824142,0.008112072013318539,0.007516663521528244,-0.064106337726116180,-0.027243558317422867,0.071319870650768280,0.008291669189929962,0.005297292023897171,0.027015471830964088,-0.077784642577171326,0.017794046550989151,0.023188902065157890,-0.022974874824285507,0.025673242285847664,-0.053613223135471344
-0.015154630877077579,0.008656786754727364,0.043577853590250015,0.025427751243114471,0.029025617986917496,0.010283384472131729,0.021585719659924507,-0.026252834126353264,0.027767676860094070,-0.001643854309804738,0.026821404695510864,0.004814833402633667,-0.027477478608489037,0.077312029898166656,0.026776066049933434,-0.045972328633069992,0.011252623982727528,-0.031175952404737473,0.059002831578254700,-0.018788728863000870,0.010649668984115124,-0.028419684618711472,-0.004152217879891396,0.032845951616764069,-0.015456819906830788,-0.021670443937182426,0.007416649255901575,-0.041493773460388184,0.062853649258613586,-0.014261459931731224,-0.015309715643525124,0.008802520111203194,0.032977849245071411,0.042743470519781113,0.025272918865084648,-0.061749320477247238,-0.059871207922697067,-0.015836140140891075,-0.013483783230185509,-0.032912302762269974,-0.026861663907766342,0.064573906362056732,0.007523327600210905,0.001567982719279826,0.029467796906828880,-0.007286524400115013,-0.008863265626132488,0.069924779236316681,0.000826683710329235,-0.057310800999403000,-0.017768781632184982,-0.054017081856727600,-0.029325043782591820,0.038346569985151291,0.025960510596632957,0.023710014298558235,0.015842590481042862,-0.047510694712400436,-0.058879327028989792,-0.003686808282509446,0.044612318277359009,-0.008236552588641644,-0.028583034873008728,-0.022057279944419861,0.029832668602466583,0.023724133148789406,0.004227677825838327,0.052472282201051712,-0.021400118246674538,0.013703697361052036,-0.007197083905339241,0.010503456927835941,-0.059239599853754044,0.009288090281188488,-0.007482593879103661,0.046320915222167969,0.021077081561088562,0.040880247950553894,-0.008567504584789276,0.022402783855795860,-0.075425967574119568,0.031943187117576599,-0.066564284265041351,0.057377394288778305,-0.010275795124471188,0.067875370383262634,-0.014415213838219643,-0.036759268492460251,-0.025239450857043266,0.029268510639667511,0.092624165117740631,-0.036164447665214539,-0.060673035681247711,0.051020830869674683,0.024269580841064453,-0.022755995392799377,-0.001850623753853142,0.024670120328664780,-0.051988650113344193,0.053722064942121506,0.015651483088731766,-0.005558573640882969,-0.015347968786954880,-0.033721879124641418,-0.014366577379405499,0.060895435512065887,0.052557654678821564,0.027278149500489235,-0.063961960375308990,0.052816130220890045,0.019633516669273376,0.027628207579255104,-0.058289188891649246,0.023115230724215508,-0.028914820402860641,-0.045676842331886292,-0.051603861153125763,0.001729756244458258,0.013997085392475128,-0.081256292760372162,-0.013965181075036526,-0.020345401018857956,0.025719771161675453,-0.011287299916148186,0.032766532152891159,0.004464872647076845,0.022916501387953758,0.055153705179691315
