-0.116332657635211945,-0.118900477886199951,0.120740309357643127,-0.182637989521026611,-0.212749168276786804,-0.013761376962065697,0.065159589052200317,-0.046919241547584534,0.079387873411178589,0.095943413674831390
-0.210478067398071289,0.157845422625541687,-0.200995951890945435,0.068312011659145355,0.120589002966880798,-0.097710452973842621,0.026075972244143486,0.088474802672863007,-0.208249613642692566,0.016855766996741295
0.135203972458839417,0.068928517401218414,0.032564043998718262,0.054221190512180328,-0.297453194856643677,0.004847469739615917,-0.060279544442892075,-0.167178973555564880,0.050560027360916138,-0.156296551227569580
-0.083445794880390167,0.122563742101192474,-0.048792328685522079,-0.020040266215801239,-0.155011206865310669,0.088857591152191162,0.172201514244079590,-0.062097951769828796,-0.064851611852645874,-0.362561672925949097
-0.066744230687618256,0.000741318333894014,0.044968768954277039,0.070002317428588867,-0.088901549577713013,-0.061554916203022003,-0.006628076545894146,-0.155464544892311096,0.062565319240093231,0.015177654102444649
0.001000171527266502,-0.115947812795639038,-0.021673496812582016,0.094156682491302490,0.040727753192186356,-0.078840874135494232,-0.159123659133911133,0.079520300030708313,0.020928455516695976,-0.040720384567975998
-0.102609008550643921,0.073606692254543304,-0.108015373349189758,-0.129875868558883667,0.130875125527381897,0.100313141942024231,-0.001401312183588743,-0.073787644505500793,0.050809871405363083,-0.013847128488123417
-0.074753716588020325,-0.094271831214427948,-0.053722690790891647,0.025336295366287231,-0.043633956462144852,-0.135024368762969971,-0.099881120026111603,0.019664898514747620,-0.022251008078455925,-0.026968440040946007
-0.029608689248561859,0.027930993586778641,0.127333745360374451,0.029437709599733353,-0.264401167631149292,0.050017662346363068,-0.055521909147500992,-0.020265704020857811,0.057410322129726410,-0.430914074182510376
-0.017423626035451889,-0.017313707619905472,-0.029379548504948616,-0.028228361159563065,-0.017082504928112030,0.003131392411887646,-0.013079583644866943,-0.001551484921947122,0.009225734509527683,-0.020356591790914536
-0.002966915024444461,-0.031430441886186600,-0.053725585341453552,-0.091243781149387360,-0.076812900602817535,-0.013917041942477226,-0.000217774402699433,0.020413924008607864,-0.028668746352195740,-0.006178779527544975
0.165384158492088318,-0.156983539462089539,-0.148989230394363403,-0.305816560983657837,-0.046413902193307877,0.097116328775882721,0.074727945029735565,0.115619763731956482,-0.197625339031219482,-0.007522025611251593
-0.202371448278427124,-0.025418706238269806,-0.027908734977245331,-0.007145840674638748,-0.223604485392570496,0.120040081441402435,0.081605248153209686,-0.071833781898021698,0.107407450675964355,-0.080519229173660278
0.019148310646414757,0.076972275972366333,0.043110396713018417,-0.184176906943321228,0.210374027490615845,-0.223725900053977966,-0.074985742568969727,0.048009265214204788,-0.023957433179020882,-0.010730703361332417
-0.114383839070796967,0.050222165882587433,0.180457040667533875,-0.067440919578075409,-0.104140512645244598,-0.109595671296119690,0.016501620411872864,-0.171110048890113831,-0.118769221007823944,-0.003745221532881260
-0.154373824596405029,-0.160661503672599792,-0.003604209516197443,-0.243842527270317078,0.130906194448471069,-0.329875260591506958,-0.244077712297439575,0.081397905945777893,-0.090705692768096924,-0.089533083140850067
0.093347147107124329,-0.023004401475191116,0.042826361954212189,0.000762109877541661,-0.114652112126350403,-0.017893636599183083,0.053122811019420624,-0.254342317581176758,0.105607151985168457,-0.036696847528219223
-0.072738446295261383,-0.066389329731464386,-0.075931504368782043,-0.132496729493141174,0.095347203314304352,-0.057241119444370270,-0.000966140767559409,0.022966921329498291,-0.043515611439943314,0.104874789714813232
0.062604919075965881,-0.020141022279858589,-0.080997727811336517,0.006825516466051340,0.166341736912727356,0.064054645597934723,0.059648152440786362,-0.177166044712066650,-0.167763099074363708,0.030523406341671944
0.154730305075645447,-0.073562517762184143,0.054307579994201660,0.028183493763208389,-0.176947221159934998,-0.050667226314544678,0.078351378440856934,-0.094091877341270447,0.050101250410079956,-0.028830669820308685
-0.062444437295198441,0.004251777660101652,-0.103860944509506226,-0.016081599518656731,-0.137983500957489014,-0.058101791888475418,-0.255516022443771362,0.038954284042119980,-0.124875970184803009,0.150322258472442627
0.020878115668892860,0.020183786749839783,0.019300794228911400,-0.034628935158252716,-0.044560492038726807,-0.008213847875595093,0.015155183151364326,0.031371138989925385,-0.041463229805231094,-0.018606655299663544
-0.125434309244155884,-0.016377672553062439,-0.106205381453037262,-0.103330828249454498,0.025183288380503654,0.063301727175712585,0.051060359925031662,-0.029258923605084419,0.084648743271827698,0.032108128070831299
0.087749101221561432,-0.076632805168628693,-0.095289260149002075,0.042887974530458450,-0.307641774415969849,0.077991560101509094,0.068273238837718964,-0.136692136526107788,0.135083392262458801,-0.016261892393231392
-0.110288962721824646,0.079886838793754578,-0.040382649749517441,0.010134822688996792,0.138280048966407776,-0.091582320630550385,-0.105332903563976288,0.098321177065372467,-0.163179829716682434,-0.081277109682559967
-0.029243636876344681,0.023393692448735237,0.002669807523488998,-0.010193349793553352,-0.006417209748178720,-0.004911764990538359,-0.046975519508123398,-0.020053457468748093,-0.033896449953317642,0.011181186884641647
0.101864650845527649,-0.035140652209520340,-0.178012266755104065,-0.068052075803279877,-0.349446862936019897,0.217439770698547363,-0.235675826668739319,0.113839589059352875,-0.113410674035549164,0.044741075485944748
-0.289967179298400879,-0.026202224195003510,-0.090603023767471313,0.090923853218555450,0.053737267851829529,-0.023647708818316460,-0.125960141420364380,-0.101877786219120026,0.090422376990318298,-0.032411511987447739
0.025523373857140541,0.006956716999411583,-0.024725992232561111,-0.014583081938326359,-0.032050661742687225,-0.042016819119453430,-0.005257978569716215,-0.045028857886791229,-0.006500192452222109,0.017176363617181778
-0.003851418849080801,-0.093978114426136017,-0.032444965094327927,-0.005358424037694931,-0.024062015116214752,0.010241344571113586,-0.016956936568021774,0.051938589662313461,0.003315921640023589,0.051117185503244400
0.129159256815910339,-0.047196943312883377,0.010930592194199562,0.252907603979110718,-0.284985572099685669,-0.087562464177608490,-0.210478276014328003,0.033550404012203217,-0.079154297709465027,-0.040444459766149521
0.089570797979831696,-0.122827701270580292,-0.118069693446159363,-0.175042346119880676,0.164741232991218567,-0.145166009664535522,-0.128756284713745117,0.078799352049827576,0.048603150993585587,0.041368309408426285
-0.021293034777045250,-0.123166456818580627,0.092343106865882874,-0.098441876471042633,0.017918424680829048,-0.048252098262310028,0.057042300701141357,-0.096343621611595154,0.117439672350883484,-0.393935054540634155
-0.175525099039077759,-0.056368086487054825,0.119853951036930084,0.057642888277769089,0.030501492321491241,-0.158676356077194214,0.032618194818496704,-0.053818956017494202,0.134123742580413818,-0.185669839382171631
-0.098252393305301666,0.113057643175125122,-0.061054974794387817,-0.157557189464569092,0.100325711071491241,0.008112790994346142,-0.015153343789279461,-0.009693698026239872,-0.099532119929790497,0.043778762221336365
0.039223257452249527,-0.058552447706460953,0.030307166278362274,-0.016899170354008675,-0.009931809268891811,-0.031045971438288689,-0.007275134325027466,0.069196641445159912,-0.057584889233112335,0.007550339214503765
-0.180509626865386963,0.108434438705444336,0.164473116397857666,-0.052584864199161530,-0.017365625128149986,-0.095961123704910278,-0.039684467017650604,-0.017952965572476387,-0.018554911017417908,-0.015189661644399166
0.136521995067596436,0.037764646112918854,-0.028291366994380951,-0.186195939779281616,0.026826422661542892,-0.025986896827816963,0.025015063583850861,-0.032094184309244156,0.097951643168926239,-0.146535158157348633
-0.293324351310729980,0.030143355950713158,-0.161493644118309021,-0.149204254150390625,-0.028494216501712799,-0.199068814516067505,-0.058250714093446732,0.105404764413833618,-0.156080320477485657,0.157269269227981567
-0.147018954157829285,-0.151525020599365234,0.135912910103797913,0.050924766808748245,-0.166229739785194397,0.122927524149417877,-0.097274221479892731,-0.063364334404468536,-0.119250856339931488,0.034206449985504150
0.111931473016738892,-0.171368286013603210,0.051755782216787338,-0.063528634607791901,-0.102418266236782074,-0.194010823965072632,0.033135712146759033,-0.121100276708602905,0.130495846271514893,0.032686952501535416
-0.263102263212203979,0.062262676656246185,0.150590643286705017,0.066189505159854889,-0.101139150559902191,-0.161809623241424561,-0.343768566846847534,0.130600407719612122,-0.096085868775844574,-0.327849626541137695
-0.181741863489151001,0.014266926795244217,-0.033905666321516037,-0.173513650894165039,0.079146616160869598,-0.040326490998268127,0.179406687617301941,-0.045294374227523804,-0.014957105740904808,-0.116660378873348236
-0.061564166098833084,0.023465039208531380,-0.046500802040100098,-0.187440142035484314,-0.250437915325164795,0.203823670744895935,0.148832932114601135,0.143378302454948425,-0.137764990329742432,-0.085254192352294922
0.107497625052928925,-0.211263120174407959,-0.132427394390106201,0.019893208518624306,-0.227973818778991699,0.132587239146232605,-0.013032999821007252,-0.122310541570186615,0.006909755058586597,0.055422279983758926
0.065329015254974365,-0.211000591516494751,-0.011967612430453300,0.088649198412895203,-0.171636879444122314,0.076496958732604980,0.104312919080257416,-0.339093625545501709,-0.021157279610633850,-0.237765803933143616
-0.140938147902488708,-0.036320008337497711,-0.138065502047538757,0.128056555986404419,-0.160321414470672607,-0.055214211344718933,-0.225344076752662659,0.089238040149211884,-0.071469545364379883,0.085622973740100861
-0.145716875791549683,-0.096606090664863586,-0.145090654492378235,0.038500413298606873,0.049054756760597229,0.052824690937995911,-0.168027639389038086,-0.174549534916877747,0.017469923943281174,0.114584796130657196
0.063558235764503479,0.081839591264724731,0.221313804388046265,-0.143948331475257874,0.012216153554618359,-0.104718640446662903,-0.244862198829650879,-0.043132688850164413,-0.269863903522491455,0.089102908968925476
-0.065491132438182831,-0.148735180497169495,-0.113624729216098785,0.204463288187980652,-0.303606390953063965,0.089741922914981842,0.053011279553174973,-0.186970725655555725,-0.176223605871200562,-0.153481513261795044
-0.061057265847921371,0.223325967788696289,-0.339083164930343628,-0.116711527109146118,-0.166277185082435608,0.121241860091686249,0.190143525600433350,-0.440961241722106934,0.081509828567504883,-0.113289080560207367
-0.031513065099716187,0.137549534440040588,-0.072465874254703522,0.171370685100555420,-0.017882641404867172,0.005827471613883972,0.077732332050800323,0.039334282279014587,-0.325627326965332031,-0.088266253471374512
0.011907506734132767,-0.047875296324491501,0.014253669418394566,0.019230438396334648,-0.009977173060178757,0.006158447824418545,-0.005213138647377491,-0.052541695535182953,-0.045118141919374466,-0.062818251550197601
0.064652279019355774,-0.107734590768814087,0.001698666368611157,-0.160332396626472473,0.104298271238803864,-0.091697961091995239,0.048212744295597076,-0.231292217969894409,0.064804702997207642,0.060155436396598816
0.096679724752902985,-0.135016396641731262,0.039701249450445175,0.033969745039939880,-0.109503559768199921,-0.030095322057604790,-0.115821413695812225,-0.016634164378046989,0.037375133484601974,0.103580005466938019
-0.086088925600051880,-0.131723120808601379,-0.141678720712661743,0.052426878362894058,-0.005422682967036963,0.080039761960506439,0.022365059703588486,-0.101376987993717194,0.069233946502208710,0.056509561836719513
-0.032137751579284668,-0.023315545171499252,-0.004231838043779135,-0.025875492021441460,0.033111415803432465,0.001740507432259619,-0.039623744785785675,0.010550070554018021,-0.044388525187969208,0.025545299053192139
-0.090740643441677094,-0.238072067499160767,0.074177227914333344,0.008616449311375618,0.079810343682765961,0.069434903562068939,0.129001080989837646,-0.026949273422360420,-0.139487802982330322,-0.107429884374141693
0.010647444985806942,-0.056116513907909393,0.020409161224961281,-0.027360610663890839,-0.032435715198516846,-0.000107224732346367,-0.045078322291374207,-0.060309272259473801,-0.012557359412312508,0.029875604435801506
-0.238284885883331299,0.008278449065983295,-0.001018517650663853,-0.305649518966674805,0.101701825857162476,-0.089597627520561218,-0.185651496052742004,-0.007879452779889107,0.079894661903381348,0.036198370158672333
0.037391718477010727,0.075451068580150604,-0.049434918910264969,0.020222991704940796,-0.060852047055959702,0.004994665738195181,-0.045439034700393677,-0.003180253552272916,0.075576983392238617,0.063543707132339478
-0.052020713686943054,-0.125741049647331238,0.011742084287106991,-0.167764589190483093,0.032573077827692032,-0.028464363887906075,0.145214051008224487,0.057854376733303070,0.157021626830101013,-0.031115340068936348
-0.305687189102172852,0.042079590260982513,0.138047128915786743,0.033387601375579834,-0.201609835028648376,0.056012548506259918,-0.135218337178230286,0.213238641619682312,-0.146909683942794800,-0.284171819686889648
-0.040734764188528061,-0.031437821686267853,0.025504421442747116,-0.015984212979674339,0.020269589498639107,0.022102247923612595,-0.019688596948981285,-0.028318310156464577,-0.009602167643606663,0.032070875167846680
-0.259789198637008667,0.157563328742980957,-0.039276681840419769,-0.031311735510826111,0.066746681928634644,-0.169379681348800659,0.073152504861354828,0.043962664902210236,-0.188838511705398560,-0.027472333982586861
0.017318563535809517,-0.002119534183293581,0.213726952672004700,-0.017345316708087921,-0.244491755962371826,-0.034071017056703568,-0.068538352847099304,-0.021467104554176331,-0.151823908090591431,-0.069401457905769348
0.122007682919502258,0.009677320718765259,0.103100046515464783,-0.041639801114797592,-0.210757270455360413,0.121211998164653778,-0.167710974812507629,0.041856095194816589,-0.170484021306037903,0.056466743350028992
-0.033877532929182053,0.096845917403697968,-0.030192393809556961,-0.019192166626453400,0.010428965091705322,0.023136746138334274,-0.010241772979497910,0.045190624892711639,0.020899834111332893,0.022109931334853172
-0.040803622454404831,-0.038826912641525269,-0.005226637236773968,-0.225444942712783813,0.111339576542377472,-0.178172662854194641,-0.118582502007484436,0.150928050279617310,-0.053497564047574997,0.020552169531583786
-0.022527294233441353,-0.317280441522598267,0.030210630968213081,0.002585335401818156,-0.012433521449565887,-0.022989129647612572,-0.230855032801628113,0.056835450232028961,0.065127030014991760,0.058400247246026993
0.023059887811541557,0.037478700280189514,0.004400003701448441,0.026125373318791389,-0.012452782131731510,0.017918787896633148,0.002979230135679245,0.006749690975993872,0.029609069228172302,0.008568640798330307
0.138257488608360291,-0.042655944824218750,-0.070477999746799469,-0.065922848880290985,-0.184954255819320679,0.004556073807179928,-0.167881339788436890,0.053236063569784164,0.128582730889320374,-0.057645194232463837
-0.189876660704612732,0.224134698510169983,-0.188907980918884277,-0.159655600786209106,-0.010512058623135090,-0.063043430447578430,-0.058401178568601608,0.086798109114170074,-0.137070134282112122,0.079195864498615265
-0.171595513820648193,0.082552991807460785,0.067163437604904175,0.184770643711090088,-0.148716315627098083,-0.139985933899879456,-0.325788319110870361,0.120385952293872833,-0.175330847501754761,-0.110514327883720398
-0.163197457790374756,-0.038601238280534744,0.098211355507373810,0.068278707563877106,-0.119897820055484772,0.070538014173507690,-0.212768942117691040,-0.035753212869167328,0.016013870015740395,-0.051498025655746460
0.059729963541030884,-0.091912277042865753,0.091858804225921631,-0.034929860383272171,-0.036471869796514511,-0.054705932736396790,0.043703045696020126,-0.390541434288024902,0.005268307868391275,-0.119606822729110718
-0.138738632202148438,-0.173477753996849060,-0.096289493143558502,-0.196871384978294373,-0.242345690727233887,0.231233388185501099,0.034748785197734833,0.178977549076080322,-0.152837485074996948,0.100219182670116425
-0.158785074949264526,0.158825784921646118,0.084710232913494110,0.048601038753986359,-0.105133652687072754,-0.073126100003719330,-0.214429557323455811,0.084233880043029785,-0.249695107340812683,0.058678243309259415
0.131206884980201721,-0.334862321615219116,-0.047628905624151230,0.081652231514453888,-0.196328595280647278,0.034853238612413406,0.006422318518161774,-0.189151540398597717,0.014419660903513432,-0.194349080324172974
-0.203728541731834412,0.172555446624755859,0.021292714402079582,0.046268347650766373,-0.032141026109457016,0.113506600260734558,-0.064971134066581726,-0.197682842612266541,0.061622638255357742,-0.032259624451398849
0.069689750671386719,-0.233470872044563293,0.043841578066349030,-0.092770658433437347,-0.100021660327911377,-0.047402359545230865,-0.110881760716438293,0.091827921569347382,-0.194312006235122681,0.142674043774604797
0.039584383368492126,-0.091547250747680664,0.002253591781482100,-0.194727450609207153,0.166860669851303101,0.117401920258998871,0.111608244478702545,0.091787852346897125,-0.067153222858905792,-0.279212892055511475
0.093145594000816345,-0.147901177406311035,-0.196294471621513367,-0.007590752560645342,-0.162862777709960938,0.051443211734294891,0.112237863242626190,0.077270731329917908,-0.139837205410003662,-0.105799354612827301
-0.035436373203992844,0.017650382593274117,-0.150292128324508667,0.021100521087646484,-0.215999826788902283,0.176267981529235840,-0.005661869421601295,0.121167145669460297,-0.103298127651214600,-0.039574701339006424
0.077725052833557129,0.064241677522659302,-0.355315685272216797,-0.233459144830703735,0.002918252721428871,-0.015754681080579758,0.183993741869926453,-0.254728347063064575,-0.063357718288898468,0.073914773762226105
0.105442315340042114,-0.332547664642333984,0.109450839459896088,-0.036406371742486954,-0.010543363168835640,-0.317127913236618042,0.018101006746292114,-0.071867227554321289,-0.119145229458808899,0.037751603871583939
-0.049903802573680878,-0.101206302642822266,0.095894604921340942,-0.058590367436408997,0.144098415970802307,-0.037721492350101471,-0.058303054422140121,-0.140791833400726318,-0.280777186155319214,0.089997589588165283
0.009459310211241245,-0.016068883240222931,0.059176098555326462,0.017625428736209869,-0.049417536705732346,-0.312336474657058716,-0.213288441300392151,-0.015917118638753891,0.083199076354503632,0.048525623977184296
-0.077514819800853729,0.163931652903556824,-0.042337574064731598,0.034053791314363480,0.013764208182692528,0.085385493934154510,-0.239714667201042175,-0.244166657328605652,-0.140189871191978455,0.045647732913494110
0.090821102261543274,0.119902573525905609,-0.227114811539649963,-0.212755918502807617,-0.045153208076953888,-0.103235214948654175,0.187096402049064636,-0.199230656027793884,-0.074150718748569489,0.025510871782898903
0.011326314881443977,-0.010515272617340088,-0.377608925104141235,0.110543906688690186,-0.047811731696128845,0.001317750080488622,-0.130996569991111755,0.049933899194002151,0.066224299371242523,0.054123390465974808
-0.023728258907794952,-0.026793640106916428,-0.001687082112766802,0.051571484655141830,-0.174036279320716858,-0.093681491911411285,0.132228434085845947,-0.056723698973655701,-0.050222378224134445,-0.222059786319732666
0.087290704250335693,-0.228196516633033752,-0.080826178193092346,-0.145504072308540344,-0.000164216558914632,-0.139420166611671448,-0.083922296762466431,0.309814959764480591,-0.161422222852706909,-0.124065838754177094
-0.083585977554321289,-0.089194498956203461,0.008896109648048878,0.041395753622055054,-0.194132626056671143,0.149012073874473572,0.067152641713619232,-0.166651189327239990,-0.132670834660530090,-0.091954104602336884
-0.015662848949432373,-0.237030789256095886,-0.240331575274467468,-0.203614801168441772,0.097748383879661560,0.100543297827243805,-0.149137288331985474,0.002989243483170867,-0.066812954843044281,0.121182143688201904
0.052033361047506332,0.091721504926681519,0.020604450255632401,0.001925826189108193,-0.315628349781036377,0.145249649882316589,-0.190678164362907410,-0.030374540016055107,-0.002323081716895103,-0.014398489147424698
-0.116938844323158264,0.171894341707229614,-0.295624762773513794,0.018184818327426910,-0.022212581709027290,0.088270373642444611,-0.164604648947715759,-0.121573753654956818,-0.137120112776756287,0.141878932714462280
-0.198208212852478027,-0.335999816656112671,-0.030599238350987434,-0.200752377510070801,0.084320604801177979,-0.035475555807352066,-0.304083257913589478,-0.049574289470911026,0.017077935859560966,0.140256494283676147
-0.161391660571098328,-0.104240693151950836,-0.059075649827718735,-0.121776238083839417,-0.017143927514553070,-0.053277838975191116,-0.226006478071212769,0.077606633305549622,-0.153014093637466431,-0.202502593398094177
0.008783319965004921,-0.069372534751892090,0.027232503518462181,0.038240324705839157,-0.093955159187316895,-0.016225188970565796,0.064224712550640106,-0.109418720006942749,-0.009657043032348156,0.067664742469787598
0.002866378054022789,0.058200530707836151,0.176388114690780640,-0.095005266368389130,0.071085788309574127,0.094523511826992035,-0.129898115992546082,-0.139910519123077393,-0.019076978787779808,-0.262130469083786011
0.007938734255731106,-0.068281732499599457,-0.079974427819252014,0.070244960486888885,-0.009028389118611813,-0.222010776400566101,-0.227193340659141541,0.051240764558315277,-0.197057679295539856,0.154931530356407166
-0.100362308323383331,0.053436595946550369,0.118261985480785370,0.152741253376007080,-0.280663043260574341,-0.200419813394546509,-0.247937515377998352,0.110387660562992096,-0.185258314013481140,-0.105732209980487823
-0.122970834374427795,0.132988646626472473,-0.381847977638244629,-0.257089018821716309,0.024974102154374123,0.002023014938458800,-0.087362676858901978,-0.053620997816324234,0.044328011572360992,0.025987351313233376
-0.233547791838645935,0.020831886678934097,-0.019602024927735329,0.053740732371807098,0.129662126302719116,0.040813382714986801,0.100056640803813934,-0.122425705194473267,-0.075281843543052673,-0.101507663726806641
-0.044728156179189682,-0.067085735499858856,-0.177631244063377380,0.134734094142913818,-0.107621923089027405,0.025574231520295143,0.013056502677500248,-0.143402680754661560,0.022017607465386391,-0.085921227931976318
0.013950054533779621,0.015189226716756821,0.192651912569999695,-0.148186832666397095,-0.321616709232330322,-0.228568106889724731,0.017449541017413139,0.167586684226989746,0.032161772251129150,-0.376962840557098389
-0.072588175535202026,-0.044963978230953217,-0.085199236869812012,-0.070863030850887299,0.179289624094963074,-0.029880747199058533,0.203966051340103149,0.006653545424342155,0.006299975793808699,-0.139992952346801758
-0.308769524097442627,0.037675358355045319,-0.270051062107086182,-0.228230401873588562,0.054435048252344131,0.212395742535591125,0.156424000859260559,-0.112132020294666290,-0.068258062005043030,0.048579711467027664
-0.211326658725738525,-0.151181519031524658,-0.106210477650165558,0.168189004063606262,-0.160993680357933044,0.096145235002040863,-0.111784704029560089,-0.135542333126068115,-0.083265483379364014,-0.124451033771038055
0.128954991698265076,-0.002409867243841290,0.121487542986869812,-0.093295708298683167,0.163349092006683350,-0.043133072555065155,-0.128038167953491211,0.095800668001174927,-0.253113448619842529,-0.198317661881446838
-0.218763723969459534,-0.031242813915014267,-0.023251201957464218,-0.137774839997291565,0.139787122607231140,-0.036897972226142883,-0.245558142662048340,0.117997378110885620,0.098744444549083710,0.075163252651691437
0.203970178961753845,0.103581137955188751,-0.010571824386715889,-0.164193034172058105,-0.204474642872810364,-0.146492630243301392,-0.003940922673791647,-0.015303894877433777,-0.001952679711394012,-0.120015799999237061
-0.121893070638179779,-0.076111510396003723,0.065796613693237305,0.019550217315554619,-0.129572108387947083,-0.059606757014989853,-0.198855474591255188,0.010664710775017738,0.103546336293220520,0.043655917048454285
-0.177064016461372375,0.071715585887432098,0.066225565969944000,-0.159026637673377991,-0.004118265584111214,-0.168614536523818970,0.023252138867974281,0.186129197478294373,-0.042165081948041916,-0.160167723894119263
0.017599901184439659,-0.028249600902199745,0.021358041092753410,0.001650160178542137,-0.052618961781263351,0.016410415992140770,0.048987276852130890,-0.000951273366808891,-0.025960201397538185,0.034968622028827667
0.062666714191436768,-0.208137720823287964,-0.259023129940032959,0.011380969546735287,-0.188512772321701050,0.091916836798191071,0.093323849141597748,-0.053162731230258942,-0.069132164120674133,0.144859477877616882
-0.291059553623199463,-0.112720310688018799,-0.137243688106536865,0.204738765954971313,0.106434881687164307,0.013925998471677303,-0.266783237457275391,0.021788729354739189,-0.079660639166831970,0.069560185074806213
0.028101082891225815,-0.102996803820133209,-0.008523162454366684,0.039194241166114807,0.060251571238040924,-0.096294663846492767,-0.151832729578018188,-0.125191375613212585,0.075376011431217194,0.069722808897495270
-0.087228074669837952,0.163078516721725464,-0.221831589937210083,-0.128046587109565735,0.171232625842094421,-0.095362760126590729,-0.051111944019794464,-0.023626284673810005,0.056611824780702591,-0.151139497756958008
0.027746472507715225,-0.042449373751878738,0.149206936359405518,-0.045359019190073013,-0.213444992899894714,-0.179610460996627808,-0.024388916790485382,0.062002535909414291,-0.151263132691383362,0.079233981668949127
-0.100792676210403442,0.132009714841842651,-0.127277225255966187,0.124959975481033325,-0.044508792459964752,0.119323402643203735,0.120820574462413788,-0.162037730216979980,-0.335141360759735107,-0.462931215763092041
-0.139258563518524170,0.025551818311214447,-0.059699539095163345,-0.138339057564735413,-0.053769268095493317,-0.097529247403144836,0.021994911134243011,0.090914241969585419,-0.064236611127853394,-0.005236476194113493
0.028526892885565758,-0.032490029931068420,-0.040033306926488876,-0.041408535093069077,0.025338713079690933,-0.009829961694777012,-0.016087308526039124,0.028976717963814735,-0.041416998952627182,-0.052143521606922150
-0.108357578516006470,0.039256598800420761,-0.044720146805047989,0.193568676710128784,-0.164468199014663696,-0.013451288454234600,-0.150729045271873474,0.155820503830909729,-0.076014541089534760,-0.218060269951820374
0.124873131513595581,-0.221269056200981140,-0.063964121043682098,-0.188390687108039856,-0.099703781306743622,0.027820385992527008,0.116023473441600800,-0.084060862660408020,-0.029051212593913078,-0.043221510946750641
0.038543324917554855,-0.185712188482284546,0.107771717011928558,-0.194277122616767883,0.051529947668313980,-0.238457292318344116,-0.039579659700393677,0.093342103064060211,-0.247713357210159302,0.090135596692562103
0.019847709685564041,0.116758234798908234,0.122586712241172791,0.044233057647943497,-0.171691685914993286,-0.044653329998254776,-0.035488195717334747,-0.028327213600277901,0.020794620737433434,0.019991157576441765
