-0.006385743152350187
0.004544424358755350
0.001356401597149670
-0.004383436869829893
0.002629426540806890
-0.008260731585323811
0.005575814284384251
-0.000477470923215151
-0.008182577788829803
0.006046903319656849
0.000314256438286975
0.005565394181758165
0.002255558036267757
0.002570462878793478
-0.003087657969444990
0.004049448762089014
0.001159596489742398
0.000946035841479897
0.007528026588261127
-0.006043029017746449
0.002428895793855190
-0.001279576565138996
-0.004618843551725149
-0.004640917759388685
0.002165477955713868
-0.002801210386678576
-0.006025854032486677
-0.004837339743971825
0.001762733212672174
-0.001605371828190982
0.000813856313470751
-0.007360290735960007
0.008242874406278133
-0.000891749572474509
0.000280121515970677
0.003053647233173251
0.004813635721802711
0.004976520780473948
0.005397813860327005
0.001436497317627072
-0.000369879766367376
-0.007737075909972191
-0.005782257765531540
-0.004573802463710308
-0.007155282422900200
-0.002631949726492167
-0.000364791805623099
0.000775153748691082
-0.000766840414144099
-0.000613373413216323
-0.000190022867172956
-0.007359739392995834
0.003064183285459876
-0.003198783146217465
-0.000324205495417118
-0.000696111179422587
0.000484652176965028
-0.002947991481050849
-0.004735334776341915
0.008439747616648674
0.005752857774496078
-0.006354766897857189
0.004200666211545467
0.008752396330237389
-0.007003287319093943
-0.002114100614562631
-0.003538174321874976
-0.005188850685954094
-0.006573943421244621
-0.005689238663762808
-0.005361535120755434
0.001981667475774884
0.000019235534637119
-0.003587292274460196
-0.001681323978118598
0.000625790737103671
0.000839205633383244
-0.003876126836985350
0.003725211136043072
0.005420212633907795
0.001235911855474114
0.000850950716994703
0.000487128418171778
-0.001587774953804910
-0.000282546738162637
0.004237572662532330
0.001780164195224643
0.003109931480139494
0.005499959457665682
0.002930401358753443
0.004832675680518150
-0.005502170883119106
-0.003879189956933260
0.003563542151823640
0.000857627484947443
0.000173188964254223
-0.000724432175047696
-0.005685205105692148
0.003178900107741356
0.003456969745457172
-0.004840102978050709
0.002585895359516144
-0.005562122911214828
-0.002164141042158008
-0.001844399026595056
-0.001540237106382847
-0.007319352589547634
0.001422359724529088
0.003053166903555393
-0.000138423769385554
0.003330153413116932
0.005200008396059275
0.003777760313823819
-0.004433743655681610
-0.000708665989805013
-0.000083287923189346
-0.001467933994717896
-0.000649068388156593
0.000614374817814678
-0.001264645950868726
0.001406494993716478
0.002270686905831099
-0.002619223203510046
0.001004443387500942
-0.005016409326344728
-0.002407511463388801
-0.002401926787570119
-0.000568952120374888
-0.000207588760531507
-0.004632034804672003
-0.001781498664058745
0.003353319596499205
-0.000754510809201747
-0.001833997084759176
-0.003380563808605075
-0.004503077361732721
-0.004804060328751802
-0.006586692295968533
-0.000805736635811627
-0.002010449534282088
0.000600827101152390
0.009114110842347145
0.002738316543400288
0.002007376169785857
-0.006796448957175016
0.003259039949625731
-0.003122339257970452
0.001605291850864887
-0.006800346076488495
0.001703315763734281
-0.000267068302491680
0.001810759422369301
0.001642217044718564
-0.002153364010155201
0.005392672959715128
-0.000348451110767201
0.005014243070036173
-0.001073790248483419
-0.000776800327003002
0.000753566622734070
0.002287126146256924
0.000339988124324009
-0.003724208567291498
0.000793525890912861
-0.002203677082434297
-0.000086929860117380
-0.004019869491457939
-0.000098241318482906
-0.007071713916957378
-0.000385686784284189
0.002074403921142220
0.005153617821633816
-0.006584831979125738
0.001445179921574891
0.001117814681492746
-0.000301716616377234
0.001719632884487510
-0.002203576266765594
-0.004256912972778082
0.000000000000000000
-0.008801870979368687
0.000932681490667164
-0.001205073669552803
0.003124542301520705
0.005119848065078259
0.000963231548666954
0.004434611182659864
-0.007439903449267149
-0.005349461920559406
-0.004075276199728251
0.000374856375856325
0.002305130474269390
0.009254164062440395
0.007685089018195868
-0.004906491842120886
-0.004343019798398018
0.001368388184346259
0.008989768102765083
-0.001601871917955577
-0.000018157992599299
