0.002372734714299440
-0.004026031587272882
0.001652999897487462
0.003632664447650313
-0.002067163120955229
-0.004499889910221100
0.006804407108575106
-0.006919912062585354
-0.002296683611348271
0.003892230568453670
-0.000196028675418347
-0.001541896373964846
-0.005001729354262352
0.003364725038409233
-0.001895050867460668
-0.000569724361412227
-0.000864439818542451
0.005500288214534521
0.002631367882713675
-0.006187836173921824
0.003282847348600626
-0.000870507326908410
-0.002869914751499891
0.002854357706382871
-0.001061475719325244
-0.004318898078054190
0.003489914350211620
0.006150281988084316
-0.002113297116011381
-0.001470257528126240
-0.000970231834799051
-0.000853771634865552
0.001776161021552980
-0.007927452214062214
-0.002721738768741488
-0.000352974224369973
0.000691589666530490
-0.004054579418152571
-0.009676190093159676
0.001579929026775062
-0.000338245707098395
-0.001533660688437521
-0.004825018811970949
-0.002446082187816501
-0.000436428352259099
0.000057529829064151
0.000039946320612216
-0.002323793014511466
0.001903721829876304
-0.002206214005127549
-0.001646089134737849
-0.002829355886206031
0.001478038495406508
-0.006489609368145466
-0.003296992974355817
-0.002044671215116978
-0.000852555502206087
0.006601482164114714
-0.000705770857166499
-0.003904439043253660
0.005313119851052761
-0.001293983077630401
-0.000190143618965521
-0.000524996605236083
-0.000463708973256871
-0.001219526748172939
-0.002387391868978739
0.004470348823815584
-0.002560256980359554
0.000682789483107626
0.003127667820081115
-0.005599026568233967
-0.004518960136920214
-0.002324872883036733
0.000876938225701451
-0.000262985267909244
-0.001387941301800311
0.002200217451900244
-0.000585613364819437
0.003029233077540994
-0.003132717218250036
-0.000918470090255141
-0.000626910710707307
0.001386792398989201
-0.005190650466829538
-0.001956003485247493
-0.002873130142688751
0.000900406274013221
-0.001429655589163303
0.003762660548090935
0.000108002735942136
0.002119107404723763
0.001251635141670704
0.000531772442627698
-0.000376551848603413
-0.008241609670221806
0.001314900466240942
-0.009009066969156265
-0.000099129778391216
0.001607270911335945
