-0.014121257700026035
-0.064689062535762787
0.024690981954336166
0.007173261605203152
0.004469796549528837
-0.018580667674541473
-0.030935257673263550
0.007481977343559265
0.010658157058060169
0.025503223761916161
-0.066752478480339050
-0.032705474644899368
-0.017571989446878433
-0.052266329526901245
0.029497364535927773
0.055855661630630493
0.032553732395172119
-0.055929027497768402
-0.013551166281104088
0.030116485431790352
-0.052916973829269409
0.008432162925601006
-0.018078077584505081
0.017968736588954926
-0.067995630204677582
0.059419408440589905
0.014749086461961269
-0.082858234643936157
0.000132492161355913
-0.008735935203731060
-0.043476827442646027
-0.008064347319304943
-0.029065707698464394
0.015815153717994690
-0.042393524199724197
-0.049077358096837997
0.024034518748521805
0.047182098031044006
-0.024361670017242432
0.102369122207164764
0.010088099166750908
-0.014688119292259216
-0.009013485163450241
0.014885595999658108
-0.046464197337627411
0.018071504309773445
0.022208847105503082
0.037612259387969971
-0.012910286895930767
-0.016934260725975037
0.013035409152507782
0.039128210395574570
0.041880633682012558
0.042964328080415726
-0.002132879570126534
-0.053754143416881561
-0.061925917863845825
-0.061668913811445236
-0.054397683590650558
0.041770957410335541
0.014674921520054340
0.015619970858097076
0.010228664614260197
0.035246104001998901
0.034654300659894943
0.070674374699592590
-0.002443413482978940
-0.028595354408025742
-0.024162890389561653
-0.011085391975939274
-0.015931747853755951
-0.014472668059170246
0.026936523616313934
0.036266438663005829
0.005219181999564171
0.021947843953967094
-0.066000491380691528
-0.055688034743070602
-0.040659774094820023
-0.007065239828079939
0.017458047717809677
-0.004045014269649982
0.022617567330598831
-0.032942753285169601
-0.021729122847318649
-0.033512625843286514
0.053624503314495087
-0.002329882001504302
0.025337602943181992
0.049592725932598114
-0.013753141276538372
0.040349576622247696
-0.035926252603530884
-0.023714601993560791
-0.043696250766515732
-0.010946081019937992
0.032134175300598145
0.042191103100776672
0.024830749258399010
-0.011092548258602619
-0.056062109768390656
0.018398754298686981
-0.045176897197961807
0.053985729813575745
0.002790118334814906
-0.039649754762649536
-0.060829721391201019
0.001425967551767826
-0.059214238077402115
-0.008120361715555191
0.034254211932420731
-0.052781131118535995
-0.006158490199595690
0.029903471469879150
0.029639426618814468
0.057764232158660889
0.006198810879141092
-0.069340616464614868
0.000183283118531108
0.016646213829517365
0.040439911186695099
-0.059013534337282181
0.029987718909978867
0.036343976855278015
0.017831411212682724
0.000871853902935982
0.057623885571956635
0.028287628665566444
