-0.065146476030349731,0.085608728229999542,-0.070287585258483887,0.043145526200532913,0.043747805058956146,-0.014080095104873180,0.046730913221836090,-0.039029430598020554,0.076068274676799774,-0.037914283573627472,0.081002824008464813,-0.032477002590894699,0.052040435373783112,-0.046341121196746826,-0.048064954578876495,-0.069423265755176544,-0.091603897511959076,0.028001965954899788,-0.045166652649641037,-0.066637299954891205,-0.027336571365594864,-0.005558643955737352,0.013942086137831211,0.021971441805362701,0.084512308239936829,0.036883305758237839,0.069427400827407837,-0.052850484848022461,0.063455544412136078,0.047795761376619339,-0.004868464078754187,0.075152836740016937,-0.078864812850952148,-0.021608961746096611,-0.048934869468212128,0.029051695019006729,0.022317577153444290,-0.018277255818247795,-0.025984546169638634,0.085149466991424561,0.058912098407745361,0.004256377927958965,0.067216753959655762,-0.000470441445941105,0.079420074820518494,0.038027297705411911,-0.002263206755742431,0.011177983134984970,-0.050233177840709686,-0.010116753168404102,-0.020258987322449684,-0.080338172614574432,-0.024078497663140297,-0.051515966653823853,0.015549497678875923,0.021717209368944168,0.062149651348590851,-0.023146430030465126,0.014313014224171638,-0.010866915807127953,-0.070556178689002991,-0.036020632833242416,0.050093885511159897,-0.001953294035047293,0.008274530991911888,-0.054220464080572128,0.085889764130115509,0.074513025581836700,0.022738765925168991,0.024361260235309601,0.058280091732740402,-0.073824331164360046,0.000423079443862662,0.077688761055469513,-0.002801408292725682,-0.032050158828496933,-0.085921801626682281,0.031272333115339279,0.011012426577508450,-0.049396511167287827,0.027663687244057655,-0.004073925781995058,0.082725517451763153,0.083138421177864075,-0.053046673536300659,-0.059650160372257233,-0.028791401535272598,0.042365968227386475,0.028033161535859108,0.027449440211057663,0.018302990123629570,-0.019474804401397705,-0.007126952987164259,-0.079501889646053314,0.078077346086502075,-0.028691638261079788,-0.002059796592220664,-0.007125742733478546,-0.074844665825366974,-0.054867580533027649,-0.087460666894912720,0.067385777831077576,0.048079308122396469,0.044064518064260483,0.020235270261764526,0.055574197322130203,0.079596288502216339,0.020856633782386780,-0.061563104391098022,0.025563608855009079,-0.007480681873857975,0.038927655667066574,0.069269299507141113,0.037372607737779617,-0.005017229355871677,0.034928493201732635,0.079800620675086975,-0.042180981487035751,-0.037758983671665192,-0.069379977881908417,-0.031294837594032288,0.058476682752370834,0.042533122003078461,0.056997727602720261,-0.069852314889431000,-0.052671775221824646,0.020904928445816040,0.086932338774204254
-0.022081378847360611,0.024415956810116768,-0.071206279098987579,0.086519896984100342,0.045862991362810135,0.065931826829910278,0.079475596547126770,0.004175199195742607,0.085445970296859741,-0.064157895743846893,0.022688280791044235,-0.078325182199478149,0.049955390393733978,-0.039010252803564072,-0.086807586252689362,0.034057315438985825,0.051693800836801529,-0.002532423939555883,-0.053893662989139557,-0.089494265615940094,-0.065235368907451630,0.060690514743328094,-0.075690470635890961,-0.035091295838356018,-0.069693632423877716,0.082609236240386963,0.069339707493782043,0.067446254193782806,0.013034983538091183,0.014714913442730904,0.023708414286375046,-0.014531714841723442,0.060614958405494690,0.017950180917978287,0.084630250930786133,-0.080719366669654846,-0.005907639861106873,0.057162340730428696,0.059279758483171463,0.064868651330471039,0.067285068333148956,-0.076505191624164581,-0.008729028515517712,-0.049339003860950470,0.056533832103013992,-0.069403365254402161,-0.071878194808959961,0.073288686573505402,0.029168922454118729,-0.064050577580928802,0.011541274376213551,-0.028176352381706238,0.003649520222097635,-0.087349124252796173,0.025516275316476822,-0.040544919669628143,0.005163922440260649,-0.008258468471467495,-0.077083535492420197,-0.005804686341434717,-0.009033341892063618,0.065201520919799805,0.069128662347793579,-0.079126603901386261,-0.067563340067863464,0.070392757654190063,-0.066933296620845795,0.044418472796678543,0.015502146445214748,-0.065210573375225067,-0.008250107057392597,-0.015242953784763813,0.048506330698728561,-0.082343965768814087,0.057696938514709473,-0.083599939942359924,-0.031926322728395462,0.090791642665863037,-0.078858517110347748,-0.037316776812076569,-0.005882541649043560,-0.032672576606273651,0.074430234730243683,-0.053731769323348999,0.067457400262355804,0.066153079271316528,-0.043557718396186829,-0.047292828559875488,0.049596879631280899,-0.030170835554599762,-0.005600388161838055,-0.089733451604843140,-0.043242134153842926,0.000571554643101990,0.001099791610613465,0.003763197222724557,-0.013602516613900661,0.049600258469581604,-0.074784532189369202,-0.046725999563932419,-0.008829954080283642,-0.023495709523558617,0.038306608796119690,-0.043690726161003113,-0.073092631995677948,-0.062901951372623444,-0.030909519642591476,0.018749160692095757,-0.073600381612777710,-0.003061352763324976,-0.066692791879177094,-0.010363351553678513,-0.088665276765823364,0.061366207897663116,-0.082025468349456787,0.073475845158100128,0.009914942085742950,-0.007029053755104542,-0.046813767403364182,-0.010524029843509197,-0.076994463801383972,0.039734911173582077,0.024168135598301888,-0.090757876634597778,-0.022723361849784851,0.068800412118434906,0.070128917694091797,0.050253722816705704
-0.058752052485942841,0.073838114738464355,0.048464942723512650,0.058165904134511948,-0.081251598894596100,-0.084926098585128784,0.084057331085205078,-0.040002658963203430,0.037576526403427124,0.079449146986007690,0.054435010999441147,0.006492734886705875,0.024402894079685211,-0.003004400059580803,-0.052906017750501633,-0.078424811363220215,-0.018098555505275726,-0.019635574892163277,0.087422221899032593,-0.017007431015372276,-0.001831250032410026,-0.000089677509095054,-0.064246073365211487,-0.068778447806835175,-0.067958727478981018,-0.029010670259594917,-0.049684658646583557,0.022636471316218376,-0.031091302633285522,-0.074336551129817963,-0.025939743965864182,-0.060742352157831192,0.065476544201374054,-0.043576017022132874,0.045813530683517456,0.032043322920799255,-0.057432487607002258,-0.023602291941642761,0.080370955169200897,0.035377047955989838,-0.007077546324580908,0.024858178570866585,-0.090404942631721497,0.008098375983536243,0.086487062275409698,0.038702037185430527,0.062002003192901611,0.039125349372625351,0.038539506494998932,-0.076644480228424072,-0.076883800327777863,0.062646314501762390,0.080698437988758087,0.078341692686080933,-0.046030957251787186,0.079181790351867676,0.017241539433598518,0.089417487382888794,-0.061002694070339203,-0.084495387971401215,-0.000061389269831125,0.046822182834148407,0.039832975715398788,-0.083729617297649384,-0.018436638638377190,-0.072594583034515381,0.042667742818593979,0.042855426669120789,0.041696999222040176,-0.063181728124618530,0.023469546809792519,0.086901418864727020,0.069416277110576630,-0.045058045536279678,-0.035613797605037689,-0.038170352578163147,-0.048851337283849716,-0.060475420206785202,-0.042576219886541367,-0.091223120689392090,-0.017796341329813004,-0.085739910602569580,-0.083634100854396820,0.063518740236759186,-0.026384074240922928,-0.018166985362768173,0.053341135382652283,-0.066237792372703552,0.029618162661790848,0.067017100751399994,0.035617318004369736,-0.061858914792537689,0.054480724036693573,-0.039186995476484299,0.018215071409940720,-0.011591339483857155,0.085521973669528961,-0.082243196666240692,0.015018166042864323,0.088438369333744049,0.016695922240614891,-0.050094213336706161,-0.027839332818984985,0.025651246309280396,-0.012462811544537544,-0.067535452544689178,0.019424950703978539,0.034303575754165649,-0.005338218528777361,-0.049942728132009506,0.044274374842643738,-0.082349509000778198,0.013857530429959297,-0.076917439699172974,0.048659604042768478,-0.023044209927320480,-0.039042055606842041,0.012363977730274200,0.088112033903598785,0.003781014820560813,0.036556176841259003,0.077097572386264801,-0.019804470241069794,-0.065401270985603333,-0.018719991669058800,-0.013453304767608643,-0.052051886916160583,-0.002590941963717341
0.067387536168098450,0.014673472382128239,0.000574007804971188,-0.004903608001768589,-0.066564038395881653,-0.079439990222454071,-0.062843345105648041,-0.050720375031232834,0.095474742352962494,-0.059268347918987274,0.059614766389131546,0.017755191773176193,0.008059853687882423,0.006775814108550549,0.011423806659877300,-0.015807772055268288,-0.059242166578769684,0.072122596204280853,0.050892576575279236,0.009323167614638805,0.037635069340467453,0.013144055381417274,0.077357940375804901,0.060744170099496841,0.036130469292402267,0.070393308997154236,0.015436222776770592,-0.021561389788985252,-0.057337105274200439,0.079090379178524017,-0.055942468345165253,-0.079030573368072510,0.049895275384187698,0.027987835928797722,0.003503729822114110,-0.059599172323942184,0.084417410194873810,-0.043105445802211761,0.053408160805702209,0.069171734154224396,0.018478646874427795,0.082169786095619202,0.080232478678226471,-0.035456426441669464,-0.083906441926956177,0.000427846534876153,0.042652577161788940,-0.035463277250528336,-0.001677350141108036,0.061662383377552032,0.032865289598703384,-0.053452819585800171,0.003646554425358772,-0.088530011475086212,0.065507858991622925,0.024890728294849396,0.083213932812213898,-0.068055987358093262,0.035689778625965118,-0.081755444407463074,-0.011917646043002605,-0.014134419150650501,0.026530876755714417,0.081197649240493774,0.076330065727233887,0.010620427317917347,-0.010504466481506824,-0.030710589140653610,0.039220806211233139,0.006237116176635027,0.077657058835029602,0.039413794875144958,-0.018917044624686241,0.087782509624958038,-0.061739373952150345,-0.068049788475036621,-0.006449683569371700,-0.007290359586477280,0.008920880034565926,0.046952892094850540,0.064577564597129822,0.088395036756992340,0.016460146754980087,0.035329632461071014,-0.044176816940307617,0.059554383158683777,0.078523442149162292,0.038916289806365967,-0.074322119355201721,0.046089753508567810,-0.042276982218027115,-0.021366106346249580,0.033290188759565353,0.010138966143131256,0.019853344187140465,-0.058298677206039429,-0.073406919836997986,0.029708707705140114,-0.033668428659439087,0.048702370375394821,0.084613300859928131,0.010749485343694687,-0.088171131908893585,-0.037720128893852234,0.023152085021138191,0.003387666540220380,0.072701476514339447,0.052270259708166122,-0.070547111332416534,0.007659843191504478,0.049429651349782944,0.065213233232498169,-0.052894473075866699,-0.047390341758728027,0.055726185441017151,0.053022667765617371,0.033668432384729385,-0.037378184497356415,-0.015768690034747124,0.008669801056385040,-0.057094886898994446,-0.008648164570331573,0.019780654460191727,-0.044999144971370697,-0.000525054056197405,0.035081367939710617,0.030281065031886101,0.034172605723142624
-0.056587308645248413,0.035616032779216766,-0.073051758110523224,0.009370789863169193,-0.003208459820598364,0.086993306875228882,0.072076305747032166,-0.048911023885011673,-0.028939982876181602,0.027567941695451736,0.037313316017389297,-0.098568327724933624,-0.002661710837855935,-0.051036007702350616,0.040739390999078751,-0.019402252510190010,0.001431755721569061,0.050392176955938339,-0.055007085204124451,-0.027312396094202995,0.063647076487541199,-0.006689442787319422,-0.079258807003498077,-0.046260662376880646,-0.052910685539245605,0.045074034482240677,-0.029246475547552109,0.015379582531750202,0.057705517858266830,-0.004378791432827711,0.072423309087753296,0.030255654826760292,0.011393078602850437,0.063451215624809265,-0.026866504922509193,-0.014815748669207096,0.005608810577541590,0.039491079747676849,-0.017838655039668083,-0.014686094596982002,0.015602911822497845,0.027189586311578751,-0.072801373898983002,0.031112505123019218,-0.041608028113842010,-0.095387995243072510,-0.022861670702695847,0.008019094355404377,-0.027519607916474342,0.060856420546770096,-0.000812595302704722,0.066218487918376923,-0.082994438707828522,0.076074920594692230,0.018606700003147125,-0.049650900065898895,-0.052592344582080841,-0.071193821728229523,-0.056957364082336426,-0.049743756651878357,-0.052514739334583282,-0.024670355021953583,-0.004084092564880848,-0.056146793067455292,-0.041850518435239792,0.052839342504739761,0.099240183830261230,-0.043238412588834763,-0.078733712434768677,0.083448253571987152,-0.048981595784425735,0.047144342213869095,0.069849856197834015,0.015175609849393368,-0.037873402237892151,-0.019927347078919411,0.082378625869750977,0.061776548624038696,0.072279341518878937,0.098019026219844818,0.046857818961143494,0.050868805497884750,-0.031027438119053841,-0.010335778817534447,-0.089289955794811249,-0.045486874878406525,0.005983456037938595,-0.053020142018795013,0.034564979374408722,-0.068338103592395782,-0.018158016726374626,0.066330917179584503,0.043105304241180420,-0.073442585766315460,-0.080905862152576447,0.044916685670614243,0.036806616932153702,0.070546992123126984,-0.075111411511898041,-0.066973887383937836,-0.033143568783998489,-0.051654562354087830,-0.031460333615541458,0.027890659868717194,-0.077361233532428741,-0.001307544531300664,0.066391266882419586,0.053823869675397873,0.009340040385723114,0.065258540213108063,-0.097832672297954559,0.034923434257507324,-0.007235608529299498,0.059866026043891907,-0.081503726541996002,-0.042002778500318527,0.031076980754733086,-0.036450982093811035,-0.020683776587247849,-0.017843326553702354,0.059321451932191849,0.065795451402664185,-0.060296192765235901,-0.031323421746492386,0.066649682819843292,0.077871307730674744,-0.090275064110755920,-0.037579435855150223
-0.079731948673725128,0.011467518284916878,-0.008430683985352516,-0.012432334013283253,0.084270313382148743,-0.008819780312478542,0.018501482903957367,-0.004310806281864643,0.083350032567977905,0.018366016447544098,-0.062944032251834869,0.025260299444198608,0.021413059905171394,-0.055707693099975586,-0.046165358275175095,-0.040351446717977524,0.014528565108776093,0.053101282566785812,-0.015889130532741547,0.002832335419952869,-0.013156746514141560,-0.088356047868728638,-0.014407467097043991,0.082775816321372986,-0.025288434699177742,-0.053147524595260620,-0.057889062911272049,0.021987348794937134,-0.028164256364107132,0.077638052403926849,-0.051716431975364685,0.093206748366355896,0.017806375399231911,0.000506045354995877,-0.017916530370712280,0.001378782442770898,-0.006419221404939890,0.071474686264991760,-0.081439703702926636,-0.041487082839012146,-0.032145366072654724,-0.002334731398150325,0.065917506814002991,-0.035324674099683762,-0.025113064795732498,-0.078193612396717072,0.058871436864137650,-0.029037350788712502,-0.026306578889489174,-0.057363320142030716,0.022645540535449982,-0.073267631232738495,-0.041794277727603912,-0.082523427903652191,0.026765832677483559,-0.030677136033773422,0.062065463513135910,0.006390469148755074,-0.024943549185991287,-0.021223399788141251,0.080395869910717010,0.078878857195377350,0.097478933632373810,-0.071297325193881989,-0.095819070935249329,0.053439412266016006,0.038052681833505630,0.074982948601245880,-0.044287409633398056,-0.018357580527663231,0.097685195505619049,0.077122353017330170,-0.003197841113433242,-0.099411547183990479,0.016589451581239700,-0.063164249062538147,-0.092173837125301361,0.067393101751804352,0.034040439873933792,-0.014530831016600132,0.002895628334954381,0.052779763936996460,0.024604724720120430,-0.032773170620203018,-0.022082876414060593,-0.001393600716255605,0.083507463335990906,-0.098005384206771851,-0.014273574575781822,0.076717250049114227,-0.052890323102474213,0.060614205896854401,-0.046271789819002151,-0.058295268565416336,-0.052819587290287018,-0.041136179119348526,-0.066481247544288635,0.065621204674243927,0.043750043958425522,-0.001140610082075000,-0.057669062167406082,-0.058978371322154999,-0.025313260033726692,-0.041947796940803528,0.019761184230446815,-0.074104025959968567,-0.069720245897769928,-0.041348312050104141,0.042036820203065872,-0.045263037085533142,-0.021573187783360481,-0.077289782464504242,0.051469177007675171,0.101926669478416443,-0.064575999975204468,0.056602135300636292,0.011203979142010212,0.071989975869655609,-0.025167874991893768,0.040140923112630844,0.028842296451330185,-0.039295263588428497,-0.015050334855914116,0.035664275288581848,-0.089405938982963562,0.027444757521152496,0.016335710883140564,0.021072495728731155
0.025022868067026138,0.093641512095928192,-0.001656757085584104,-0.062016841024160385,0.031278811395168304,-0.038509767502546310,-0.080460608005523682,-0.013367041014134884,-0.034004244953393936,0.053396496921777725,0.041250620037317276,-0.011128242127597332,0.089978918433189392,-0.041133128106594086,-0.066861309111118317,0.028227165341377258,0.046247798949480057,-0.003617497161030769,-0.072545357048511505,-0.061373986303806305,0.053934540599584579,-0.031521994620561600,0.027888456359505653,0.050958868116140366,0.087734676897525787,0.053721822798252106,-0.092703342437744141,-0.042593270540237427,-0.002124072285369039,-0.006599463056772947,-0.008687065914273262,-0.063210591673851013,0.090372085571289062,-0.055106386542320251,0.015323660336434841,-0.001568766776472330,-0.010684676468372345,0.020019209012389183,-0.053659606724977493,-0.028270220384001732,0.028464568778872490,0.084863848984241486,0.013567810878157616,0.081018306314945221,0.064435400068759918,-0.041802890598773956,-0.055957563221454620,0.000354064977727830,-0.035582389682531357,-0.071703419089317322,0.066996313631534576,0.035227708518505096,-0.055481705814599991,0.003409689757972956,-0.093913540244102478,-0.067703798413276672,-0.032918781042098999,-0.079349018633365631,0.007899679243564606,0.040885437279939651,-0.057025581598281860,0.014342247508466244,-0.078343838453292847,-0.022742696106433868,0.050729323178529739,0.054752431809902191,-0.000771672464907169,-0.016554484143853188,-0.006441562902182341,-0.019053742289543152,0.047922890633344650,-0.075493969023227692,-0.039681941270828247,0.003276844043284655,-0.030034333467483521,-0.059363700449466705,-0.013784625567495823,-0.083609014749526978,0.019207645207643509,0.074128858745098114,-0.074621386826038361,-0.082144282758235931,-0.021681264042854309,0.059698194265365601,-0.081497393548488617,0.045531559735536575,0.005355406086891890,0.025525396689772606,0.027704259380698204,0.044575657695531845,0.070574805140495300,-0.065553061664104462,0.086500659584999084,-0.033959437161684036,0.046191547065973282,0.013819548301398754,0.028309086337685585,0.062913402915000916,0.091022044420242310,-0.023925421759486198,-0.007773208431899548,0.045069918036460876,0.035806745290756226,-0.089837200939655304,-0.033933334052562714,-0.083396829664707184,-0.009760414250195026,0.004324956797063351,0.061234451830387115,0.007326622493565083,0.084738172590732574,-0.079084396362304688,-0.032764554023742676,0.029656553640961647,0.075811855494976044,0.087178863584995270,-0.045245744287967682,-0.084854729473590851,-0.008579576388001442,-0.045271959155797958,-0.008200545795261860,0.064462907612323761,-0.058736234903335571,-0.015651455149054527,0.029315669089555740,-0.044825423508882523,-0.078200876712799072,0.022519443184137344
-0.021161587908864021,0.089223787188529968,-0.016266934573650360,0.045085545629262924,0.028714211657643318,-0.072884097695350647,-0.081850074231624603,-0.043131217360496521,-0.048424668610095978,0.040081039071083069,0.082557983696460724,-0.074242092669010162,-0.014149634167551994,-0.057179734110832214,0.012289538048207760,-0.005631617736071348,0.003443334950134158,0.051145318895578384,-0.018888100981712341,0.085781216621398926,-0.009831709787249565,0.083508253097534180,-0.004335841629654169,-0.034807574003934860,-0.036186475306749344,0.076909817755222321,0.073268435895442963,0.030825013294816017,0.024795420467853546,-0.074608452618122101,0.060442559421062469,-0.074431203305721283,-0.088013574481010437,-0.063199043273925781,0.091125532984733582,-0.097145766019821167,0.047900177538394928,0.035305488854646683,0.067429132759571075,0.017739692702889442,0.006519249640405178,-0.084674492478370667,-0.066601872444152832,-0.080396920442581177,-0.038871776312589645,-0.006271453108638525,-0.025971326977014542,-0.010459777899086475,0.037612494081258774,-0.092122100293636322,-0.030038541182875633,-0.025984430685639381,0.004516003187745810,0.008194916881620884,-0.081257037818431854,0.054391402751207352,-0.016191255301237106,-0.077293641865253448,0.003098632441833615,0.059726536273956299,-0.055906236171722412,0.014271072112023830,0.051037941128015518,-0.015428980812430382,-0.023228233680129051,0.061422176659107208,-0.047548860311508179,0.065247364342212677,-0.024921966716647148,0.080755800008773804,0.104044631123542786,0.025740565732121468,0.010059958323836327,0.069871418178081512,-0.028018895536661148,-0.045325912535190582,0.025843335315585136,-0.011628623120486736,-0.030028425157070160,0.032042689621448517,-0.074137367308139801,0.068694256246089935,-0.056485585868358612,0.047108232975006104,-0.071521103382110596,0.033724840730428696,0.088651530444622040,-0.024358494207262993,0.010237473063170910,-0.061443094164133072,0.009006122127175331,-0.039697960019111633,-0.049665339291095734,-0.093910254538059235,-0.009701629169285297,-0.068432345986366272,0.012968831695616245,-0.013206307776272297,-0.099369011819362640,0.067967504262924194,0.050045855343341827,-0.086009129881858826,0.047662153840065002,-0.078398324549198151,-0.044277179986238480,0.024241266772150993,-0.024536363780498505,-0.058921996504068375,0.040058393031358719,0.073030427098274231,-0.044859584420919418,0.021652124822139740,0.071366757154464722,0.089456386864185333,-0.055626679211854935,0.048387650400400162,0.046151004731655121,0.098063461482524872,-0.021771041676402092,0.034302651882171631,-0.079309701919555664,0.030669182538986206,-0.004948053043335676,-0.012841445393860340,0.072372399270534515,-0.061502002179622650,0.005073670763522387,0.076730512082576752
0.064806506037712097,0.081834211945533752,-0.057167559862136841,-0.048784978687763214,0.010960232466459274,-0.062752015888690948,-0.057569041848182678,0.075640872120857239,0.101878680288791656,-0.017218237742781639,0.032200191169977188,0.040982026606798172,0.082573130726814270,-0.005121670663356781,0.004997885785996914,-0.087530471384525299,-0.000581007159780711,-0.045202620327472687,0.054988749325275421,0.015215001069009304,-0.082344442605972290,0.031787451356649399,-0.052743811160326004,-0.066803097724914551,0.105517461895942688,-0.039573121815919876,-0.032463628798723221,-0.007535749580711126,0.109890304505825043,0.085491135716438293,-0.039600063115358353,0.054660372436046600,-0.053014788776636124,-0.029698077589273453,-0.058951158076524734,-0.084164403378963470,0.016978409141302109,-0.023880502209067345,-0.046715475618839264,0.032222975045442581,0.039315689355134964,-0.041117973625659943,-0.026546519249677658,0.020627960562705994,-0.096724294126033783,0.000331690069288015,-0.117353178560733795,-0.069544568657875061,-0.103014864027500153,-0.008867319673299789,0.017642421647906303,0.117844216525554657,0.001986140385270119,0.004543349612504244,0.020914593711495399,0.005790736991912127,0.075046330690383911,0.042306400835514069,0.004875596612691879,-0.048471998423337936,0.061259329319000244,0.034396044909954071,0.046870067715644836,-0.087470166385173798,-0.048811346292495728,0.038496352732181549,-0.058089874684810638,-0.052707638591527939,-0.041066411882638931,0.048547197133302689,-0.035370554774999619,0.000890379655174911,0.042677212506532669,-0.044891688972711563,0.095460593700408936,-0.058150898665189743,-0.067155919969081879,-0.024454087018966675,0.023659233003854752,0.045955140143632889,0.113439753651618958,-0.010424979031085968,0.059221260249614716,0.050234518945217133,0.023353202268481255,0.024547575041651726,-0.043064594268798828,-0.052688371390104294,0.032339524477720261,0.021160421893000603,-0.058770749717950821,0.053932469338178635,0.083446130156517029,-0.052339345216751099,-0.095460325479507446,-0.037726838141679764,-0.036957882344722748,-0.048458520323038101,-0.096705265343189240,0.024790957570075989,-0.036409396678209305,-0.061950281262397766,0.000384969840524718,-0.003711838042363524,0.033268909901380539,-0.028541550040245056,-0.005260351579636335,0.012642495334148407,0.090515665709972382,-0.088188603520393372,-0.121250949800014496,-0.003613512497395277,0.022100934758782387,0.100678250193595886,-0.014715463854372501,-0.017693288624286652,0.081655144691467285,-0.021238667890429497,-0.012863202020525932,-0.005062001757323742,-0.048051025718450546,0.089160792529582977,0.053753450512886047,-0.014310607686638832,-0.078059993684291840,0.073488131165504456,-0.034437730908393860,0.022466078400611877
-0.017263021320104599,-0.044924393296241760,-0.043260928243398666,0.057704415172338486,-0.105076067149639130,-0.098395705223083496,0.032508220523595810,0.060269787907600403,0.116094745695590973,-0.088479503989219666,0.004001662135124207,0.026662789285182953,0.104970432817935944,0.045207675546407700,0.084115207195281982,-0.102147854864597321,0.006796641740947962,0.113179638981819153,0.049818765372037888,0.059032440185546875,0.033955052495002747,0.048989672213792801,0.057209648191928864,-0.055083349347114563,0.001673256396315992,-0.099719829857349396,0.081943668425083160,-0.011945328675210476,-0.017143998295068741,0.043784026056528091,-0.066132225096225739,0.033965997397899628,0.051614072173833847,-0.081264175474643707,-0.045486595481634140,-0.081805311143398285,-0.003313392400741577,0.070668295025825500,-0.052601892501115799,-0.034429635852575302,0.072351388633251190,0.022585198283195496,-0.033503171056509018,-0.010884569026529789,0.089809685945510864,-0.080220967531204224,0.016998358070850372,-0.005486832000315189,-0.058996517211198807,0.022232554852962494,-0.093780823051929474,0.022306600585579872,-0.085226461291313171,0.079852387309074402,-0.032272733747959137,0.016998786479234695,0.093102477490901947,0.051330570131540298,0.040693365037441254,-0.074226289987564087,-0.030104991048574448,-0.033230915665626526,0.001124924630858004,-0.044975444674491882,-0.070195704698562622,-0.003183962078765035,0.057306811213493347,-0.036857850849628448,0.060786742717027664,-0.043414112180471420,0.095797061920166016,-0.055811718106269836,-0.076047360897064209,-0.058018084615468979,0.100717686116695404,0.056480966508388519,-0.065501838922500610,0.037101063877344131,0.035451367497444153,0.032333161681890488,-0.058396648615598679,0.076293691992759705,-0.034029174596071243,0.041988793760538101,-0.012176129035651684,0.004862109664827585,-0.082379393279552460,-0.043605968356132507,-0.062920041382312775,0.074246846139431000,-0.082597844302654266,0.013827696442604065,0.067308224737644196,0.097752630710601807,0.074989065527915955,-0.051182981580495834,0.069993056356906891,-0.097994260489940643,0.047771085053682327,0.094228394329547882,0.022715892642736435,-0.030315045267343521,-0.014396704733371735,-0.001030569081194699,0.070522874593734741,0.038347698748111725,-0.099790193140506744,-0.074368186295032501,-0.009918798692524433,-0.118184931576251984,-0.064876377582550049,0.003075763583183289,0.098141275346279144,-0.000739109178539366,-0.066769272089004517,-0.104192040860652924,0.026299441233277321,-0.103667683899402618,-0.026416588574647903,-0.076613038778305054,0.030411379411816597,-0.051170013844966888,0.115963391959667206,-0.007533086929470301,-0.031772308051586151,-0.077178649604320526,0.081771828234195709,0.023615395650267601
-0.025910522788763046,0.019074387848377228,-0.086269877851009369,-0.075564093887805939,0.039318729192018509,0.071165762841701508,-0.074929356575012207,0.019759315997362137,0.096408858895301819,0.044534906744956970,0.076809391379356384,0.011358549818396568,0.073618069291114807,-0.035023100674152374,-0.022629443556070328,0.017782753333449364,-0.003036438953131437,0.056368011981248856,-0.083678647875785828,-0.070262186229228973,-0.023733515292406082,0.016370635479688644,0.043976116925477982,0.018293580040335655,0.003052733605727553,0.045050747692584991,0.036127425730228424,-0.055336099117994308,0.057996306568384171,0.083722084760665894,-0.044903881847858429,0.042073022574186325,-0.068754628300666809,0.053358249366283417,0.032936487346887589,0.016897762194275856,0.098276153206825256,0.070358961820602417,-0.010889417491853237,0.072714552283287048,0.103329114615917206,-0.077877081930637360,0.038692396134138107,0.039663773030042648,0.003175337333232164,-0.073886066675186157,0.054903648793697357,0.086278356611728668,-0.031168995425105095,-0.051641013473272324,0.067744046449661255,-0.068965159356594086,0.061900317668914795,0.044199150055646896,-0.092111662030220032,0.091277845203876495,-0.060053378343582153,0.059110190719366074,0.072003804147243500,0.065037414431571960,-0.065061107277870178,0.050516907125711441,0.069722652435302734,0.050608821213245392,0.047526106238365173,0.053472761064767838,0.073074474930763245,-0.074559427797794342,0.081723459064960480,-0.090457767248153687,0.066235348582267761,-0.028521129861474037,-0.086486011743545532,0.069274932146072388,0.060899857431650162,0.073978804051876068,0.036258604377508163,-0.012211597524583340,0.103767268359661102,-0.006254449021071196,0.094223514199256897,0.036986868828535080,0.098937168717384338,0.097704999148845673,-0.030866339802742004,-0.015137724578380585,-0.090530440211296082,0.007408859208226204,0.005385213997215033,0.012115068733692169,-0.058237429708242416,-0.035650033503770828,-0.056362748146057129,-0.076532252132892609,0.037449669092893600,0.058480709791183472,0.055733509361743927,0.017524952068924904,0.010449605062603951,-0.073780551552772522,-0.071292117238044739,-0.070891693234443665,-0.019369825720787048,0.047456994652748108,-0.057639438658952713,0.031249176710844040,-0.030290756374597549,-0.009550573304295540,-0.077445156872272491,-0.040844723582267761,0.063179455697536469,-0.026296254247426987,0.055446606129407883,0.006725978571921587,0.057343095541000366,0.049805730581283569,-0.008503613993525505,-0.013903767801821232,0.048024550080299377,-0.074408560991287231,0.081083685159683228,-0.049280803650617599,-0.041493840515613556,0.053175043314695358,-0.092536792159080505,-0.085617862641811371,0.047992758452892303,-0.074332252144813538
0.029441326856613159,0.089066512882709503,0.063974604010581970,-0.007727500051259995,-0.043142884969711304,-0.048467278480529785,0.055280115455389023,-0.030244633555412292,-0.077552497386932373,-0.025013303384184837,0.001595482695847750,0.004448222927749157,0.035788536071777344,0.084459647536277771,-0.006441719364374876,-0.022461973130702972,-0.082865051925182343,0.076577551662921906,-0.008366502821445465,0.001852169516496360,-0.031259492039680481,0.007010061293840408,-0.059019446372985840,0.010555802844464779,0.007538007106631994,-0.015360947698354721,-0.093812413513660431,-0.026158597320318222,0.078774809837341309,-0.031749680638313293,-0.082519508898258209,-0.061634372919797897,-0.040928784757852554,-0.021843235939741135,-0.032822944223880768,-0.070027433335781097,-0.039308615028858185,0.063154242932796478,-0.037055946886539459,0.030463013797998428,0.067650422453880310,-0.066054008901119232,-0.068095937371253967,-0.092564269900321960,-0.007715318817645311,-0.034532640129327774,-0.089289978146553040,-0.069680362939834595,0.036562029272317886,0.011487144045531750,-0.042548030614852905,0.007755656260997057,-0.009660042822360992,0.040438175201416016,0.032609697431325912,-0.001819030847400427,-0.069512352347373962,0.048675380647182465,0.068257234990596771,-0.039082132279872894,-0.058451667428016663,0.022225135937333107,0.012530510313808918,-0.076463960111141205,-0.001616731751710176,-0.035793364048004150,0.134217530488967896,0.093847304582595825,0.019717695191502571,0.073516011238098145,0.042100962251424789,-0.014826538041234016,-0.022937385365366936,-0.073000274598598480,0.016384582966566086,-0.068598270416259766,0.071025103330612183,-0.017121419310569763,-0.016332363709807396,-0.018259853124618530,-0.029858473688364029,-0.030014378949999809,0.098615512251853943,-0.036442156881093979,0.028735227882862091,0.047876607626676559,-0.007169998250901699,0.027213821187615395,-0.039292015135288239,0.081705391407012939,0.057474702596664429,0.003834886243566871,-0.084039971232414246,-0.044154275208711624,-0.004383880179375410,0.071413807570934296,0.074412956833839417,-0.044029779732227325,-0.054547470062971115,0.056806229054927826,0.081079073250293732,-0.121164582669734955,-0.014757210388779640,-0.068736709654331207,-0.009621594101190567,-0.006635705474764109,-0.004265265073627234,0.019544038921594620,0.017955355346202850,0.043144065886735916,-0.054557457566261292,0.019618639722466469,0.070891380310058594,-0.013610137626528740,0.097605019807815552,-0.063230067491531372,0.088533967733383179,0.080062009394168854,0.075480714440345764,0.083747372031211853,0.035486191511154175,0.059802670031785965,0.008864819072186947,0.031259793788194656,-0.073607318103313446,-0.050834916532039642,0.058386947959661484,-0.067057415843009949
-0.001004434889182448,-0.024221487343311310,-0.072603680193424225,-0.071133524179458618,0.070120833814144135,0.054709173738956451,0.087229482829570770,-0.068035282194614410,-0.005439382512122393,-0.029793921858072281,-0.034528393298387527,0.103559330105781555,0.073822163045406342,0.124751381576061249,-0.028232419863343239,0.007771151140332222,-0.000295269797788933,-0.005121972877532244,0.002932279836386442,0.074331782758235931,-0.106610402464866638,0.013653243891894817,-0.046730294823646545,0.127028718590736389,0.035864036530256271,-0.107264891266822815,0.025581520050764084,0.108947604894638062,-0.020327448844909668,-0.036506749689579010,0.006758223287761211,0.001189236878417432,0.081015475094318390,0.059771332889795303,0.061761874705553055,-0.106131158769130707,0.088220812380313873,0.061297994107007980,0.126498699188232422,0.029403595253825188,0.105068460106849670,-0.079886369407176971,0.029847955331206322,-0.073041610419750214,0.032109532505273819,0.033826187252998352,-0.082992829382419586,-0.021684603765606880,0.012690362520515919,0.040224861353635788,0.030847666785120964,0.055785436183214188,-0.009891135618090630,0.055094502866268158,0.006556437350809574,0.089613169431686401,0.001360671012662351,0.040890891104936600,0.124909527599811554,0.018189845606684685,-0.003832523478195071,0.058518473058938980,0.021974582225084305,-0.055950958281755447,-0.024111671373248100,-0.010811784304678440,0.009557492099702358,0.024449303746223450,-0.076191902160644531,-0.056452088057994843,0.121539220213890076,0.099545761942863464,-0.013156729750335217,-0.050542574375867844,0.113719873130321503,-0.089030042290687561,0.029645144939422607,0.007462253328412771,0.054288864135742188,-0.015719670802354813,0.086221940815448761,0.065138742327690125,0.063036650419235229,0.117736175656318665,-0.108146704733371735,-0.002479765564203262,-0.049578800797462463,-0.036560729146003723,0.017404418438673019,-0.002923244144767523,0.046264398843050003,0.038486041128635406,-0.061284199357032776,0.026763137429952621,0.073327556252479553,0.018313407897949219,0.049430277198553085,-0.017684513702988625,0.032608237117528915,0.027723938226699829,-0.024694841355085373,-0.019962141290307045,-0.001367810531519353,-0.025407444685697556,-0.055957417935132980,0.049060042947530746,0.079413332045078278,0.005262312479317188,0.075726993381977081,-0.053078528493642807,-0.081266105175018311,0.010067298077046871,0.065433733165264130,0.013019279576838017,0.033754620701074600,0.000164985962328501,0.075806543231010437,-0.006708128377795219,0.029342299327254295,0.005678146611899137,-0.012316157110035419,-0.002114648697897792,0.131532967090606689,0.004446578212082386,0.031236346811056137,-0.067069746553897858,0.034223921597003937,-0.010647938586771488
0.051574829965829849,-0.027291048318147659,0.000599503575358540,-0.078272223472595215,-0.018273584544658661,-0.091544114053249359,0.098347827792167664,0.068611368536949158,0.063027605414390564,0.036082804203033447,-0.078779809176921844,-0.027009867131710052,0.026313211768865585,0.042585641145706177,0.006416717078536749,-0.075196675956249237,-0.041086055338382721,0.091755561530590057,0.037424810230731964,-0.045132566243410110,0.053085710853338242,0.096022613346576691,-0.002649566391482949,0.005897694732993841,0.048645008355379105,-0.083573743700981140,0.013610920868813992,-0.011189835146069527,-0.003307479200884700,-0.032538816332817078,-0.094218909740447998,-0.061378162354230881,-0.023471921682357788,-0.051279246807098389,-0.044067390263080597,-0.011505478993058205,-0.063209623098373413,0.004637145437300205,0.081345506012439728,0.001429931493476033,0.108840964734554291,0.044320672750473022,-0.077604778110980988,-0.000897427555173635,-0.016287565231323242,-0.077653370797634125,-0.082961156964302063,0.090604849159717560,-0.001550024724565446,-0.061904218047857285,-0.043056864291429520,0.010642218403518200,-0.105339542031288147,0.083004310727119446,-0.119347073137760162,0.043860565871000290,0.014054915867745876,0.003036173759028316,0.102726511657238007,0.052682738751173019,-0.138919979333877563,0.005524945911020041,0.146250054240226746,0.055234428495168686,-0.075127817690372467,-0.045313090085983276,-0.046131636947393417,-0.008420343510806561,0.083464585244655609,-0.050100322812795639,0.044024817645549774,0.035533867776393890,0.021015385165810585,-0.003790701972320676,0.015188599005341530,0.008164634928107262,0.077646613121032715,0.068287253379821777,-0.015879025682806969,0.020013300701975822,0.012187952175736427,-0.025065131485462189,0.083368189632892609,0.028553474694490433,-0.009074091911315918,-0.021181194111704826,-0.091063559055328369,0.003159496933221817,0.020768687129020691,0.004041445441544056,-0.081820040941238403,-0.071492515504360199,-0.046698741614818573,-0.019195634871721268,-0.046921014785766602,-0.096207007765769958,-0.003004005644470453,0.003034353256225586,-0.094538651406764984,0.057240638881921768,-0.048131991177797318,-0.000356503733200952,-0.057799566537141800,0.030614597722887993,-0.079386964440345764,-0.115537181496620178,-0.037302181124687195,0.079453475773334503,-0.110511310398578644,-0.029705079272389412,0.020277705043554306,0.038763161748647690,0.103270739316940308,0.057315826416015625,-0.082152910530567169,-0.088259741663932800,-0.044805146753787994,-0.004004050511866808,0.090259574353694916,-0.043820306658744812,-0.077172078192234039,0.045778833329677582,0.143025040626525879,-0.014682045206427574,0.054545998573303223,0.033652771264314651,0.003025402547791600,0.010572588071227074
0.040415260940790176,0.079390004277229309,0.056992813944816589,-0.082299888134002686,-0.097218766808509827,0.070936590433120728,-0.055866610258817673,0.090902529656887054,-0.047521006315946579,0.030025612562894821,0.054540868848562241,-0.022755250334739685,0.060042854398488998,0.115195207297801971,-0.096564657986164093,-0.001562665100209415,-0.019362680613994598,0.018711170181632042,-0.033216211944818497,-0.027376744896173477,-0.036537334322929382,0.045415446162223816,0.026613697409629822,-0.060037605464458466,0.052514232695102692,-0.082152672111988068,0.072409756481647491,-0.072875112295150757,0.062042135745286942,-0.015787389129400253,-0.076195597648620605,0.076496012508869171,0.030386038124561310,-0.019994366914033890,0.092313513159751892,-0.058069389313459396,-0.044008966535329819,0.079587489366531372,0.007293892093002796,-0.030875278636813164,0.100641511380672455,-0.017091425135731697,-0.020188715308904648,-0.035997118800878525,0.001056340755894780,0.049204241484403610,-0.031164137646555901,-0.009376911446452141,-0.047372128814458847,-0.007330762688070536,-0.078008159995079041,0.080623932182788849,-0.016361784189939499,0.053825516253709793,0.036472152918577194,0.114666737616062164,-0.019032433629035950,-0.025144206359982491,0.051161054521799088,0.023855686187744141,-0.058818530291318893,0.066391691565513611,-0.010692172683775425,0.081275045871734619,-0.050426248461008072,0.092173933982849121,0.115149006247520447,0.087252058088779449,0.088400863111019135,0.047556925565004349,-0.011335899122059345,-0.042172178626060486,-0.087094977498054504,0.084267430007457733,0.071004599332809448,-0.005494295153766870,0.058798275887966156,0.081708051264286041,-0.015658617019653320,-0.020068595185875893,0.036046639084815979,-0.029167912900447845,0.085068129003047943,0.060363445430994034,-0.006766524165868759,-0.044810526072978973,-0.079729169607162476,-0.034045834094285965,0.047865319997072220,-0.046494811773300171,-0.023015022277832031,-0.024235248565673828,-0.044911600649356842,-0.038425154983997345,-0.066821783781051636,-0.080746151506900787,-0.061431620270013809,-0.005418661981821060,-0.005207824520766735,-0.006510675419121981,0.040277190506458282,0.010286058299243450,-0.048111289739608765,0.029081547632813454,0.049072351306676865,0.015760818496346474,-0.066829934716224670,0.066822543740272522,-0.033807601779699326,-0.075701244175434113,-0.004704395309090614,0.028530949726700783,0.061812158674001694,-0.063359022140502930,0.026543391868472099,-0.056521840393543243,-0.095167830586433411,0.069700099527835846,0.034268833696842194,-0.038352657109498978,-0.089958831667900085,0.053803749382495880,-0.087211683392524719,0.059139251708984375,0.054655216634273529,0.044134933501482010,0.065109960734844208,-0.071234263479709625
-0.055658444762229919,-0.062616467475891113,0.031317349523305893,0.091277427971363068,-0.015558407641947269,-0.069621287286281586,0.023860856890678406,-0.010050457902252674,0.042136065661907196,-0.006076616235077381,0.040313191711902618,-0.013003841042518616,-0.047445371747016907,0.017358409240841866,-0.076343737542629242,-0.005093827378004789,-0.001818664371967316,-0.008599691092967987,0.049404688179492950,0.001205291715450585,-0.063784547150135040,-0.027116239070892334,-0.029390258714556694,0.113520674407482147,-0.007159342989325523,-0.004383252933621407,-0.050469253212213516,0.107181891798973083,0.044729325920343399,-0.007567485794425011,0.051177766174077988,-0.033328287303447723,0.109831623733043671,-0.041460648179054260,-0.039496682584285736,-0.004078954458236694,-0.014531960710883141,-0.079869002103805542,0.017375389114022255,-0.057176459580659866,0.053858663886785507,-0.087330974638462067,0.054228641092777252,-0.064432926476001740,0.053725115954875946,-0.084455490112304688,-0.104429766535758972,-0.051967132836580276,-0.007214001845568419,-0.065042056143283844,0.060067523270845413,0.018121663480997086,0.030508767813444138,0.061387199908494949,0.032507605850696564,0.116712249815464020,-0.057593509554862976,0.102902725338935852,0.121926955878734589,-0.009911969304084778,-0.033102545887231827,0.058370757848024368,0.076668299734592438,0.052346300333738327,-0.083775825798511505,-0.083815552294254303,-0.004752702545374632,0.044693376868963242,0.042361021041870117,0.055625595152378082,0.082989364862442017,0.112203717231750488,0.016067337244749069,0.065471202135086060,-0.063693791627883911,0.084751509130001068,0.010835051536560059,-0.049150072038173676,0.064147330820560455,0.001118075917474926,0.031066538766026497,-0.036899536848068237,0.081942684948444366,0.083444789052009583,0.006831788457930088,-0.028581617400050163,-0.021385315805673599,-0.001974755432456732,-0.027248779311776161,0.081981562077999115,-0.056806933134794235,-0.054980847984552383,-0.009442257694900036,0.091344736516475677,0.005900475662201643,0.035781070590019226,-0.022676650434732437,-0.006541131064295769,-0.079258121550083160,-0.063049346208572388,0.097281679511070251,-0.112335518002510071,0.005609400104731321,0.050681438297033310,0.032896079123020172,-0.084552221000194550,0.004202265758067369,0.009419037960469723,-0.020714700222015381,-0.113384112715721130,-0.012432154268026352,0.035129152238368988,0.010978267528116703,-0.001980873756110668,-0.038852337747812271,-0.014378040097653866,-0.020048009231686592,0.044411387294530869,-0.008899441920220852,0.066170789301395416,0.053828872740268707,0.096552446484565735,0.039561051875352859,0.027419162914156914,-0.023944254964590073,0.029258243739604950,-0.007887275889515877,0.074330799281597137
-0.065187342464923859,-0.018935786560177803,-0.073039159178733826,0.069193705916404724,-0.003939077723771334,-0.044615644961595535,0.109186738729476929,0.055063817650079727,0.028515225276350975,0.023101296275854111,0.057410750538110733,0.091173999011516571,0.098923228681087494,0.030656140297651291,-0.078701131045818329,-0.051726900041103363,-0.030257113277912140,0.073015496134757996,0.029255937784910202,0.089942529797554016,-0.095864795148372650,0.068309858441352844,0.040040370076894760,-0.033081099390983582,0.090666100382804871,-0.032226499170064926,0.010185318998992443,-0.048755042254924774,0.074538446962833405,-0.090679213404655457,-0.026046773418784142,0.064512088894844055,0.007065927609801292,-0.001827801577746868,-0.079934105277061462,0.078652150928974152,0.068715751171112061,0.060129556804895401,0.044700149446725845,0.019191201776266098,-0.079324103891849518,-0.070141300559043884,-0.047950111329555511,0.030352616682648659,-0.099349528551101685,0.043329793959856033,0.034754756838083267,0.138173833489418030,0.020167464390397072,-0.029204927384853363,-0.122313447296619415,0.065700657665729523,0.012365687638521194,0.024480719119310379,0.080177359282970428,0.062202107161283493,0.002628932474181056,0.076220542192459106,0.067704245448112488,0.113849617540836334,-0.095597214996814728,0.014895342290401459,0.163443088531494141,-0.040320102125406265,-0.093988798558712006,-0.030452018603682518,-0.071046285331249237,0.030799092724919319,0.071379393339157104,-0.011437687091529369,0.026393476873636246,0.008800761774182320,-0.039012033492326736,0.007335362490266562,0.099627055227756500,-0.037414491176605225,0.054080531001091003,0.088217109441757202,-0.005466997623443604,0.021906945854425430,0.111393883824348450,0.029241036623716354,0.056630253791809082,0.116753622889518738,0.014652966521680355,-0.128061518073081970,-0.070964075624942780,-0.072179965674877167,0.049866057932376862,-0.041356965899467468,-0.005179048050194979,-0.041771423071622849,0.048865236341953278,-0.004335436969995499,0.108141824603080750,0.030594432726502419,0.003566810162737966,-0.110177047550678253,-0.054926965385675430,-0.040724825114011765,0.076381601393222809,-0.040184561163187027,0.017096919938921928,0.017681626603007317,0.019089879468083382,-0.002798377303406596,0.075473979115486145,-0.020279131829738617,-0.011835763230919838,-0.122822433710098267,0.054833963513374329,0.039939388632774353,-0.041643030941486359,0.007503444794565439,0.056848417967557907,-0.115554265677928925,-0.033003918826580048,-0.085549451410770416,0.054651875048875809,0.016835764050483704,-0.044533647596836090,0.012381021864712238,0.142554134130477905,-0.041243392974138260,0.144297406077384949,-0.050700403749942780,0.076977893710136414,-0.039234876632690430
-0.098103284835815430,-0.050144206732511520,0.035942092537879944,0.085486143827438354,-0.120555825531482697,-0.027252562344074249,-0.031115004792809486,0.088913969695568085,0.062827475368976593,0.044611778110265732,0.057346928864717484,0.067363016307353973,0.088219143450260162,0.167857155203819275,0.045773886144161224,-0.058028634637594223,-0.055945128202438354,0.140100434422492981,-0.100821927189826965,0.005349324084818363,-0.092611767351627350,0.092940993607044220,-0.020352683961391449,0.112885840237140656,0.053165208548307419,-0.110617473721504211,-0.072533436119556427,0.044733107089996338,0.105659589171409607,-0.006913961842656136,0.023815173655748367,-0.052916992455720901,0.048872496932744980,0.050269495695829391,0.029456777498126030,-0.014898218214511871,0.010808347724378109,0.015067917294800282,0.141500115394592285,0.064258210361003876,0.116004064679145813,0.034473892301321030,-0.060847595334053040,0.048876915127038956,-0.010804537683725357,-0.095155991613864899,-0.110686801373958588,0.055816825479269028,-0.090468056499958038,0.060002170503139496,-0.050370644778013229,0.027927855029702187,-0.074768505990505219,-0.052356250584125519,-0.090565718710422516,0.081344969570636749,0.113228447735309601,0.018343623727560043,0.071712605655193329,-0.026209760457277298,-0.053034879267215729,-0.038005396723747253,0.104854591190814972,0.032239284366369247,-0.098087377846240997,-0.034033898264169693,-0.058479141443967819,0.093244068324565887,0.070041224360466003,0.046211820095777512,0.149760380387306213,0.051650870591402054,0.038964714854955673,0.029749855399131775,-0.006307405885308981,-0.016928035765886307,-0.048411283642053604,0.063221491873264313,-0.001097366097383201,-0.076685212552547455,-0.020796934142708778,-0.056128572672605515,0.077471777796745300,0.160115212202072144,-0.025710830464959145,-0.018540021032094955,-0.059285499155521393,-0.087679699063301086,0.048892077058553696,-0.007108411286026239,-0.034097258001565933,0.014831195585429668,0.059389818459749222,0.065954312682151794,-0.008921747095882893,-0.073022551834583282,-0.015939109027385712,0.005565565079450607,-0.058007694780826569,0.120874509215354919,-0.005474958568811417,-0.026128590106964111,-0.126240417361259460,-0.001615699613466859,-0.058891575783491135,-0.121618010103702545,-0.012602860108017921,0.038899768143892288,-0.090682096779346466,0.030734583735466003,0.026389000937342644,0.007247254252433777,0.090545229613780975,0.120612300932407379,0.002896731253713369,-0.143331974744796753,0.071029901504516602,0.023136332631111145,-0.000723302888218313,0.046500846743583679,0.021197069436311722,-0.017772488296031952,0.125275373458862305,0.054721899330615997,0.072494558990001678,0.030976334586739540,0.097742684185504913,-0.114603720605373383
0.037235662341117859,0.068477638065814972,-0.033625468611717224,0.085517592728137970,-0.042205836623907089,-0.050811488181352615,0.030143192037940025,0.137613862752914429,0.147014915943145752,-0.020078647881746292,-0.040453836321830750,0.030973618850111961,-0.000025346478651045,-0.033866297453641891,-0.063570946455001831,-0.094086535274982452,-0.004246118478477001,-0.082189582288265228,0.011954523622989655,-0.052468497306108475,0.030297636985778809,-0.068930931389331818,-0.012986283749341965,0.114684090018272400,0.052337933331727982,-0.108449131250381470,0.043443720787763596,-0.052580967545509338,-0.006186835933476686,-0.074692606925964355,0.067874886095523834,0.043805144727230072,-0.032540228217840195,-0.103589646518230438,0.084240630269050598,-0.076357796788215637,0.006216026842594147,-0.067456990480422974,0.050247468054294586,0.005721457768231630,-0.011595220305025578,-0.069677352905273438,-0.025224197655916214,-0.043901715427637100,0.093882270157337189,-0.031031182035803795,0.033631879836320877,0.093464724719524384,-0.101336032152175903,0.075969517230987549,-0.008854720741510391,0.001414291677065194,-0.072355121374130249,-0.012821953743696213,-0.065406918525695801,-0.001421281136572361,-0.036190509796142578,0.085761442780494690,0.098659515380859375,0.008490039967000484,-0.072021178901195526,-0.074042595922946930,0.063809514045715332,0.020034644752740860,0.012748965062201023,0.053703799843788147,0.131199419498443604,-0.026394670829176903,0.085963793098926544,0.018813963979482651,-0.032024342566728592,-0.030687654390931129,0.013661644421517849,0.017780924215912819,0.067936971783638000,-0.048563648015260696,-0.030056865885853767,0.054577842354774475,0.061842832714319229,-0.082549020648002625,0.024766381829977036,-0.012662192806601524,-0.032757226377725601,0.030855111777782440,0.071012936532497406,-0.099063582718372345,-0.045563403517007828,0.046315975487232208,0.051981121301651001,0.080112487077713013,-0.067747458815574646,-0.019080661237239838,-0.003940201830118895,0.062129668891429901,-0.001460449770092964,-0.068924620747566223,-0.013620473444461823,0.067792050540447235,0.052369259297847748,0.007230301853269339,-0.051385469734668732,-0.030347280204296112,0.000269145180936903,0.066508695483207703,0.000229031589697115,0.032899953424930573,-0.103557489812374115,-0.027503892779350281,0.048544548451900482,0.012803249992430210,-0.048986040055751801,-0.087568350136280060,0.037980113178491592,0.020138079300522804,0.030344769358634949,0.082353122532367706,0.055120147764682770,-0.050324734300374985,0.107754439115524292,-0.052989479154348373,0.064139574766159058,0.023021502420306206,-0.002666640095412731,-0.098706871271133423,-0.070723600685596466,-0.068594880402088165,0.077900141477584839,-0.008776697330176830
-0.029070170596241951,-0.010362267494201660,-0.019841497763991356,0.047058761119842529,0.022422023117542267,-0.027761282399296761,0.056626770645380020,-0.022940360009670258,0.037067040801048279,-0.018443530425429344,0.060032892972230911,0.007373044732958078,0.086212202906608582,0.094784058630466461,-0.033201582729816437,-0.107539504766464233,-0.007235357072204351,-0.000149936444358900,-0.062173403799533844,0.089783586561679840,0.087348259985446930,-0.062816917896270752,0.090016402304172516,0.113554880023002625,-0.013062682934105396,-0.025048252195119858,-0.014781760983169079,-0.022003076970577240,-0.020984249189496040,-0.003052827669307590,0.052460789680480957,0.023749208077788353,0.088408119976520538,0.080263562500476837,0.067016959190368652,-0.057336907833814621,0.041456412523984909,-0.014349829405546188,0.045072592794895172,-0.055355891585350037,0.090623810887336731,-0.053134698420763016,-0.021921269595623016,-0.026936670765280724,0.040929399430751801,-0.078844904899597168,-0.090237565338611603,0.036079969257116318,0.093337178230285645,0.018176358193159103,0.075382255017757416,0.112156830728054047,0.072256863117218018,-0.031949356198310852,0.117849625647068024,-0.053065139800310135,-0.005610613152384758,-0.016823256388306618,0.033012822270393372,0.078521750867366791,-0.045173771679401398,-0.033113442361354828,-0.024460542947053909,0.013071508146822453,-0.082370087504386902,-0.125943467020988464,0.000040479120798409,-0.034836437553167343,-0.050910718739032745,-0.004515016451478004,0.012461415491998196,0.090980559587478638,0.012666502967476845,0.093707472085952759,0.088419638574123383,0.103174582123756409,-0.017445269972085953,0.106206692755222321,-0.031614165753126144,-0.035713750869035721,-0.023467270657420158,0.010717703960835934,-0.021330272778868675,-0.017631471157073975,0.034877769649028778,-0.047099739313125610,0.007428602781146765,-0.033491663634777069,0.031382679939270020,0.029915234073996544,-0.018007731065154076,0.035120215266942978,-0.051447995007038116,-0.008021171204745770,0.034476652741432190,0.025201577693223953,0.062306862324476242,-0.014757209457457066,-0.045752726495265961,-0.073205076158046722,-0.013854957185685635,-0.102904237806797028,-0.016214977949857712,0.049711018800735474,0.102136828005313873,-0.022964345291256905,0.045990500599145889,0.065041132271289825,0.022646123543381691,-0.023102745413780212,-0.082120992243289948,0.003959058318287134,-0.024897910654544830,0.041643798351287842,0.046841993927955627,0.052411876618862152,0.068559788167476654,-0.043456148356199265,-0.042844504117965698,0.026690123602747917,-0.012301384471356869,-0.079311430454254150,0.052338708192110062,0.065888881683349609,0.024813028052449226,0.038570705801248550,-0.004963761195540428,0.048476587980985641
-0.075967513024806976,0.009015061892569065,-0.044885016977787018,0.111595243215560913,-0.155522674322128296,-0.118896171450614929,-0.012140625156462193,-0.001818601507693529,0.013288702815771103,-0.030959615483880043,-0.052577555179595947,-0.043634533882141113,-0.030502788722515106,-0.071800090372562408,-0.086866393685340881,-0.048371132463216782,-0.056893609464168549,0.144008427858352661,-0.068050213158130646,0.086283758282661438,-0.073117025196552277,0.075712293386459351,-0.022558523342013359,0.024095056578516960,-0.069792896509170532,-0.121860437095165253,0.024936515837907791,0.038444548845291138,0.013677887618541718,-0.067162640392780304,0.006723031867295504,-0.099871069192886353,-0.019404871389269829,0.075462728738784790,-0.040560096502304077,-0.050734903663396835,-0.006068116519600153,0.040043495595455170,0.092589542269706726,-0.008098015561699867,-0.092967428267002106,0.059585951268672943,-0.065378338098526001,-0.005090485792607069,0.116868525743484497,0.011336608789861202,-0.017366390675306320,0.074227489531040192,-0.052252098917961121,0.047351073473691940,-0.100286513566970825,-0.007525227498263121,0.102743655443191528,0.045262396335601807,0.039443966001272202,0.059012044221162796,0.092506416141986847,0.110468678176403046,-0.009582284837961197,0.081797316670417786,0.031911626458168030,-0.048846375197172165,0.101612031459808350,-0.010907200165092945,-0.038782034069299698,0.017397223040461540,0.077308923006057739,0.085379816591739655,0.081007011234760284,-0.075452446937561035,0.090009339153766632,-0.051284261047840118,-0.052942469716072083,-0.002356521086767316,0.112951621413230896,-0.005234082229435444,0.079261824488639832,0.071198195219039917,-0.018811989575624466,0.008465725928544998,-0.010003233328461647,0.065744735300540924,-0.031132135540246964,-0.037667103111743927,-0.010567055083811283,-0.063958220183849335,-0.088174328207969666,-0.003350533079355955,-0.080766603350639343,-0.050731647759675980,-0.027264453470706940,0.014713560231029987,-0.030733751133084297,0.099393621087074280,-0.051134385168552399,0.005462233908474445,-0.031108202412724495,-0.171136125922203064,-0.091128863394260406,0.028316274285316467,0.029099442064762115,0.028761705383658409,-0.041868034750223160,-0.067718662321567535,0.021872432902455330,0.087909191846847534,0.119094297289848328,0.074864417314529419,0.065437927842140198,-0.046598650515079498,0.088351443409919739,0.048397742211818695,0.115940168499946594,0.076340079307556152,-0.043570496141910553,-0.134655073285102844,-0.058901883661746979,-0.087657518684864044,-0.018514880910515785,0.067047402262687683,0.023062489926815033,-0.031772952526807785,-0.003623865777626634,0.053375437855720520,0.100380167365074158,-0.024931361898779869,0.041171077638864517,-0.107668347656726837
-0.088379971683025360,-0.037260826677083969,0.002861793851479888,-0.015175702981650829,-0.135954260826110840,-0.041558224707841873,-0.057768352329730988,-0.021584307774901390,0.045330882072448730,0.064826682209968567,-0.072141170501708984,0.043471500277519226,-0.026409747079014778,0.026404058560729027,-0.095151014626026154,-0.015454462729394436,-0.078972548246383667,-0.021426597610116005,0.037742223590612411,-0.090120255947113037,-0.053610764443874359,0.066134594380855560,0.050737936049699783,0.114623188972473145,0.034658558666706085,-0.173297762870788574,-0.070615760982036591,0.032786339521408081,0.079186491668224335,-0.067105367779731750,-0.036102056503295898,-0.083534292876720428,0.102625206112861633,0.078021205961704254,-0.066245794296264648,-0.005587474443018436,-0.008994813077151775,-0.117600850760936737,0.022815357893705368,0.031929753720760345,0.001292646978981793,0.016223067417740822,0.042825240641832352,0.056336678564548492,-0.033607248216867447,-0.156707048416137695,-0.018622882664203644,0.032323699444532394,-0.052181515842676163,-0.073534846305847168,-0.005995374638587236,0.100334309041500092,0.080910474061965942,0.020773123949766159,-0.051097773015499115,0.063857734203338623,0.062474384903907776,0.087692439556121826,-0.058863494545221329,-0.091321833431720734,-0.040872346609830856,-0.051333852112293243,0.001119691994972527,-0.024237822741270065,0.016642009839415550,-0.042599298059940338,-0.009717694483697414,0.060853872448205948,-0.059638030827045441,0.064728356897830963,0.002569789299741387,-0.070836089551448822,-0.072908848524093628,-0.045878395438194275,0.071932010352611542,-0.012301717884838581,0.072213754057884216,0.048430010676383972,0.052371278405189514,0.083223320543766022,0.052673559635877609,0.082178823649883270,0.105481810867786407,-0.015011401847004890,-0.101804114878177643,-0.044743843376636505,-0.002712601330131292,-0.090211920440196991,-0.098217464983463287,0.020357808098196983,-0.139567345380783081,0.014713771641254425,-0.025478525087237358,0.040145173668861389,-0.015132062137126923,-0.049745593219995499,0.034934241324663162,-0.117140457034111023,-0.074357666075229645,0.085831046104431152,0.013517183251678944,-0.049127176403999329,-0.054637931287288666,-0.064468838274478912,-0.057738918811082840,0.050090447068214417,0.011677804403007030,0.016366751864552498,-0.044370710849761963,-0.091156847774982452,0.065937943756580353,-0.079668417572975159,0.088838741183280945,0.012154238298535347,-0.072253420948982239,-0.103019990026950836,-0.109020799398422241,-0.051609262824058533,0.078245498239994049,-0.059812255203723907,0.004652451258152723,-0.036501899361610413,0.040188990533351898,-0.067546591162681580,-0.022503355517983437,0.053009152412414551,0.034886218607425690,-0.063230112195014954
-0.003516592551022768,0.055634953081607819,-0.070551909506320953,-0.017299206927418709,-0.096990518271923065,0.075268171727657318,0.004737850278615952,0.112444065511226654,0.019709987565875053,-0.027746174484491348,0.036312967538833618,0.058222033083438873,0.020386759191751480,-0.031800985336303711,0.085779182612895966,-0.086335964500904083,0.029399042949080467,0.117520555853843689,-0.094548925757408142,0.003639715490862727,-0.071646451950073242,-0.040667265653610229,-0.100991003215312958,-0.034643601626157761,0.006669239606708288,-0.122924827039241791,-0.059249762445688248,-0.008131382055580616,0.150717899203300476,0.010570211336016655,0.065267428755760193,0.012766850180923939,0.015045170672237873,-0.054286960512399673,-0.037372343242168427,-0.008245373144745827,0.051809981465339661,-0.085360050201416016,0.050883434712886810,0.073358327150344849,0.111348867416381836,-0.037259403616189957,0.081359535455703735,-0.010858515277504921,0.024639695882797241,0.002409170614555478,-0.047176767140626907,0.120585948228836060,-0.150855749845504761,-0.068172968924045563,-0.033517364412546158,0.031138915568590164,0.008233251050114632,-0.062289196997880936,-0.045156423002481461,0.127133175730705261,0.076179198920726776,0.078553460538387299,0.074073940515518188,0.086334101855754852,-0.132319390773773193,-0.000264754635281861,0.043905463069677353,0.094069004058837891,-0.066340103745460510,0.069471925497055054,0.087553627789020538,-0.022709593176841736,-0.060965679585933685,0.000365511281415820,0.113061353564262390,0.037776183336973190,-0.041966583579778671,0.070437945425510406,0.091890394687652588,0.000690634828060865,-0.037394709885120392,-0.041322201490402222,0.194973811507225037,-0.047783818095922470,0.054882060736417770,0.056654974818229675,-0.001965307397767901,0.082026615738868713,0.010102476924657822,-0.104600407183170319,0.055164903402328491,0.006628150586038828,0.046460576355457306,-0.016870433464646339,-0.091382391750812531,-0.022992260754108429,0.047851879149675369,-0.026911804452538490,0.048440601676702499,0.006542612332850695,0.087368085980415344,-0.059701379388570786,-0.047648660838603973,0.081710919737815857,-0.044498503208160400,-0.080610640347003937,-0.157667607069015503,-0.012674965895712376,0.045948263257741928,-0.007924806326627731,0.003040985204279423,0.029361799359321594,-0.039167404174804688,-0.137235179543495178,0.049114696681499481,-0.064842306077480316,0.025299912318587303,-0.046584419906139374,-0.031890839338302612,-0.051506899297237396,-0.067188002169132233,-0.061342585831880569,0.056667961180210114,-0.037133127450942993,-0.137409627437591553,0.063316196203231812,-0.041333556175231934,0.040882594883441925,-0.011830874718725681,-0.006020121742039919,-0.002915202639997005,-0.084814451634883881
-0.178565338253974915,0.106576070189476013,-0.099332362413406372,0.067352734506130219,-0.150444954633712769,-0.020104873925447464,0.070708751678466797,-0.003256467869505286,-0.083724834024906158,-0.095096468925476074,0.114419005811214447,0.022653300315141678,-0.020092783495783806,-0.062234826385974884,-0.029968228191137314,-0.161522582173347473,-0.053031094372272491,0.119786135852336884,0.050723597407341003,0.024101577699184418,-0.011093479581177235,0.026314731687307358,-0.041825376451015472,0.047390207648277283,0.072810761630535126,-0.111257143318653107,-0.037101659923791885,-0.053221363574266434,-0.048371136188507080,-0.075257070362567902,-0.028690457344055176,0.010615726001560688,-0.001181128318421543,-0.055894840508699417,-0.025896193459630013,0.050844948738813400,-0.010908055119216442,0.038442738354206085,0.093521244823932648,-0.092864438891410828,0.023412898182868958,0.025134637951850891,-0.083367392420768738,-0.039151590317487717,-0.080822564661502838,-0.065963886678218842,0.057233814150094986,0.041454102843999863,0.061996027827262878,-0.065946720540523529,-0.061355385929346085,0.047463361173868179,-0.064338482916355133,0.075140491127967834,0.066848300397396088,0.070939384400844574,-0.054059185087680817,0.055435348302125931,0.111498095095157623,-0.020856730639934540,0.027104029431939125,0.050417654216289520,0.070869117975234985,0.074998252093791962,0.059903360903263092,-0.064243733882904053,-0.057913940399885178,-0.016159912571310997,-0.070117019116878510,0.039671655744314194,-0.014245735481381416,0.070180609822273254,-0.056620117276906967,0.017623176798224449,0.003338394220918417,-0.089065045118331909,0.112638421356678009,0.081816442310810089,-0.009629166685044765,-0.066371135413646698,0.033711850643157959,-0.029018459841609001,0.041401848196983337,-0.037645790725946426,0.036513131111860275,0.028335606679320335,-0.038906186819076538,-0.073810271918773651,0.029760299250483513,-0.050187002867460251,-0.075531519949436188,-0.069974794983863831,0.052588012069463730,0.061651460826396942,0.162366360425949097,0.041471652686595917,-0.024897761642932892,-0.060394708067178726,-0.024148179218173027,0.056506041437387466,0.052743986248970032,-0.012898774817585945,-0.092972233891487122,-0.073875315487384796,-0.041108362376689911,-0.028713515028357506,0.049316275864839554,0.005751555785536766,-0.047494675964117050,-0.158876568078994751,0.004261129070073366,-0.022941663861274719,-0.024010917171835899,0.046161815524101257,0.142281845211982727,-0.126855224370956421,-0.022466737776994705,0.038534104824066162,-0.036142814904451370,0.004067503381520510,-0.114809803664684296,0.019154045730829239,0.078157149255275726,0.046311337500810623,0.118928223848342896,0.034023050218820572,-0.056738108396530151,-0.002503517316654325
-0.083889082074165344,0.027894046157598495,0.052599903196096420,-0.037603750824928284,-0.069800294935703278,0.046006791293621063,0.020387561991810799,0.073111668229103088,0.079128570854663849,0.050985258072614670,0.083860211074352264,-0.019248703494668007,0.029262570664286613,0.003618513699620962,0.058855377137660980,0.070103272795677185,0.036258593201637268,0.062717132270336151,-0.084490358829498291,0.028315763920545578,-0.076932564377784729,0.062015946954488754,0.030550526455044746,0.046987254172563553,-0.081225112080574036,-0.125931441783905029,-0.050019595772027969,-0.089180946350097656,0.001025127712637186,-0.092478051781654358,0.138954326510429382,-0.042225856333971024,-0.040269494056701660,-0.074546158313751221,0.074096031486988068,-0.011298369616270065,0.105409540235996246,-0.000249741802690551,0.054496765136718750,0.027171550318598747,-0.086375236511230469,0.004730427172034979,-0.021793106570839882,-0.073715656995773315,0.030390931293368340,-0.080022692680358887,-0.075858399271965027,0.007094843313097954,-0.013903123326599598,-0.023225521668791771,0.079648837447166443,0.006313195917755365,0.097810879349708557,0.106856420636177063,-0.074019551277160645,0.049964029341936111,0.032282169908285141,0.121144548058509827,0.037568941712379456,0.055500257760286331,-0.072189301252365112,-0.020942570641636848,0.096790321171283722,0.052175473421812057,0.006212264765053988,-0.044704347848892212,-0.035879611968994141,0.092619374394416809,0.030278690159320831,-0.009184153750538826,-0.037353236228227615,-0.001397224492393434,0.036549586802721024,-0.041799854487180710,0.001925489748828113,0.028289357200264931,0.009527225047349930,0.118553705513477325,0.016806049272418022,-0.024801729246973991,-0.050901040434837341,0.006696665659546852,0.023023428395390511,0.045596599578857422,-0.021264905110001564,-0.061386078596115112,-0.028996780514717102,-0.080123879015445709,-0.075175225734710693,0.112042263150215149,0.019972493872046471,0.089680798351764679,-0.025422325357794762,0.027149388566613197,0.077682614326477051,0.015176243148744106,0.109339058399200439,-0.095527045428752899,-0.089779242873191833,0.083566620945930481,0.053234416991472244,0.002448454732075334,-0.115228101611137390,-0.045416619628667831,-0.026897132396697998,0.055030919611454010,-0.002037971280515194,-0.059077277779579163,-0.100787475705146790,0.001507064094766974,0.137089744210243225,0.063545659184455872,0.103473842144012451,0.045640628784894943,-0.060166079550981522,0.000880828651133925,0.018330756574869156,-0.044494379311800003,-0.005289825145155191,0.009950583800673485,-0.009278260171413422,-0.029402690008282661,-0.048690076917409897,0.025702580809593201,0.042800802737474442,0.051204465329647064,0.007591404020786285,-0.097137115895748138
0.018330095335841179,-0.077071972191333771,-0.064938344061374664,0.027545098215341568,-0.127641543745994568,0.010310921818017960,-0.123346470296382904,0.045796524733304977,0.134874567389488220,-0.022655716165900230,-0.002385003026574850,-0.083605490624904633,0.031103760004043579,0.030546948313713074,-0.091411255300045013,0.039990767836570740,-0.090130083262920380,-0.022455910220742226,-0.012825829908251762,-0.136417210102081299,-0.080886870622634888,0.042164471000432968,-0.086708955466747284,-0.058315530419349670,0.057483587414026260,-0.150845691561698914,-0.028460618108510971,-0.082996472716331482,0.069693244993686676,-0.078980408608913422,-0.003715157043188810,0.043224766850471497,0.081243157386779785,0.106709346175193787,-0.042518634349107742,-0.055084828287363052,0.010220060124993324,-0.143086194992065430,0.090584620833396912,0.123903445899486542,-0.086482122540473938,-0.084299698472023010,-0.020466446876525879,0.048255957663059235,-0.003268524073064327,-0.037684839218854904,-0.031610794365406036,0.036138210445642471,-0.073124766349792480,-0.012211189605295658,0.074959747493267059,0.008894907310605049,0.002197866560891271,-0.027628187090158463,-0.072707839310169220,-0.016040397807955742,0.115072518587112427,0.117704987525939941,-0.085041739046573639,0.031717315316200256,-0.028221542015671730,0.011855530552566051,0.127268910408020020,-0.029272902756929398,-0.008110756985843182,-0.005214163567870855,-0.049210615456104279,0.019467860460281372,0.036333814263343811,0.054834216833114624,0.012225990183651447,-0.037590485066175461,-0.069513209164142609,0.029184434562921524,-0.048400104045867920,0.010969252325594425,0.027329519391059875,0.132147908210754395,0.080192655324935913,0.010369498282670975,0.027390373870730400,0.007914131507277489,0.040528364479541779,0.082773178815841675,0.058249000459909439,-0.040541887283325195,-0.124337531626224518,-0.148301467299461365,-0.108902432024478912,0.022379016503691673,-0.114106126129627228,0.019170595332980156,0.124289251863956451,-0.025256162509322166,-0.113180041313171387,0.074425943195819855,0.100369252264499664,-0.167781502008438110,-0.025925971567630768,0.098866730928421021,-0.004513392690569162,0.050031207501888275,-0.061189249157905579,-0.068442806601524353,0.027439916506409645,-0.083070911467075348,0.020968282595276833,0.045668669044971466,-0.050321407616138458,-0.072701811790466309,0.075300581753253937,-0.043308772146701813,0.110441744327545166,0.039763078093528748,-0.063365496695041656,-0.021870048716664314,-0.042551171034574509,0.022710375487804413,0.113297469913959503,-0.073077246546745300,0.035832729190587997,-0.003254800336435437,0.140478029847145081,-0.074478842318058014,0.000166892554261722,0.096918508410453796,-0.005438476800918579,0.007297742180526257
-0.112975910305976868,0.039128042757511139,0.032344073057174683,0.069198258221149445,-0.137038946151733398,0.028631627559661865,-0.008837969042360783,0.088459029793739319,0.074520990252494812,0.081025801599025726,-0.034230090677738190,0.091240122914314270,-0.059789232909679413,-0.053115729242563248,0.083492428064346313,0.027044443413615227,0.087421782314777374,0.092352584004402161,-0.093518100678920746,0.003474418073892593,0.092731915414333344,0.085222594439983368,-0.042402770370244980,-0.031684663146734238,0.070585399866104126,-0.058394227176904678,0.000857587147038430,0.009635922499001026,0.065152198076248169,-0.089978612959384918,0.037685763090848923,-0.039127018302679062,-0.024972438812255859,-0.050752844661474228,0.081364117562770844,0.071513101458549500,-0.027838874608278275,-0.091869719326496124,0.028253898024559021,0.034674294292926788,-0.013624704442918301,0.013442087918519974,-0.006732723675668240,-0.015898542478680611,0.077613495290279388,-0.087921775877475739,-0.059100385755300522,0.105775661766529083,-0.095727801322937012,0.010355132631957531,-0.093117378652095795,0.039654929190874100,-0.015498409979045391,0.090750433504581451,-0.115655303001403809,-0.023968605324625969,-0.008420320227742195,-0.022868912667036057,0.051882371306419373,0.100958570837974548,0.041115116328001022,0.024707501754164696,0.102051123976707458,-0.042480580508708954,0.054402578622102737,-0.054382305592298508,0.098298795521259308,-0.018515605479478836,-0.066216021776199341,-0.010357831604778767,0.067577876150608063,-0.026859654113650322,0.097774811089038849,0.011204627342522144,0.076097860932350159,0.144914716482162476,-0.010694587603211403,0.072442680597305298,0.174450188875198364,-0.001922049559652805,-0.027968268841505051,-0.016440475359559059,-0.062264375388622284,-0.080658234655857086,0.136957496404647827,-0.137779325246810913,0.059375088661909103,-0.058001108467578888,0.001959193730726838,0.007886980660259724,-0.056577734649181366,0.016854222863912582,0.038200117647647858,-0.063457868993282318,-0.100525528192520142,0.078119963407516479,0.019676156342029572,-0.151562452316284180,-0.091296665370464325,0.102748855948448181,-0.057253211736679077,-0.030680201947689056,-0.001888855476863682,0.093111269176006317,-0.078145623207092285,0.095815226435661316,-0.040268085896968842,0.037689421325922012,-0.026769798249006271,0.044910360127687454,0.071112394332885742,0.094148278236389160,-0.063028804957866669,-0.074230298399925232,0.064672313630580902,0.076797015964984894,-0.083636529743671417,-0.064383953809738159,0.076583854854106903,-0.026965653523802757,0.016949342563748360,0.118481643497943878,-0.025234701111912727,0.016325067728757858,-0.038902059197425842,0.029804140329360962,-0.064592108130455017,0.009074457921087742
-0.097444817423820496,0.102628022432327271,0.034078359603881836,-0.006543480325490236,-0.018708629533648491,-0.101265631616115570,-0.012622860260307789,-0.007805724628269672,-0.102815493941307068,0.015749834477901459,0.088408954441547394,0.078560352325439453,-0.040315050631761551,-0.033622037619352341,0.040351126343011856,-0.112859427928924561,-0.069090239703655243,-0.024549875408411026,-0.035511042922735214,0.014468687586486340,-0.033530075103044510,0.008512679487466812,-0.071537129580974579,-0.045339714735746384,0.096627287566661835,-0.155460640788078308,0.032136987894773483,0.025988204404711723,0.049441013485193253,0.050867769867181778,-0.067954644560813904,0.019766129553318024,0.035125091671943665,-0.076740205287933350,-0.083124436438083649,0.026808228343725204,-0.043963097035884857,-0.091692045331001282,0.056136801838874817,0.099304080009460449,-0.053581383079290390,-0.043895129114389420,-0.055998489260673523,-0.029383342713117599,0.056700270622968674,-0.016902113333344460,-0.009576910175383091,0.034585785120725632,0.096283219754695892,0.006355279590934515,0.048431795090436935,0.039298851042985916,0.063959702849388123,-0.059567581862211227,0.056499190628528595,0.031974513083696365,-0.059468951076269150,0.136937484145164490,0.121542863547801971,0.044927194714546204,-0.000512176018673927,0.079501725733280182,0.088485039770603180,-0.029785910621285439,-0.014063689857721329,0.017365023493766785,-0.083929963409900665,0.003814853727817535,-0.076243482530117035,0.025842579081654549,0.037464153021574020,0.087266981601715088,0.023060051724314690,0.077603444457054138,-0.013498282991349697,-0.000385799299692735,0.014304784126579762,0.120683223009109497,0.045625220984220505,0.040189962834119797,0.083837367594242096,-0.008424107916653156,-0.088882081210613251,-0.087374486029148102,0.043846819549798965,-0.017852095887064934,0.041297726333141327,0.029358703643083572,-0.061879415065050125,0.012963893823325634,-0.110638447105884552,-0.001589861582033336,0.134029150009155273,-0.051471687853336334,0.150725826621055603,0.012658577412366867,0.002077046548947692,-0.089606761932373047,-0.020482499152421951,0.016412869095802307,0.015809768810868263,-0.007723855786025524,-0.040336783975362778,-0.066824980080127716,-0.055363696068525314,0.118907116353511810,-0.031329870223999023,-0.029575347900390625,-0.043281659483909607,-0.138644814491271973,0.098498202860355377,0.021720621734857559,0.013335598632693291,0.013878079131245613,0.113459385931491852,-0.101373150944709778,-0.046457827091217041,0.011570484377443790,-0.073168836534023285,0.038337469100952148,0.037966966629028320,-0.132126167416572571,-0.030486652627587318,-0.024570269510149956,0.042944729328155518,0.009676041081547737,-0.014963705092668533,0.043142296373844147
-0.053126502782106400,0.038928709924221039,0.013106611557304859,-0.012202948331832886,-0.076374627649784088,-0.061288788914680481,-0.137950852513313293,-0.004649551119655371,0.035784896463155746,-0.000556162267457694,-0.038143672049045563,0.066545017063617706,0.069800145924091339,0.049654230475425720,0.029711650684475899,0.034759312868118286,0.026014344766736031,0.026767276227474213,-0.037248633801937103,-0.021774150431156158,-0.070209667086601257,0.079424902796745300,-0.015448727644979954,-0.001037323730997741,-0.084417358040809631,-0.029003458097577095,-0.002941472921520472,-0.115034133195877075,0.112623214721679688,0.002339496277272701,0.058055520057678223,0.006620902568101883,0.028239579871296883,-0.022811718285083771,-0.051215521991252899,0.113735288381576538,0.059711575508117676,-0.082294352352619171,-0.056588124483823776,0.097851812839508057,-0.033523999154567719,-0.031289529055356979,0.047421354800462723,0.054582193493843079,0.079769968986511230,-0.017440054565668106,0.081880584359169006,0.053537450730800629,0.079421937465667725,0.007256293669342995,0.070505514740943909,0.055336102843284607,0.113076478242874146,-0.045231241732835770,-0.019418435171246529,0.002490296028554440,0.137168198823928833,0.070736005902290344,-0.025094805285334587,0.004110463429242373,-0.077347546815872192,0.106535077095031738,0.019680388271808624,0.020254930481314659,0.078079998493194580,0.063916347920894623,0.057122290134429932,0.051640689373016357,-0.010052012279629707,-0.031868126243352890,0.027699211612343788,0.069128513336181641,-0.059028606861829758,-0.048491455614566803,-0.039468094706535339,0.016244022175669670,-0.066458962857723236,0.047680519521236420,0.063878677785396576,0.044502332806587219,0.014931353740394115,0.056401941925287247,0.004452758934348822,-0.037940744310617447,0.012001279741525650,0.007330961059778929,0.008607022464275360,0.040765687823295593,0.063020691275596619,-0.000377963646315038,-0.004704060964286327,0.027828747406601906,0.016902389004826546,-0.044915527105331421,-0.013757910579442978,-0.014291574247181416,0.085085883736610413,-0.033020671457052231,0.068095825612545013,0.050037890672683716,-0.017185499891638756,-0.026713082566857338,-0.067463584244251251,0.000091992071247660,-0.040444396436214447,-0.009844181127846241,0.033971987664699554,0.037817519158124924,-0.082896567881107330,0.019212806597352028,0.122195318341255188,0.114841021597385406,-0.009812242351472378,-0.072108805179595947,0.084230504930019379,0.052349485456943512,-0.033304005861282349,0.082908257842063904,0.036697994917631149,0.008718403987586498,0.081087417900562286,-0.093669004738330841,-0.020253051072359085,-0.016775181517004967,-0.085507735610008240,0.066826142370700836,-0.015455685555934906,-0.116424791514873505
-0.068150147795677185,-0.050017923116683960,-0.077976599335670471,0.100636929273605347,-0.062584906816482544,0.054716322571039200,-0.108403332531452179,-0.072163119912147522,0.133714944124221802,-0.043691277503967285,0.102500788867473602,0.044645182788372040,-0.032443568110466003,0.077098600566387177,0.026358060538768768,0.019483506679534912,-0.021245475858449936,0.043886739760637283,0.025992928072810173,-0.120805501937866211,-0.100711576640605927,0.093938700854778290,-0.009590580128133297,0.006822152528911829,0.072730071842670441,-0.085115753114223480,0.087019048631191254,-0.033575393259525299,-0.028346670791506767,0.053336966782808304,0.140337035059928894,-0.040682114660739899,0.007987374439835548,0.067693270742893219,0.090376861393451691,-0.008833944797515869,0.000898213300388306,-0.006901768501847982,0.058934919536113739,0.213441655039787292,0.023067796602845192,0.034575045108795166,0.019443025812506676,0.070445410907268524,0.012550606392323971,0.033520054072141647,0.004491948988288641,0.123920090496540070,-0.101727075874805450,-0.089553967118263245,-0.073991149663925171,-0.002780516864731908,-0.067427299916744232,0.034984387457370758,0.020698748528957367,0.096209242939949036,0.010970790870487690,0.091367326676845551,-0.060711190104484558,0.085225507616996765,0.038220174610614777,0.077451251447200775,0.070059388875961304,-0.000712805893272161,-0.015626838430762291,-0.072342135012149811,0.029582904651761055,0.094563193619251251,0.050387270748615265,-0.053215287625789642,-0.060286164283752441,-0.019636057317256927,-0.054659102112054825,0.039169620722532272,0.068162582814693451,0.007598381955176592,-0.073407351970672607,0.113750286400318146,0.001538840704597533,0.059262596070766449,-0.017324985936284065,0.063412159681320190,0.129112839698791504,0.007895274087786674,0.013833803124725819,-0.060559768229722977,-0.025677880272269249,-0.027901215478777885,0.001777142169885337,-0.011843819171190262,-0.153543263673782349,0.088289484381675720,0.079161189496517181,-0.057028219103813171,-0.041998781263828278,0.000554219004698098,-0.075827404856681824,-0.092237569391727448,-0.015163626521825790,0.079521037638187408,-0.015311622060835361,0.031501088291406631,-0.125573635101318359,0.042903263121843338,-0.021792229264974594,0.046152178198099136,0.091203548014163971,0.012641040608286858,-0.000792504637502134,-0.055522967129945755,0.135198533535003662,-0.000300915795378387,0.070666894316673279,-0.042592313140630722,0.032287400215864182,0.027006149291992188,-0.084054715931415558,-0.103962965309619904,0.089292280375957489,0.068389467895030975,-0.061485223472118378,0.009625311009585857,0.013530298136174679,-0.003926688339561224,0.058859542012214661,0.013458542525768280,-0.025255231186747551,0.006184575147926807
-0.080954916775226593,0.064012810587882996,-0.034313444048166275,-0.056961011141538620,-0.014223592355847359,-0.001546052517369390,-0.056657113134860992,-0.012402331456542015,0.047487013041973114,0.031892601400613785,-0.002422376303002238,0.116067141294479370,-0.012363865971565247,0.004166409838944674,-0.000701462035067379,0.048857320100069046,0.000626723340246826,0.002241738373413682,0.063521087169647217,0.027771774679422379,0.076557017862796783,-0.046124819666147232,0.054094679653644562,-0.020935468375682831,-0.054278232157230377,-0.069987408816814423,-0.026110213249921799,-0.027796920388936996,0.099541291594505310,-0.061593528836965561,0.136253893375396729,-0.101405508816242218,-0.015784868970513344,-0.067019790410995483,0.035972185432910919,0.131797954440116882,0.147251695394515991,-0.107875332236289978,-0.000527284690178931,0.153563395142555237,-0.110605895519256592,0.012193953618407249,0.084906198084354401,0.048910457640886307,0.042586620897054672,0.044668249785900116,-0.065334253013134003,0.130647078156471252,-0.026486797258257866,0.001401092391461134,-0.107377894222736359,0.057888142764568329,-0.005051286425441504,-0.064578950405120850,-0.069478146731853485,0.020764697343111038,0.130881741642951965,0.077920705080032349,-0.046232093125581741,-0.006476195994764566,0.031395491212606430,0.150123193860054016,0.010509741492569447,-0.054539851844310760,-0.050769209861755371,-0.041019152849912643,0.085305877029895782,0.131585732102394104,-0.051880069077014923,-0.046316016465425491,0.017161125317215919,-0.033932123333215714,0.079288989305496216,-0.003266985761001706,0.005399484187364578,0.124843761324882507,0.076858475804328918,0.089830040931701660,0.003101258771494031,0.095365852117538452,0.034354913979768753,-0.063423350453376770,0.064326666295528412,-0.077207848429679871,0.018603969365358353,-0.003681573085486889,-0.004342320840805769,-0.010008390061557293,-0.025446519255638123,0.083215303719043732,-0.036413960158824921,-0.010526364669203758,0.164082810282707214,-0.041345752775669098,-0.087622843682765961,0.009143540635704994,-0.051802448928356171,-0.075045734643936157,-0.023218929767608643,0.082709163427352905,-0.036545380949974060,0.072694085538387299,-0.036740276962518692,-0.026343621313571930,-0.134293481707572937,0.072967924177646637,-0.085393831133842468,0.019387781620025635,-0.017421845346689224,0.018220687285065651,0.020661327987909317,0.026142617687582970,-0.010967053472995758,-0.050132721662521362,-0.051142521202564240,0.007450419012457132,-0.125491812825202942,0.062812030315399170,0.014339402318000793,-0.047384608536958694,-0.090712070465087891,0.055418040603399277,0.021865302696824074,0.037227656692266464,-0.107352212071418762,-0.086400292813777924,0.034442100673913956,-0.074925616383552551
-0.028629411011934280,0.010164245963096619,-0.086331382393836975,-0.040752805769443512,-0.063606403768062592,0.047415275126695633,-0.031687729060649872,0.049632374197244644,-0.057773005217313766,0.044187210500240326,0.079162724316120148,-0.010052950121462345,0.019354792311787605,0.027164041996002197,-0.049463361501693726,-0.063208073377609253,0.014001489616930485,0.030095048248767853,-0.069183215498924255,-0.077843979001045227,-0.067897975444793701,0.043415658175945282,-0.036091074347496033,-0.063091643154621124,0.029920946806669235,-0.045359604060649872,-0.063265077769756317,0.081611946225166321,-0.010677377693355083,-0.038626816123723984,0.021190296858549118,-0.114945404231548309,0.056742977350950241,-0.003690404351800680,-0.061645656824111938,0.075678855180740356,-0.066568039357662201,-0.080212496221065521,-0.062799148261547089,0.060225129127502441,-0.079134203493595123,0.059863992035388947,-0.094317987561225891,0.023408634588122368,0.025511050596833229,0.020331664010882378,-0.011502801440656185,-0.028249336406588554,0.058388035744428635,-0.092575475573539734,-0.070296876132488251,-0.014899573288857937,0.063099771738052368,-0.059305496513843536,-0.000098221702501178,0.058166570961475372,0.075272142887115479,-0.014217163436114788,-0.026319487020373344,-0.018063412979245186,-0.100193381309509277,-0.025322759523987770,0.052822820842266083,-0.038953501731157303,0.034861847758293152,0.075204044580459595,-0.099242471158504486,0.145513415336608887,-0.047553356736898422,-0.081577777862548828,-0.004481809679418802,-0.066893570125102997,-0.026680456474423409,-0.012013318017125130,-0.055154692381620407,-0.043127134442329407,0.006835049949586391,0.073758751153945923,0.109371371567249298,-0.117349930107593536,-0.029190830886363983,0.016272747889161110,0.022059241309762001,-0.048710238188505173,0.107182502746582031,-0.001342650735750794,-0.050740130245685577,-0.085858233273029327,-0.037805855274200439,0.113812446594238281,0.007415352389216423,0.025931598618626595,0.014298995025455952,0.079829603433609009,0.077966161072254181,0.017783137038350105,0.024107033386826515,-0.109331198036670685,-0.053078625351190567,0.074110306799411774,-0.040785074234008789,0.081119634211063385,-0.121235758066177368,-0.055279195308685303,-0.115042239427566528,0.018485179170966148,0.094060361385345459,0.061086971312761307,0.009354936890304089,-0.106744192540645599,-0.028093900531530380,-0.009934011846780777,0.036926742643117905,0.023531546816229820,0.087512649595737457,-0.085784144699573517,-0.036346204578876495,0.056579764932394028,0.039802405983209610,-0.044659439474344254,-0.004436645656824112,0.009646294638514519,0.124026924371719360,-0.002357137622311711,0.040965687483549118,0.033920638263225555,-0.020980060100555420,-0.043845970183610916
0.031191963702440262,-0.075699463486671448,-0.100642733275890350,0.000476849498227239,-0.089775390923023224,0.001666680327616632,-0.041245739907026291,0.087166056036949158,0.020929712802171707,0.001661389251239598,-0.004113989416509867,0.052567489445209503,0.040585514158010483,0.001187684596516192,0.087914869189262390,0.036798764020204544,-0.076167389750480652,-0.091710209846496582,0.025338394567370415,-0.097926445305347443,-0.031946644186973572,0.050549391657114029,-0.079269692301750183,-0.059215437620878220,0.009828522801399231,-0.045018196105957031,0.060606878250837326,-0.005133399739861488,0.097359031438827515,-0.076058469712734222,0.007922414690256119,-0.055385850369930267,0.041592646390199661,-0.072540380060672760,-0.010355513542890549,0.104793630540370941,0.014688342809677124,-0.055711332708597183,-0.057089351117610931,0.021352583542466164,-0.015606776811182499,-0.063132621347904205,-0.042489703744649887,0.059557389467954636,0.064950481057167053,0.123464785516262054,-0.062727309763431549,-0.064410112798213959,-0.047820623964071274,-0.073148734867572784,-0.041575670242309570,0.030129166319966316,-0.056573331356048584,0.053063198924064636,-0.002258779015392065,0.028995871543884277,-0.014970982447266579,-0.031117344275116920,-0.056268114596605301,0.062718532979488373,0.024960070848464966,0.150715172290802002,0.001976841827854514,-0.040592655539512634,0.093628525733947754,-0.015997381880879402,0.090696685016155243,-0.033318758010864258,-0.031580481678247452,0.058615602552890778,0.033963739871978760,-0.026708342134952545,-0.068948000669479370,0.002174758119508624,-0.060310326516628265,0.029842002317309380,0.067250467836856842,0.063879191875457764,0.104551352560520172,-0.025658279657363892,-0.039314154535531998,0.105525329709053040,0.141646206378936768,-0.005344131030142307,0.095953859388828278,0.052387475967407227,-0.048244275152683258,0.037072580307722092,0.029613414779305458,-0.029947100207209587,-0.007196889724582434,0.059921070933341980,0.081250235438346863,0.008383383043110371,-0.043114926666021347,0.088628046214580536,0.088350161910057068,0.043343584984540939,-0.019328922033309937,0.087569050490856171,0.006969046778976917,0.110746294260025024,-0.059670008718967438,0.079992458224296570,-0.120651654899120331,0.003751034848392010,0.028876585885882378,-0.084124214947223663,-0.027030061930418015,-0.092158213257789612,0.005251387599855661,0.051131758838891983,0.112285114824771881,-0.017238365486264229,-0.042365886270999908,0.086352139711380005,-0.035765822976827621,-0.000123262812849134,0.068144269287586212,0.087818995118141174,-0.065057389438152313,0.046192850917577744,-0.062157794833183289,-0.069572657346725464,-0.095556408166885376,-0.049856394529342651,-0.077134303748607635,-0.042301815003156662
0.110361404716968536,0.101203516125679016,-0.062942795455455780,-0.062907658517360687,0.097292736172676086,-0.028344880789518356,-0.054720737040042877,0.036280762404203415,0.023054478690028191,0.080479249358177185,0.063548319041728973,0.024447780102491379,-0.015533424913883209,0.003726687747985125,0.046227872371673584,-0.004408199340105057,0.049511410295963287,-0.051295459270477295,0.005495531484484673,0.009208156727254391,0.015394953079521656,-0.039332780987024307,-0.148006260395050049,0.005609930958598852,-0.035512976348400116,-0.082411728799343109,0.058524496853351593,-0.075400307774543762,0.009934240020811558,-0.092436946928501129,0.101251311600208282,0.063033990561962128,0.024781800806522369,0.091105841100215912,-0.061899941414594650,-0.116694338619709015,-0.018137864768505096,-0.040995124727487564,-0.032877802848815918,0.026608502492308617,-0.071462571620941162,0.083707511425018311,0.083142347633838654,-0.088180601596832275,0.123367056250572205,0.025281660258769989,0.006882297340780497,0.163597583770751953,0.014726834371685982,-0.049282465130090714,0.076500006020069122,0.125315070152282715,0.007188520859926939,-0.039366662502288818,-0.024891003966331482,-0.025518454611301422,0.116213075816631317,-0.057887550443410873,-0.133079901337623596,0.067945465445518494,-0.065804854035377502,0.108932033181190491,-0.028478903695940971,-0.024257706478238106,0.024382032454013824,-0.024890625849366188,0.090482763946056366,0.093223601579666138,0.081444717943668365,0.045239992439746857,-0.063340157270431519,0.074926972389221191,-0.026288313791155815,0.044716551899909973,-0.039581116288900375,0.010220538824796677,0.036559723317623138,-0.000164713390404359,-0.008183606900274754,-0.083199411630630493,0.059081070125102997,0.018045464530587196,0.075594425201416016,-0.003254009643569589,-0.054813843220472336,-0.051108527928590775,-0.064091674983501434,0.005530582740902901,-0.118501722812652588,0.044771667569875717,0.005212830379605293,0.032432857900857925,-0.021821495145559311,-0.094453603029251099,-0.072902388870716095,-0.019192291423678398,-0.004799118731170893,-0.044184166938066483,-0.015612680464982986,0.077005699276924133,0.032286237925291061,0.128183230757713318,0.012941456399857998,-0.071150757372379303,-0.017203265801072121,-0.056018918752670288,0.065974079072475433,-0.061013240367174149,-0.007723386865109205,-0.076029270887374878,0.132481008768081665,0.044158458709716797,0.058293055742979050,-0.036405261605978012,-0.099928699433803558,0.094773232936859131,-0.024372721090912819,-0.025937061756849289,0.084933333098888397,-0.068031519651412964,-0.027225984260439873,-0.001179638784378767,0.061906069517135620,0.043184563517570496,-0.116595938801765442,-0.080688744783401489,-0.080127723515033722,-0.152291312813758850
-0.005347338970750570,0.022733049467206001,-0.015725236386060715,0.101666331291198730,-0.058277096599340439,0.051531732082366943,-0.044453047215938568,0.065044566988945007,0.064221143722534180,0.055148035287857056,-0.041626531630754471,0.022160163149237633,-0.013910630717873573,-0.040634136646986008,0.116636775434017181,0.044755503535270691,-0.047050319612026215,-0.002521999878808856,0.010271003469824791,-0.099668852984905243,0.050466440618038177,0.036871939897537231,-0.000887036556378007,-0.060078799724578857,-0.041728954762220383,0.003627123311161995,0.090945661067962646,-0.081386655569076538,0.006224147044122219,-0.000206040058401413,0.021477708593010902,-0.031971074640750885,-0.093347460031509399,0.022859031334519386,-0.037378173321485519,-0.055585566908121109,0.024414133280515671,-0.034466996788978577,-0.024892652407288551,0.080249212682247162,-0.030096504837274551,-0.010713107883930206,0.004926091525703669,0.010345174930989742,0.086985498666763306,-0.032677903771400452,-0.024018684402108192,0.040759924799203873,-0.032923568040132523,-0.030438035726547241,-0.058947384357452393,0.135659381747245789,0.085221283137798309,-0.070301778614521027,-0.017633453011512756,0.060497079044580460,0.083903037011623383,0.047288220375776291,-0.083752840757369995,0.041269268840551376,0.031570717692375183,0.125758364796638489,-0.056789889931678772,-0.033547390252351761,0.003845578758046031,-0.058907091617584229,-0.008172149769961834,0.096613019704818726,-0.010440088808536530,-0.077152892947196960,0.028450954705476761,0.071838408708572388,0.039334081113338470,0.105088345706462860,-0.091061368584632874,0.003206646535545588,-0.034331943839788437,0.035016655921936035,0.080782242119312286,-0.005724635906517506,0.063824966549873352,-0.047943394631147385,0.097693607211112976,0.034217614680528641,0.011269119568169117,-0.037752214819192886,-0.098719879984855652,0.007241154555231333,-0.065138727426528931,0.117963016033172607,-0.035035815089941025,0.070088773965835571,0.096243903040885925,-0.064241856336593628,-0.099529556930065155,-0.020254502072930336,0.029841955751180649,-0.060185816138982773,0.046613745391368866,0.005787626840174198,-0.083072938024997711,0.101937696337699890,-0.011170748621225357,0.084671609103679657,-0.032927922904491425,-0.021728351712226868,0.015747461467981339,0.023601459339261055,-0.026184737682342529,-0.118850201368331909,0.018540499731898308,0.027529830113053322,0.029595581814646721,-0.020866740494966507,0.041969828307628632,0.094659082591533661,-0.051554027944803238,0.045593336224555969,0.147567600011825562,0.072140067815780640,-0.060923021286725998,-0.034464731812477112,-0.019480923190712929,0.039318684488534927,-0.026578586548566818,0.087849050760269165,-0.093667410314083099,-0.147744327783584595
0.060658261179924011,-0.054348718374967575,0.018270662054419518,0.000688298081513494,0.000505131902173162,-0.001859056530520320,-0.144796147942543030,0.059119138866662979,0.033424738794565201,-0.108537539839744568,-0.054250452667474747,0.007121968083083630,0.050541501492261887,-0.023933157324790955,-0.074691623449325562,0.080450870096683502,-0.016586646437644958,0.062045361846685410,-0.036281574517488480,0.017268514260649681,-0.117460243403911591,-0.023290030658245087,-0.072150796651840210,0.002840245142579079,0.100881956517696381,-0.166313007473945618,0.081845022737979889,0.025365086272358894,0.060918316245079041,-0.010374078527092934,0.080983959138393402,-0.070592895150184631,0.060065500438213348,0.031931567937135696,-0.045593306422233582,0.016528092324733734,0.115539900958538055,-0.037576936185359955,-0.042132515460252762,-0.020433964207768440,-0.192383900284767151,0.008587626740336418,-0.027632631361484528,-0.010860163718461990,-0.051444668322801590,0.071800351142883301,0.106762267649173737,-0.049330763518810272,0.011864347383379936,0.007728944532573223,0.035207509994506836,-0.019371399655938148,-0.015624562278389931,0.014955041930079460,-0.048198286443948746,-0.013271162286400795,-0.024612681940197945,0.146406561136245728,-0.044523533433675766,0.058564912527799606,-0.118203699588775635,0.049991331994533539,0.006255063693970442,0.037215817719697952,-0.014180349186062813,-0.068926282227039337,0.016442064195871353,-0.016328088939189911,-0.031609278172254562,0.007120094262063503,0.019776245579123497,0.037493914365768433,0.003825375810265541,0.072543151676654816,-0.012749032117426395,0.006712235510349274,-0.035510044544935226,-0.063860200345516205,-0.021489763632416725,0.072530969977378845,-0.029404710978269577,0.041708495467901230,-0.061677768826484680,-0.037687532603740692,-0.015544485300779343,-0.069506362080574036,-0.085930772125720978,-0.064823113381862640,0.095503561198711395,-0.001207293709740043,-0.118890494108200073,-0.001667634584009647,-0.006892854347825050,-0.048962820321321487,0.091880567371845245,-0.037191376090049744,0.085195757448673248,0.039280209690332413,-0.010351654142141342,0.022297456860542297,-0.016172587871551514,0.137463375926017761,-0.101470954716205597,0.097433552145957947,-0.016642266884446144,0.087322629988193512,-0.076939135789871216,-0.049677733331918716,-0.046933393925428391,-0.125567764043807983,0.114904321730136871,0.026558851823210716,0.142463371157646179,-0.128520458936691284,-0.072725169360637665,-0.090286768972873688,-0.157674163579940796,-0.077460207045078278,0.042170189321041107,0.104565955698490143,-0.001486829016357660,0.046396877616643906,-0.016799975186586380,0.001976794563233852,-0.101062633097171783,0.038813687860965729,-0.032502517104148865,-0.099532313644886017
