-0.056957077234983444
-0.028904398903250694
0.028292592614889145
0.021987289190292358
-0.001938682398758829
0.070130199193954468
-0.061734970659017563
0.067171573638916016
-0.045987695455551147
-0.002895367098972201
0.100963160395622253
-0.054833814501762390
0.001002753386273980
-0.027943054214119911
0.102635405957698822
0.051162447780370712
-0.013691519387066364
-0.016721939668059349
-0.071089416742324829
0.059621889144182205
-0.049519497901201248
-0.019649155437946320
-0.026641150936484337
0.064737170934677124
-0.043607559055089951
-0.027906566858291626
0.027045421302318573
-0.017424110323190689
0.066688150167465210
-0.018855383619666100
0.006312930956482887
-0.047656483948230743
0.091061986982822418
0.020971646532416344
0.092019855976104736
0.002176339970901608
0.031014671549201012
-0.036208875477313995
0.033442620187997818
0.023203024640679359
-0.021254276856780052
0.006887639872729778
0.021181043237447739
0.070535294711589813
-0.019227493554353714
0.079956077039241791
-0.025786364451050758
-0.028216032311320305
0.137403979897499084
0.073299705982208252
-0.022001380100846291
0.026837052777409554
0.034294590353965759
0.034615024924278259
0.158068925142288208
0.012685639783740044
0.132305204868316650
-0.014854970388114452
0.087107859551906586
0.019102148711681366
0.059149641543626785
-0.011849055998027325
0.034650642424821854
-0.010029839351773262
0.008561958558857441
0.048176530748605728
0.133899539709091187
0.001326429774053395
0.011331481859087944
-0.031123692169785500
0.006755838170647621
-0.020971866324543953
0.078679248690605164
0.036128938198089600
0.018578512594103813
-0.045422233641147614
-0.049590993672609329
-0.060059186071157455
