-0.123237803578376770,0.325096607208251953,-0.041004389524459839,0.258754193782806396,0.177602648735046387,0.167344450950622559,-0.097246333956718445,-0.006594444159418344,0.195810779929161072,0.376439869403839111,-0.105368658900260925,0.027392629534006119,-0.214768528938293457,0.042737942188978195,-0.040635060518980026,0.104685708880424500,0.094959020614624023,-0.207460537552833557,-0.087806880474090576,-0.225049585103988647,0.046168379485607147,0.232138812541961670,-0.289042234420776367,0.167073041200637817,-0.196853160858154297,0.055510565638542175,0.096123486757278442,0.231194481253623962,0.097121506929397583,0.030705040320754051,-0.022383779287338257,0.030469508841633797,-0.125147104263305664,0.231713056564331055,-0.138742163777351379,-0.107705973088741302,0.223677128553390503,0.238210752606391907,0.035193055868148804,0.022319324314594269,0.154584273695945740,0.186176419258117676,0.268168032169342041,-0.050474599003791809,0.112381562590599060,-0.275021761655807495,0.135327443480491638,-0.363723635673522949,-0.178590387105941772,0.244764313101768494,0.041985858231782913,-0.098088286817073822,-0.300903439521789551,0.246514499187469482,-0.033386312425136566,0.176303550601005554,-0.206025853753089905,-0.234951466321945190,0.028913080692291260,-0.006343937013298273,-0.344057470560073853,0.007521606050431728,-0.043141838163137436,0.156194984912872314,-0.028475958853960037,0.223163902759552002,-0.083855368196964264,0.120804116129875183,-0.069731026887893677,-0.261723786592483521,-0.182413503527641296,-0.138675466179847717,-0.208568349480628967,0.262073040008544922,-0.196289375424385071,0.042928081005811691
0.037320461124181747,0.032913610339164734,0.110074453055858612,0.023833462968468666,0.087501429021358490,0.033235251903533936,-0.062995955348014832,-0.116725310683250427,-0.106806829571723938,0.256676644086837769,-0.035533957183361053,-0.250221967697143555,-0.189989462494850159,0.125892430543899536,-0.170537531375885010,-0.425768405199050903,0.009948128834366798,-0.338165313005447388,0.055080723017454147,-0.035436142235994339,0.189282491803169250,-0.008479797281324863,0.087484113872051239,-0.087979502975940704,-0.109635628759860992,0.101443931460380554,-0.174054682254791260,-0.151983112096786499,0.136308848857879639,-0.288470774888992310,-0.290547281503677368,0.024114359170198441,0.008401808328926563,0.048421695828437805,-0.121196046471595764,-0.181169539690017700,-0.123742073774337769,0.223759502172470093,0.226858437061309814,0.127583667635917664,-0.243402630090713501,-0.209788426756858826,0.135520592331886292,-0.209241092205047607,-0.355077236890792847,-0.086088053882122040,-0.097235374152660370,0.237531274557113647,-0.382879793643951416,0.053670443594455719,-0.243940800428390503,-0.059663739055395126,-0.228725492954254150,0.036746520549058914,-0.098475500941276550,0.209184765815734863,-0.075844690203666687,0.296325743198394775,-0.246361657977104187,-0.021223505958914757,0.004881828557699919,0.014863924123346806,0.208358734846115112,0.020021470263600349,0.030632639303803444,0.050645343959331512,0.015521892346441746,-0.031497295945882797,-0.043818198144435883,0.079279080033302307,0.281023085117340088,0.176371142268180847,0.272933214902877808,-0.123633518815040588,0.141712740063667297,0.131629705429077148
-0.054323669523000717,0.148503988981246948,0.055533032864332199,0.166837826371192932,0.058497391641139984,-0.209740981459617615,0.230250641703605652,-0.181249663233757019,0.062336727976799011,-0.267320513725280762,0.122225619852542877,0.257090240716934204,-0.109509833157062531,-0.233914479613304138,0.138604104518890381,0.097329080104827881,0.074533961713314056,-0.096530802547931671,0.091889999806880951,0.208051428198814392,-0.124475166201591492,0.226031169295310974,0.312143832445144653,-0.015165491029620171,0.173538327217102051,0.112508364021778107,-0.148550644516944885,0.303282558917999268,-0.025960437953472137,-0.017160054296255112,-0.169418409466743469,-0.054986536502838135,0.071883507072925568,-0.091432303190231323,-0.158082008361816406,-0.066338256001472473,-0.159378796815872192,-0.130402490496635437,-0.006752725224941969,-0.123527564108371735,0.108581297099590302,-0.231115579605102539,-0.050516907125711441,-0.081514976918697357,-0.223976016044616699,0.241224542260169983,-0.038159556686878204,-0.074578419327735901,-0.115728728473186493,0.034752041101455688,-0.079965278506278992,-0.088333450257778168,0.042667731642723083,0.074994832277297974,-0.214070960879325867,0.181063741445541382,0.144398093223571777,-0.061609581112861633,0.205112442374229431,0.314212650060653687,0.036721549928188324,0.151733905076980591,0.023522475734353065,-0.184984892606735229,0.093033246695995331,0.234582319855690002,0.061785176396369934,0.252940773963928223,0.220121428370475769,-0.185284912586212158,0.207958519458770752,-0.060367383062839508,0.019678857177495956,-0.224606394767761230,-0.193074434995651245,0.088815569877624512
0.087883882224559784,-0.160097926855087280,-0.080472029745578766,-0.223860219120979309,0.146198347210884094,0.170288324356079102,0.171698659658432007,0.125459730625152588,0.023739729076623917,0.172478452324867249,-0.144705653190612793,-0.277699351310729980,-0.053592152893543243,-0.150738045573234558,-0.050428520888090134,-0.140439093112945557,-0.037973802536725998,0.187556162476539612,-0.116676002740859985,-0.072758466005325317,-0.283694356679916382,0.355399191379547119,0.184699684381484985,-0.056541230529546738,0.199925258755683899,0.003830206114798784,-0.091774255037307739,-0.153440728783607483,-0.219753757119178772,-0.060914285480976105,0.188881739974021912,-0.025688018649816513,0.212940573692321777,0.208840101957321167,0.135875031352043152,-0.184095799922943115,-0.234432235360145569,0.216885000467300415,-0.192584633827209473,-0.058421593159437180,0.129802837967872620,-0.144800022244453430,-0.070261619985103607,-0.206012189388275146,-0.133213162422180176,0.278467237949371338,0.026010571047663689,0.035049811005592346,-0.301766395568847656,0.013798244297504425,0.164900660514831543,0.370099335908889771,-0.120454229414463043,0.183136805891990662,-0.155757024884223938,0.082724295556545258,-0.144450157880783081,0.222733676433563232,-0.215204790234565735,-0.038332071155309677,-0.192170038819313049,0.083681561052799225,-0.191004320979118347,0.044455666095018387,-0.041702680289745331,0.044800311326980591,0.465698003768920898,-0.277969837188720703,-0.077880717813968658,0.060325052589178085,0.256779104471206665,0.106454566121101379,0.082962535321712494,-0.298114776611328125,0.011985785327851772,0.211402371525764465
0.095675341784954071,-0.247502356767654419,-0.222667604684829712,-0.124466903507709503,-0.236568048596382141,-0.208985447883605957,-0.224181666970252991,0.063336551189422607,-0.154577940702438354,0.096458680927753448,-0.161536395549774170,0.164410054683685303,0.089743956923484802,0.015078851953148842,0.005278704222291708,0.025236133486032486,-0.085291408002376556,0.043236270546913147,0.254240781068801880,0.055262092500925064,0.325649619102478027,0.066892541944980621,0.336360871791839600,0.165408119559288025,-0.099507667124271393,0.277534216642379761,0.071386739611625671,0.217535316944122314,0.180074319243431091,-0.234861940145492554,0.153428092598915100,0.109198726713657379,-0.073225378990173340,-0.018927117809653282,-0.066653013229370117,0.173115134239196777,-0.233142495155334473,0.075965777039527893,-0.201737359166145325,0.140443116426467896,-0.309147000312805176,0.182766318321228027,-0.093888260424137115,-0.160326495766639709,0.178069382905960083,0.017183871939778328,-0.006423573009669781,0.076128669083118439,0.324941009283065796,0.230607092380523682,-0.108721584081649780,-0.092172876000404358,0.099223017692565918,0.317036479711532593,0.206807419657707214,-0.307021886110305786,-0.246933907270431519,-0.000441026873886585,0.068317577242851257,-0.245081886649131775,-0.043522968888282776,0.231421098113059998,-0.284495174884796143,0.082337059080600739,0.137035340070724487,-0.163033708930015564,0.282487154006958008,0.236479103565216064,0.015456736087799072,-0.151441484689712524,-0.181792795658111572,0.197097748517990112,0.210326775908470154,0.276764214038848877,0.001787861227057874,0.289429903030395508
-0.097360894083976746,0.024445584043860435,-0.018259964883327484,0.046990752220153809,-0.147767484188079834,-0.116855077445507050,-0.133433684706687927,-0.128666311502456665,-0.047318942844867706,0.173561692237854004,0.037614177912473679,0.015172310173511505,0.059723488986492157,-0.331854283809661865,-0.200720936059951782,-0.148077249526977539,-0.188290119171142578,0.026205932721495628,0.042149618268013000,-0.244638115167617798,0.234388753771781921,-0.133723020553588867,-0.273927658796310425,0.181013464927673340,0.021815173327922821,0.266241222620010376,0.236417666077613831,0.047961741685867310,-0.129345685243606567,-0.146001890301704407,0.001545893261209130,-0.337501287460327148,-0.080751366913318634,0.131920784711837769,0.288985550403594971,0.263643205165863037,0.081729464232921600,-0.279555439949035645,0.133165553212165833,0.050200924277305603,-0.130784317851066589,0.029073055833578110,-0.205165341496467590,0.142700195312500000,0.226948350667953491,0.139396101236343384,-0.044056046754121780,-0.182062759995460510,0.375065922737121582,0.179258257150650024,-0.219776421785354614,-0.088195368647575378,0.229115277528762817,0.078168682754039764,-0.042887765914201736,0.037382356822490692,-0.192394003272056580,-0.170723512768745422,0.093744330108165741,0.214933887124061584,-0.233125448226928711,0.339087605476379395,0.132896825671195984,0.057991016656160355,0.183519124984741211,-0.221711426973342896,-0.085849978029727936,0.145693540573120117,-0.095112703740596771,0.038543809205293655,0.111807569861412048,0.020952867344021797,-0.042410857975482941,0.304379135370254517,-0.022691821679472923,0.097107104957103729
-0.215120732784271240,-0.081710167229175568,0.175583705306053162,0.055591695010662079,-0.090220913290977478,0.164403110742568970,-0.129455059766769409,-0.085994400084018707,-0.069845333695411682,-0.199846282601356506,-0.163169056177139282,0.018094673752784729,0.201606228947639465,0.138384044170379639,0.089447699487209320,-0.244689568877220154,0.092175841331481934,0.046582866460084915,-0.096059896051883698,0.120131008327007294,-0.030954847112298012,0.139940425753593445,-0.156071066856384277,-0.166807949542999268,-0.193182528018951416,-0.045504651963710785,-0.015155069530010223,-0.251283138990402222,-0.097643442451953888,-0.075272418558597565,-0.167952880263328552,0.085360541939735413,0.240071952342987061,0.074249185621738434,-0.087007075548171997,0.160169959068298340,-0.120870418846607208,-0.045188527554273605,0.026808515191078186,0.057874068617820740,-0.037333287298679352,-0.053778141736984253,-0.145409584045410156,-0.075362034142017365,0.144899249076843262,0.187310725450515747,0.211606413125991821,0.014305883087217808,-0.185936987400054932,0.020239133387804031,-0.094123326241970062,-0.006779507733881474,-0.196051046252250671,-0.157992124557495117,-0.093820385634899139,0.021555643528699875,0.110955864191055298,-0.058710530400276184,0.114110238850116730,0.031246356666088104,0.138836026191711426,0.087856009602546692,0.039221733808517456,-0.077548816800117493,0.031268060207366943,0.165174365043640137,-0.185257822275161743,0.064657576382160187,-0.190945565700531006,-0.119014516472816467,0.077063925564289093,0.123352654278278351,-0.149447798728942871,0.211307927966117859,-0.212288349866867065,-0.050967030227184296
-0.191739201545715332,0.163465216755867004,-0.039216641336679459,-0.054779998958110809,0.282192647457122803,0.233494132757186890,0.245417878031730652,0.014416634105145931,0.298794895410537720,-0.057237334549427032,0.080106995999813080,0.333018451929092407,-0.175494790077209473,-0.394235104322433472,-0.170316398143768311,0.227856114506721497,-0.139151692390441895,0.103794462978839874,0.040024820715188980,0.301187217235565186,-0.424097746610641479,0.150589287281036377,0.103844687342643738,-0.117146357893943787,-0.136346489191055298,0.143817201256752014,0.051586002111434937,-0.046742253005504608,0.009938457049429417,0.334962576627731323,0.209644809365272522,0.217618212103843689,0.196202412247657776,-0.169135376811027527,0.009147483855485916,-0.339709401130676270,-0.128785163164138794,-0.113724797964096069,0.192269682884216309,-0.061523571610450745,-0.001809607609175146,-0.249940156936645508,0.007902586832642555,0.133802473545074463,0.259457528591156006,0.036081392318010330,0.000518351444043219,0.172191381454467773,0.246913582086563110,-0.158909797668457031,0.157903969287872314,0.032292101532220840,0.166549772024154663,0.006320409476757050,-0.072101756930351257,0.305950999259948730,0.020335530862212181,0.258970499038696289,0.162611305713653564,0.275530219078063965,-0.425952672958374023,0.095657266676425934,-0.179691150784492493,-0.350856214761734009,0.117160044610500336,-0.191418737173080444,0.322669506072998047,0.064593933522701263,-0.112743511795997620,0.020226368680596352,0.090136811137199402,-0.090162992477416992,-0.075542472302913666,-0.176553398370742798,0.132798850536346436,0.239186808466911316
-0.016866292804479599,-0.131503254175186157,-0.008512045256793499,-0.103150606155395508,0.269141435623168945,-0.069689646363258362,-0.251759409904479980,0.120332457125186920,-0.159309893846511841,0.026538293808698654,0.316033840179443359,0.248505458235740662,-0.195740416646003723,-0.176602557301521301,-0.129350230097770691,0.296477079391479492,-0.180948108434677124,0.151267439126968384,0.257344365119934082,-0.039549145847558975,0.153159901499748230,0.120749518275260925,0.098927743732929230,0.020911214873194695,-0.186435908079147339,0.153756782412528992,0.106780230998992920,0.150373697280883789,-0.160685420036315918,0.269411832094192505,-0.178666695952415466,0.126727640628814697,-0.224645316600799561,-0.020917443558573723,-0.178147271275520325,-0.059950917959213257,-0.069805853068828583,-0.082776792347431183,0.095765724778175354,-0.099765524268150330,0.195390999317169189,0.229317739605903625,0.163560748100280762,0.018246594816446304,0.250482797622680664,-0.032820474356412888,0.041343480348587036,0.077659025788307190,-0.094108909368515015,-0.126617446541786194,-0.117462076246738434,-0.068955048918724060,0.113261066377162933,0.165209129452705383,0.181845679879188538,-0.092848204076290131,0.181646928191184998,0.118343211710453033,-0.126124501228332520,0.232248798012733459,0.160217538475990295,-0.176140353083610535,0.071634501218795776,0.150677278637886047,-0.014706552028656006,0.188067734241485596,0.184670925140380859,-0.099267676472663879,-0.038723010569810867,0.111318662762641907,0.076836600899696350,0.149006694555282593,-0.160890385508537292,0.111813090741634369,0.136696726083755493,-0.044726368039846420
-0.145706221461296082,0.188295096158981323,-0.114920236170291901,-0.246904879808425903,0.031030898913741112,-0.142238080501556396,-0.068394213914871216,-0.234158188104629517,0.328158199787139893,0.058837931603193283,-0.067236483097076416,-0.098843157291412354,0.067665807902812958,0.168692603707313538,0.172958761453628540,-0.258357524871826172,0.137027248740196228,0.027901696041226387,0.216845154762268066,0.027564024552702904,-0.239107638597488403,-0.128694534301757812,-0.206538990139961243,0.040359482169151306,-0.028539048507809639,0.176063865423202515,0.097829818725585938,0.011264631524682045,0.136343479156494141,0.040036279708147049,-0.032606754451990128,0.227208897471427917,-0.017837652936577797,0.250070601701736450,-0.060701750218868256,-0.327603667974472046,-0.203679174184799194,0.093400232493877411,0.150855720043182373,0.129598438739776611,0.212331146001815796,0.066143199801445007,-0.091571308672428131,-0.203881487250328064,-0.251176327466964722,0.072235025465488434,-0.084767602384090424,0.001335812499746680,-0.187834173440933228,0.159111201763153076,0.101050369441509247,0.064976029098033905,0.094470411539077759,0.076465137302875519,-0.329288691282272339,0.247410789132118225,0.042845807969570160,0.117944002151489258,-0.256361633539199829,0.259611457586288452,-0.236028432846069336,0.082244545221328735,0.148716017603874207,0.110569670796394348,0.128941118717193604,0.240749239921569824,-0.222164168953895569,0.099552221596240997,0.017908321693539619,-0.114809893071651459,-0.094815410673618317,-0.095555052161216736,-0.150340616703033447,-0.130249530076980591,-0.099286355078220367,-0.195529818534851074
-0.042323552072048187,0.150991454720497131,0.021017163991928101,-0.207600504159927368,0.315745413303375244,0.033347684890031815,0.153720796108245850,-0.006939392071217299,-0.180287495255470276,-0.020810471847653389,-0.059500932693481445,-0.209599524736404419,-0.198763653635978699,0.160622820258140564,0.076450884342193604,0.171866774559020996,0.110935270786285400,0.261992365121841431,0.046256635338068008,0.097952909767627716,0.087991699576377869,-0.198354065418243408,-0.172235831618309021,-0.318937093019485474,-0.155296504497528076,-0.152817130088806152,-0.049563575536012650,-0.260974973440170288,-0.170582741498947144,0.290270000696182251,-0.215514242649078369,0.284652709960937500,0.215313032269477844,-0.203880906105041504,-0.014515588991343975,-0.030537033453583717,0.077923350036144257,-0.208357319235801697,0.009764715097844601,-0.063761383295059204,0.367838799953460693,-0.158994421362876892,-0.120912306010723114,0.068320132791996002,-0.001899829716421664,0.135594680905342102,0.081234604120254517,0.093621790409088135,0.196209430694580078,-0.213390246033668518,0.068194009363651276,0.080432742834091187,0.338438123464584351,-0.238210111856460571,0.204841762781143188,0.096692048013210297,-0.113088563084602356,0.166680827736854553,0.026202443987131119,0.054734922945499420,0.074938081204891205,0.238437220454216003,-0.120219424366950989,0.109603457152843475,0.343077778816223145,-0.219878867268562317,-0.126402944326400757,0.121813684701919556,0.075371399521827698,0.052571143954992294,0.022445885464549065,-0.166438058018684387,0.051767170429229736,-0.172681391239166260,0.198534876108169556,0.074891611933708191
-0.107415638864040375,0.160757586359977722,0.052944127470254898,0.203259497880935669,-0.041891396045684814,0.107366427779197693,-0.089464358985424042,-0.021292466670274734,0.167120426893234253,0.006673758383840322,0.188214018940925598,0.144654273986816406,-0.173633530735969543,0.112933188676834106,0.052369423210620880,0.207563981413841248,-0.123467840254306793,0.371575683355331421,-0.139595374464988708,-0.283021211624145508,0.093197815120220184,-0.091226689517498016,-0.072958506643772125,-0.177441075444221497,0.160050049424171448,0.074994035065174103,-0.096657589077949524,0.000029308474040590,-0.163524046540260315,0.053861349821090698,0.092308565974235535,-0.008444316685199738,-0.069207131862640381,0.151775881648063660,-0.074934542179107666,0.275910943746566772,0.158511415123939514,0.030863109976053238,0.223479434847831726,0.090446077287197113,0.119526475667953491,-0.023284783586859703,0.117679692804813385,-0.005941444076597691,0.062268096953630447,0.236981183290481567,0.278588861227035522,-0.215894088149070740,0.021049959585070610,0.074512347579002380,0.201531752943992615,-0.145958706736564636,0.124154984951019287,0.326711356639862061,0.188030958175659180,-0.115555644035339355,-0.102778747677803040,0.071840859949588776,0.099121056497097015,0.013723144307732582,0.123068094253540039,0.126983791589736938,0.040266398340463638,0.221479639410972595,0.027728851884603500,0.012291948311030865,-0.037812363356351852,0.156033143401145935,-0.178517788648605347,-0.179241970181465149,-0.014258171431720257,-0.136457949876785278,-0.180012911558151245,-0.170018628239631653,-0.114361286163330078,0.160513997077941895
-0.176937431097030640,0.050482179969549179,-0.061631839722394943,-0.088208802044391632,-0.015334047377109528,0.187197685241699219,-0.257120281457901001,-0.065919436514377594,-0.023833107203245163,-0.048050139099359512,0.120537102222442627,-0.005318693351000547,-0.019596615806221962,-0.108919665217399597,0.136194884777069092,-0.088092096149921417,0.159060344099998474,0.160810977220535278,0.035527937114238739,-0.165964186191558838,0.015684120357036591,-0.002884731162339449,0.122930943965911865,-0.040955401957035065,0.201726973056793213,-0.103124260902404785,-0.057715639472007751,-0.097428545355796814,0.160723537206649780,-0.054133336991071701,0.141819879412651062,-0.158933460712432861,-0.169835776090621948,0.171018108725547791,-0.030044427141547203,-0.058408159762620926,-0.124016962945461273,0.020135894417762756,0.058100912719964981,0.252606630325317383,0.157152473926544189,-0.076624438166618347,0.111932061612606049,0.005176999606192112,0.173663675785064697,-0.161289736628532410,0.071710966527462006,-0.029917834326624870,0.169228628277778625,0.034604355692863464,-0.069997586309909821,-0.137098595499992371,-0.077142775058746338,0.116069205105304718,0.122899763286113739,0.208483934402465820,-0.006147502921521664,-0.103560261428356171,0.130034595727920532,0.099461607635021210,0.126125246286392212,0.124677151441574097,0.193956971168518066,0.093717850744724274,-0.107985436916351318,0.071819126605987549,0.160773351788520813,0.166286021471023560,-0.162716150283813477,-0.023707043379545212,-0.250447601079940796,-0.010635270737111568,0.041233431547880173,0.018918732181191444,0.002878712024539709,-0.009237936697900295
-0.204055517911911011,-0.170496389269828796,-0.078859537839889526,0.120535522699356079,-0.053972445428371429,0.265669971704483032,0.235470533370971680,0.166581690311431885,-0.137184873223304749,0.287658780813217163,-0.387330442667007446,-0.200028434395790100,-0.049172036349773407,0.255198031663894653,0.010461608879268169,-0.103825174272060394,-0.084213703870773315,0.025872377678751945,-0.099156491458415985,0.210777893662452698,-0.142870783805847168,-0.034731138497591019,0.100213810801506042,0.013605171814560890,-0.193414852023124695,0.120245590806007385,0.074064843356609344,-0.255920231342315674,0.107688434422016144,-0.080898120999336243,0.137739077210426331,0.224872708320617676,0.232207417488098145,0.116410836577415466,-0.081777565181255341,-0.070991784334182739,0.123057670891284943,0.189371943473815918,0.179617255926132202,-0.145649433135986328,0.113860748708248138,-0.195655599236488342,-0.056255429983139038,0.115717686712741852,-0.340578556060791016,-0.127746507525444031,0.101734660565853119,0.053455486893653870,-0.126110821962356567,0.293799817562103271,0.049456827342510223,0.133372470736503601,0.006258409935981035,-0.181614771485328674,0.070286676287651062,-0.106711409986019135,0.066305622458457947,0.204613268375396729,-0.065790370106697083,-0.200561583042144775,-0.183019936084747314,-0.226492613554000854,-0.052703835070133209,-0.009481553919613361,0.242458730936050415,-0.063552677631378174,0.123959422111511230,-0.186651080846786499,-0.013517387211322784,0.065768241882324219,0.203087374567985535,-0.163542747497558594,0.198044165968894958,0.054921925067901611,0.265890389680862427,-0.069113261997699738
-0.140022218227386475,0.062008906155824661,-0.209130063652992249,-0.104656986892223358,0.136466532945632935,-0.034087017178535461,0.026033041998744011,-0.105956330895423889,-0.190660864114761353,-0.173579081892967224,0.229439958930015564,0.233818173408508301,-0.117363430559635162,0.036421906203031540,0.279562443494796753,0.114899910986423492,-0.097312904894351959,-0.196659535169601440,0.158307746052742004,0.039133664220571518,0.253101736307144165,0.035698607563972473,-0.019916551187634468,0.039747621864080429,0.258664637804031372,0.041896935552358627,-0.023804344236850739,0.148123234510421753,-0.035850431770086288,-0.261715084314346313,0.003038159338757396,-0.449952632188796997,0.073815859854221344,-0.090803787112236023,-0.082792207598686218,-0.077360682189464569,0.087445229291915894,0.001431208802387118,0.199976041913032532,0.254640400409698486,-0.155026584863662720,-0.098788738250732422,0.226392820477485657,0.152908414602279663,0.281807392835617065,-0.112210623919963837,0.044633042067289352,-0.148218095302581787,-0.120692446827888489,-0.026833755895495415,0.039386171847581863,-0.142511591315269470,-0.224153921008110046,0.157059416174888611,0.091640897095203400,0.083895333111286163,-0.222301274538040161,-0.244134888052940369,0.257046401500701904,0.038600176572799683,0.322792947292327881,0.196199700236320496,0.072504371404647827,0.021704370155930519,-0.364249914884567261,-0.073630601167678833,0.066246710717678070,0.031987275928258896,-0.085895515978336334,0.153119921684265137,-0.135337427258491516,0.151097789406776428,0.243446603417396545,0.098443590104579926,0.012166926637291908,-0.221782907843589783
0.189131662249565125,-0.003134355647489429,0.180022507905960083,0.158443987369537354,-0.198551476001739502,-0.215118855237960815,-0.073921129107475281,-0.168845772743225098,0.214344352483749390,0.088779509067535400,0.191594332456588745,0.224986121058464050,0.182737275958061218,0.156982079148292542,0.100069329142570496,-0.007861235179007053,-0.125011846423149109,-0.170586600899696350,-0.110375061631202698,0.203370600938796997,0.032025963068008423,0.012488442473113537,0.190513074398040771,-0.030464773997664452,0.094175308942794800,-0.211359664797782898,-0.102026253938674927,0.087696090340614319,0.088742129504680634,0.022436356171965599,0.171886980533599854,-0.098494477570056915,-0.167246341705322266,-0.063141703605651855,-0.047810606658458710,0.000766714627388865,-0.215491235256195068,-0.049456581473350525,0.052780181169509888,-0.001389968791045249,-0.219445705413818359,-0.117131710052490234,0.139922067523002625,-0.214907690882682800,0.144582271575927734,0.053366784006357193,0.218776211142539978,0.168874472379684448,0.084918290376663208,0.025904037058353424,-0.114596478641033173,0.086157798767089844,-0.205375522375106812,-0.154967993497848511,0.065367475152015686,0.066806033253669739,0.206270739436149597,0.008798263967037201,0.184272095561027527,0.197970122098922729,-0.022238940000534058,-0.204255580902099609,-0.145635634660720825,-0.072023615241050720,0.094211488962173462,-0.102883897721767426,-0.212604850530624390,-0.133124381303787231,-0.128807201981544495,-0.223659723997116089,-0.054522335529327393,0.086181804537773132,0.006218637805432081,0.166271731257438660,-0.159891620278358459,-0.026014288887381554
0.000312026124447584,0.178392082452774048,0.157793685793876648,-0.033024873584508896,-0.068920589983463287,0.256478667259216309,-0.089615240693092346,0.028919959440827370,-0.066501036286354065,0.268470287322998047,-0.130443140864372253,0.080107927322387695,-0.109276913106441498,0.208269327878952026,0.011448028497397900,0.072756230831146240,0.033900279551744461,-0.184740960597991943,-0.135468333959579468,-0.108219563961029053,-0.272893220186233521,0.131417393684387207,-0.226665973663330078,-0.141455367207527161,-0.109983138740062714,-0.056453179568052292,-0.116954661905765533,0.041888356208801270,0.155178382992744446,0.125951871275901794,0.160909637808799744,-0.056405767798423767,0.073966629803180695,0.095831722021102905,-0.026747174561023712,0.180186972022056580,0.039011135697364807,-0.093605779111385345,-0.100639641284942627,0.177176147699356079,0.091132387518882751,0.014915866777300835,-0.149767279624938965,-0.088363014161586761,0.184328243136405945,0.047075040638446808,-0.162376582622528076,0.188504561781883240,-0.206820055842399597,0.119093343615531921,0.246406525373458862,-0.031934868544340134,-0.115603655576705933,0.207989752292633057,0.103520505130290985,-0.143069073557853699,-0.086116909980773926,-0.105526134371757507,-0.234835743904113770,0.080739319324493408,0.075711257755756378,-0.007637660950422287,0.007953288033604622,-0.061944607645273209,-0.077258415520191193,0.035369303077459335,-0.069065324962139130,-0.108950965106487274,-0.208311706781387329,0.132834136486053467,0.261070519685745239,0.130109161138534546,-0.254715949296951294,-0.071871809661388397,0.174444243311882019,0.107930473983287811
0.057319179177284241,-0.059422172605991364,-0.162580236792564392,0.080866038799285889,-0.050088614225387573,-0.097721189260482788,-0.222704038023948669,0.065601535141468048,-0.039795633405447006,-0.045397464185953140,0.134468078613281250,-0.023511800915002823,-0.038171622902154922,-0.112480267882347107,0.001784711377695203,0.263800293207168579,0.180636346340179443,-0.201402947306632996,0.316173255443572998,-0.012254523113369942,0.211690023541450500,0.121705636382102966,0.036369509994983673,0.081695616245269775,0.238538220524787903,0.310245424509048462,-0.075368560850620270,0.006490482483059168,0.212074711918830872,0.076551206409931183,-0.047352209687232971,0.011457065120339394,-0.264565408229827881,-0.077919319272041321,-0.072796300053596497,0.295344412326812744,-0.097940571606159210,0.018107032403349876,-0.076280079782009125,0.115362741053104401,0.053183596581220627,-0.003585817990824580,0.253224432468414307,0.069106921553611755,-0.182355925440788269,0.072565168142318726,0.014841463416814804,0.110979914665222168,0.229694664478302002,0.221165969967842102,-0.115327470004558563,0.288669258356094360,-0.041348557919263840,-0.158768072724342346,0.133333757519721985,0.018143869936466217,0.012831856496632099,-0.156670451164245605,-0.024022987112402916,0.127865403890609741,0.242804542183876038,-0.129613131284713745,0.087438456714153290,0.286704093217849731,-0.181664183735847473,0.279868096113204956,0.086792342364788055,0.076522156596183777,-0.147092089056968689,0.123531721532344818,-0.032345518469810486,-0.082767792046070099,0.198629245162010193,0.033709242939949036,-0.122922226786613464,-0.136795237660408020
0.062818579375743866,0.201921388506889343,0.035112958401441574,0.037184718996286392,-0.000651850888971239,0.129234343767166138,-0.006550509016960859,-0.252706289291381836,-0.008544666692614555,0.042658459395170212,0.101705506443977356,0.119285546243190765,0.129551425576210022,-0.037685036659240723,0.040574185550212860,-0.064593806862831116,0.325944066047668457,0.056710030883550644,0.036907035857439041,0.119298659265041351,-0.073897153139114380,-0.229810893535614014,0.180652990937232971,0.125751212239265442,0.042925316840410233,0.185741364955902100,-0.209162637591362000,-0.036226224154233932,0.115287587046623230,-0.226787701249122620,-0.173423364758491516,-0.313324958086013794,0.002463374752551317,-0.165729761123657227,0.282892912626266479,-0.197023034095764160,-0.111457243561744690,0.028564250096678734,-0.123570047318935394,0.179269701242446899,-0.014743113890290260,0.288058429956436157,-0.113911718130111694,0.130212157964706421,0.127787962555885315,0.165938213467597961,-0.109452880918979645,-0.265654832124710083,-0.185024261474609375,-0.118060708045959473,0.216835528612136841,-0.111876957118511200,-0.146703138947486877,0.052380036562681198,0.132637828588485718,-0.035656996071338654,-0.183363541960716248,0.130004182457923889,0.064919129014015198,-0.146043464541435242,0.109910927712917328,-0.153909385204315186,-0.135153904557228088,0.223024338483810425,0.075749062001705170,-0.234246015548706055,-0.066192805767059326,0.095673508942127228,-0.091435633599758148,0.222734674811363220,0.228541791439056396,-0.005042053293436766,0.202304542064666748,-0.194465130567550659,0.105420343577861786,-0.172962114214897156
-0.180265307426452637,-0.004683433566242456,-0.049318529665470123,-0.007336860056966543,0.034278802573680878,0.221216902136802673,0.005560670047998428,-0.247387811541557312,0.141281768679618835,0.159252673387527466,-0.212117195129394531,0.327875852584838867,-0.080032497644424438,0.145978525280952454,0.259070992469787598,0.032437656074762344,-0.033697459846735001,0.146231040358543396,0.048494502902030945,-0.144718244671821594,0.029259454458951950,-0.230908364057540894,0.125345274806022644,-0.272028356790542603,0.163848444819450378,-0.280577540397644043,0.254609614610671997,0.142345711588859558,-0.089610762894153595,-0.015784300863742828,-0.164432823657989502,-0.105997145175933838,0.245838612318038940,-0.008491416461765766,0.130151346325874329,0.136779353022575378,-0.247424185276031494,-0.222204804420471191,0.202050656080245972,0.118376165628433228,0.164014741778373718,0.139938935637474060,-0.144378110766410828,-0.152174413204193115,-0.146689951419830322,0.212051570415496826,0.265088796615600586,-0.086590193212032318,0.094253204762935638,-0.155127167701721191,0.029999246820807457,0.110635980963706970,-0.127627938985824585,0.214757174253463745,0.250823527574539185,0.243725001811981201,-0.198485866189002991,0.152722552418708801,-0.243958309292793274,-0.126766636967658997,0.196215048432350159,0.121579028666019440,-0.092085741460323334,0.036540005356073380,-0.062477625906467438,-0.127769663929939270,0.248687937855720520,0.215617969632148743,-0.025518460199236870,0.001192286843433976,0.334101855754852295,0.029131200164556503,0.093689642846584320,-0.145815894007682800,0.076918326318264008,0.207730293273925781
0.091557756066322327,0.316434174776077271,0.088096842169761658,-0.018569452688097954,0.078728139400482178,-0.248890236020088196,0.084122836589813232,-0.069883964955806732,0.414473861455917358,0.001391628291457891,0.127119228243827820,-0.053608387708663940,-0.224358767271041870,-0.387328505516052246,-0.162509679794311523,-0.160964488983154297,-0.047373797744512558,0.192471876740455627,-0.034196991473436356,0.134622991085052490,-0.074039161205291748,0.373321145772933960,0.012801245786249638,0.235384598374366760,0.220904991030693054,0.284290939569473267,-0.016262745484709740,0.121598117053508759,-0.003297857241705060,0.140976667404174805,0.082947522401809692,0.185808762907981873,-0.280786871910095215,0.168620020151138306,-0.218333795666694641,0.021977445110678673,-0.028381081297993660,0.058238308876752853,-0.011990888044238091,0.196524217724800110,-0.038535416126251221,0.024157948791980743,-0.309756308794021606,0.014279535971581936,-0.021119086071848869,0.084680654108524323,-0.081784829497337341,-0.050732571631669998,0.022086704149842262,0.285063982009887695,-0.210741937160491943,-0.080951884388923645,-0.234504848718643188,0.338725000619888306,-0.246137231588363647,-0.179266586899757385,-0.129109665751457214,0.099164582788944244,0.254141181707382202,-0.049908652901649475,-0.214535385370254517,0.132782891392707825,0.055261865258216858,-0.263988137245178223,0.125621050596237183,0.174792870879173279,-0.071725957095623016,0.272975206375122070,0.180185437202453613,-0.237981081008911133,0.137718275189399719,-0.001028980361297727,-0.090469099581241608,-0.023217581212520599,-0.107065565884113312,-0.048871301114559174
-0.043415170162916183,0.051842961460351944,-0.227303609251976013,0.079137668013572693,0.119778096675872803,-0.210569962859153748,-0.015859290957450867,0.063652269542217255,-0.059560783207416534,0.021291103214025497,-0.143756583333015442,0.262236356735229492,-0.127165138721466064,0.131030291318893433,0.138479009270668030,-0.109965346753597260,0.077708266675472260,0.004496121313422918,0.014320682734251022,-0.145979002118110657,-0.239130109548568726,-0.068574637174606323,-0.133372724056243896,-0.133750200271606445,0.039121668785810471,0.001340394606813788,-0.078778319060802460,-0.079650811851024628,0.074631758034229279,0.232486531138420105,-0.131644591689109802,-0.386631995439529419,0.050089202821254730,-0.052362907677888870,0.101187869906425476,-0.304200589656829834,0.154904082417488098,0.024330468848347664,0.108106173574924469,0.069152973592281342,-0.302325725555419922,0.081784263253211975,-0.159951061010360718,-0.144172593951225281,0.014493263326585293,-0.062261711806058884,0.211794674396514893,-0.025447594001889229,0.048252530395984650,-0.056306589394807816,-0.167365029454231262,-0.297584801912307739,-0.183427795767784119,0.246916607022285461,-0.161938354372978210,0.300451964139938354,0.041588906198740005,-0.170457512140274048,-0.089044257998466492,0.074881576001644135,0.052643656730651855,0.151076838374137878,-0.054459694772958755,-0.215546265244483948,0.118918351829051971,0.109434671700000763,-0.019978482276201248,0.002050053328275681,-0.106539465487003326,0.216729596257209778,-0.185410216450691223,0.069517597556114197,0.091261893510818481,0.105203807353973389,-0.127553060650825500,0.201111927628517151
-0.087436474859714508,0.181614369153976440,0.224731355905532837,0.066764973104000092,0.072065487504005432,-0.022544598206877708,-0.054965551942586899,0.147528529167175293,0.230973169207572937,0.133400484919548035,0.190529376268386841,-0.161861658096313477,0.032309632748365402,-0.081309013068675995,-0.119332678616046906,0.043014127761125565,0.066791705787181854,0.297877490520477295,-0.027793766930699348,-0.115696892142295837,0.198366403579711914,-0.109475366771221161,-0.144776493310928345,0.054918650537729263,-0.003328791353851557,0.077524706721305847,-0.297701776027679443,-0.222227737307548523,0.071249440312385559,0.058155175298452377,0.137482315301895142,0.398723483085632324,-0.206230461597442627,-0.177334159612655640,0.078427061438560486,-0.207920685410499573,0.208694383502006531,0.233976066112518311,-0.221985742449760437,-0.075175620615482330,0.229230687022209167,0.081883586943149567,0.213627204298973083,0.119516305625438690,0.082388982176780701,-0.046216003596782684,-0.240255430340766907,0.057094324380159378,0.186635002493858337,0.201012223958969116,-0.207096338272094727,0.081392265856266022,0.221112653613090515,-0.071725383400917053,0.023613497614860535,-0.134483635425567627,0.110234223306179047,0.118610382080078125,0.175573870539665222,-0.034235499799251556,0.085560776293277740,-0.107976458966732025,-0.087371990084648132,0.039830029010772705,0.225116133689880371,-0.131229653954505920,0.056518767029047012,0.132851615548133850,-0.128169089555740356,0.107316046953201294,0.150428742170333862,-0.215665280818939209,0.113529808819293976,0.220838129520416260,0.335149228572845459,-0.154433697462081909
-0.115166626870632172,-0.208979964256286621,-0.136772558093070984,0.033755831420421600,0.177723899483680725,0.180157393217086792,0.012606374919414520,0.204705506563186646,-0.129391610622406006,-0.135617151856422424,-0.087639026343822479,-0.073424585163593292,-0.149079978466033936,0.024846952408552170,-0.087615057826042175,-0.157602444291114807,0.093819655478000641,0.176226362586021423,0.027164328843355179,0.048119619488716125,-0.065696351230144501,-0.235666871070861816,0.046561405062675476,-0.226757198572158813,-0.087502449750900269,-0.182831674814224243,-0.191719755530357361,-0.216867014765739441,-0.211389750242233276,0.128416731953620911,0.032849103212356567,-0.000066353881265968,0.230384394526481628,-0.173924461007118225,-0.007999487221240997,0.253414690494537354,-0.062288485467433929,-0.149621456861495972,0.029799044132232666,-0.071359671652317047,0.080054253339767456,-0.191283479332923889,-0.190909445285797119,-0.150606200098991394,-0.027002343907952309,-0.016149081289768219,0.184518843889236450,-0.092695891857147217,0.144281074404716492,0.002064464380964637,-0.203798025846481323,-0.149871557950973511,0.065352022647857666,0.032164290547370911,0.053501389920711517,0.169569715857505798,-0.049800612032413483,-0.092998117208480835,0.042914565652608871,0.084526062011718750,0.107135236263275146,0.149310916662216187,-0.196535453200340271,0.125073954463005066,0.236128583550453186,-0.063089892268180847,-0.071914471685886383,0.181282281875610352,0.118819005787372589,0.198686212301254272,0.037208829075098038,0.144310653209686279,-0.281427741050720215,0.091571830213069916,-0.176242694258689880,-0.057550810277462006
0.102219976484775543,-0.034684263169765472,-0.016901815310120583,0.116470806300640106,-0.168391317129135132,-0.054125238209962845,-0.195954948663711548,0.174594789743423462,0.154823064804077148,-0.103768579661846161,0.069212630391120911,0.032601930201053619,-0.195646911859512329,0.213633492588996887,0.157276660203933716,-0.369633555412292480,0.007100814953446388,-0.043364040553569794,0.140719652175903320,0.112495474517345428,-0.044706236571073532,-0.147639989852905273,0.107015937566757202,-0.098267510533332825,0.042492173612117767,0.188917487859725952,-0.159228146076202393,0.316238075494766235,0.280820846557617188,-0.267184227705001831,-0.012814546003937721,-0.180360868573188782,-0.199365392327308655,0.199005931615829468,-0.136141762137413025,0.009348187595605850,0.058817993849515915,0.110495746135711670,0.178467407822608948,-0.005505128297954798,0.130450949072837830,-0.300271242856979370,-0.026508819311857224,0.199407190084457397,-0.202602356672286987,-0.156492307782173157,-0.230540335178375244,-0.270159512758255005,-0.266341328620910645,-0.157656982541084290,-0.284610033035278320,-0.176292747259140015,-0.191303089261054993,0.098217248916625977,0.035087939351797104,-0.079287581145763397,-0.205447226762771606,-0.079571962356567383,0.157675907015800476,0.083805367350578308,0.270499408245086670,-0.098237715661525726,0.105470381677150726,-0.185242787003517151,-0.004377063829451799,0.278667300939559937,-0.164233908057212830,0.184223517775535583,0.063728235661983490,0.153035193681716919,-0.104789793491363525,-0.010288224555552006,-0.227842077612876892,0.150041893124580383,0.064406491816043854,0.166501536965370178
-0.070584021508693695,-0.270003259181976318,0.219913855195045471,-0.086791768670082092,-0.112007945775985718,0.209987193346023560,-0.192077055573463440,-0.104335196316242218,0.108735702931880951,0.130261167883872986,-0.067263804376125336,-0.116863019764423370,-0.158851787447929382,0.341408878564834595,-0.250703006982803345,0.044071298092603683,-0.140526399016380310,0.231611341238021851,-0.174569457769393921,-0.027105903252959251,0.139836192131042480,0.172633677721023560,-0.247093990445137024,0.011464718729257584,-0.181272253394126892,-0.112227365374565125,-0.187659442424774170,0.067973643541336060,-0.225100621581077576,0.268092453479766846,0.171874448657035828,0.211468696594238281,0.265777617692947388,-0.002418082207441330,0.067616552114486694,-0.065560780465602875,0.088148467242717743,0.115733258426189423,-0.159399941563606262,0.132777065038681030,0.023268070071935654,-0.065780892968177795,0.135125309228897095,-0.007150531280785799,-0.148690566420555115,0.185233935713768005,0.045174013823270798,-0.130146130919456482,-0.192573443055152893,-0.054449860006570816,-0.008859226480126381,0.121546119451522827,0.016302406787872314,0.123908229172229767,0.418122142553329468,-0.176969185471534729,0.021495668217539787,0.018089354038238525,0.228383064270019531,0.063896469771862030,0.252739906311035156,0.242552295327186584,0.301204204559326172,-0.143064975738525391,0.137938231229782104,-0.119868442416191101,-0.161660611629486084,0.182342156767845154,-0.202389448881149292,-0.181499749422073364,0.058278486132621765,-0.067026503384113312,0.152848452329635620,-0.211308538913726807,0.119615063071250916,0.033280070871114731
-0.051057271659374237,-0.065368428826332092,0.069149591028690338,0.120438367128372192,-0.233699649572372437,-0.002461734460666776,0.232688412070274353,0.241697549819946289,0.122154034674167633,0.024272341281175613,0.033422108739614487,0.113215394318103790,0.139078080654144287,-0.030908048152923584,0.189076572656631470,-0.262215435504913330,0.116756282746791840,-0.128857091069221497,0.350514084100723267,0.125152960419654846,0.046956174075603485,-0.107758522033691406,0.081421174108982086,0.205459192395210266,0.124435454607009888,0.052394412457942963,0.058141063898801804,-0.030051263049244881,0.008835276588797569,-0.093191131949424744,0.037045735865831375,-0.366510570049285889,0.016644952818751335,-0.166614651679992676,0.035753767937421799,0.154962882399559021,0.117196351289749146,0.237720265984535217,0.186244547367095947,0.239906445145606995,-0.095669984817504883,0.231762826442718506,0.187106281518936157,-0.034660689532756805,0.164293795824050903,-0.040039829909801483,-0.155568316578865051,-0.006796042434871197,-0.034419652074575424,0.091524608433246613,-0.137320086359977722,-0.020285824313759804,-0.134420871734619141,0.279339700937271118,-0.276500821113586426,-0.108952589333057404,-0.045851778239011765,0.033690627664327621,-0.099912621080875397,-0.163007780909538269,0.206759512424468994,-0.176586493849754333,-0.241320624947547913,0.172150775790214539,0.119170747697353363,-0.059693932533264160,0.250924021005630493,0.216658413410186768,0.142476141452789307,-0.014888623729348183,-0.116715632379055023,-0.260712355375289917,-0.102015227079391479,-0.204556569457054138,-0.165777400135993958,0.212385892868041992
-0.159541666507720947,-0.214082822203636169,-0.220829680562019348,-0.078075245022773743,0.180684342980384827,0.210340857505798340,0.009449779987335205,0.086311638355255127,-0.092152431607246399,0.111691743135452271,-0.018868505954742432,0.191171854734420776,0.126892760396003723,-0.035259258002042770,0.155056536197662354,-0.027327194809913635,-0.117182277143001556,-0.175457179546356201,0.027235083281993866,0.158390954136848450,-0.164492607116699219,0.152002707123756409,0.093582704663276672,-0.216972559690475464,0.160902395844459534,-0.075252577662467957,0.144777670502662659,0.001435871701687574,-0.053465347737073898,-0.065094448626041412,-0.207955837249755859,-0.134828492999076843,0.155217185616493225,0.053839419037103653,0.007407444063574076,0.217538997530937195,0.014562441967427731,-0.208169028162956238,0.108757555484771729,0.077124051749706268,-0.149138659238815308,0.171740964055061340,0.088662348687648773,0.119924373924732208,-0.011091444641351700,-0.198393285274505615,-0.088009066879749298,-0.039083126932382584,0.104188680648803711,-0.097363755106925964,0.154550969600677490,-0.126793965697288513,-0.189485505223274231,-0.156674966216087341,0.021968279033899307,0.048830319195985794,-0.012760728597640991,0.150927305221557617,0.137941718101501465,-0.125864073634147644,-0.012121760286390781,0.135433703660964966,0.152264282107353210,0.027730155736207962,0.040892653167247772,-0.033212121576070786,-0.142771452665328979,-0.034575976431369781,-0.186051353812217712,0.214641496539115906,0.102589890360832214,0.033706698566675186,-0.196641430258750916,-0.200284361839294434,-0.207505688071250916,0.026221452280879021
0.180477008223533630,0.324067205190658569,0.136681929230690002,0.271450966596603394,0.120807513594627380,-0.232239514589309692,-0.102189302444458008,0.189086392521858215,0.141049817204475403,0.119033753871917725,-0.155499905347824097,-0.244944050908088684,0.025467561557888985,0.067972540855407715,-0.249864056706428528,-0.307642787694931030,-0.009549093432724476,0.263527482748031616,0.008207906968891621,0.176241099834442139,0.083136446774005890,-0.000248931930400431,-0.132755145430564880,0.271310329437255859,-0.291245341300964355,-0.007389334961771965,-0.024827385321259499,-0.030758384615182877,0.027359804138541222,-0.047814812511205673,0.159248724579811096,-0.293862193822860718,-0.119185656309127808,0.024002898484468460,0.161132663488388062,0.136490896344184875,-0.091754786670207977,-0.363919049501419067,0.285150974988937378,-0.143828749656677246,-0.016988160088658333,0.228334546089172363,-0.254929661750793457,-0.214016020298004150,0.239384517073631287,0.050719413906335831,-0.058030862361192703,0.081664748489856720,0.276848822832107544,-0.205435082316398621,-0.027562359347939491,-0.400035023689270020,0.158763557672500610,-0.108052283525466919,0.105014368891716003,0.061489291489124298,0.196165904402732849,-0.067122355103492737,-0.130379527807235718,-0.048475872725248337,0.057280153036117554,0.209502696990966797,-0.063969232141971588,0.210871607065200806,0.282662242650985718,-0.340775579214096069,-0.247401162981987000,0.243321567773818970,0.046951130032539368,-0.200453549623489380,-0.096456483006477356,0.347989946603775024,-0.053208939731121063,0.207351520657539368,-0.280681490898132324,0.108946412801742554
0.104384109377861023,-0.169779136776924133,0.126954808831214905,-0.033535022288560867,-0.234269469976425171,-0.143151342868804932,0.159862458705902100,0.101466111838817596,0.075736626982688904,-0.063730888068675995,0.181531935930252075,-0.183421537280082703,-0.205194130539894104,0.059443771839141846,0.083335176110267639,0.066880106925964355,-0.087688170373439789,0.013957671821117401,0.026311606168746948,0.068405985832214355,-0.069334685802459717,-0.188526228070259094,-0.038812335580587387,0.017941145226359367,-0.138919517397880554,0.172686085104942322,0.047886624932289124,-0.134023487567901611,-0.154291599988937378,0.015307907015085220,0.185487926006317139,0.157175809144973755,-0.000933123868890107,-0.056552778929471970,0.098516047000885010,0.079762607812881470,0.281453758478164673,0.143227636814117432,-0.088554896414279938,-0.192508220672607422,-0.170257031917572021,0.032203335314989090,-0.084198944270610809,-0.117092721164226532,0.100915402173995972,0.007297415286302567,-0.094787716865539551,0.159715458750724792,-0.067536249756813049,0.260896354913711548,-0.035006962716579437,0.090533480048179626,-0.029302429407835007,-0.075729884207248688,-0.091090507805347443,0.193058758974075317,-0.049263268709182739,-0.103610418736934662,0.241240695118904114,0.125246956944465637,-0.034459378570318222,-0.157195165753364563,-0.074577972292900085,-0.036741424351930618,-0.025366855785250664,0.035020340234041214,-0.205052062869071960,-0.034424435347318649,0.217426210641860962,0.057011913508176804,-0.210668757557868958,0.121399559080600739,-0.147361636161804199,0.053551550954580307,0.047838412225246429,0.132038637995719910
0.186000823974609375,-0.197663947939872742,-0.164342358708381653,-0.146420553326606750,0.314756423234939575,0.048088036477565765,0.029803104698657990,0.218144521117210388,-0.227558881044387817,0.052879348397254944,0.074895702302455902,0.017900975421071053,-0.026708412915468216,-0.038293026387691498,-0.164691388607025146,0.023248514160513878,-0.133835271000862122,0.074761234223842621,-0.187492921948432922,0.119194291532039642,-0.149005889892578125,0.086622737348079681,-0.025002531707286835,0.117496445775032043,-0.077508576214313507,0.066675245761871338,-0.079431794583797455,-0.024533160030841827,-0.055772338062524796,0.118453748524188995,0.070549748837947845,-0.091588363051414490,0.180975615978240967,0.083725519478321075,0.012372118420898914,0.246958136558532715,0.204239919781684875,0.084335349500179291,-0.253646761178970337,0.126621857285499573,-0.104821033775806427,-0.246725529432296753,0.034726113080978394,0.014143124222755432,0.201230540871620178,0.079540587961673737,0.032385192811489105,0.186733528971672058,0.163164839148521423,0.266234397888183594,0.058763913810253143,0.054445229470729828,-0.202540561556816101,0.280276179313659668,-0.094751305878162384,-0.102268740534782410,0.006702132523059845,-0.157674312591552734,0.048605743795633316,0.125565305352210999,-0.036233674734830856,0.136669591069221497,0.034214396029710770,0.121425159275531769,-0.186139911413192749,-0.002344567794352770,0.362625151872634888,0.148522034287452698,-0.084509819746017456,-0.150588184595108032,-0.109550833702087402,0.150408700108528137,0.037511806935071945,0.066627137362957001,0.188542321324348450,-0.240302786231040955
-0.218928754329681396,0.032335247844457626,0.071249298751354218,0.065199293196201324,-0.061652511358261108,-0.132999345660209656,-0.051615994423627853,-0.041589222848415375,-0.004033945035189390,0.091388843953609467,0.097996965050697327,-0.117814369499683380,-0.076839618384838104,0.219962820410728455,0.076441355049610138,-0.145772799849510193,-0.039498049765825272,-0.110398359596729279,-0.110022418200969696,0.062033485621213913,-0.108135111629962921,0.226568996906280518,0.176654055714607239,0.044651169329881668,0.191776439547538757,0.027944993227720261,-0.076232828199863434,0.055586788803339005,-0.195130258798599243,-0.249202013015747070,0.141256347298622131,-0.288419425487518311,-0.121981099247932434,0.271554648876190186,0.292940407991409302,-0.321827530860900879,0.181902378797531128,-0.049052447080612183,-0.192652404308319092,-0.120163097977638245,0.117497809231281281,-0.013441427610814571,-0.170610919594764709,-0.173709496855735779,-0.015458144247531891,0.284439086914062500,0.005712268408387899,0.211494669318199158,0.011058421805500984,-0.041968267410993576,0.196869090199470520,-0.110601477324962616,-0.074004106223583221,-0.284976810216903687,-0.144393429160118103,-0.102643378078937531,0.005920322146266699,0.136972129344940186,-0.086369097232818604,0.214382156729698181,0.295531451702117920,0.214411988854408264,0.250118374824523926,-0.062090132385492325,0.066603258252143860,0.051184009760618210,0.131403371691703796,0.154569774866104126,0.121040411293506622,0.141722530126571655,0.087015390396118164,-0.274622321128845215,0.192915424704551697,0.109326817095279694,0.069786243140697479,-0.189202263951301575
-0.159416824579238892,-0.135441288352012634,0.186711773276329041,0.062845699489116669,-0.068003147840499878,0.203019261360168457,-0.140124142169952393,-0.091290593147277832,-0.023654367774724960,0.003439167747274041,-0.108275666832923889,0.075667396187782288,-0.119747817516326904,0.070781305432319641,0.048027988523244858,0.313026368618011475,-0.151388257741928101,0.224624827504158020,0.170363947749137878,0.006826233118772507,0.244357392191886902,-0.081677377223968506,0.079833768308162689,-0.113380610942840576,-0.037889719009399414,-0.200499624013900757,-0.031398903578519821,-0.319546729326248169,-0.068552650511264801,0.251478940248489380,-0.174222454428672791,0.106688007712364197,0.218159630894660950,-0.242081955075263977,-0.190613493323326111,0.114035494625568390,-0.073192000389099121,0.057657759636640549,-0.177709579467773438,0.073693975806236267,-0.105144791305065155,0.206905275583267212,0.277100354433059692,-0.098641097545623779,-0.013938326388597488,-0.206123650074005127,0.081040993332862854,0.120582759380340576,0.005576281808316708,0.014814391732215881,0.272087633609771729,0.313441306352615356,0.092893928289413452,0.152150586247444153,-0.074085012078285217,0.089744053781032562,-0.254458278417587280,0.036541715264320374,-0.180172979831695557,0.064609616994857788,-0.206338003277778625,-0.172407254576683044,0.002572687808424234,0.105556227266788483,-0.037440657615661621,0.060325160622596741,0.001217989483848214,-0.094220630824565887,-0.109995611011981964,-0.074272505939006805,0.023796880617737770,-0.097624555230140686,0.060269396752119064,0.102129764854907990,0.125496059656143188,0.212790384888648987
0.138099968433380127,-0.173976302146911621,0.029610373079776764,-0.029241794720292091,-0.061973068863153458,0.120187692344188690,0.057310566306114197,-0.034368786960840225,0.141582056879997253,0.147141590714454651,-0.055055178701877594,0.118712469935417175,-0.042967036366462708,-0.141304999589920044,0.136824920773506165,-0.080328978598117828,-0.202503919601440430,-0.086529225111007690,-0.063707120716571808,-0.022188240662217140,-0.027462324127554893,-0.099184356629848480,-0.113398797810077667,-0.061642728745937347,-0.183344602584838867,0.030863141641020775,-0.113127440214157104,-0.073617652058601379,-0.200126498937606812,-0.173376709222793579,-0.111282199621200562,0.072940737009048462,0.076423406600952148,-0.090493708848953247,0.013993821106851101,-0.084061667323112488,0.116350494325160980,0.018860641866922379,-0.122876547276973724,-0.168906912207603455,0.198386430740356445,0.208351776003837585,-0.036319341510534286,-0.081091754138469696,-0.051349595189094543,0.088418141007423401,0.111083835363388062,-0.100472360849380493,-0.071076422929763794,0.160832539200782776,-0.205996751785278320,0.024066446349024773,-0.188526272773742676,0.178916379809379578,-0.157722115516662598,0.008586150594055653,0.092553451657295227,0.017948525026440620,-0.030380960553884506,0.126719608902931213,-0.170318499207496643,-0.189897671341896057,0.141781881451606750,-0.006406023632735014,0.065368928015232086,-0.125540152192115784,0.176976114511489868,0.117193602025508881,-0.174384132027626038,0.189998373389244080,-0.211623266339302063,0.171809837222099304,-0.067314997315406799,0.040271498262882233,0.167926430702209473,-0.188162326812744141
-0.127084374427795410,0.028350256383419037,0.230278417468070984,0.276649624109268188,0.234449729323387146,-0.117635041475296021,-0.079191140830516815,-0.022915149107575417,0.076970785856246948,0.162702828645706177,0.062676735222339630,-0.056709319353103638,-0.105296015739440918,0.143831863999366760,-0.119583554565906525,0.190132707357406616,0.077458851039409637,-0.092666685581207275,-0.051474433392286301,-0.331986844539642334,-0.171373963356018066,0.132830768823623657,-0.338736951351165771,-0.102898165583610535,-0.074896536767482758,-0.152327790856361389,-0.123940065503120422,-0.098072335124015808,0.239581003785133362,-0.017794247716665268,0.222923859953880310,-0.126651257276535034,0.238229155540466309,0.293159842491149902,-0.001934392494149506,-0.058581490069627762,0.257203102111816406,-0.103786617517471313,-0.065633825957775116,0.023964004591107368,-0.103975974023342133,-0.220862373709678650,0.026303257793188095,-0.069965496659278870,0.091715253889560699,-0.216458380222320557,0.203955903649330139,-0.137502402067184448,0.094526186585426331,-0.010261842980980873,0.100331537425518036,0.112893834710121155,-0.254787623882293701,0.218391999602317810,-0.000211856269743294,-0.064322188496589661,0.214148953557014465,0.162688821554183960,0.267640143632888794,-0.100073881447315216,0.119204595685005188,0.301902562379837036,0.220105171203613281,-0.139427021145820618,0.153874546289443970,0.074531927704811096,-0.208184078335762024,0.114746995270252228,-0.019275624305009842,0.164891049265861511,0.183511018753051758,0.044102899730205536,-0.259929060935974121,0.211837053298950195,0.142306163907051086,0.090155147016048431
0.050559926778078079,0.231797024607658386,0.003649677149951458,-0.137823194265365601,-0.209750726819038391,0.333267837762832642,0.158584326505661011,-0.288533896207809448,-0.152984872460365295,-0.151835039258003235,-0.029309507459402084,-0.111298114061355591,0.138058125972747803,0.256751149892807007,0.315912067890167236,0.037486344575881958,-0.001055945409461856,-0.068115532398223877,0.332725793123245239,0.157551869750022888,0.068946734070777893,-0.014406549744307995,0.014941783621907234,-0.049612727016210556,0.139107927680015564,-0.151551291346549988,-0.374496638774871826,-0.012405729852616787,-0.020074386149644852,-0.064742140471935272,-0.040560465306043625,-0.258336573839187622,-0.124983303248882294,-0.284874707460403442,0.142311036586761475,0.141248598694801331,0.101905025541782379,-0.026786277070641518,0.021622478961944580,-0.124507389962673187,0.331423550844192505,-0.000526385148987174,0.006977119017392397,0.084284707903862000,0.025282597169280052,-0.258677661418914795,-0.303876459598541260,-0.032960563898086548,-0.096164345741271973,-0.182997152209281921,0.187126666307449341,0.227221429347991943,0.147524759173393250,-0.260429561138153076,-0.162431359291076660,0.086962893605232239,-0.109647922217845917,-0.283340871334075928,-0.064447849988937378,0.222518935799598694,-0.091958440840244293,-0.085201188921928406,-0.292101025581359863,0.202548071742057800,-0.138579681515693665,0.317174643278121948,-0.159334450960159302,-0.143740653991699219,0.165357500314712524,-0.067162074148654938,-0.192056447267532349,0.058619968593120575,0.345704287290573120,0.177014008164405823,-0.096453592181205750,0.003881727810949087
-0.061810981482267380,-0.018250191584229469,0.019403971731662750,0.253238856792449951,-0.132328391075134277,0.239906013011932373,-0.151845708489418030,-0.052230671048164368,0.143688872456550598,0.160264596343040466,-0.289883017539978027,-0.042966064065694809,0.133472293615341187,-0.085075512528419495,-0.011837624944746494,0.190433099865913391,-0.057712063193321228,0.035775676369667053,-0.199789568781852722,-0.106235228478908539,0.314081370830535889,-0.242116793990135193,-0.193166479468345642,-0.163373142480850220,-0.028093148022890091,-0.233605757355690002,0.214818611741065979,-0.199780002236366272,-0.229668691754341125,0.124490559101104736,-0.179513007402420044,0.293488085269927979,0.333182692527770996,0.155120566487312317,0.008333962410688400,0.089845404028892517,0.041557487100362778,-0.063636742532253265,-0.134190604090690613,0.267537385225296021,-0.232370823621749878,-0.278757721185684204,0.290558636188507080,-0.053746271878480911,-0.135604143142700195,0.158339530229568481,0.308108568191528320,-0.221526846289634705,-0.084866732358932495,0.212886616587638855,0.219054162502288818,-0.089144594967365265,-0.144684210419654846,-0.033153973519802094,0.359548032283782959,0.003981774672865868,-0.018442239612340927,-0.164826080203056335,0.246996253728866577,-0.230870366096496582,-0.173084035515785217,-0.235361129045486450,-0.177742317318916321,-0.064984597265720367,-0.111392334103584290,-0.163870662450790405,0.020395213738083839,-0.341660946607589722,0.181916594505310059,-0.098262369632720947,-0.209605082869529724,-0.138316154479980469,-0.150652378797531128,0.104168154299259186,0.132549405097961426,-0.119808018207550049
-0.074114702641963959,0.037280868738889694,-0.077601529657840729,0.321134984493255615,-0.039818841964006424,0.056979544460773468,-0.157687321305274963,0.194512918591499329,-0.046997159719467163,0.038370329886674881,0.034898143261671066,-0.018227726221084595,0.148453474044799805,0.090582914650440216,0.217729330062866211,-0.069984354078769684,0.109881527721881866,0.098005212843418121,0.317749857902526855,0.246059328317642212,0.277178406715393066,0.038189385086297989,-0.035369716584682465,0.036180108785629272,-0.157846003770828247,-0.020039865747094154,-0.219351798295974731,-0.069130621850490570,0.240276277065277100,-0.066215470433235168,-0.140113964676856995,-0.043082732707262039,0.071202576160430908,-0.073813356459140778,0.097460485994815826,0.068994894623756409,0.248168185353279114,0.156420975923538208,-0.176337480545043945,-0.249707341194152832,0.192113503813743591,0.190226867794990540,-0.048119440674781799,-0.141031742095947266,0.021236650645732880,-0.074582703411579132,0.066698044538497925,-0.030278276652097702,0.099753677845001221,0.143269672989845276,-0.060060694813728333,0.153789773583412170,-0.101971097290515900,-0.006649187300354242,0.117822557687759399,-0.000995217589661479,-0.071605592966079712,0.110305920243263245,-0.039480395615100861,-0.091982819139957428,-0.255762696266174316,0.160935238003730774,0.201970651745796204,0.056297164410352707,-0.201957359910011292,0.280137240886688232,-0.005681355483829975,-0.312455594539642334,-0.030659722164273262,0.035900801420211792,-0.045664664357900620,0.167990297079086304,-0.096583381295204163,0.380371958017349243,-0.272245705127716064,0.038397900760173798
0.039091721177101135,0.119055449962615967,0.013422473333775997,0.153232648968696594,-0.060579620301723480,0.170488104224205017,0.136921629309654236,0.069167181849479675,-0.116969890892505646,0.194388434290885925,0.123848609626293182,-0.132970720529556274,0.030731424689292908,-0.171927422285079956,0.034121822565793991,-0.108636997640132904,0.163801074028015137,-0.001485023414716125,0.117468714714050293,-0.132953703403472900,-0.094672493636608124,0.176272511482238770,-0.122102640569210052,0.121281832456588745,0.160090968012809753,0.101090535521507263,-0.069126114249229431,0.052234105765819550,0.079291231930255890,-0.023100230842828751,0.059855632483959198,0.017184618860483170,-0.058936040848493576,-0.032392635941505432,0.090680703520774841,0.006629198789596558,0.145140573382377625,0.195635542273521423,0.054253950715065002,0.009373916313052177,-0.091208964586257935,-0.093456089496612549,-0.135395690798759460,-0.090056478977203369,0.142401307821273804,0.043857451528310776,0.151584491133689880,0.142123028635978699,-0.117547549307346344,-0.097473926842212677,0.222363561391830444,-0.217691808938980103,-0.188427567481994629,-0.157816678285598755,0.074726954102516174,0.016417374834418297,0.221109732985496521,-0.030525913462042809,0.038978110998868942,-0.039073262363672256,0.127138048410415649,0.203593388199806213,-0.071214623749256134,-0.077495321631431580,0.179394215345382690,0.167972177267074585,0.200790807604789734,0.021172070875763893,0.105683684349060059,-0.137738615274429321,0.113436110317707062,-0.025724202394485474,0.170251846313476562,-0.109499089419841766,-0.179394170641899109,-0.105004496872425079
0.077713280916213989,-0.239458873867988586,0.329345256090164185,0.126133471727371216,0.192934945225715637,0.252506434917449951,0.099121153354644775,-0.241109862923622131,0.100852355360984802,0.208228200674057007,0.052715763449668884,0.229897409677505493,0.096091888844966888,0.229221239686012268,0.178806781768798828,-0.241725802421569824,0.149693310260772705,-0.265513151884078979,-0.039467684924602509,-0.167324855923652649,0.197182416915893555,0.219071269035339355,-0.054446138441562653,0.159892261028289795,-0.162508383393287659,-0.155707433819770813,-0.124941378831863403,0.213375344872474670,0.082543730735778809,-0.156188622117042542,-0.080267265439033508,0.057920336723327637,0.263770878314971924,0.052092172205448151,0.290229052305221558,-0.013636928983032703,0.283241301774978638,0.197469562292098999,0.281877130270004272,-0.338627636432647705,0.125464767217636108,-0.132822722196578979,-0.004187878686934710,-0.196330264210700989,-0.142607048153877258,0.182609245181083679,0.078640989959239960,0.116725794970989227,-0.108357697725296021,0.087759003043174744,0.160136461257934570,-0.077302843332290649,-0.049932241439819336,-0.043086409568786621,0.039994426071643829,-0.109429009258747101,-0.192884832620620728,-0.209104314446449280,-0.154305949807167053,0.201846763491630554,0.184667706489562988,0.230874955654144287,-0.032396614551544189,-0.050416462123394012,0.104925304651260376,0.235064417123794556,0.062798112630844116,0.068995267152786255,0.174158081412315369,0.055001847445964813,-0.045074552297592163,-0.068055294454097748,0.162694752216339111,0.035482946783304214,-0.093452334403991699,-0.212284430861473083
-0.146124437451362610,-0.070250757038593292,-0.028441473841667175,0.152826622128486633,-0.155274316668510437,-0.068297915160655975,-0.244952827692031860,0.078855097293853760,0.023450022563338280,0.104867517948150635,-0.149046957492828369,0.138579681515693665,-0.090964891016483307,0.313001930713653564,-0.077120579779148102,-0.044786933809518814,0.292255282402038574,-0.184688225388526917,0.175410777330398560,-0.282926380634307861,0.161706030368804932,-0.070114091038703918,-0.232953980565071106,-0.150160640478134155,0.126408189535140991,0.122036762535572052,-0.228549286723136902,-0.183101162314414978,-0.129183351993560791,-0.261768013238906860,0.093794070184230804,0.048663116991519928,0.102296255528926849,-0.273336112499237061,0.187430903315544128,0.173325806856155396,-0.012483318336308002,0.282033771276473999,0.146275013685226440,0.184452936053276062,-0.075559660792350769,0.209804207086563110,0.214917898178100586,0.213350504636764526,-0.002119770972058177,-0.097509786486625671,0.011398169212043285,-0.413105964660644531,-0.094543971121311188,-0.106058515608310699,-0.314162224531173706,-0.314845174551010132,0.049563854932785034,-0.248539686203002930,-0.093474872410297394,-0.002605197951197624,0.166212379932403564,0.146207138895988464,0.193373143672943115,0.115271821618080139,0.075520150363445282,0.187333792448043823,0.151997715234756470,0.009930087253451347,-0.023343576118350029,0.142495393753051758,0.010413514450192451,0.110824868083000183,-0.072292864322662354,0.170555859804153442,-0.177899181842803955,0.032233845442533493,0.202823773026466370,0.105313256382942200,0.025098640471696854,0.128235876560211182
-0.013823558576405048,-0.035724904388189316,0.258271813392639160,-0.087743639945983887,-0.046585693955421448,-0.154937908053398132,0.151388570666313171,0.141680270433425903,-0.252138108015060425,-0.184105515480041504,-0.087934352457523346,0.038336653262376785,-0.113003998994827271,0.043987311422824860,0.036128215491771698,-0.078671768307685852,0.227363497018814087,0.078103020787239075,-0.109381683170795441,0.046338520944118500,0.099736578762531281,0.145035237073898315,-0.044695250689983368,-0.150825724005699158,0.080972850322723389,-0.043491929769515991,-0.190591916441917419,0.030053030699491501,-0.264190346002578735,-0.317707568407058716,-0.199441209435462952,-0.250810235738754272,0.355424016714096069,-0.186050295829772949,0.143454834818840027,-0.060608871281147003,-0.173759713768959045,0.134769007563591003,0.150532424449920654,-0.182223424315452576,0.044635154306888580,0.134971231222152710,0.005890484899282455,0.042905960232019424,0.109370775520801544,-0.016897218301892281,0.079116001725196838,-0.251581043004989624,-0.084864497184753418,-0.058447074145078659,0.274875700473785400,-0.103573352098464966,0.128531768918037415,-0.149759739637374878,0.274157851934432983,0.098365195095539093,0.070528462529182434,-0.238695979118347168,0.029929233714938164,0.307027369737625122,0.125129267573356628,0.071767739951610565,0.105008475482463837,-0.258284687995910645,-0.126461267471313477,0.081029519438743591,-0.100789591670036316,-0.009683378972113132,0.010542627424001694,-0.184542655944824219,0.177528396248817444,0.164304822683334351,0.137313038110733032,-0.221659645438194275,0.111106067895889282,0.029786147177219391
-0.138787135481834412,-0.063541769981384277,-0.106794364750385284,-0.029114037752151489,-0.040188517421483994,-0.119649738073348999,0.152163431048393250,0.284050524234771729,0.208210155367851257,0.347498804330825806,-0.046829640865325928,-0.017631521448493004,0.209073767066001892,-0.229014560580253601,0.038043804466724396,-0.244931071996688843,-0.080305434763431549,0.131653711199760437,-0.003226011991500854,0.156202346086502075,-0.206742793321609497,-0.039092782884836197,-0.008985680527985096,0.084775581955909729,-0.191632002592086792,0.296863973140716553,0.094406567513942719,-0.081060662865638733,0.210971161723136902,-0.136322036385536194,0.125228494405746460,-0.277928888797760010,0.033047575503587723,0.246145471930503845,-0.091582022607326508,-0.054322510957717896,0.110208474099636078,0.278437495231628418,-0.059652611613273621,0.032935634255409241,-0.012306304648518562,0.213351562619209290,-0.181661486625671387,0.090620718896389008,-0.170090541243553162,0.062858633697032928,-0.139056324958801270,-0.054289527237415314,0.035419560968875885,0.166938796639442444,-0.138998508453369141,0.067132845520973206,-0.278280019760131836,0.229971155524253845,-0.068683616816997528,-0.235417753458023071,0.011347730644047260,0.075708754360675812,-0.155413955450057983,-0.098753549158573151,-0.175667867064476013,0.072158128023147583,-0.132712736725807190,0.169329941272735596,0.130257964134216309,0.102369964122772217,-0.012728278525173664,0.211008191108703613,0.080960102379322052,-0.119543604552745819,0.300357311964035034,0.223189473152160645,-0.096600279211997986,-0.023387473076581955,0.196323662996292114,0.046947721391916275
