-0.186984628438949585
0.146553367376327515
0.170164525508880615
0.126198872923851013
0.048593960702419281
0.093041129410266876
-0.177451997995376587
0.102918945252895355
-0.230573251843452454
-0.018477495759725571
-0.009480190463364124
-0.051811724901199341
-0.096632972359657288
-0.092532023787498474
-0.025440279394388199
-0.097383290529251099
0.017855552956461906
0.128701463341712952
0.040354359894990921
0.147780656814575195
-0.147005900740623474
0.064827643334865570
-0.065677970647811890
-0.014634069055318832
0.160070165991783142
-0.098726809024810791
-0.009209174662828445
-0.051949083805084229
-0.035542543977499008
-0.023754259571433067
-0.059188690036535263
0.043349653482437134
-0.170727252960205078
0.149807870388031006
-0.128978967666625977
0.082193769514560699
0.149399265646934509
0.014166938140988350
-0.041841667145490646
0.093949817121028900
-0.057012796401977539
-0.009747635573148727
0.093452066183090210
0.058888688683509827
-0.009108321741223335
0.098515249788761139
-0.120265781879425049
0.181114375591278076
-0.063121207058429718
0.014431526884436607
