-0.036394685506820679
0.011227196082472801
0.229406639933586121
-0.058410502970218658
0.159757420420646667
0.045640606433153152
-0.064896412193775177
0.219385758042335510
0.098383292555809021
-0.022355778142809868
0.186702549457550049
-0.093908242881298065
0.185937881469726562
0.150597468018531799
-0.011631152592599392
-0.058456066995859146
0.003591719316318631
0.170105770230293274
0.094905242323875427
0.132312953472137451
0.001438449020497501
0.022287352010607719
-0.048959080129861832
0.075608901679515839
0.049503650516271591
-0.047624588012695312
0.110126666724681854
-0.046152856200933456
0.039096441119909286
-0.006960993167012930
-0.146774590015411377
0.158755794167518616
-0.035937435925006866
0.097836919128894806
-0.154090747237205505
0.052269760519266129
0.071624308824539185
0.058249138295650482
-0.111181892454624176
-0.046054542064666748
0.042963877320289612
-0.134515434503555298
-0.037121854722499847
-0.082053452730178833
-0.059481345117092133
0.051092367619276047
-0.091633729636669159
0.019218841567635536
-0.078432470560073853
-0.055136919021606445
