-0.081834256649017334
-0.042468708008527756
0.155147179961204529
0.045071970671415329
-0.034441869705915451
-0.034666810184717178
0.267492651939392090
-0.060193389654159546
-0.289598107337951660
-0.029193948954343796
0.040045518428087234
0.101096995174884796
-0.009225538931787014
0.056942246854305267
-0.055552002042531967
-0.048397235572338104
-0.093183942139148712
-0.098013758659362793
0.050119411200284958
-0.152783811092376709
-0.045112818479537964
0.095211960375308990
0.013500129804015160
-0.035070825368165970
-0.007550949696451426
-0.026239510625600815
0.012204942293465137
-0.117339916527271271
0.196473240852355957
0.011194710619747639
0.123251833021640778
-0.189485937356948853
0.022255253046751022
-0.052903924137353897
-0.062723629176616669
0.084700599312782288
0.000850072246976197
-0.062720976769924164
-0.066486164927482605
-0.285627543926239014
0.118006937205791473
-0.118524342775344849
-0.112455546855926514
0.042698364704847336
0.118914291262626648
-0.082827128469944000
0.151306584477424622
-0.064083471894264221
0.053279701620340347
-0.026174908503890038
