0.104367792606353760,-0.067759409546852112,0.100720420479774475,0.186732366681098938,0.103404089808464050,0.004308692179620266,0.169958651065826416,0.068974368274211884,-0.117897242307662964,-0.184712305665016174,-0.077733278274536133,0.004747761879116297,-0.228708669543266296,0.159416377544403076,0.083963952958583832,-0.178687602281570435,0.102582402527332306,0.194050326943397522,0.080680616199970245,-0.020026767626404762,-0.102202862501144409,-0.162344053387641907,-0.114870809018611908,-0.114195235073566437,-0.112192466855049133,0.218485772609710693,0.154236719012260437,-0.008626721799373627,0.092723868787288666,-0.143594324588775635,-0.009926389902830124,0.245039910078048706,-0.000365637562936172,-0.018418982625007629,-0.072550140321254730,0.171010851860046387,0.168417125940322876,0.029220098629593849,-0.094301268458366394,0.038935713469982147,-0.170278757810592651,0.001115107093937695,-0.116371951997280121,-0.097775831818580627,-0.009791240096092224,-0.091004259884357452,-0.077281653881072998,0.041979912668466568,0.181581273674964905,0.038718681782484055
0.085129186511039734,0.233003199100494385,0.096022985875606537,-0.071764759719371796,-0.003108690725639462,0.156275138258934021,0.008228950202465057,0.049078907817602158,-0.526768028736114502,0.153922349214553833,0.043736811727285385,-0.346229374408721924,0.313486397266387939,0.088897712528705597,-0.111208714544773102,-0.152809306979179382,0.220851629972457886,-0.148368373513221741,-0.286757975816726685,0.354035943746566772,0.128174707293510437,0.067379012703895569,0.110076256096363068,-0.075972378253936768,-0.083700917661190033,0.293037682771682739,-0.130990520119667053,0.211633980274200439,0.267317384481430054,0.282489120960235596,-0.010791054926812649,-0.191683128476142883,-0.185254290699958801,-0.101668231189250946,-0.123525306582450867,-0.075389526784420013,0.084990501403808594,0.016368513926863670,0.151478603482246399,-0.132187351584434509,0.030112845823168755,-0.294642627239227295,0.123750001192092896,-0.331349343061447144,0.153211981058120728,-0.025457475334405899,-0.058811087161302567,0.055716801434755325,-0.153893962502479553,-0.102289065718650818
0.018648754805326462,0.042890384793281555,-0.081425860524177551,0.026944976300001144,-0.056486599147319794,-0.273293882608413696,-0.250285059213638306,-0.932420074939727783,0.005200338549911976,-0.153906524181365967,-0.284659028053283691,0.180275991559028625,0.400439232587814331,-0.525258481502532959,0.291217118501663208,-0.118776835501194000,0.444220721721649170,-0.052917677909135818,0.135653465986251831,-0.534726917743682861,0.315564543008804321,0.393474102020263672,0.061591859906911850,0.067126892507076263,0.206711888313293457,0.040924873203039169,0.245908424258232117,0.314080685377120972,-0.459351003170013428,0.283051550388336182,-0.149584755301475525,0.007896720431745052,0.087253376841545105,0.077948875725269318,0.241449803113937378,0.023487633094191551,-0.085066132247447968,-0.347605109214782715,0.012701772153377533,0.490684926509857178,-0.010136402212083340,-0.394579529762268066,0.184444054961204529,-0.125159099698066711,-0.060367692261934280,0.188559293746948242,0.162035152316093445,0.298563241958618164,-0.085990473628044128,-0.064904637634754181
0.301101088523864746,-0.017861355096101761,-0.159895196557044983,0.066489338874816895,-0.026227852329611778,-0.069386586546897888,-0.079856537282466888,0.199260026216506958,-0.054269157350063324,-0.707954704761505127,-1.239919304847717285,0.219339132308959961,-1.319133281707763672,0.012933460995554924,-0.023934060707688332,-0.053714416921138763,-0.065673179924488068,0.223709240555763245,-0.115075126290321350,0.065880998969078064,0.112124644219875336,-0.077462799847126007,0.095773994922637939,-0.158925473690032959,0.396484732627868652,0.419836252927780151,0.358855187892913818,-0.112547554075717926,0.184860780835151672,0.181574404239654541,0.253453224897384644,0.306279838085174561,-0.117223106324672699,0.175190180540084839,0.242143511772155762,-0.195510119199752808,0.351147085428237915,0.073220163583755493,-0.127177581191062927,0.086148165166378021,0.219658792018890381,-0.352162897586822510,-0.066693656146526337,0.111638337373733521,-0.172783330082893372,-0.016971306875348091,-0.062422636896371841,-0.142670273780822754,0.213744819164276123,-0.011634909547865391
0.024084333330392838,-0.060718346387147903,0.236647889018058777,0.196758314967155457,0.121203497052192688,0.141298204660415649,0.020681038498878479,0.014095529913902283,-0.063370622694492340,-0.233646094799041748,-0.003900617361068726,-0.239500850439071655,-0.007119073532521725,-0.062043979763984680,-0.126585260033607483,0.125996842980384827,0.201209217309951782,-0.051280274987220764,0.120238520205020905,-0.149139106273651123,-0.039120230823755264,-0.157991379499435425,-0.003338796086609364,-0.179670825600624084,-0.033225759863853455,-0.058753494173288345,-0.072508946061134338,-0.172093734145164490,-0.085262142121791840,0.113081924617290497,0.240448549389839172,0.031366489827632904,-0.042724147439002991,0.045226961374282837,-0.084840096533298492,-0.190856799483299255,0.169452860951423645,0.010816433466970921,0.119684450328350067,0.203947186470031738,0.071937866508960724,-0.190008163452148438,0.071718528866767883,0.206871643662452698,0.122003301978111267,0.070996284484863281,-0.138041973114013672,0.118549495935440063,0.140323206782341003,-0.035487279295921326
0.287978440523147583,-0.197662457823753357,-0.230862930417060852,0.224032908678054810,0.022023357450962067,-0.024846544489264488,0.226410835981369019,-0.148117482662200928,-0.189168840646743774,-0.161608874797821045,0.051952000707387924,-0.038574501872062683,0.025197507813572884,0.138115122914314270,0.109585635364055634,0.000443356373580173,0.240818321704864502,-0.067816622555255890,-0.190272152423858643,-0.027704870328307152,0.017844440415501595,-0.136692255735397339,-0.109903961420059204,0.045455485582351685,-0.166947498917579651,0.082806728780269623,-0.143972426652908325,-0.039549332112073898,-0.192530825734138489,-0.195793151855468750,-0.018967103213071823,-0.258923262357711792,-0.086063429713249207,-0.176385387778282166,-0.115183450281620026,0.213997021317481995,0.116087496280670166,-0.030105195939540863,-0.146855294704437256,0.199196785688400269,0.272397458553314209,-0.080432474613189697,-0.127493575215339661,-0.021491311490535736,-0.081445232033729553,0.192905098199844360,-0.015371124260127544,0.056241396814584732,0.142506703734397888,0.172772705554962158
0.073717705905437469,-0.238877296447753906,0.033284891396760941,-0.275688946247100830,0.156601399183273315,-0.334701955318450928,0.019070517271757126,0.303926438093185425,-0.270276546478271484,-0.091241203248500824,0.217833474278450012,0.016665989533066750,0.413008898496627808,0.091027393937110901,-0.369411379098892212,0.156630009412765503,-0.086262769997119904,0.495027929544448853,0.401439279317855835,-0.026826087385416031,-0.195987567305564880,-0.400187164545059204,-0.377171784639358521,0.446749806404113770,-0.018525714054703712,-0.399602651596069336,-0.127258777618408203,-0.353074878454208374,0.463883608579635620,-0.502868056297302246,0.205811515450477600,0.586102485656738281,0.120512425899505615,0.304691463708877563,0.042745117098093033,0.302737176418304443,-0.290846288204193115,0.292793780565261841,-0.429979830980300903,-1.108713269233703613,-0.131148964166641235,-1.823646783828735352,0.129678890109062195,0.543035328388214111,-0.025748658925294876,-0.323951900005340576,0.088772803544998169,0.150037273764610291,0.099226392805576324,0.130769610404968262
0.082543857395648956,0.065045662224292755,-0.253945916891098022,-0.276695162057876587,0.000205019561690278,0.021904649212956429,-0.119438745081424713,-0.032378222793340683,-0.942737102508544922,0.121719464659690857,-0.234336242079734802,-0.330942869186401367,0.044568840414285660,0.331125259399414062,0.055083345621824265,0.156639128923416138,0.275644242763519287,-0.124290376901626587,-0.333942145109176636,-0.077508404850959778,0.010279871523380280,0.072626665234565735,0.215324297547340393,-0.003930459730327129,0.202782213687896729,0.352848231792449951,-0.322794049978256226,0.291016131639480591,-0.211243659257888794,0.291573494672775269,-0.053265810012817383,0.230162784457206726,-0.277309715747833252,0.105244852602481842,0.001105156727135181,0.069081999361515045,-0.072287373244762421,0.126525565981864929,0.062289014458656311,-0.270803928375244141,0.267130196094512939,0.047221653163433075,-0.026244210079312325,-0.199109926819801331,-0.214703440666198730,-0.193427443504333496,-0.045963954180479050,-0.378823161125183105,-0.359762847423553467,-0.193565964698791504
-1.203624486923217773,0.090211838483810425,-0.500560462474822998,0.111867643892765045,0.678688347339630127,-0.411445736885070801,-0.114879451692104340,0.248425811529159546,-0.494854539632797241,0.398178279399871826,0.531180322170257568,0.249012842774391174,-0.061386700719594955,0.757876217365264893,-0.689721882343292236,0.166470557451248169,-0.715555727481842041,0.024023495614528656,0.305631816387176514,0.560473322868347168,-1.051101803779602051,-0.762341022491455078,-0.770659267902374268,0.248767584562301636,0.135139212012290955,-0.297185987234115601,0.248105704784393311,-0.852670311927795410,0.979576826095581055,-0.711634695529937744,-0.001968296011909842,0.208591625094413757,0.111777245998382568,-0.166630432009696960,-0.421110481023788452,0.140185147523880005,0.121269822120666504,0.672098696231842041,-0.454901784658432007,0.338158398866653442,0.104806624352931976,-0.049540352076292038,-0.258741587400436401,0.834164440631866455,-0.183806553483009338,-0.782820582389831543,-0.049281287938356400,0.493970185518264771,-0.297616362571716309,0.201980859041213989
0.174465879797935486,0.428824365139007568,-0.528310894966125488,-0.262973487377166748,0.011507041752338409,-0.115763425827026367,0.166716471314430237,0.266187667846679688,0.016861919313669205,0.505071520805358887,0.095187768340110779,0.017345765605568886,-0.211871609091758728,-0.382829815149307251,0.177122041583061218,-0.253402173519134521,-0.320830106735229492,0.161699250340461731,0.030781336128711700,-0.072697259485721588,0.335318654775619507,0.238806337118148804,-0.016056032851338387,-0.268048286437988281,-1.104261040687561035,0.119884341955184937,0.049942649900913239,0.230003908276557922,0.115486271679401398,0.196690022945404053,-0.066210664808750153,-1.093546390533447266,-0.235483288764953613,-0.124583624303340912,0.314193814992904663,0.089405678212642670,-0.267605334520339966,0.165850639343261719,-0.168241366744041443,-0.108462870121002197,0.285507470369338989,-0.193757459521293640,0.049044638872146606,0.022557267919182777,0.089732021093368530,-0.145278006792068481,0.072962656617164612,0.031490188091993332,-0.330353319644927979,-0.259765058755874634
0.676383197307586670,1.197400808334350586,-1.402053594589233398,-0.016750214621424675,-0.163546413183212280,0.375061720609664917,0.135297551751136780,-0.477794200181961060,1.039727210998535156,-0.135246992111206055,0.417080909013748169,-0.181862473487854004,-0.613216221332550049,-0.917756378650665283,0.441996544599533081,-0.049014572054147720,0.618646204471588135,-0.284275144338607788,-0.153506249189376831,-1.280666470527648926,0.374931961297988892,0.772525310516357422,0.539936363697052002,-0.643814921379089355,0.909185469150543213,0.183334752917289734,0.072661139070987701,0.939077854156494141,-0.515985786914825439,0.806457221508026123,0.588911592960357666,-1.091904997825622559,-0.188028216361999512,0.067164570093154907,0.203314006328582764,-0.310613542795181274,-0.695282042026519775,-0.732146322727203369,0.029567670077085495,-0.356850296258926392,0.043574050068855286,0.973390281200408936,-0.196570441126823425,-0.073920182883739471,0.132708609104156494,0.726934611797332764,0.227402791380882263,0.326245754957199097,0.299931377172470093,0.143558815121650696
-0.051979731768369675,-0.214561089873313904,-0.269513607025146484,-0.104068003594875336,0.317049205303192139,0.314443588256835938,0.032161563634872437,-0.212799027562141418,-0.116357155144214630,-0.018158722668886185,0.166763231158256531,0.384606748819351196,0.050711683928966522,0.096039451658725739,-0.176990106701850891,-0.044382385909557343,-0.326187252998352051,0.368112653493881226,0.494190603494644165,-0.105920337140560150,-0.197899267077445984,-0.261544913053512573,-0.088603176176548004,-0.479773789644241333,-0.171740725636482239,0.117575824260711670,0.146945834159851074,-0.281065315008163452,-0.122507490217685699,0.135017827153205872,-0.127938389778137207,0.131857618689537048,-0.280990242958068848,-0.091732226312160492,-0.211241096258163452,0.143443122506141663,0.186475753784179688,0.115240566432476044,-0.377829700708389282,-0.007128390483558178,-0.061384413391351700,0.096022211015224457,-0.260917335748672485,-0.001249537570402026,-0.169763848185539246,-0.092083588242530823,-0.218110844492912292,0.201861634850502014,0.082693748176097870,-0.169148460030555725
0.341223776340484619,0.165599480271339417,-0.042471151798963547,-0.241046100854873657,-0.432299047708511353,0.183689832687377930,-0.214139342308044434,-0.122401908040046692,0.291454255580902100,-0.139992997050285339,-0.212911620736122131,-0.000400964636355639,-0.210447281599044800,0.004881807137280703,0.483375042676925659,-0.231088399887084961,0.196173548698425293,-0.566737711429595947,-0.123955920338630676,-0.222792953252792358,0.335524886846542358,0.254479944705963135,0.383473157882690430,0.057030837982892990,-0.049902785569429398,0.268223047256469727,0.165959045290946960,0.158185511827468872,-0.296771347522735596,0.397979915142059326,0.281908363103866577,0.075947903096675873,-0.200381249189376831,-0.312753736972808838,0.413540154695510864,-0.160495609045028687,0.080146782100200653,-0.081494964659214020,0.415423810482025146,0.023805180564522743,-0.037087783217430115,0.092310659587383270,-0.213697910308837891,-0.452207267284393311,0.037153858691453934,0.451148390769958496,0.080682806670665741,0.155409529805183411,0.074215292930603027,-0.072906225919723511
0.230486482381820679,0.183906719088554382,0.127152636647224426,0.037654228508472443,-0.182394549250602722,0.243179321289062500,-0.354661434888839722,0.056102100759744644,0.449901878833770752,-0.141876503825187683,-0.653330087661743164,-0.044529691338539124,-0.708193063735961914,0.198673978447914124,-0.088285803794860840,0.108809344470500946,-0.166228026151657104,0.103494726121425629,-0.148398309946060181,0.051475513726472855,0.034994654357433319,0.130059510469436646,-0.035171058028936386,-0.181558638811111450,0.479368954896926880,0.139038115739822388,0.657469093799591064,-0.116205751895904541,0.043319378048181534,-0.123090796172618866,0.119886487722396851,-0.035734385251998901,0.061766359955072403,0.208180442452430725,0.200523301959037781,0.293796360492706299,0.418713182210922241,0.313545376062393188,-0.121799029409885406,0.229774326086044312,0.721665501594543457,-0.792145609855651855,-0.075798265635967255,0.086477145552635193,-0.188192009925842285,0.013347114436328411,0.060214675962924957,0.141698434948921204,0.084598861634731293,-0.173142179846763611
-0.093352951109409332,-0.185682937502861023,0.194265425205230713,0.135559782385826111,0.200050026178359985,0.248664468526840210,0.207652673125267029,0.055290885269641876,-0.175053671002388000,-0.185533136129379272,0.138926938176155090,-0.070530146360397339,0.136920690536499023,0.175143480300903320,0.133036419749259949,0.021965488791465759,0.013618464581668377,-0.206665471196174622,0.249845877289772034,0.149812564253807068,-0.029793718829751015,0.071936041116714478,0.122286558151245117,-0.087580583989620209,0.187718957662582397,-0.234220579266548157,0.011263861320912838,0.183224692940711975,0.052852146327495575,0.047054961323738098,0.163588657975196838,0.140872105956077576,-0.070892632007598877,0.132037520408630371,-0.100871495902538300,0.193613648414611816,0.065069220960140228,0.040440697222948074,0.202615171670913696,0.043808989226818085,-0.049237910658121109,-0.192538693547248840,-0.220149248838424683,0.148487448692321777,-0.083581641316413879,0.065855786204338074,-0.199245810508728027,-0.035763062536716461,0.187407836318016052,0.142819896340370178
-0.123960003256797791,0.264961957931518555,0.136070847511291504,-0.143495753407478333,-0.237216383218765259,-0.242263242602348328,-0.113780565559864044,-0.091607108712196350,-0.014235632494091988,-0.210723280906677246,0.062343381345272064,-0.220760405063629150,-0.540820062160491943,-0.020770953968167305,0.076882928609848022,-0.245264127850532532,-0.179477557539939880,-0.429085105657577515,-0.039491865783929825,0.380326271057128906,0.008148045279085636,-0.143344029784202576,0.118831947445869446,-0.166336342692375183,-0.130873590707778931,-0.036382816731929779,0.148360639810562134,-0.159199208021163940,0.005946268793195486,-0.030463427305221558,0.058190952986478806,0.174146905541419983,0.204775795340538025,-0.339238673448562622,0.001956494059413671,-0.001953130122274160,-0.300704300403594971,-0.107552461326122284,0.008968394249677658,-0.139169111847877502,0.144411087036132812,-0.323861241340637207,0.080237023532390594,-0.089186653494834900,-0.146477490663528442,-0.051803003996610641,-0.300703883171081543,-0.095975324511528015,-0.025782721117138863,0.060030810534954071
-0.081067629158496857,0.314578175544738770,-0.032549232244491577,0.139446720480918884,-0.166572540998458862,0.073814839124679565,-0.138001099228858948,-0.143597230315208435,-0.242435216903686523,-0.125187247991561890,0.092589899897575378,-0.307581424713134766,-0.164601996541023254,0.128109008073806763,0.032980185002088547,0.058283597230911255,0.112031728029251099,-0.452038049697875977,0.007990443147718906,0.236302897334098816,0.264409691095352173,-0.129880189895629883,0.052966795861721039,-0.159736305475234985,-0.381999075412750244,-0.114987425506114960,0.135948419570922852,0.040957652032375336,0.327226459980010986,-0.171705409884452820,-0.025215847417712212,-0.094831645488739014,-0.126515001058578491,0.151047334074974060,0.036143694072961807,-0.619965791702270508,0.043611604720354080,-0.095612540841102600,-0.199213564395904541,-0.060561612248420715,0.204110413789749146,0.120547987520694733,0.120306111872196198,-0.151202633976936340,0.090719275176525116,0.124133802950382233,-0.186886653304100037,0.137190103530883789,-0.002079552970826626,-0.101794265210628510
0.373834222555160522,0.779102802276611328,-0.628066539764404297,-0.018156215548515320,0.433054268360137939,-0.136694118380546570,0.239100158214569092,-0.473028600215911865,0.537515103816986084,0.147719189524650574,-0.327082961797714233,-0.613498687744140625,0.104128114879131317,0.153375148773193359,0.635855853557586670,-0.122189864516258240,-0.058698248118162155,0.090905472636222839,-0.297577321529388428,-0.161943763494491577,-0.204124972224235535,0.114142090082168579,0.412633091211318970,-0.160385832190513611,0.270970910787582397,-0.283531606197357178,0.282814770936965942,0.427927553653717041,0.161197379231452942,0.054046362638473511,0.221150487661361694,-0.712577342987060547,-0.094023749232292175,-0.151800751686096191,0.026488497853279114,-0.703849554061889648,-0.233515188097953796,0.038612563163042068,0.100490659475326538,0.333527058362960815,0.104972019791603088,-0.210376620292663574,-0.021281542256474495,0.104011453688144684,-0.038371779024600983,0.447601020336151123,0.165650486946105957,0.160762697458267212,-0.015298121608793736,0.036076206713914871
-0.170562013983726501,0.246699675917625427,0.287525475025177002,0.174527853727340698,0.291357606649398804,0.142459616065025330,0.133015975356101990,0.020565973594784737,0.165081933140754700,0.000804733310360461,-0.013045137748122215,-0.320111036300659180,-0.111558310687541962,-0.247883453965187073,0.222658559679985046,0.006548507604748011,0.079563535749912262,0.189874455332756042,0.330683499574661255,0.242564886808395386,0.083699099719524384,0.138282582163810730,0.280095279216766357,-0.164169088006019592,-0.185735076665878296,0.067307740449905396,0.242011502385139465,0.075193271040916443,0.139581337571144104,0.075843065977096558,-0.285066932439804077,0.044289592653512955,-0.029894027858972549,-0.102488987147808075,0.122072242200374603,0.267327219247817993,0.216409161686897278,-0.193097740411758423,0.177906289696693420,-0.089519128203392029,0.077199496328830719,0.292252063751220703,-0.243347093462944031,-0.157786071300506592,0.213339567184448242,0.040926318615674973,-0.022599903866648674,-0.049490023404359818,-0.270001083612442017,-0.132332012057304382
-0.037896737456321716,0.398160099983215332,-0.867502093315124512,-0.227124482393264771,-0.033228106796741486,0.132464542984962463,-0.125283509492874146,-0.065379947423934937,-0.356174468994140625,0.378186315298080444,0.116902291774749756,0.369138926267623901,0.334282159805297852,0.111736923456192017,-0.248921260237693787,0.121529571712017059,-0.234196677803993225,0.377580463886260986,0.523915290832519531,-0.296955108642578125,-0.668867707252502441,-0.044643212109804153,-0.291261106729507446,0.393570691347122192,0.106608778238296509,-0.083018288016319275,-0.207830637693405151,-0.336132168769836426,0.182547211647033691,-0.145390853285789490,-0.342990547418594360,0.037199266254901886,0.134633734822273254,0.384647160768508911,-0.478077888488769531,-0.227983325719833374,-0.267098307609558105,-0.201168641448020935,0.136634200811386108,-0.031628765165805817,0.300600141286849976,0.239201396703720093,0.106574200093746185,0.446784198284149170,-0.087531991302967072,-0.232681930065155029,-0.140132322907447815,0.565249562263488770,-0.207346469163894653,-0.049488075077533722
0.232782408595085144,-0.123519465327262878,-0.010735139250755310,-0.041195288300514221,-0.117672421038150787,-0.212688565254211426,-0.111001729965209961,0.101115956902503967,-0.132404550909996033,-0.239932522177696228,0.058944847434759140,-0.036459129303693771,-0.251210421323776245,0.117061719298362732,0.047756955027580261,0.004477961920201778,-0.130494609475135803,0.221169546246528625,-0.010995780117809772,-0.194014355540275574,0.119532532989978790,0.123463824391365051,0.124949917197227478,0.184442684054374695,-0.081038348376750946,0.128418833017349243,0.083656728267669678,0.103443220257759094,0.021675642579793930,0.026659630239009857,-0.206025213003158569,-0.164992332458496094,-0.234601825475692749,0.231990724802017212,-0.087200924754142761,0.056504871696233749,-0.025519417598843575,0.043923102319240570,-0.236420705914497375,0.013207914307713509,-0.204406142234802246,0.135819017887115479,0.120364233851432800,0.061864152550697327,0.121663317084312439,-0.152423322200775146,-0.174459621310234070,0.120386622846126556,-0.020221143960952759,-0.151973992586135864
-0.267434090375900269,0.189488664269447327,0.357454270124435425,0.038980711251497269,0.010742262005805969,0.202482238411903381,0.173183098435401917,-0.026307931169867516,-0.309715479612350464,0.127747729420661926,0.238352999091148376,-0.259963899850845337,-0.117266096174716949,0.062759600579738617,-0.121167957782745361,0.099140062928199768,-0.101709172129631042,0.156564190983772278,-0.183387726545333862,-0.209791734814643860,-0.067619770765304565,-0.211823418736457825,0.032167837023735046,-0.039588034152984619,0.104723207652568817,-0.021235948428511620,-0.209354817867279053,-0.160067990422248840,-0.059452977031469345,-0.028064075857400894,0.137732729315757751,0.313239157199859619,-0.156862035393714905,-0.117494970560073853,-0.005156241822987795,-0.019836103543639183,-0.238119751214981079,-0.261647909879684448,-0.077139802277088165,0.079912416636943817,0.087190382182598114,-0.159284085035324097,-0.009004499763250351,-0.339403510093688965,-0.010555862449109554,0.149879977107048035,0.061025358736515045,0.047632411122322083,-0.007397250737994909,-0.351683109998703003
0.082160852849483490,0.224141970276832581,0.242208868265151978,0.153279840946197510,0.224239036440849304,-0.067343704402446747,-0.294195413589477539,0.284363329410552979,0.030378906056284904,0.087591245770454407,0.262471348047256470,0.173072025179862976,0.084131017327308655,-0.230822801589965820,0.008394303731620312,-0.270794123411178589,-0.195035800337791443,-0.309854388236999512,-0.177584543824195862,-0.477614045143127441,-0.377051413059234619,0.335383325815200806,-0.096870869398117065,-0.006211486645042896,-0.129517376422882080,0.279258400201797485,0.168757736682891846,0.101739242672920227,0.306228339672088623,0.158071711659431458,0.073644146323204041,-0.198465630412101746,-0.199601680040359497,-0.120895914733409882,0.100289531052112579,0.308176428079605103,0.329147636890411377,0.242949321866035461,-0.055638276040554047,0.005336136557161808,0.226667121052742004,-0.009056623093783855,-0.062835142016410828,0.109033741056919098,-0.244257733225822449,0.021692104637622833,0.020557021722197533,0.046076718717813492,-0.142970442771911621,-0.016876295208930969
0.439311325550079346,0.163447678089141846,-0.448856920003890991,-0.127494499087333679,-0.171115159988403320,-0.128344014286994934,0.190146818757057190,-1.538496375083923340,-0.048352763056755066,-0.356613248586654663,-0.303617626428604126,0.198632106184959412,0.497532576322555542,-0.364762872457504272,0.231423765420913696,0.247199818491935730,0.494452595710754395,0.095462739467620850,0.240719556808471680,-0.128515362739562988,0.491952002048492432,0.154779464006423950,0.356427192687988281,-0.177682206034660339,0.071176782250404358,0.057044856250286102,-0.447023808956146240,0.455735564231872559,-0.466642051935195923,0.279423058032989502,-0.036634568125009537,-0.379367947578430176,0.100923515856266022,-0.065743491053581238,0.254795074462890625,-0.043633047491312027,-0.370819747447967529,-0.296805322170257568,0.488038331270217896,0.257546573877334595,-0.224519968032836914,-0.192829221487045288,0.157416120171546936,0.160620465874671936,-0.177817180752754211,0.235161766409873962,0.065386578440666199,0.176471158862113953,-0.114259064197540283,-0.126819297671318054
-0.022702589631080627,-0.041524443775415421,-0.053133375942707062,0.134965345263481140,-0.263901978731155396,-0.066651493310928345,0.049058418720960617,0.248594567179679871,0.368012011051177979,-0.116142846643924713,0.138416796922683716,-0.161909237504005432,-0.103527531027793884,-0.069565854966640472,0.136731982231140137,0.153112545609474182,-0.046012993901968002,-0.087184034287929535,-0.017195628955960274,-0.061602436006069183,-0.055356081575155258,0.338634073734283447,0.296527743339538574,0.131701529026031494,-0.090123578906059265,-0.265973657369613647,-0.164639025926589966,-0.207722514867782593,0.071558438241481781,0.068361483514308929,-0.174897164106369019,0.038553304970264435,-0.253803521394729614,-0.277415841817855835,0.075982369482517242,-0.018611099570989609,0.438448935747146606,0.212947770953178406,0.163404330611228943,-0.139749526977539062,0.239883974194526672,0.144799038767814636,-0.098590843379497528,-0.462135344743728638,-0.107823878526687622,0.166208833456039429,-0.217954874038696289,-0.217915907502174377,0.054980132728815079,-0.122512899339199066
0.250134348869323730,0.289019405841827393,-0.603716135025024414,-0.229075238108634949,-0.004905384965240955,-0.152220979332923889,-0.208917871117591858,-0.189111337065696716,0.208351656794548035,-0.071122013032436371,0.288573652505874634,0.201104804873466492,-0.091716751456260681,-0.289439141750335693,0.279372364282608032,0.106719262897968292,-0.096384346485137939,0.054531358182430267,0.310042947530746460,-0.303959101438522339,0.106713190674781799,0.000721576332580298,-0.223115608096122742,-0.257723331451416016,0.329837113618850708,0.146766483783721924,0.131649628281593323,0.188301503658294678,-0.094807609915733337,-0.124177448451519012,0.219131276011466980,0.211207389831542969,-0.210148915648460388,-0.277430266141891479,0.133919686079025269,-0.036177113652229309,0.103130348026752472,0.140376269817352295,0.143176779150962830,-0.062821425497531891,-0.047385625541210175,0.290720611810684204,-0.185335591435432434,0.383927673101425171,-0.229950338602066040,0.179423183202743530,0.130436301231384277,0.342251926660537720,-0.478072494268417358,-0.230978935956954956
-0.250523954629898071,-0.827013909816741943,0.365811616182327271,-0.137907430529594421,0.062937453389167786,-0.479047536849975586,-0.170782789587974548,-0.201633512973785400,-0.037489611655473709,-0.759186565876007080,-0.057321272790431976,0.237344264984130859,0.308996975421905518,0.387508779764175415,-0.346281111240386963,-0.107655741274356842,0.217699676752090454,-0.504323303699493408,0.166256889700889587,0.077143892645835876,-0.034722384065389633,0.017683895304799080,-0.366887003183364868,0.145363703370094299,0.191228508949279785,0.170409142971038818,-0.174766317009925842,-0.003982437308877707,0.174686253070831299,-0.269757926464080811,-0.698725461959838867,0.518126308917999268,0.166375249624252319,0.192802131175994873,-0.065382845699787140,-0.119952157139778137,0.080008216202259064,-0.222939848899841309,-0.344598948955535889,0.057992257177829742,-0.287045508623123169,0.293831825256347656,0.126067683100700378,0.277372181415557861,0.076536104083061218,-0.067745335400104523,0.057757675647735596,-0.169645249843597412,0.177298977971076965,0.103370644152164459
0.051436707377433777,0.133177146315574646,-0.061273083090782166,-0.179706022143363953,-0.214090958237648010,0.191209673881530762,-0.039179269224405289,0.090400986373424530,-0.060789909213781357,-0.038434449583292007,0.091160736978054047,-0.859383583068847656,-0.052141491323709488,-0.193325862288475037,0.156372830271720886,0.138767793774604797,0.320840924978256226,-0.133443847298622131,-0.082589074969291687,0.129113569855690002,0.365563720464706421,-0.146352469921112061,0.117478013038635254,-0.218189597129821777,-0.316476196050643921,-0.274685174226760864,0.183603584766387939,0.148427098989486694,0.270910650491714478,-0.078162334859371185,0.347340524196624756,-0.194813415408134460,-0.053947933018207550,-0.081571884453296661,0.176291778683662415,-0.637025952339172363,-0.179792299866676331,-0.058705404400825500,0.284523338079452515,0.174961239099502563,0.013395356945693493,-0.015449929051101208,-0.175385162234306335,-0.116033107042312622,-0.051242657005786896,-0.205895051360130310,0.040946111083030701,-0.301603585481643677,-0.010825978592038155,-0.000501437811180949
-0.141402989625930786,-0.400821208953857422,-0.509734213352203369,-0.034788541495800018,0.208761021494865417,-0.129579588770866394,-0.320816934108734131,0.183172732591629028,-0.306283652782440186,-0.350983381271362305,-0.094313576817512512,-0.107020780444145203,-0.079456239938735962,-0.096268817782402039,-0.020764447748661041,-0.165097549557685852,0.266834199428558350,0.275898665189743042,0.195487976074218750,0.156602695584297180,0.405319571495056152,-0.236674040555953979,-0.208278313279151917,0.223032012581825256,0.304828047752380371,0.151047155261039734,-0.338467717170715332,-0.024849249050021172,-0.177562847733497620,-0.210247069597244263,0.190083190798759460,0.382376641035079956,0.125362887978553772,-0.008752517402172089,-0.099404573440551758,0.126720935106277466,-0.259054541587829590,0.052940979599952698,-0.305783122777938843,-0.754057526588439941,-0.074794948101043701,-0.124775700271129608,-0.182832032442092896,0.329703092575073242,-0.258167773485183716,-0.069883421063423157,-0.211710646748542786,-0.064319014549255371,-0.113432258367538452,0.079151615500450134
-0.106924034655094147,-0.104265645146369934,-0.223249107599258423,-0.248926252126693726,0.403642803430557251,0.143218055367469788,-0.154749721288681030,0.414601564407348633,0.073979370296001434,0.267485857009887695,-0.165842086076736450,-0.027527414262294769,0.324073314666748047,0.261531084775924683,-0.140380412340164185,-0.277512222528457642,0.165616288781166077,0.165906503796577454,-0.148791030049324036,0.297097533941268921,0.213908135890960693,0.149031594395637512,-0.203956365585327148,0.136467620730400085,-0.030917353928089142,-0.277527093887329102,0.121661752462387085,0.017447557300329208,0.034469492733478546,0.031629983335733414,-0.113564193248748779,-0.249473974108695984,0.028091603890061378,-0.172969147562980652,0.135337531566619873,-0.006676973309367895,0.254128903150558472,-0.165879800915718079,0.108279630541801453,0.324778735637664795,0.269845366477966309,-0.402894675731658936,-0.021241705864667892,-0.154626250267028809,-0.023949706926941872,0.097649700939655304,-0.281336307525634766,0.118195600807666779,-0.306811362504959106,0.064212746918201447
0.005190815776586533,0.052363835275173187,0.101027861237525940,-0.077392630279064178,0.044220615178346634,-0.169809892773628235,-0.114444211125373840,0.459233254194259644,0.298119246959686279,0.166667759418487549,0.331803560256958008,0.037114620208740234,0.274205446243286133,0.300300419330596924,0.289967864751815796,-0.151267036795616150,0.092116616666316986,0.058226499706506729,-0.311064302921295166,-0.115077078342437744,0.345813095569610596,-0.185349151492118835,0.070051908493041992,0.126730471849441528,0.010545231401920319,-0.181795597076416016,0.200264185667037964,0.172049418091773987,0.100363038480281830,-0.012632203288376331,-0.296196788549423218,-0.578614413738250732,0.026814939454197884,0.291619271039962769,-0.086665809154510498,-0.422314852476119995,-0.012906823307275772,0.139505311846733093,0.162728875875473022,-0.301057875156402588,-0.284491240978240967,-0.389773994684219360,-0.170653790235519409,-0.026920367032289505,-0.043274167925119400,0.274328410625457764,0.002470198785886168,-0.207523360848426819,-0.125902876257896423,-0.285516411066055298
-0.625227749347686768,-0.412907630205154419,-0.058684770017862320,0.056506097316741943,0.206239402294158936,-0.782464325428009033,0.140908926725387573,0.137847512960433960,-0.083872176706790924,-0.377381473779678345,0.389402270317077637,0.003480968996882439,0.352576524019241333,0.176621511578559875,-0.333566486835479736,0.211015537381172180,0.385153323411941528,-0.325884491205215454,0.326372504234313965,0.234353721141815186,-0.040191859006881714,-0.400659680366516113,-0.480822682380676270,0.162241294980049133,0.323717117309570312,-0.547169268131256104,-0.387817382812500000,-0.293705910444259644,0.173388794064521790,-0.443321555852890015,-0.433534443378448486,0.187670424580574036,-0.042376838624477386,-0.218309044837951660,-0.462686538696289062,-0.673958241939544678,-0.189389556646347046,-0.145981624722480774,-0.351335853338241577,0.588242411613464355,0.130695343017578125,0.142793998122215271,0.223076611757278442,0.341458201408386230,0.183103770017623901,-0.435452848672866821,-0.009334392845630646,0.571913480758666992,0.082398757338523865,-0.031683143228292465
-0.164582327008247375,0.065903633832931519,0.396811842918395996,-0.009767380543053150,-0.209968224167823792,0.208851933479309082,0.009723835624754429,0.030901418998837471,-0.242027357220649719,0.384323209524154663,0.148625820875167847,-0.973976969718933105,-0.287054181098937988,0.001446448499336839,-0.011351494118571281,0.120944716036319733,-0.012249029241502285,-0.098936758935451508,-0.511484861373901367,0.141793400049209595,-0.114945076406002045,-0.126022875308990479,0.240616217255592346,-0.045605409890413284,-0.150927498936653137,0.017345426604151726,0.058472506701946259,0.157542526721954346,-0.216072171926498413,-0.192304626107215881,0.003035453613847494,-0.098525546491146088,-0.073886722326278687,0.124199129641056061,0.088491082191467285,-0.660893678665161133,-0.274581134319305420,0.245403721928596497,-0.047513250261545181,-0.086752764880657196,0.030084026977419853,-0.166669905185699463,-0.193437814712524414,-0.394297719001770020,-0.110127575695514679,0.245533928275108337,-0.083197377622127533,-0.128681093454360962,0.166019126772880554,-0.086018383502960205
-0.039797812700271606,-0.177570015192031860,0.236305907368659973,-0.195485293865203857,0.164457380771636963,-0.003402694594115019,-0.203169137239456177,-0.114230588078498840,-0.163808688521385193,0.033517848700284958,0.150318384170532227,-0.163316741585731506,0.188667729496955872,0.245554342865943909,-0.207174509763717651,0.103386171162128448,0.073631770908832550,0.217780873179435730,0.213223785161972046,0.170297399163246155,0.060433302074670792,-0.161129802465438843,0.015652194619178772,0.193512201309204102,0.034492675215005875,0.216065034270286560,0.157505303621292114,-0.094049558043479919,0.179189890623092651,-0.154326409101486206,0.091272711753845215,-0.055172879248857498,0.234861865639686584,-0.059427689760923386,0.008068486116826534,-0.093311823904514313,-0.065049879252910614,-0.189888492226600647,-0.054468177258968353,-0.218247056007385254,-0.097042858600616455,0.120262064039707184,-0.243726477026939392,0.119333639740943909,-0.122835457324981689,0.059984669089317322,-0.192287817597389221,0.093234911561012268,0.203190997242927551,-0.144919082522392273
-0.179771214723587036,0.199117079377174377,-0.120393984019756317,0.135092183947563171,-0.160321608185768127,-0.013091999106109142,-0.085373774170875549,-0.102134838700294495,0.215329319238662720,-0.051977545022964478,0.220887690782546997,-0.216098368167877197,0.067281566560268402,-0.046788115054368973,-0.168712168931961060,-0.193839579820632935,-0.188723936676979065,0.139512658119201660,0.110643625259399414,0.142693698406219482,0.105506673455238342,0.260908484458923340,-0.180445879697799683,-0.195341303944587708,0.107360012829303741,-0.204484447836875916,0.099400706589221954,0.177915811538696289,0.177714213728904724,0.260800778865814209,-0.053100515156984329,-0.083804026246070862,-0.243914112448692322,-0.223049148917198181,0.023343950510025024,0.049910854548215866,0.192408949136734009,0.018346033990383148,-0.090055294334888458,-0.068462155759334564,0.021540831774473190,-0.043900229036808014,-0.080895572900772095,-0.149013668298721313,-0.101574972271919250,-0.107524193823337555,0.109478458762168884,0.092059180140495300,-0.224461242556571960,-0.049162149429321289
0.140913799405097961,-0.156517639756202698,0.330557078123092651,-0.092819467186927795,-0.247102439403533936,-0.071821257472038269,-0.272511839866638184,0.333946198225021362,0.360643357038497925,0.015370031818747520,-0.041636735200881958,0.162230685353279114,-0.150440201163291931,-0.335644751787185669,0.206509828567504883,-0.291205078363418579,0.016989888623356819,-0.167215079069137573,0.229095682501792908,-0.235250532627105713,-0.166156262159347534,0.186127185821533203,-0.002280446467921138,0.020228238776326180,0.275444984436035156,0.290203154087066650,0.392429798841476440,0.152933195233345032,-0.223457694053649902,-0.088387422263622284,0.372537821531295776,0.012117143720388412,-0.080487757921218872,-0.202569544315338135,0.067394442856311798,0.348186671733856201,0.279283553361892700,0.237696126103401184,0.094504445791244507,0.055307868868112564,-0.069036848843097687,0.189158961176872253,-0.023123653605580330,0.271651923656463623,-0.130484193563461304,0.200643375515937805,-0.065280772745609283,-0.043252259492874146,-0.150406077504158020,0.146038368344306946
0.131627053022384644,-0.243194460868835449,0.067987665534019470,-0.082416392862796783,0.102327205240726471,-0.094439327716827393,0.137099921703338623,0.091764226555824280,0.061993047595024109,0.050903640687465668,-0.196118414402008057,-0.388470649719238281,0.189922362565994263,-0.129348412156105042,-0.184659287333488464,-0.046110600233078003,0.122831791639328003,-0.345040053129196167,0.056764505803585052,-0.054046411067247391,0.202200278639793396,0.182573422789573669,0.228301346302032471,0.229154169559478760,-0.309884160757064819,0.345082491636276245,-0.040294419974088669,0.258272618055343628,-0.242418333888053894,0.181261047720909119,0.243547439575195312,-0.116452336311340332,-0.106929078698158264,0.038546964526176453,0.253412604331970215,0.008467942476272583,-0.288961142301559448,-0.251790821552276611,0.160115495324134827,-0.365101426839828491,-0.219531342387199402,-0.241158962249755859,-0.113766573369503021,-0.274862170219421387,0.109173640608787537,0.081350289285182953,-0.061935104429721832,-0.298153162002563477,-0.254457473754882812,-0.144999831914901733
-0.008825330995023251,-0.091929666697978973,-0.207143053412437439,-0.170634537935256958,-0.000434324145317078,0.175604283809661865,-0.214104518294334412,0.052242197096347809,-0.031072055920958519,0.239816233515739441,-0.231298208236694336,-0.153424128890037537,0.213173791766166687,-0.200229689478874207,0.219850644469261169,0.157623991370201111,-0.088642641901969910,0.029286459088325500,0.177658021450042725,0.140775308012962341,-0.104181230068206787,0.095763646066188812,-0.100640051066875458,0.233997240662574768,-0.234181508421897888,-0.184730410575866699,0.096920944750308990,-0.057933893054723740,0.090899102389812469,-0.096212320029735565,-0.231656521558761597,-0.220939666032791138,-0.073648259043693542,0.089480653405189514,0.037536647170782089,0.084848925471305847,-0.180822804570198059,-0.023438893258571625,-0.151425778865814209,-0.242247134447097778,0.225115731358528137,-0.225666835904121399,0.022447422146797180,-0.084363728761672974,-0.186402231454849243,-0.199849233031272888,-0.068360283970832825,0.079960800707340240,0.114353910088539124,-0.126004144549369812
0.184602871537208557,-0.214883551001548767,-0.073473870754241943,-0.014340202324092388,0.047724861651659012,0.150839656591415405,-0.075681038200855255,-0.178035944700241089,0.019016640260815620,-0.094283670186996460,0.108121983706951141,-0.206852301955223083,0.162732124328613281,-0.079489156603813171,0.001041643903590739,0.146734163165092468,-0.224478706717491150,-0.126800477504730225,-0.192422240972518921,0.052148915827274323,0.082535110414028168,0.127870991826057434,0.129141300916671753,-0.073011182248592377,0.232435718178749084,-0.221041083335876465,-0.185781642794609070,-0.219638630747795105,-0.141342803835868835,0.091409794986248016,-0.196297869086265564,0.086488492786884308,-0.144669726490974426,0.254475235939025879,0.109116554260253906,0.212859332561492920,0.201609656214714050,-0.153732255101203918,0.043625917285680771,0.242561534047126770,-0.101318761706352234,0.192968711256980896,0.097993180155754089,-0.086061224341392517,0.046371117234230042,0.087424509227275848,-0.000901246676221490,-0.139239057898521423,-0.113533340394496918,0.121568478643894196
-0.937243759632110596,0.031596753746271133,-0.658782601356506348,-0.150546848773956299,0.711976349353790283,-0.222780764102935791,-0.007916757836937904,0.300876319408416748,-0.646476030349731445,0.275566130876541138,0.112244419753551483,0.216667875647544861,-0.103780075907707214,0.468272686004638672,-0.624399721622467041,-0.137050688266754150,0.029460646212100983,0.025054378435015678,0.474262177944183350,0.323502361774444580,-0.926885068416595459,-0.554723203182220459,-0.639100432395935059,0.718322396278381348,0.016035594046115875,-0.152750864624977112,0.136303484439849854,-0.640614032745361328,0.324422955513000488,-0.363748371601104736,-0.027349609881639481,0.387417256832122803,-0.249059349298477173,0.168705403804779053,-0.556938409805297852,0.305659025907516479,-0.067088082432746887,0.069963924586772919,-0.171646073460578918,0.534504890441894531,0.114898741245269775,0.535404324531555176,0.007136899512261152,0.372475177049636841,-0.271698683500289917,-0.419242024421691895,0.047139443457126617,0.815197288990020752,0.319094687700271606,-0.156754344701766968
0.050499174743890762,0.093169003725051880,0.146719738841056824,-0.016520926728844643,-0.396454721689224243,0.192888662219047546,-0.205630719661712646,-1.220700621604919434,0.512147545814514160,-0.439223766326904297,-0.597886204719543457,0.322835147380828857,0.272640168666839600,-0.328904569149017334,0.487153828144073486,-0.149173676967620850,0.437048703432083130,-0.192541122436523438,-0.190719470381736755,-0.209403499960899353,0.255235254764556885,0.440814375877380371,0.254677504301071167,-0.294640928506851196,0.019718833267688751,0.500647306442260742,-0.361839503049850464,0.570273339748382568,-0.253230154514312744,0.132595092058181763,0.533221781253814697,0.149871557950973511,-0.008151118643581867,-0.091554127633571625,0.468617141246795654,-0.078062556684017181,0.079394832253456116,0.094900935888290405,0.125050082802772522,0.177670508623123169,-0.030133454129099846,-0.414888560771942139,-0.188365861773490906,-0.127730831503868103,0.121469721198081970,0.431818187236785889,-0.200507670640945435,0.154413387179374695,-0.049948800355195999,-0.081466473639011383
0.135396912693977356,0.201200708746910095,-0.935497641563415527,-0.085101664066314697,0.188431084156036377,-0.123670101165771484,-0.076593302190303802,0.160690069198608398,0.141899079084396362,-0.069371908903121948,0.064279928803443909,0.206864371895790100,0.091271311044692993,0.162190169095993042,-0.107521846890449524,-0.061730891466140747,-0.393312454223632812,-0.262654095888137817,-0.157587289810180664,-0.235818549990653992,-0.008818390779197216,0.184999272227287292,0.042611517012119293,-0.265086293220520020,-0.478943586349487305,0.063433080911636353,-0.122490666806697845,-0.052980821579694748,0.036955729126930237,0.177849173545837402,0.067552879452705383,-0.329436123371124268,-0.215917944908142090,-0.072931781411170959,0.243935450911521912,0.317103326320648193,0.173072025179862976,-0.207105353474617004,0.075044304132461548,-0.081339955329895020,-0.084837645292282104,0.044370792806148529,0.038589283823966980,0.016513127833604813,-0.258459270000457764,0.218395963311195374,-0.125323772430419922,0.116749659180641174,-0.052011318504810333,-0.057649787515401840
0.227800413966178894,0.313842862844467163,-0.324856996536254883,-0.247037708759307861,-0.091609403491020203,-0.000673479516990483,-0.082913428544998169,-0.078211672604084015,0.360029011964797974,-0.182127743959426880,0.150738596916198730,-0.133353903889656067,0.211398601531982422,-0.510067760944366455,0.135379865765571594,0.027302350848913193,0.270315378904342651,-0.175689667463302612,0.240151420235633850,-0.249486044049263000,-0.169782474637031555,0.167406231164932251,0.338396221399307251,-0.222926169633865356,-0.396271407604217529,-0.127292513847351074,0.040331602096557617,0.113574594259262085,-0.156225964426994324,0.054628673940896988,-0.223393857479095459,-0.316999852657318115,-0.188227504491806030,0.133193403482437134,0.039531368762254715,-0.138949736952781677,-0.241873204708099365,0.275025099515914917,0.100112654268741608,0.108135581016540527,-0.258919507265090942,0.137769132852554321,-0.185201421380043030,-0.033358111977577209,-0.070312179625034332,0.044237185269594193,0.072901882231235504,0.202272385358810425,-0.173361897468566895,-0.198775604367256165
0.094433844089508057,0.458736360073089600,-0.041528694331645966,-0.224187821149826050,-0.124376088380813599,0.150100141763687134,-0.123662076890468597,0.206365257501602173,0.182429671287536621,0.005470976699143648,0.400525689125061035,-0.176080033183097839,0.086977280676364899,0.254675090312957764,0.120673179626464844,-0.114916786551475525,0.017687980085611343,0.012992143630981445,0.211457043886184692,-0.092603132128715515,0.069107413291931152,0.155433595180511475,0.025861218571662903,-0.032350648194551468,-0.095978036522865295,0.195730000734329224,0.124098487198352814,-0.153370738029479980,-0.193474188446998596,0.357338964939117432,0.024862015619874001,-0.189334213733673096,0.082191385328769684,-0.190460577607154846,-0.063801743090152740,0.091304607689380646,-0.058738760650157928,0.062381576746702194,0.362562805414199829,-0.105629332363605499,0.194730117917060852,0.298939675092697144,0.166409894824028015,0.127818599343299866,-0.216360315680503845,0.009850403293967247,-0.350818157196044922,-0.102183654904365540,-0.148319825530052185,0.031133413314819336
-0.222332522273063660,0.133104294538497925,0.186933979392051697,0.072849944233894348,0.017159996554255486,0.141040772199630737,-0.218145072460174561,-0.009241458959877491,-0.013500442728400230,0.190059155225753784,0.069778867065906525,-0.403794825077056885,0.060119669884443283,0.099558301270008087,-0.289014190435409546,-0.250333219766616821,0.185459390282630920,0.381366223096847534,0.181622490286827087,-0.195919811725616455,0.517590045928955078,-0.267154604196548462,0.240619003772735596,-0.039266545325517654,-0.124573931097984314,-0.229203417897224426,-0.213500753045082092,0.159107401967048645,0.005885350052267313,-0.273020595312118530,0.134984478354454041,0.010436691343784332,-0.196028694510459900,0.250868082046508789,-0.331916421651840210,-0.079348668456077576,-0.141502603888511658,-0.164085790514945984,-0.174448743462562561,0.025431215763092041,0.072630994021892548,-0.509049594402313232,0.055034372955560684,-0.220238968729972839,-0.019599037244915962,-0.236985936760902405,0.033916108310222626,-0.007501391228288412,-0.081612408161163330,0.150969415903091431
0.280291169881820679,0.388837158679962158,-0.306301265954971313,-0.129269272089004517,-0.018478097394108772,0.077572979032993317,0.059763412922620773,-0.136227443814277649,-0.028886202722787857,0.284930437803268433,-0.032294392585754395,0.061871219426393509,0.088256098330020905,-0.365646183490753174,0.251791298389434814,-0.072531878948211670,-0.115145914256572723,-0.140612497925758362,-0.068819731473922729,-0.351951748132705688,-0.030193207785487175,0.150118499994277954,0.251191914081573486,0.079157471656799316,-0.242732927203178406,0.208949401974678040,0.281686455011367798,0.048713497817516327,-0.165131911635398865,0.018836358562111855,0.090172857046127319,-0.422885328531265259,-0.127056702971458435,0.027485096827149391,-0.168036609888076782,0.283626616001129150,0.027586469426751137,-0.028511585667729378,-0.068061530590057373,-0.205801218748092651,0.267859935760498047,0.310474425554275513,-0.237982466816902161,0.198900297284126282,-0.092462576925754547,-0.047771066427230835,-0.096684187650680542,0.233106240630149841,-0.127240002155303955,-0.093355163931846619
0.417219132184982300,-0.715571343898773193,0.104730777442455292,0.077148206532001495,0.174793720245361328,-0.547564387321472168,0.171609401702880859,-0.013114874251186848,-0.194811195135116577,-0.328453361988067627,-0.021870514377951622,0.385136395692825317,0.539084136486053467,0.047329202294349670,0.066916890442371368,0.002895430428907275,0.517662525177001953,-0.128252208232879639,0.176459565758705139,0.129752919077873230,0.523483932018280029,0.128507763147354126,-0.004234345164150000,0.241037294268608093,0.431094765663146973,-0.261402785778045654,-0.353865683078765869,0.181176528334617615,-0.095078907907009125,0.158206179738044739,-0.111094795167446136,0.342621713876724243,-0.082682117819786072,-0.080639399588108063,0.075956270098686218,-0.090958230197429657,-0.020123871043324471,-0.684736192226409912,0.179942592978477478,-0.036372892558574677,-0.771601796150207520,-0.182007759809494019,-0.090576231479644775,0.438813358545303345,-0.132876038551330566,-0.379683494567871094,-0.188017725944519043,-0.010950608178973198,-0.094725258648395538,0.064299851655960083
0.008613555692136288,-0.118399024009704590,0.201499313116073608,-0.175529599189758301,-0.189548432826995850,-0.059370052069425583,-0.109259210526943207,-0.224685475230216980,-0.338979035615921021,-0.019175650551915169,0.020301861688494682,-0.577357292175292969,-0.142418399453163147,-0.031281270086765289,0.030597083270549774,-0.205012530088424683,-0.160615786910057068,-0.220967546105384827,-0.359431952238082886,0.374945282936096191,0.175727888941764832,-0.009022437036037445,-0.084240555763244629,-0.157750740647315979,-0.069486245512962341,-0.052483014762401581,0.227367326617240906,-0.110828310251235962,-0.061272535473108292,-0.052327319979667664,0.040123190730810165,-0.041933797299861908,-0.245146557688713074,-0.195895895361900330,0.064438521862030029,-0.040475498884916306,0.027333281934261322,0.227728292346000671,-0.011906401254236698,-0.110344111919403076,0.263875097036361694,0.035250943154096603,-0.188816338777542114,0.006058269646018744,-0.242449581623077393,0.133852124214172363,-0.094342686235904694,-0.187989085912704468,-0.026144590228796005,-0.024646103382110596
-0.089425601065158844,0.332813292741775513,-0.248375356197357178,-0.198934063315391541,0.277951717376708984,0.520033538341522217,0.106620833277702332,0.350596874952316284,-0.741910338401794434,0.222465544939041138,-0.175706103444099426,-0.211960524320602417,0.021918002516031265,-0.194147452712059021,-0.080006763339042664,0.050105676054954529,0.272098511457443237,-0.119921982288360596,0.085756726562976837,-0.177222028374671936,-0.362391829490661621,0.089779511094093323,0.236837059259414673,0.615006685256958008,-0.331769794225692749,0.572485625743865967,0.142554715275764465,-0.023733688518404961,0.056810349225997925,0.160743609070777893,-0.059449911117553711,0.204375192523002625,-0.233061537146568298,0.810207545757293701,0.116057857871055603,0.517652273178100586,-0.199954599142074585,-0.062477849423885345,-0.102683871984481812,-0.533125758171081543,0.092233188450336456,-0.063136197626590729,-0.220720618963241577,0.037019234150648117,-0.170339614152908325,0.154392689466476440,0.082484818994998932,-0.030005004256963730,0.125247940421104431,-0.148596942424774170
-0.381816565990447998,0.019624888896942139,0.155532181262969971,-0.224969074130058289,-0.083114564418792725,-0.048075072467327118,0.137256994843482971,-0.189138993620872498,-0.118422992527484894,0.165523171424865723,-0.214360415935516357,-0.371410846710205078,0.263293653726577759,0.050285324454307556,0.025547573342919350,-0.224898934364318848,-0.006729025859385729,-0.269725352525711060,0.091258563101291656,0.345530360937118530,-0.188588410615921021,0.249911695718765259,-0.074938431382179260,0.233090549707412720,0.123952873051166534,-0.054292846471071243,-0.183418095111846924,0.191459581255912781,0.053423725068569183,0.067719496786594391,-0.137215733528137207,0.037220414727926254,-0.111934922635555267,0.205780297517776489,-0.055265277624130249,0.140630900859832764,0.141323700547218323,0.039806190878152847,0.023939080536365509,0.152617111802101135,0.118067994713783264,0.119899407029151917,-0.132551759481430054,-0.175000682473182678,-0.226575836539268494,0.066518284380435944,-0.209627285599708557,0.172060891985893250,-0.155611395835876465,-0.087099216878414154
