-0.191609695553779602
0.154845848679542542
0.171835884451866150
0.125346228480339050
0.050890628248453140
0.088503077626228333
-0.183840945363044739
0.115381330251693726
-0.245815873146057129
-0.021774483844637871
-0.023711366578936577
-0.051811724901199341
-0.096658572554588318
-0.093161895871162415
-0.026488207280635834
-0.102016538381576538
0.010347169823944569
0.134127765893936157
0.046220425516366959
0.153410062193870544
-0.141745790839195251
0.069767288863658905
-0.069107539951801300
-0.017858738079667091
0.168122783303260803
-0.112287081778049469
-0.017041523009538651
-0.051949083805084229
-0.016650777310132980
-0.023754259571433067
-0.065818794071674347
0.050074469298124313
-0.181290045380592346
0.153920441865921021
-0.122981935739517212
0.078840523958206177
0.153791680932044983
0.023480465635657310
-0.052943948656320572
0.094194866716861725
-0.057012796401977539
-0.008342919871211052
0.086016349494457245
0.054960381239652634
-0.019113309681415558
0.099214307963848114
-0.113119184970855713
0.186801195144653320
-0.063121207058429718
0.023227697238326073
