-0.017825504764914513,0.097868546843528748,-0.474896013736724854,0.137295320630073547,-0.083716750144958496,0.009548653848469257,-0.238585025072097778,0.275720030069351196,0.147118046879768372,-0.104411773383617401,-0.074657499790191650,-0.029074737802147865,0.058765009045600891,0.225128948688507080,0.161119461059570312,0.040527403354644775,0.016310892999172211,0.033418249338865280,0.204248219728469849,0.053935833275318146,0.047941956669092178,0.103577621281147003,-1.380675911903381348,0.048262238502502441,0.129714339971542358,0.040335901081562042,0.202663034200668335,0.048725008964538574,-0.135037422180175781,-0.199027448892593384,-0.198132440447807312,0.186050206422805786,-0.036591097712516785,-0.411271333694458008,-0.002568585798144341,-0.024502480402588844,-0.011511388234794140,-0.177441403269767761,0.188057109713554382,-0.328826069831848145,-0.124116219580173492,-0.010834415443241596,0.010802658274769783,-0.157271265983581543,0.116442859172821045,-0.082412287592887878,0.185090482234954834,0.261672198772430420,-0.108223982155323029,-0.134916722774505615
0.008102980442345142,0.197061821818351746,0.070680901408195496,0.037444353103637695,0.460403621196746826,-0.092281453311443329,0.116002708673477173,-0.134699836373329163,-0.015570231713354588,0.035835679620504379,-0.104715399444103241,-0.124040395021438599,-0.136852890253067017,0.326645761728286743,0.315160512924194336,-0.383314549922943115,-0.091153495013713837,0.018982136622071266,0.358642578125000000,0.465638190507888794,-0.328630745410919189,-0.438577294349670410,-0.245914772152900696,0.201373457908630371,-0.214832186698913574,0.404103368520736694,0.102680683135986328,-0.012452609837055206,0.000849690171889961,-0.179533779621124268,-0.533637106418609619,0.154394716024398804,-0.005971631966531277,0.142429783940315247,-0.150718495249748230,-0.262926131486892700,-0.043566677719354630,-0.424910604953765869,-0.240594282746315002,0.286708861589431763,0.017080934718251228,0.373689323663711548,-0.006401342805474997,0.276120215654373169,0.013880240730941296,0.184457138180732727,0.165368378162384033,0.129331111907958984,-0.108583919703960419,-0.062167420983314514
0.230021178722381592,-0.067504562437534332,-0.139376580715179443,0.222953721880912781,0.125494137406349182,-0.087058320641517639,0.367501109838485718,0.356352895498275757,-0.371893972158432007,0.138194859027862549,0.106363125145435333,0.069973923265933990,0.155890509486198425,0.177712634205818176,-0.154572442173957825,-0.295411616563796997,-0.086125008761882782,-0.056744884699583054,0.016408130526542664,0.346512436866760254,-0.049599580466747284,-0.268637776374816895,-0.654857933521270752,-0.170970514416694641,0.093389444053173065,-0.228828668594360352,0.128157868981361389,-0.049916401505470276,-0.163413777947425842,-0.154820457100868225,-0.354047685861587524,0.058685060590505600,0.121735326945781708,-0.245922163128852844,0.019027840346097946,-0.181536868214607239,0.047597561031579971,-0.264220118522644043,0.166700899600982666,0.186766028404235840,-0.225978478789329529,0.329544603824615479,-0.159022241830825806,-0.036573324352502823,-0.143074184656143188,0.088199220597743988,0.102479018270969391,-0.056696120649576187,-0.178291618824005127,-0.485745310783386230
-0.674429416656494141,-0.138700485229492188,-0.055760636925697327,-0.410860866308212280,0.158311590552330017,0.076365202665328979,-0.515096127986907959,0.068708732724189758,-0.228487625718116760,-0.175887450575828552,-0.245018243789672852,-0.136710599064826965,-0.270172834396362305,-0.091085918247699738,-0.017435366287827492,0.221727550029754639,0.137439668178558350,-0.055057082325220108,0.073210306465625763,-0.082580849528312683,0.145682200789451599,0.066961884498596191,0.124411523342132568,-0.000402992649469525,-0.016137883067131042,0.275059521198272705,-0.328966736793518066,-0.200573414564132690,-0.171932697296142578,-0.111959822475910187,-0.041685160249471664,0.178354173898696899,0.193135797977447510,-0.018683221191167831,0.054845880717039108,0.026294752955436707,-0.467013329267501831,-0.056565128266811371,0.122583620250225067,0.126046523451805115,0.020269747823476791,0.328544825315475464,0.111179664731025696,-0.374035924673080444,-0.268823385238647461,-0.168617203831672668,0.163977116346359253,0.271044284105300903,0.034355793148279190,0.060870431363582611
-0.069074384868144989,0.038792125880718231,0.030865335837006569,0.122397109866142273,-0.320784181356430054,-0.508455753326416016,0.194548651576042175,-0.297870934009552002,0.055075917392969131,-0.111529551446437836,0.096221514046192169,-0.249009057879447937,0.229600429534912109,0.182178795337677002,0.091878935694694519,-0.013348625972867012,-0.304344356060028076,-0.002961553400382400,-0.600568413734436035,-0.561015963554382324,0.058546137064695358,0.202657341957092285,0.330078125000000000,-0.086061872541904449,0.052724812179803848,0.305162400007247925,0.296551674604415894,0.052325133234262466,0.066338986158370972,0.036557171493768692,0.219509288668632507,-0.582805156707763672,0.140582755208015442,0.132182270288467407,0.487041622400283813,-0.944233894348144531,-0.097298100590705872,0.053574427962303162,-0.083674937486648560,-0.657341063022613525,-0.141910240054130554,-0.194026827812194824,-0.267652571201324463,0.416274219751358032,-0.205988898873329163,-0.320936650037765503,-0.015375062823295593,-0.208703815937042236,-0.089009933173656464,0.130761682987213135
0.344664156436920166,0.138764247298240662,-0.478864103555679321,-0.073478206992149353,0.307228177785873413,-0.009593345224857330,0.268948018550872803,0.277083486318588257,-0.037990875542163849,0.115407533943653107,0.268861651420593262,-0.254492312669754028,0.085657030344009399,0.663407385349273682,-0.244366526603698730,-0.176827222108840942,-0.132790252566337585,0.359573125839233398,0.471451938152313232,0.330496698617935181,-0.199298590421676636,-0.028014158830046654,-0.007168245501816273,-0.137709647417068481,-0.160572767257690430,0.727791786193847656,-0.019187824800610542,0.177101328969001770,-0.004977932199835777,0.092733077704906464,-0.284865140914916992,0.042989183217287064,0.262353986501693726,-0.088993892073631287,0.182381808757781982,-0.216702848672866821,-0.243740871548652649,-0.221040740609169006,0.236923322081565857,0.494668155908584595,0.061137121170759201,0.403845429420471191,-0.063924394547939301,-0.122895240783691406,0.183110028505325317,0.130270779132843018,-0.366091102361679077,-0.076755821704864502,-0.151533290743827820,-0.323379546403884888
0.410563021898269653,-0.160617530345916748,0.060114208608865738,-0.025272157043218613,-0.020740550011396408,-0.134786844253540039,0.435814738273620605,0.159393638372421265,0.067421056330204010,0.370791673660278320,-0.000626542547252029,0.199181616306304932,-0.129581347107887268,-0.102554619312286377,0.160131379961967468,0.217081606388092041,-0.271709769964218140,-0.177335739135742188,-0.036961521953344345,-0.090615071356296539,-0.302880167961120605,0.098760321736335754,-0.850977540016174316,0.304076015949249268,-0.131627038121223450,0.031717848032712936,0.194621205329895020,-0.249193564057350159,-0.156416133046150208,0.196625977754592896,-0.119583427906036377,-0.182856485247612000,0.312243700027465820,-0.150226190686225891,0.161051675677299500,0.205164566636085510,0.016491888090968132,0.032345466315746307,-0.289446383714675903,-0.181967571377754211,0.040197107940912247,-0.071654357016086578,-0.276853650808334351,-0.146464511752128601,-0.311797201633453369,-0.410255253314971924,-0.050018705427646637,-0.354476928710937500,-0.285720974206924438,-0.412413477897644043
0.266207844018936157,0.119576990604400635,0.201045200228691101,0.433496087789535522,-0.028141690418124199,-0.486780583858489990,0.245926752686500549,-0.151856273412704468,0.991854667663574219,-0.660050213336944580,-0.605183899402618408,-0.067276224493980408,0.043523326516151428,0.932277262210845947,-0.423084616661071777,0.200563579797744751,-0.233417034149169922,0.130889579653739929,-0.831201076507568359,-0.317427366971969604,0.352183580398559570,0.565443396568298340,0.614257037639617920,0.266006350517272949,-0.126541152596473694,0.635105431079864502,0.084005057811737061,-0.042496226727962494,-0.058806113898754120,-0.093788191676139832,-0.038819771260023117,-0.790128231048583984,-0.218393862247467041,0.045283861458301544,0.622962772846221924,-0.768416702747344971,0.108232408761978149,-0.255697935819625854,0.272694200277328491,-1.158484816551208496,-0.252059519290924072,0.347598582506179810,-0.557604551315307617,0.150222226977348328,-0.453846663236618042,0.135852769017219543,-0.286290079355239868,-0.047573979943990707,0.011262560263276100,-0.191501393914222717
-0.164261743426322937,-0.034813072532415390,0.079095475375652313,-0.405968576669692993,-0.034622129052877426,-0.273558139801025391,-0.067253984510898590,-0.252167463302612305,-0.010413997806608677,-0.022277507930994034,0.093783535063266754,0.109498009085655212,-0.185183480381965637,0.212097883224487305,0.340038776397705078,-0.087349526584148407,-0.036947652697563171,0.156500399112701416,-0.046435821801424026,0.096367634832859039,0.075750991702079773,-0.292042702436447144,0.001235957024618983,0.211298897862434387,-0.218731835484504700,0.221112042665481567,-0.232638046145439148,-0.266177058219909668,-0.020489001646637917,0.182835042476654053,-0.239700928330421448,0.185520038008689880,0.267532318830490112,0.089043848216533661,0.070028431713581085,0.193702265620231628,-0.120793439447879791,-0.216342777013778687,0.099822223186492920,-0.010000918991863728,0.061585925519466400,0.240842521190643311,-0.176722809672355652,0.179927200078964233,0.633201062679290771,-0.101023390889167786,-0.124855302274227142,0.220891758799552917,-0.275179833173751831,-0.064044907689094543
-0.122945770621299744,0.265563040971755981,-0.373584240674972534,0.298744291067123413,-0.645237922668457031,0.211571708321571350,0.029783885926008224,-0.102707505226135254,0.082735493779182434,0.306584835052490234,-0.066010683774948120,-0.053931858390569687,-0.444610446691513062,-0.154700413346290588,0.315329521894454956,0.301527321338653564,0.229378238320350647,-0.298891723155975342,-0.212302014231681824,-0.446526795625686646,-0.214507997035980225,-0.337365239858627319,0.360823333263397217,-1.079236268997192383,-0.323974341154098511,0.071320004761219025,-0.112958662211894989,-0.139102786779403687,-0.214536741375923157,0.050024710595607758,0.253345668315887451,0.106726430356502533,0.009531570598483086,-0.062899976968765259,-0.416129380464553833,-0.424668997526168823,-0.083590291440486908,0.367984712123870850,-0.178075522184371948,-0.178558617830276489,-0.156084626913070679,-0.321337908506393433,0.398622542619705200,-0.134694442152976990,0.074623838067054749,-0.406460911035537720,0.210185006260871887,-0.001733278622850776,-0.247767269611358643,0.062766365706920624
0.388670235872268677,-0.431636959314346313,0.278060376644134521,0.006641383282840252,0.234135210514068604,0.592454671859741211,-0.119325846433639526,0.179159983992576599,0.329983413219451904,-0.152327179908752441,-0.801240265369415283,-0.080583691596984863,-0.140245765447616577,0.355360865592956543,0.376176506280899048,0.580066800117492676,-0.083783477544784546,-0.096722505986690521,0.545313656330108643,0.294973731040954590,-0.111019544303417206,-0.610942482948303223,0.001239900710061193,-0.109549365937709808,0.245014727115631104,0.140925556421279907,-0.436937838792800903,-0.014991467818617821,0.104283079504966736,-0.129705011844635010,0.325991839170455933,0.487006753683090210,0.381816655397415161,-0.149723321199417114,0.184732854366302490,-0.022035486996173859,0.003829460591077805,0.292975872755050659,-0.176241919398307800,-0.407921075820922852,-0.073226258158683777,0.226153388619422913,-0.154171243309974670,0.545283198356628418,0.155391514301300049,-0.155804112553596497,-0.087082266807556152,0.548645138740539551,-0.155769363045692444,0.103885389864444733
-0.021381869912147522,-0.150001809000968933,-0.262329638004302979,0.039373435080051422,0.122528910636901855,-0.052910234779119492,-0.094250045716762543,-0.143840432167053223,0.172461390495300293,-0.006435817107558250,0.122867897152900696,-0.135000750422477722,-0.163177251815795898,-0.133188143372535706,0.378041505813598633,-0.014439052902162075,-0.189399793744087219,-0.063530229032039642,-0.101647228002548218,0.528183937072753906,0.191014766693115234,-0.296342611312866211,0.111085109412670135,0.375319659709930420,-0.566714286804199219,0.185013130307197571,-0.144637852907180786,0.114095032215118408,-0.098767429590225220,-0.038274783641099930,-0.264978200197219849,0.156757533550262451,-0.117338411509990692,-0.279042929410934448,0.031472992151975632,0.003359364112839103,-0.493769109249114990,-0.138975709676742554,-0.265186280012130737,0.150156512856483459,0.103190220892429352,0.257309883832931519,-0.364564299583435059,-0.141753166913986206,-0.675962388515472412,0.409653693437576294,-0.267820954322814941,-0.219977632164955139,-0.193006142973899841,-0.236714035272598267
-0.266481190919876099,-0.122677765786647797,-0.035320278257131577,-0.067538633942604065,-0.382890909910202026,0.349908381700515747,0.069260306656360626,-0.049188517034053802,-0.128333076834678650,-0.266619801521301270,0.217429637908935547,0.040750883519649506,-0.155585765838623047,-0.035953719168901443,-0.163119092583656311,0.439940959215164185,-0.321229606866836548,0.212130129337310791,0.043660335242748260,-0.149790376424789429,-0.093598321080207825,-0.042513262480497360,0.269326299428939819,-0.132276654243469238,-0.154383674263954163,-0.557654321193695068,-0.077354565262794495,-0.050426177680492401,-0.261607944965362549,-0.208484083414077759,0.277357459068298340,0.146509423851966858,0.208319380879402161,-0.133052840828895569,0.120087526738643646,0.268258631229400635,-0.314301282167434692,0.127646341919898987,-0.011120632290840149,-0.441912680864334106,0.135233178734779358,-0.478422582149505615,0.174271926283836365,0.046661831438541412,0.034522403031587601,0.160259440541267395,0.314080357551574707,0.242389202117919922,0.001866981270723045,-0.054710660129785538
0.024461725726723671,-0.088863722980022430,-0.001407616538926959,0.106254562735557556,0.177089959383010864,-0.441740244626998901,-0.110125392675399780,0.125769823789596558,0.248855262994766235,-0.566958248615264893,-0.389622002840042114,-0.151155009865760803,0.238197192549705505,0.468569338321685791,-0.458056777715682983,-0.435491204261779785,-0.189903303980827332,-0.016619196161627769,-0.151900842785835266,-0.288544833660125732,0.126530200242996216,0.128183066844940186,0.219986468553543091,0.248992875218391418,-0.179292365908622742,0.545548915863037109,0.083441272377967834,-0.031508475542068481,-0.180309250950813293,-0.060629740357398987,0.087665103375911713,-0.258418321609497070,0.172377914190292358,0.105276599526405334,0.115283094346523285,-0.714666724205017090,0.238830566406250000,-0.457741707563400269,0.208747565746307373,-0.327029794454574585,-0.101363711059093475,0.418478637933731079,-0.625857651233673096,0.287243664264678955,-0.914368331432342529,-0.200859740376472473,0.020856715738773346,-0.139754146337509155,-0.052943658083677292,0.012410854920744896
0.111222118139266968,-0.060220997780561447,0.061846468597650528,-0.189527422189712524,-0.105601713061332703,-0.321771383285522461,0.317469567060470581,-0.006962358020246029,0.096873268485069275,0.012801394797861576,-0.204236418008804321,0.017567533999681473,0.294780939817428589,0.003270160872489214,-0.125320360064506531,-0.100056163966655731,0.229736179113388062,-0.289716243743896484,0.071535967290401459,-0.029140757396817207,0.240401640534400940,-0.209051907062530518,-0.295639306306838989,0.032073929905891418,0.153855755925178528,0.048591330647468567,0.305038452148437500,-0.093357168138027191,-0.182660073041915894,-0.048138398677110672,0.109193451702594757,0.005307290703058243,0.207460552453994751,-0.220093339681625366,-0.292863368988037109,-0.120865337550640106,-0.084102861583232880,-0.042278960347175598,0.023690823465585709,0.041201911866664886,-0.106677524745464325,0.125414624810218811,-0.038234889507293701,0.059816688299179077,-0.013199292123317719,-0.357862442731857300,0.394052356481552124,-0.025998799130320549,-0.223944500088691711,-0.587962150573730469
0.112622536718845367,0.000978653086349368,0.105868875980377197,-0.103906534612178802,0.050416890531778336,-0.278138756752014160,0.302908748388290405,0.165958493947982788,0.029810892418026924,0.336102068424224854,0.674809336662292480,-0.086983308196067810,-0.181815445423126221,-0.267007559537887573,0.472564846277236938,0.088452525436878204,-0.281698852777481079,0.027400052174925804,0.016770003363490105,0.273383378982543945,0.170427441596984863,-0.025488518178462982,-0.107891783118247986,0.248808056116104126,-0.063771471381187439,0.066889576613903046,-0.301866710186004639,0.013382338918745518,-0.167009025812149048,0.030659290030598640,0.237853348255157471,0.458117842674255371,-0.056124731898307800,0.180371657013893127,0.138931751251220703,0.313231736421585083,-0.090674355626106262,-0.016339180991053581,-0.207711979746818542,0.203242748975753784,-0.155260205268859863,0.178737908601760864,-0.039619334042072296,-0.096701174974441528,0.836506545543670654,0.278440326452255249,-0.202405124902725220,-0.133509472012519836,-0.231292352080345154,-0.238486632704734802
0.350193232297897339,-0.021539714187383652,0.200953006744384766,0.093408942222595215,-0.056567590683698654,-0.096605367958545685,0.381130516529083252,0.189752236008644104,-0.057496067136526108,0.079849928617477417,0.163616687059402466,-0.184009253978729248,0.173775106668472290,-0.521976649761199951,-0.002765552140772343,-0.343492567539215088,0.037518978118896484,0.050731353461742401,0.068043962121009827,0.115712389349937439,0.102065727114677429,-0.244844645261764526,0.146252810955047607,0.105443879961967468,-0.258900582790374756,-0.130393326282501221,0.123301967978477478,-0.112793780863285065,0.115558288991451263,-0.158889397978782654,-0.278446406126022339,0.305149286985397339,0.298397779464721680,0.283500969409942627,-0.117010638117790222,-0.190563961863517761,0.274111181497573853,0.064139343798160553,-0.018117217347025871,-0.168161228299140930,0.044005949050188065,-0.161015972495079041,-0.131899639964103699,-0.251626431941986084,0.493566274642944336,-0.149037510156631470,0.103438153862953186,0.022662093862891197,-0.254087656736373901,-0.126126557588577271
-0.089390292763710022,0.127523332834243774,-0.373310238122940063,-0.015949182212352753,-0.320416301488876343,0.135047122836112976,0.312862604856491089,0.106108188629150391,0.110148213803768158,0.085947223007678986,-0.015002747066318989,-0.218018189072608948,0.270883828401565552,-0.493128150701522827,-0.099071867763996124,0.314904034137725830,0.204908221960067749,-0.023862374946475029,-0.303177267313003540,0.237537056207656860,-0.120226003229618073,-0.168492436408996582,-0.330947786569595337,0.233285561203956604,0.228918373584747314,-0.099925890564918518,0.313770920038223267,-0.175130262970924377,-0.091015607118606567,-0.050519641488790512,-0.211831301450729370,0.161048412322998047,0.084638223052024841,-0.203074857592582703,-0.168667659163475037,0.214522778987884521,-0.106938511133193970,0.025379071012139320,-0.066534303128719330,-0.581433892250061035,-0.296936064958572388,-0.454420030117034912,0.278492778539657593,0.356847971677780151,0.353965103626251221,0.327447712421417236,-0.175365671515464783,-0.238593950867652893,0.141274675726890564,0.066159255802631378
-0.290236204862594604,0.208673387765884399,0.149657875299453735,0.054907098412513733,0.181694850325584412,0.006816689856350422,0.218195274472236633,-0.244412019848823547,0.059681396931409836,-0.213130012154579163,-0.190881088376045227,-0.137106120586395264,-0.205091401934623718,0.033083751797676086,0.372734248638153076,0.046719834208488464,-0.210423648357391357,0.139141336083412170,0.158075690269470215,0.015331202186644077,0.023327330127358437,-0.261812418699264526,-0.123916760087013245,0.263096362352371216,-0.257507055997848511,0.099406480789184570,-0.221767157316207886,-0.229893803596496582,-0.301056712865829468,-0.035403497517108917,-0.108945079147815704,-0.030818259343504906,-0.210796251893043518,0.025548644363880157,-0.007470408454537392,-0.032977558672428131,0.081195212900638580,-0.344428658485412598,-0.025916306301951408,-0.155097335577011108,-0.160293981432914734,0.165895298123359680,-0.178286045789718628,0.095259830355644226,-0.465301573276519775,-0.195921063423156738,-0.142198443412780762,-0.022723073139786720,0.001244138344191015,-0.015870360657572746
0.031651597470045090,0.012454977259039879,0.155944645404815674,-0.246161162853240967,0.018965875729918480,-0.237479865550994873,-0.167389512062072754,0.083202600479125977,0.248376235365867615,0.249365106225013733,0.324095368385314941,-0.191443800926208496,-0.207293733954429626,0.347733706235885620,0.049670685082674026,-0.397895306348800659,0.034534633159637451,-0.136388123035430908,0.012530610896646976,0.240458145737648010,-0.045613147318363190,0.052856627851724625,-0.365710228681564331,0.257987529039382935,0.219001367688179016,0.056922718882560730,-0.201293170452117920,-0.009932793676853180,-0.162507966160774231,-0.114734165370464325,-0.753523886203765869,-0.023571761325001717,0.170432344079017639,0.404124230146408081,-0.091867148876190186,-0.150559842586517334,0.025101672857999802,-0.162844553589820862,-0.274731308221817017,0.225495964288711548,-0.246280610561370850,0.418866038322448730,-0.498266488313674927,-0.218308806419372559,-0.189966961741447449,0.337578177452087402,-0.145758405327796936,0.020547639578580856,0.139389574527740479,0.217754527926445007
-0.016884339973330498,-0.341928631067276001,-0.976635754108428955,0.077699460089206696,0.089181981980800629,0.256366431713104248,-0.055907029658555984,-0.094188556075096130,0.222770869731903076,0.038216337561607361,-0.478091388940811157,0.186939120292663574,-0.097005240619182587,-0.122818037867546082,0.019293695688247681,0.212977662682533264,0.177163198590278625,-0.353059619665145874,-0.602812349796295166,0.102694883942604065,0.178951725363731384,0.162122681736946106,-1.500480890274047852,0.144680157303810120,0.370636373758316040,0.130045413970947266,-0.122071579098701477,-0.056843530386686325,0.152764320373535156,-0.021608101204037666,0.094661146402359009,0.038587208837270737,-0.192963480949401855,-0.386057168245315552,-0.145775452256202698,0.127692848443984985,0.051942735910415649,0.181972637772560120,0.306174963712692261,-0.674204707145690918,-0.047329034656286240,-0.211291849613189697,0.342118054628372192,-0.259905964136123657,-0.194559872150421143,-0.186107352375984192,0.133369550108909607,0.089016243815422058,-0.228450655937194824,-0.058529134839773178
0.098741307854652405,0.041007269173860550,-0.116674438118934631,-0.166539549827575684,0.266938030719757080,-0.188702777028083801,-0.116211578249931335,0.170519769191741943,0.235715210437774658,-0.787378847599029541,-0.467134773731231689,0.152807295322418213,-0.017290495336055756,0.408327788114547729,-0.220469787716865540,-0.285264432430267334,-0.151600509881973267,-0.025259604677557945,-0.264332443475723267,0.129833802580833435,0.108087986707687378,0.135278612375259399,0.587609410285949707,-0.024716371670365334,-0.020887715741991997,0.585772931575775146,-0.094070494174957275,0.186178550124168396,-0.026331605389714241,0.186828851699829102,-0.326355457305908203,-0.153759196400642395,-0.165761455893516541,0.313751697540283203,0.370870888233184814,-0.363086670637130737,-0.189140990376472473,-0.410374552011489868,-0.197046399116516113,-0.192358195781707764,0.090073958039283752,0.419618576765060425,-0.520303606986999512,0.164065629243850708,-1.152157425880432129,0.084456212818622589,-0.087985172867774963,0.000494949927087873,0.006033215671777725,-0.009268799796700478
0.236708372831344604,-0.354374259710311890,0.310747593641281128,0.007929515093564987,-0.323655635118484497,-0.414378464221954346,0.369759231805801392,-0.161310106515884399,-0.133105918765068054,-0.078014574944972992,-0.072915725409984589,-0.001570728258229792,0.349748790264129639,-0.084934778511524200,-0.543919265270233154,0.014132249169051647,0.280300706624984741,-0.058010675013065338,-0.140372544527053833,-0.073318175971508026,0.257213562726974487,-0.016234200447797775,-0.357622176408767700,-0.173129975795745850,-0.241191551089286804,-0.236911445856094360,0.227922394871711731,-0.164199173450469971,-0.246072128415107727,0.091156594455242157,-0.241211131215095520,-0.107366025447845459,0.181789979338645935,-0.284235745668411255,-0.302680969238281250,-0.395961701869964600,-0.066314250230789185,-0.122391678392887115,0.103391081094741821,0.041568256914615631,-0.227122455835342407,0.102939106523990631,0.044872052967548370,0.218436017632484436,0.085721582174301147,0.136519327759742737,0.005840010941028595,-0.145265340805053711,-0.126900181174278259,-0.016214154660701752
-0.113489411771297455,-0.031683776527643204,-0.278658300638198853,0.096098341047763824,-0.507965564727783203,0.386094301939010620,-0.091318279504776001,0.055362220853567123,-0.196047380566596985,-0.702533304691314697,-0.367170393466949463,-0.174275174736976624,0.190185159444808960,0.032590936869382858,-0.056425083428621292,0.157107755541801453,-0.091630153357982635,-0.109139688313007355,-0.344741106033325195,-0.035197805613279343,0.328525632619857788,0.115859419107437134,0.109889656305313110,-0.298076093196868896,0.209792345762252808,-0.480834037065505981,-0.224624723196029663,0.018099520355463028,0.066769547760486603,0.026068028062582016,0.382472127676010132,0.263492584228515625,-0.286167860031127930,-0.031840577721595764,-0.291630297899246216,0.345272213220596313,0.024075841531157494,0.245180860161781311,-0.142030090093612671,-0.191192910075187683,-0.230256482958793640,-0.427205681800842285,0.128230154514312744,-0.288345128297805786,-0.171995669603347778,-0.060938112437725067,0.033065356314182281,0.132673859596252441,-0.064954273402690887,0.216990515589714050
-0.129661664366722107,0.167548030614852905,-0.077709235250949860,0.079111129045486450,-0.423022747039794922,0.170455694198608398,-0.004787155427038670,-0.067818306386470795,0.008936631493270397,-0.198668375611305237,0.051684785634279251,-0.013812200166285038,-0.326330184936523438,-0.626609623432159424,0.018775742501020432,0.162708476185798645,-0.292580634355545044,-0.124125421047210693,-0.356010586023330688,-0.095692433416843414,-0.418178051710128784,0.166997820138931274,0.163245245814323425,0.294004768133163452,-0.001453500590287149,-0.760625541210174561,-0.210478514432907104,-0.031284060329198837,-0.182220652699470520,0.044175285845994949,0.020388266071677208,0.087269507348537445,0.060851596295833588,0.105886995792388916,0.173504948616027832,0.224459558725357056,-0.136508375406265259,0.366156399250030518,-0.232651233673095703,0.034791428595781326,-0.001068973448127508,-0.589144647121429443,0.402864933013916016,0.156845107674598694,-0.114997602999210358,0.296313911676406860,-0.183805584907531738,-0.112614892423152924,-0.068535186350345612,0.209033608436584473
0.916456878185272217,-0.375859588384628296,0.803181588649749756,-0.569135665893554688,-0.774890959262847900,-0.977508425712585449,1.077740073204040527,-0.589573621749877930,-0.849217176437377930,0.007666073739528656,0.107738249003887177,0.204408109188079834,1.082125782966613770,-0.157224610447883606,-0.172432333230972290,0.113556399941444397,0.866434633731842041,-0.801862239837646484,-0.104525044560432434,-0.234237015247344971,-0.198996782302856445,-0.963942825794219971,-0.712916433811187744,0.723981201648712158,-0.728073775768280029,-0.294165432453155518,1.087977290153503418,-0.010759048163890839,-0.154740676283836365,0.061069499701261520,-0.371190667152404785,-0.184376329183578491,0.771393954753875732,-0.344625353813171387,-0.421527773141860962,-0.349273830652236938,-0.090106830000877380,-0.639081299304962158,-0.273713767528533936,-0.052236370742321014,0.080025538802146912,-0.438468873500823975,-0.514640390872955322,0.639577567577362061,0.350034236907958984,0.285803645849227905,0.417930662631988525,-0.886106193065643311,0.092653729021549225,-0.138728141784667969
0.336199671030044556,-0.150202691555023193,-0.166065543889999390,-0.164699569344520569,0.316843658685684204,0.085806041955947876,0.257263034582138062,0.173326849937438965,-0.088277995586395264,0.258894175291061401,0.120585501194000244,-0.166042119264602661,0.499357104301452637,0.259469598531723022,0.316605031490325928,0.268805354833602905,0.128077372908592224,-0.157017365097999573,0.252342879772186279,-0.067605398595333099,-0.646643042564392090,-0.098139554262161255,0.064797520637512207,-0.106898672878742218,-0.254125952720642090,0.600120663642883301,0.230500563979148865,0.097610630095005035,-0.177626416087150574,-0.247538402676582336,-0.025824554264545441,0.139140009880065918,0.305466145277023315,-0.095414116978645325,-0.049446184188127518,-0.002862655557692051,-0.174497827887535095,-0.192576617002487183,-0.194577679038047791,0.145585432648658752,-0.244275912642478943,0.076332218945026398,-0.128436908125877380,0.410660415887832642,0.248174369335174561,0.304006665945053101,-0.125012263655662537,-0.269356310367584229,-0.144351482391357422,0.220491960644721985
-0.482929289340972900,0.099471911787986755,-0.302456468343734741,-0.070148594677448273,0.036305036395788193,0.185228630900382996,-0.403941929340362549,-0.043049275875091553,-0.113510623574256897,-0.352862328290939331,-0.321097105741500854,-0.053850032389163971,-0.182455927133560181,-0.031524866819381714,-0.033636812120676041,0.069839954376220703,-0.010193919762969017,0.163005590438842773,0.032036513090133667,0.127801388502120972,0.305173337459564209,0.172209858894348145,0.235078081488609314,-0.418847501277923584,0.241113975644111633,0.115831844508647919,-0.308383613824844360,0.131632477045059204,0.140790030360221863,0.182008191943168640,0.214218020439147949,0.168575853109359741,-0.118817105889320374,-0.341430902481079102,0.235018730163574219,-0.099696084856987000,-0.279708087444305420,0.009256144985556602,0.262663871049880981,-0.001895723515190184,-0.191624701023101807,0.245614528656005859,0.175856515765190125,-0.276839077472686768,-0.218485340476036072,0.098810061812400818,0.308380097150802612,0.322696775197982788,-0.040394358336925507,-0.022555574774742126
-0.000530183431692421,-0.040656417608261108,-0.251664936542510986,-0.389771699905395508,0.251131176948547363,-0.308126002550125122,-0.124368906021118164,0.019342901185154915,-0.380373626947402954,-0.117191851139068604,-0.088387407362461090,0.187661603093147278,-0.001987749477848411,0.127434089779853821,0.276217818260192871,0.183477252721786499,0.133113086223602295,0.028579473495483398,-0.025144293904304504,-0.102870710194110870,0.538948416709899902,-0.001921209506690502,0.056163862347602844,0.089722037315368652,0.128286048769950867,-0.032814178615808487,0.129111111164093018,-0.017456701025366783,0.063815906643867493,-0.069167286157608032,-0.026393834501504898,-0.033579811453819275,0.090486600995063782,-0.335451930761337280,-0.132562100887298584,0.133236959576606750,-0.262780159711837769,-0.217379331588745117,0.233359590172767639,0.158811882138252258,-0.077801682054996490,0.390199631452560425,-0.143386468291282654,-0.523803412914276123,-0.181578293442726135,-0.417814016342163086,0.332781374454498291,-0.038221694529056549,0.066949933767318726,-0.262439787387847900
0.066143870353698730,0.226575911045074463,0.210128396749496460,0.444704502820968628,0.363103270530700684,0.110736154019832611,-0.129718542098999023,0.203967243432998657,0.383375257253646851,0.111358322203159332,0.391944110393524170,0.036202110350131989,-0.147017791867256165,-0.355310440063476562,0.056634027510881424,0.054221909493207932,-0.130869776010513306,-0.620567500591278076,-0.021392699331045151,-0.209897652268409729,0.143697679042816162,-0.253628313541412354,0.065046496689319611,-0.088423565030097961,-0.399526774883270264,-0.076873570680618286,-0.308134257793426514,-0.067644476890563965,-0.245554879307746887,-0.230963185429573059,-0.012869959697127342,0.044396612793207169,-0.219802960753440857,0.033749215304851532,0.013306681066751480,-0.152466818690299988,0.514716267585754395,0.093312397599220276,-0.007457870990037918,0.151421248912811279,-0.011142610572278500,-0.099687516689300537,-0.112828433513641357,-0.060014918446540833,-0.071588128805160522,-0.090298719704151154,-0.644522547721862793,0.038550917059183121,0.099553823471069336,0.231249123811721802
-0.279969245195388794,0.051845837384462357,0.039224512875080109,-0.001571810338646173,0.020192274823784828,-0.029253628104925156,0.115594565868377686,0.042867898941040039,0.049289230257272720,0.106252975761890411,0.347550481557846069,-0.212010741233825684,0.080424778163433075,-0.164575964212417603,0.186490982770919800,0.027792984619736671,-0.099198825657367706,-0.043954651802778244,0.048319034278392792,0.072641395032405853,0.059135828167200089,-0.271660238504409790,-0.094221994280815125,0.089569889008998871,-0.268277168273925781,-0.209694057703018188,-0.230246096849441528,-0.059561159461736679,0.019913796335458755,0.127742677927017212,-0.057664003223180771,0.061977092176675797,0.134044155478477478,0.298764735460281372,0.020991044119000435,0.030257783830165863,-0.201596736907958984,-0.068785034120082855,-0.222743198275566101,-0.350865393877029419,0.074209481477737427,-0.273014485836029053,0.071652874350547791,-0.218529626727104187,-0.085867241024971008,-0.487164646387100220,0.105723105370998383,0.198750078678131104,-0.051571805030107498,-0.141738533973693848
-0.202485263347625732,0.225485399365425110,0.015317523851990700,-0.056153479963541031,0.115058735013008118,0.073232501745223999,-0.408606648445129395,-0.171667903661727905,0.008066088892519474,-0.036180473864078522,-0.017696106806397438,0.145303621888160706,-0.167617425322532654,0.211156293749809265,-0.040868025273084641,-0.150854766368865967,-0.372517943382263184,0.226922079920768738,0.297893404960632324,-0.093098692595958710,0.012409695424139500,0.138715088367462158,0.260519921779632568,0.092815011739730835,-0.059584308415651321,0.287220627069473267,-0.060256175696849823,-0.078810200095176697,0.103922963142395020,0.108460918068885803,-0.034785293042659760,-0.023377740755677223,-0.164729446172714233,0.231979101896286011,-0.015739805996417999,-0.036326538771390915,0.120453879237174988,0.048715539276599884,0.114207364618778229,0.352911919355392456,0.049600068479776382,0.212252885103225708,0.088988251984119415,0.057328648865222931,-0.870235979557037354,0.221424892544746399,-0.052468731999397278,0.324294894933700562,-0.005689516197890043,0.303511321544647217
0.410509824752807617,-0.022023800760507584,0.068782314658164978,0.228878930211067200,-0.021154450252652168,0.204291135072708130,0.277595221996307373,0.215880170464515686,-0.267028748989105225,0.169255912303924561,0.210989162325859070,0.074948705732822418,0.211976960301399231,0.216411486268043518,0.171179115772247314,-0.386303424835205078,0.068449802696704865,-0.001137075363658369,0.259683549404144287,0.107343234121799469,0.071411214768886566,-0.124176867306232452,-0.140769720077514648,-0.082670308649539948,-0.223437979817390442,-0.188021689653396606,0.209127068519592285,-0.080152936279773712,-0.163367360830307007,0.102039791643619537,-0.700357675552368164,0.120173767209053040,0.057692483067512512,-0.204213604331016541,0.023493010550737381,0.457423806190490723,0.077641002833843231,-0.602784812450408936,-0.185192584991455078,0.357707560062408447,-0.003257490694522858,0.174600020051002502,-0.477397859096527100,-0.087649613618850708,-0.744894206523895264,-0.141922712326049805,-0.050486173480749130,0.146638318896293640,-0.226270884275436401,-0.009380399249494076
0.419079184532165527,-0.157573863863945007,-0.071004100143909454,-0.135673075914382935,-0.129632547497749329,-0.262142717838287354,0.075938500463962555,-0.260521858930587769,-0.256936967372894287,-0.151995912194252014,0.008601423352956772,-0.244936630129814148,0.439889341592788696,0.058764815330505371,0.022607995197176933,0.225626975297927856,0.215104252099990845,-0.154888346791267395,-0.120717495679855347,-0.534227252006530762,0.234583944082260132,0.049749687314033508,-0.170727714896202087,-0.334875941276550293,0.198195204138755798,-0.140483111143112183,0.206155568361282349,-0.165031895041465759,-0.281559675931930542,0.187726244330406189,0.001937345135957003,-0.113715969026088715,-0.143522650003433228,-0.356401383876800537,0.202713295817375183,-0.228235915303230286,0.014095229096710682,0.008094071410596371,0.224647179245948792,-0.358595550060272217,-0.246920272707939148,-0.246924951672554016,-0.000074407013016753,0.277726471424102783,-0.125681415200233459,-0.061520230025053024,-0.029338950291275978,-0.073739588260650635,-0.186109334230422974,-0.011169657111167908
-0.028082204982638359,0.178487509489059448,0.268579840660095215,0.274875700473785400,-0.235409170389175415,0.060599468648433685,-0.140627101063728333,0.067654676735401154,-0.208005651831626892,0.013086145743727684,-0.016452264040708542,0.172391697764396667,-0.005693373735994101,-0.247769102454185486,0.184719100594520569,-0.140473768115043640,0.049273248761892319,-0.079778172075748444,-0.352769404649734497,0.260518074035644531,-0.331830263137817383,0.117273777723312378,-0.051521178334951401,0.253188133239746094,0.191644474864006042,-0.199874415993690491,0.284855633974075317,-0.090420082211494446,0.223625108599662781,-0.098041996359825134,0.100769832730293274,-0.053133651614189148,0.035812065005302429,0.191071599721908569,0.126876473426818848,0.214460477232933044,0.328893452882766724,0.026009172201156616,-0.145767882466316223,-0.027175478637218475,-0.245035544037818909,-0.270274937152862549,0.120679438114166260,0.195991739630699158,0.263432562351226807,0.160419523715972900,-0.259794145822525024,-0.108276069164276123,-0.020409490913152695,0.100224971771240234
0.218951955437660217,-0.009260348044335842,0.131897866725921631,0.316701710224151611,-0.207670867443084717,-0.096432901918888092,0.097099587321281433,0.172430768609046936,0.073656558990478516,-0.052551545202732086,0.069987446069717407,0.047234460711479187,0.129485607147216797,-0.612941086292266846,-0.054114814847707748,0.477115809917449951,-0.165103793144226074,0.140675097703933716,0.018026601523160934,-0.271904855966567993,-0.071997798979282379,0.172094687819480896,0.097487106919288635,-0.367029249668121338,0.026892207562923431,-0.339968025684356689,0.105400219559669495,0.186195671558380127,-0.087421566247940063,0.062987841665744781,0.312997877597808838,0.010873424820601940,0.040195111185312271,0.264677464962005615,0.338457852602005005,0.219654604792594910,0.152540221810340881,0.447773367166519165,-0.064492359757423401,-0.134290248155593872,-0.304786741733551025,-0.414500415325164795,0.029951721429824829,0.259993284940719604,0.334781765937805176,-0.118813246488571167,-0.251220315694808960,0.067248694598674774,0.006204073783010244,0.228324949741363525
-0.322293937206268311,0.389215737581253052,0.398186922073364258,0.042080666869878769,0.249554693698883057,-0.088309645652770996,0.387951225042343140,0.052204746752977371,0.167896419763565063,0.105419188737869263,0.321688592433929443,0.043108042329549789,-0.275609076023101807,-0.209293320775032043,0.390059262514114380,0.041704040020704269,-0.100646093487739563,-0.212316423654556274,0.211095154285430908,0.196397885680198669,-0.020082121714949608,-0.288592964410781860,0.142629668116569519,0.112636022269725800,-0.401713579893112183,-0.229046344757080078,-0.038505379110574722,0.022607263177633286,-0.279760301113128662,-0.124804399907588959,-0.225136622786521912,-0.183891087770462036,-0.058273434638977051,0.130262061953544617,0.051091190427541733,0.288097918033599854,0.177985832095146179,0.077564403414726257,-0.279167205095291138,0.060179870575666428,-0.015479010529816151,-0.299095243215560913,-0.093434281647205353,0.424078047275543213,0.165844470262527466,0.309822142124176025,-0.745132148265838623,-0.100315533578395844,0.040383093059062958,-0.316049367189407349
-0.077245064079761505,0.270996421575546265,-0.088561676442623138,-0.045165553689002991,0.062891624867916107,-0.407503992319107056,0.122821845114231110,-0.215177237987518311,-0.514039993286132812,-0.037976220250129700,0.090196296572685242,-0.223339363932609558,0.093342967331409454,0.435364782810211182,-0.408106595277786255,-0.190883532166481018,0.297113001346588135,0.239395201206207275,0.219555214047431946,-0.152652338147163391,0.102523118257522583,0.247288674116134644,-0.245918288826942444,0.091729693114757538,0.268237918615341187,0.288388431072235107,0.227118775248527527,0.156922817230224609,-0.167010530829429626,-0.077905595302581787,-0.093302205204963684,-0.250849574804306030,0.055645171552896500,-0.312471032142639160,-0.255451261997222900,-0.223918557167053223,-0.037925612181425095,-0.176905408501625061,0.322211563587188721,0.276910096406936646,0.083610996603965759,0.248543724417686462,-0.349504202604293823,-0.182687640190124512,-0.080261059105396271,-0.011835786513984203,0.262289315462112427,-0.172572270035743713,-0.179869428277015686,-0.489211887121200562
-0.124419033527374268,-0.078309282660484314,0.144776299595832825,-0.001952291815541685,0.306194484233856201,-0.269190430641174316,-0.255102843046188354,0.046147048473358154,-1.065032362937927246,0.019020274281501770,0.112281657755374908,0.059125415980815887,0.256838530302047729,0.351398438215255737,-0.268265992403030396,0.241148203611373901,0.283818989992141724,-0.165594339370727539,0.436456441879272461,-0.222657993435859680,0.266668796539306641,0.354016482830047607,0.319488853216171265,-0.146550282835960388,-0.042790751904249191,0.155056431889533997,-0.084582947194576263,0.042976245284080505,-0.083898104727268219,-0.254426926374435425,0.155110150575637817,0.065616682171821594,-0.120530933141708374,-0.268754929304122925,0.175156012177467346,-0.322172164916992188,0.002963172271847725,-0.245566368103027344,0.346342474222183228,0.313238531351089478,0.048240855336189270,0.263623774051666260,-0.276270419359207153,0.173813909292221069,-0.375862836837768555,-0.073128297924995422,-0.006030192598700523,0.102438949048519135,0.172740042209625244,-0.023707782849669456
0.623205065727233887,-0.463485300540924072,0.368481516838073730,-0.062333893030881882,0.100083775818347931,-0.609809577465057373,0.410985797643661499,0.109431982040405273,-0.235278248786926270,-0.050596483051776886,-0.043598823249340057,0.111373141407966614,0.439688950777053833,-0.397738784551620483,-0.097619898617267609,0.276291638612747192,0.531719088554382324,-0.602315843105316162,0.212881922721862793,-0.036786988377571106,0.008641256019473076,-0.469638437032699585,-0.438874810934066772,0.339405238628387451,-0.406512022018432617,-0.361554950475692749,0.334935277700424194,-0.189911812543869019,-0.074795968830585480,0.064159289002418518,0.027019884437322617,-0.326154351234436035,0.094106011092662811,-0.035740841180086136,-0.317527472972869873,-0.296313464641571045,-0.039946213364601135,-0.201730683445930481,-0.196399256587028503,-0.071353800594806671,-0.103027977049350739,0.035641107708215714,-0.452595204114913940,0.313194990158081055,0.270837575197219849,0.305177360773086548,0.340599477291107178,-0.376542091369628906,0.033229395747184753,-0.361131399869918823
-0.071068599820137024,0.047425575554370880,0.080140866339206696,0.234127432107925415,-0.166487470269203186,0.224576815962791443,-0.329331636428833008,-0.086676001548767090,-0.427656948566436768,-0.150876045227050781,0.056797705590724945,-0.207237735390663147,0.190144121646881104,-0.076265893876552582,0.033938549458980560,0.063046626746654510,-0.174736544489860535,0.037273723632097244,-0.003837103955447674,0.210635289549827576,-0.302699208259582520,-0.071363106369972229,-0.109442360699176788,0.121884278953075409,-0.002968237502500415,-0.305857151746749878,-0.319310843944549561,-0.005530087277293205,-0.117148011922836304,-0.062647692859172821,0.182452157139778137,-0.135511398315429688,-0.108386270701885223,0.179903924465179443,-0.249320298433303833,-0.025032386183738708,-0.187204807996749878,0.301947742700576782,0.025920074433088303,0.012933640740811825,0.133703410625457764,-0.413693517446517944,-0.040052428841590881,-0.147113755345344543,-0.140293851494789124,0.004554684739559889,-0.057273223996162415,-0.076234370470046997,0.084625199437141418,-0.062846638262271881
0.270656436681747437,-0.210909470915794373,-0.245529219508171082,-0.219724610447883606,-0.148634463548660278,0.065141625702381134,-0.073822639882564545,0.293237507343292236,-0.486212074756622314,-0.078165002167224884,-0.288664340972900391,-0.047088921070098877,-0.089821547269821167,-0.184666857123374939,0.017458645626902580,0.147722482681274414,-0.074197858572006226,0.092115141451358795,0.028484318405389786,-0.248929187655448914,0.315745651721954346,-0.012716159224510193,-0.197579443454742432,-0.645114839076995850,0.276299774646759033,0.022685054689645767,0.226165935397148132,0.038710851222276688,-0.116604484617710114,0.091796629130840302,0.094039082527160645,-0.007264520972967148,0.210280045866966248,0.195762649178504944,0.125663518905639648,-0.073189809918403625,-0.634472072124481201,0.136991083621978760,0.145253702998161316,-0.180277153849601746,-0.099694818258285522,-0.244904816150665283,0.254911869764328003,0.012521858327090740,0.211781814694404602,-0.244635030627250671,0.404024064540863037,-0.225814253091812134,-0.280118852853775024,-0.118776947259902954
0.476478874683380127,-0.267412096261978149,-0.159079059958457947,-0.541407227516174316,-0.176812261343002319,-0.372382134199142456,0.199291259050369263,-0.319052398204803467,-0.460611045360565186,0.038784001022577286,-0.337790250778198242,-0.203635960817337036,0.348959147930145264,-0.172904893755912781,0.059159114956855774,0.180957838892936707,0.074434153735637665,-0.248645827174186707,-0.191229268908500671,-0.246277093887329102,0.486777156591415405,-0.063045457005500793,-0.533519208431243896,-0.403447508811950684,-0.259762942790985107,0.124997437000274658,0.125384837388992310,0.184694528579711914,-0.242475569248199463,-0.260896027088165283,0.081165730953216553,0.151127979159355164,-0.045383755117654800,-0.055262081325054169,-0.207761511206626892,-0.090636983513832092,-0.326825112104415894,-0.140717491507530212,0.113077171146869659,-0.075557529926300049,-0.014228165149688721,0.133228570222854614,0.093697533011436462,-0.146321460604667664,0.131430625915527344,-0.203534081578254700,0.367460697889328003,-0.256001561880111694,0.106082081794738770,-0.185283362865447998
-0.129043832421302795,-0.145342543721199036,0.002826325595378876,0.110811315476894379,0.257882565259933472,-0.343477278947830200,-0.322221875190734863,0.245090842247009277,-1.123302698135375977,0.043738849461078644,0.000835316081065685,-0.242954194545745850,0.021336546167731285,-0.166272893548011780,-0.447953104972839355,-0.081630200147628784,-0.312980324029922485,0.216302663087844849,0.268533796072006226,-0.050988443195819855,0.174568891525268555,-0.127453118562698364,0.263083398342132568,-0.758845269680023193,-0.082417212426662445,-0.290972650051116943,0.207366779446601868,-0.196769624948501587,-0.264873653650283813,0.166924118995666504,0.215226739645004272,0.183482989668846130,0.225532144308090210,0.082678221166133881,0.296484500169754028,-0.069245800375938416,0.055807977914810181,0.082256600260734558,0.064674928784370422,-0.196248054504394531,0.077509671449661255,-0.204170271754264832,-0.293870747089385986,-0.096781760454177856,-0.414454281330108643,-0.114333838224411011,0.043798983097076416,-0.128636479377746582,0.121259465813636780,0.168943494558334351
0.273960530757904053,0.079715974628925323,-0.000522811547853053,0.044759124517440796,-0.459707528352737427,0.011660346761345863,0.045545060187578201,-0.328539758920669556,0.087936110794544220,-0.525550723075866699,-0.098064526915550232,-0.233685865998268127,0.324454724788665771,-0.127265781164169312,-0.218719124794006348,0.329611182212829590,0.236667186021804810,0.280385643243789673,-0.541767776012420654,-0.215490624308586121,0.168343991041183472,-0.068358495831489563,0.022649355232715607,-0.526342988014221191,-0.106320478022098541,-0.363115400075912476,0.058165729045867920,-0.166174098849296570,-0.063424870371818542,-0.028546385467052460,0.118134468793869019,-0.291762769222259521,-0.240833669900894165,-0.122473463416099548,-0.016556074842810631,-0.217258900403976440,0.186294600367546082,0.041422698646783829,-0.090169683098793030,-0.609083175659179688,-0.008767601102590561,-0.374238461256027222,0.065194807946681976,-0.068940758705139160,0.028780497610569000,-0.165314957499504089,0.294516146183013916,0.136692032217979431,-0.103034995496273041,0.165782347321510315
0.254082381725311279,-0.272039949893951416,-0.652541279792785645,-0.771574735641479492,-0.105588167905807495,-0.335129350423812866,-0.159451648592948914,-0.292333155870437622,-0.290603220462799072,-0.272998005151748657,-0.582876265048980713,-0.068310923874378204,0.055952705442905426,0.092005364596843719,-0.205409914255142212,0.314573347568511963,0.053448144346475601,0.005058239679783583,0.203421100974082947,-0.365356445312500000,0.987934291362762451,-0.123181737959384918,-0.143654286861419678,-0.607157588005065918,0.057537015527486801,0.312271595001220703,-0.198985934257507324,-0.249259203672409058,-0.245117023587226868,-0.073883093893527985,0.237915158271789551,-0.265087544918060303,0.044262144714593887,-0.419710159301757812,-0.310374736785888672,0.198871925473213196,-1.029333353042602539,0.154813125729560852,0.377041727304458618,-0.026045130565762520,0.092833258211612701,-0.115682661533355713,0.181725606322288513,-0.450061917304992676,-0.086055517196655273,-0.706645548343658447,0.696531116962432861,-0.292489379644393921,-0.018713390454649925,0.056918673217296600
-0.041856929659843445,0.058544132858514786,0.000781949085649103,-0.229439035058021545,0.020076850429177284,-0.403480172157287598,0.211477905511856079,-0.070911243557929993,-0.054603606462478638,0.361632347106933594,0.348281413316726685,-0.052525687962770462,0.246529296040534973,-0.263903707265853882,0.237119704484939575,0.227171018719673157,-0.058837682008743286,0.066708244383335114,0.001135537982918322,0.057644501328468323,0.055418994277715683,0.244054719805717468,-0.319551020860671997,-0.111244164407253265,-0.220486551523208618,-0.086236424744129181,0.210412383079528809,0.164875701069831848,-0.018640413880348206,-0.154926359653472900,0.090706780552864075,0.067259669303894043,0.394128471612930298,0.242157891392707825,-0.057024288922548294,0.303563207387924194,-0.029067073017358780,0.086381793022155762,-0.029962807893753052,0.234488636255264282,-0.275633513927459717,0.018954407423734665,-0.266043603420257568,-0.496134817600250244,-0.322066783905029297,-0.895957112312316895,0.681793689727783203,0.032229371368885040,0.152444899082183838,-0.040491260588169098
0.220654353499412537,0.217564299702644348,-0.199746310710906982,-0.337187737226486206,0.132672399282455444,-0.338830530643463135,-0.008308258838951588,0.124721720814704895,0.498986661434173584,0.125932931900024414,0.174836739897727966,-0.111926719546318054,0.033656753599643707,0.175805687904357910,0.014084956608712673,-0.178483948111534119,-0.305905014276504517,-0.077630281448364258,0.191796973347663879,0.234811574220657349,0.016924586147069931,-0.616907536983489990,0.046221598982810974,0.108977623283863068,0.040403783321380615,-0.170046195387840271,-0.519219934940338135,-0.259531646966934204,-0.155517652630805969,-0.238286539912223816,-0.186452046036720276,0.084293082356452942,-0.018955646082758904,0.638141930103302002,0.097308143973350525,-0.353544503450393677,0.145108997821807861,0.190008968114852905,-0.479229837656021118,-1.045352101325988770,0.122471742331981659,-0.248507052659988403,0.094923950731754303,0.471213132143020630,-0.239207699894905090,0.234671264886856079,-0.701436877250671387,-0.039985597133636475,-0.177507296204566956,-0.214403167366981506
0.328000009059906006,-0.232285201549530029,0.171062052249908447,0.220690235495567322,-0.244724139571189880,-0.255077272653579712,0.237833574414253235,-0.141863778233528137,0.108386196196079254,0.201175034046173096,0.064027331769466400,0.027609193697571754,0.120480477809906006,-0.381790220737457275,0.196885272860527039,-0.371260195970535278,0.308171480894088745,0.057858161628246307,0.129520148038864136,-0.063699409365653992,-0.038417980074882507,0.061859741806983948,-0.666472077369689941,0.301303356885910034,0.129886597394943237,-0.001279666903428733,0.321270763874053955,-0.164090365171432495,0.139173388481140137,-0.099606648087501526,-0.353009670972824097,-0.083231799304485321,0.000220634145080112,-0.005803526844829321,0.040068428963422775,0.038668971508741379,-0.004910336341708899,-0.581102967262268066,-0.228140205144882202,-0.009020563215017319,-0.065397329628467560,0.144613862037658691,-0.275412470102310181,0.046334315091371536,-0.361088901758193970,0.133355066180229187,0.099014423787593842,0.038326345384120941,-0.138072550296783447,-0.000256076542427763
0.210782855749130249,-0.490293800830841064,-0.898875832557678223,0.216092318296432495,-1.208151817321777344,0.012480225414037704,0.664802610874176025,-0.806128799915313721,0.010416880249977112,0.495540052652359009,-0.293069630861282349,-0.053491573780775070,-0.312444686889648438,0.207050397992134094,0.830198764801025391,0.782467484474182129,-0.174925237894058228,-0.220094785094261169,-1.822214603424072266,-2.110821485519409180,0.091962568461894989,0.062992855906486511,0.683620810508728027,-0.520779848098754883,0.083848185837268829,0.262353330850601196,-0.075281374156475067,-0.247398868203163147,-0.085454396903514862,-0.219832107424736023,0.480996578931808472,-0.194189354777336121,-0.199023872613906860,-0.009795624762773514,0.482024252414703369,-0.584147691726684570,0.481346249580383301,0.320216983556747437,-0.193677380681037903,0.006806381512433290,-0.240229517221450806,-0.303914546966552734,0.399445474147796631,-0.064158536493778229,-0.958790421485900879,-1.159772276878356934,-0.018497187644243240,0.218437343835830688,0.054195690900087357,0.126795440912246704
