-0.079010978341102600,0.044743470847606659,0.081300280988216400,-0.029519960284233093,-0.000717520713806152,0.025994330644607544,-0.061443794518709183,0.037349976599216461,-0.033188853412866592,-0.009500503540039062,-0.025660369545221329,-0.028013445436954498,0.061877496540546417,0.076869674026966095,-0.067596107721328735,0.069151200354099274,0.046909622848033905,-0.029997728765010834,0.015917181968688965,0.032003425061702728,0.023352056741714478,0.081748999655246735,0.063052691519260406,-0.005597293376922607,-0.024473845958709717,0.004871584475040436,-0.004882857203483582,0.013409107923507690,0.082629434764385223,0.043017916381359100,-0.070667043328285217,-0.044902410358190536,0.065280340611934662,-0.052569650113582611,0.072022400796413422,-0.042453382164239883,0.021294102072715759,0.080805115401744843,-0.052378576248884201,0.052389703691005707,0.048474900424480438,0.037170261144638062,0.082985006272792816,-0.002746447920799255,-0.019164785742759705,-0.000796712934970856,-0.074426010251045227,-0.015543997287750244,0.075149007141590118,-0.027573078870773315,-0.016821682453155518,-0.020389661192893982,-0.035786710679531097,-0.037827804684638977,-0.072084844112396240,0.037771806120872498,-0.082200363278388977,-0.001154325902462006,-0.036364171653985977,0.030280224978923798,-0.003645285964012146,0.017528779804706573,0.027955800294876099,0.042341656982898712,0.010063201189041138,0.079371400177478790,-0.007977083325386047,-0.022824518382549286,0.056684009730815887,-0.077638745307922363,-0.079128026962280273,-0.027454268187284470,-0.077306427061557770,-0.025833673775196075,0.027638718485832214,-0.064169287681579590,0.048951439559459686,-0.025317460298538208,0.001817762851715088,-0.077156528830528259,0.021397471427917480,-0.075206257402896881,0.002400882542133331,0.057908229529857635,-0.032030928879976273,-0.022087525576353073,-0.013477914035320282
-0.065527625381946564,-0.080313064157962799,0.025648750364780426,0.073091410100460052,-0.052553404122591019,0.013131141662597656,0.021579049527645111,-0.050424549728631973,-0.036645341664552689,0.004518203437328339,0.045852519571781158,0.017586164176464081,0.069757588207721710,-0.057673923671245575,0.001533627510070801,0.081933088600635529,0.057932533323764801,-0.043018829077482224,0.036221303045749664,-0.060441303998231888,-0.011395595967769623,0.000692881643772125,-0.012046217918395996,0.039178051054477692,-0.080507129430770874,0.019357725977897644,0.017836168408393860,-0.044186867773532867,-0.015135869383811951,-0.041199855506420135,-0.043129861354827881,-0.009161546826362610,0.032495215535163879,-0.011169239878654480,0.030135452747344971,0.013024285435676575,0.077373601496219635,0.071222491562366486,-0.038664806634187698,0.023275375366210938,0.005605094134807587,0.000567942857742310,0.059725441038608551,-0.037649828940629959,-0.023664668202400208,-0.057725172489881516,-0.068148910999298096,-0.040071155875921249,0.068700589239597321,-0.022040214389562607,0.047411255538463593,-0.050742603838443756,-0.028828226029872894,-0.078427903354167938,0.063850633800029755,0.070440508425235748,0.035177730023860931,-0.057458270341157913,-0.039307370781898499,-0.043191004544496536,-0.063077867031097412,0.057723455131053925,-0.074660003185272217,-0.047287780791521072,-0.057492204010486603,0.038454338908195496,-0.036378178745508194,-0.011506982147693634,0.055794127285480499,0.074356772005558014,0.013210095465183258,0.053438432514667511,0.078753612935543060,0.069723106920719147,0.006006121635437012,0.032788060605525970,-0.075331658124923706,-0.073939837515354156,-0.046845987439155579,0.046811677515506744,-0.015185832977294922,0.028358772397041321,-0.072704933583736420,-0.037972852587699890,-0.065208978950977325,0.026755906641483307,0.052201889455318451
-0.045655507594347000,-0.005817204713821411,-0.032509267330169678,0.037668116390705109,0.048571892082691193,-0.056466720998287201,0.066681079566478729,0.078585155308246613,0.080585367977619171,0.005988590419292450,0.060464121401309967,0.073477424681186676,0.003702335059642792,0.028101287782192230,-0.050534512847661972,0.005942463874816895,-0.047587592154741287,0.017717517912387848,-0.019425339996814728,-0.032345637679100037,0.067893214523792267,-0.030163355171680450,-0.009200550615787506,0.078075863420963287,-0.078479193150997162,0.027590550482273102,-0.058522757142782211,0.033413156867027283,-0.006995290517807007,-0.031058888882398605,0.062276341021060944,0.022483371198177338,0.014762699604034424,0.041820771992206573,-0.028490222990512848,-0.043742425739765167,0.000608801841735840,-0.012699641287326813,-0.047366101294755936,0.056454353034496307,-0.001160852611064911,-0.060684680938720703,-0.059375412762165070,0.038908101618289948,-0.068266473710536957,0.082097612321376801,0.027603060007095337,0.035491488873958588,0.076326750218868256,-0.031477391719818115,0.054371677339076996,0.027050234377384186,-0.012027613818645477,-0.002071432769298553,0.001938611268997192,-0.037012215703725815,-0.027980834245681763,0.041612043976783752,-0.015381932258605957,0.003718361258506775,-0.074615523219108582,-0.033709045499563217,-0.054952569305896759,0.010731801390647888,0.052809379994869232,0.026450969278812408,-0.063676618039608002,-0.064980164170265198,-0.059932686388492584,0.056191094219684601,0.013012848794460297,0.011174425482749939,0.045165903866291046,-0.022231210023164749,0.017141580581665039,-0.053874507546424866,0.074254982173442841,0.047885917127132416,0.072837181389331818,-0.000326484441757202,0.047539211809635162,-0.073558397591114044,0.008494704961776733,-0.046979121863842010,0.028307080268859863,-0.068191356956958771,0.018138967454433441
-0.049527626484632492,-0.063463434576988220,0.077141396701335907,-0.050577748566865921,-0.018797241151332855,-0.068536996841430664,0.000981278717517853,0.064470954239368439,0.004239588975906372,-0.072746567428112030,0.042270965874195099,-0.038195036351680756,-0.080960631370544434,0.013635568320751190,-0.026880152523517609,-0.020514108240604401,0.062080718576908112,-0.035637330263853073,0.056042723357677460,0.005672350525856018,-0.008657045662403107,-0.071056358516216278,-0.074795931577682495,0.047814778983592987,0.012088760733604431,0.005602478981018066,-0.072558283805847168,-0.013704486191272736,-0.078853093087673187,0.050036959350109100,0.008439555764198303,0.033246360719203949,0.023436367511749268,0.020586475729942322,0.071987546980381012,-0.069970376789569855,-0.036014493554830551,-0.066399656236171722,0.010763861238956451,-0.010014481842517853,-0.019938804209232330,0.037879593670368195,-0.052122458815574646,0.038807973265647888,0.044566579163074493,0.076869018375873566,-0.021994363516569138,0.046717993915081024,0.027673050761222839,0.033655025064945221,0.065620355308055878,-0.058584988117218018,-0.028335221111774445,0.039058834314346313,0.036308385431766510,0.031316846609115601,0.007800750434398651,0.039666429162025452,-0.063798554241657257,0.036750815808773041,0.010334968566894531,-0.071708239614963531,0.022382609546184540,0.076429583132266998,-0.030370656400918961,-0.027958355844020844,-0.015910856425762177,-0.061490714550018311,0.034192159771919250,0.062305547297000885,0.049480162560939789,0.028051197528839111,-0.044742025434970856,-0.059891387820243835,0.057948939502239227,-0.073116093873977661,-0.008957490324974060,-0.068893603980541229,0.025396712124347687,0.038251884281635284,0.019842870533466339,0.073909990489482880,0.080146886408329010,-0.075889348983764648,0.040914587676525116,0.077753402292728424,-0.080728299915790558
0.046694613993167877,0.082166291773319244,0.077126510441303253,0.082967393100261688,-0.018597379326820374,-0.049891531467437744,0.063405789434909821,0.012418948113918304,0.041701488196849823,-0.082515649497509003,-0.052065327763557434,0.076829172670841217,0.060231365263462067,-0.003153011202812195,0.009518906474113464,-0.028067823499441147,-0.019360788166522980,0.077898956835269928,0.013775646686553955,0.052655614912509918,-0.024057719856500626,0.044369347393512726,-0.001072421669960022,-0.012851141393184662,0.058729372918605804,-0.069899357855319977,-0.061147071421146393,0.061544828116893768,-0.028069365769624710,-0.044453475624322891,0.021776869893074036,0.031269259750843048,-0.013978317379951477,-0.006500095129013062,-0.000984326004981995,-0.058899048715829849,0.024691082537174225,-0.079606033861637115,-0.072200924158096313,0.037452444434165955,0.057947419583797455,-0.051067586988210678,0.036226779222488403,-0.011304944753646851,-0.080745138227939606,0.005464576184749603,-0.081262186169624329,0.068867169320583344,0.015692807734012604,0.073319606482982635,-0.072271727025508881,-0.063660748302936554,0.045222975313663483,-0.052480880171060562,0.028675399720668793,0.042099110782146454,0.022511765360832214,0.072105266153812408,0.021973565220832825,-0.037422049790620804,0.019083499908447266,-0.001806765794754028,-0.028991043567657471,-0.036918200552463531,0.063905186951160431,-0.071852333843708038,0.031200595200061798,-0.078507095575332642,-0.067531399428844452,-0.036997672170400620,0.052601136267185211,0.060643918812274933,-0.006055332720279694,0.073367305099964142,0.071603320538997650,0.024056673049926758,-0.027598682790994644,0.016178071498870850,0.023533158004283905,-0.080362513661384583,-0.078702107071876526,0.011895470321178436,0.022958561778068542,0.052456803619861603,0.080894403159618378,-0.032241135835647583,0.031577222049236298
-0.057486824691295624,0.007647000253200531,0.000885538756847382,0.057946242392063141,0.066106550395488739,-0.021093782037496567,0.082651861011981964,0.018693134188652039,-0.009309999644756317,0.067008279263973236,0.015791371464729309,-0.037705674767494202,-0.017391763627529144,0.031249493360519409,-0.018776580691337585,-0.064163587987422943,-0.012940011918544769,-0.059079121798276901,-0.076971068978309631,-0.070591256022453308,0.064483486115932465,0.018964633345603943,0.017006762325763702,-0.052954927086830139,0.041455931961536407,-0.056822456419467926,-0.041764788329601288,-0.074565283954143524,0.001087814569473267,0.007488906383514404,-0.072637021541595459,0.029366441071033478,-0.046590223908424377,0.029755458235740662,0.035331539809703827,-0.072138629853725433,-0.046995252370834351,-0.066781766712665558,0.071699060499668121,-0.029231566935777664,-0.074854999780654907,-0.055904321372509003,-0.070859208703041077,0.059170983731746674,0.081666179001331329,0.059883750975131989,0.007569685578346252,0.024831160902976990,-0.049296975135803223,-0.069081909954547882,0.055892743170261383,-0.041565068066120148,-0.078674681484699249,-0.063025191426277161,-0.043617639690637589,-0.037520434707403183,-0.010651126503944397,0.017580524086952209,0.018124267458915710,0.028611838817596436,0.013700842857360840,-0.061872564256191254,0.011233471333980560,0.051571004092693329,0.019351229071617126,-0.062100172042846680,0.061387933790683746,-0.005021713674068451,-0.044349584728479385,0.023661300539970398,0.047290645539760590,0.077510483562946320,-0.077878899872303009,0.063044898211956024,0.044620446860790253,-0.001691140234470367,0.041795738041400909,0.013130590319633484,0.058739148080348969,-0.008296586573123932,-0.045727420598268509,-0.041495472192764282,-0.010856389999389648,0.061253093183040619,-0.068852759897708893,-0.046165015548467636,0.062066860496997833
0.030478030443191528,-0.040179278701543808,0.029752634465694427,-0.076537907123565674,-0.014200679957866669,0.080044798552989960,0.016871631145477295,0.047059006989002228,-0.019095867872238159,-0.024639256298542023,0.078292347490787506,0.050201259553432465,-0.006676346063613892,-0.020280681550502777,-0.078472584486007690,-0.005023889243602753,-0.056288152933120728,0.026614315807819366,0.039445631206035614,0.039872877299785614,-0.075429454445838928,0.062623612582683563,-0.078490234911441803,-0.043864835053682327,0.015809081494808197,0.019948221743106842,-0.069741293787956238,0.061046935617923737,-0.012368641793727875,0.018087990581989288,-0.036967474967241287,0.060437925159931183,-0.072213962674140930,0.056284137070178986,-0.065113574266433716,-0.060123503208160400,0.050540573894977570,-0.012091353535652161,-0.074320994317531586,-0.054092414677143097,0.000685267150402069,-0.053872227668762207,0.065945200622081757,0.078940935432910919,0.054405488073825836,0.062884278595447540,-0.063574567437171936,-0.067419126629829407,-0.016023963689804077,-0.081276156008243561,-0.070117957890033722,0.032419405877590179,0.042845048010349274,-0.037213776260614395,0.047568239271640778,-0.009316310286521912,0.067243643105030060,-0.006425790488719940,-0.016805164515972137,-0.070889934897422791,0.010417565703392029,0.081487379968166351,0.018601439893245697,0.070469476282596588,-0.017589189112186432,-0.024328958243131638,0.072618342936038971,0.080013252794742584,-0.058591581881046295,0.074124477803707123,-0.001351453363895416,0.054062388837337494,-0.012065544724464417,-0.037301559001207352,0.002056948840618134,-0.024548407644033432,0.080923922359943390,-0.073807410895824432,0.057030074298381805,0.030304461717605591,0.037453711032867432,-0.054963193833827972,-0.058516107499599457,-0.072870202362537384,-0.064264290034770966,0.058236800134181976,-0.075108028948307037
-0.054096568375825882,-0.041110038757324219,-0.035672355443239212,0.067713044583797455,0.069033361971378326,-0.027990609407424927,-0.021169137209653854,0.079200096428394318,-0.016948133707046509,0.020071007311344147,0.079040981829166412,0.032637238502502441,0.005199730396270752,-0.004493229091167450,0.000456809997558594,-0.029616508632898331,-0.026677086949348450,-0.042944781482219696,-0.046214349567890167,0.078528262674808502,-0.042419642210006714,-0.050904728472232819,-0.042678292840719223,0.035828046500682831,-0.054809398949146271,-0.045424938201904297,-0.003226980566978455,-0.031156051903963089,0.047503851354122162,-0.020537178963422775,0.063336215913295746,0.038324691355228424,-0.034665767103433609,0.033416084945201874,-0.046688970178365707,0.053090177476406097,0.045313470065593719,0.045738048851490021,0.051155798137187958,-0.006860829889774323,-0.018080353736877441,0.047772429883480072,-0.081674531102180481,-0.079018734395503998,0.057888589799404144,-0.078721381723880768,0.066880889236927032,-0.081832624971866608,-0.036938682198524475,0.010713003575801849,-0.008280932903289795,-0.012109421193599701,-0.010432861745357513,-0.011775173246860504,0.080138690769672394,0.072422496974468231,0.000018142163753510,-0.051169794052839279,0.060782693326473236,-0.070768117904663086,0.042015843093395233,0.020201988518238068,0.082488752901554108,-0.045945309102535248,-0.082087278366088867,-0.035148717463016510,0.003693826496601105,-0.047069139778614044,0.077744670212268829,0.028360433876514435,0.016108319163322449,-0.049954559653997421,-0.028203096240758896,0.012954078614711761,-0.042926833033561707,-0.027880508452653885,-0.052425473928451538,-0.063121303915977478,-0.058032780885696411,0.064375318586826324,0.057281441986560822,0.027106471359729767,-0.004546560347080231,-0.036330748349428177,-0.037323009222745895,0.003723293542861938,-0.003239743411540985
-0.016897335648536682,-0.062276184558868408,-0.032180111855268478,-0.028140563517808914,-0.059287354350090027,-0.077188186347484589,0.012453928589820862,0.060432247817516327,0.012102864682674408,-0.052166860550642014,0.013884261250495911,-0.048751652240753174,-0.073951967060565948,-0.031233619898557663,-0.034056529402732849,0.054777882993221283,0.047196455299854279,0.036607488989830017,0.079165123403072357,0.013718038797378540,-0.020173430442810059,0.028583206236362457,-0.053648918867111206,0.060100428760051727,-0.044931795448064804,0.021696828305721283,-0.039348155260086060,-0.022090673446655273,0.067706249654293060,-0.056454729288816452,-0.008170753717422485,-0.018647976219654083,0.039157651364803314,-0.061132051050662994,-0.013602674007415771,0.002133920788764954,-0.006431743502616882,0.057303898036479950,-0.001538358628749847,0.011617839336395264,-0.006651178002357483,-0.080762118101119995,0.038858473300933838,-0.032204609364271164,-0.059145987033843994,0.025834403932094574,-0.080735348165035248,-0.057187963277101517,0.031900703907012939,-0.040077291429042816,0.006459981203079224,-0.045301873236894608,-0.039487838745117188,0.079729326069355011,-0.054077886044979095,-0.035519946366548538,0.033820591866970062,0.078454352915287018,-0.000123754143714905,-0.053135633468627930,0.003139063715934753,0.014446921646595001,0.078157179057598114,0.024558141827583313,0.017553672194480896,-0.081070818006992340,-0.039575718343257904,0.076849915087223053,-0.010209828615188599,-0.066680729389190674,-0.055696979165077209,0.000686690211296082,-0.020221158862113953,0.030411146581172943,-0.058643981814384460,-0.010341480374336243,-0.044745054095983505,-0.082345612347126007,0.069641776382923126,0.014301240444183350,-0.003785781562328339,0.075455509126186371,0.010764114558696747,-0.049833316355943680,0.014804713428020477,0.068689249455928802,0.032393448054790497
0.034932158887386322,-0.074054032564163208,-0.018000431358814240,-0.024607636034488678,0.004326179623603821,0.016056314110755920,0.006929852068424225,0.055026181042194366,0.063148386776447296,0.072005040943622589,-0.006212428212165833,0.072857759892940521,0.035551272332668304,-0.025362912565469742,-0.045745883136987686,-0.037196286022663116,0.036279514431953430,-0.025311283767223358,-0.054176531732082367,0.001151889562606812,-0.073873877525329590,-0.019703738391399384,-0.034696161746978760,0.021123699843883514,-0.055270485579967499,0.036590032279491425,-0.042900335043668747,0.050551109015941620,0.055609755218029022,-0.027422688901424408,0.042068041861057281,0.062908954918384552,0.055265106260776520,0.064748384058475494,0.030020877718925476,0.047317363321781158,-0.048009969294071198,0.063507296144962311,-0.067762807011604309,-0.023506063967943192,-0.051092442125082016,-0.002462007105350494,-0.075531221926212311,0.076905332505702972,-0.031783733516931534,0.031247429549694061,0.042675249278545380,0.042927645146846771,0.082764483988285065,-0.016227446496486664,0.052942536771297455,-0.050725784152746201,-0.080342605710029602,-0.019615486264228821,-0.015479467809200287,-0.076696373522281647,0.055251948535442352,0.076647974550724030,-0.055179856717586517,0.020017661154270172,-0.046181105077266693,-0.066023699939250946,0.072539262473583221,-0.065132081508636475,-0.028633963316679001,0.044594056904315948,0.052500940859317780,0.051818288862705231,-0.067500233650207520,0.081128768622875214,-0.036983087658882141,0.073142938315868378,-0.021036516875028610,0.058363206684589386,-0.073486879467964172,-0.068693406879901886,-0.055209375917911530,0.017496876418590546,-0.040947813540697098,-0.056980386376380920,0.081380583345890045,-0.008723236620426178,-0.065521039068698883,-0.051388371735811234,-0.079586401581764221,-0.036955244839191437,-0.063186183571815491
0.017154268920421600,0.078424550592899323,-0.060850486159324646,-0.049160003662109375,-0.049018576741218567,0.009845130145549774,-0.046635955572128296,0.070247255265712738,0.073454178869724274,0.071524687111377716,-0.063717320561408997,0.037944018840789795,-0.082245603203773499,-0.007466308772563934,-0.023498248308897018,-0.004782475531101227,-0.065336510539054871,0.074212126433849335,0.076461918652057648,0.082659848034381866,0.022509805858135223,0.020131953060626984,0.076137475669384003,0.034832090139389038,0.044296331703662872,-0.075489349663257599,0.075060583651065826,0.057239644229412079,0.050475023686885834,-0.045779444277286530,-0.059186391532421112,0.010002151131629944,-0.056803517043590546,0.067656852304935455,0.000700816512107849,0.032187648117542267,-0.040511522442102432,-0.069440804421901703,-0.020786173641681671,0.037233389914035797,0.050160221755504608,0.011851757764816284,-0.029469542205333710,-0.019014894962310791,0.061065725982189178,-0.016630731523036957,0.043510369956493378,0.049007438123226166,0.053892396390438080,-0.014869540929794312,0.062101937830448151,-0.000023193657398224,0.059288673102855682,-0.070183560252189636,-0.026438124477863312,0.065551169216632843,0.067514739930629730,-0.059292003512382507,0.003323823213577271,0.064910031855106354,-0.081217899918556213,-0.075422704219818115,-0.063622795045375824,0.066677711904048920,-0.054896704852581024,0.014950767159461975,-0.079470403492450714,0.033170863986015320,-0.000641711056232452,0.066739223897457123,0.071055002510547638,-0.043097089976072311,-0.029032062739133835,0.018262289464473724,-0.054082341492176056,0.066619478166103363,0.056985564529895782,0.033611752092838287,-0.071122884750366211,0.049003906548023224,0.072830982506275177,0.039809122681617737,0.074052311480045319,0.048949323594570160,0.066036485135555267,-0.051590587943792343,-0.077122233808040619
-0.070511609315872192,0.072006948292255402,0.027661375701427460,0.004693783819675446,0.020629413425922394,0.014048561453819275,-0.059403095394372940,0.073094032704830170,0.037010371685028076,0.034860029816627502,-0.039414603263139725,0.049358658492565155,-0.014830239117145538,0.023196101188659668,-0.051980219781398773,-0.016809433698654175,-0.047122567892074585,0.050807826220989227,-0.060561142861843109,-0.003927864134311676,-0.075053676962852478,-0.070830449461936951,-0.058911021798849106,-0.046551439911127090,-0.004624389111995697,0.068297244608402252,-0.018112823367118835,-0.043470315635204315,0.034274473786354065,-0.078075058758258820,-0.065082296729087830,0.046797014772891998,0.059707589447498322,0.042635910212993622,-0.065843209624290466,-0.060689963400363922,0.025421462953090668,-0.037151187658309937,-0.004596941173076630,0.019771181046962738,-0.013931199908256531,-0.038627762347459793,-0.016814544796943665,0.018137700855731964,-0.082198604941368103,-0.009625740349292755,-0.058324024081230164,-0.053821079432964325,0.009491913020610809,-0.027177728712558746,-0.045588623732328415,0.002159371972084045,-0.047608427703380585,0.070079110562801361,0.013832159340381622,-0.008832216262817383,-0.017033837735652924,-0.069039560854434967,0.063342534005641937,0.052084960043430328,0.037013918161392212,0.035112291574478149,-0.005068652331829071,-0.029152948409318924,-0.080248117446899414,0.066389389336109161,-0.073622651398181915,-0.063449367880821228,-0.057702355086803436,0.082216314971446991,0.017933584749698639,0.013592943549156189,-0.013277143239974976,-0.055986799299716949,0.028153583407402039,0.059115909039974213,0.082372121512889862,-0.028860736638307571,0.003577157855033875,-0.030929494649171829,-0.080690585076808929,-0.010997891426086426,0.049126140773296356,0.069060988724231720,0.064714930951595306,-0.082196585834026337,0.075432486832141876
0.061011854559183121,-0.041177973151206970,0.054162774235010147,0.030950417742133141,0.032247021794319153,-0.032727431505918503,0.074181966483592987,0.040586497634649277,-0.013370902277529240,-0.049021139740943909,0.016444541513919830,0.043123446404933929,-0.026341736316680908,0.066045738756656647,0.034454450011253357,-0.013968661427497864,-0.007591590750962496,-0.040667396038770676,0.063083276152610779,0.029410727322101593,0.055096589028835297,0.054680209606885910,0.008711706846952438,0.040550827980041504,-0.077993750572204590,0.034994795918464661,-0.048198636621236801,-0.000809810182545334,0.054435662925243378,-0.051808334887027740,0.053318955004215240,-0.034659307450056076,-0.020868020132184029,0.008331617340445518,-0.030393335968255997,-0.026963865384459496,-0.061384852975606918,-0.024098228663206100,0.067792773246765137,-0.037928059697151184,0.066510424017906189,-0.062925405800342560,0.052621994167566299,0.028222903609275818,-0.033638060092926025,-0.021260417997837067,0.080459050834178925,0.079699173569679260,0.082398138940334320,-0.069617092609405518,0.016796745359897614,-0.079042427241802216,-0.020946267992258072,-0.065282672643661499,-0.027778634801506996,0.022623728960752487,-0.004144147038459778,0.079650543630123138,-0.052262939512729645,-0.078006252646446228,0.013851456344127655,0.017472304403781891,-0.000417938921600580,0.073290906846523285,0.020176099613308907,0.011382838711142540,0.004547068849205971,0.064250051975250244,-0.003397800726816058,-0.080464720726013184,0.040450289845466614,0.028159109875559807,0.007628187537193298,-0.059644326567649841,0.082994885742664337,-0.019547857344150543,-0.068515092134475708,-0.063075259327888489,0.079160898923873901,-0.016989229246973991,0.011177994310855865,0.061822436749935150,0.059207879006862640,0.026226449757814407,-0.051292534917593002,0.035231921821832657,0.042851097881793976
0.048696827143430710,0.013378704898059368,-0.021108133718371391,0.027873316779732704,0.043918035924434662,-0.046701382845640182,-0.051725130528211594,0.001310945022851229,-0.037673495709896088,0.032366655766963959,-0.032046407461166382,0.056500241160392761,-0.044532883912324905,-0.027615860104560852,0.024626232683658600,0.078230015933513641,0.045713648200035095,-0.022238273173570633,-0.061962716281414032,-0.066770978271961212,0.017626397311687469,0.047882568091154099,-0.019687162712216377,0.017791554331779480,-0.014935448765754700,0.031167214736342430,-0.008421773090958595,-0.016934461891651154,-0.070216447114944458,0.012764600105583668,0.022094033658504486,0.039561945945024490,0.061433926224708557,0.076586410403251648,-0.058201018720865250,-0.039156224578619003,0.037327840924263000,0.011307857930660248,0.080025970935821533,-0.027416422963142395,-0.032486338168382645,-0.003494022414088249,-0.017290778458118439,0.075315847992897034,-0.081928886473178864,0.005381800234317780,-0.029303176328539848,-0.050165358930826187,0.073142699897289276,-0.033020332455635071,0.003476309357210994,-0.077867403626441956,-0.035024121403694153,-0.048071231693029404,-0.076707907021045685,-0.000354343210346997,0.010442614555358887,0.008478382602334023,-0.019461937248706818,-0.017671903595328331,0.043505780398845673,-0.050651520490646362,0.046489696949720383,-0.073348924517631531,0.064549937844276428,0.000156197173055261,-0.004891396965831518,0.008535951375961304,0.003788079600781202,0.036809168756008148,0.072809368371963501,0.033951986581087112,0.076565012335777283,-0.047284692525863647,-0.011762514710426331,-0.027843249961733818,0.071649827063083649,0.006341522559523582,-0.074501372873783112,0.071079663932323456,0.083231478929519653,0.080565162003040314,0.059487927705049515,0.037880275398492813,0.057836916297674179,0.079021461308002472,0.067576706409454346
-0.052719507366418839,0.017597839236259460,-0.012387067079544067,-0.069391317665576935,0.000808995391707867,0.010634097270667553,0.034796096384525299,-0.018744818866252899,-0.043237458914518356,-0.040362082421779633,-0.055120602250099182,-0.070764824748039246,0.078183360397815704,0.018630705773830414,0.009351477026939392,0.039465636014938354,0.043692607432603836,-0.023592855781316757,-0.013972623273730278,-0.019270814955234528,-0.068681403994560242,0.072084538638591766,-0.047250084578990936,-0.080693423748016357,0.000047057867050171,-0.054014302790164948,0.046735096722841263,0.073583722114562988,-0.009834386408329010,0.058103457093238831,-0.076067902147769928,-0.012947149574756622,0.024411119520664215,0.014344282448291779,0.011708326637744904,0.048515986651182175,0.030666351318359375,-0.062168896198272705,0.010317906737327576,-0.019381280988454819,-0.016344759613275528,-0.008131690323352814,0.039464361965656281,-0.048000887036323547,0.008289966732263565,-0.068157643079757690,-0.038207087665796280,0.002814960898831487,-0.047094747424125671,-0.022255897521972656,-0.004661190789192915,-0.027737732976675034,-0.042034681886434555,-0.040873464196920395,-0.006007984746247530,-0.072525620460510254,-0.040937505662441254,0.073450796306133270,0.076815225183963776,-0.060601461678743362,-0.009271375834941864,0.005506865680217743,0.050002735108137131,0.075800247490406036,-0.056598208844661713,0.059374481439590454,0.015461694449186325,-0.015639752149581909,-0.015754904597997665,0.068867720663547516,0.049193158745765686,-0.081619307398796082,-0.030527172610163689,-0.040245704352855682,0.019904784858226776,-0.047397565096616745,0.075784094631671906,0.050582945346832275,0.026291446760296822,0.016876183450222015,-0.072012878954410553,-0.055011257529258728,0.020213507115840912,-0.050130259245634079,-0.013985039666295052,-0.051463808864355087,-0.030110228806734085
0.070816226303577423,-0.026489289477467537,-0.065680764615535736,-0.017579391598701477,-0.042532462626695633,-0.030156912282109261,0.069221980869770050,0.046214140951633453,0.031738765537738800,-0.066776439547538757,0.019779104739427567,-0.031529538333415985,0.072566784918308258,0.007168240845203400,-0.082404755055904388,0.059896714985370636,-0.015200747177004814,-0.052516479045152664,0.079155042767524719,-0.041161112487316132,-0.058381121605634689,-0.009168624877929688,0.061656676232814789,0.033159933984279633,0.030785910785198212,-0.068774059414863586,-0.006716511677950621,-0.004331937525421381,-0.001083187758922577,-0.076467119157314301,-0.060022823512554169,-0.015217791311442852,-0.025523155927658081,0.039133653044700623,-0.080469392240047455,0.014858313836157322,-0.063208848237991333,-0.038938358426094055,0.017058126628398895,0.079729877412319183,-0.002780230948701501,-0.060250010341405869,0.006700158119201660,-0.050777450203895569,-0.081128522753715515,0.018624469637870789,-0.073482923209667206,-0.073480762541294098,-0.071057505905628204,0.070711083710193634,-0.026782365515828133,-0.002268788171932101,-0.014744438230991364,-0.017287962138652802,0.068050004541873932,-0.071006432175636292,-0.077534228563308716,0.034608613699674606,-0.005162565503269434,-0.032657172530889511,-0.007954306900501251,-0.080147236585617065,0.013732228428125381,-0.058554414659738541,-0.072057895362377167,-0.012797511182725430,-0.067363560199737549,0.025301545858383179,0.027236396446824074,-0.032771363854408264,0.059955667704343796,0.075183555483818054,-0.039888344705104828,0.076688662171363831,-0.013827942311763763,0.011258050799369812,-0.060296114534139633,-0.026960801333189011,-0.075316496193408966,0.050535283982753754,0.006158893462270498,0.068771190941333771,0.074061557650566101,0.004236496984958649,-0.016620006412267685,-0.024731663987040520,-0.024257663637399673
0.005118340253829956,-0.066064476966857910,-0.001540891826152802,-0.068092040717601776,-0.025500379502773285,0.033231593668460846,0.053828991949558258,0.048161469399929047,0.032992631196975708,-0.045422028750181198,0.074770234525203705,-0.051856443285942078,-0.006923444569110870,-0.024431262165307999,-0.065111339092254639,-0.010050378739833832,0.041597537696361542,-0.011786714196205139,0.073017649352550507,-0.010285027325153351,0.020200639963150024,-0.026721213012933731,0.035880409181118011,-0.042967200279235840,-0.005350716412067413,-0.041122663766145706,0.075534053146839142,-0.044207982718944550,0.081355087459087372,0.026030465960502625,0.042195118963718414,-0.027127645909786224,0.078269965946674347,-0.042452786117792130,0.040975831449031830,0.060218371450901031,-0.014080919325351715,0.052216969430446625,0.017754778265953064,0.046699382364749908,0.058691851794719696,0.070269636809825897,-0.047488354146480560,-0.041367225348949432,-0.068879589438438416,0.023796021938323975,-0.033695451915264130,-0.006157442927360535,0.021101146936416626,0.074488468468189240,-0.010329015552997589,0.000154249370098114,-0.025779236108064651,-0.069264888763427734,0.030271202325820923,0.014884576201438904,0.008600592613220215,-0.014972671866416931,0.069881312549114227,-0.031006768345832825,0.012116029858589172,0.036684937775135040,-0.018580794334411621,0.037184864282608032,0.022856712341308594,0.051097445189952850,0.013924568891525269,-0.009937286376953125,0.036574654281139374,0.037873677909374237,0.073929391801357269,0.059720881283283234,-0.014304943382740021,-0.059211168438196182,0.040706023573875427,0.039401836693286896,-0.016830191016197205,0.017309978604316711,-0.028432141989469528,-0.072720386087894440,-0.030700348317623138,-0.042965263128280640,-0.077708147466182709,0.052928663790225983,0.047117270529270172,-0.019464716315269470,0.080438099801540375
-0.033835176378488541,-0.060324613004922867,-0.024762656539678574,0.013284504413604736,0.051285333931446075,-0.016034036874771118,-0.016759566962718964,0.008977577090263367,0.071813069283962250,0.029823310673236847,-0.006264254450798035,-0.037553064525127411,-0.027189265936613083,0.026839509606361389,-0.029889229685068130,-0.019551545381546021,0.036449536681175232,-0.030730664730072021,-0.078449331223964691,-0.037080287933349609,-0.055787056684494019,-0.013923302292823792,-0.028507001698017120,-0.031478065997362137,0.017869412899017334,0.064641751348972321,0.054146550595760345,-0.071511819958686829,0.077220104634761810,-0.020602419972419739,0.015654534101486206,-0.004958257079124451,-0.002533048391342163,-0.037678781896829605,-0.016342595219612122,-0.045026008039712906,-0.079405322670936584,0.014441616833209991,-0.006483785808086395,0.060704939067363739,-0.075070932507514954,0.028590746223926544,-0.001352839171886444,0.019313022494316101,-0.069372758269309998,-0.079224616289138794,0.080463968217372894,0.041044265031814575,0.031494840979576111,0.073443256318569183,0.062064982950687408,-0.065026707947254181,-0.056305289268493652,-0.021592941135168076,-0.081591024994850159,-0.040435831993818283,0.065008662641048431,-0.003397263586521149,0.054423131048679352,0.061346225440502167,0.023088254034519196,-0.082061074674129486,0.013614885509014130,0.076200239360332489,0.060025103390216827,-0.000078104436397552,0.066587470471858978,-0.075394883751869202,-0.081876292824745178,-0.047626692801713943,-0.012015067040920258,0.060832701623439789,0.002130061388015747,-0.000249527394771576,0.052342124283313751,-0.052260540425777435,-0.060201410204172134,0.074287988245487213,0.024040207266807556,0.063160933554172516,0.011722281575202942,-0.033857833594083786,-0.041615746915340424,-0.040012225508689880,0.075011827051639557,0.030291184782981873,0.061961032450199127
-0.034996051341295242,0.078809402883052826,0.044274218380451202,0.029985122382640839,0.070451550185680389,-0.067748360335826874,0.003867588937282562,0.005341514945030212,-0.030464038252830505,-0.033525254577398300,-0.073423601686954498,0.076032869517803192,0.042783610522747040,0.011150300502777100,-0.012445323169231415,-0.072245746850967407,0.063467986881732941,-0.020612534135580063,-0.048243034631013870,-0.018667273223400116,-0.071056813001632690,0.015589058399200439,-0.031675789505243301,0.022311888635158539,0.067308284342288971,-0.012431211769580841,0.008009336888790131,0.048691384494304657,-0.029702149331569672,0.010098479688167572,-0.017384558916091919,-0.033745676279067993,-0.040220953524112701,-0.053315505385398865,-0.057104259729385376,-0.030307948589324951,-0.040734142065048218,0.073581270873546600,0.028238318860530853,0.041832722723484039,-0.054510518908500671,-0.000513821840286255,0.031389907002449036,-0.081401534378528595,-0.074525371193885803,0.047997795045375824,-0.054610744118690491,0.010118246078491211,-0.020746916532516479,-0.048631615936756134,-0.027642078697681427,-0.046593610197305679,-0.004335857927799225,0.040186755359172821,-0.074733145534992218,0.047628767788410187,0.057305134832859039,-0.072943262755870819,0.082996584475040436,-0.008095003664493561,-0.021384846419095993,0.004193477332592010,-0.018901683390140533,0.011461608111858368,0.002186238765716553,0.057310484349727631,-0.061435841023921967,0.009388640522956848,-0.072727091610431671,0.008475236594676971,-0.022121939808130264,0.000144079327583313,0.006435483694076538,-0.004555128514766693,0.003300830721855164,0.039043873548507690,-0.079665772616863251,-0.048698164522647858,-0.006884716451168060,-0.034817662090063095,0.072203315794467926,-0.031932480633258820,-0.048025999218225479,0.063316307961940765,0.027130253612995148,0.067745991051197052,0.023928880691528320
0.021053299307823181,0.068106047809123993,0.045332483947277069,0.050440602004528046,-0.049584794789552689,0.020574279129505157,-0.056453600525856018,-0.015883423388004303,0.026965774595737457,0.042361818253993988,-0.068997927010059357,-0.081117339432239532,0.015510477125644684,-0.076618641614913940,0.003140509128570557,-0.000489696860313416,0.063593558967113495,-0.038865104317665100,-0.059374045580625534,-0.072955295443534851,-0.015678420662879944,-0.060409661382436752,0.035143852233886719,0.029481925070285797,-0.039819844067096710,-0.023194696754217148,0.054217807948589325,-0.062918528914451599,-0.002985134720802307,-0.017900377511978149,-0.072865039110183716,0.073991082608699799,0.079372413456439972,-0.010307975113391876,-0.062994316220283508,-0.021976120769977570,-0.070147261023521423,0.067781187593936920,-0.036731500178575516,-0.009231440722942352,0.073391325771808624,-0.064886882901191711,0.054598040878772736,-0.079005219042301178,-0.013592980802059174,-0.074567869305610657,0.014781221747398376,0.038219891488552094,-0.019425183534622192,-0.022275377064943314,-0.034832719713449478,0.018342308700084686,-0.073603630065917969,0.037938065826892853,-0.039974350482225418,-0.045993886888027191,-0.053633742034435272,0.016127079725265503,-0.031373523175716400,0.062345705926418304,0.078808389604091644,-0.014897540211677551,0.056646473705768585,0.060940302908420563,-0.058898832648992538,-0.054570239037275314,-0.071211889386177063,0.045806072652339935,-0.001319065690040588,-0.054403562098741531,-0.048388045281171799,-0.048131965100765228,-0.008555814623832703,0.030865088105201721,0.065033785998821259,-0.020470097661018372,-0.047543562948703766,-0.002115301787853241,-0.045262318104505539,0.032879151403903961,0.033102124929428101,0.058823458850383759,-0.067179128527641296,-0.068765193223953247,-0.009471610188484192,-0.019494161009788513,0.037248544394969940
-0.064533233642578125,0.052167467772960663,0.034703187644481659,-0.042857930064201355,0.068974383175373077,0.032054550945758820,0.048357076942920685,0.000811770558357239,0.004179507493972778,-0.012141734361648560,-0.074827253818511963,-0.080390043556690216,-0.021265149116516113,0.069380261003971100,0.065648056566715240,0.054727084934711456,-0.005287215113639832,-0.034905124455690384,-0.027437448501586914,-0.013019993901252747,-0.027532313019037247,0.079002358019351959,0.010116487741470337,-0.001275271177291870,0.016375601291656494,-0.004400268197059631,-0.053010649979114532,0.037887781858444214,0.049606882035732269,0.025090351700782776,-0.082026034593582153,-0.056097790598869324,-0.014985792338848114,-0.073289498686790466,0.050943903625011444,-0.010926418006420135,-0.056742250919342041,-0.032461557537317276,-0.074961103498935699,-0.016021549701690674,-0.050930473953485489,0.035331025719642639,0.041777655482292175,-0.078519381582736969,0.049669764935970306,0.039301812648773193,0.064596109092235565,-0.007381930947303772,-0.018952243030071259,0.070790357887744904,0.072937108576297760,-0.006763592362403870,0.057125367224216461,-0.078758485615253448,-0.032448220998048782,-0.080505266785621643,-0.042876176536083221,0.023636132478713989,-0.079995758831501007,-0.019900433719158173,-0.044099107384681702,0.005783960223197937,0.051773853600025177,0.018630623817443848,-0.076680660247802734,-0.004615604877471924,0.012246057391166687,-0.078153774142265320,-0.000342555344104767,-0.059882108122110367,0.011932455003261566,-0.017135068774223328,-0.047885976731777191,0.074406690895557404,0.027625478804111481,0.053776182234287262,0.012748263776302338,0.046755008399486542,0.066672705113887787,-0.040655680000782013,0.025223918259143829,-0.077153161168098450,0.024798773229122162,-0.028703618794679642,-0.003588750958442688,0.060338549315929413,-0.061730325222015381
-0.067855276167392731,-0.032890845090150833,-0.053217776119709015,0.072420142590999603,0.072265319526195526,0.079605452716350555,-0.073372170329093933,-0.050939932465553284,-0.042223084717988968,0.045345403254032135,-0.024769145995378494,-0.075009286403656006,0.028620310127735138,0.055017255246639252,0.014139547944068909,-0.047658413648605347,-0.009633183479309082,0.062470965087413788,-0.017330184578895569,0.015233598649501801,0.035983443260192871,-0.032522447407245636,0.061913944780826569,0.027515530586242676,-0.001345299184322357,0.081453301012516022,0.059576995670795441,0.075231872498989105,-0.055557888001203537,0.053713686764240265,0.060062579810619354,-0.033351730555295944,0.017549060285091400,-0.040699530392885208,0.047973327338695526,0.048688761889934540,0.015149146318435669,-0.057183764874935150,0.016783967614173889,-0.007574632763862610,-0.048445034772157669,0.018467254936695099,-0.075535811483860016,0.040377296507358551,-0.035810161381959915,0.037725478410720825,0.038290001451969147,-0.002774640917778015,-0.025732893496751785,0.080376826226711273,0.043557487428188324,-0.064531967043876648,0.064616762101650238,0.044532068073749542,0.052228339016437531,0.041876077651977539,-0.063103727996349335,0.063299901783466339,0.065081797540187836,0.060542948544025421,0.078560240566730499,0.054081998765468597,0.016305372118949890,-0.026939656585454941,0.061577148735523224,-0.025287915021181107,0.019516460597515106,-0.065042659640312195,0.004714742302894592,-0.070421189069747925,0.027879714965820312,0.032283678650856018,-0.047090135514736176,0.049889020621776581,0.033577889204025269,0.071384824812412262,0.039819903671741486,0.060719586908817291,0.032231956720352173,-0.073104910552501678,-0.040527611970901489,0.071214877068996429,0.066565118730068207,-0.053188011050224304,-0.068168401718139648,0.000014327466487885,-0.013671301305294037
-0.067582197487354279,-0.075216054916381836,-0.072067908942699432,-0.081393621861934662,0.009934477508068085,-0.062143266201019287,-0.054192245006561279,-0.049898043274879456,-0.068270511925220490,0.031530007719993591,0.067272894084453583,-0.010575950145721436,-0.054525636136531830,0.064338810741901398,0.039590559899806976,-0.056180167943239212,0.034230567514896393,0.040654771029949188,0.029117070138454437,0.045242927968502045,0.043029628694057465,0.070477850735187531,0.052022702991962433,-0.042105920612812042,0.064326144754886627,0.000389829277992249,-0.037789456546306610,0.028383620083332062,0.013445794582366943,0.055940605700016022,0.069821514189243317,0.006810136139392853,-0.005435250699520111,0.046788223087787628,-0.035090424120426178,-0.073087282478809357,-0.052962347865104675,-0.039204888045787811,-0.034634463489055634,-0.031950805336236954,0.050253890454769135,0.050628848373889923,0.040567860007286072,0.062254689633846283,-0.022009562700986862,0.043392948806285858,-0.038746137171983719,0.020236320793628693,-0.022731456905603409,-0.048897374421358109,0.045857302844524384,-0.000533454120159149,0.062611378729343414,0.048534579575061798,0.070052362978458405,-0.005862712860107422,0.017126247286796570,-0.081737302243709564,-0.003182992339134216,0.071316964924335480,0.043712042272090912,-0.081096716225147247,-0.001366496086120605,0.036257155239582062,-0.072124660015106201,-0.045140817761421204,-0.021021537482738495,-0.054200831800699234,0.061295546591281891,-0.038295540958642960,-0.030193414539098740,0.033759646117687225,0.003665506839752197,0.046296544373035431,-0.024951674044132233,-0.033128894865512848,-0.028353247791528702,0.051619105041027069,0.004100471735000610,-0.081068381667137146,0.052418209612369537,0.015990503132343292,-0.082097031176090240,-0.030203029513359070,0.016945719718933105,0.029362879693508148,-0.035971809178590775
-0.019239962100982666,-0.008095085620880127,0.011917792260646820,0.003029651939868927,0.007864214479923248,-0.026203434914350510,-0.054302185773849487,-0.020049892365932465,0.014050580561161041,-0.028247024863958359,0.021328605711460114,0.052861578762531281,0.008841134607791901,-0.057968407869338989,-0.060884263366460800,-0.060934286564588547,-0.002305567264556885,0.041363246738910675,-0.082539275288581848,0.004950433969497681,-0.036866039037704468,-0.026249010115861893,-0.021089546382427216,-0.004134133458137512,0.022442862391471863,-0.012125149369239807,-0.002793185412883759,0.047842450439929962,0.049435056746006012,-0.060069821774959564,0.021264910697937012,-0.047991171479225159,-0.030003763735294342,0.048702977597713470,-0.009251229465007782,-0.029127836227416992,-0.021097384393215179,-0.046990878880023956,-0.020863290876150131,0.079527728259563446,-0.070422299206256866,-0.023008707910776138,0.050655849277973175,-0.044478427618741989,0.045102946460247040,-0.059792686253786087,0.015455052256584167,0.008273608982563019,-0.060197196900844574,-0.025698043406009674,-0.026103187352418900,0.070607714354991913,-0.034927666187286377,0.010144114494323730,0.011176779866218567,0.063860021531581879,0.028878249228000641,0.076687075197696686,0.049490161240100861,0.021527342498302460,0.001255601644515991,-0.029401727020740509,-0.035373829305171967,-0.068168185651302338,0.049404419958591461,0.023715324699878693,-0.076527021825313568,-0.024742115288972855,-0.059806220233440399,0.027546122670173645,0.035473644733428955,0.040815547108650208,-0.040660507977008820,0.055218957364559174,-0.039859838783740997,-0.059384673833847046,-0.049446217715740204,-0.010965064167976379,-0.069749720394611359,0.023745581507682800,-0.055000789463520050,-0.068422600626945496,0.069620825350284576,0.062079884111881256,-0.025500539690256119,0.075100891292095184,-0.063233695924282074
0.074064396321773529,0.014653630554676056,-0.032653581351041794,0.033053107559680939,-0.012227058410644531,-0.034991897642612457,0.060575045645236969,0.015916831791400909,0.045754097402095795,-0.000971026718616486,-0.046705748885869980,0.081145115196704865,0.064222134649753571,-0.040670759975910187,0.056889750063419342,-0.009079821407794952,0.009675391018390656,0.048890165984630585,0.013616092503070831,-0.032456174492835999,-0.012197494506835938,-0.019707322120666504,-0.077341824769973755,-0.051485452800989151,-0.051420271396636963,-0.021229609847068787,0.065612025558948517,-0.009906396269798279,0.004074946045875549,0.018398314714431763,-0.020701400935649872,-0.073562040925025940,0.072419546544551849,-0.030313290655612946,0.063600249588489532,0.035835705697536469,0.012722060084342957,-0.021307159215211868,0.005405642092227936,0.051646016538143158,0.007704935967922211,-0.072787642478942871,0.047235243022441864,-0.035126239061355591,-0.014810115098953247,-0.014593943953514099,0.022325180470943451,-0.053568955510854721,0.022229880094528198,-0.080028668045997620,-0.045208513736724854,0.066753543913364410,0.071438379585742950,-0.040644995868206024,-0.016933411359786987,0.001262590289115906,-0.074975214898586273,0.032355651259422302,0.054387696087360382,-0.035647440701723099,-0.032044481486082077,0.036333970725536346,0.017463989555835724,0.000304184854030609,-0.077628716826438904,0.050475917756557465,0.026682429015636444,0.065535716712474823,-0.015467204153537750,0.060329385101795197,-0.061676029115915298,-0.065163858234882355,0.015881642699241638,-0.043239526450634003,0.073895983397960663,0.078834049403667450,-0.024760577827692032,0.047221951186656952,0.014010258018970490,-0.049358241260051727,-0.067510172724723816,-0.029834039509296417,-0.050005059689283371,0.003449067473411560,0.038831345736980438,-0.024147320538759232,0.013386771082878113
-0.018604345619678497,-0.062095813453197479,0.047025404870510101,0.074394680559635162,-0.052543908357620239,-0.026997953653335571,0.056563608348369598,-0.052558906376361847,-0.042407490313053131,-0.035366825759410858,-0.013184353709220886,-0.016813352704048157,-0.065718799829483032,0.064940355718135834,-0.056988202035427094,-0.053216606378555298,-0.072210066020488739,-0.024301156401634216,0.045386739075183868,0.013133421540260315,0.031832449138164520,0.069005213677883148,0.077590249478816986,-0.053994677960872650,0.012050114572048187,-0.075050726532936096,0.015547379851341248,-0.044223297387361526,0.058999992907047272,0.074265189468860626,0.062004379928112030,-0.011553823947906494,-0.007898405194282532,-0.012357562780380249,0.047467537224292755,-0.061165906488895416,0.048644445836544037,0.014387302100658417,0.074008934199810028,0.064584963023662567,0.062691934406757355,-0.000505432486534119,0.053868912160396576,-0.021390862762928009,-0.027242731302976608,0.065438009798526764,0.031091086566448212,-0.000347346067428589,-0.077656790614128113,-0.069197133183479309,0.031732484698295593,0.068078957498073578,0.044093526899814606,0.005361519753932953,-0.025689043104648590,0.078672073781490326,-0.015150055289268494,-0.079651564359664917,0.032078675925731659,0.019010201096534729,-0.049518842250108719,-0.046578984707593918,-0.041204150766134262,-0.006790801882743835,-0.077582664787769318,-0.031443197280168533,0.012376084923744202,-0.068487882614135742,-0.021523464471101761,0.040162026882171631,0.007715485990047455,0.067470349371433258,-0.027514424175024033,-0.050551984459161758,-0.040480811148881912,0.057601638138294220,-0.037475515156984329,0.054027132689952850,-0.036445956677198410,0.035737857222557068,0.078812353312969208,-0.056572884321212769,-0.072237670421600342,0.055419690907001495,0.034182265400886536,-0.014836788177490234,-0.006937846541404724
0.081247903406620026,0.061625905334949493,-0.042109876871109009,-0.035810239613056183,0.050275944173336029,-0.013087272644042969,-0.018622316420078278,0.066217102110385895,-0.045547090470790863,0.003647066652774811,-0.042348265647888184,0.068797238171100616,-0.081218972802162170,0.003085181117057800,0.054325245320796967,-0.023264568299055099,-0.023569110780954361,-0.019099265336990356,0.074674881994724274,-0.008518964052200317,0.070096842944622040,0.079954437911510468,0.058973021805286407,0.023122906684875488,-0.020295664668083191,-0.024883423000574112,-0.078043021261692047,-0.077011778950691223,0.062143795192241669,0.056415654718875885,0.062389083206653595,0.017412520945072174,-0.006067842245101929,-0.073076374828815460,0.063227050006389618,0.025905899703502655,0.032863400876522064,-0.044837009161710739,-0.004228800535202026,-0.005570858716964722,-0.009345911443233490,0.035418435931205750,-0.009361959993839264,0.019286602735519409,-0.041074339300394058,0.070938698947429657,0.067577473819255829,-0.060108762234449387,-0.017959371209144592,-0.063551597297191620,0.018209017813205719,-0.005064733326435089,0.069891132414340973,0.025904789566993713,0.033199973404407501,0.066096208989620209,-0.059525385499000549,-0.034399159252643585,-0.063059821724891663,0.020763993263244629,0.065332196652889252,-0.061472050845623016,0.035599946975708008,0.054665796458721161,0.059871204197406769,-0.019773356616497040,-0.076528348028659821,0.025227680802345276,-0.003068655729293823,0.027923583984375000,0.053906925022602081,-0.034190613776445389,-0.064818792045116425,-0.016928344964981079,0.066672377288341522,-0.076902426779270172,0.009459480643272400,-0.051351014524698257,0.016243413090705872,0.077831529080867767,-0.027836062014102936,-0.055710218846797943,-0.072717316448688507,-0.003288798034191132,0.074146665632724762,-0.066260725259780884,0.052834652364253998
-0.035571713000535965,-0.071775935590267181,-0.007714435458183289,0.073134072124958038,0.039703726768493652,-0.020504310727119446,0.030721940100193024,-0.014711730182170868,-0.012928277254104614,0.047618873417377472,-0.004140898585319519,-0.075868457555770874,0.061481945216655731,0.011858798563480377,0.005578733980655670,0.021257057785987854,-0.057069353759288788,-0.069092772901058197,-0.034235019236803055,-0.037057053297758102,-0.008871927857398987,0.002452850341796875,0.044850312173366547,0.067691691219806671,-0.080784775316715240,-0.030269399285316467,-0.049197144806385040,0.072732202708721161,0.027050651609897614,-0.076200239360332489,-0.018155209720134735,0.073386944830417633,0.050961546599864960,0.041867606341838837,0.039319537580013275,0.039681568741798401,0.063459150493144989,0.029250249266624451,-0.065950043499469757,0.028373606503009796,0.031001918017864227,0.022086419165134430,0.077378891408443451,-0.071507386863231659,0.071997232735157013,-0.071150980889797211,-0.078660316765308380,-0.059694141149520874,-0.026315893977880478,-0.040813885629177094,-0.038498271256685257,0.022547461092472076,0.013069167733192444,0.029360763728618622,0.081180997192859650,-0.071505412459373474,0.034901939332485199,0.037380792200565338,-0.076761513948440552,-0.060939826071262360,0.048157714307308197,0.065284632146358490,0.049531407654285431,0.006816327571868896,-0.065684780478477478,-0.062187038362026215,-0.057229615747928619,0.077794961631298065,-0.046491898596286774,0.045509077608585358,0.002051621675491333,0.042446650564670563,-0.056529685854911804,0.020679987967014313,0.058754868805408478,0.070078976452350616,0.003756850957870483,-0.056498818099498749,0.077410764992237091,0.023760221898555756,0.057069949805736542,-0.022847156971693039,-0.006172776222229004,-0.043563678860664368,-0.014743305742740631,0.061726845800876617,0.016109704971313477
0.037795886397361755,0.072843350470066071,-0.054723162204027176,0.080288328230381012,-0.034128062427043915,-0.014046646654605865,-0.067145176231861115,0.001172967255115509,0.019062168896198273,-0.010881640017032623,0.021764956414699554,0.081584222614765167,-0.003868103027343750,0.013437621295452118,0.059780143201351166,0.067149408161640167,0.064173601567745209,0.020026363432407379,-0.003555171191692352,-0.062970571219921112,0.015545479953289032,-0.015685759484767914,-0.021927993744611740,-0.023601621389389038,-0.059187244623899460,-0.078933075070381165,0.045579664409160614,-0.066741690039634705,0.007252298295497894,-0.066095188260078430,0.055005259811878204,-0.082725502550601959,0.006741091609001160,0.053435482084751129,0.017019405961036682,0.057433731853961945,0.000237397849559784,0.002004466950893402,0.024545997381210327,0.056981973350048065,-0.016390718519687653,-0.045629903674125671,-0.007226616144180298,0.021802537143230438,-0.082023739814758301,0.007333040237426758,0.024148963391780853,-0.078579738736152649,-0.005484186112880707,-0.056923076510429382,-0.020479835569858551,-0.056621246039867401,0.033362455666065216,-0.008782088756561279,-0.049888860434293747,-0.049398351460695267,-0.056828133761882782,-0.017338827252388000,-0.028963297605514526,0.000750765204429626,-0.072442002594470978,-0.004819184541702271,0.022254206240177155,0.069553546607494354,0.042756952345371246,-0.001586973667144775,0.025472640991210938,-0.037786092609167099,0.018639765679836273,-0.015011541545391083,-0.045167256146669388,0.075818382203578949,-0.040589053183794022,-0.078188344836235046,-0.069217175245285034,-0.001308418810367584,-0.046182747930288315,-0.003847859799861908,-0.039562221616506577,0.025160118937492371,-0.065969496965408325,0.072865985333919525,0.055430479347705841,0.012839406728744507,-0.007810525596141815,-0.012977212667465210,-0.077711783349514008
-0.031860116869211197,0.007101893424987793,0.081234879791736603,-0.026955604553222656,0.029955402016639709,0.081435389816761017,-0.075634025037288666,0.070430986583232880,0.035600364208221436,-0.025286629796028137,-0.077831663191318512,0.077407263219356537,0.035705678164958954,0.038014389574527740,-0.056510493159294128,-0.006659939885139465,0.039308518171310425,0.019625261425971985,0.048205994069576263,-0.068368323147296906,0.056348167359828949,0.029370404779911041,0.016509443521499634,-0.018490798771381378,-0.079479701817035675,-0.000764377415180206,-0.005905635654926300,-0.042914900928735733,-0.002287283539772034,-0.006711393594741821,-0.024250201880931854,-0.080132201313972473,-0.063179299235343933,-0.019575670361518860,0.021714441478252411,0.034933894872665405,0.004352755844593048,0.015589416027069092,-0.047846201807260513,-0.051413759589195251,0.017642974853515625,0.021823786199092865,0.056005857884883881,-0.054874859750270844,0.015264473855495453,-0.049608442932367325,0.023337274789810181,0.015010587871074677,-0.048162102699279785,-0.053447790443897247,-0.009106457233428955,-0.040571600198745728,0.072528533637523651,0.066150642931461334,0.048542536795139313,-0.019450172781944275,0.029220841825008392,0.042427144944667816,-0.032902419567108154,-0.030936520546674728,-0.072458587586879730,0.079568572342395782,-0.074756793677806854,0.062282465398311615,-0.032878693193197250,0.058635734021663666,0.007261447608470917,0.024902597069740295,-0.009580224752426147,0.064317025244235992,0.075298078358173370,-0.022274367511272430,-0.028091646730899811,-0.029255710542201996,0.032576292753219604,-0.022496528923511505,-0.081507265567779541,-0.018280096352100372,0.035207130014896393,-0.013292439281940460,0.041327051818370819,-0.030199427157640457,-0.060648508369922638,-0.030133198946714401,-0.033688742667436600,0.070205666124820709,-0.058860480785369873
0.041280157864093781,0.058943696320056915,0.053315035998821259,0.081801764667034149,-0.013112895190715790,0.055286295711994171,-0.026946898549795151,-0.077890194952487946,0.017153650522232056,-0.016453899443149567,0.016270600259304047,0.070591963827610016,0.075125105679035187,-0.020840492099523544,-0.076673045754432678,-0.045019377022981644,0.042305402457714081,-0.036184236407279968,-0.046882458031177521,-0.061764344573020935,0.018468737602233887,0.009878471493721008,0.007798433303833008,0.061835743486881256,0.057286508381366730,-0.046423252671957016,-0.075279615819454193,0.019782021641731262,-0.057821460068225861,0.010719075798988342,-0.004755802452564240,0.061897195875644684,-0.060167454183101654,-0.041270874440670013,0.026212401688098907,-0.000500939786434174,0.076090939342975616,-0.033476673066616058,-0.051740881055593491,-0.011554263532161713,0.028357721865177155,0.077563650906085968,-0.016815707087516785,-0.067823491990566254,0.013080231845378876,0.040394790470600128,-0.051840357482433319,0.059165574610233307,-0.042304750531911850,0.018133863806724548,0.040298737585544586,-0.009246282279491425,0.045830614864826202,-0.081239193677902222,0.056842513382434845,0.037014745175838470,-0.006378985941410065,0.009120211005210876,-0.051549628376960754,-0.041055779904127121,0.059334330260753632,0.009079463779926300,-0.079978801310062408,0.036873951554298401,-0.002718165516853333,-0.034402068704366684,0.078796513378620148,0.009645052254199982,0.078826270997524261,0.000918708741664886,-0.061590641736984253,0.072073929011821747,-0.046953756362199783,0.029593296349048615,-0.028347350656986237,-0.007276445627212524,-0.044891446828842163,0.032907187938690186,-0.060116082429885864,-0.078678876161575317,-0.048873428255319595,-0.038595132529735565,0.075092710554599762,0.047132022678852081,0.022776335477828979,-0.023902006447315216,-0.023379441350698471
-0.070546075701713562,0.076149798929691315,0.006604537367820740,-0.033801577985286713,0.007622241973876953,0.065074138343334198,0.074839942157268524,-0.034362573176622391,-0.026073843240737915,0.038438193500041962,0.072944305837154388,0.065199144184589386,0.008022718131542206,-0.034397359937429428,-0.082795552909374237,0.039871767163276672,0.009990356862545013,-0.042850509285926819,0.068781457841396332,0.040503628551959991,0.018995299935340881,0.064822115004062653,-0.039339963346719742,0.021178439259529114,-0.068605944514274597,0.043888337910175323,0.028454110026359558,-0.022956408560276031,0.059610016644001007,0.047476895153522491,0.048723436892032623,0.055875070393085480,0.005907535552978516,0.009640283882617950,-0.010803394019603729,-0.061197131872177124,-0.008488632738590240,-0.079887047410011292,-0.081791043281555176,0.078260473906993866,0.047881938517093658,-0.019962511956691742,-0.049082927405834198,0.072064213454723358,0.038276165723800659,-0.020386174321174622,-0.043880861252546310,-0.025145638734102249,-0.034672971814870834,-0.015443749725818634,0.062754519283771515,0.021329320967197418,-0.047007065266370773,0.055772669613361359,-0.054305039346218109,-0.046369291841983795,-0.019760631024837494,-0.040305428206920624,0.050952441990375519,-0.072352223098278046,0.082587487995624542,-0.000180922448635101,-0.048541046679019928,0.037400834262371063,-0.030738379806280136,-0.080995127558708191,0.032154068350791931,-0.075616687536239624,0.017119437456130981,0.014032535254955292,0.019290737807750702,0.012160867452621460,-0.032001897692680359,-0.053583025932312012,-0.043293170630931854,0.069769762456417084,0.072553925216197968,0.077782355248928070,-0.030177187174558640,-0.078486077487468719,0.038235463201999664,0.066053040325641632,0.016072697937488556,0.056678064167499542,0.080499432981014252,0.078213579952716827,0.003999516367912292
-0.030899727717041969,0.017143361270427704,-0.048061713576316833,-0.030390106141567230,-0.066999346017837524,0.007950701750814915,-0.065123260021209717,-0.016817077994346619,0.062826968729496002,0.017252810299396515,0.073096089065074921,-0.053978085517883301,0.000661350437439978,0.069494254887104034,-0.058650549501180649,0.057392962276935577,0.074491262435913086,0.025380283594131470,0.015136580914258957,0.009337370283901691,0.005384833551943302,-0.010492966510355473,0.047803793102502823,-0.036516889929771423,-0.058790471404790878,0.053480997681617737,0.078280098736286163,0.068126812577247620,-0.047420401126146317,0.038096498697996140,-0.066900894045829773,0.009732427075505257,0.043657105416059494,0.042968980967998505,0.048951849341392517,-0.008849306963384151,0.049077786505222321,-0.013915385119616985,-0.018208779394626617,-0.024123260751366615,0.015720546245574951,0.073632471263408661,0.038217764347791672,0.007098861038684845,-0.026431180536746979,-0.017422199249267578,-0.017701826989650726,-0.036613825708627701,-0.044062122702598572,-0.024107282981276512,0.063707709312438965,0.071863166987895966,-0.009898755699396133,0.040311224758625031,0.055760227143764496,-0.037235740572214127,-0.077702857553958893,-0.054916802793741226,0.057511661201715469,0.067772321403026581,-0.055256806313991547,-0.051097963005304337,0.081139408051967621,-0.071924746036529541,0.009126268327236176,0.049821272492408752,0.002165331039577723,0.015653574839234352,-0.079635977745056152,0.054758299142122269,0.062189813703298569,0.050079528242349625,-0.080084048211574554,-0.064279109239578247,0.025897886604070663,-0.052209071815013885,0.050307221710681915,-0.015370670706033707,0.077996022999286652,-0.049621857702732086,0.005007181782275438,-0.068528190255165100,-0.063230022788047791,0.005489826202392578,-0.003155480837449431,-0.005108291283249855,0.049110062420368195
0.007309322245419025,0.038538955152034760,0.055317625403404236,0.047262277454137802,0.058516498655080795,0.013399016112089157,0.023014724254608154,-0.029068520292639732,-0.056225657463073730,0.016040343791246414,0.025818217545747757,0.064961180090904236,-0.052640233188867569,0.054283224046230316,0.047196306288242340,0.070286996662616730,-0.016715606674551964,-0.073583945631980896,0.080816403031349182,0.079227112233638763,-0.010219991207122803,-0.028999837115406990,0.037929281592369080,0.034012876451015472,-0.072186917066574097,0.046572480350732803,0.015085617080330849,-0.011067573912441730,0.036501221358776093,-0.036042399704456329,-0.044916421175003052,-0.020575899630784988,-0.038652978837490082,0.034210328012704849,-0.016963915899395943,-0.030104307457804680,-0.016680061817169189,0.056372135877609253,0.079238109290599823,-0.071622863411903381,-0.007546931039541960,0.059728104621171951,-0.051560666412115097,-0.026128262281417847,-0.053202331066131592,-0.004307588096708059,-0.045702379196882248,-0.045481670647859573,-0.056332118809223175,0.079843990504741669,0.046844772994518280,0.016139645129442215,0.056237015873193741,0.065904192626476288,-0.018583716824650764,0.008938319981098175,0.008957415819168091,-0.068506307899951935,-0.057357344776391983,-0.004987952299416065,-0.065076306462287903,-0.056755986064672470,0.054053835570812225,0.043996151536703110,-0.067069187760353088,-0.073457166552543640,0.051536213606595993,-0.073048092424869537,0.057593528181314468,0.015961835160851479,0.034860618412494659,0.050908893346786499,-0.036261390894651413,0.007787409238517284,-0.028018916025757790,0.075941294431686401,-0.052319761365652084,0.041620027273893356,-0.048356123268604279,-0.025612929835915565,0.072780087590217590,-0.006394147872924805,0.068860054016113281,0.012600081972777843,0.058131504803895950,-0.026310537010431290,-0.055742967873811722
-0.058783512562513351,-0.024292377755045891,0.037114117294549942,0.074643358588218689,-0.015107296407222748,0.011165541596710682,0.056220494210720062,-0.069111026823520660,-0.078518107533454895,0.070990040898323059,-0.058806791901588440,0.063023619353771210,0.038924090564250946,0.052962653338909149,0.013767294585704803,-0.034626092761754990,-0.029345875605940819,-0.044637504965066910,-0.029293913394212723,0.082082957029342651,-0.080293573439121246,-0.000819307868368924,0.044883206486701965,0.045455027371644974,0.027318581938743591,0.078476496040821075,-0.072748027741909027,-0.060788482427597046,-0.016399800777435303,-0.004010728560388088,-0.029230438172817230,-0.066981784999370575,0.077045857906341553,0.059922587126493454,0.030461959540843964,0.054958116263151169,-0.038049254566431046,-0.061186593025922775,-0.082681775093078613,-0.013854744844138622,-0.062374416738748550,0.073426157236099243,0.046572912484407425,-0.010503645986318588,-0.003347330028191209,0.074260026216506958,0.085231490433216095,-0.080321870744228363,0.014838389120995998,-0.068025097250938416,-0.025290761142969131,0.018415842205286026,-0.029487833380699158,0.012823521159589291,-0.041252955794334412,0.019751382991671562,0.043675087392330170,0.030028799548745155,-0.037027891725301743,0.019463321194052696,-0.007250145077705383,0.042917277663946152,-0.079733528196811676,0.061228062957525253,-0.037959873676300049,-0.023708203807473183,-0.042661111801862717,0.050790958106517792,-0.067220807075500488,-0.056149456650018692,-0.056902930140495300,-0.010850958526134491,0.061793901026248932,0.010160802863538265,0.081058286130428314,-0.068914867937564850,-0.037428222596645355,-0.030702065676450729,-0.048637766391038895,0.024667343124747276,-0.021872220560908318,0.049020908772945404,-0.041774105280637741,-0.037243198603391647,-0.020363034680485725,-0.024974454194307327,0.039563525468111038
0.001379158697091043,-0.075321085751056671,-0.006396661046892405,0.009430914185941219,0.004376965574920177,0.060736954212188721,-0.056746125221252441,0.043929964303970337,-0.055228509008884430,-0.070381350815296173,0.059286523610353470,0.055812746286392212,-0.015043255873024464,-0.010917712934315205,0.082250960171222687,-0.034378688782453537,0.045660793781280518,-0.028338842093944550,-0.002676413860172033,-0.048721771687269211,-0.069180376827716827,-0.071682043373584747,-0.000567371025681496,-0.019790455698966980,0.019370917230844498,-0.015911389142274857,0.046847254037857056,-0.024838848039507866,-0.044388946145772934,-0.019737333059310913,-0.064305759966373444,0.053781613707542419,-0.055735785514116287,-0.004891952499747276,-0.056927263736724854,0.009176282212138176,-0.076155938208103180,0.064727485179901123,-0.082527220249176025,-0.037112127989530563,0.053970858454704285,0.001121756271459162,0.017649188637733459,-0.016911391168832779,-0.032345477491617203,-0.064160503447055817,-0.064349949359893799,-0.070189468562602997,-0.007056335918605328,-0.058054324239492416,0.052646823227405548,-0.018720300868153572,0.032802727073431015,0.004226921126246452,-0.065517030656337738,0.024101750925183296,0.003216054057702422,-0.003356521017849445,0.020085632801055908,-0.004060713108628988,-0.036521703004837036,0.077758967876434326,-0.049392901360988617,-0.063585184514522552,-0.043524578213691711,0.081696130335330963,0.061337355524301529,-0.027476284652948380,0.069354288280010223,-0.048573777079582214,-0.007857476361095905,-0.049013894051313400,-0.015175724402070045,0.050275068730115891,0.014377037994563580,-0.046111870557069778,0.065052896738052368,0.011939675547182560,0.062861531972885132,0.080758653581142426,0.073646038770675659,-0.046290818601846695,0.006367955822497606,0.005322345998138189,0.020998198539018631,0.068316243588924408,0.017252830788493156
0.072683624923229218,-0.063091672956943512,0.053258214145898819,-0.057505842298269272,-0.071420080959796906,-0.062856078147888184,-0.026352098211646080,-0.079757377505302429,0.070476055145263672,-0.050152178853750229,0.029258737340569496,0.053793162107467651,-0.038997374475002289,0.072935320436954498,-0.045460220426321030,0.063491813838481903,-0.031231136992573738,-0.020431943237781525,-0.009894348680973053,0.008082788437604904,0.002565666334703565,0.069491505622863770,0.002793648280203342,-0.076165623962879181,-0.011028462089598179,0.079654768109321594,-0.012553391046822071,-0.027217108756303787,-0.038333430886268616,0.001292711822316051,0.049837719649076462,-0.035946119576692581,-0.004056904464960098,0.029780216515064240,0.067693099379539490,-0.032776363193988800,-0.015291973948478699,0.061188239604234695,-0.045320916920900345,0.077770076692104340,-0.041318304836750031,-0.029087830334901810,-0.041149422526359558,-0.052764542400836945,-0.001435228041373193,0.001438677427358925,-0.025881040841341019,-0.063949540257453918,0.013430029153823853,0.022656714543700218,0.023490192368626595,-0.065845333039760590,-0.049861103296279907,-0.031290702521800995,0.055905684828758240,0.056213837116956711,-0.030229419469833374,0.069043532013893127,0.032630622386932373,-0.063976839184761047,-0.044171407818794250,-0.026196815073490143,0.045565679669380188,0.095522344112396240,-0.023875579237937927,-0.064388744533061981,-0.052533943206071854,0.071265846490859985,0.067666545510292053,-0.016051292419433594,-0.062288701534271240,-0.074823595583438873,0.020486574620008469,0.052506696432828903,-0.035494867712259293,-0.022899663075804710,0.049730591475963593,0.060581915080547333,0.016702178865671158,-0.050467055290937424,0.025548364967107773,0.004761229734867811,-0.081095226109027863,0.059898089617490768,-0.043856509029865265,-0.053702503442764282,-0.030622389167547226
0.023566065356135368,0.000224379473365843,-0.073376737534999847,0.026867074891924858,-0.051015373319387436,-0.050006091594696045,-0.008763895370066166,-0.024373283609747887,-0.043643351644277573,0.051277711987495422,0.049348853528499603,0.056063834577798843,0.002294328995049000,0.072259999811649323,-0.003784158965572715,0.021454524248838425,0.017786666750907898,-0.007698833476752043,0.054867379367351532,0.073672734200954437,0.010541608557105064,-0.075594790279865265,0.028673116117715836,0.000088891632913146,0.054995886981487274,-0.071219332516193390,-0.039213981479406357,0.008304798044264317,-0.034627687186002731,-0.045966062694787979,-0.041134666651487350,0.008530299179255962,-0.073375321924686432,-0.080242894589900970,-0.073515206575393677,-0.054651871323585510,-0.053233142942190170,0.076303698122501373,0.000526577990967780,-0.054188281297683716,0.052291058003902435,0.056201137602329254,0.063262991607189178,0.045035436749458313,-0.053419072180986404,0.029681630432605743,0.076468721032142639,0.017497008666396141,-0.019787173718214035,-0.065062202513217926,-0.067451387643814087,-0.034885857254266739,-0.048616465181112289,-0.074596367776393890,0.017539525404572487,0.037219051271677017,-0.007588023319840431,-0.061908844858407974,-0.058740984648466110,-0.069009736180305481,0.022880731150507927,-0.044168006628751755,-0.024298258125782013,-0.073151588439941406,-0.076942235231399536,0.032559771090745926,0.031673163175582886,0.031557124108076096,-0.080914072692394257,0.003433024510741234,-0.069991827011108398,0.064396634697914124,-0.013902185484766960,0.005035717040300369,0.022435186430811882,0.075265616178512573,0.019039083272218704,-0.021516311913728714,-0.027634983882308006,-0.045188441872596741,0.043566431850194931,-0.071047760546207428,-0.064358465373516083,-0.058661814779043198,0.009225665591657162,-0.002454826142638922,-0.002885610796511173
-0.023549465462565422,0.037548396736383438,-0.044293608516454697,-0.045420631766319275,-0.068790428340435028,-0.062813952565193176,-0.036904226988554001,-0.068270601332187653,0.034423336386680603,-0.049446247518062592,0.037926066666841507,0.080819129943847656,0.001165715395472944,-0.006070899311453104,-0.027837961912155151,0.030474940314888954,0.068767264485359192,-0.073309525847434998,0.068811535835266113,0.062749609351158142,0.042681746184825897,-0.058297052979469299,-0.076209962368011475,-0.017862781882286072,-0.035182714462280273,-0.050682958215475082,-0.052742809057235718,0.066624365746974945,-0.045728042721748352,0.048490859568119049,0.004178713541477919,-0.065363787114620209,0.039036255329847336,-0.048107571899890900,-0.040660962462425232,0.051731996238231659,0.019106872379779816,-0.029768526554107666,0.066287793219089508,-0.006579859182238579,-0.081289462745189667,-0.038211800158023834,-0.028930440545082092,-0.051533736288547516,-0.048505820333957672,0.081086426973342896,-0.051050782203674316,-0.025218598544597626,-0.070710271596908569,-0.074604570865631104,0.086447231471538544,-0.028987076133489609,0.035245146602392197,0.019405422732234001,-0.045474268496036530,-0.054186888039112091,-0.008772030472755432,-0.077113822102546692,0.026769259944558144,-0.029418800026178360,-0.021752949804067612,0.010157995857298374,0.059141993522644043,0.073251970112323761,-0.004923620726913214,0.009645039215683937,-0.076435379683971405,-0.002724289894104004,0.055352810770273209,-0.069176629185676575,0.053077939897775650,0.072744548320770264,0.022021323442459106,0.075336441397666931,-0.048555832356214523,-0.012486000545322895,-0.015537328086793423,-0.063309587538242340,-0.062445726245641708,0.054773695766925812,-0.066969275474548340,0.006518952548503876,-0.054084435105323792,0.067935019731521606,0.029359940439462662,-0.005649134982377291,-0.066821329295635223
0.076792597770690918,0.065997086465358734,0.010065559297800064,0.074117392301559448,0.080185368657112122,-0.027085702866315842,0.018588870763778687,-0.016779553145170212,0.012242952361702919,0.070031419396400452,0.023168068379163742,0.049451667815446854,-0.061439435929059982,-0.080364845693111420,0.075887337327003479,-0.001721087493933737,-0.061066694557666779,0.005924093071371317,0.073946326971054077,0.022483175620436668,-0.073909915983676910,-0.018949663266539574,-0.002654558047652245,-0.014780429191887379,-0.018751110881567001,0.075307361781597137,-0.032790865749120712,0.064082093536853790,-0.078660756349563599,0.074912942945957184,0.007543571293354034,-0.037815615534782410,-0.045868519693613052,0.012803818099200726,-0.023406470194458961,0.044291567057371140,0.060237143188714981,0.025988286361098289,-0.076411038637161255,-0.032350711524486542,0.025772832334041595,-0.013761058449745178,-0.014303702861070633,-0.013087144121527672,-0.055192559957504272,-0.024282258003950119,-0.031948201358318329,-0.070065326988697052,0.077609069645404816,0.017852311953902245,-0.012528021819889545,0.059192080050706863,-0.009594728238880634,-0.038686063140630722,0.057957742363214493,0.026862926781177521,-0.027848664671182632,-0.027080981060862541,-0.093257337808609009,-0.056906141340732574,-0.042090881615877151,0.068862348794937134,-0.055674523115158081,-0.050815675407648087,0.003153263358399272,0.083854317665100098,0.028894962742924690,0.039597228169441223,-0.091799698770046234,0.034273210912942886,-0.031874042004346848,0.050642762333154678,-0.010076805017888546,-0.041670028120279312,0.060965675860643387,0.025579741224646568,0.001254700357094407,-0.000442395918071270,0.044510591775178909,-0.000279234256595373,-0.006226481869816780,-0.023626999929547310,-0.016749648377299309,0.045054987072944641,-0.042084269225597382,0.061498291790485382,-0.002874030033126473
-0.029782731086015701,-0.024031747132539749,0.023553874343633652,0.074685841798782349,-0.009382602758705616,-0.049520004540681839,0.034844268113374710,-0.008631978183984756,0.046673540025949478,-0.060839887708425522,-0.083425670862197876,0.058406140655279160,0.046140305697917938,0.076852716505527496,0.004534000065177679,0.081759609282016754,0.067460961639881134,0.011750211007893085,-0.020639754831790924,0.054690863937139511,-0.027250200510025024,0.053047526627779007,-0.012983828783035278,-0.065595231950283051,0.025147477164864540,0.041660372167825699,0.066257327795028687,0.054387409240007401,0.084384262561798096,0.049762554466724396,-0.056992497295141220,-0.036162521690130234,0.044406868517398834,0.028874995186924934,-0.048584971576929092,0.070270247757434845,0.061177048832178116,-0.033666677772998810,0.070023901760578156,-0.065199844539165497,-0.043658789247274399,0.041574556380510330,-0.027691103518009186,0.037811659276485443,-0.055840961635112762,0.066418312489986420,0.083797730505466461,-0.029988182708621025,-0.066117517650127411,-0.038972932845354080,-0.012953873723745346,-0.031851358711719513,-0.066628299653530121,-0.031265508383512497,0.008400195278227329,0.026010107249021530,0.073225922882556915,0.059214595705270767,0.010587108321487904,-0.064533494412899017,0.017802303656935692,-0.000070039110141806,0.047075945883989334,0.103332601487636566,-0.029528329148888588,-0.010579507797956467,-0.024837737902998924,-0.072076953947544098,-0.009286759421229362,0.000789065612480044,-0.045980643481016159,0.012625528499484062,-0.024764802306890488,0.027446528896689415,-0.042559888213872910,0.012173239141702652,0.060601361095905304,0.072141371667385101,-0.058395925909280777,-0.075350143015384674,0.033171243965625763,0.068211399018764496,-0.010322415269911289,0.020790299400687218,0.015559013932943344,-0.043485596776008606,-0.046044372022151947
-0.024459943175315857,0.056046221405267715,-0.062171466648578644,0.051816515624523163,-0.055763181298971176,0.091933861374855042,-0.033345527946949005,0.065651819109916687,-0.033720906823873520,0.029340883716940880,-0.025310540571808815,0.037549186497926712,0.024939063936471939,0.044211849570274353,0.004867484327405691,-0.038340296596288681,0.032861523330211639,-0.073444291949272156,0.065396368503570557,0.038107540458440781,0.071005694568157196,-0.048420716077089310,-0.007836318574845791,-0.007254484575241804,-0.061333023011684418,0.078364007174968719,-0.016634335741400719,0.075109347701072693,0.036048378795385361,0.049657762050628662,-0.030527381226420403,-0.014345507137477398,-0.076251171529293060,0.059831041842699051,0.007297172211110592,-0.052134994417428970,0.036478135734796524,0.073071949183940887,-0.059662353247404099,0.059010606259107590,-0.072141207754611969,-0.047874961048364639,0.077071122825145721,0.035243485122919083,0.064729221165180206,-0.067657537758350372,-0.012995906174182892,0.002360509242862463,0.019309485331177711,-0.039359916001558304,0.018536595627665520,-0.023685166612267494,0.019556820392608643,0.085605978965759277,0.041152689605951309,0.007284130435436964,0.060494534671306610,-0.006502213887870312,-0.066090971231460571,-0.016304651275277138,0.005914258304983377,-0.026985591277480125,-0.030607953667640686,-0.022755097597837448,0.045455936342477798,-0.008433847688138485,0.000127550199977122,0.020309882238507271,0.018890004605054855,0.073801837861537933,0.043326914310455322,0.044922679662704468,-0.059135250747203827,0.057756669819355011,0.014514826238155365,0.009947530925273895,-0.066076122224330902,-0.016629919409751892,-0.035073824226856232,-0.054356195032596588,0.071752063930034637,-0.038564685732126236,0.079979225993156433,0.017491973936557770,-0.002685294719412923,0.077921345829963684,-0.021856216713786125
-0.055115520954132080,0.023531617596745491,0.005433687474578619,-0.044865798205137253,0.054908383637666702,0.087286449968814850,0.057735946029424667,-0.071025706827640533,-0.009288152679800987,-0.056000251322984695,0.074118413031101227,-0.012848826125264168,-0.007378520444035530,-0.026936471462249756,0.049215592443943024,0.041819017380475998,-0.069240503013134003,-0.079234078526496887,0.078762024641036987,0.043968923389911652,0.068538092076778412,-0.076281115412712097,-0.075355544686317444,0.034667264670133591,0.027087692171335220,-0.022893857210874557,-0.055343728512525558,0.053496994078159332,0.045909900218248367,0.044955939054489136,0.033204779028892517,-0.058026194572448730,0.047203298658132553,-0.047459438443183899,0.005984757095575333,0.028682909905910492,-0.044375207275152206,-0.060590829700231552,0.038393139839172363,-0.009449215605854988,0.073953449726104736,-0.009310875087976456,0.016253469511866570,0.028430579230189323,0.006090391427278519,-0.069989606738090515,0.042216714471578598,-0.043250698596239090,-0.056617245078086853,0.078789569437503815,0.051108993589878082,0.027101075276732445,-0.018106304109096527,0.065082080662250519,0.064768731594085693,-0.036515448242425919,0.020579839125275612,-0.020297672599554062,0.034419018775224686,-0.027722561731934547,0.014062246307730675,0.017383942380547523,-0.071464940905570984,0.017716581001877785,-0.032126836478710175,0.054166853427886963,0.027168143540620804,0.055384490638971329,-0.053634855896234512,-0.030629688873887062,-0.067968398332595825,-0.067178562283515930,0.080611601471900940,-0.001087657525204122,-0.045390259474515915,-0.080846555531024933,0.066386289894580841,0.053741607815027237,-0.056380096822977066,-0.017456034198403358,0.026529751718044281,0.008881554938852787,-0.057721700519323349,-0.052390668541193008,-0.057775694876909256,-0.058462396264076233,0.072070963680744171
-0.003239145269617438,0.056831147521734238,-0.017715554684400558,-0.059202253818511963,-0.047147642821073532,0.040216781198978424,0.034804333001375198,0.021384483203291893,-0.057837277650833130,-0.002687411615625024,0.013881252147257328,-0.063740313053131104,0.057952053844928741,0.062161471694707870,0.011944323778152466,0.017342574894428253,0.056188713759183884,0.012986014597117901,-0.009902559220790863,-0.064665980637073517,0.049435690045356750,-0.033526483923196793,-0.013686406426131725,0.025973850861191750,0.052592799067497253,-0.051846243441104889,0.040785700082778931,0.058529209345579147,-0.049858052283525467,-0.047687187790870667,-0.008246959187090397,-0.032685182988643646,-0.014363355003297329,0.019280437380075455,0.044120792299509048,0.020940380170941353,0.074978455901145935,-0.019947942346334457,0.003149614902213216,0.046388126909732819,0.068646788597106934,-0.049948573112487793,-0.059492982923984528,-0.035582643002271652,0.066386207938194275,0.025474786758422852,-0.064903646707534790,0.057499039918184280,0.071291528642177582,0.013320486061275005,-0.067633934319019318,-0.054625533521175385,-0.023400951176881790,0.035667341202497482,-0.075157083570957184,-0.018483899533748627,0.013881442137062550,0.026231056079268456,0.023656263947486877,-0.010484157130122185,-0.013746988028287888,0.074325852096080780,-0.040531318634748459,0.045371912419795990,0.059255752712488174,-0.074380740523338318,0.014473726041615009,-0.041754107922315598,0.057148415595293045,0.006883386522531509,0.026406830176711082,-0.053213186562061310,-0.081019334495067596,-0.064316883683204651,0.001498480211012065,0.046114467084407806,-0.063432097434997559,-0.077709935605525970,0.085527613759040833,0.002444658894091845,0.078251235187053680,0.070972263813018799,0.076970569789409637,-0.019611552357673645,0.067816920578479767,-0.029265042394399643,0.056443493813276291
0.045857589691877365,-0.008181338198482990,0.011719744652509689,0.069954693317413330,0.043550912290811539,-0.079948216676712036,0.051213417202234268,-0.016292905434966087,-0.017340352758765221,0.009960780851542950,0.012339338660240173,-0.041125513613224030,-0.029986353591084480,0.065400049090385437,-0.073829099535942078,-0.082549266517162323,0.019614873453974724,-0.011158441193401814,0.075063869357109070,0.026819871738553047,-0.010178927332162857,-0.046247720718383789,0.069312512874603271,0.037696085870265961,0.072474099695682526,-0.076166227459907532,0.041725851595401764,-0.056491620838642120,-0.034706048667430878,-0.036388430744409561,-0.050231039524078369,-0.012376485392451286,0.081950329244136810,-0.077605374157428741,0.048487830907106400,0.059155702590942383,0.003482139902189374,0.007964248768985271,0.046056125313043594,-0.045661564916372299,0.005546192172914743,-0.087303951382637024,-0.049273930490016937,0.039245478808879852,-0.040669769048690796,0.028881832957267761,0.076052851974964142,0.046070024371147156,-0.040076449513435364,0.070958450436592102,-0.043761253356933594,0.045119415968656540,0.020579708740115166,0.003288108389824629,-0.029006550088524818,-0.043241824954748154,-0.034576945006847382,-0.038167100399732590,0.072752818465232849,-0.044146340340375900,0.017246477305889130,-0.039128806442022324,0.015081552788615227,-0.048350259661674500,0.056655410677194595,-0.065718621015548706,-0.045269314199686050,-0.049245499074459076,0.010712805204093456,-0.029331890866160393,0.072407469153404236,-0.018548758700489998,-0.063821613788604736,-0.039166811853647232,0.011382929049432278,-0.059527006000280380,0.055072832852602005,-0.083235323429107666,0.038608413189649582,0.029236234724521637,-0.085548654198646545,-0.051393680274486542,-0.055904660373926163,-0.006938175298273563,0.023286653682589531,0.029603816568851471,0.055706150829792023
-0.027879515662789345,0.026902632787823677,-0.055085115134716034,0.028124183416366577,-0.056243270635604858,0.041544016450643539,0.034047272056341171,-0.063804373145103455,0.084133535623550415,0.077061347663402557,-0.016556980088353157,0.001045626820996404,0.078542888164520264,-0.054574612528085709,-0.019917808473110199,0.012919657863676548,-0.021597240120172501,-0.030797097831964493,-0.047521669417619705,-0.013803374022245407,-0.022238152101635933,-0.044690854847431183,0.013118165545165539,-0.071372374892234802,-0.004057338926941156,0.092283599078655243,-0.034573260694742203,-0.065207645297050476,0.006887496449053288,0.022836877033114433,-0.079059422016143799,0.028714645653963089,0.043864950537681580,0.034653756767511368,0.026290904730558395,-0.063885577023029327,0.037135753780603409,0.057074241340160370,-0.072202742099761963,-0.032630052417516708,-0.043791413307189941,0.020217735320329666,0.021527569741010666,-0.012975763529539108,-0.034348044544458389,0.064990475773811340,-0.029162518680095673,-0.010313238017261028,-0.054351322352886200,0.017682453617453575,-0.005475742276757956,0.008338304236531258,0.060405995696783066,0.063453845679759979,-0.016597224399447441,-0.038842462003231049,0.058802630752325058,0.056124232709407806,0.001558999763801694,0.013859378173947334,-0.021340772509574890,0.034497935324907303,0.025325329974293709,0.062625393271446228,0.017495129257440567,-0.027089212089776993,-0.059698726981878281,-0.059531364589929581,0.011272143572568893,-0.024274162948131561,0.050424385815858841,0.003488561604171991,-0.090148121118545532,0.010900511406362057,-0.019799806177616119,0.051671557128429413,0.035279687494039536,-0.078815065324306488,0.068440914154052734,0.044046115130186081,0.057039301842451096,-0.060631286352872849,0.010373724624514580,0.005567056126892567,-0.018834630027413368,0.007762623019516468,-0.039014007896184921
0.027930315583944321,-0.013314899057149887,0.070126615464687347,0.046832479536533356,0.012693366035819054,0.028236042708158493,-0.017129611223936081,0.037052035331726074,0.074644736945629120,-0.044127728790044785,-0.046365451067686081,0.050107195973396301,-0.061911180615425110,0.036091815680265427,-0.005844429135322571,0.017369424924254417,-0.047083359211683273,0.063180036842823029,0.071946144104003906,0.079070731997489929,0.001773667172528803,0.029067974537611008,-0.022497374564409256,0.012827388010919094,-0.021693482995033264,-0.046349093317985535,0.030842388048768044,0.020507408306002617,-0.066326454281806946,-0.068417578935623169,-0.020706281065940857,0.045454677194356918,0.014372437261044979,-0.041151132434606552,0.050657421350479126,0.071586012840270996,-0.049928449094295502,0.015188907273113728,-0.035805515944957733,-0.050423849374055862,-0.013039438053965569,-0.038106210529804230,0.072626858949661255,0.088754951953887939,0.029115159064531326,-0.072676867246627808,0.015010630711913109,-0.025755371898412704,0.000816069543361664,-0.024516483768820763,-0.052581515163183212,-0.004477028734982014,0.045760478824377060,0.037855245172977448,-0.012701093219220638,0.000801770132966340,0.026339065283536911,0.031446933746337891,0.019580988213419914,0.064757518470287323,-0.062548495829105377,0.014487124979496002,-0.077077440917491913,0.004554980900138617,0.032915249466896057,0.053025890141725540,-0.079942643642425537,-0.052745074033737183,0.041567221283912659,0.023412235081195831,0.001211049035191536,0.009587243199348450,-0.085216037929058075,-0.068407230079174042,-0.018886920064687729,-0.003194840857759118,0.037619151175022125,-0.027868332341313362,0.005188061390072107,0.018757160753011703,-0.019644182175397873,-0.049162857234477997,-0.061957933008670807,-0.052838787436485291,0.075742624700069427,-0.005381759721785784,-0.044760156422853470
0.011372847482562065,-0.075593501329421997,-0.048601754009723663,0.044331301003694534,-0.069748103618621826,0.060480508953332901,-0.062012437731027603,0.077294021844863892,0.031961638480424881,-0.004492654465138912,0.002550094388425350,0.057576674968004227,0.013301733881235123,0.073575757443904877,0.081353433430194855,-0.001622257172130048,0.040365513414144516,-0.062871456146240234,0.080828949809074402,0.061935391277074814,0.027525456622242928,-0.077645011246204376,-0.065107643604278564,-0.027231980115175247,0.009098268114030361,-0.062690228223800659,0.017110014334321022,-0.007660559378564358,-0.075105272233486176,0.017003340646624565,-0.016218176111578941,-0.032705973833799362,0.009012947790324688,-0.036337785422801971,0.002014707541093230,0.025517182424664497,-0.023780092597007751,0.028030477464199066,-0.003965048119425774,-0.070620328187942505,0.027407778427004814,-0.073879927396774292,-0.032543640583753586,0.063263773918151855,-0.025402389466762543,0.048911865800619125,-0.075249746441841125,0.045801255851984024,0.023258838802576065,-0.061716936528682709,0.077894680202007294,-0.055067718029022217,-0.025995256379246712,-0.044799637049436569,0.040363118052482605,-0.048424825072288513,0.013548032380640507,-0.074434943497180939,0.027139309793710709,-0.010844309814274311,0.032479666173458099,0.041501101106405258,0.048438306897878647,0.064137145876884460,0.082397192716598511,0.061084773391485214,0.060495320707559586,-0.056855823844671249,-0.022103922441601753,-0.075086690485477448,-0.004746286198496819,0.040134560316801071,-0.016059979796409607,-0.023618411272764206,0.013990855775773525,-0.037733722478151321,0.054855927824974060,-0.083769008517265320,0.034499283879995346,0.025114227086305618,0.066684246063232422,-0.054152332246303558,-0.014373038895428181,0.071694627404212952,0.062536992132663727,0.044200260192155838,0.079160206019878387
0.015145228244364262,-0.000245314178755507,0.034163236618041992,-0.082494072616100311,0.037533417344093323,0.047204308211803436,-0.073074825108051300,0.030956450849771500,-0.012184118852019310,-0.042886059731245041,-0.071220599114894867,0.058832697570323944,-0.057392287999391556,0.049655545502901077,-0.037432555109262466,0.061726976186037064,-0.086065486073493958,-0.028112206608057022,0.061836212873458862,-0.054627165198326111,0.035972993820905685,0.062223341315984726,0.047517906874418259,-0.043813664466142654,-0.056400515139102936,-0.062852650880813599,0.074453458189964294,0.019853675737977028,-0.020632807165384293,0.025203807279467583,0.040726527571678162,0.014613011851906776,-0.069537542760372162,-0.063419796526432037,0.077127933502197266,0.053753551095724106,-0.032168470323085785,0.013806176371872425,0.041550245136022568,0.037150595337152481,-0.045273270457983017,-0.004974689800292253,0.072184883058071136,-0.045191202312707901,0.065565861761569977,-0.051487997174263000,-0.052945505827665329,0.038152758032083511,0.078388974070549011,-0.061980970203876495,0.044360443949699402,-0.029154229909181595,0.049087159335613251,0.071195036172866821,-0.057483050972223282,0.023064466193318367,-0.014543631114065647,-0.089878991246223450,-0.078525498509407043,0.037336364388465881,-0.061215221881866455,0.035599604249000549,-0.059072192758321762,0.000989327090792358,0.057936474680900574,-0.031818505376577377,-0.032155748456716537,-0.041981205344200134,0.021484728902578354,-0.063067063689231873,0.036912020295858383,0.071900956332683563,0.044214822351932526,-0.023617770522832870,0.053619135171175003,0.063286669552326202,0.035309594124555588,0.076845221221446991,-0.011607266962528229,0.018840983510017395,-0.003931729122996330,0.013759912922978401,-0.031432282179594040,0.077527076005935669,0.084217473864555359,-0.017975665628910065,0.016321541741490364
0.069458387792110443,-0.013616842217743397,-0.053599357604980469,0.077804721891880035,-0.082827202975749969,0.039290167391300201,0.003619284601882100,-0.000173599910340272,-0.052066303789615631,0.034409329295158386,-0.015202237293124199,-0.088710390031337738,-0.042175997048616409,0.069790638983249664,0.072760097682476044,-0.047601703554391861,-0.019617116078734398,-0.035649973899126053,-0.040517874062061310,0.075777083635330200,-0.060403030365705490,-0.086817808449268341,-0.034835841506719589,-0.047142211347818375,0.012835471890866756,-0.050389789044857025,-0.016886582598090172,0.052227180451154709,-0.054385609924793243,-0.020306838676333427,-0.054281439632177353,-0.033076357096433640,0.016207111999392509,0.038946431130170822,0.065748937427997589,0.006756003946065903,-0.020869052037596703,0.048862498253583908,0.006256677675992250,0.042044881731271744,0.065079174935817719,0.007682030554860830,-0.033068608492612839,-0.021613612771034241,0.041519701480865479,-0.000736888439860195,0.049319740384817123,-0.019568223506212234,-0.074214532971382141,-0.080710284411907196,-0.002073689596727490,0.021367369219660759,0.036498107016086578,-0.072246998548507690,0.003940298687666655,-0.069379910826683044,-0.010468618944287300,-0.042250756174325943,-0.089701503515243530,0.059230335056781769,0.041872717440128326,-0.050443671643733978,-0.007282810751348734,-0.008770333603024483,0.064524918794631958,-0.067195802927017212,0.047684729099273682,0.000223206996452063,-0.096401609480381012,0.045677646994590759,-0.024496681988239288,-0.066563919186592102,0.064196147024631500,-0.034816861152648926,0.056990321725606918,0.023840550333261490,-0.007667909841984510,-0.022770509123802185,0.062118101865053177,0.000594232231378555,0.057277683168649673,0.022250743582844734,0.056711383163928986,0.008906478062272072,-0.064411789178848267,0.052607703953981400,0.069270029664039612
-0.031588207930326462,-0.068397715687751770,0.080269441008567810,-0.019392736256122589,0.062360830605030060,-0.065809160470962524,0.041479431092739105,0.052754402160644531,-0.019980318844318390,0.005711668636649847,0.055334415286779404,-0.038879707455635071,0.028156833723187447,-0.036787401884794235,0.009815491735935211,-0.060833603143692017,-0.063627429306507111,0.079958595335483551,0.078477233648300171,0.078977420926094055,0.074314057826995850,-0.044020198285579681,0.020345440134406090,-0.068649135529994965,0.067621685564517975,0.014666163362562656,-0.000958018878009170,0.067602016031742096,0.035609323531389236,-0.073406547307968140,-0.040803756564855576,-0.060454845428466797,-0.070982269942760468,0.051198214292526245,0.040566530078649521,-0.066424787044525146,0.046716198325157166,-0.090007491409778595,0.030533056706190109,-0.014700637198984623,-0.016507815569639206,0.064725697040557861,-0.074656851589679718,-0.061862908303737640,-0.073163554072380066,-0.064390160143375397,-0.021594194695353508,-0.029680503532290459,-0.030045732855796814,0.010241617448627949,-0.026117010042071342,0.005256276577711105,-0.058312598615884781,-0.079437874257564545,0.059456050395965576,0.021809654310345650,0.000396911171264946,0.050071280449628830,-0.044322147965431213,-0.018252843990921974,-0.070596791803836823,-0.061995569616556168,-0.006333570461720228,-0.012740825302898884,0.064715728163719177,-0.070083543658256531,-0.048775002360343933,-0.026417067274451256,0.042128436267375946,-0.063840128481388092,0.037431303411722183,0.017382171005010605,0.008581356145441532,-0.052232000976800919,-0.026362909004092216,0.065569318830966949,0.021522682160139084,0.054484836757183075,-0.006756534799933434,0.031654119491577148,0.036737255752086639,-0.025062032043933868,-0.069524109363555908,0.069866776466369629,0.081432022154331207,-0.070242263376712799,-0.069728799164295197
-0.050614155828952789,-0.040293812751770020,-0.004072677809745073,0.020132418721914291,0.032805565744638443,-0.004910242743790150,0.022407110780477524,-0.024632873013615608,-0.056240558624267578,0.029583277180790901,0.044178042560815811,-0.068604923784732819,-0.011011506430804729,-0.005564309656620026,0.040161706507205963,0.073565207421779633,-0.045531615614891052,0.019286066293716431,0.062083791941404343,-0.030401289463043213,0.046296648681163788,-0.010710448026657104,-0.045004934072494507,0.028808275237679482,-0.035211306065320969,0.082297258079051971,-0.053884305059909821,0.006270548328757286,-0.055086251348257065,-0.064380243420600891,0.012561522424221039,0.036478213965892792,-0.030662409961223602,0.064377084374427795,-0.055259890854358673,-0.050915822386741638,-0.065175399184226990,0.078707069158554077,0.023643016815185547,-0.045563243329524994,0.032177001237869263,0.082349412143230438,-0.004000319633632898,0.072769038379192352,0.082243978977203369,-0.055832426995038986,0.077175937592983246,0.064928613603115082,0.044563896954059601,-0.017409846186637878,-0.071235418319702148,0.012533065862953663,-0.019930275157094002,-0.077053114771842957,0.015656776726245880,0.028566287830471992,-0.050709351897239685,0.038238763809204102,-0.030079534277319908,0.062212415039539337,0.079094223678112030,-0.080704018473625183,-0.033600028604269028,0.037014305591583252,0.052074301987886429,-0.017591277137398720,-0.020667821168899536,-0.073015034198760986,0.031809918582439423,0.053601466119289398,0.074478395283222198,0.080997742712497711,-0.077241167426109314,0.008249789476394653,-0.044454898685216904,0.040211878716945648,-0.074177376925945282,-0.028971076011657715,-0.022437619045376778,-0.073296144604682922,0.015452190302312374,0.039012521505355835,0.067629873752593994,0.042274523526430130,-0.042358119040727615,-0.076457381248474121,0.081153437495231628
0.056458376348018646,-0.070538617670536041,-0.047180805355310440,0.024572394788265228,-0.073115594685077667,0.044638283550739288,0.012484304606914520,-0.059503857046365738,0.058597393333911896,0.036372542381286621,-0.055578865110874176,0.023913249373435974,0.058846823871135712,0.030539825558662415,0.050492338836193085,-0.055501848459243774,-0.069089211523532867,-0.036140367388725281,0.078846566379070282,0.043623395264148712,0.040659479796886444,0.038787320256233215,0.027359366416931152,-0.043917767703533173,-0.020880762487649918,-0.047215294092893600,-0.029293268918991089,0.020963400602340698,-0.018008761107921600,-0.056536160409450531,-0.043534234166145325,0.025423683226108551,-0.036275539547204971,0.048636235296726227,-0.076773226261138916,0.070758201181888580,-0.035764053463935852,-0.046172197908163071,0.042443223297595978,-0.012695208191871643,-0.057250313460826874,-0.027112644165754318,-0.077638827264308929,-0.051495980471372604,0.019985362887382507,0.004056997597217560,0.028150416910648346,0.035470336675643921,0.010840184986591339,-0.008177578449249268,0.014606848359107971,-0.025381274521350861,0.025859676301479340,-0.072452813386917114,0.005403488874435425,0.044838197529315948,-0.055885702371597290,0.031541645526885986,0.068435616791248322,-0.004750043153762817,0.054406069219112396,0.024249985814094543,-0.000505924224853516,0.050440795719623566,0.047265954315662384,-0.017045110464096069,-0.016828060150146484,0.007755458354949951,-0.069223292171955109,-0.009466663002967834,0.026179552078247070,-0.035866517573595047,-0.006157852709293365,-0.039644859731197357,-0.048419982194900513,0.045301772654056549,-0.076296910643577576,-0.038299400359392166,0.048914037644863129,-0.043084446340799332,0.041836008429527283,-0.049822513014078140,0.045057825744152069,0.080917529761791229,-0.020967435091733932,-0.068347133696079254,0.066107340157032013
